{"version":"0.5.4","metadata":{"date":{"year":2026,"month":1,"day":18,"hour":1,"minute":50,"second":36},"loudness":-27.089345932006836,"gain":0.9361946203925873,"name":"V30-MJVM-6","modeled_by":"lum","gear_type":"amp_cab","gear_make":"tz-make","gear_model":"tz-model","tone_type":"overdrive","input_level_dbu":null,"output_level_dbu":null,"training":{"settings":{"ignore_checks":false},"data":{"latency":{"manual":null,"calibration":{"algorithm_version":1,"delays":[2],"safety_factor":1,"recommended":1,"warnings":{"matches_lookahead":false,"disagreement_too_high":false}}},"checks":{"version":3,"passed":true}},"validation_esr":0.007179790447517786}},"architecture":"WaveNet","config":{"layers":[{"input_size":1,"condition_size":1,"head_size":8,"channels":16,"kernel_size":3,"dilations":[1,2,4,8,16,32,64,128,256,512],"activation":"Tanh","gated":false,"head_bias":false},{"input_size":16,"condition_size":1,"head_size":1,"channels":8,"kernel_size":3,"dilations":[1,2,4,8,16,32,64,128,256,512],"activation":"Tanh","gated":false,"head_bias":true}],"head":null,"head_scale":0.02},"weights":[-0.21177825331687927,0.5543344616889954,-1.0831753015518188,-0.7062932252883911,-0.2935839593410492,0.4231947660446167,-0.085363008081913,0.9078143835067749,-0.12456908822059631,0.31587713956832886,-0.33646637201309204,-0.2853628396987915,-1.082404613494873,-0.7054163813591003,-0.44188687205314636,0.19075922667980194,0.1140274778008461,0.11428716033697128,-0.05320107191801071,-0.10800525546073914,-0.11353330314159393,0.14028947055339813,0.02559502050280571,0.2942427694797516,-0.03853457421064377,0.06980933248996735,0.311568021774292,-0.1497110277414322,-0.05759642645716667,0.12110362201929092,-0.08265384286642075,0.07809259742498398,-0.2685125470161438,-0.03559738025069237,-0.0832037553191185,-0.03807453438639641,-0.08928462862968445,0.06834762543439865,-0.12310069799423218,0.0832517072558403,0.030959967523813248,0.06548848003149033,-0.031262002885341644,-0.17017945647239685,-0.26336780190467834,-0.04317696392536163,0.13091541826725006,0.2557942569255829,-0.09224245697259903,0.0289531908929348,0.25152215361595154,0.10524389892816544,0.11367213726043701,0.20568391680717468,0.08465578407049179,-0.031205883249640465,0.20978209376335144,-0.12808191776275635,-0.04879000410437584,0.10376834124326706,0.04436758533120155,0.022719332948327065,-0.24078556895256042,0.08854840695858002,0.03939598426222801,-0.015547789633274078,-0.18579737842082977,-0.13232854008674622,-0.10272818058729172,0.36387062072753906,0.06600367277860641,0.1555010974407196,-0.16751378774642944,0.29053258895874023,0.3299259841442108,-0.09638378024101257,0.18086494505405426,0.05732949823141098,-0.2097446769475937,-0.25389498472213745,-0.32994383573532104,0.3769334554672241,0.17794887721538544,-0.04344186559319496,-0.21932628750801086,-0.20076686143875122,-0.2335328310728073,0.1551714390516281,0.17800891399383545,0.06805028766393661,-0.2301849126815796,-0.08331383764743805,-0.0831649973988533,0.2993873655796051,0.011593404226005077,0.09910324215888977,-0.16451208293437958,0.17295537889003754,0.06395162642002106,-0.3413548469543457,0.3144817352294922,0.3079909086227417,-0.28280556201934814,0.13645637035369873,0.06970257312059402,-0.22675968706607819,0.05741994082927704,0.0869947224855423,-0.2411312311887741,-0.10453973710536957,-0.2223576158285141,0.37795743346214294,0.02058512717485428,0.05558894947171211,-0.017333604395389557,-0.34137994050979614,0.04726054519414902,0.23479898273944855,0.23946253955364227,-0.06123457849025726,-0.18605798482894897,0.22244079411029816,-0.1651800572872162,-0.1613285392522812,0.09356456995010376,-0.15587380528450012,-0.2509930729866028,-0.30002859234809875,0.035285819321870804,0.10342442989349365,0.16253231465816498,-0.0481356643140316,-0.15945088863372803,-0.22604525089263916,0.19852764904499054,0.221934512257576,0.2604817748069763,-0.060111671686172485,-0.13239696621894836,-0.14643052220344543,0.20905159413814545,0.2979001998901367,0.36519965529441833,-0.09540241956710815,-0.34563204646110535,0.165768563747406,0.0202932246029377,-0.20053014159202576,0.14494699239730835,-0.2070048302412033,-0.3748333156108856,0.09607639163732529,-0.12369272857904434,-0.1515842080116272,0.29952964186668396,-0.22780802845954895,-0.13514597713947296,-0.3803948760032654,0.025596918538212776,0.09701436012983322,-0.1371549665927887,-0.13222749531269073,-0.1112341657280922,-0.029406072571873665,0.028907082974910736,-0.23696458339691162,-0.15383891761302948,0.006348333787173033,0.1156689003109932,-0.0974259078502655,0.08233999460935593,0.17944461107254028,0.021070655435323715,-0.014555634930729866,0.08212096989154816,0.18576796352863312,0.03582000359892845,-0.301729679107666,-0.04653806611895561,-0.1816771924495697,0.11454170942306519,0.05915837362408638,0.14906620979309082,-0.20038191974163055,-0.05317414179444313,-0.031604815274477005,0.15796825289726257,0.08043942600488663,-0.05555256828665733,-0.14809627830982208,0.01514261681586504,0.04315975308418274,0.11991707235574722,-0.09912439435720444,-0.1584526151418686,0.13830627501010895,-0.1716058850288391,0.006567788310348988,0.16065853834152222,-0.09270679205656052,-0.0379125215113163,0.33202600479125977,-0.20156270265579224,-0.15031103789806366,0.14828406274318695,0.23179876804351807,0.017335519194602966,-0.07756312191486359,-0.09849295020103455,-0.14133615791797638,0.08377702534198761,0.06001416966319084,0.29015839099884033,-0.17100027203559875,-0.09546587616205215,-0.27897965908050537,0.02766333520412445,-0.17114396393299103,-0.1730574071407318,0.023855628445744514,-0.08211664855480194,-0.12199220806360245,0.1863986998796463,0.08774740993976593,0.16022485494613647,-0.09836612641811371,-0.16360926628112793,-0.20194508135318756,0.16098922491073608,0.0734609067440033,0.29824167490005493,-0.018494799733161926,-0.03881419822573662,-0.11776365339756012,0.3002064824104309,-0.00745911430567503,0.3371690809726715,-0.26689448952674866,-0.14204111695289612,-0.24145154654979706,0.2019844353199005,0.03529979661107063,-0.31118568778038025,0.1799425333738327,-0.02300541289150715,-0.4347113072872162,0.24046792089939117,-0.21310682594776154,-0.2887002229690552,0.11651943624019623,-0.16313885152339935,-0.26635831594467163,0.2694741189479828,0.03171638026833534,0.1709635853767395,-0.284508615732193,-0.13298754394054413,0.11460499465465546,-0.07299026101827621,-0.12123996019363403,-0.08691716939210892,0.16121627390384674,0.0942179337143898,0.10023392736911774,-0.03460985794663429,-0.030130546540021896,-0.05037016049027443,-0.03688414767384529,0.15514256060123444,0.05063639208674431,-0.13643740117549896,-0.09893424063920975,-0.1370428055524826,0.0959572121500969,0.009798213839530945,-0.09674966335296631,0.19584214687347412,-0.11301949620246887,-0.005187658127397299,0.12507042288780212,0.0706682875752449,-0.05998918041586876,-0.1270143985748291,0.07236902415752411,0.009372471831738949,0.17496754229068756,-0.015315400436520576,0.042577095329761505,-0.09632857888936996,0.035944629460573196,-0.07777891308069229,0.0026352577842772007,0.06391815096139908,-0.01424360927194357,-0.11880046874284744,-0.06814440339803696,0.08991316705942154,-0.1870628446340561,0.08319386094808578,-0.05333089828491211,-0.14284858107566833,-0.05349575728178024,-0.11219628155231476,0.02804057113826275,0.01911710388958454,-0.14860199391841888,-0.04657675325870514,-0.04049328342080116,0.08940790593624115,0.09149839729070663,-0.01943935453891754,-0.07026969641447067,-0.07014534622430801,0.04311814159154892,0.008787503466010094,-0.015459814108908176,0.03863779455423355,-0.02404765971004963,-0.04082345962524414,-0.09948859363794327,0.04825372248888016,0.11780177801847458,-0.0047456794418394566,0.0035204447340220213,0.11592955887317657,0.03002692200243473,0.13198140263557434,0.13528254628181458,0.20779594779014587,-0.0691259428858757,-0.16799646615982056,-0.2441539466381073,0.16571800410747528,0.17976240813732147,0.010668082162737846,0.018848346546292305,0.011491961777210236,0.2607477903366089,0.09843483567237854,0.02832774631679058,0.06555492430925369,-0.09686075150966644,0.00039210577961057425,0.1803881675004959,-0.1316794902086258,0.017893873155117035,0.17197993397712708,0.037065908312797546,-0.1977032870054245,-0.10894808918237686,-0.055330339819192886,0.1536027193069458,-0.04249751567840576,0.12374738603830338,0.006182154640555382,0.17113438248634338,0.006494683679193258,0.1702200323343277,-0.22126922011375427,-0.03504374995827675,-0.20451992750167847,-0.2585057020187378,-0.18285004794597626,0.010653452947735786,-0.015769517049193382,0.0954243540763855,0.031845349818468094,-0.021222740411758423,-0.0394040122628212,0.06812626868486404,-0.10542358458042145,0.06970568001270294,-0.1355629414319992,0.04805808514356613,-0.07049330323934555,0.023782458156347275,0.05518242344260216,0.1007007360458374,0.05895731598138809,0.20632047951221466,0.17631895840168,0.04919297993183136,-0.03762926906347275,0.07288004457950592,-0.04082533344626427,0.05479735508561134,0.030214302241802216,0.015612908639013767,-0.1715819388628006,-0.0026400513015687466,-0.09417986869812012,-0.15018869936466217,-0.15031111240386963,-0.18533633649349213,-0.22231127321720123,0.03632905334234238,0.006913806311786175,0.04389619082212448,-0.051561228930950165,0.15994146466255188,0.10914454609155655,0.02649722807109356,0.04942401498556137,0.2147321105003357,0.14927959442138672,-0.16491974890232086,0.0465734601020813,0.006823152303695679,-0.0020222931634634733,-0.006102175917476416,-0.18263648450374603,0.032743796706199646,0.05700715258717537,-0.06981641799211502,-0.041361916810274124,0.030273834243416786,0.05283111706376076,-0.10340792685747147,0.002647619927302003,0.06999196112155914,0.13882291316986084,0.00040065826033242047,0.11047231405973434,0.017882350832223892,0.03391827642917633,-0.18454651534557343,0.0969872772693634,-0.03768465667963028,0.02357119880616665,-0.026699231937527657,-0.1769862323999405,-0.039383985102176666,0.19003967940807343,-0.051382876932621,-0.17423425614833832,0.03991023078560829,-0.06123260036110878,-0.2157190889120102,0.11968787759542465,-0.2176140397787094,-0.24004793167114258,-0.08474519103765488,-0.10976548492908478,0.004763629287481308,-0.07186968624591827,0.1587781459093094,0.006185355596244335,-0.09508153051137924,0.016448475420475006,-0.12297052890062332,0.2033863216638565,0.1518111228942871,0.3088890612125397,-0.03376027196645737,-0.1805340051651001,-0.06385062634944916,0.11301732808351517,-0.013614591211080551,-0.2954695522785187,0.06560476869344711,-0.20364020764827728,-0.21230003237724304,0.138203963637352,-0.03989666700363159,0.21969205141067505,-0.05433826893568039,0.05031905695796013,-0.16007521748542786,0.08881082385778427,0.03992907330393791,0.24864378571510315,0.03855683282017708,0.04694743826985359,-0.14802201092243195,0.22588008642196655,-0.0783492848277092,0.03849798068404198,-0.06363710761070251,-0.14757075905799866,-0.0997757613658905,0.021608786657452583,-0.12631559371948242,-0.2745472192764282,0.21889446675777435,-0.1003943383693695,-0.07400961965322495,0.19195562601089478,-0.00162544846534729,-0.17703735828399658,0.06344224512577057,-0.10941395163536072,-0.15719182789325714,0.18632347881793976,-0.062194887548685074,0.26541996002197266,-0.20349012315273285,-0.1564762443304062,0.0034366282634437084,-0.09940101951360703,0.03125770390033722,-0.3795487880706787,0.30833545327186584,0.1738358438014984,0.3420329988002777,-0.08114977180957794,0.02300327643752098,0.29903191328048706,-0.1465682089328766,0.03834173455834389,0.27847176790237427,-0.2440672218799591,0.0015428898623213172,-0.28151586651802063,0.1756180226802826,0.0903620794415474,0.19797176122665405,-0.3177144229412079,-0.09039855003356934,-0.17428217828273773,0.18567903339862823,0.09234759211540222,0.161583811044693,-0.2200925201177597,-0.19253462553024292,-0.32220664620399475,0.15721777081489563,0.21543444693088531,0.2031923532485962,-0.21686457097530365,0.002411177847534418,0.3673897981643677,-0.10196410864591599,-0.0013622354017570615,0.14232409000396729,-0.30800729990005493,0.10093805193901062,0.21734823286533356,-0.29872021079063416,0.041904330253601074,0.27239805459976196,-0.28736817836761475,-0.029816480353474617,-0.2364678978919983,0.2089112550020218,0.22523735463619232,0.34826895594596863,0.15919767320156097,-0.01781417615711689,-0.19828186929225922,-0.23958563804626465,-0.1103091761469841,0.022013816982507706,0.5377811789512634,-0.06002753600478172,0.1858970671892166,0.37040165066719055,-0.023120813071727753,0.10316005349159241,0.45579150319099426,-0.018809448927640915,-0.2966712415218353,-0.47201108932495117,-0.0394674614071846,0.17386557161808014,0.07666180282831192,0.11337503790855408,-0.18841718137264252,-0.4122917950153351,0.12383681535720825,0.20358812808990479,0.4632025361061096,0.061949264258146286,-0.18897879123687744,-0.4704063832759857,0.015423368662595749,0.2772347331047058,0.32885119318962097,-0.10329468548297882,0.21712219715118408,0.5135740637779236,-0.016027048230171204,0.03613293543457985,0.25856897234916687,0.061826564371585846,0.14372165501117706,0.309817910194397,0.05149761214852333,0.20662137866020203,0.4935288727283478,0.09260165691375732,-0.16001038253307343,-0.4746911823749542,-0.11112947762012482,0.14513534307479858,-0.10636415332555771,-0.1207839772105217,-0.28944259881973267,0.28608494997024536,0.32809683680534363,0.30611157417297363,-0.27258896827697754,0.13253286480903625,0.07330279052257538,-0.015130135230720043,0.10451457649469376,0.08649960905313492,-0.07759162038564682,-0.24400348961353302,-0.23324579000473022,0.1601564735174179,0.04918220266699791,-0.059315890073776245,-0.08855439722537994,-0.2549169361591339,-0.12595897912979126,0.2736724317073822,0.2032904475927353,0.13830527663230896,-0.08874925225973129,-0.1536949872970581,-0.2252778559923172,0.3069690465927124,0.20595002174377441,0.02276034653186798,-0.20353209972381592,0.05709267407655716,0.2699061334133148,-0.21000239253044128,0.06327935308218002,0.16978663206100464,-0.05528302118182182,0.22624148428440094,0.22017185389995575,-0.13748972117900848,0.2326641082763672,0.12859122455120087,-0.21892033517360687,-0.27524542808532715,-0.23681165277957916,0.27980685234069824,-0.13298434019088745,0.0013502592919394374,-0.07896044105291367,-0.01167029608041048,-0.17159296572208405,0.12470980733633041,-0.05139186978340149,0.20740315318107605,-0.09089992940425873,-0.0061653428710997105,0.16639959812164307,-0.042537521570920944,0.13054193556308746,-0.035456378012895584,-0.11582229286432266,-0.08358894288539886,-0.05454135686159134,0.13164599239826202,-0.11325494945049286,0.11671170592308044,-0.11295870691537857,-0.06232847273349762,0.016048818826675415,-0.13399872183799744,-0.005784876644611359,0.17415383458137512,-0.06959400326013565,0.10614759474992752,-0.11390857398509979,0.12472975254058838,-0.12402036041021347,0.05711634084582329,-0.02253900282084942,0.047430675476789474,0.12133876234292984,0.08907065540552139,0.011508742347359657,0.08713045716285706,0.12450253963470459,-0.01114993542432785,0.21593038737773895,-0.07837855815887451,0.00740029476583004,0.07228223234415054,0.07344800233840942,0.1284090280532837,-0.07138785719871521,-0.05463991314172745,-0.1061519905924797,-0.11260954290628433,-0.0036825528368353844,0.05776578187942505,0.2897675335407257,0.15538188815116882,-0.14515157043933868,-0.3461211621761322,0.0799759030342102,-0.26108020544052124,-0.17438752949237823,0.0015154924476519227,-0.1971106231212616,-0.1346743255853653,-0.14259430766105652,0.1766197234392166,0.10780499130487442,-0.013989599421620369,-0.07627803087234497,-0.040723588317632675,-0.07244346290826797,0.24593697488307953,0.1910383254289627,-0.04865317791700363,-0.232915997505188,-0.296096533536911,0.17284542322158813,0.10386265814304352,0.20449168980121613,0.04371007904410362,-0.04591819643974304,-0.08027075231075287,0.10637789964675903,-0.23543596267700195,-0.21005922555923462,-0.07622882723808289,-0.23812788724899292,-0.17604658007621765,0.11272349953651428,-0.26611068844795227,-0.11897081881761551,-0.09296153485774994,-0.17099572718143463,-0.08247639983892441,-0.04092049598693848,0.1279592216014862,0.07653050124645233,0.08937909454107285,-0.046786826103925705,-0.09421269595623016,0.1438329815864563,0.007823161780834198,0.022705404087901115,-0.08049555122852325,-0.008526227436959743,-0.19301967322826385,0.14555618166923523,0.004700572229921818,-0.05224667862057686,0.004820128437131643,-0.10919412970542908,-0.17128407955169678,-0.02394956164062023,0.10908641666173935,0.2428884208202362,0.02563241310417652,0.024407051503658295,0.014928149990737438,0.07292910665273666,0.2293955683708191,0.0919356420636177,-0.17832529544830322,-0.0432320162653923,0.0014654113911092281,0.0020728372037410736,0.2284446656703949,0.17773322761058807,-0.20216034352779388,-0.13584719598293304,-0.013046428561210632,-0.02044473960995674,-0.12984474003314972,-0.06889227032661438,-0.015662679448723793,-0.04488115385174751,-0.07849456369876862,0.16433821618556976,-0.21009507775306702,-0.004314064048230648,-0.005013623740524054,0.03369617089629173,-0.27596527338027954,-0.03970924764871597,0.15107250213623047,0.09423598647117615,-0.12886029481887817,-0.05307125672698021,-0.02396409586071968,-0.1852514147758484,-0.011009803041815758,-0.04281634837388992,-0.07128559052944183,-0.07422438263893127,-0.002578545594587922,0.1547633707523346,0.10120851546525955,-0.0127760274335742,0.1489284634590149,0.012851548381149769,-0.014156900346279144,-0.06381762772798538,0.022757647559046745,0.4484500586986542,-0.2216750532388687,1.0489565134048462,-0.9540351629257202,-0.11830326169729233,0.9986686706542969,1.1245509386062622,-0.45958927273750305,0.14364144206047058,0.030044877901673317,-0.2848878800868988,-0.7388845086097717,0.40422365069389343,-0.73494952917099,0.19865676760673523,0.3689589202404022,0.02314670756459236,0.4124729037284851,0.1259564906358719,0.1438211351633072,0.09018145501613617,-0.029501017183065414,0.1653749942779541,-0.2026471495628357,-0.1393764615058899,-0.15895333886146545,0.23467454314231873,-0.48042649030685425,0.4084470570087433,-0.017502261325716972,0.1586766391992569,-0.07233419269323349,0.1415046602487564,-0.027087310329079628,-0.4479931592941284,0.10898991674184799,-0.1665293574333191,-0.08279328048229218,-0.21291452646255493,0.042942389845848083,-0.17649266123771667,-0.0224900059401989,0.18829761445522308,0.37559592723846436,0.12115783244371414,0.10093763470649719,-0.2134697288274765,0.0077857449650764465,0.2164355367422104,0.28075236082077026,-0.30927637219429016,0.4472787380218506,-0.34529393911361694,-0.4437282383441925,-0.18193289637565613,-0.3823293447494507,-0.26469773054122925,-0.35015562176704407,0.40463200211524963,-0.12727363407611847,0.37051746249198914,0.5348135828971863,-0.13466839492321014,-0.2605758607387543,0.1634824126958847,-0.09485740959644318,-0.13300780951976776,-0.2096615880727768,-0.06725428253412247,0.04406358674168587,-0.034886859357357025,0.030648626387119293,-0.23850348591804504,-0.030321065336465836,0.0034702857956290245,0.1104298084974289,0.11014695465564728,0.21052870154380798,-0.2562977969646454,-0.062401313334703445,-0.3166067898273468,-0.44373923540115356,-0.25162339210510254,0.42153072357177734,0.5256198644638062,-0.1255713403224945,0.057806745171546936,-0.12861821055412292,0.1102123036980629,0.4184228777885437,-0.4923573136329651,0.4764932096004486,-0.3311850130558014,0.17242087423801422,0.09550834447145462,0.17565806210041046,-0.2583349943161011,-0.18022891879081726,0.3150494694709778,0.049366191029548645,0.41737034916877747,0.35243457555770874,0.36394065618515015,0.29436129331588745,0.29484692215919495,0.11939291656017303,-0.35087957978248596,-0.20519384741783142,-0.1905132234096527,-0.252352774143219,0.37613052129745483,0.30780839920043945,0.2873570919036865,0.4082608222961426,0.12974941730499268,0.19434811174869537,-0.5389703512191772,-0.2626650333404541,-0.03712143748998642,-0.1973983198404312,-0.14042651653289795,-0.5326403379440308,0.15576763451099396,0.14883637428283691,0.5197601914405823,-0.027819467708468437,-0.21541807055473328,-0.42486828565597534,0.269045889377594,0.0701906681060791,0.49886301159858704,-0.342569500207901,-0.2555641233921051,0.46955928206443787,0.4199814796447754,0.1682279407978058,0.15452757477760315,-0.22349242866039276,0.26876044273376465,-0.44471630454063416,0.15092208981513977,-0.22428137063980103,-0.052897583693265915,0.09284935891628265,0.12798601388931274,0.18593887984752655,-0.46939870715141296,-0.03534046933054924,-0.08969951421022415,-0.250845342874527,-0.33335649967193604,-0.33091941475868225,-0.5120536684989929,-0.47646719217300415,0.4119078516960144,0.20862527191638947,0.20679907500743866,0.1597948670387268,-0.20114049315452576,-0.25366315245628357,-0.01730947196483612,0.256145179271698,0.22685596346855164,-0.46930021047592163,-0.6312626600265503,0.19259291887283325,0.10952195525169373,-0.2901197373867035,0.01645778864622116,-0.048186033964157104,0.40609243512153625,0.014154491946101189,0.5511199235916138,0.13252884149551392,-0.5734238624572754,-0.2139739841222763,0.18596452474594116,0.3520420789718628,-0.46492069959640503,0.17869319021701813,-0.27189093828201294,-0.2949211597442627,-0.06046224758028984,-0.16076530516147614,-0.07912057638168335,-0.2876603603363037,0.017247749492526054,0.03089873678982258,0.07894431054592133,0.2534140646457672,-0.20204830169677734,0.015928003937005997,-0.019874179735779762,-0.22410418093204498,-0.10186295211315155,0.24475978314876556,0.12198164314031601,-0.2967422902584076,-0.21495109796524048,0.010771889239549637,-0.07241269946098328,-0.15836697816848755,-0.10341370850801468,-0.20308464765548706,-0.2676013112068176,0.25770846009254456,-0.14015275239944458,-0.14488081634044647,-0.10616485029459,-0.014864347875118256,0.04397961124777794,0.05358932167291641,0.13556887209415436,-0.2737363278865814,-0.04904744401574135,-0.037614136934280396,0.167049840092659,-0.006163264624774456,-0.1851259022951126,0.10885868966579437,0.19563475251197815,-0.12079286575317383,-0.1617443561553955,0.07449110597372055,0.11214274913072586,-0.18360507488250732,-0.42792239785194397,0.33712777495384216,-0.12849067151546478,-0.09699734300374985,-0.037134356796741486,-0.17760324478149414,-0.22846508026123047,-0.23934535682201385,0.012781417928636074,0.2830933928489685,-0.221587672829628,0.1758936643600464,-0.3601333200931549,-0.055866993963718414,0.08211209625005722,0.4502652883529663,-0.1715584099292755,-0.14069989323616028,-0.15482676029205322,-0.0513654462993145,0.02951166033744812,-0.10443227738142014,-0.3687766194343567,-0.08930117636919022,0.24643197655677795,-0.010177109390497208,0.4034169316291809,0.25418680906295776,-0.354017436504364,-0.18147686123847961,0.009962119162082672,-0.1151590570807457,0.5359988212585449,-0.25931864976882935,0.13429832458496094,0.6107625961303711,0.40014100074768066,0.4197152853012085,0.06542471051216125,0.03560629487037659,-0.16335387527942657,-0.55084228515625,-0.021901728585362434,-0.0656878873705864,0.28996774554252625,0.23670515418052673,0.14944201707839966,-0.25451600551605225,0.41422948241233826,-0.2253623902797699,-0.14036579430103302,-0.07358209788799286,0.17644478380680084,-0.021040763705968857,-0.07632964849472046,-0.05561622977256775,0.17188917100429535,-0.04784158244729042,0.15673761069774628,-0.1271226853132248,0.058832794427871704,-0.07348596304655075,-0.018347611650824547,-0.00019122920639347285,-0.2127332091331482,0.13894490897655487,0.027360469102859497,0.29510509967803955,-0.27241915464401245,-0.11587062478065491,0.25350329279899597,-0.23477059602737427,-0.006673152558505535,0.1857004463672638,-0.04215148091316223,-0.0941733792424202,-0.017904426902532578,0.25946223735809326,-0.026915524154901505,-0.18134038150310516,-0.19391760230064392,-0.11917316168546677,0.3279091417789459,0.25943583250045776,-0.02957233227789402,-0.48407629132270813,-0.1971346139907837,0.0062355282716453075,0.1266472488641739,-0.05039314553141594,0.09330695867538452,0.011794335208833218,-0.3127482235431671,-0.12028846889734268,0.25982362031936646,-0.25314244627952576,-0.15299156308174133,0.25725552439689636,-0.4242471754550934,-0.03446410596370697,0.30620697140693665,-0.2844454348087311,-0.006121795158833265,0.10774458944797516,-0.3064839243888855,0.0209063533693552,0.266397625207901,0.29535165429115295,-0.014754279516637325,-0.39588508009910583,-0.24220624566078186,0.7400373220443726,0.20414285361766815,-0.28996747732162476,-0.13405142724514008,-0.0855013057589531,0.04545304551720619,0.1035536527633667,0.20100198686122894,-0.1963183432817459,-0.006208196748048067,-0.19858311116695404,0.3814224302768707,-1.0033142566680908,0.15052911639213562,-0.14179368317127228,-0.1768009066581726,-0.024138744920492172,0.10454781353473663,0.025245903059840202,-0.03005085326731205,-0.12051495909690857,0.26331549882888794,-0.10184300690889359,-0.1241130381822586,0.05632616952061653,-0.058856140822172165,-0.08770175278186798,0.3462744355201721,-0.2738419473171234,0.12439216673374176,0.11397750675678253,0.0721597671508789,-0.06901358813047409,-0.08383707702159882,0.11008156836032867,0.22299809753894806,0.05031300336122513,0.20083853602409363,0.04435296729207039,-0.01655500940978527,-0.009292040020227432,-0.06858158111572266,0.0222408939152956,-0.06756776571273804,-0.12163932621479034,0.2198895961046219,-0.1910935491323471,-0.20634526014328003,-0.061368606984615326,-0.1651187539100647,0.31324756145477295,0.361225962638855,-0.1757868230342865,0.07636591792106628,0.13290022313594818,-0.22047743201255798,0.29657942056655884,0.15080587565898895,-0.16741494834423065,0.1652972251176834,-0.3591800034046173,0.3595094084739685,-0.15894241631031036,-0.04532342776656151,0.3503042757511139,0.28113049268722534,0.04724287986755371,-0.29287710785865784,-0.26538318395614624,-0.003167852060869336,0.33988291025161743,0.1394350230693817,0.07033029943704605,-0.2637825012207031,0.002408319152891636,0.395712673664093,-0.13524878025054932,0.01661013811826706,-0.05387203395366669,-0.15970389544963837,0.20157110691070557,-0.07352113723754883,-0.1622290164232254,0.2014269381761551,-0.07590270042419434,-0.29948851466178894,0.08923766016960144,-0.005528703331947327,-0.19874322414398193,-0.02327491156756878,0.17397747933864594,-0.20317398011684418,-0.2942127585411072,0.034136053174734116,0.35301849246025085,-0.16969949007034302,-0.27798905968666077,0.20183897018432617,0.004667592700570822,0.1302957981824875,-0.18187455832958221,0.3913675546646118,0.004349714610725641,-0.47391700744628906,0.2678885757923126,0.1482824832201004,-0.3409373164176941,-0.24840505421161652,-0.2120431512594223,0.17580047249794006,-0.3418820798397064,0.00408213073387742,0.32434260845184326,0.35802775621414185,0.27138257026672363,-0.24028567969799042,-0.414031058549881,0.03734990209341049,0.4672571122646332,0.3770582675933838,-0.01922927238047123,-0.26028627157211304,0.2869070768356323,-0.07017360627651215,-0.0975164994597435,0.3994089663028717,-0.010878543369472027,-0.33370473980903625,0.32680535316467285,0.15894010663032532,-0.1569942682981491,0.36574792861938477,0.07915376126766205,-0.47586119174957275,0.32935792207717896,-0.05844049155712128,-0.4013356864452362,0.22893808782100677,0.07120124250650406,-0.21336877346038818,-0.19806641340255737,0.0039661177434027195,0.4583926498889923,-0.41597115993499756,0.055878035724163055,-0.22167806327342987,0.2151833027601242,0.1763371378183365,0.04778595268726349,-0.07332059741020203,-0.10285215824842453,-0.23195739090442657,0.023792428895831108,0.1319027543067932,0.14604945480823517,0.472722589969635,-0.029071379452943802,0.1845492720603943,-0.17752115428447723,0.14994099736213684,0.021977802738547325,0.14862240850925446,-0.20827066898345947,-0.14295850694179535,-0.17729470133781433,0.29666027426719666,0.1678357571363449,0.156291201710701,-0.017745375633239746,-0.1599121391773224,-0.15965622663497925,0.01418248936533928,0.008593537844717503,0.18769140541553497,-0.19819986820220947,-0.12303762882947922,-0.094170942902565,-0.1140926256775856,-0.04625265300273895,-0.14150749146938324,-0.4459635019302368,-0.14682242274284363,0.0889618769288063,-0.16878685355186462,-0.09495909512042999,0.005779095459729433,-0.1827651411294937,-0.24251879751682281,-0.049451664090156555,0.1560077965259552,0.03924505412578583,0.2587449848651886,0.012563593685626984,-0.11300315707921982,-0.09988578408956528,-0.10296390950679779,0.08760125190019608,0.01675391010940075,-0.15230326354503632,0.21498896181583405,-0.0032944227568805218,-0.024295827373862267,0.12041480094194412,-0.44449612498283386,0.38414326310157776,0.06253059208393097,0.07166476547718048,0.09883799403905869,-0.14920684695243835,0.14451861381530762,-0.3649711310863495,0.04764426499605179,0.3238639831542969,-0.15402668714523315,-0.029264217242598534,0.173772931098938,-0.07013078778982162,0.06875684857368469,0.3936123251914978,-0.2920883893966675,-0.16531234979629517,0.08286925405263901,-0.06655631214380264,0.21275871992111206,0.2054886370897293,-0.11395402252674103,0.2701220214366913,-0.03003588691353798,0.18073353171348572,0.20177413523197174,-0.06153752654790878,-0.24093535542488098,0.2247978150844574,0.054574232548475266,-0.05117860436439514,-0.016489652916789055,0.08356408029794693,0.11976727843284607,-0.0714060366153717,-0.24983622133731842,0.25893518328666687,0.4024336040019989,0.16904215514659882,-0.003603727789595723,-0.06285887211561203,0.002123131649568677,-0.2628234922885895,0.1938297003507614,0.14500735700130463,-0.1168055608868599,-0.011885890737175941,0.1616758555173874,0.2804828882217407,-0.4483315646648407,0.08236467093229294,0.27301502227783203,0.07661934942007065,0.17285588383674622,-0.23028120398521423,0.18653933703899384,-0.21177631616592407,0.1150411069393158,0.07528500258922577,0.10365168005228043,-0.2605883777141571,-0.0009729345911182463,-0.18827766180038452,-0.1989593356847763,0.24132762849330902,0.17643000185489655,-0.22925330698490143,0.09875896573066711,0.059018321335315704,-0.06206485256552696,0.05546943470835686,0.05101826786994934,0.07250708341598511,0.16098295152187347,0.07099977135658264,-0.07328829169273376,-0.1196427270770073,-0.1393861323595047,-0.22310736775398254,0.09424000978469849,-0.23125943541526794,0.06655554473400116,-0.04855765774846077,-0.3005577623844147,0.15328963100910187,0.3389495313167572,0.14403636753559113,0.00873938761651516,-0.17394864559173584,-0.2145422101020813,0.02112131379544735,0.156479150056839,-0.21292436122894287,-0.11708202213048935,-0.11038484424352646,-0.0056579639203846455,-0.2330995351076126,-0.25521257519721985,0.17887213826179504,-0.08496662974357605,-0.06313899159431458,-0.0036777483765035868,-0.020720191299915314,0.09633217006921768,0.16722474992275238,-0.08322635293006897,-0.0584956593811512,-0.05908098816871643,-0.13925781846046448,0.11112804710865021,0.030061036348342896,0.0793471708893776,-0.04656514525413513,0.048618946224451065,-0.09449052065610886,0.03493986278772354,0.038007091730833054,0.07582537829875946,0.16805467009544373,-0.2994900941848755,-0.018044810742139816,0.08080962300300598,-0.18293032050132751,0.009085545316338539,-0.10068923979997635,-0.07770013809204102,0.04854486882686615,0.14214280247688293,-0.014750617556273937,-0.005173727869987488,0.0017996372189372778,0.01141114067286253,0.46609631180763245,-0.42567020654678345,-0.04351835325360298,-0.24089445173740387,0.03200337290763855,0.017074717208743095,-0.13955728709697723,0.36605554819107056,0.016199326142668724,-0.1630180925130844,0.04709713160991669,0.088569775223732,-0.0362694188952446,0.44607269763946533,-0.01477496512234211,0.29357871413230896,-0.2135748416185379,0.05794066935777664,-0.1059921458363533,0.2297283560037613,0.1334301084280014,0.12208191305398941,-0.31892284750938416,-0.0677388533949852,-0.2978043854236603,0.34614163637161255,0.04641472548246384,0.14621493220329285,-0.28807687759399414,-0.047680556774139404,-0.22808365523815155,0.20664575695991516,-0.06544647365808487,-0.21252267062664032,0.35918429493904114,-0.2139471173286438,0.035725582391023636,0.4507230520248413,-0.08555888384580612,-0.2626292109489441,0.07605393975973129,-0.11417856812477112,-0.29292336106300354,0.1721569150686264,0.09354402869939804,0.1682908535003662,-0.366277813911438,0.4649157226085663,0.0924876406788826,0.0764753445982933,-0.4033597409725189,0.20654785633087158,-0.010739319957792759,-0.258495569229126,0.3621487617492676,-0.05724095180630684,-0.23583991825580597,0.23831871151924133,-0.14568644762039185,0.1742154210805893,-0.4789687693119049,-0.11697669327259064,0.1438591033220291,-0.3656140863895416,0.15086735785007477,-0.18549050390720367,0.28871864080429077,0.03372468799352646,-0.014264380559325218,-0.039063096046447754,0.18842686712741852,-0.2698247730731964,0.4502839744091034,-0.10316980630159378,-0.21392133831977844,0.11604250967502594,-0.062286339700222015,-0.29360976815223694,0.31926819682121277,0.01373276673257351,-0.11123468726873398,0.27195852994918823,-0.08121421188116074,0.021943552419543266,0.0752687156200409,-0.11497799307107925,-0.2816503345966339,0.28047120571136475,-0.009124980308115482,-0.2257010042667389,0.20142215490341187,-0.00872862059623003,0.20451529324054718,-0.1743442416191101,-0.0044253673404455185,-0.21855098009109497,0.7500969171524048,-0.05166192352771759,-0.1322266012430191,-0.011134052649140358,-0.15978755056858063,0.13673534989356995,0.018542995676398277,0.09459596872329712,-0.0863545835018158,-0.013712568208575249,-0.015693923458456993,0.1498395800590515,-0.9478845000267029,-0.20238220691680908,-0.04385200887918472,0.045583631843328476,0.0030832155607640743,-0.03253459930419922,0.11844781041145325,0.064543217420578,-0.24281340837478638,0.4794887602329254,0.0684814304113388,0.03615596517920494,0.031226294115185738,0.12027332186698914,-0.12081937491893768,0.1200607568025589,-0.15060031414031982,0.22677704691886902,-0.07766887545585632,-0.07333720475435257,0.15872207283973694,-0.07031635195016861,-0.0990864560008049,0.3256179094314575,0.018976371735334396,0.1201498731970787,0.16669397056102753,-0.15496066212654114,0.032018110156059265,0.12022914737462997,0.12467564642429352,-0.06793142855167389,-0.11965247988700867,0.04103457182645798,0.05147337168455124,0.041465189307928085,-0.02780480869114399,-0.11193866282701492,-0.20963063836097717,-0.022752348333597183,-0.2120746672153473,-0.10783913731575012,0.3436940014362335,0.14076006412506104,-0.007109353318810463,0.12216343730688095,-0.030881661921739578,0.25050994753837585,-0.11981265991926193,-0.08620622754096985,0.06890902668237686,-0.05927373468875885,0.005026586819440126,-0.19427821040153503,0.06315729767084122,0.059024251997470856,-0.09825900942087173,0.058007676154375076,0.030656710267066956,-0.004385202191770077,0.04705170914530754,-0.10945577174425125,-0.33691808581352234,0.189620703458786,-0.04635777324438095,-0.11259938776493073,0.20314691960811615,-0.05737525224685669,-0.14704887568950653,0.17312122881412506,0.03345969691872597,0.18369020521640778,0.08427966386079788,0.08465079218149185,0.1239517405629158,0.13397565484046936,-0.08934053778648376,-0.010167790576815605,0.204472616314888,-0.14596691727638245,-0.11373937129974365,-0.10280713438987732,0.09087633341550827,-0.004665120039135218,-0.05909239128232002,-0.2471160888671875,0.06622791290283203,0.04571302607655525,-0.014772866852581501,0.183434396982193,0.09940716624259949,-0.13299328088760376,0.06421715021133423,0.03833552822470665,-0.10620374232530594,0.21194636821746826,0.06938868761062622,0.015399346128106117,-0.09761954843997955,-0.14408671855926514,0.1683695763349533,-0.1056707575917244,-0.16315409541130066,-0.13260670006275177,-0.23708318173885345,-0.1257595717906952,0.09180848300457001,-0.0884583368897438,0.07409462332725525,0.05086202174425125,-0.022707169875502586,-0.00955586414784193,-0.19381466507911682,0.15275102853775024,0.15682092308998108,-0.014234377071261406,0.0724715068936348,-0.2644290328025818,-0.1902455985546112,0.22644391655921936,-0.08759754151105881,-0.038498468697071075,-0.0398232601583004,-0.08633571863174438,-0.20598459243774414,0.18230675160884857,-0.05564217269420624,-0.08206889778375626,0.025875544175505638,0.06557758152484894,0.04867655783891678,-0.1889006495475769,-0.38353750109672546,-0.24748802185058594,-0.009339101612567902,0.21065972745418549,0.09261494874954224,0.09224209934473038,-0.07443505525588989,-0.033428385853767395,-0.013361133635044098,0.06608133018016815,-0.0018003066070377827,0.06671274453401566,0.07212525606155396,0.3443518280982971,-0.06312064081430435,-0.04102962464094162,-0.03981931880116463,-0.030445845797657967,0.15392908453941345,-0.05234115943312645,0.04911471903324127,0.020471934229135513,0.045451436191797256,-0.01616373285651207,0.004157169256359339,0.011597693897783756,0.1215393915772438,-0.012429306283593178,0.12299853563308716,-0.05860043689608574,0.03535410761833191,-0.17000320553779602,-0.08297992497682571,-0.011008411645889282,-0.15875791013240814,-0.024631187319755554,-0.058729805052280426,-0.19707825779914856,0.05616673082113266,0.10257977992296219,-0.21789413690567017,-0.042671360075473785,0.0011385526740923524,-0.23047581315040588,-0.017426224425435066,-0.13853155076503754,0.14534686505794525,0.5585216879844666,-0.007368830963969231,0.036579471081495285,-0.4110676348209381,0.26838967204093933,-0.16477203369140625,-0.13975459337234497,0.4814547002315521,0.028696758672595024,-0.17596279084682465,0.12874995172023773,-0.05463603511452675,-0.0355234295129776,-0.16193994879722595,0.11999600380659103,0.3338325023651123,-0.3849249482154846,-0.0037354188971221447,-0.2198474407196045,0.29761338233947754,-0.010555099695920944,0.10176065564155579,-0.23233474791049957,-0.13012968003749847,-0.16476106643676758,0.21057964861392975,-0.1153852790594101,-0.14445796608924866,0.029426146298646927,0.011173124425113201,-0.18736706674098969,0.4129142761230469,0.07755967229604721,-0.04079911485314369,0.43567201495170593,0.040891584008932114,0.07478705793619156,0.19162464141845703,-0.018529817461967468,-0.25739869475364685,0.21002359688282013,-0.09826767444610596,-0.28304722905158997,0.3170137405395508,-0.1963857114315033,0.4020775258541107,-0.21455447375774384,0.07128622382879257,-0.03437395021319389,0.038499318063259125,-0.18961066007614136,0.02606200985610485,0.03902256861329079,0.07470888644456863,0.09129686653614044,0.09518300741910934,0.02267681434750557,0.17639827728271484,0.1549108624458313,-0.05328956991434097,0.01810452528297901,0.10723758488893509,0.12281879037618637,-0.07305914908647537,-0.15787237882614136,0.026355361565947533,-0.026715874671936035,0.015604483895003796,-0.3135453760623932,-0.06500682979822159,-0.18408939242362976,-0.0870470404624939,-0.09446083754301071,-0.0348530150949955,-0.04757019877433777,-0.0815713182091713,0.12719686329364777,0.15297435224056244,-0.005649333819746971,0.09584218263626099,-0.1695237010717392,-0.010983468033373356,-0.019557615742087364,-0.030752964317798615,0.028248758986592293,-0.10603655129671097,-0.07943833619356155,0.07675525546073914,0.13086454570293427,-0.1311204731464386,0.13483114540576935,-0.004127017222344875,0.020783433690667152,0.019165288656949997,0.14887529611587524,0.17788617312908173,0.036416877061128616,0.20347407460212708,-0.14355653524398804,0.14210617542266846,-0.31071415543556213,0.1431846022605896,0.17944860458374023,0.2972712814807892,-0.03871951252222061,0.051368679851293564,0.0888737142086029,0.12986940145492554,0.017039351165294647,-0.03716391324996948,0.14628787338733673,-0.17538869380950928,-0.6800766587257385,0.13232539594173431,0.6716553568840027,-0.09818646311759949,0.26968464255332947,-1.0857363939285278,-0.2807806432247162,-0.512392520904541,0.4370253086090088,-0.8573498129844666,-0.6204296350479126,-0.8939287066459656,0.33306336402893066,-0.6034377217292786,0.2161138504743576,-0.7145691514015198,-0.45932021737098694,-0.13627497851848602,0.07852813601493835,0.9361994862556458,0.32770878076553345,0.020502733066678047,-0.31361106038093567,-0.28918951749801636,-0.06449098885059357,0.0581626333296299,-0.04576815664768219,0.1800527125597,0.23378586769104004,0.1280754804611206,-0.040115684270858765,0.20381680130958557,-0.020439255982637405,-0.007265017367899418,-0.05244483798742294,0.066152423620224,-0.18389484286308289,-0.020880937576293945,-0.1132884994149208,-0.2902025878429413,0.28392770886421204,-0.07456975430250168,0.27048107981681824,0.37735965847969055,0.23452961444854736,0.04067166522145271,0.21146772801876068,0.17569340765476227,-0.0791969895362854,-0.3037691116333008,0.02898937277495861,0.16938000917434692,0.3379783630371094,-0.04830162599682808,0.1995861530303955,0.32493436336517334,-0.07783239334821701,-0.0329170823097229,-0.37673813104629517,-0.27076584100723267,-0.31135275959968567,-0.22055037319660187,0.05310947075486183,-0.24003227055072784,0.08338293433189392,0.07123412936925888,-0.05145229026675224,-0.24528518319129944,0.09301762282848358,-0.1541377753019333,-0.12232870608568192,-0.17986221611499786,-0.06595117598772049,-0.0441768653690815,0.10423311591148376,0.1719381958246231,0.2657139003276825,-0.08462052047252655,-0.056169990450143814,-0.01796681247651577,0.15302225947380066,-0.15816949307918549,-0.03761802241206169,-0.24138984084129333,0.08746421337127686,0.06046789884567261,0.20104993879795074,0.5208250880241394,0.12383704632520676,-0.3153216540813446,-0.11730630695819855,-0.137924462556839,-0.4938093423843384,-0.3157561123371124,-0.2677192986011505,-0.3053361773490906,-0.14464916288852692,-0.24077172577381134,-0.016262689605355263,-0.06312199681997299,0.13296571373939514,-0.20691882073879242,0.027897397056221962,0.1780872493982315,0.342056006193161,-0.18447166681289673,-0.20223648846149445,-0.2549233138561249,-0.28079620003700256,-0.35734453797340393,-0.2217358648777008,-0.06836952269077301,0.1352458894252777,-0.2056014984846115,-0.0014774675946682692,-0.29987332224845886,0.10296878218650818,0.27857163548469543,-0.31361424922943115,-0.1616215854883194,-0.09119167178869247,0.058501388877630234,-0.27609696984291077,0.08867640793323517,0.16468545794487,0.1872226744890213,0.006744422018527985,0.2608815133571625,0.15720759332180023,-0.1432904154062271,0.10089210420846939,0.2629103362560272,-0.07772136479616165,-0.25763827562332153,-0.27797362208366394,-0.023330284282565117,-0.5019405484199524,1.1616113185882568,-0.3642750680446625,0.426593154668808,0.08463605493307114,0.10668275505304337,0.699072003364563,0.1791708916425705,-0.07600650936365128,0.1139565259218216,-0.3477114140987396,-0.057874370366334915,-0.24347329139709473,0.014799372293055058,-0.07157594710588455,-0.1420191526412964,-0.13126733899116516,0.21355079114437103,0.07452712208032608,-0.05827312171459198,0.0633254200220108,0.24582606554031372,0.20308919250965118,0.1906300187110901,-0.4027385115623474,-0.07155293226242065,-0.12875449657440186,0.5555103421211243,0.022691477090120316,-0.004885978996753693,-0.009187892079353333,-0.33284786343574524,-0.24160295724868774,0.10218608379364014,0.06938616931438446,0.3451516330242157,0.5224471688270569,0.20833654701709747,0.33047741651535034,0.12154505401849747,0.1563417762517929,-0.13847798109054565,-0.4605071246623993,-0.17525015771389008,0.08997535705566406,0.017153697088360786,-0.054569315165281296,-0.10997304320335388,0.1599399596452713,0.5709038972854614,-0.16312263906002045,0.13014574348926544,0.24192048609256744,0.0840551108121872,0.204607754945755,0.027340931817889214,0.35797813534736633,0.3718811869621277,-0.11555013060569763,-0.4373806416988373,0.2526586949825287,-0.2626740336418152,-0.015410826541483402,0.023010587319731712,0.24053990840911865,0.23569545149803162,0.3389371335506439,-0.061694368720054626,0.2346632331609726,-0.08425503969192505,-0.030917732045054436,-0.028485078364610672,-0.3268890082836151,-0.03951751068234444,-0.19671538472175598,0.29475897550582886,-0.12478554993867874,0.08913024514913559,-0.044394005089998245,0.10748551785945892,-0.27102214097976685,-0.5696254372596741,-0.170292466878891,-0.3029026985168457,0.07006345689296722,-0.10754159092903137,-0.19815762341022491,-0.08449923247098923,0.25974351167678833,0.3092825412750244,-0.5122366547584534,0.07133247703313828,-0.2570548951625824,0.33911579847335815,-0.04155837371945381,-0.15238729119300842,0.5398546457290649,0.11052064597606659,0.17020641267299652,0.0917508453130722,0.2851458191871643,0.28040334582328796,0.09141521900892258,0.03694765642285347,-0.09680915623903275,0.22953473031520844,-0.03534149378538132,0.09197275340557098,-0.29630544781684875,-0.08948960900306702,0.04554041102528572,-0.10016706585884094,-0.35922977328300476,0.3010479211807251,-0.05694664642214775,0.020010901615023613,-0.04896346852183342,0.21733811497688293,0.334581196308136,0.20997223258018494,0.10478430986404419,-0.24322836101055145,0.04444315657019615,-0.046769917011260986,-0.28496605157852173,0.16106893122196198,-0.03255746513605118,0.32876038551330566,0.09877106547355652,-0.5055208206176758,0.14180591702461243,-0.3738873302936554,-0.43068331480026245,0.010029289871454239,-0.3246976435184479,-0.3357011377811432,-0.21238161623477936,-0.05140884593129158,0.16822591423988342,-0.12953512370586395,-0.004621539730578661,-0.0018243094673380256,0.1358039826154709,0.11487322300672531,-0.0833585187792778,-0.05988655984401703,0.1394227147102356,-0.21981774270534515,0.14183399081230164,-0.4467211067676544,-0.2141394466161728,-0.11338924616575241,0.2473503053188324,-0.04196726903319359,0.17053192853927612,-0.14579224586486816,-0.21329326927661896,-0.06763699650764465,0.30147644877433777,0.24074216187000275,0.22641438245773315,0.03634638711810112,-0.037856325507164,0.020402472466230392,0.24046307802200317,0.040868621319532394,-0.11409427970647812,0.1799268275499344,0.05189161002635956,-0.08725439757108688,-0.08620304614305496,-0.00503374170511961,0.14963604509830475,0.4645185172557831,0.1924247294664383,0.066975899040699,-0.14767007529735565,0.10022176057100296,0.09170059859752655,-0.04895206540822983,0.008056343533098698,0.07667701691389084,-0.019108079373836517,0.020636601373553276,0.06894820928573608,-0.15570604801177979,-0.07275380194187164,0.03613166883587837,0.010154500603675842,0.07082496583461761,0.11068855971097946,-0.13810952007770538,0.055868424475193024,0.004553154576569796,0.11912676692008972,0.1381305456161499,0.047879740595817566,0.23044979572296143,-0.12501171231269836,-0.06401149928569794,-0.16016972064971924,-0.28883349895477295,0.1518050581216812,-0.1679135113954544,0.11287521570920944,-0.2994110584259033,0.07707317173480988,0.33027955889701843,0.4530385732650757,-0.018675850704312325,0.1276753693819046,-0.17075999081134796,0.1835872381925583,-0.03548264876008034,0.04781905934214592,0.02312074974179268,-0.12204701453447342,-0.06171002238988876,0.10730908811092377,0.0023787356913089752,0.07247890532016754,0.26583316922187805,-0.07149574160575867,-0.4146539568901062,0.006934116594493389,0.10399205982685089,-0.22457456588745117,0.05007186532020569,0.10427037626504898,0.05347175896167755,0.24231410026550293,0.2646905779838562,-0.01769242249429226,-0.12359528243541718,0.13225527107715607,-0.2995617985725403,-0.055558133870363235,0.008731947280466557,0.28845450282096863,-0.07706603407859802,0.05346948653459549,-0.17860066890716553,-0.030879344791173935,0.22397853434085846,-0.007025500759482384,0.1916269212961197,-0.012467054650187492,0.1699095517396927,-0.06312651187181473,-0.12112978100776672,-0.25552111864089966,0.27469417452812195,0.019353855401277542,-0.24756893515586853,0.36613407731056213,0.0033233100548386574,0.010735460557043552,-0.06836071610450745,-0.09923628717660904,-0.10256802290678024,-0.21481376886367798,-0.16577453911304474,0.1963266283273697,-0.12560711801052094,0.056521445512771606,0.11846276372671127,0.1775493621826172,0.12667934596538544,-0.1334989219903946,-0.25319352746009827,0.19204683601856232,0.18361414968967438,0.2602957785129547,0.052730683237314224,-0.08581256866455078,0.12731629610061646,0.07228302210569382,-0.2744450867176056,0.0882263109087944,0.15480385720729828,-0.15133796632289886,0.05168262496590614,-0.0018884645542129874,-0.18364228308200836,0.43774423003196716,0.10504380613565445,-0.07043678313493729,0.13480766117572784,0.019475165754556656,-0.15926091372966766,0.20507265627384186,-0.17145831882953644,-0.2602047920227051,-0.384543240070343,-0.13260866701602936,0.20758989453315735,-0.24350391328334808,-0.5648007392883301,0.5201129913330078,-0.30411818623542786,0.08290498703718185,-0.06368090212345123,-0.04580515995621681,0.17969438433647156,0.11385948956012726,-0.01869017817080021,0.14496129751205444,-0.23461225628852844,0.04819774255156517,-0.002051376737654209,-0.29446887969970703,0.10393492132425308,-0.18438154458999634,0.07625415921211243,0.06495334953069687,0.18992911279201508,-0.1722051054239273,0.6546630263328552,-0.1090593934059143,0.35945263504981995,-0.07119718194007874,0.18069235980510712,0.09481801092624664,-0.13638456165790558,-0.2357393056154251,0.11814531683921814,-0.008027485571801662,0.22933943569660187,0.029586080461740494,0.06425972282886505,0.20693574845790863,-0.6190667152404785,-0.014210334978997707,0.026857992634177208,0.3718516528606415,-0.04450175538659096,0.06410568952560425,0.07748960703611374,-0.0679929330945015,-0.00472392700612545,0.16431264579296112,0.05865407735109329,0.004933584481477737,-0.10241064429283142,0.4189653694629669,-0.3239586055278778,-0.2066079080104828,-0.21293850243091583,-0.028986826539039612,0.08769489824771881,0.02048574760556221,0.20010535418987274,0.17334313690662384,-0.13103173673152924,0.0819903239607811,-0.014283517375588417,-0.05034024640917778,0.14204993844032288,-0.13042576611042023,0.09914976358413696,0.11363236606121063,-0.16909366846084595,-0.27977824211120605,-0.11664274334907532,0.2553078532218933,0.4728352129459381,-0.621742844581604,0.10176592320203781,-0.10913190990686417,-0.18916380405426025,0.23509104549884796,0.04768377169966698,-0.02930046245455742,0.12560443580150604,-0.181852325797081,-0.09520182758569717,0.24594809114933014,-0.25499942898750305,-0.07135158032178879,-0.023848015815019608,0.01940915919840336,0.32082608342170715,0.14592818915843964,-0.19515053927898407,-0.15868350863456726,0.25748687982559204,-0.06472893804311752,-0.1785118728876114,0.32912227511405945,0.1642213612794876,-0.013375064358115196,-0.26107123494148254,0.09679672867059708,-0.3621402680873871,-0.09836225211620331,-0.08161897212266922,-0.07307777553796768,0.10255701094865799,-0.19419234991073608,-0.25029441714286804,-0.18325503170490265,-0.1736038625240326,-0.1188470721244812,0.21299147605895996,0.09675876051187515,0.10270558297634125,-0.13533557951450348,0.00003159760308335535,-0.07005225867033005,-0.06088196858763695,-0.26142582297325134,0.06374619901180267,0.07824906706809998,0.09023671597242355,-0.4045335352420807,0.32632189989089966,-0.04625682532787323,-0.05609191954135895,-0.01571587845683098,-0.14813874661922455,-0.20439667999744415,0.25741299986839294,-0.060303665697574615,0.002808621618896723,0.0917200893163681,-0.08208420127630234,0.13954542577266693,0.18926623463630676,0.010867578908801079,-0.056177567690610886,-0.20206159353256226,-0.1244732066988945,0.07337664067745209,0.2194819301366806,-0.06817249208688736,-0.07134996354579926,0.12293906509876251,0.29334983229637146,0.019084125757217407,-0.19419805705547333,-0.27113741636276245,-0.16730080544948578,-0.10434643179178238,0.19828712940216064,0.1666897088289261,-0.035788632929325104,-0.15639500319957733,-0.603744626045227,-0.6592573523521423,0.035456884652376175,0.1204000860452652,-0.08001402020454407,-0.12985354661941528,-0.05890776962041855,0.06852132827043533,-0.18296964466571808,0.03187547251582146,0.15072588622570038,0.21727149188518524,0.07654095441102982,-0.16536948084831238,0.14224709570407867,-0.0306211169809103,-0.12675172090530396,0.007292107213288546,0.07158773392438889,0.02419184520840645,0.011174061335623264,0.17143139243125916,-0.06418191641569138,-0.12567219138145447,0.09700159728527069,-0.28273269534111023,-0.19038188457489014,-0.1080847680568695,-0.37391313910484314,-0.05349486321210861,0.020952656865119934,0.12763145565986633,-0.01922072470188141,0.0812271386384964,-0.15478438138961792,-0.05093368515372276,0.10287118703126907,-0.10289555788040161,0.21509398519992828,-0.1723604053258896,0.18344567716121674,-0.19615353643894196,-0.1093275249004364,-0.35233649611473083,0.021690713241696358,0.03948383033275604,0.008632241748273373,-0.3318547010421753,-0.41979342699050903,-0.12707340717315674,-0.5235846638679504,-0.3276504874229431,-0.25608590245246887,-0.068876713514328,-0.05477488040924072,-0.22967520356178284,0.02342480793595314,-0.02107197791337967,-0.050007425248622894,-0.3576831519603729,-0.1781078279018402,-0.013288013637065887,0.10663600265979767,0.16877523064613342,0.10877646505832672,-0.03868728503584862,0.0986209362745285,-0.05911639332771301,-0.2070351243019104,0.06695254892110825,0.032613448798656464,0.1688878834247589,-0.09490039199590683,0.00486277649179101,-0.14863382279872894,-0.011453742161393166,-0.15373674035072327,0.2165978103876114,0.3213655948638916,0.4268321990966797,-0.16615362465381622,-0.016739198938012123,0.017294077202677727,-0.08679291605949402,-0.14013990759849548,-0.16435493528842926,-0.2134234458208084,-0.34430843591690063,-0.1325824111700058,0.10174230486154556,-0.0772271454334259,0.6960928440093994,0.26413828134536743,-0.055952686816453934,-0.09491051733493805,0.11083409935235977,0.0938701257109642,-0.18813076615333557,0.07639169692993164,0.09871809184551239,-0.05260295793414116,-0.2485555112361908,-0.05510472133755684,0.02179802767932415,-0.14081867039203644,-0.0256907120347023,0.061881471425294876,0.18819387257099152,-0.058490362018346786,-0.1786958873271942,-0.2355569750070572,0.19458486139774323,0.39663422107696533,0.19261068105697632,-0.09757547080516815,-0.12600578367710114,0.060647543519735336,0.14886224269866943,0.07744751870632172,0.16784876585006714,0.0555642768740654,-0.308735728263855,0.03238346427679062,-0.005329762119799852,-0.37961438298225403,-0.019694682210683823,-0.053857624530792236,-0.14272761344909668,0.16040106117725372,-0.12330251187086105,-0.18307411670684814,0.2361062914133072,0.044412124902009964,-0.20975737273693085,-0.12014581263065338,0.06345537304878235,0.1401514858007431,0.10279903560876846,-0.028305349871516228,-0.33890998363494873,-0.06308067589998245,0.04105963930487633,0.07356134802103043,0.10531731694936752,0.09458748251199722,0.3877566456794739,-0.20633938908576965,-0.06921285390853882,-0.11185535788536072,0.017764125019311905,-0.018040919676423073,0.032111041247844696,0.00070733338361606,-0.045362383127212524,-0.2055433988571167,-0.22619491815567017,0.010781762190163136,-0.029504338279366493,0.5785530209541321,-0.09709753096103668,-0.11294476687908173,-0.15365520119667053,-0.1776169091463089,0.19383788108825684,0.14543630182743073,-0.062124401330947876,0.03870943561196327,-0.01464154478162527,0.002114661270752549,0.1630946546792984,-0.3384246528148651,-0.010698465630412102,-0.09487288445234299,0.18678556382656097,0.2907857596874237,0.2669004797935486,-0.19169069826602936,-0.18587100505828857,0.1362539827823639,-0.08422725647687912,0.11777504533529282,0.056858353316783905,0.1587885171175003,-0.012133663520216942,-0.19722667336463928,-0.4467172622680664,0.06632554531097412,0.15180326998233795,-0.07232547551393509,0.13897109031677246,0.07347780466079712,-0.24272702634334564,0.175794318318367,0.23229314386844635,0.04257926717400551,0.22668619453907013,-0.053602464497089386,0.3822440803050995,-0.39104801416397095,0.025784898549318314,0.09187227487564087,-0.1322346329689026,0.002716000657528639,0.012732605449855328,0.17096726596355438,-0.23549020290374756,-0.1595037281513214,0.8450465798377991,-0.012351064942777157,-0.05822048336267471,0.26406052708625793,-0.03431110084056854,-0.31828024983406067,0.25813373923301697,0.025364549830555916,0.036976076662540436,0.08124762773513794,-0.020667757838964462,0.20126496255397797,-0.17659848928451538,-0.29363831877708435,0.05242110788822174,-0.11871445178985596,0.42353948950767517,0.08860249072313309,-0.1678474396467209,-0.1278000921010971,-0.21820063889026642,0.30341264605522156,-0.256856232881546,0.0882168710231781,-0.30732402205467224,0.026827875524759293,-0.19268980622291565,0.06486336141824722,0.16077198088169098,-0.043264809995889664,-0.20540453493595123,-0.04430025443434715,0.319204181432724,0.24505972862243652,0.255648136138916,-0.18085364997386932,-0.10061537474393845,0.0005338530754670501,0.12646737694740295,-0.13583923876285553,-0.0357908234000206,-0.134724423289299,-0.1269359588623047,-0.04704471677541733,0.04465814679861069,-0.04085578769445419,0.023579483851790428,0.08013347536325455,-0.24397215247154236,-0.6484235525131226,-0.1254781037569046,-0.044255319982767105,-0.18639741837978363,-0.22467367351055145,-0.025279715657234192,-0.11082102358341217,-0.0005673497798852623,-0.23331323266029358,-0.170079305768013,-0.04650500789284706,-0.418226033449173,-0.1660974770784378,0.287068635225296,0.4429352879524231,0.4222358465194702,-0.04716428369283676,-0.18939292430877686,0.12189320474863052,-0.005028185900300741,-0.1568632423877716,0.1324601173400879,0.03546662628650665,-0.21535348892211914,-0.16993509232997894,-0.5223173499107361,-0.7528688907623291,0.291970431804657,-0.11780919134616852,0.06804942339658737,-0.008826883509755135,-0.3537512421607971,-0.17020004987716675,-0.022180186584591866,-0.12067755311727524,0.1367393285036087,0.10500145703554153,0.3278755843639374,0.22218263149261475,-0.10398512333631516,0.15370385348796844,-0.1089877262711525,-0.10765284299850464,-0.22590765357017517,0.2917512357234955,0.05032291263341904,0.30062809586524963,-0.5421319603919983,0.07399357110261917,-0.12201479077339172,-0.03920925036072731,0.20011889934539795,-0.36214789748191833,-0.12579290568828583,0.12771348655223846,-0.10269761085510254,0.23772168159484863,0.1216965764760971,0.03569059073925018,0.2817249596118927,0.25853440165519714,-0.429609477519989,-0.07952210307121277,-0.08199410885572433,-0.09239020198583603,0.24921073019504547,0.2641797661781311,-0.1422269493341446,0.15934346616268158,0.03980603441596031,0.4146963655948639,-0.002966847736388445,-0.09073895961046219,-0.012829470448195934,-0.13537219166755676,-0.2582693099975586,0.1535627841949463,-0.09416425973176956,-0.10707984864711761,0.3892795741558075,-0.08896254748106003,-0.27476999163627625,-0.10856126993894577,-0.054010968655347824,0.10801614820957184,-0.04840423911809921,0.25603213906288147,0.4426955282688141,-0.12675979733467102,-0.0022422256879508495,0.09571192413568497,0.14120158553123474,-0.010500055737793446,-0.11653392016887665,-0.08589819818735123,-0.32160845398902893,-0.22327882051467896,0.09103763103485107,0.00029035794432274997,-0.15296970307826996,0.19887499511241913,-0.09301775693893433,-0.09053768962621689,0.16414333879947662,-0.003177581587806344,-0.16661733388900757,0.1314927041530609,0.24349255859851837,0.3372320830821991,0.25331512093544006,0.09811712801456451,-0.2302641123533249,0.21255844831466675,0.178780660033226,-0.08637474477291107,0.045474834740161896,-0.07250014692544937,-0.22333142161369324,-0.1681840568780899,-0.09133142232894897,-0.0034580465871840715,-0.02874971367418766,0.22245702147483826,0.06297291070222855,-0.07095501571893692,-0.06412342190742493,0.15852497518062592,-0.18896155059337616,-0.15292614698410034,0.010491604916751385,-0.14332488179206848,-0.10305546224117279,0.14175103604793549,0.0765899196267128,-0.02402268908917904,-0.21410328149795532,0.2067219316959381,0.014430122449994087,-0.18082278966903687,-0.1517229825258255,-0.06441023200750351,-0.04790479317307472,0.08151286095380783,-0.1781632900238037,-0.1027751937508583,-0.05912784859538078,-0.18394365906715393,0.13407233357429504,0.025233769789338112,-0.011222263798117638,0.23416265845298767,-0.17635418474674225,-0.10084571689367294,0.10909993201494217,-0.1033005639910698,0.0769985020160675,-0.027684545144438744,-0.2744951546192169,-0.22180092334747314,-0.08647948503494263,-0.09172991663217545,-0.12890830636024475,0.2377542108297348,-0.048464566469192505,-0.1126873716711998,0.197499617934227,0.11120886355638504,0.14309276640415192,-0.1842372566461563,-0.21756865084171295,-0.18118402361869812,0.04963615909218788,-0.16830168664455414,-0.03477104380726814,0.23828725516796112,-0.2861587405204773,0.04866471141576767,0.1916239857673645,-0.2452894002199173,0.0627937838435173,0.20941881835460663,0.17988154292106628,0.1942189335823059,-0.09270958602428436,0.24246200919151306,-0.039564311504364014,-0.27282392978668213,-0.11089315265417099,-0.04365101084113121,0.1788061112165451,0.20083168148994446,-0.12123755365610123,0.22219215333461761,-0.15637895464897156,-0.08481310307979584,0.15475872159004211,-0.27426010370254517,-0.11694656312465668,0.0893130972981453,-0.1666681468486786,-0.17146053910255432,0.23392964899539948,-0.25055256485939026,0.0965752825140953,0.23606643080711365,-0.29528605937957764,0.10341046005487442,-0.03245680406689644,-0.1573590785264969,0.05596085637807846,0.13654404878616333,0.03073900192975998,-0.06251752376556396,0.18865102529525757,0.09657852351665497,-0.005282500758767128,-0.019317010417580605,0.07846078276634216,0.021456683054566383,0.3438279330730438,0.10706654191017151,0.3474157452583313,0.12690670788288116,-0.059252239763736725,0.6316724419593811,0.03397170081734657,0.3105134069919586,0.05458466336131096,0.017021382227540016,-0.1226561889052391,0.014253341592848301,-0.03278519585728645,0.07562529295682907,-0.282416969537735,-0.5536476373672485,0.7456283569335938,0.3782765567302704,-0.523396372795105,0.13914847373962402,0.13424871861934662,0.06304175406694412,0.6058840155601501,-0.8223592638969421,0.9092721343040466,0.4554918706417084,0.013496419414877892,-0.3356908857822418,0.21458466351032257,-0.7694692611694336,-0.01937093399465084,-0.1667575240135193,-0.05397181212902069,0.21663808822631836,0.4169193208217621,0.36035844683647156,0.17868562042713165,0.002350411843508482,0.049979317933321,0.1996196210384369,0.1850665658712387,0.06418659538030624,0.2552090585231781,0.18169687688350677,0.06507017463445663,-0.09147816151380539,-0.011305154301226139,0.07883643358945847,-0.1456354558467865,0.023609114810824394,0.20748257637023926,0.16938956081867218,-0.13062326610088348,-0.5107860565185547,-0.262594610452652,0.00043912988621741533,0.009726087562739849,0.11114324629306793,0.16890548169612885,0.08942736685276031,0.15490953624248505,0.13038094341754913,-0.06831613928079605,-0.16766516864299774,0.022754136472940445,-0.12986540794372559,-0.03869723901152611,-0.049782756716012955,0.13673216104507446,-0.19981412589550018,-0.17957401275634766,-0.2181091457605362,-0.20945467054843903,0.42647552490234375,0.21870478987693787,-0.12738029658794403,0.03756071254611015,0.09331969916820526,-0.21895676851272583,0.04929225891828537,0.11604834347963333,-0.11137258261442184,-0.21593701839447021,0.07706849277019501,-0.07282843440771103,0.07431184500455856,0.11632764339447021,-0.1839195340871811,0.024639125913381577,0.018998846411705017,0.03132523596286774,0.501818835735321,-0.05386142060160637,-0.09976372867822647,0.18724611401557922,0.23106294870376587,0.5548099875450134,-0.05394183099269867,-0.13369150459766388,-0.21518361568450928,0.20244401693344116,0.01288642268627882,0.18473269045352936,-0.0917770192027092,-0.27289313077926636,0.21612749993801117,-0.5269100069999695,-0.1756986677646637,-0.12520143389701843,-0.39013776183128357,-0.17921310663223267,-0.1712745726108551,-0.08299249410629272,-0.019177312031388283,0.05189012363553047,0.03664287552237511,0.10238775610923767,0.2722266912460327,-0.24093839526176453,-0.053504541516304016,0.10141325742006302,0.2158094197511673,0.17239387333393097,-0.057158175855875015,0.43809783458709717,0.12365862727165222,0.18665547668933868,0.18188783526420593,-0.44953882694244385,-0.04468052461743355,0.2495841234922409,-0.13196884095668793,0.15237045288085938,-0.04214835911989212,-0.3264434337615967,0.0773697942495346,0.5402972102165222,-0.044222332537174225,0.1579945832490921,-0.32090139389038086,0.15118394792079926,0.2524312138557434,-0.1618124544620514,0.3188554346561432,-0.3477519154548645,-0.08915230631828308,0.2012685090303421,-0.15677183866500854,0.06090962886810303,-0.08104688674211502,0.2265171855688095,0.022157613188028336,0.21978691220283508,0.32041606307029724,0.11069311946630478,0.20556043088436127,0.0238362904638052,-0.10476360470056534,-0.18913498520851135,0.13676972687244415,-0.23627515137195587,-0.09346546232700348,0.314740389585495,0.0012718869838863611,-0.14396056532859802,0.023788638412952423,-0.2717907130718231,0.1367807537317276,-0.04500727355480194,0.4389074742794037,-0.22768965363502502,0.002382866106927395,0.08391962945461273,0.12910768389701843,0.390811026096344,0.0793733224272728,-0.8503315448760986,0.31787723302841187,0.4162461757659912,0.36271342635154724,-0.2152557075023651,-0.18052029609680176,-0.25836947560310364,0.419356107711792,0.10477996617555618,0.04549981653690338,0.37912845611572266,-0.43525609374046326,0.38764438033103943,0.41479751467704773,0.3906020224094391,-0.062323346734046936,-0.3174722194671631,-0.29084640741348267,0.1024857833981514,-0.14816969633102417,0.14703084528446198,-0.07223988324403763,0.16053467988967896,-0.007759790867567062,-0.23255187273025513,-0.2089867740869522,-0.021966859698295593,0.02964216284453869,0.05941712483763695,0.26626184582710266,0.015710804611444473,0.42654919624328613,-0.32982757687568665,0.14469186961650848,-0.27733278274536133,-0.013607717119157314,0.4792609214782715,0.07939184457063675,-0.09725624322891235,-0.2757202386856079,0.19829043745994568,0.2556018531322479,-0.00821639783680439,-0.2766384482383728,-0.06283065676689148,0.028867583721876144,-0.31563833355903625,-0.3698002099990845,0.12812447547912598,-0.06267180293798447,0.39444848895072937,-0.07502991706132889,-0.0711868554353714,-0.3242838978767395,0.37004777789115906,-0.18355593085289001,-0.11781768500804901,0.04382743313908577,-0.3509460985660553,0.23918771743774414,-0.24887607991695404,-0.1179918497800827,-0.06502658873796463,0.1545506715774536,-0.15847191214561462,0.08097613602876663,-0.1654522716999054,-0.1691734939813614,0.06543543189764023,-0.37491878867149353,0.18307316303253174,0.08233659714460373,0.3040120005607605,-0.3420286178588867,0.05236249044537544,0.21534106135368347,-0.3995692729949951,0.022060954943299294,0.003470434807240963,0.316179096698761,0.09268907457590103,0.11272543668746948,-0.4734750986099243,-0.04889155551791191,0.18553897738456726,-0.20845328271389008,0.31253162026405334,-0.049588147550821304,0.1637992262840271,0.21357668936252594,-0.04998113214969635,-0.07309646159410477,-0.34623584151268005,-0.3622523248195648,-0.42548662424087524,-0.23033271729946136,0.5507261157035828,-0.18929745256900787,-0.29477518796920776,-0.14265689253807068,-0.09223423898220062,0.015194320119917393,0.055825937539339066,0.013976939022541046,-0.16770941019058228,0.11961475014686584,-0.3916565775871277,0.380810022354126,-0.3941188156604767,-0.2973444163799286,-0.07178457826375961,0.00883420743048191,0.2288404256105423,0.1554514318704605,0.18566864728927612,0.16131050884723663,0.1369691640138626,0.007394792512059212,-0.457177072763443,-0.10348061472177505,0.23373308777809143,0.2493153065443039,0.12336970120668411,0.0018426532624289393,0.014046967029571533,0.03584366664290428,0.1154065877199173,-0.8130743503570557,-0.047065962105989456,-0.1323692500591278,-0.0033190001267939806,0.09335727244615555,-0.050270769745111465,-0.1734570562839508,0.0852421298623085,-0.06673896312713623,0.07064303010702133,0.03659437969326973,0.07592525333166122,0.05432429537177086,-0.031108969822525978,0.10840115696191788,-0.054480135440826416,-0.012433093041181564,-0.11577501147985458,-0.07173750549554825,-0.07119138538837433,-0.15936729311943054,-0.25172746181488037,-0.054580166935920715,-0.19190672039985657,-0.2723754346370697,-0.09247545152902603,0.037949249148368835,0.09686528891324997,0.1048169657588005,-0.25415682792663574,-0.15204796195030212,0.18547995388507843,-0.4633111357688904,-0.17814552783966064,-0.5201653838157654,-0.24600006639957428,0.06297203153371811,0.03628144413232803,0.045517224818468094,0.10638955980539322,-0.06051794812083244,-0.09135789424180984,-0.053592510521411896,0.05388762429356575,0.1515800654888153,0.07356388121843338,0.1687784194946289,0.07521434128284454,0.08120259642601013,-0.11996161192655563,0.11664688587188721,0.020991772413253784,-0.19928346574306488,-0.0848475992679596,-0.3014146685600281,-0.14585770666599274,-0.10664535313844681,0.18053175508975983,0.12184177339076996,-0.014299849048256874,-0.24428319931030273,0.23852764070034027,0.15349507331848145,-0.18503543734550476,0.0947083905339241,-0.18217787146568298,0.282258003950119,-0.17343507707118988,-0.11005167663097382,0.07212435454130173,-0.5379024744033813,-0.018489466980099678,0.18837720155715942,-0.15749536454677582,0.05946812778711319,0.4364815950393677,0.004997902549803257,-0.2073076367378235,0.02582782879471779,-0.15233846008777618,0.08780450373888016,0.08026065677404404,-0.39285361766815186,-0.2456865906715393,-0.14301171898841858,-0.10211671143770218,-0.1746526062488556,0.21995359659194946,-0.17640836536884308,0.04996592551469803,0.23727841675281525,-0.012896964326500893,-0.0043077352456748486,-0.24244283139705658,0.0779925137758255,-0.19425074756145477,-0.275402307510376,0.26127099990844727,0.23514093458652496,0.13551367819309235,-0.27590370178222656,-0.1030111312866211,-0.06439245492219925,-0.07669176906347275,0.05371510237455368,0.11623913049697876,-0.20304006338119507,0.08393950015306473,-0.07084957510232925,0.09826544672250748,-0.24218536913394928,-0.19458512961864471,0.16609066724777222,0.05168761685490608,0.17409583926200867,-0.2466236799955368,-0.12643270194530487,-0.07184409350156784,0.35717397928237915,0.010639125481247902,0.15233099460601807,-0.132362961769104,0.05768851563334465,0.13686911761760712,-0.036720555275678635,0.0252000093460083,0.20801211893558502,-0.22630636394023895,-0.1356736272573471,0.030558159574866295,0.042950138449668884,0.05181986466050148,0.06624400615692139,-0.10742716491222382,0.06470094621181488,0.04246991500258446,-0.2045317143201828,0.24398718774318695,-0.09482022374868393,-0.15188658237457275,-0.08414628356695175,-0.06656021624803543,0.13308179378509521,0.24995581805706024,-0.03221724182367325,0.3444267511367798,0.06481333076953888,0.13821175694465637,-0.013258473947644234,0.046622276306152344,0.11982123553752899,-0.25436344742774963,0.09242381900548935,0.08030858635902405,-0.1758483350276947,-0.08766749501228333,0.04124346375465393,-0.003792722010985017,-0.04443524777889252,-0.1688007116317749,0.18459337949752808,0.18629902601242065,0.14552468061447144,-0.10766538977622986,-0.05041001737117767,0.02379431016743183,0.40199553966522217,0.052792150527238846,-0.03675857558846474,-0.2909504771232605,-0.17276327311992645,0.14139659702777863,-0.027735359966754913,-0.1335526406764984,0.23240035772323608,-0.2472686767578125,0.059495709836483,0.13149192929267883,0.33128342032432556,-0.04874962940812111,0.15870270133018494,-0.17321079969406128,0.11702999472618103,0.1346481442451477,-0.2315371036529541,-0.07977574318647385,0.13471898436546326,-0.08485402911901474,-0.11575178802013397,-0.0949237123131752,-0.010490495711565018,0.581007182598114,-0.09928596019744873,0.2258138209581375,-0.036579396575689316,0.06017607823014259,-0.03407907113432884,0.19901956617832184,0.4536607265472412,-0.0060644070617854595,0.10404586046934128,0.0404900386929512,0.00760421110317111,0.13409823179244995,-0.11707942187786102,-0.10303400456905365,-0.08075937628746033,0.08040127903223038,0.20104984939098358,0.047324780374765396,0.23689588904380798,0.13431213796138763,-0.027951886877417564,-0.4654252529144287,-0.45236217975616455,-0.10968592017889023,0.29732808470726013,-0.1825534552335739,-0.08087483793497086,0.10349057614803314,0.15923576056957245,0.13117168843746185,0.12930940091609955,-0.13025185465812683,0.08258973062038422,0.22161424160003662,-0.1633966714143753,-0.24252724647521973,-0.017931682989001274,-0.2203426957130432,-0.18031656742095947,0.013862990774214268,-0.05822663754224777,-0.005630780011415482,-0.0009209653944708407,-0.03980076685547829,0.06789924949407578,-0.2854648232460022,-0.036348097026348114,0.08539697527885437,0.08029097318649292,0.14041277766227722,0.09534644335508347,0.0725003257393837,-0.22723793983459473,0.3335624933242798,0.258897602558136,0.08292008191347122,0.09133497625589371,0.07166577875614166,-0.26721999049186707,-0.03180375322699547,-0.10947887599468231,0.10341475158929825,-0.22799497842788696,-0.17449389398097992,0.16371692717075348,0.055394601076841354,0.1117921993136406,-0.14120636880397797,-0.14592549204826355,-0.007636957801878452,-0.023715432733297348,-0.013020863756537437,0.14915212988853455,-0.20315781235694885,-0.0019064077641814947,0.09934670478105545,-0.25784048438072205,0.06116049364209175,-0.06936873495578766,-0.2366544008255005,0.020146386697888374,0.11743146926164627,0.007819952443242073,0.038931705057621,-0.021296195685863495,-0.25940337777137756,0.13548052310943604,0.005712380167096853,-0.26268288493156433,0.11016736924648285,0.10783488303422928,-0.22793787717819214,-0.07669661194086075,0.03170420601963997,0.156100794672966,0.3811754882335663,0.2892098128795624,-0.35643136501312256,-0.23775142431259155,0.02607334591448307,0.05579173564910889,-0.48630985617637634,-0.1471816748380661,0.21003563702106476,-0.2144583910703659,-0.022766856476664543,-0.01222719345241785,0.3553383946418762,-0.011626888066530228,0.11274473369121552,-0.018786827102303505,-0.11237811297178268,-0.09841377288103104,-0.44504934549331665,-0.10676015168428421,-0.04886641725897789,0.2627183198928833,-0.14857271313667297,-0.09620235860347748,-0.21527217328548431,0.15076644718647003,0.09733866155147552,-0.0030089998617768288,0.29609784483909607,-0.06524015218019485,0.08351603150367737,-0.013748867437243462,0.1863865852355957,-0.5284652709960938,0.3202078938484192,-0.30783721804618835,0.24962133169174194,-0.2388903796672821,0.16309458017349243,-0.25876691937446594,0.04106418415904045,0.029590804129838943,-0.28159552812576294,-0.04132630676031113,0.23013098537921906,0.14601443707942963,-0.09251346439123154,-0.11681101471185684,-0.15625838935375214,-0.01795508898794651,-0.12468895316123962,-0.08723938465118408,-0.1486583799123764,0.3015905022621155,-0.2603051960468292,-0.15774831175804138,0.21981462836265564,-0.24032676219940186,0.06080111488699913,0.14038294553756714,0.011875896714627743,0.2681988775730133,-0.15378296375274658,0.06943774968385696,-0.029696427285671234,-0.29871004819869995,-0.07461053878068924,-0.2957388460636139,0.15842871367931366,0.0408284068107605,0.07503917813301086,-0.005260714795440435,-0.1334361732006073,-0.12900252640247345,0.1806991845369339,-0.16758929193019867,-0.26263654232025146,0.185015007853508,-0.2311069816350937,-0.20320917665958405,0.038900043815374374,-0.052632804960012436,-0.314852237701416,0.015334667637944221,0.1280214935541153,0.09728428721427917,0.2684992253780365,-0.02925822138786316,-0.21125584840774536,0.1475425660610199,-0.13901232182979584,-0.16971497237682343,0.1381921023130417,0.05869539454579353,0.09506004303693771,-0.15480218827724457,-0.13655418157577515,-0.11240588873624802,-0.04290708899497986,0.2979480028152466,0.014846415258944035,-0.1106155663728714,0.2374177873134613,-0.054326266050338745,0.09163786470890045,0.11369676142930984,0.004544605500996113,-0.1751282960176468,-0.2551348805427551,-0.03319549560546875,0.20001941919326782,-0.16051198542118073,0.06952350586652756,0.19518277049064636,0.08544409275054932,-0.016139551997184753,-0.2035301774740219,-0.19512659311294556,-0.015088483691215515,-0.1093333289027214,0.15965037047863007,0.013185176067054272,-0.2503106892108917,0.14265528321266174,0.18804000318050385,-0.2617192268371582,0.2228250503540039,0.02274627983570099,-0.12467941641807556,0.44174158573150635,0.06443211436271667,-0.08532116562128067,0.17656472325325012,0.02243771217763424,-0.18524497747421265,0.05659441277384758,0.16410742700099945,-0.1933404505252838,0.25231075286865234,0.17875967919826508,-0.17969661951065063,-0.04493877291679382,-0.12331289052963257,0.3206649422645569,-0.03363875299692154,-0.19538825750350952,0.03291231393814087,0.2289895862340927,0.010145366191864014,-0.1743687391281128,0.09134764969348907,-0.0455157607793808,-0.10647694766521454,0.2206287682056427,0.020560037344694138,-0.12631264328956604,-0.06883567571640015,0.005897713825106621,0.27901139855384827,-0.1598595827817917,-0.06873227655887604,0.10660101473331451,0.03650619462132454,0.033516429364681244,-0.04220018908381462,-0.16894404590129852,-0.06781400740146637,0.04258782044053078,0.13672442734241486,0.10602926462888718,-0.19452540576457977,0.01598825305700302,0.13675490021705627,-0.1710287481546402,-0.0708329975605011,0.20128674805164337,-0.19211213290691376,-0.1605861335992813,-0.01881234347820282,-0.46129894256591797,0.10949233174324036,0.021445181220769882,-0.11996302008628845,0.0626913458108902,0.20332008600234985,-0.21197856962680817,0.2738969624042511,0.24865984916687012,-0.23913221061229706,0.0010010660625994205,-0.1268516331911087,0.31964853405952454,-0.17545054852962494,-0.34363675117492676,0.2688564658164978,-0.0034238998778164387,-0.05321484059095383,0.1404763013124466,0.16658329963684082,0.0743367001414299,-0.01300731673836708,0.021195610985159874,0.0889076367020607,-0.07221224904060364,-0.11972008645534515,-0.10673152655363083,-0.13379889726638794,0.26248109340667725,0.14490588009357452,-0.0827953964471817,0.3918036222457886,0.17275528609752655,-0.1621953845024109,0.19191581010818481,-0.3139208257198334,0.22769193351268768,-0.06174656003713608,0.3085404634475708,0.14229950308799744,0.006605826318264008,-0.09840656816959381,-0.0722598060965538,0.10263580083847046,0.07925974577665329,-0.008501204662024975,0.38553619384765625,0.32468125224113464,-0.30044320225715637,0.043429043143987656,0.03744721785187721,0.2644050419330597,-0.021502889692783356,-0.2288072258234024,0.1182560995221138,-0.1264699101448059,-0.08177898079156876,0.25138336420059204,0.09446804970502853,0.4010147154331207,0.09974325448274612,-0.07744588702917099,-0.23513449728488922,-0.032722655683755875,0.2080567628145218,0.17531269788742065,-0.054153215140104294,-0.0849299281835556,-0.1171969398856163,-0.5425138473510742,0.03798355162143707,0.036835357546806335,0.003604019060730934,-0.20594245195388794,-0.08756035566329956,-0.08210239559412003,-0.12630239129066467,-0.16682353615760803,0.10285975784063339,-0.052072472870349884,-0.17229078710079193,-0.22374634444713593,-0.4230268597602844,0.11627746373414993,0.1370360553264618,0.045354969799518585,0.12630464136600494,-0.09571867436170578,-0.0748540610074997,0.009804078377783298,0.2204558551311493,0.11964977532625198,0.2062702178955078,-0.04909946396946907,-0.14195898175239563,-0.35568511486053467,-0.29095762968063354,0.18632927536964417,0.20709748566150665,-0.21298985183238983,0.26802730560302734,0.024675002321600914,0.05776155740022659,0.03757018968462944,-0.04108778014779091,-0.2748967111110687,0.10934577882289886,0.01490264292806387,0.149635449051857,0.08395341038703918,0.42562592029571533,-0.20876094698905945,0.023165423423051834,-0.2177664190530777,-0.004890253767371178,-0.012652971781790257,-0.07883889228105545,0.01877487637102604,-0.058060504496097565,0.00187195697799325,-0.11500348150730133,-0.03267844393849373,0.3522244095802307,-0.11725673079490662,-0.004141960758715868,-0.010755916126072407,-0.17958387732505798,-0.07188659906387329,-0.22542589902877808,-0.04130108281970024,0.00929769966751337,-0.07996562123298645,-0.058922771364450455,-0.0566716194152832,-0.008742022328078747,-0.06425674259662628,-0.1328769028186798,-0.3068779408931732,-0.0049622636288404465,-0.10064458101987839,-0.17537543177604675,0.04414971545338631,-0.04319596290588379,-0.10347060859203339,0.07900846004486084,0.2284301519393921,0.16814929246902466,0.09038151055574417,0.2276899218559265,-0.08516613394021988,0.10365788638591766,0.06924086809158325,0.0036212110426276922,0.012832511216402054,0.001575424917973578,0.35416826605796814,-0.09401294589042664,-0.017747540026903152,0.06071877107024193,0.005415067542344332,-0.08692684769630432,0.031806398183107376,0.19060370326042175,-0.2639217674732208,-0.024715717881917953,0.16682840883731842,-0.06634943187236786,-0.008656301535665989,0.23254038393497467,0.12183557450771332,-0.032951720058918,-0.09247395396232605,0.25173431634902954,0.15930475294589996,-0.14886830747127533,-0.13591434061527252,0.02307651937007904,0.344102144241333,0.09057942777872086,0.025320108979940414,-0.24904410541057587,-0.18615072965621948,-0.061689309775829315,0.32253751158714294,0.04238685965538025,-0.18791262805461884,0.33634984493255615,-0.030879424884915352,-0.15814386308193207,0.3274697959423065,0.054997220635414124,-0.09411190450191498,0.05592619627714157,-0.03922903910279274,-0.0652935802936554,0.11932267993688583,-0.18714365363121033,-0.10029181092977524,0.3285497725009918,-0.233774796128273,-0.10943487286567688,0.3066610097885132,0.05390818789601326,0.19680258631706238,-0.08810262382030487,0.1373385339975357,0.4056522846221924,0.049753617495298386,-0.27625763416290283,-0.12735615670681,0.13338002562522888,-0.074773408472538,0.006282383110374212,0.16254498064517975,-0.21516388654708862,-0.04750247672200203,0.26898545026779175,0.046074140816926956,-0.07260377705097198,-0.1601492017507553,0.23645326495170593,-0.11004217714071274,-0.23170392215251923,-0.012642988003790379,-0.1362352818250656,0.1709728091955185,0.02097221463918686,0.14181092381477356,-0.1906326562166214,-0.1280892789363861,0.05558837577700615,0.31098368763923645,-0.11865890771150589,0.1123344898223877,0.03985929489135742,-0.09802095592021942,-0.23368564248085022,0.18499305844306946,0.034058403223752975,-0.2513757348060608,-0.36380115151405334,-0.23998452723026276,-0.0034031530376523733,0.06377176940441132,-0.2093060165643692,0.09437097609043121,0.10850973427295685,-0.2627473771572113,-0.010994301177561283,-0.001040167873725295,0.047307927161455154,0.08158037811517715,-0.024333685636520386,-0.10895504057407379,0.33962923288345337,0.19971716403961182,0.0679352656006813,-0.17911580204963684,0.06608961522579193,0.004933452233672142,-0.34014058113098145,0.1541687250137329,0.3873727023601532,0.09328579902648926,0.150584414601326,-0.16720950603485107,0.539911687374115,-0.013471286743879318,-0.2801012694835663,0.0489034429192543,0.18062634766101837,0.07921427488327026,-0.42084425687789917,-0.054672714322805405,-0.13323912024497986,-0.028060194104909897,-0.18172313272953033,0.27086812257766724,-0.284561425447464,0.0015015562530606985,0.014258663170039654,-0.38614970445632935,0.3737447261810303,0.03702453523874283,-0.09002858400344849,0.07520858198404312,-0.06264987587928772,-0.2736426293849945,-0.11218240857124329,-0.007248127833008766,-0.021651968359947205,-0.03519055247306824,0.0005239034071564674,-0.09832890331745148,-0.06574643403291702,0.3529563844203949,0.1949605792760849,-0.008721924386918545,0.006578048225492239,0.5907547473907471,0.21967090666294098,-0.039305366575717926,-0.072064109146595,0.08793476969003677,-0.07272700220346451,0.07126104086637497,0.024270959198474884,-0.03402696177363396,-0.03924301639199257,0.04748706519603729,0.10048069804906845,-0.09424619376659393,-0.046746447682380676,0.1832444816827774,0.10689414292573929,-0.03949317708611488,-0.11919567734003067,0.38598766922950745,0.01988223008811474,0.574888288974762,-0.8822557926177979,-0.8744316697120667,-0.02461688220500946,0.3689975440502167,-0.027611074969172478,0.3432283103466034,0.27331653237342834,-0.8548620939254761,0.5435079336166382,0.09925097972154617,-0.737413763999939,-0.010725178755819798,0.022308675572276115,0.12762480974197388,-0.330498605966568,0.19865848124027252,0.09135366976261139,0.12201641499996185,0.6627523303031921,-0.0655144676566124,-0.26210740208625793,0.036626677960157394,0.1216064840555191,-0.4168483018875122,0.24467045068740845,0.28224653005599976,-0.5590237379074097,0.029957368969917297,-0.13552530109882355,-0.12676222622394562,-0.11121709644794464,-0.013307003304362297,-0.19698961079120636,0.08287978917360306,-0.04451419785618782,0.44202306866645813,0.08389613777399063,-0.3168915808200836,-0.21448451280593872,-0.16974088549613953,-0.1582590937614441,-0.13972105085849762,0.47119221091270447,0.40728670358657837,-0.007129508536309004,0.062246330082416534,0.20455357432365417,-0.19366595149040222,0.1762009859085083,-0.21129857003688812,-0.06527937948703766,-0.2996810972690582,0.21431106328964233,0.13838990032672882,-0.15160560607910156,0.09438253194093704,-0.0014336261665448546,-0.0070635168813169,0.1896435171365738,-0.044595472514629364,0.13980689644813538,0.003917475696653128,0.10648025572299957,-0.1600877344608307,0.4172699451446533,0.31400027871131897,0.4688096046447754,-0.03387458622455597,-0.1143893226981163,-0.23603802919387817,-0.1370023936033249,0.04610653221607208,-0.2619316875934601,-0.08459406346082687,0.14667566120624542,0.16686274111270905,-0.3633571267127991,0.35958024859428406,-0.0019019880564883351,-0.1751662939786911,-0.21752487123012543,0.0630660429596901,-0.032267212867736816,0.18473640084266663,-0.2939355671405792,0.3010410964488983,0.20598797500133514,0.12521588802337646,0.08771467208862305,-0.21889933943748474,-0.24264268577098846,-0.06503617763519287,-0.08339996635913849,-0.4063166081905365,-0.0010150921298190951,0.11397211253643036,0.20503337681293488,-0.32018813490867615,0.05668587237596512,-0.3109263479709625,-0.08459530770778656,0.26515713334083557,0.151004821062088,0.25473377108573914,0.5364266633987427,-0.10663832724094391,-0.1503080278635025,-0.40489375591278076,-0.3636203408241272,-0.09246065467596054,-0.25005921721458435,-0.35406702756881714,0.11221768707036972,0.08261101692914963,-0.09563521295785904,0.04473762586712837,0.348207026720047,-0.32202500104904175,-0.12229415029287338,0.18089644610881805,-0.11942200362682343,-0.025506969541311264,0.4614728093147278,0.09386685490608215,-0.2076740860939026,-0.19172577559947968,0.1604454219341278,-0.3605329394340515,0.032275885343551636,-0.16842588782310486,-0.25121915340423584,-0.2959577441215515,0.13490235805511475,0.19846861064434052,-0.048862162977457047,0.016853544861078262,0.013877459801733494,-0.030554277822375298,0.00358551274985075,0.17781805992126465,-0.3536279797554016,0.24822352826595306,-0.028653092682361603,-0.1962859332561493,0.11076056957244873,0.25837573409080505,0.215519517660141,-0.3720013201236725,-0.0563170425593853,0.11936800926923752,-0.09599842131137848,-0.23793277144432068,-0.14387787878513336,0.14033307135105133,0.22048082947731018,0.10545055568218231,-0.6871840953826904,0.022077025845646858,0.066434845328331,-0.10749417543411255,0.22280481457710266,-0.20508676767349243,-0.04014388099312782,-0.28346654772758484,0.3173213303089142,-0.3713037967681885,-0.3214287757873535,0.045187126845121384,-0.10858387500047684,0.1348893791437149,0.30146586894989014,0.137645423412323,0.1266523152589798,0.12062659859657288,0.16275756061077118,-0.45136967301368713,-0.113140769302845,0.11191185563802719,0.2577410638332367,-0.32622233033180237,-0.057224735617637634,0.12564797699451447,-0.04556828364729881,0.15012267231941223,-0.12016188353300095,-0.2956116199493408,0.2939564883708954,0.2156086266040802,-0.2407875955104828,0.07438268512487411,0.30903106927871704,-0.22387373447418213,-0.03878544643521309,0.19214893877506256,0.060832150280475616,0.11252511292695999,-0.0018420052947476506,-0.40164440870285034,-0.014822992496192455,0.4984194040298462,0.11305121332406998,-0.3138648271560669,0.5618237853050232,0.09351161122322083,-0.5553330779075623,0.07817026227712631,0.35518592596054077,0.2461480349302292,0.3175737261772156,-0.06679059565067291,0.0843135192990303,-0.23711137473583221,-0.35243698954582214,0.08516399562358856,0.16911105811595917,-0.12551641464233398,-0.2356141358613968,-0.2619428038597107,-0.0878911018371582,0.1112372949719429,-0.19577042758464813,0.10491017252206802,-0.09614329040050507,0.21954692900180817,0.45357295870780945,0.10122320801019669,0.24419373273849487,-0.11446624994277954,0.015467854216694832,0.06881687790155411,0.28943485021591187,-0.019126754254102707,-0.19316205382347107,-0.11780190467834473,-0.34378957748413086,-0.07272316515445709,0.00698119169101119,0.26681697368621826,-0.2917959690093994,0.05928628519177437,-0.07183913141489029,-0.07120412588119507,-0.04997162148356438,0.15299279987812042,0.41035622358322144,-0.5250765681266785,-0.014650948345661163,-0.3615468740463257,-0.10427549481391907,0.1294448971748352,0.5089219212532043,0.034784816205501556,-0.09306411445140839,-0.04649455472826958,0.041194722056388855,-0.18010666966438293,-0.20318879187107086,-0.07029122859239578,-0.13649716973304749,0.12663805484771729,-0.049892883747816086,-0.09543254226446152,0.2882436215877533,-0.4427531063556671,0.11233974248170853,0.17386804521083832,-0.009428785182535648,-0.019889432936906815,-0.37112125754356384,-0.3113839626312256,0.05676429718732834,0.07959828525781631,-0.06933043152093887,0.0952439233660698,-0.08354350179433823,-0.0601251944899559,-0.04986557364463806,-0.42893993854522705,0.14832419157028198,0.03456631675362587,-0.05556469038128853,-0.0184097271412611,-0.12456852197647095,0.006270604208111763,-0.04539234936237335,-0.2244701385498047,-0.20513252913951874,-0.1689821481704712,0.04245419055223465,0.16609801352024078,-0.2141699343919754,0.2079499065876007,0.08975795656442642,-0.15805229544639587,-0.1260678768157959,0.07167432457208633,-0.06963538378477097,0.043932944536209106,0.022023886442184448,0.04799835383892059,-0.02019197680056095,-0.14495573937892914,0.0386383980512619,0.0375516340136528,0.0633154809474945,-0.015563092194497585,0.15749885141849518,0.18109621107578278,-0.1532895565032959,-0.05244429036974907,-0.07620860636234283,0.011560962535440922,-0.03829140588641167,-0.09093708544969559,-0.18305979669094086,0.13816219568252563,0.07647018879652023,-0.09877385944128036,0.1193905845284462,0.08898892253637314,-0.21784117817878723,-0.0046194689348340034,0.19161178171634674,0.3423842489719391,-0.17392149567604065,0.05882553383708,-0.05012616142630577,0.0562950037419796,0.08281387388706207,-0.037241436541080475,0.1351359784603119,0.007348133251070976,0.0979749858379364,-0.057846758514642715,-0.0341256745159626,0.25674232840538025,-0.02157333679497242,-0.12932661175727844,0.20179422199726105,-0.23062734305858612,0.007665541954338551,-0.5921526551246643,-0.16777770221233368,0.1458793580532074,0.25843366980552673,0.14050644636154175,0.052586738020181656,-0.17572182416915894,0.03796178475022316,0.058903660625219345,-0.36849337816238403,-0.21908436715602875,0.05269008129835129,0.029881248250603676,0.09186302870512009,0.10979228466749191,-0.15460924804210663,-0.06490468233823776,0.1656477451324463,0.1477777361869812,-0.04819576442241669,0.064450703561306,0.11926756054162979,0.02510850690305233,-0.05906445533037186,0.07562326639890671,-0.011269799433648586,-0.0901777446269989,0.0024357985239475965,-0.056176092475652695,-0.14261005818843842,0.05404603108763695,-0.18222030997276306,-0.16929757595062256,0.21370132267475128,0.23666515946388245,-0.13829973340034485,0.08848608285188675,0.06683601438999176,0.02520626038312912,-0.28237494826316833,-0.3243440091609955,-0.14365942776203156,-0.16162902116775513,0.10438287258148193,0.4715142846107483,0.23269003629684448,-0.1281106323003769,-0.02965676039457321,0.04204993322491646,-0.3419201076030731,0.06964614242315292,-0.20839691162109375,-0.05637992173433304,-0.3330170512199402,0.008854268118739128,0.019927525892853737,-0.12068313360214233,-0.04525553062558174,-0.08346733450889587,0.08866401761770248,-0.1012306734919548,0.24966351687908173,0.2550897002220154,-0.14758968353271484,-0.21736234426498413,-0.22672726213932037,-0.25763922929763794,0.023722754791378975,0.09714541584253311,-0.03823792189359665,-0.0865025445818901,0.02096995897591114,-0.17105324566364288,0.060700371861457825,0.23012685775756836,-0.10089359432458878,0.004268854856491089,0.05477649345993996,0.15134339034557343,-0.2888099253177643,-0.07960044592618942,0.020217156037688255,0.12492357939481735,0.27825307846069336,-0.05407121032476425,0.23910266160964966,-0.34471437335014343,-0.22652176022529602,-0.1427571326494217,0.14665870368480682,0.031327348202466965,0.0033645776566118,-0.12235604226589203,0.11204627901315689,0.16849206387996674,0.5274004340171814,0.11646139621734619,-0.03066335991024971,-0.23827867209911346,0.1182093396782875,0.020205238834023476,0.11125656962394714,-0.11140932142734528,0.002997578587383032,0.07868362963199615,-0.058914244174957275,0.11933907121419907,-0.0420931801199913,0.09462554007768631,0.016030393540859222,-0.07000072300434113,-0.1323114037513733,-0.03403165936470032,-0.13589158654212952,0.17804007232189178,-0.2049451619386673,0.08690778911113739,0.2829863131046295,0.04675636813044548,-0.03854386880993843,0.16319173574447632,-0.07585696876049042,-0.10109057277441025,-0.01695951446890831,-0.03701590746641159,0.016838517040014267,0.07616258412599564,-0.18814842402935028,-0.05286974832415581,-0.13440591096878052,0.03945757448673248,0.2128109186887741,0.07739861309528351,0.025225335732102394,-0.09617067128419876,-0.004491560161113739,-0.26611459255218506,-0.04722500592470169,0.12886781990528107,0.031452927738428116,0.21484394371509552,-0.16779299080371857,0.28698670864105225,-0.01742744818329811,-0.04367072507739067,-0.10393940657377243,0.28802862763404846,-0.07936877757310867,0.08335980772972107,-0.03238001465797424,0.24799959361553192,0.005473671946674585,-0.230215385556221,0.044336240738630295,0.10141634941101074,-0.05576374754309654,-0.31411346793174744,0.014737497083842754,0.031990617513656616,0.029318775981664658,0.017552074044942856,0.06801082193851471,-0.008142358623445034,-0.019321080297231674,-0.003601309610530734,-0.22891990840435028,-0.030238496139645576,0.13732606172561646,-0.2515846788883209,0.1266341507434845,0.1634342074394226,-0.2673814296722412,-0.0991826131939888,0.3554660975933075,0.03008393570780754,0.1079249382019043,0.19311781227588654,-0.15437205135822296,-0.050394363701343536,-0.027341695502400398,-0.18679767847061157,-0.10144703835248947,-0.05203891918063164,0.2678070068359375,-0.2212294042110443,0.01856483519077301,0.05518731847405434,-0.03067694418132305,0.18177196383476257,-0.14462484419345856,0.15102466940879822,0.07777658849954605,-0.13541492819786072,-0.09603367745876312,0.16988210380077362,-0.25772222876548767,-0.08889002352952957,-0.20588597655296326,0.13560226559638977,-0.2758409082889557,-0.34842216968536377,0.23237672448158264,0.16985587775707245,0.07987329363822937,-0.3560880124568939,-0.10068204998970032,-0.01586063951253891,-0.048712972551584244,0.002851487835869193,0.0348983071744442,-0.14848235249519348,-0.08007696270942688,0.30212685465812683,-0.2715587913990021,0.06405411660671234,0.14328314363956451,-0.20002445578575134,-0.07489428669214249,0.44105347990989685,-0.2821231484413147,0.059152752161026,0.14554423093795776,-0.08283773064613342,-0.02297443524003029,0.04279766604304314,-0.0654849261045456,0.13126318156719208,0.28871485590934753,-0.3325343728065491,0.08449793606996536,-0.012848908081650734,0.047168582677841187,0.02622920833528042,-0.049831680953502655,0.06115703284740448,-0.029797960072755814,-0.1592940241098404,0.06942407041788101,-0.14076730608940125,-0.04300818219780922,0.06700228154659271,-0.20169800519943237,-0.15120047330856323,0.24955004453659058,0.16053500771522522,0.20715415477752686,-0.21902352571487427,0.17558781802654266,0.26844489574432373,-0.03966332599520683,-0.050311602652072906,0.12917321920394897,0.3081968426704407,-0.15019701421260834,-0.1094207838177681,0.07539868354797363,-0.21617154777050018,-0.18064136803150177,0.28429052233695984,0.03345714136958122,0.11022555828094482,0.057863179594278336,-0.13896235823631287,0.05413968116044998,0.14954499900341034,-0.03883574530482292,-0.13682617247104645,0.4383184015750885,-0.22958120703697205,-0.10792843252420425,0.17626060545444489,-0.18924184143543243,-0.060443442314863205,0.22127382457256317,-0.00759474840015173,-0.13230586051940918,0.26253411173820496,0.1722046583890915,-0.03255263715982437,-0.12610754370689392,0.047228969633579254,0.04430340230464935,0.2641555368900299,0.06686129420995712,0.16094501316547394,-0.211462140083313,-0.015210784040391445,-0.11116811633110046,-0.06334248185157776,0.1882568746805191,0.23559647798538208,-0.23861168324947357,-0.06686592102050781,-0.17602123320102692,0.1628064662218094,-0.17501242458820343,-0.3049677908420563,0.11596032977104187,0.018772084265947342,0.03737696632742882,-0.40320253372192383,0.2677876949310303,-0.13590845465660095,-0.158857524394989,0.012674815952777863,0.20550034940242767,-0.15458400547504425,0.050313834100961685,-0.010524088516831398,-0.22983328998088837,-0.038277968764305115,0.07372493296861649,-0.24097667634487152,-0.06448636204004288,0.05022625997662544,-0.31639882922172546,0.1983673870563507,0.32979556918144226,0.07121740281581879,0.1444464921951294,0.24284511804580688,-0.146330788731575,-0.054320886731147766,-0.019635673612356186,-0.20755977928638458,-0.10284435003995895,-0.028701800853013992,0.18648014962673187,0.21201558411121368,0.09754135459661484,-0.02032606117427349,0.012665278278291225,0.08149689435958862,-0.10867959260940552,-0.19829054176807404,0.13764332234859467,-0.11078532040119171,-0.34311556816101074,0.3314650058746338,0.674870491027832,0.305869460105896,-0.14000311493873596,0.4650588035583496,0.04241258651018143,-0.24083814024925232,0.2346717268228531,-0.04028140380978584,0.23550273478031158,0.007851622067391872,0.1196485385298729,-0.2532288730144501,0.40597352385520935,-0.12393710762262344,0.09394604712724686,0.3549395501613617,-0.016800910234451294,0.034396860748529434,-0.47137755155563354,-0.3241187632083893,0.160470649600029,0.42921268939971924,-0.07713662832975388,0.5172675848007202,0.6469294428825378,-0.22149448096752167,-0.021039893850684166,0.6215687394142151,-0.2810366153717041,-0.12851577997207642,0.23955653607845306,-0.03803100436925888,0.02251174859702587,-0.1347428560256958,0.16775579750537872,0.21029965579509735,0.5677576661109924,-0.09372366964817047,-0.1114867702126503,-0.10323260724544525,-0.10615169256925583,0.048441965132951736,-0.04474867135286331,0.25120094418525696,0.34622371196746826,-0.084554523229599,-0.13310647010803223,0.21596552431583405,-0.12513650953769684,0.02208096906542778,-0.08728376775979996,0.02692275494337082,-0.09488554298877716,-0.2853568494319916,0.06902820616960526,-0.12195207178592682,0.03626091033220291,0.07764598727226257,0.34450435638427734,-0.030255218967795372,-0.0637759417295456,-0.2607657313346863,-0.0030036792159080505,0.06703381985425949,-0.06907704472541809,-0.11004828661680222,-0.1485854834318161,-0.12366548925638199,0.026931719854474068,-0.13366957008838654,0.2690211534500122,0.5057425498962402,0.10261595249176025,-0.1493832916021347,0.2532050907611847,-0.2959769666194916,-0.21496844291687012,0.1586056351661682,0.027057548984885216,0.11378789693117142,0.40917378664016724,0.02475585602223873,0.06353449076414108,-0.03070201724767685,0.0761386975646019,-0.19969788193702698,0.13503605127334595,-0.011669408529996872,0.0765782967209816,0.03842221945524216,-0.10426248610019684,-0.032819293439388275,-0.031382184475660324,-0.3192453980445862,0.05283264070749283,0.03945326432585716,-0.19531558454036713,-0.12384963035583496,0.017012152820825577,0.2430068850517273,-0.13755060732364655,0.24249917268753052,0.17369729280471802,0.030990317463874817,-0.13739262521266937,-0.17178669571876526,-0.11127670854330063,-0.17055802047252655,-0.1513182818889618,0.19980429112911224,-0.05279584601521492,-0.23219992220401764,-0.08082088828086853,0.042891185730695724,-0.019154787063598633,0.11196667701005936,-0.10453775525093079,-0.2066836953163147,-0.14027658104896545,-0.12020260095596313,-0.3096933960914612,0.12331583350896835,0.11129587143659592,-0.22668620944023132,0.1879063993692398,0.03294068202376366,0.026930339634418488,0.051531076431274414,0.03616674616932869,-0.35364067554473877,-0.1983945667743683,-0.0033813833724707365,0.049683813005685806,-0.08585188537836075,-0.26719605922698975,0.016621088609099388,0.03740102797746658,-0.02150626666843891,-0.09001900255680084,-0.05939128249883652,0.13401278853416443,0.19813093543052673,-0.18021225929260254,-0.11704681068658829,0.17438942193984985,0.06423047930002213,-0.06290952861309052,-0.06647063046693802,-0.00625764112919569,