{"version":"0.5.4","metadata":{"date":{"year":2026,"month":1,"day":22,"hour":2,"minute":42,"second":16},"loudness":-19.085113525390625,"gain":0.8112125557330466,"name":"AMP-THC-4","modeled_by":"lum","gear_type":"amp","gear_make":"tz-make","gear_model":"tz-model","tone_type":"overdrive","input_level_dbu":null,"output_level_dbu":null,"training":{"settings":{"ignore_checks":false},"data":{"latency":{"manual":null,"calibration":{"algorithm_version":1,"delays":[4056],"safety_factor":1,"recommended":4055,"warnings":{"matches_lookahead":false,"disagreement_too_high":false}}},"checks":{"version":3,"passed":true}},"validation_esr":0.010644194863455235}},"architecture":"WaveNet","config":{"layers":[{"input_size":1,"condition_size":1,"head_size":8,"channels":16,"kernel_size":3,"dilations":[1,2,4,8,16,32,64,128,256,512],"activation":"Tanh","gated":false,"head_bias":false},{"input_size":16,"condition_size":1,"head_size":1,"channels":8,"kernel_size":3,"dilations":[1,2,4,8,16,32,64,128,256,512],"activation":"Tanh","gated":false,"head_bias":true}],"head":null,"head_scale":0.02},"weights":[0.21315962076187134,0.6648817658424377,-1.0368776321411133,-0.7941584587097168,-0.49459904432296753,0.43289998173713684,0.003778968472033739,1.023049235343933,-0.2388329952955246,0.5132551789283752,-0.34343206882476807,-0.29643455147743225,-1.1583857536315918,-0.7724286913871765,-0.5157368779182434,0.16762125492095947,-0.08806391805410385,0.1749393492937088,-0.23944620788097382,-0.11670346558094025,0.1983707845211029,0.08652040362358093,0.019705137237906456,-0.050079043954610825,0.010452412068843842,0.06692692637443542,-0.023911522701382637,-0.09958384186029434,-0.034626103937625885,-0.18778619170188904,-0.0156375952064991,0.06437515467405319,0.05382787808775902,-0.11727450042963028,-0.0610516220331192,-0.19256077706813812,-0.07906853407621384,0.07249950617551804,0.22032204270362854,0.03567641228437424,0.0873778685927391,-0.208366259932518,0.09509848803281784,-0.19813764095306396,0.04612363874912262,-0.11757970601320267,0.1504911631345749,-0.0623348206281662,-0.013287488371133804,0.06091522052884102,-0.05044242739677429,0.19688680768013,0.10851499438285828,-0.13737112283706665,0.12920838594436646,-0.032405804842710495,-0.1290871649980545,-0.0763513594865799,-0.04430155083537102,-0.22654026746749878,0.10848895460367203,-0.02618715725839138,0.038229335099458694,-0.050689660012722015,0.23161043226718903,-0.10800351947546005,0.20096346735954285,0.11279360949993134,-0.02644512802362442,0.18269765377044678,-0.1931951493024826,0.05814990773797035,0.0007329047075472772,0.04127541929483414,0.23854054510593414,0.07645797729492188,-0.04711165651679039,-0.008687367662787437,-0.037757135927677155,-0.001436435035429895,-0.24708789587020874,0.19751866161823273,0.038322560489177704,-0.1459723860025406,-0.11674034595489502,0.058503128588199615,-0.137311190366745,-0.010233413428068161,-0.021660368889570236,0.03878019377589226,-0.018761079758405685,0.17045451700687408,-0.01382746547460556,0.13042666018009186,-0.21545393764972687,0.019490433856844902,0.022877171635627747,-0.05472298339009285,0.004782234784215689,-0.15015070140361786,0.051862332969903946,0.21023501455783844,-0.12034446001052856,-0.1138150542974472,-0.023931099101901054,-0.05510446056723595,-0.1870242953300476,0.0018798161763697863,-0.06299801915884018,0.1124318540096283,-0.17609144747257233,0.17732350528240204,-0.2783818542957306,0.4655652344226837,0.19210296869277954,-0.2715049088001251,0.29437851905822754,0.12587900459766388,0.1657884567975998,-0.3056790232658386,-0.06199188530445099,0.15593315660953522,-0.4058693051338196,-0.04759455472230911,0.015017514117062092,-0.41618266701698303,-0.14494840800762177,-0.22826354205608368,0.2805393636226654,-0.014535187743604183,0.04498380050063133,0.001385511364787817,-0.11210355907678604,-0.15458017587661743,0.44261831045150757,0.10469865798950195,0.1852993667125702,-0.326474130153656,-0.05570698902010918,-0.06924998015165329,0.4714822471141815,0.2071412354707718,0.29413115978240967,-0.33377766609191895,-0.222147136926651,0.0951198861002922,-0.22677822411060333,-0.10155776143074036,0.07464993000030518,-0.45051348209381104,-0.2564742863178253,0.025905601680278778,-0.36592474579811096,-0.03644196316599846,0.22870342433452606,-0.4718559682369232,-0.017463793978095055,-0.2945821285247803,0.27768269181251526,0.0035414474550634623,0.17483358085155487,-0.20952646434307098,-0.2374550849199295,-0.021713916212320328,-0.24761418998241425,-0.16576267778873444,-0.16505061089992523,0.29106777906417847,0.04087875410914421,-0.1106424480676651,0.3599358797073364,0.10921819508075714,0.02215905860066414,0.28077274560928345,0.03125854954123497,0.20264236629009247,-0.2453748881816864,-0.22341479361057281,-0.03139908239245415,-0.13374410569667816,-0.005661083851009607,0.07148775458335876,-0.13174968957901,-0.13033606112003326,-0.06745385378599167,0.26424410939216614,0.10817387700080872,0.08705269545316696,-0.3480445146560669,-0.08898203074932098,0.004994251299649477,0.3236626386642456,0.048140302300453186,-0.11074589937925339,0.1229737401008606,0.0773715227842331,-0.18524163961410522,0.28478747606277466,0.08614696562290192,-0.10584863275289536,0.24021567404270172,0.2610969841480255,-0.2139187604188919,0.13268184661865234,0.07843901216983795,0.23819148540496826,-0.2620876729488373,-0.002286260947585106,-0.11234801262617111,0.1674215942621231,-0.20437872409820557,-0.12302065640687943,0.1615007370710373,-0.0852300226688385,0.09678210318088531,-0.12302819639444351,-0.048051100224256516,0.019743559882044792,-0.02494400553405285,-0.05656472221016884,0.08238117396831512,-0.003956691361963749,0.11333362758159637,-0.10070285946130753,0.020078936591744423,-0.00771736865863204,0.0010123285464942455,-0.09191329032182693,0.03989075869321823,-0.11932921409606934,0.14620395004749298,0.055051181465387344,0.11335664987564087,-0.031183995306491852,0.17152482271194458,-0.20058131217956543,0.22030650079250336,-0.18540142476558685,0.028672749176621437,-0.10076822340488434,0.10656934231519699,0.20911085605621338,-0.1973240226507187,0.0784197449684143,0.17305836081504822,-0.28406310081481934,0.1699596494436264,-0.02504846826195717,-0.14157792925834656,0.03768002986907959,0.01879393309354782,-0.1248524934053421,0.1843416839838028,-0.14349371194839478,0.07470523566007614,-0.15436382591724396,-0.21748006343841553,0.0913294330239296,0.07347916811704636,-0.1103379875421524,-0.046344030648469925,0.2705560326576233,0.08700907230377197,0.06261467933654785,-0.13544142246246338,-0.0349125899374485,-0.08508975058794022,-0.14191468060016632,0.13852205872535706,-0.00036809747689403594,-0.24563710391521454,-0.09141643345355988,-0.09795651584863663,0.2052203118801117,-0.03213459625840187,-0.11508674919605255,0.1537386029958725,-0.10672452300786972,0.02988882176578045,0.2296820431947708,0.05395447462797165,-0.11768815666437149,-0.27080467343330383,0.08723297715187073,0.06299455463886261,0.30328989028930664,-0.025238508358597755,0.007440711837261915,-0.19584223628044128,0.024729017168283463,-0.12174529582262039,-0.11948221176862717,0.058403097093105316,-0.05033981055021286,-0.22194568812847137,-0.07450968772172928,0.05407300218939781,-0.2913527488708496,0.07626930624246597,-0.09076006710529327,-0.24598661065101624,-0.023406006395816803,-0.05777006968855858,0.1634761095046997,-0.08393413573503494,-0.010573497042059898,0.35068479180336,-0.07826840877532959,0.10166415572166443,0.25476524233818054,0.014768064953386784,-0.07945053279399872,-0.224265456199646,0.08277001231908798,0.000847084738779813,-0.1738719493150711,0.06469633430242538,-0.04874193295836449,-0.205778568983078,-0.12945732474327087,0.061800844967365265,0.2848554253578186,0.007815208286046982,-0.02330748550593853,-0.017977330833673477,-0.005820364225655794,0.13886870443820953,0.29377281665802,0.22647812962532043,-0.10620469599962234,-0.37199926376342773,-0.2712549865245819,0.1914013773202896,0.3681739568710327,0.0397743321955204,0.006143996492028236,-0.14381250739097595,0.2895486354827881,0.07842183858156204,-0.1529059261083603,0.10251638293266296,-0.10541690140962601,-0.1570996344089508,0.21657393872737885,-0.14229656755924225,-0.1409720778465271,0.20575332641601562,0.024071218445897102,-0.35705095529556274,-0.10837594419717789,-0.009045346640050411,0.3586720824241638,-0.04873821884393692,0.2612103223800659,-0.05399194732308388,0.09034646302461624,0.1553659737110138,0.025042323395609856,-0.12393911182880402,-0.17571552097797394,-0.057822611182928085,-0.1646871119737625,-0.3219667673110962,0.15239721536636353,0.056078825145959854,-0.0706799179315567,0.1556558758020401,-0.10817133635282516,0.11014395952224731,-0.0693366751074791,0.0696505457162857,0.11769748479127884,-0.040131572633981705,-0.044615793973207474,0.07083401829004288,-0.12249482423067093,0.1072702407836914,-0.091434046626091,0.15373221039772034,0.14057883620262146,0.34373167157173157,-0.08103787153959274,0.05159881338477135,-0.07348603755235672,0.0838768482208252,0.12503784894943237,-0.13073131442070007,0.1347489356994629,-0.07677671313285828,-0.1402929127216339,0.056386321783065796,-0.05595575273036957,-0.2874735891819,-0.042443979531526566,-0.12914495170116425,-0.10715006291866302,0.1421584039926529,-0.019790681079030037,0.11054137349128723,0.05212993919849396,-0.02388024888932705,0.03768077865242958,-0.13987645506858826,0.09967003017663956,0.13380973041057587,-0.10301398485898972,0.16832485795021057,0.027472075074911118,-0.05340646952390671,0.11242104321718216,-0.16230902075767517,-0.02262730896472931,0.15883024036884308,-0.07127615809440613,-0.09809607267379761,-0.08904320001602173,0.03431234508752823,-0.038640689104795456,0.06044347211718559,0.08214286714792252,-0.05704488232731819,-0.12123174220323563,0.0884847491979599,0.07137394696474075,0.1304105669260025,-0.19113385677337646,-0.001349440892226994,-0.1523190587759018,0.013891756534576416,0.04943188279867172,-0.06671039760112762,-0.01968381367623806,0.138571634888649,0.053791582584381104,-0.16914834082126617,-0.041972510516643524,0.06311710923910141,-0.19272302091121674,0.06805191934108734,-0.09884470701217651,-0.22030752897262573,-0.1397896260023117,0.004489193670451641,0.01810871623456478,-0.13007022440433502,0.06090426445007324,0.0009920428274199367,0.001351175014860928,-0.08276328444480896,-0.2591629922389984,0.09438025206327438,-0.1117013543844223,-0.0622938834130764,-0.09412310272455215,0.08829612284898758,0.32321083545684814,0.16452167928218842,0.2495434284210205,0.08339489251375198,0.11734452098608017,0.03486143797636032,0.1418767273426056,0.1822556108236313,-0.28900450468063354,-0.15175782144069672,-0.06571956723928452,0.1208776980638504,0.0016612473409622908,-0.03757344186306,-0.23213772475719452,-0.14369215071201324,-0.01849593035876751,0.24577079713344574,0.17325511574745178,0.1781441867351532,-0.3272642195224762,-0.33603668212890625,-0.0843488946557045,0.08365628868341446,0.2526932954788208,0.043157342821359634,0.09467552602291107,0.07063961774110794,0.2096148431301117,0.17246852815151215,0.31792110204696655,0.24996022880077362,0.25930070877075195,0.20404009521007538,0.10988219082355499,0.13974910974502563,0.21042346954345703,0.21623577177524567,-0.2290922850370407,-0.03468301147222519,-0.09702971577644348,0.2976042628288269,-0.1411929577589035,0.15655429661273956,0.47162729501724243,-0.24334992468357086,0.04871712625026703,-0.2665638029575348,0.19529813528060913,0.16147372126579285,-0.4120500385761261,0.1563853770494461,0.10031034052371979,-0.37831318378448486,0.15952935814857483,-0.0015581619227305055,0.43606796860694885,-0.14820486307144165,-0.0879637748003006,0.02397308498620987,0.24595458805561066,0.15454934537410736,0.35442855954170227,-0.026865992695093155,-0.05639100819826126,-0.30512964725494385,0.07144849747419357,0.07723520696163177,0.2503669857978821,-0.19180333614349365,-0.11012028157711029,-0.1952621191740036,0.0716223195195198,0.031311266124248505,-0.4074260890483856,0.25845932960510254,0.18235184252262115,-0.44861194491386414,-0.006000461522489786,-0.06673035025596619,-0.3343973457813263,0.07537496834993362,-0.05366761237382889,-0.3835088014602661,0.14019793272018433,-0.03607397526502609,0.37316545844078064,-0.14200608432292938,-0.0988406389951706,0.1942671239376068,-0.06411314010620117,-0.2720320224761963,0.12560904026031494,-0.26188239455223083,-0.07095874100923538,-0.24971024692058563,0.08200792223215103,0.35616564750671387,-0.20682217180728912,0.24441497027873993,0.19822810590267181,-0.15152664482593536,0.17897576093673706,0.294670045375824,0.13004788756370544,-0.3511257469654083,-0.28604382276535034,-0.1632818579673767,0.09935551881790161,-0.05182357132434845,0.2514074742794037,-0.2505226135253906,-0.24019154906272888,-0.03330874443054199,0.2641568183898926,0.3027968406677246,0.21190451085567474,-0.2548179030418396,-0.30737271904945374,-0.13346055150032043,0.32763156294822693,0.1408739686012268,-0.26263538002967834,0.26533716917037964,0.33843186497688293,-0.15607665479183197,0.09972439706325531,0.08516234159469604,-0.08006232976913452,0.20658135414123535,0.13718003034591675,-0.088603675365448,0.2694879174232483,0.31808367371559143,0.2543466091156006,-0.2104366421699524,-0.28888651728630066,-0.19250032305717468,0.007699513807892799,0.407459557056427,-0.08111508935689926,-0.2835826277732849,0.2771104574203491,0.2741725444793701,0.28725019097328186,-0.2789197564125061,0.08242473006248474,0.055938877165317535,-0.014122613705694675,0.07770192623138428,0.09519923478364944,-0.07852329313755035,-0.20002195239067078,-0.2287026196718216,0.16214917600154877,-0.10262797772884369,-0.15047281980514526,-0.07806353271007538,-0.20248690247535706,-0.10748928040266037,0.28254252672195435,0.2102680802345276,0.18999546766281128,-0.06422030180692673,-0.11407110840082169,-0.2322070151567459,0.320062518119812,0.17233112454414368,0.016843952238559723,-0.18902382254600525,0.03272666037082672,0.2846660017967224,-0.20050598680973053,0.005180226173251867,0.14839977025985718,-0.0675981417298317,0.17447525262832642,0.20317110419273376,-0.14101925492286682,0.1893969476222992,0.12251348793506622,-0.21512050926685333,-0.2650437653064728,-0.27854853868484497,0.27009156346321106,-0.008745727129280567,-0.18977919220924377,0.12238459289073944,-0.0034405109472572803,-0.3585353195667267,0.11066694557666779,-0.06649763882160187,0.3906739056110382,-0.0899936854839325,-0.020432377234101295,0.34523239731788635,-0.035293273627758026,0.12903474271297455,0.16324855387210846,-0.10513609647750854,-0.07016971707344055,-0.2391165941953659,0.12696780264377594,-0.0712537094950676,0.09396905452013016,-0.0012815202353522182,-0.047235142439603806,-0.16605086624622345,-0.1373300701379776,-0.0018097105203196406,0.38057762384414673,-0.03341074660420418,0.10912182182073593,-0.3125327229499817,0.10077354311943054,-0.13603921234607697,0.23121754825115204,-0.022762073203921318,0.044667165726423264,0.31186768412590027,0.11283738166093826,-0.005378991365432739,0.26665905117988586,0.125845804810524,-0.02572491392493248,0.3944592773914337,-0.07357491552829742,-0.005821293219923973,0.25491228699684143,0.07794129848480225,0.12177583575248718,-0.25636324286460876,-0.07645098119974136,0.2738248109817505,0.38056355714797974,0.06008731573820114,0.19397741556167603,0.48160532116889954,0.234470397233963,-0.2728014290332794,-0.5299044847488403,0.003534105606377125,-0.38538113236427307,-0.3542819023132324,-0.07559581845998764,-0.3405798673629761,-0.3335381746292114,-0.21865661442279816,0.3079088032245636,0.29357799887657166,0.0616789236664772,-0.04471952095627785,0.07503089308738708,-0.05428837612271309,0.3778074383735657,0.3780636787414551,0.02979385107755661,-0.37798038125038147,-0.4996797740459442,0.07795201241970062,0.24078936874866486,0.40229636430740356,0.1296529620885849,-0.1650364249944687,-0.24605302512645721,0.03844699636101723,-0.36782652139663696,-0.39526134729385376,-0.15595288574695587,-0.366415798664093,-0.36148011684417725,0.03590209409594536,-0.39317163825035095,-0.3012690246105194,-0.1700640618801117,-0.3004602789878845,-0.2662905752658844,-0.11740358173847198,0.25504109263420105,0.2460988461971283,0.14622941613197327,0.20100155472755432,-0.20859172940254211,0.09341178089380264,0.03481023386120796,-0.24687746167182922,-0.04642025753855705,-0.021149585023522377,0.09366383403539658,0.11353621631860733,-0.00975260604172945,0.22955220937728882,-0.028079036623239517,-0.15187031030654907,0.08909069746732712,-0.07060280442237854,0.14765307307243347,-0.022130517289042473,0.08839098364114761,-0.11325767636299133,0.10845286399126053,0.03328884020447731,0.24582652747631073,-0.19687283039093018,-0.14809873700141907,-0.12971900403499603,0.2168886959552765,-0.1033848449587822,0.27910545468330383,-0.08759399503469467,-0.13786780834197998,-0.16752836108207703,0.2512863874435425,-0.07315520942211151,-0.18690454959869385,0.18068191409111023,-0.09108135104179382,-0.05652538314461708,0.21260622143745422,0.13705645501613617,-0.225330650806427,0.27910974621772766,-0.0388471782207489,0.008617521263659,-0.006159990560263395,-0.08713492751121521,0.2504866123199463,-0.10305579751729965,0.0029632465448230505,-0.07150496542453766,-0.142893984913826,-0.06816238909959793,-0.0963776558637619,0.03768998384475708,0.09211623668670654,0.0837821513414383,-0.06228218227624893,0.02325746789574623,0.26320216059684753,-0.0913606807589531,-0.03085259720683098,-0.08313068002462387,0.008342713117599487,-0.16401615738868713,-0.012374498881399632,0.42266830801963806,-0.37830978631973267,0.9252747297286987,-0.8796059489250183,-0.054406654089689255,1.0943264961242676,1.2722293138504028,-0.6121971607208252,0.18759103119373322,-0.047949109226465225,-0.5136126279830933,-0.5670450925827026,0.4182356894016266,-0.7321401238441467,0.2743154466152191,0.37805765867233276,-0.19305959343910217,0.13110193610191345,0.1417386531829834,0.13458195328712463,0.3209521770477295,0.006728422362357378,0.10060836374759674,-0.3705652058124542,-0.20275554060935974,0.1569375991821289,-0.255862295627594,-0.10573380440473557,0.11457334458827972,-0.05375063791871071,0.22638145089149475,0.008678311482071877,0.0991961732506752,-0.07863102108240128,-0.3170972168445587,0.047713037580251694,0.21546036005020142,-0.09656859189271927,-0.034539658576250076,0.41792333126068115,0.10721839964389801,0.12463169544935226,0.13658767938613892,0.027439288794994354,-0.02501182071864605,-0.05918687954545021,-0.03265223279595375,-0.18367533385753632,0.045340292155742645,0.06956470012664795,-0.12449172884225845,0.25645753741264343,-0.14195160567760468,-0.20817013084888458,-0.036103855818510056,-0.025508994236588478,0.007306544575840235,-0.18894898891448975,0.3245754539966583,-0.1234050765633583,0.09642722457647324,0.3416013717651367,0.06561531871557236,-0.0038598375394940376,0.24840795993804932,-0.0934535562992096,-0.03207219019532204,-0.1983831375837326,-0.22004230320453644,0.19463513791561127,0.22759337723255157,-0.17313134670257568,-0.12146008014678955,0.15050408244132996,-0.04755490645766258,-0.09799530357122421,0.24461185932159424,0.23018774390220642,-0.08717073500156403,0.16539467871189117,-0.21543706953525543,-0.23043668270111084,-0.29247793555259705,0.16968412697315216,-0.06466468423604965,0.17120765149593353,0.061830807477235794,-0.25148794054985046,0.07456883788108826,0.25928232073783875,-0.09572435915470123,0.18807819485664368,0.0036024569999426603,0.16282446682453156,-0.04285554215312004,0.41316208243370056,-0.3052912950515747,0.015766778960824013,0.1873709112405777,0.14258265495300293,0.08251351118087769,0.2673890292644501,0.163198322057724,0.04551895335316658,0.024452751502394676,0.004495042841881514,-0.1408597230911255,-0.04755314439535141,0.037531182169914246,-0.13897952437400818,0.22659467160701752,0.3187809884548187,0.0603235624730587,0.15789814293384552,0.17130343616008759,0.0858733057975769,0.034516338258981705,-0.17976392805576324,0.46356818079948425,-0.20111902058124542,0.17662732303142548,-0.1352485567331314,-0.9358416795730591,-0.029114259406924248,0.5320199728012085,-0.20041196048259735,-0.051309455186128616,-0.5798722505569458,0.17960388958454132,0.20778003334999084,0.44211167097091675,-0.31439104676246643,-0.46906766295433044,0.3430388569831848,0.43042221665382385,0.12185578048229218,0.048074427992105484,-0.2072611004114151,0.39772337675094604,-0.383727490901947,0.08429770171642303,-0.25378742814064026,-0.025142069905996323,0.41266462206840515,0.11519153416156769,-0.15568555891513824,-0.2741386890411377,-0.15005028247833252,0.5563153624534607,-0.24105185270309448,-0.5167253017425537,0.25244221091270447,-0.11639456450939178,-0.7581228613853455,0.250245600938797,0.32894760370254517,-0.1616591066122055,-0.22356411814689636,0.4720146656036377,-0.44414278864860535,-0.28089550137519836,0.21267181634902954,0.4228494167327881,-0.39262357354164124,-0.5594905614852905,0.2700835168361664,0.653174102306366,-0.34585344791412354,-0.15117183327674866,0.7733204364776611,0.00915258377790451,-0.247750923037529,0.5000068545341492,0.12473469972610474,-0.3890916109085083,0.5102359056472778,0.0780753418803215,0.28786107897758484,-0.38173454999923706,0.17617900669574738,-0.09616168588399887,-0.26267650723457336,0.04277941957116127,0.017645355314016342,-0.009072030894458294,-0.12696415185928345,-0.09634940326213837,0.0076757511124014854,-0.09811318665742874,0.22834065556526184,-0.07194629311561584,0.22890862822532654,0.2836921811103821,-0.24260017275810242,0.1060081496834755,-0.0528109148144722,0.6604891419410706,-0.18345719575881958,0.02347617782652378,0.4710470736026764,0.15600965917110443,-0.21040786802768707,-0.34744662046432495,-0.2508743405342102,-0.40613505244255066,0.05722282454371452,-0.35300689935684204,-0.9644128680229187,-0.0641368180513382,-0.07771964371204376,-0.011607280001044273,0.12455461919307709,0.022679047659039497,-0.2535504698753357,-0.06340209394693375,0.004964916501194239,0.148263081908226,-0.17273341119289398,-0.17211832106113434,0.24006971716880798,0.18753495812416077,-0.10047999024391174,-0.02839522622525692,0.3468947112560272,-0.02507861889898777,-0.20052912831306458,-0.2659268081188202,0.035697706043720245,-0.1376085728406906,0.22388605773448944,0.20791633427143097,0.1978992372751236,-0.020420389249920845,-0.13592053949832916,0.22970227897167206,0.012014726176857948,-0.2537820637226105,-0.07324980199337006,-0.288716197013855,0.31719109416007996,-0.02547786943614483,0.3109690546989441,-0.2202034443616867,-0.19352060556411743,0.0076746586710214615,0.06825507432222366,0.3126462697982788,0.2806392312049866,-0.16222582757472992,0.34408608078956604,-0.02314746007323265,-0.2058209627866745,0.15086647868156433,0.21394941210746765,-0.5685291290283203,0.00801585242152214,-0.03990187123417854,0.15233194828033447,0.33459773659706116,0.01922408491373062,-0.25730469822883606,0.1924445927143097,-0.05341337248682976,-0.14802159368991852,-0.30697113275527954,-0.19008302688598633,-0.012890905141830444,-0.1383795589208603,0.22345636785030365,0.2287345975637436,0.21471276879310608,0.3931383490562439,0.1162794679403305,-0.3030532896518707,0.2578173279762268,-0.2197706252336502,-0.04064585268497467,-0.07413259893655777,-0.01273234561085701,-0.08428677171468735,-0.014970080927014351,-0.1589691936969757,0.006285365670919418,-0.04384561628103256,0.19635437428951263,0.15631137788295746,0.03791254758834839,-0.07705570012331009,0.10715486854314804,-0.03289760649204254,-0.28544631600379944,0.02571737952530384,-0.04876875877380371,0.3088529407978058,-0.15517273545265198,-0.03450970724225044,0.3331018388271332,-0.2874835729598999,0.02676653489470482,0.0564214326441288,-0.2324785739183426,-0.08139033615589142,0.2937469482421875,0.27524688839912415,-0.02546830102801323,-0.22628669440746307,0.02156325988471508,-0.13894645869731903,-0.14630380272865295,0.1892564594745636,-0.020395148545503616,-0.4520236849784851,0.4575076997280121,-0.07953377813100815,-0.09094413369894028,-0.3941718637943268,0.23141880333423615,-0.06521325558423996,-0.2795290946960449,-0.07663580775260925,0.2955235242843628,-0.52824467420578,-0.5742213129997253,-0.009097745642066002,-0.26447123289108276,-0.017594749107956886,0.26166993379592896,-0.2829689383506775,-0.00155833235476166,0.1898108273744583,-0.35545819997787476,0.01913422904908657,0.3247394561767578,0.33369648456573486,0.03428234905004501,-0.3551580309867859,0.011147583834826946,-0.0701456367969513,0.10367652773857117,-0.09219637513160706,0.05012550204992294,0.12454397231340408,0.006916055455803871,0.013640986755490303,0.14883403480052948,0.024256577715277672,0.07706424593925476,0.00844946876168251,0.1859472095966339,-0.013378405012190342,0.16824689507484436,-0.19337674975395203,-0.2428007572889328,-0.0526171550154686,0.38434672355651855,-0.12823788821697235,0.06508456915616989,0.06134771183133125,-0.2849596440792084,-0.00006311823381111026,-0.4546053111553192,0.47334274649620056,-0.2145201712846756,0.3317210078239441,-0.38163456320762634,0.1062888577580452,0.18959033489227295,0.12551379203796387,0.0809629037976265,0.12752604484558105,0.19957958161830902,-0.16463814675807953,-0.033333368599414825,0.0842866376042366,-0.007387175224721432,-0.028374912217259407,0.03529832139611244,-0.011215637437999249,0.1501656472682953,-0.1709887683391571,0.09166283160448074,-0.007683280389755964,0.018124395981431007,-0.108143150806427,-0.14485076069831848,-0.15896232426166534,0.012182223610579967,0.1922534853219986,0.2175862044095993,-0.1364964097738266,0.1392788290977478,0.2559258043766022,-0.028435509651899338,0.20657354593276978,0.10399310290813446,-0.00031494160066358745,0.21605639159679413,0.023546919226646423,0.08594086766242981,-0.09651989489793777,-0.0432576946914196,0.2260488122701645,0.14193692803382874,-0.1829785704612732,-0.1455487757921219,-0.2732623517513275,-0.19069305062294006,0.13829673826694489,0.23942503333091736,0.01465671882033348,0.09852422773838043,-0.3225036859512329,0.06886021047830582,-0.33919253945350647,0.04806135967373848,0.03466668725013733,-0.0062623838894069195,0.12323601543903351,-0.26234719157218933,-0.07422187924385071,0.26568830013275146,0.08640008419752121,-0.0620911531150341,-0.10922816395759583,-0.10739380121231079,-0.16577519476413727,-0.1802079826593399,0.16861000657081604,-0.14193803071975708,-0.1266583502292633,0.1253661960363388,0.264333039522171,-0.18525712192058563,-0.01458586473017931,-0.015164852142333984,-0.08274579048156738,-0.018951155245304108,0.05165275186300278,0.18662427365779877,-0.26937755942344666,-0.1289953589439392,0.22696071863174438,0.06035204604268074,-0.021615734323859215,0.1339532881975174,-0.1853102296590805,-0.02175622060894966,-0.38534748554229736,0.22675898671150208,-0.04903067275881767,0.08481942117214203,0.33058929443359375,0.0074309417977929115,-0.44902610778808594,0.18954850733280182,0.004529787227511406,-0.1471024602651596,0.001820130622945726,0.08899945020675659,0.29273098707199097,-0.2463688999414444,0.0471988283097744,0.36293596029281616,-0.24485035240650177,0.04136968031525612,0.3254519999027252,0.5409051775932312,-0.11661301553249359,0.33150041103363037,-0.0027515431866049767,-0.025854643434286118,0.2565902769565582,-0.2519579529762268,-0.09630477428436279,0.4557729661464691,-0.13052979111671448,0.04455965384840965,-0.26199713349342346,0.19569730758666992,0.12244177609682083,-0.24551093578338623,-0.13992463052272797,-0.11433202028274536,0.22271239757537842,0.22453594207763672,0.16548903286457062,-0.21993206441402435,-0.23247355222702026,-0.30999553203582764,0.10008729249238968,0.28923317790031433,0.2686297297477722,-0.005533432587981224,-0.10323446989059448,-0.2481362372636795,-0.093056820333004,0.13366544246673584,0.06178281456232071,0.13577187061309814,0.13894036412239075,0.17599959671497345,0.05170366168022156,0.1454242616891861,0.4022643566131592,0.24926133453845978,0.2707391381263733,-0.13731856644153595,-0.24191106855869293,-0.1836794912815094,0.4208170771598816,0.15145930647850037,-0.06542512029409409,0.014850507490336895,0.4281214475631714,0.6090326309204102,-0.585102379322052,-0.16789576411247253,-0.19901391863822937,-0.2490004301071167,-0.19540810585021973,-0.344382107257843,-0.3333136737346649,-0.06972873210906982,-0.2535403072834015,-0.22010402381420135,0.21145828068256378,0.23763592541217804,0.4666876494884491,-0.03292757645249367,-0.03324221074581146,-0.18354302644729614,-0.11086119711399078,0.10587060451507568,0.1400757133960724,-0.18483039736747742,-0.23674647510051727,0.18284432590007782,-0.07426401227712631,0.11325836181640625,0.13262933492660522,-0.14981071650981903,0.029807209968566895,0.1682407259941101,0.2199779450893402,0.061354778707027435,-0.2672191858291626,-0.007830972783267498,-0.054426733404397964,-0.1333133727312088,0.2307838350534439,0.03812098503112793,-0.15013189613819122,0.20589914917945862,-0.13936810195446014,0.015099610202014446,0.10721839219331741,0.5456066131591797,-0.005599319003522396,-0.03451298922300339,-0.05205971747636795,0.2613590657711029,-0.05912034958600998,0.007959695532917976,0.5377635359764099,-0.0954199954867363,-0.11427343636751175,0.24715891480445862,-0.15579935908317566,-0.23036375641822815,0.2391715943813324,-0.21704334020614624,0.007898110896348953,0.03125336021184921,0.12009136378765106,0.15030908584594727,-0.2637585401535034,0.022421536967158318,-0.004052182659506798,0.012612828984856606,0.057341404259204865,0.1931745857000351,-0.11820831149816513,0.036716390401124954,0.03434132784605026,0.041597917675971985,0.2754030227661133,0.049327220767736435,0.06238727644085884,-0.017524829134345055,0.1612427681684494,0.013122916221618652,0.05434570834040642,-0.01952385902404785,0.21888329088687897,0.3934670686721802,-0.19182077050209045,0.0782797783613205,-0.2353019118309021,-0.018754273653030396,0.002120607066899538,-0.08472941815853119,0.1876988708972931,0.01884540542960167,0.11726804822683334,-0.09421683102846146,-0.06978876143693924,0.2315579503774643,0.043278567492961884,-0.042264413088560104,0.43526872992515564,0.10892952233552933,0.006307610310614109,0.22659234702587128,0.17472800612449646,0.08556762337684631,-0.059942856431007385,0.028737347573041916,-0.23880167305469513,0.020240971818566322,0.03381631523370743,-0.1575947403907776,-0.12728439271450043,-0.048548176884651184,0.03567751497030258,-0.38911372423171997,-0.10270124673843384,-0.11092248558998108,0.4827312231063843,0.20689497888088226,0.21508260071277618,-0.28321534395217896,-0.23288162052631378,0.11957203596830368,0.2334894984960556,0.10513342171907425,0.11080607771873474,-0.015148263424634933,-0.1884436458349228,-0.14688226580619812,0.08813713490962982,0.017001014202833176,-0.13500981032848358,-0.13583579659461975,-0.07119078189134598,-0.012055197730660439,0.1669396460056305,-0.009418399073183537,0.003729692194610834,-0.3078676462173462,-0.17093779146671295,-0.051582030951976776,0.4600534439086914,0.08487842977046967,0.23614579439163208,0.10767123103141785,-0.20400765538215637,0.14399634301662445,-0.15483982861042023,0.2297954261302948,0.29251331090927124,-0.2583012282848358,-0.12370671331882477,-0.07757145166397095,-0.2072523683309555,-0.1771630048751831,-0.0807085633277893,0.2364380955696106,-0.03514786809682846,0.3233540654182434,-0.0017663327744230628,0.058059364557266235,0.011894561350345612,0.1612042486667633,0.2617006003856659,-0.1448616236448288,-0.16369415819644928,-0.23913680016994476,-0.03847172111272812,0.12048923969268799,-0.05306883901357651,0.34245121479034424,0.08261409401893616,0.09138697385787964,-0.06734750419855118,0.0600215308368206,0.018833164125680923,0.09501726925373077,-0.0393393374979496,0.22830136120319366,-0.19575005769729614,-0.05772240459918976,0.39423438906669617,0.06944992393255234,-0.06714077293872833,0.0055691241286695,-0.1279083639383316,0.15107084810733795,-0.4182994067668915,0.27260082960128784,-0.2642911374568939,0.5555016994476318,-0.36843281984329224,-0.004029599484056234,-0.1568487584590912,0.13572221994400024,-0.16203291714191437,0.21671749651432037,0.42294082045555115,-0.05920064449310303,0.06541415303945541,0.22792108356952667,-0.03246535360813141,-0.16721683740615845,-0.0008098506950773299,-0.11782462894916534,-0.18624046444892883,0.17731112241744995,0.09343166649341583,0.10049822181463242,-0.26254981756210327,0.22848515212535858,0.042694129049777985,0.09730708599090576,-0.23918938636779785,0.08555395156145096,-0.057903122156858444,-0.0997522622346878,0.314174622297287,-0.033844806253910065,-0.1542634814977646,0.05687599256634712,-0.06552765518426895,0.06354621052742004,0.1017543151974678,-0.01602594554424286,-0.05437217280268669,-0.2689504027366638,0.111674465239048,0.2757489085197449,-0.19507575035095215,0.10390851646661758,-0.19729752838611603,-0.06773895770311356,0.11966370046138763,0.18964646756649017,-0.0983625203371048,-0.054990142583847046,-0.31869372725486755,0.0998532846570015,0.03063272498548031,-0.10194985568523407,0.25835680961608887,0.0324505940079689,0.3307444453239441,-0.5445685982704163,-0.2769745886325836,0.017169060185551643,0.00314264721237123,-0.10619942098855972,-0.14633548259735107,0.23374685645103455,-0.024757886305451393,-0.15875454246997833,0.18990829586982727,-0.042910099029541016,-0.09051249921321869,-0.09374865889549255,-0.04778808727860451,-0.08548139780759811,0.21666987240314484,-0.05937635526061058,-0.14866992831230164,-0.08023486286401749,-0.07882384210824966,0.19429421424865723,0.002825189381837845,0.2826922535896301,-0.1405697911977768,-0.12628868222236633,-0.06686774641275406,0.00965789519250393,-0.1007523387670517,-0.21483460068702698,0.019626125693321228,0.13172046840190887,-0.03823624551296234,-0.38751015067100525,0.4534929096698761,0.2396555095911026,-0.027962729334831238,0.04394277185201645,0.14720048010349274,-0.08782614767551422,0.34219005703926086,0.15737605094909668,-0.18364760279655457,-0.5660043358802795,0.014813856221735477,0.1448351889848709,-0.16513633728027344,-0.0039503625594079494,-0.17230048775672913,0.2720086872577667,-0.47845491766929626,0.12839913368225098,0.110897958278656,0.025881526991724968,0.14175136387348175,-0.18017718195915222,0.058559395372867584,0.09784859418869019,-0.21863488852977753,0.02171275205910206,0.027762029320001602,-0.15694297850131989,0.10825861990451813,0.03593628853559494,-0.012272309511899948,-0.009970963932573795,-0.053137604147195816,-0.009941017255187035,-0.275341659784317,0.15250076353549957,0.272184818983078,0.030377287417650223,0.007074996363371611,0.04761805385351181,0.02068176679313183,0.19394013285636902,0.1110299825668335,-0.028272761031985283,-0.25536587834358215,-0.08630833029747009,0.07823332399129868,-0.3896845281124115,-0.05727098137140274,0.12786655128002167,-0.20109005272388458,0.024792756885290146,-0.02059185691177845,0.19370296597480774,-0.19769661128520966,-0.21443508565425873,-0.2858293056488037,0.19553683698177338,-0.13783831894397736,0.1180078461766243,0.2471132129430771,-0.1643608808517456,-0.43686744570732117,0.22532640397548676,0.07740135490894318,0.1501840353012085,-0.015271210111677647,0.09487394243478775,0.4193912446498871,0.1975279450416565,-0.09926258772611618,0.27569690346717834,0.40783315896987915,-0.26820576190948486,-0.40632861852645874,-0.1027744933962822,0.13348397612571716,-0.07808029651641846,0.03760135918855667,0.009668360464274883,0.20706522464752197,0.13856983184814453,-0.0487973652780056,0.09934888780117035,0.0329120047390461,-0.29697737097740173,0.07568565011024475,-0.017460843548178673,-0.07873579859733582,0.2844260632991791,-0.008238174952566624,-0.2087203711271286,-0.12335364520549774,-0.15982607007026672,0.3319549858570099,-0.048334550112485886,-0.04860375449061394,0.03359008952975273,-0.18530282378196716,-0.09356401860713959,0.26104429364204407,-0.41603177785873413,0.43078020215034485,0.24818862974643707,0.0506783127784729,-0.1075856164097786,-0.43678975105285645,0.1950751543045044,0.15114092826843262,-0.17031852900981903,0.2762099802494049,0.15510976314544678,-0.015727538615465164,0.0858834832906723,-0.1375640332698822,-0.1256416290998459,-0.005064802709966898,-0.07658253610134125,-0.3178888261318207,0.17027457058429718,-0.1008339524269104,-0.28026527166366577,-0.055755361914634705,0.05372424051165581,0.2106090635061264,-0.04476221278309822,-0.08421299606561661,0.1599227488040924,-0.08574150502681732,0.04390149563550949,-0.11514969170093536,0.10397951304912567,0.05843600630760193,0.009560254402458668,-0.1142636314034462,-0.008094877935945988,0.027855202555656433,-0.04813439026474953,0.12200454622507095,0.17568360269069672,-0.08380495011806488,-0.063707634806633,0.0026945292484015226,-0.010447913780808449,-0.05861404910683632,0.12124785035848618,0.03822138160467148,0.0030510094948112965,-0.051764748990535736,0.20173989236354828,-0.24163946509361267,0.10552243143320084,-0.10571373999118805,0.07496441155672073,0.07772140204906464,-0.02134668081998825,0.10902843624353409,-0.1793033480644226,0.22662149369716644,-0.05443686991930008,-0.024920271709561348,-0.07714585214853287,0.013388782739639282,0.02984084002673626,0.15218859910964966,0.24977947771549225,-0.14094923436641693,-0.08006052672863007,0.20951130986213684,-0.30891045928001404,-0.1113329604268074,-0.11394543200731277,0.10132826864719391,-0.10927203297615051,-0.04815142974257469,-0.046544626355171204,-0.014755082316696644,0.20347347855567932,-0.10186223685741425,0.11868046969175339,0.2821437418460846,-0.03176690265536308,0.029470836743712425,-0.051128096878528595,0.07152757793664932,0.06354276835918427,0.14838457107543945,0.007394330110400915,0.033955685794353485,-0.16280439496040344,0.05855824425816536,0.18723145127296448,-0.010705303400754929,0.1142534390091896,-0.2036609649658203,-0.05104776471853256,-0.055721428245306015,0.21139341592788696,0.044091980904340744,0.14330768585205078,-0.2625921070575714,-0.1581147015094757,-0.06338979303836823,0.17323565483093262,0.24750173091888428,0.005907340906560421,0.3028261661529541,-0.2855943739414215,-0.28028547763824463,0.2190830409526825,0.06602229923009872,-0.038400087505578995,-0.184475377202034,-0.10935980081558228,-0.20909945666790009,-0.1378265768289566,0.0575689859688282,-0.29745256900787354,0.0713021382689476,0.009855924174189568,0.09948757290840149,-0.038927242159843445,0.1294354647397995,-0.020468048751354218,0.02063153125345707,0.059322554618120193,-0.019162286072969437,0.052164703607559204,0.1328771710395813,-0.021439461037516594,0.019822940230369568,0.13260556757450104,0.0066658672876656055,-0.06594441086053848,0.0416092574596405,0.057224396616220474,-0.07856488972902298,-0.22484421730041504,0.03883295878767967,-0.042571987956762314,0.07532713562250137,-0.12710978090763092,-0.04598027095198631,-0.1270391196012497,-0.13926492631435394,0.10734183341264725,-0.261210173368454,-0.1270557940006256,-0.33416491746902466,0.4318033754825592,0.22093565762043,0.04867212846875191,0.22153505682945251,-0.16448821127414703,-0.0662660151720047,-0.030819855630397797,-0.017100417986512184,-0.061385877430438995,-0.13960054516792297,0.006700246594846249,0.037190791219472885,0.20349790155887604,-0.13242289423942566,-0.002445995109155774,0.15306322276592255,-0.011039361357688904,-0.01720549911260605,0.1602296084165573,0.14297977089881897,0.04376308247447014,-0.004186020232737064,-0.14990660548210144,0.0905764102935791,-0.3094397187232971,0.07007689028978348,0.03089691512286663,-0.15774154663085938,-0.059669941663742065,0.001165193971246481,0.14900504052639008,0.142815500497818,0.04225420579314232,0.09871429204940796,-0.05015034228563309,-0.08639928698539734,-0.726364254951477,0.13154324889183044,0.27553972601890564,-0.6051276922225952,0.4669076204299927,-1.1767486333847046,-0.3563350439071655,-0.3556261658668518,0.5217214226722717,-0.8884684443473816,-0.48727235198020935,-1.0413739681243896,0.4975038468837738,-0.833094596862793,0.2705158293247223,-0.7174472808837891,-0.3343382775783539,-0.05064680054783821,0.07531505823135376,0.31736868619918823,0.2790972590446472,-0.11645371466875076,-0.11542603373527527,-0.09853490442037582,-0.025420038029551506,-0.15195763111114502,0.14798113703727722,0.16125831007957458,0.41127336025238037,0.03834175691008568,-0.07479927688837051,-0.09918491542339325,0.041758760809898376,-0.21344108879566193,0.14480642974376678,0.1512400507926941,-0.27005356550216675,0.2740516662597656,0.05262356996536255,-0.30591094493865967,0.29422706365585327,-0.04646889492869377,-0.09173082560300827,0.48008960485458374,-0.16250057518482208,0.1354224681854248,0.21933148801326752,0.33850863575935364,0.13504457473754883,-0.33235692977905273,-0.10171324759721756,0.19975663721561432,-0.0005972132203169167,0.14723506569862366,-0.019056282937526703,0.10376199334859848,-0.012391291558742523,-0.030128059908747673,-0.08640396595001221,-0.19745786488056183,-0.23125435411930084,-0.05786566063761711,0.04220172390341759,-0.08644428849220276,-0.06866037100553513,0.00901641882956028,-0.1654808223247528,-0.48093104362487793,-0.27604940533638,0.027051672339439392,-0.34578320384025574,-0.0007183564594015479,-0.23617631196975708,0.19123530387878418,-0.057984717190265656,0.2837464511394501,0.14442768692970276,-0.1611742377281189,0.10510525107383728,0.022866908460855484,0.5403915047645569,-0.023027360439300537,-0.3285134434700012,-0.2570529580116272,0.23059804737567902,0.10995175689458847,-0.29890766739845276,0.35933366417884827,0.2571575939655304,-0.11967676877975464,0.06256300210952759,0.07681649923324585,-0.3646686375141144,-0.18069949746131897,-0.24747931957244873,-0.1695966124534607,-0.3179113268852234,-0.3215092122554779,-0.2404361367225647,-0.06635694205760956,0.07511889189481735,-0.2389281690120697,-0.07639890164136887,0.011745304800570011,0.008521844632923603,0.27743956446647644,-0.16009390354156494,-0.13823474943637848,-0.14689259231090546,-0.0919564738869667,0.1167556568980217,0.07809676975011826,0.09388312697410583,-0.18115223944187164,0.39131948351860046,-0.45732054114341736,0.31281647086143494,0.030427617952227592,-0.30709028244018555,-0.43775054812431335,0.06212599202990532,0.2669444978237152,-0.40361347794532776,0.13949957489967346,-0.013094929046928883,0.22287558019161224,0.0496198832988739,0.4569830298423767,0.02022833749651909,-0.17813920974731445,0.2995084524154663,0.021926309913396835,0.13670417666435242,0.05998027324676514,-0.023520806804299355,-0.17281799018383026,-0.2209550142288208,0.49800920486450195,-0.5658111572265625,0.2538222670555115,-0.22561976313591003,0.26417720317840576,0.3670586049556732,0.3102235496044159,0.08231061697006226,0.06907189637422562,-0.011125593446195126,-0.12248510122299194,-0.21493090689182281,0.24448667466640472,-0.01883445307612419,-0.10008474439382553,0.12573301792144775,0.07020794600248337,-0.22227314114570618,-0.024054814130067825,-0.1990135908126831,0.009152120910584927,0.0488666370511055,0.23693440854549408,-0.4705578684806824,-0.07193778455257416,0.14518050849437714,0.21331177651882172,0.1564747393131256,-0.3872871696949005,0.15328370034694672,-0.13522058725357056,-0.07756098359823227,0.036940064281225204,0.03300614282488823,0.2813833951950073,0.613418698310852,0.12419955432415009,0.16808860003948212,-0.031048333272337914,-0.04791441932320595,-0.21213485300540924,-0.04812704771757126,0.16333644092082977,0.18818604946136475,0.025242624804377556,-0.006405699532479048,-0.07140703499317169,0.23406882584095,0.24107660353183746,-0.2225845605134964,0.1619117110967636,-0.09837697446346283,0.06598260253667831,-0.008392291143536568,0.08779720216989517,0.2135755866765976,0.20482267439365387,-0.21996630728244781,-0.12333165109157562,-0.23494333028793335,-0.13311171531677246,0.12138555198907852,0.1517428308725357,-0.15218158066272736,0.056670479476451874,0.21556589007377625,-0.10937288403511047,0.13049215078353882,-0.1257295161485672,0.011304164305329323,-0.062397610396146774,0.08557307720184326,0.09545817226171494,-0.23036299645900726,-0.0004831949481740594,-0.0036856429651379585,0.20307165384292603,-0.17516575753688812,0.10262275487184525,0.09905461966991425,-0.013114861212670803,-0.158742293715477,-0.37354710698127747,0.1022678092122078,-0.14314180612564087,-0.06482372432947159,-0.07295549660921097,0.13714268803596497,0.1792348474264145,-0.2395721822977066,0.31611332297325134,-0.050345711410045624,0.08167333900928497,0.03499750420451164,-0.06506667286157608,0.15974700450897217,-0.11824119091033936,0.14650240540504456,-0.18370787799358368,0.2778102457523346,-0.049488164484500885,-0.126917764544487,-0.15072691440582275,0.006278723943978548,0.3732874095439911,0.2605894207954407,-0.040128324180841446,-0.24197055399417877,-0.13543693721294403,0.3462664783000946,-0.065261110663414,-0.3716311752796173,0.3458388149738312,-0.4273809790611267,0.12572170794010162,-0.055646270513534546,0.15030813217163086,0.3196444809436798,0.2971387803554535,0.22579877078533173,-0.21892960369586945,-0.3230266571044922,-0.12720339000225067,-0.12987999618053436,0.02821059711277485,-0.1555105596780777,0.23619748651981354,0.11306276172399521,-0.2621755003929138,0.2929377555847168,-0.06676466763019562,-0.16401280462741852,0.038819652050733566,-0.31414705514907837,-0.4117049276828766,-0.06492609530687332,-0.23042935132980347,0.019726645201444626,-0.18695251643657684,-0.07051807641983032,0.056097421795129776,0.20473121106624603,0.15504419803619385,-0.10391619056463242,0.07391128689050674,-0.1347856968641281,-0.14480754733085632,0.08357343822717667,-0.2988014817237854,-0.3283851742744446,-0.018236840143799782,0.10091239959001541,-0.30675533413887024,-0.0747123509645462,-0.09442751854658127,-0.07556641101837158,0.07002438604831696,-0.027007626369595528,0.027479302138090134,0.12056819349527359,0.07191704213619232,-0.013504745438694954,-0.2179618924856186,0.2854457497596741,0.23028220236301422,-0.10126101970672607,0.21555931866168976,-0.007509630173444748,-0.06758928298950195,0.08188353478908539,-0.06839507073163986,-0.1282762736082077,0.08898033946752548,-0.05908889323472977,-0.1049184575676918,-0.03345930203795433,0.24669617414474487,0.04904070496559143,-0.2866971492767334,-0.34595370292663574,0.10649481415748596,-0.19456171989440918,0.031220953911542892,0.05716670677065849,-0.1838962435722351,0.17318981885910034,-0.18816901743412018,0.07094699889421463,-0.0680491253733635,-0.12025436758995056,-0.2717130780220032,0.19539810717105865,0.07147679477930069,-0.009716490283608437,0.06507877260446548,-0.0459897518157959,0.3032660484313965,-0.022596456110477448,-0.06715002655982971,0.07413416355848312,-0.24737009406089783,-0.016696499660611153,-0.20237945020198822,0.10752511024475098,0.0417737141251564,0.0819384753704071,0.1419023722410202,0.25736820697784424,0.20064812898635864,0.10062406212091446,-0.08938878029584885,0.19292373955249786,0.01043109130114317,-0.057307347655296326,0.09589000791311264,-0.026996862143278122,-0.25039398670196533,0.2620776295661926,-0.16902954876422882,0.390142023563385,-0.00002680973193491809,-0.21832914650440216,0.09149868041276932,0.02702753245830536,0.004344162531197071,0.06842972338199615,-0.10803800076246262,-0.07232768833637238,0.07533055543899536,0.035995885729789734,0.08756466954946518,0.1656132936477661,-0.2257351279258728,0.13262230157852173,-0.28829270601272583,0.1163025051355362,0.17970658838748932,-0.1216207966208458,-0.2208607941865921,0.014658018946647644,-0.03154699504375458,-0.14605489373207092,0.14780592918395996,0.2606872618198395,0.26381170749664307,0.05000092089176178,-0.14980247616767883,-0.10590137541294098,0.18098954856395721,-0.08241447806358337,0.23376794159412384,-0.020067818462848663,-0.19484736025333405,0.243912011384964,-0.1632152497768402,0.04875953495502472,-0.055075544863939285,0.059603117406368256,0.2319517582654953,-0.027754470705986023,-0.2087763249874115,0.1592758446931839,-0.04773939400911331,0.10218174010515213,0.11754830926656723,-0.04454832151532173,0.2009032815694809,-0.07996658980846405,-0.1379028856754303,0.4139273762702942,0.1875905841588974,0.08171495050191879,-0.14202502369880676,0.060144226998090744,0.09438054263591766,0.22040097415447235,-0.2069648802280426,-0.02208542264997959,0.019500160589814186,-0.14686378836631775,-0.1088147759437561,0.07365346699953079,0.07289806008338928,-0.0012987956870347261,-0.08016086369752884,0.1341811567544937,0.11292760819196701,-0.04089422896504402,0.008277432061731815,0.21962526440620422,-0.1381267011165619,-0.1419261246919632,-0.23765873908996582,-0.08981368690729141,0.21555614471435547,-0.012270424515008926,-0.24998518824577332,0.054850079119205475,-0.2228117287158966,0.0918881744146347,0.1415306180715561,-0.01384505070745945,0.1291271448135376,-0.11614292114973068,0.17765459418296814,0.11123911291360855,0.005141567438840866,0.09890764951705933,-0.019085858017206192,-0.09130982309579849,0.12476456165313721,-0.14070706069469452,0.017463501542806625,0.056949783116579056,-0.16773201525211334,0.0857848972082138,0.26310667395591736,-0.0007451295969076455,0.13706737756729126,-0.04435925558209419,0.07577076554298401,0.027300631627440453,-0.2509401738643646,-0.2703333795070648,-0.12306088954210281,-0.139520063996315,0.048221979290246964,0.09632126986980438,-0.006003771908581257,0.14120358228683472,-0.13122665882110596,0.13189728558063507,-0.011049503460526466,-0.09604811668395996,0.030751405283808708,0.025120843201875687,0.16693828999996185,-0.1350589543581009,-0.050478339195251465,0.22438442707061768,0.10106007754802704,0.09054969996213913,-0.05801685154438019,0.23855751752853394,-0.2525155544281006,-0.10838423669338226,-0.11835499107837677,0.1344153881072998,0.18791253864765167,-0.004460956435650587,0.3086470663547516,0.009513945318758488,-0.03937383368611336,0.07480881363153458,-0.23947058618068695,-0.08164055645465851,0.15459959208965302,-0.09091152995824814,0.07588886469602585,0.03503457084298134,-0.1826448142528534,-0.014735343866050243,-0.09510917216539383,0.24093586206436157,0.10243821144104004,-0.2972128093242645,0.009453417733311653,-0.011956414207816124,-0.1295996457338333,0.028243286535143852,-0.06286776810884476,-0.048952940851449966,0.11043932288885117,-0.09141873568296432,0.03816414996981621,0.2029162049293518,-0.3463490605354309,-0.22620315849781036,-0.15612904727458954,0.06762868165969849,0.09283210337162018,-0.10694824904203415,-0.1909666508436203,-0.05292860418558121,0.21464164555072784,-0.11064842343330383,-0.12057074159383774,0.28551122546195984,0.13328507542610168,-0.0735403299331665,-0.28070905804634094,-0.17223522067070007,-0.36038458347320557,-0.1959388256072998,0.20212280750274658,0.0015737231587991118,0.01679324172437191,0.062458887696266174,-0.014759257435798645,0.06703460961580276,-0.25308525562286377,-0.2759530246257782,0.08584530651569366,0.03441192954778671,-0.10527708381414413,0.052050694823265076,-0.19390161335468292,-0.06493271142244339,0.1211758479475975,0.05635952949523926,-0.08669985830783844,0.19715149700641632,0.17842194437980652,-0.07736645638942719,0.05943965166807175,0.1616363227367401,0.0048829903826117516,0.21562163531780243,-0.009230815805494785,0.05265820398926735,-0.05021842196583748,0.1397697627544403,0.015933630988001823,-0.033486947417259216,0.2635047137737274,0.03757700324058533,0.13111108541488647,-0.052900396287441254,-0.05208641290664673,-0.10201910883188248,0.06444850564002991,0.18601259589195251,-0.04630739614367485,0.12083526700735092,-0.10227582603693008,-0.2594345211982727,0.015844734385609627,-0.03719009459018707,0.13628533482551575,-0.11455027759075165,0.036882270127534866,0.049681007862091064,0.08542567491531372,-0.008087430149316788,-0.0956430733203888,0.1378149390220642,0.07587073743343353,0.0768812894821167,0.09527821838855743,0.25620266795158386,0.08647868037223816,0.058991678059101105,0.0028598946519196033,0.3609701097011566,-0.1045961007475853,0.13222171366214752,0.060427263379096985,-0.270537793636322,-0.08967672288417816,0.03779454529285431,0.012599505484104156,0.07477136701345444,-0.1939338892698288,-0.20031499862670898,-0.0983714759349823,0.059340812265872955,0.08985806256532669,0.30864009261131287,-0.2779533565044403,-0.1320997178554535,0.09773944318294525,-0.14081749320030212,-0.06556344777345657,-0.35874250531196594,-0.2623822093009949,-0.0948634073138237,-0.13207325339317322,0.16834330558776855,0.10255350172519684,-0.07576904445886612,-0.18090692162513733,-0.04532076418399811,0.084502674639225,0.01785670593380928,0.07014113664627075,-0.18650750815868378,0.045702576637268066,-0.033831626176834106,0.3540736138820648,-0.4196684658527374,0.191278338432312,-0.00441435631364584,-0.013464158400893211,0.0017456650966778398,0.06914072483778,0.040905870497226715,0.037614911794662476,-0.21878449618816376,0.09899480640888214,-0.29006144404411316,-0.0597701333463192,0.01522297877818346,-0.03892747685313225,0.26140064001083374,0.10243331640958786,-0.15801313519477844,0.172178253531456,0.5346258878707886,-0.03580145165324211,0.22993339598178864,0.15037307143211365,0.21295034885406494,0.13007110357284546,-0.14062722027301788,0.16918620467185974,0.1944119781255722,-0.2259814739227295,0.22177009284496307,-0.18879607319831848,-0.09439722448587418,0.2404284030199051,-0.11568638682365417,-0.008077753707766533,-0.1592784821987152,0.09955254197120667,0.21926553547382355,0.00791693851351738,-0.07202514261007309,-0.13986200094223022,0.1245206892490387,-0.20614156126976013,-0.18173979222774506,-0.2451491504907608,-0.044017430394887924,0.06499229371547699,-0.2611810266971588,0.04614608734846115,0.015472572296857834,0.17274866998195648,-0.0498378723859787,-0.07892429083585739,0.04222344979643822,-0.0019275657832622528,-0.17134501039981842,-0.10760170221328735,-0.05155037343502045,-0.04441394284367561,-0.18163661658763885,-0.24821652472019196,0.05119296908378601,-0.1521500051021576,-0.013423280790448189,-0.006007167045027018,0.16726946830749512,0.060740385204553604,-0.01897483877837658,-0.21436208486557007,-0.0803343802690506,0.04509928077459335,0.06037525832653046,-0.08917611837387085,0.02269022911787033,0.18999098241329193,0.3735007345676422,0.08985952287912369,0.12831147015094757,0.015132413245737553,-0.2440103441476822,0.1428312510251999,-0.07683610171079636,0.058439888060092926,-0.19930611550807953,0.08274994045495987,0.039757195860147476,0.1347181797027588,-0.03108168952167034,0.060410983860492706,0.2665770649909973,0.10722611844539642,-0.15080328285694122,-0.053363408893346786,-0.04325317218899727,0.11709921061992645,0.09971152991056442,-0.13643066585063934,-0.4128284752368927,-0.0637342557311058,0.11244689673185349,0.20832498371601105,-0.1394137591123581,0.07144103944301605,-0.01353423297405243,-0.02004159241914749,-0.003790108719840646,0.10140927135944366,0.08872583508491516,0.12425295263528824,0.102883480489254,0.052631039172410965,-0.06092434003949165,-0.27769502997398376,-0.18986909091472626,-0.13331183791160583,-0.1654987335205078,0.011719596572220325,-0.4111739695072174,-0.3186917006969452,-0.2275245040655136,-0.16204020380973816,0.0723634585738182,-0.07249969244003296,-0.2963382303714752,-0.026620585471391678,-0.08169308304786682,0.06253904104232788,0.05711976811289787,0.18531373143196106,0.3755744695663452,0.6796940565109253,0.13522794842720032,0.12599119544029236,-0.05324166268110275,-0.20333810150623322,-0.11972323060035706,0.11528109014034271,-0.1874571591615677,0.12360448390245438,0.09423764795064926,0.26330479979515076,0.05522358790040016,-0.2105731964111328,-0.1967456042766571,-0.0760708674788475,0.05588439106941223,-0.06412670016288757,0.11603225022554398,0.07692249864339828,0.0876958891749382,0.04332957789301872,-0.09055715054273605,0.17228493094444275,0.47586849331855774,0.2580445110797882,0.47894132137298584,-0.050932627171278,0.2615315616130829,0.020337525755167007,-0.03245681896805763,-0.001685994560830295,0.28302040696144104,0.1605553776025772,-0.29470324516296387,0.08994866162538528,0.15868297219276428,0.025186903774738312,-0.014055807143449783,0.2649756968021393,-0.10089758783578873,-0.23962627351284027,-0.11836633831262589,0.1208653673529625,0.008346013724803925,0.07352446019649506,0.005945869255810976,0.20674727857112885,-0.08867265284061432,0.4311189651489258,0.17878104746341705,-0.0887223407626152,-0.09659825265407562,-0.08033308386802673,-0.32090577483177185,-0.15540896356105804,-0.051226478070020676,0.2474459409713745,-0.1611940860748291,0.0019246460869908333,-0.2548684775829315,0.02746501751244068,0.021829046308994293,-0.02186400815844536,-0.0822937861084938,0.02575141191482544,-0.1213872954249382,0.12281594425439835,0.004215821623802185,-0.09233559668064117,0.20040667057037354,-0.26796624064445496,-0.13938972353935242,0.019363930448889732,0.002000940265133977,0.08511621505022049,0.05419222265481949,-0.09076227247714996,-0.054350174963474274,-0.10607387125492096,0.014047055505216122,0.10910534858703613,0.17513924837112427,0.20936162769794464,0.14666320383548737,-0.18243540823459625,0.00343918870203197,-0.21002139151096344,-0.14355885982513428,-0.18547497689723969,-0.08399630337953568,-0.357456237077713,-0.10229749977588654,-0.20066961646080017,-0.030466457828879356,0.21248982846736908,-0.09262042492628098,-0.10406029969453812,-0.021845048293471336,-0.006056878715753555,0.08208214491605759,-0.05984500050544739,-0.014726518653333187,0.29599785804748535,-0.11264237016439438,-0.2547360062599182,0.19501349329948425,0.08168943971395493,0.05815742164850235,-0.149815171957016,0.07214396446943283,-0.19999361038208008,0.31050923466682434,-0.019280990585684776,0.04603789746761322,-0.06961660832166672,-0.25901198387145996,-0.03788752481341362,0.021687699481844902,0.11131107807159424,-0.12533146142959595,0.1439412534236908,0.1904008388519287,0.19072367250919342,0.09523562341928482,0.052852921187877655,-0.13151197135448456,-0.0687633827328682,0.026075150817632675,-0.008194496855139732,0.05116751417517662,0.12771031260490417,-0.40110963582992554,-0.14449720084667206,0.04616338387131691,0.28759506344795227,0.10668293386697769,-0.24187800288200378,-0.24885758757591248,0.008830450475215912,0.04634786769747734,0.28271904587745667,0.1655082404613495,0.03836243227124214,0.14441891014575958,0.03976764529943466,0.1108422502875328,0.23034705221652985,-0.06803196668624878,-0.0074072773568332195,0.22982138395309448,-0.03595561161637306,-0.07168068736791611,0.09567530453205109,-0.06271972507238388,0.21870604157447815,-0.004981507547199726,0.005331143271178007,0.09820643067359924,-0.29371026158332825,0.22823163866996765,0.09814824163913727,-0.08561506867408752,0.026561953127384186,-0.061217404901981354,0.13830123841762543,-0.11805885285139084,0.006624915171414614,0.026495693251490593,0.1427215188741684,-0.10438871383666992,0.34612101316452026,-0.023750104010105133,-0.052454158663749695,-0.20459218323230743,-0.054728660732507706,0.1496455818414688,-0.3673488199710846,-0.04888739809393883,0.1126396656036377,-0.572397768497467,0.11945520341396332,0.021326711401343346,0.25920069217681885,0.025245774537324905,0.13780269026756287,-0.45444726943969727,0.4356778562068939,0.04416589066386223,0.047292862087488174,-0.0026564202271401882,0.08146513253450394,0.408796489238739,-0.11208692193031311,-0.10047978162765503,0.2717968821525574,-0.15789411962032318,-0.06590238958597183,0.3760610818862915,-0.05739150941371918,-0.03932170569896698,-0.010695612989366055,0.018005117774009705,-0.04113805294036865,0.07974797487258911,-0.045536912977695465,0.021230293437838554,0.11023993045091629,0.0248914435505867,0.000010218811439699493,-0.0082017183303833,0.14293283224105835,-0.002164652803912759,-0.05770380422472954,0.1490727812051773,0.16113482415676117,-0.07376827299594879,0.01753395050764084,0.054717689752578735,-0.025700706988573074,-0.31690314412117004,0.18902499973773956,0.04521883651614189,-0.16895006597042084,0.14738374948501587,0.031152816489338875,-0.21986208856105804,-0.09678501635789871,0.03877433389425278,0.008558074943721294,0.10895279794931412,-0.16121307015419006,0.1449819952249527,-0.16974705457687378,-0.03815295547246933,0.11731260269880295,-0.07363344728946686,-0.0007764283800497651,0.16275618970394135,0.002826445735991001,0.22486615180969238,-0.1346379667520523,-0.02102423459291458,-0.08096741139888763,-0.10794613510370255,-0.2080475240945816,-0.1223338395357132,0.23245221376419067,-0.08127070218324661,-0.20109330117702484,0.10413510352373123,0.1444278210401535,0.20412680506706238,-0.20568814873695374,0.01880231872200966,-0.13682244718074799,0.14741472899913788,-0.06691375374794006,0.18133826553821564,0.25285935401916504,-0.028895683586597443,-0.008740936405956745,0.3210221827030182,-0.15636000037193298,0.17831012606620789,-0.31058385968208313,0.1350693255662918,-0.0061079286970198154,0.19291020929813385,0.1937587559223175,-0.11898237466812134,-0.12628810107707977,-0.015108851715922356,0.06230931729078293,0.08159223198890686,0.3061005473136902,0.21571950614452362,0.022680435329675674,-0.17344319820404053,0.4218234419822693,-0.17524875700473785,-0.09831944108009338,-0.05570381134748459,0.047598518431186676,-0.10294804722070694,-0.08704861253499985,0.11829693615436554,-0.48986563086509705,0.19805486500263214,-0.2389322966337204,-0.009942512027919292,0.0880991518497467,-0.17102643847465515,-0.24547651410102844,-0.007862711325287819,-0.009731216356158257,0.058092087507247925,-0.01298750750720501,-0.051018018275499344,-0.0017224778421223164,-0.12761880457401276,0.11120434105396271,0.1633571833372116,-0.027072962373495102,-0.012727075256407261,-0.11641493439674377,0.11538351327180862,0.015524760819971561,-0.07941965013742447,-0.0561055988073349,0.10143779963254929,-0.0007591383764520288,-0.01520004216581583,0.18803024291992188,-0.20220553874969482,-0.012735771015286446,0.014613676816225052,0.03733489662408829,-0.09173847734928131,-0.6421889066696167,0.8384203910827637,0.3406926095485687,-0.6493691802024841,0.1291363537311554,-0.44919881224632263,0.16551080346107483,0.5070962905883789,-1.1650785207748413,0.913676917552948,0.7860247492790222,-0.2774985730648041,-0.2638431489467621,0.22979842126369476,-0.5925617218017578,0.32450148463249207,-0.280446857213974,0.15524378418922424,-0.3571212589740753,-0.07015613466501236,0.39290651679039,0.12009280920028687,0.09491336345672607,0.28879305720329285,0.052809275686740875,0.16819344460964203,0.2181933969259262,-0.2773207128047943,0.15914621949195862,-0.34391531348228455,-0.06753510236740112,0.08706746250391006,0.024183789268136024,-0.021382931619882584,0.26162073016166687,0.3437715172767639,-0.12061703950166702,-0.07093987613916397,-0.286041259765625,-0.38241368532180786,0.02149827964603901,-0.02041163109242916,-0.13418792188167572,0.09705062955617905,0.25858810544013977,0.060421671718358994,0.032545965164899826,-0.27160653471946716,-0.2274649441242218,0.18708735704421997,-0.08668412268161774,-0.009497221559286118,-0.04998587444424629,0.1818593144416809,0.061151523143053055,-0.001561114564538002,-0.04392755404114723,0.05775444954633713,-0.02649921551346779,0.24436180293560028,-0.10320223867893219,-0.49316078424453735,0.046170346438884735,0.337212473154068,-0.06917769461870193,0.0779435858130455,-0.045760516077280045,0.008330230601131916,0.05796024203300476,-0.14486655592918396,0.15808060765266418,0.11834792047739029,-0.04245847091078758,-0.09341847896575928,0.2606301009654999,0.039369188249111176,0.3246939480304718,0.15608082711696625,-0.11416856199502945,-0.01824706420302391,-0.07195669412612915,0.4361218512058258,-0.4037744998931885,-0.012344731949269772,-0.11457715183496475,0.07235251367092133,0.03344643861055374,0.2910534739494324,-0.1159568652510643,-0.0624697171151638,-0.028888355940580368,-0.35517337918281555,-0.25166916847229004,0.23094914853572845,-0.42373430728912354,0.05817405879497528,-0.0382828526198864,-0.11633047461509705,-0.09675592929124832,-0.07497822493314743,-0.20797517895698547,0.11763060092926025,0.08311430364847183,-0.15204818546772003,-0.1933177411556244,-0.33266544342041016,0.15643635392189026,0.08551082015037537,0.1099419891834259,0.4248301088809967,0.08951185643672943,0.0122043052688241,0.19546519219875336,-0.13558106124401093,0.285705029964447,0.2756989002227783,-0.39054781198501587,0.06930099427700043,-0.21599312126636505,-0.400715172290802,0.1817854642868042,0.1562897264957428,-0.07617168873548508,0.2019241601228714,-0.014849347993731499,0.13671237230300903,0.12677660584449768,0.14084771275520325,0.2810918390750885,-0.3743216097354889,-0.03936038538813591,0.23335875570774078,0.020245391875505447,-0.05926704779267311,-0.08629561960697174,-0.041384242475032806,0.08739398419857025,-0.044130146503448486,0.23712775111198425,-0.0874202772974968,0.08194626122713089,0.09848300367593765,-0.26769402623176575,-0.12394383549690247,0.21967032551765442,-0.06420141458511353,0.17145217955112457,0.2066311240196228,-0.11327741295099258,-0.017534242942929268,-0.010007313452661037,-0.267901748418808,0.27483126521110535,-0.066043920814991,0.427680104970932,-0.34002217650413513,-0.6035614609718323,0.2641136646270752,-0.09355784207582474,0.20446079969406128,0.0063491323962807655,-0.478909432888031,0.3116333782672882,0.23038241267204285,0.15114986896514893,-0.17216256260871887,-0.2141350358724594,-0.19557343423366547,-0.008222386240959167,0.007185338530689478,-0.022160140797495842,-0.003867301158607006,0.19000214338302612,0.10937662422657013,0.19129735231399536,0.14096401631832123,-0.25505968928337097,0.03473592922091484,-0.12693257629871368,0.050938062369823456,-0.18770429491996765,0.22695693373680115,0.03632281720638275,0.11268854886293411,-0.04400184005498886,-0.11176025867462158,0.08837870508432388,0.04582608491182327,-0.5746980309486389,-0.03254176303744316,0.04768829420208931,0.08207005262374878,0.21827666461467743,-0.3217719495296478,0.1776290088891983,0.0196850523352623,0.10971000045537949,0.33641958236694336,-0.07976488769054413,-0.27965933084487915,-0.11668328940868378,-0.1439288854598999,0.2680409848690033,-0.05459054186940193,-0.07021313905715942,-0.03937019035220146,0.0302134957164526,-0.345259428024292,-0.39484545588493347,0.2994019389152527,-0.21645793318748474,-0.16765311360359192,0.3377690315246582,-0.030309217050671577,-0.09892122447490692,0.3748418092727661,-0.074580118060112,0.04260054975748062,-0.04021725058555603,0.10011560469865799,0.1730298399925232,0.009793554432690144,-0.589543879032135,-0.2598550617694855,0.06634016335010529,-0.07013124227523804,0.01690947823226452,-0.076615110039711,0.16586777567863464,0.226223886013031,-0.20800970494747162,0.08606983721256256,0.03534241020679474,0.2826152443885803,-0.2508886754512787,0.015348067507147789,0.12079966813325882,-0.32288166880607605,0.143332377076149,-0.15080395340919495,0.20897088944911957,-0.07419760525226593,0.012270771898329258,-0.0052254945039749146,0.14659948647022247,0.10358799248933792,-0.0950179249048233,0.10448462516069412,0.18901294469833374,-0.001092979102395475,0.17793363332748413,-0.1674068123102188,0.11319709569215775,-0.10500617325305939,-0.29906216263771057,-0.10704086720943451,-0.13977555930614471,0.10357087105512619,-0.46325936913490295,-0.26450201869010925,-0.04042595997452736,-0.04267706349492073,-0.28796789050102234,0.3109470009803772,0.21683871746063232,0.3688696622848511,0.06527449190616608,-0.3449159860610962,0.06517918407917023,-0.11147294193506241,0.042310163378715515,-0.08414439111948013,-0.07708384841680527,0.10812189429998398,-0.10555505752563477,-0.1149941235780716,0.028304273262619972,0.14884255826473236,-0.05529238283634186,-0.13694974780082703,-0.10130872577428818,-0.0032698786817491055,0.030341755598783493,0.12684126198291779,0.13777634501457214,-0.1412121057510376,-0.027754735201597214,-0.030365504324436188,-0.08677394688129425,-0.01568649709224701,-0.11023195832967758,0.004777215421199799,0.10011288523674011,0.061947621405124664,0.021466800943017006,0.16123129427433014,0.19890563189983368,0.19012507796287537,0.21686185896396637,0.1679144650697708,-0.12426784634590149,-0.18933631479740143,0.46837741136550903,0.020159605890512466,0.007580263074487448,0.07690497487783432,-0.19129522144794464,-0.06748738884925842,-0.37433889508247375,-0.3102966845035553,0.08432117104530334,0.0715220496058464,-0.03399159386754036,0.15586236119270325,0.06669904291629791,0.019071443006396294,-0.06282924115657806,0.08532806485891342,-0.16689608991146088,0.07687315344810486,0.2995063364505768,0.2796192765235901,-0.08636351674795151,-0.23740151524543762,-0.05127698928117752,-0.057999879121780396,-0.30098026990890503,-0.15621688961982727,0.011132419109344482,-0.24405905604362488,-0.08070207387208939,0.02567152865231037,-0.2521785795688629,-0.318416953086853,0.03851620852947235,-0.018037188798189163,-0.1213521808385849,-0.19298893213272095,0.035973839461803436,-0.15857131779193878,-0.29337990283966064,0.10738090425729752,0.12171947956085205,-0.12210353463888168,-0.17833311855793,-0.08563949912786484,0.1911652833223343,0.0634998008608818,-0.17784765362739563,0.1381700336933136,0.03436930105090141,-0.1449848860502243,0.10562065988779068,-0.04925638437271118,0.3291378915309906,0.023219507187604904,-0.047518301755189896,-0.24511729180812836,-0.16532881557941437,-0.27216410636901855,0.2063399702310562,0.018686827272176743,-0.05881231650710106,-0.12005071341991425,0.024053828790783882,-0.1578865349292755,-0.1446426659822464,-0.25991517305374146,-0.1276908963918686,-0.0483231246471405,-0.12635517120361328,-0.013302939012646675,0.08526036888360977,0.12967242300510406,-0.06413597613573074,0.1951330155134201,-0.23143751919269562,0.10017677396535873,0.10552141070365906,-0.07457230240106583,0.012973732315003872,-0.0025081003550440073,-0.05577730014920235,-0.08265762776136398,-0.2433464676141739,0.08733566850423813,0.13155663013458252,0.05884704738855362,-0.30437445640563965,-0.07728959619998932,0.08419112116098404,0.09116464108228683,-0.0820675939321518,0.04231937229633331,0.09147066622972488,0.04222957789897919,-0.06774052232503891,-0.08920393139123917,-0.18806225061416626,-0.19166161119937897,0.13151365518569946,0.08810511976480484,0.16259844601154327,-0.1655247062444687,0.022080378606915474,-0.11401786655187607,-0.0827905684709549,0.006907578092068434,0.0772021934390068,0.08834313601255417,0.0556197427213192,-0.18869590759277344,-0.1105143129825592,-0.029799554497003555,0.12973354756832123,-0.18323834240436554,-0.17821604013442993,-0.14064861834049225,0.01762782409787178,-0.08185702562332153,-0.03821246698498726,-0.025505736470222473,-0.02636869251728058,0.039060913026332855,-0.13688994944095612,0.1629600077867508,-0.07669524848461151,-0.21105873584747314,-0.1101955771446228,-0.04733356088399887,0.1824667602777481,0.19490352272987366,0.414671927690506,0.11075476557016373,-0.09133907407522202,-0.17343734204769135,0.030232606455683708,0.30236542224884033,0.05317177250981331,0.12745937705039978,-0.13800625503063202,0.19293217360973358,-0.13783076405525208,-0.09635009616613388,0.2769404947757721,-0.15481989085674286,-0.029953010380268097,-0.09533417969942093,-0.0441635400056839,0.05056237429380417,-0.29233792424201965,0.08320888131856918,0.028520623221993446,-0.2751184403896332,0.03156803920865059,-0.3019668459892273,-0.4258670508861542,-0.04824727028608322,-0.10567903518676758,-0.18338818848133087,-0.02190976031124592,-0.05969215929508209,-0.019678067415952682,0.03210486099123955,-0.25484201312065125,0.08072454482316971,-0.10648433864116669,0.10328153520822525,0.34554457664489746,0.05606690049171448,0.11483810096979141,0.04384949803352356,-0.004259312991052866,-0.12049057334661484,0.01199488714337349,-0.005913625005632639,-0.03912583738565445,0.2607121169567108,0.005762843880802393,0.10227227210998535,-0.18439027667045593,0.11007767170667648,0.08003402501344681,0.07132529467344284,0.06985889375209808,-0.17241764068603516,0.12334829568862915,0.22787722945213318,0.027017349377274513,-0.1399376541376114,-0.24745473265647888,0.06166047230362892,0.1101488322019577,-0.15029871463775635,-0.007835378870368004,0.11875350028276443,0.13720077276229858,-0.05008027330040932,-0.14181938767433167,-0.10861679911613464,0.0179562009871006,0.1722373217344284,-0.07629386335611343,-0.146170511841774,-0.049755532294511795,-0.564365565776825,-0.1482488065958023,-0.03246965631842613,0.16573874652385712,-0.016198839992284775,0.22361157834529877,0.062056876718997955,-0.11210361868143082,-0.10955020785331726,-0.3479978144168854,-0.29177340865135193,0.041468169540166855,0.030941449105739594,-0.2687853276729584,-0.07014262676239014,-0.011541785672307014,-0.13100743293762207,0.031835734844207764,-0.01228499785065651,0.08423510193824768,-0.12366475909948349,0.1947169154882431,-0.10246706753969193,-0.26892751455307007,0.06502000987529755,-0.00347987306304276,0.07026643306016922,-0.2796575725078583,0.054541245102882385,0.3388892710208893,0.15870219469070435,-0.13716384768486023,-0.09676732122898102,-0.10352285206317902,0.04180634021759033,-0.13537940382957458,-0.16851156949996948,-0.225319042801857,-0.2364974170923233,0.14658024907112122,0.04570488631725311,0.12092853337526321,-0.047652993351221085,0.00898361299186945,-0.26779288053512573,-0.15177790820598602,-0.11037495732307434,-0.17306756973266602,-0.16421183943748474,-0.05779910460114479,-0.03040018118917942,-0.1504543274641037,-0.0920727550983429,0.04054080694913864,-0.24372823536396027,0.015925602987408638,-0.1616428643465042,0.18816377222537994,0.07558070868253708,0.06496498733758926,-0.09466909617185593,0.11702413856983185,0.07656189054250717,-0.13157892227172852,0.06848172098398209,0.10669462382793427,-0.27438902854919434,-0.06001679599285126,-0.029170021414756775,0.2609342038631439,0.13387510180473328,0.11827081441879272,0.14524754881858826,0.0988399013876915,-0.05073872208595276,-0.032359495759010315,0.0978250727057457,0.21072149276733398,-0.04916361719369888,-0.04392442852258682,0.30312496423721313,-0.04523482918739319,-0.16459329426288605,0.01810947060585022,0.09907329082489014,-0.15844589471817017,-0.08255066722631454,0.11992187052965164,-0.20893870294094086,-0.13837984204292297,-0.1363866925239563,-0.09606419503688812,-0.2096952348947525,-0.13374167680740356,-0.1787133365869522,0.013285343535244465,0.19099323451519012,-0.017474578693509102,0.05300241336226463,0.2620586156845093,0.3014833629131317,-0.08862342685461044,0.2064468413591385,0.06026982143521309,-0.026469644159078598,0.20081114768981934,0.21140232682228088,-0.10272765159606934,-0.20323446393013,-0.10501289367675781,-0.10836385935544968,-0.17851580679416656,0.04743766784667969,0.08563388139009476,-0.035683773458004,-0.24653397500514984,-0.03843497112393379,-0.0792115181684494,0.013825780712068081,0.1509743183851242,0.00854707881808281,-0.004963510669767857,-0.1849226951599121,0.20181389153003693,-0.08497876673936844,-0.22685199975967407,0.22585201263427734,-0.21277666091918945,0.14603526890277863,-0.14874103665351868,-0.15974892675876617,0.11757370829582214,-0.11077149957418442,-0.020710133016109467,-0.009019125252962112,-0.23536460101604462,0.01116190105676651,-0.3169158697128296,0.04267602041363716,-0.09814684838056564,-0.003129798686131835,-0.08934187144041061,-0.049642469733953476,-0.4075273871421814,-0.03488290682435036,-0.029105570167303085,-0.10830172896385193,0.04814954474568367,-0.11023347079753876,-0.25391605496406555,-0.05695190653204918,-0.003478609025478363,-0.06435497850179672,-0.025515520945191383,0.13397900760173798,0.17347219586372375,0.16619719564914703,0.052096299827098846,-0.21430853009223938,0.10634765028953552,-0.10737238824367523,-0.19574102759361267,0.13678842782974243,-0.0029120096005499363,0.032247938215732574,-0.058749958872795105,-0.05606669932603836,0.06765420734882355,0.10559308528900146,0.1489734947681427,0.0031960504129529,-0.12379828095436096,0.06196291744709015,0.04008900746703148,-0.03696231544017792,-0.2204258292913437,-0.12826375663280487,0.09099564701318741,-0.11691897362470627,0.020002907142043114,0.1255332976579666,-0.13544343411922455,0.025820011273026466,0.11172529309988022,-0.07832114398479462,-0.05852631479501724,-0.2405017912387848,-0.1849941462278366,-0.235270693898201,-0.34317106008529663,-0.3016895353794098,-0.1411212980747223,-0.1619761735200882,0.007096308749169111,0.019001048058271408,-0.20508165657520294,0.09556974470615387,-0.015978820621967316,-0.1534130722284317,-0.05709494650363922,-0.03320350870490074,0.004015243612229824,0.20524781942367554,0.054629888385534286,0.03306538984179497,0.04542512819170952,0.19343766570091248,-0.09470688551664352,0.18596330285072327,0.18180662393569946,-0.17097435891628265,-0.0006440317956730723,-0.17730137705802917,0.1965285688638687,-0.09638505429029465,0.03620253503322601,0.05792979523539543,0.16059806942939758,-0.08639660477638245,-0.10338899493217468,-0.16441583633422852,-0.03768804296851158,-0.11463329941034317,0.10118413716554642,-0.1399133801460266,0.186756893992424,-0.1277272254228592,0.025743478909134865,0.21538951992988586,-0.14638766646385193,-0.0498153455555439,-0.0025304188020527363,-0.0032941957470029593,0.007517344318330288,-0.017113156616687775,-0.026030149310827255,-0.0011442526010796428,-0.04266825690865517,-0.023937154561281204,-0.04356140270829201,-0.10302460193634033,-0.03337101265788078,-0.010169027373194695,-0.11624707281589508,-0.2044488936662674,0.1258864551782608,-0.07191915810108185,-0.01544143259525299,-0.07180149853229523,-0.04581427201628685,0.012813576497137547,-0.09547335654497147,0.00713003845885396,0.017710760235786438,0.1683582067489624,-0.1369359940290451,0.20224575698375702,0.19729016721248627,-0.15359656512737274,0.10257897526025772,-0.049082860350608826,0.17593899369239807,0.02418699860572815,0.008985885418951511,0.1386575549840927,-0.013576540164649487,-0.1008075401186943,0.13336144387722015,-0.2951776385307312,0.10695195943117142,0.33549803495407104,0.2074420303106308,0.13466019928455353,-0.18754982948303223,-0.10888247936964035,-0.051997147500514984,-0.15098239481449127,0.21712517738342285,0.1642540544271469,-0.04472453147172928,0.11115588992834091,-0.07168111205101013,-0.049454811960458755,-0.3329904079437256,-0.011828350834548473,0.23715168237686157,0.01759013533592224,-0.22253885865211487,0.01754250004887581,-0.08149177581071854,-0.029595736414194107,-0.04662637785077095,0.02096044085919857,0.03032447211444378,0.005817248951643705,-0.09724463522434235,-0.05391470342874527,-0.34622153639793396,0.11082267761230469,0.055455055087804794,0.13976792991161346,-0.0637078732252121,-0.1625566929578781,0.1224149689078331,-0.16711731255054474,-0.042787984013557434,0.06296811252832413,0.021132417023181915,0.012381568551063538,0.07297400385141373,-0.08877284824848175,0.05094559118151665,0.3077375590801239,0.12153878062963486,0.057243119925260544,-0.29107993841171265,0.22456978261470795,0.13827894628047943,-0.08427198976278305,0.0609927773475647,0.1335890144109726,-0.06079602614045143,-0.20268942415714264,-0.07172846049070358,0.017518552020192146,-0.04912659898400307,-0.166256383061409,0.08270836621522903,0.04748139530420303,0.06610351800918579,-0.2584916651248932,-0.1451347917318344,0.13150620460510254,0.08292528986930847,-0.3360120356082916,0.11849139630794525,-0.2054363191127777,-0.2399904578924179,0.0008953449432738125,0.2391042411327362,0.03283542022109032,0.10202275216579437,0.1065942794084549,-0.2837870121002197,-0.20597566664218903,-0.3433329164981842,0.15525385737419128,0.07822524011135101,-0.12068166583776474,0.19393174350261688,-0.031880687922239304,0.0402611568570137,0.04125496372580528,0.008511005900800228,-0.17561984062194824,-0.011120402254164219,-0.14856046438217163,0.21445345878601074,0.4227288067340851,0.4508771002292633,0.01768251322209835,-0.05031600967049599,-0.2846311926841736,0.022128721699118614,0.12801027297973633,0.15671990811824799,0.13722339272499084,-0.32693469524383545,0.013457955792546272,-0.3288124203681946,-0.1768392026424408,0.3320363163948059,-0.19260461628437042,0.10547057539224625,0.05295000597834587,-0.2444656789302826,-0.033788129687309265,-0.3072647452354431,0.22198790311813354,0.39590463042259216,-0.1613699197769165,0.19423943758010864,-0.5602923631668091,-0.47828659415245056,0.1316756308078766,-0.011339166201651096,-0.24753306806087494,-0.1606716513633728,0.01246741134673357,-0.1014125645160675,0.015924807637929916,-0.2904951572418213,-0.15097466111183167,0.4233740568161011,0.19667212665081024,0.4202016592025757,0.07480497658252716,0.14882753789424896,-0.05659842863678932,0.17410267889499664,-0.028364071622490883,-0.14763592183589935,0.09536577761173248,0.2267560511827469,0.3722487688064575,-0.0076476531103253365,-0.018262768164277077,-0.08509267866611481,0.25761836767196655,-0.014529249630868435,0.11053573340177536,0.062260668724775314,-0.12805181741714478,0.019863111898303032,0.10925813764333725,0.08752763271331787,0.059558555483818054,-0.22378751635551453,0.16754469275474548,-0.049319975078105927,0.06395885348320007,0.1941380500793457,0.11626635491847992,-0.02716079354286194,-0.013614300638437271,0.02840830199420452,0.13914351165294647,0.08320976793766022,-0.07766174525022507,0.046539440751075745,0.023393111303448677,0.15088197588920593,-0.20823872089385986,0.005481767933815718,-0.17451496422290802,0.13370199501514435,0.0881439670920372,-0.041226666420698166,0.20315513014793396,0.07435006648302078,-0.008489771746098995,-0.22261784970760345,0.02332056127488613,0.12476614117622375,0.11024528741836548,-0.16259311139583588,-0.07477402687072754,0.23273909091949463,-0.16156704723834991,-0.1287682056427002,0.22294266521930695,-0.015976497903466225,0.12479902803897858,0.1459188610315323,0.0203058160841465,-0.26990434527397156,0.19558578729629517,-0.23310822248458862,0.0262643750756979,0.15849216282367706,-0.19328761100769043,0.11092405021190643,0.12393990159034729,-0.11007323861122131,-0.04282834380865097,-0.12596604228019714,-0.07212267071008682,-0.06639453023672104,-0.26433849334716797,0.20734596252441406,-0.13272710144519806,-0.2279953807592392,-0.004706861916929483,-0.053130995482206345,0.011147385463118553,-0.06641855090856552,-0.14162546396255493,-0.2713942229747772,-0.05239095166325569,0.17366187274456024,-0.13410212099552155,-0.07456421852111816,-0.0034047539811581373,0.2309453934431076,-0.14894482493400574,-0.13251368701457977,0.12144502997398376,0.21873828768730164,-0.12367260456085205,-0.2383693903684616,-0.12469011545181274,0.06759088486433029,-0.03916623070836067,-0.11215207725763321,0.15836073458194733,0.15154297649860382,-0.26231056451797485,0.012655925005674362,0.04097447544336319,-0.003100401721894741,-0.15993627905845642,-0.15804843604564667,-0.0037581019569188356,0.25771957635879517,0.052909500896930695,-0.11464110761880875,0.07030543684959412,0.187564879655838,-0.31898507475852966,-0.2963253855705261,0.013604201376438141,0.14796435832977295,0.3721948266029358,-0.08713030815124512,0.10711916536092758,0.25123974680900574,0.07241510599851608,0.0112325269728899,0.08059634268283844,-0.0980793684720993,-0.09715801477432251,-0.2875934839248657,-0.10993655771017075,-0.13586540520191193,0.09790016710758209,-0.11157813668251038,0.22603867948055267,-0.04549667239189148,0.0791262835264206,-0.04637190327048302,-0.05268770083785057,0.10199818760156631,0.04694802686572075,0.16620205342769623,0.1839064061641693,0.11274456977844238,0.11169220507144928,-0.1761416345834732,-0.15895786881446838,-0.011642304249107838,0.05336669087409973,-0.23556025326251984,-0.145999476313591,0.25398683547973633,-0.04703330248594284,0.02623383142054081,0.23471766710281372,0.10037673264741898,0.00362741039134562,0.12289346754550934,-0.1021256223320961,0.0029330048710107803,0.13121125102043152,-0.07927325367927551,0.019546987488865852,0.1912786215543747,0.029475174844264984,-0.10437358170747757,0.1490263193845749,0.17145025730133057,-0.009453119710087776,-0.05981696397066116,0.2442455142736435,0.13034039735794067,-0.004889693111181259,0.004993092268705368,0.8244546055793762,-0.03998487815260887,0.5192548036575317,-0.6958849430084229,-0.19347773492336273,0.24404899775981903,0.2721223533153534,-0.08478399366140366,0.2517460584640503,0.10803075134754181,-0.6017445921897888,0.29926735162734985,0.0375506728887558,-0.5703539252281189,-0.35038918256759644,-0.10367587953805923,-0.15596865117549896,-0.318241685628891,0.20468488335609436,-0.2841094732284546,0.0024202477652579546,0.2158411741256714,-0.04896315932273865,-0.11925267428159714,-0.2179005742073059,0.09544626623392105,-0.025191782042384148,-0.042234428226947784,0.0455329529941082,-0.05647170916199684,0.24234937131404877,0.1613859385251999,-0.18693475425243378,-0.21299846470355988,-0.009906887076795101,-0.13267375528812408,0.06743559241294861,-0.08894731104373932,0.21977713704109192,-0.11140783131122589,-0.13119572401046753,-0.012741322629153728,-0.1303887516260147,0.15923471748828888,-0.04849902540445328,0.14640581607818604,0.1311165988445282,0.1382301300764084,-0.07586166262626648,0.24406905472278595,-0.16380508244037628,-0.2476028949022293,-0.09109749644994736,-0.33590784668922424,-0.3795195519924164,0.06594860553741455,0.12421505153179169,-0.06045166403055191,0.010266582481563091,-0.20182964205741882,-0.023031646385788918,0.15936416387557983,-0.04123474657535553,0.2804076075553894,-0.021114686504006386,-0.19394361972808838,-0.09458395838737488,-0.3071434795856476,0.1419813632965088,0.21424420177936554,0.24641655385494232,-0.24442391097545624,-0.23072196543216705,-0.022087568417191505,0.26025691628456116,-0.24823985993862152,0.17125773429870605,0.3503636121749878,0.19702476263046265,0.22102664411067963,0.14579717814922333,-0.12964674830436707,-0.08493495732545853,0.12493016570806503,0.17535245418548584,-0.027534842491149902,0.17241790890693665,-0.04703066498041153,0.2380758821964264,0.19698114693164825,0.21247221529483795,0.13672281801700592,-0.3741256892681122,-0.1990942656993866,-0.0332893505692482,-0.10402417182922363,-0.3504749536514282,0.14644429087638855,0.14177347719669342,0.05086137726902962,-0.10029275715351105,0.18195292353630066,0.005876938346773386,-0.012719029560685158,0.08275920897722244,0.17712797224521637,-0.16819795966148376,0.19300217926502228,-0.10057483613491058,0.10341940820217133,-0.3358205556869507,0.03356167674064636,-0.26385170221328735,-0.12518367171287537,-0.14653314650058746,0.032170724123716354,-0.08332863450050354,-0.27757152915000916,0.11309729516506195,0.0830773115158081,-0.3078548014163971,0.06118818745017052,-0.03653717786073685,-0.001348410383798182,-0.02193479612469673,-0.05825679749250412,0.18184584379196167,-0.23023612797260284,-0.20776747167110443,0.0631081685423851,-0.15076462924480438,0.07899505645036697,0.04967530816793442,-0.3332872688770294,-0.07466169446706772,0.24908117949962616,-0.032627493143081665,0.07870790362358093,-0.027039360255002975,0.17349492013454437,-0.25439637899398804,-0.10360648483037949,0.14652948081493378,-0.12368019670248032,-0.30360323190689087,-0.023515403270721436,-0.032080307602882385,-0.06221293285489082,0.20611073076725006,-0.027576139196753502,-0.6522931456565857,-0.37880125641822815,-0.03822559118270874,0.10109469294548035,0.23959216475486755,-0.08137301355600357,0.028930041939020157,0.037453845143318176,0.21373917162418365,-0.3192145526409149,0.11244142800569534,0.0543338805437088,-0.027071991935372353,0.0705517828464508,-0.1570272445678711,0.07903970032930374,-0.27913910150527954,0.16950711607933044,-0.27767014503479004,-0.15760350227355957,0.18839561939239502,-0.08180118352174759,0.2037191390991211,-0.09092263132333755,0.14900265634059906,0.15061241388320923,-0.17354092001914978,0.21652649343013763,-0.3331998288631439,-0.266006737947464,-0.10947783291339874,-0.12353651970624924,-0.030305445194244385,-0.19134648144245148,0.12169511616230011,0.06562701612710953,-0.15407487750053406,-0.04207261651754379,-0.1741698831319809,0.1413806974887848,0.45446833968162537,-0.2737015187740326,0.011642903089523315,0.17337609827518463,-0.09392715245485306,-0.04266039654612541,-0.01127895899116993,-0.12190598994493484,0.026814037933945656,0.13502837717533112,-0.19158577919006348,-0.0665643960237503,0.43920430541038513,0.05593018978834152,-0.2555452883243561,0.37093082070350647,-0.04833381623029709,0.019546857103705406,0.08265595883131027,0.2964310050010681,0.2149156779050827,0.09662832319736481,-0.21324685215950012,0.11978039890527725,0.01776728220283985,-0.10757197439670563,0.28868845105171204,0.15174616873264313,-0.24367736279964447,-0.05114169046282768,-0.2571110427379608,0.047908999025821686,0.01260698214173317,-0.2755351960659027,-0.24985551834106445,0.1888517588376999,-0.016451260074973106,0.2634877562522888,0.12430750578641891,0.14634981751441956,0.09042945504188538,-0.06846821308135986,0.09992022812366486,0.346500962972641,-0.056547004729509354,0.00634428346529603,-0.13157887756824493,-0.37423914670944214,0.08667411655187607,-0.2718476951122284,0.23469938337802887,-0.011038332246243954,-0.034048229455947876,0.1597176194190979,-0.18490128219127655,-0.30244675278663635,0.08640044182538986,0.08958172798156738,-0.18729828298091888,-0.042526982724666595,-0.2861182391643524,-0.07598790526390076,0.11329533904790878,0.0857103168964386,-0.1372314989566803,0.1366974264383316,-0.19704113900661469,0.1990414559841156,-0.19124333560466766,-0.13882754743099213,-0.23309412598609924,-0.24112199246883392,0.23798374831676483,0.06904774904251099,-0.16929318010807037,0.19237254559993744,-0.30333083868026733,-0.024820687249302864,0.07615755498409271,-0.2682131230831146,0.20413421094417572,-0.02306494489312172,-0.1859082132577896,0.14165820181369781,0.013771899975836277,-0.09218358993530273,0.05938082933425903,-0.07905624806880951,0.02963704988360405,0.09246408194303513,-0.06824786216020584,0.16044577956199646,0.13228292763233185,0.05989446863532066,0.04106321185827255,-0.08626289665699005,-0.07945045083761215,-0.034197233617305756,-0.19047369062900543,-0.2342669814825058,0.2183903157711029,0.05008082464337349,0.18382412195205688,-0.26594212651252747,-0.06501104682683945,0.09561558067798615,-0.15681618452072144,-0.23555785417556763,-0.026433318853378296,0.1170644611120224,0.004295095335692167,0.03821329027414322,-0.07800658792257309,0.11645697057247162,-0.03229726850986481,0.29450783133506775,0.22390416264533997,0.06587294489145279,-0.07095101475715637,0.2218012511730194,0.18059629201889038,-0.12490334361791611,0.0530620813369751,0.040687061846256256,0.21826155483722687,-0.09907522052526474,-0.0962984636425972,-0.06279700249433517,0.15640099346637726,0.15955311059951782,-0.16911034286022186,-0.0818207636475563,-0.19737523794174194,-0.11775889992713928,0.05636785924434662,0.08177638798952103,0.1751594990491867,0.06978724151849747,-0.013779863715171814,-0.21136589348316193,0.2218770533800125,-0.04647675156593323,-0.1701926738023758,0.10372432321310043,0.11297436058521271,0.4912847578525543,0.007694827858358622,-0.06487739831209183,-0.19659706950187683,-0.0340941958129406,-0.1678314357995987,0.09007543325424194,-0.02987590618431568,-0.056863609701395035,-0.10485878586769104,0.08338482677936554,-0.004551393911242485,-0.09404586255550385,0.19219282269477844,0.08106409758329391,-0.02072765864431858,0.02083895355463028,0.0696062222123146,0.07282013446092606,-0.13018420338630676,0.14730016887187958,0.2555822432041168,-0.07086315006017685,-0.00726779829710722,-0.09377394616603851,0.1968773752450943,0.12099003791809082,0.022606099024415016,0.21878015995025635,0.031784918159246445,-0.19585289061069489,0.07701235264539719,-0.10868614166975021,0.044522419571876526,-0.029623406007885933,-0.09289209544658661,-0.3121693432331085,-0.09108839929103851,-0.11460624635219574,-0.05531451478600502,-0.11098231375217438,-0.035974107682704926,0.2180069237947464,-0.056291595101356506,-0.12248765677213669,-0.0022662398405373096,-0.002491187769919634,0.07328381389379501,0.4160168170928955,-0.3319983184337616,0.08407147228717804,0.0716436430811882,0.21301120519638062,0.07223152369260788,-0.032511115074157715,-0.27069783210754395,-0.03820829465985298,0.07182454317808151,-0.15153345465660095,0.22080759704113007,0.1860540211200714,-0.12530986964702606,-0.15984629094600677,-0.06882421672344208,0.22500886023044586,-0.080943763256073,-0.01982669159770012,0.022951839491724968,-0.14119037985801697,-0.21344630420207977,-0.03003758378326893,-0.05506010353565216,-0.30532264709472656,-0.22754532098770142,0.020394928753376007,-0.19383540749549866,-0.1945628821849823,0.033304281532764435,0.356385201215744,0.2674016058444977,0.19365949928760529,0.015590122900903225,-0.22313439846038818,0.17500022053718567,0.45243221521377563,0.11185353249311447,0.03295863792300224,0.04147200658917427,0.19644775986671448,-0.0761629119515419,-0.3437446057796478,0.06748172640800476,-0.09323986619710922,-0.10109538584947586,0.2164362221956253,-0.11031917482614517,-0.095915287733078,0.2678314447402954,-0.11510459333658218,0.19085565209388733,0.08841004222631454,0.055253367871046066,-0.09276341646909714,0.09098218381404877,0.12151477485895157,0.008778340183198452,-0.02649027481675148,-0.1203998550772667,0.0771927610039711,0.037396106868982315,-0.03085474483668804,0.03131972998380661,-0.11368492245674133,-0.03658229112625122,-0.05300676077604294,-0.045184578746557236,-0.08457504212856293,0.0025393639225512743,0.1666826754808426,0.010223845019936562,-0.06511398404836655,-0.03332924097776413,-0.15608954429626465,0.036745037883520126,-0.05245724692940712,0.008885471150279045,0.12038023769855499,0.043341804295778275,-0.05116913840174675,0.03378715366125107,-0.2671039402484894,-0.10722232609987259,0.10472282767295837,0.1297205686569214,0.027403531596064568,0.0762624442577362,-0.0035465345717966557,0.06989385187625885,-0.23685333132743835,0.2411157190799713,0.02275281585752964,-0.0423373281955719,0.039292726665735245,-0.12407118082046509,-0.18922434747219086,0.029755190014839172,0.18222308158874512,0.24032653868198395,0.06811787933111191,0.1400299072265625,-0.14408189058303833,0.08275052905082703,0.12777893245220184,-0.07173548638820648,-0.3170536756515503,0.006537158973515034,0.03420933708548546,0.09831205755472183,0.029765022918581963,0.23725157976150513,0.12838168442249298,-0.08362152427434921,0.12967298924922943,0.23857109248638153,0.03753090649843216,-0.22402124106884003,0.16651393473148346,0.15820619463920593,-0.08945036679506302,0.18817058205604553,0.20368905365467072,-0.07873037457466125,-0.14204621315002441,-0.020937340334057808,-0.031016113236546516,0.004811342805624008,0.12461062520742416,-0.244338259100914,0.019810451194643974,-0.18453580141067505,-0.1424439698457718,-0.17338092625141144,0.08374907076358795,0.03155568242073059,0.14910680055618286,0.1122216284275055,-0.13083194196224213,-0.021460069343447685,-0.046354278922080994,-0.19846926629543304,0.2798468768596649,0.32277610898017883,0.259878009557724,0.03502073511481285,0.07538853585720062,0.07550524175167084,0.06794512271881104,0.0962279736995697,-0.020412908867001534,0.0868397206068039,0.04050615802407265,-0.09332052618265152,-0.2383173257112503,-0.0410434864461422,0.03390022739768028,-0.1686297506093979,-0.0434533916413784,-0.1891259253025055,-0.12345392256975174,-0.2003268152475357,0.11540324985980988,0.21814708411693573,0.0020465811248868704,-0.18865567445755005,0.029187865555286407,0.06827843934297562,-0.0181975606828928,-0.05544404685497284,0.20946575701236725,-0.00582339521497488,-0.0806925892829895,-0.05477222055196762,0.2924920618534088,0.16442355513572693,0.12898530066013336,-0.1326483190059662,-0.2300323098897934,0.13267217576503754,0.03728150203824043,0.18349523842334747,-0.023368872702121735,-0.2922670245170593,0.04866589978337288,-0.023623863235116005,-0.18910837173461914,0.012362123467028141,0.08746615052223206,-0.29346972703933716,0.08732007443904877,0.317852646112442,0.24933846294879913,-0.34128889441490173,-0.03471367806196213,-0.3515027165412903,0.07467310130596161,-0.1978585571050644,-0.010756454430520535,-0.0980849415063858,-0.3629293739795685,0.1529814451932907,-0.26669636368751526,-0.32572001218795776,0.15319323539733887,-0.008758985437452793,0.1416817605495453,-0.5121698975563049,0.09653806686401367,0.3843773603439331,0.0532122403383255,-0.028459368273615837,-0.22167406976222992,0.09522154182195663,-0.056162089109420776,-0.3907071650028229,-0.1928677260875702,-0.17411929368972778,-0.41763532161712646,0.25675806403160095,0.3498256802558899,0.08387909084558487,0.1954953521490097,0.08896178007125854,-0.038242898881435394,0.026699433103203773,-0.19605913758277893,-0.34004977345466614,-0.008885253220796585,0.1269175112247467,0.41943201422691345,0.13580413162708282,0.129792720079422,0.17460614442825317,0.12217922508716583,-0.11291157454252243,-0.3063596189022064,0.08315419405698776,0.011077645234763622,-0.012116479687392712,0.09871731698513031,0.29133981466293335,-0.11269120126962662,0.19363221526145935,0.1079748123884201,0.05301624909043312,-0.21126580238342285,0.12612394988536835,-0.04163586348295212,0.050463780760765076,-0.05478614941239357,-0.08430139720439911,0.027339957654476166,-0.0857318863272667,-0.14538757503032684,-0.010091791860759258,-0.2735147476196289,-0.15306678414344788,0.12638112902641296,0.04090705141425133,0.08444004505872726,-0.27327314019203186,0.044675786048173904,-0.18974465131759644,-0.281332403421402,-0.2173873633146286,-0.016953157261013985,-0.05631230026483536,-0.1443268209695816,-0.03798956423997879,0.008224491961300373,0.05132228508591652,0.06952471286058426,-0.050597626715898514,-0.3112562894821167,-0.22633911669254303,0.12643764913082123,0.19223056733608246,0.053513430058956146,0.049820415675640106,0.2015567570924759,0.10337789356708527,-0.20541854202747345,0.17349693179130554,-0.04728735610842705,-0.26562830805778503,0.031175870448350906,-0.0524783656001091,0.03734954446554184,-0.14372128248214722,-0.15133532881736755,-0.018604548647999763,0.012224553152918816,-0.03297852352261543,0.1171245351433754,-0.014283068478107452,-0.25576552748680115,-0.09862355142831802,0.15717051923274994,0.00012483813043218106,-0.050171658396720886,0.12804646790027618,-0.14094172418117523,0.05277658626437187,0.07812654972076416,0.06009374558925629,0.1516757309436798,-0.097112275660038,-0.15967965126037598,0.1571204662322998,-0.007647567894309759,-0.13659518957138062,0.10432757437229156,0.049226321280002594,-0.26376572251319885,0.11804744601249695,-0.0037902193143963814,-0.12102832645177841,-0.07564012706279755,-0.2932101786136627,-0.15360379219055176,0.09777552634477615,0.07823222875595093,-0.02969134971499443,-0.3104639947414398,-0.007592108566313982,0.012012616731226444,-0.004070662893354893,-0.20641516149044037,0.06853330135345459,0.2655485272407532,-0.10636519640684128,0.057896941900253296,0.09387114644050598,-0.12472634762525558,0.03383130580186844,0.299833208322525,0.1797497719526291,0.19579172134399414,-0.05844682827591896,0.041036903858184814,0.00910191424190998,-0.2031487226486206,-0.046632107347249985,0.22997887432575226,-0.21247534453868866,-0.04932788759469986,-0.06599921733140945,0.16076289117336273,-0.05484716221690178,-0.04298078641295433,0.003706197487190366,0.028742065653204918,-0.2602718770503998,-0.10187888890504837,-0.04368024319410324,0.011392981745302677,-0.18230901658535004,0.009391282685101032,0.22043181955814362,-0.02043088525533676,0.06737563759088516,0.3125295639038086,0.04204041510820389,0.02528078481554985,0.2018965780735016,0.12587717175483704,0.1515912264585495,0.2868235409259796,-0.17502667009830475,0.0021686300169676542,0.1839890331029892,0.19898822903633118,0.03853991627693176,-0.01313834823668003,-0.17767933011054993,0.04619628190994263,0.01656820811331272,-0.19542475044727325,0.15987640619277954,0.07176055014133453,-0.033942993730306625,-0.18175995349884033,0.09388947486877441,-0.03176271170377731,-0.3435647189617157,-0.02982988767325878,-0.08505899459123611,0.12533298134803772,0.1328555792570114,0.014781463891267776,0.25213950872421265,0.10099713504314423,-0.0188945010304451,-0.028025634586811066,0.02984425239264965,0.19631773233413696,-0.049820221960544586,-0.043802253901958466,0.058083292096853256,-0.1674492508172989,-0.23705647885799408,-0.07528476417064667,0.07460363209247589,-0.1534513384103775,-0.20025542378425598,-0.27023106813430786,-0.10408523678779602,-0.30024710297584534,0.4202243387699127,0.0010509189451113343,-0.1807125061750412,-0.3366773724555969,0.10283469408750534,0.14967969059944153,0.053713683038949966,0.09328392893075943,-0.1253119707107544,0.12540288269519806,-0.03708669915795326,0.021764656528830528,-0.04257265105843544,0.1895252764225006,-0.01460860576480627,-0.11754017323255539,0.038172077387571335,-0.043193742632865906,0.10492788255214691,0.13950446248054504,-0.06107872724533081,-0.0770481526851654,0.04375041648745537,-0.1505417376756668,-0.08756359666585922,-0.07236048579216003,0.10763901472091675,0.14355342090129852,-0.13142986595630646,-0.1975996196269989,-0.06063106656074524,-0.004064599052071571,0.12299145758152008,-0.12261180579662323,-0.1525561511516571,