{"version":"0.5.4","metadata":{"date":{"year":2026,"month":1,"day":22,"hour":2,"minute":26,"second":33},"loudness":-21.714004516601562,"gain":0.7995301795822188,"name":"V30-THC-3","modeled_by":"lum","gear_type":"amp","gear_make":"tz-make","gear_model":"tz-model","tone_type":"overdrive","input_level_dbu":null,"output_level_dbu":null,"training":{"settings":{"ignore_checks":false},"data":{"latency":{"manual":null,"calibration":{"algorithm_version":1,"delays":[4056],"safety_factor":1,"recommended":4055,"warnings":{"matches_lookahead":false,"disagreement_too_high":false}}},"checks":{"version":3,"passed":true}},"validation_esr":0.009532705912683256}},"architecture":"WaveNet","config":{"layers":[{"input_size":1,"condition_size":1,"head_size":8,"channels":16,"kernel_size":3,"dilations":[1,2,4,8,16,32,64,128,256,512],"activation":"Tanh","gated":false,"head_bias":false},{"input_size":16,"condition_size":1,"head_size":1,"channels":8,"kernel_size":3,"dilations":[1,2,4,8,16,32,64,128,256,512],"activation":"Tanh","gated":false,"head_bias":true}],"head":null,"head_scale":0.02},"weights":[0.2318343073129654,0.8554673194885254,-0.9537332653999329,-0.829062283039093,-0.530185341835022,0.4484957456588745,-0.06152813881635666,0.9797181487083435,-0.1773969829082489,0.485959529876709,-0.36347222328186035,-0.4508601725101471,-1.1243358850479126,-0.7457824349403381,-0.5049799680709839,0.04971586540341377,0.05766918882727623,0.08908740431070328,-0.30744752287864685,-0.009695441462099552,0.09405887871980667,-0.006586344912648201,-0.08899138122797012,0.06117439642548561,0.10415045917034149,-0.04507967829704285,0.08023184537887573,-0.00817028060555458,-0.14486509561538696,-0.07888004928827286,0.0760321393609047,0.17930281162261963,-0.05355405807495117,-0.2036072313785553,-0.11453751474618912,-0.14583756029605865,0.09209868311882019,0.18168820440769196,0.10932847857475281,-0.05767572671175003,-0.0249529629945755,-0.09866360574960709,0.18024878203868866,-0.08230315148830414,-0.06261470913887024,-0.21359127759933472,0.038436319679021835,0.04290458932518959,0.07051476091146469,-0.04848320037126541,0.05369172617793083,0.28678539395332336,-0.00112084299325943,-0.028253788128495216,0.2236010581254959,-0.142791286110878,-0.02101125195622444,0.015776924788951874,-0.15584112703800201,-0.11706312745809555,0.1978936344385147,0.07472454011440277,-0.07824499905109406,-0.11836440116167068,0.1842748522758484,-0.27131614089012146,0.1855940967798233,0.042038943618535995,-0.15661491453647614,0.20448742806911469,-0.10515870153903961,0.184666246175766,-0.0076997713185846806,0.12481999397277832,0.36557242274284363,0.06282608956098557,0.030748702585697174,0.11355774849653244,-0.05285795032978058,-0.08429388701915741,-0.3728877007961273,0.20461048185825348,0.04271608218550682,0.07666967064142227,-0.11309047788381577,-0.026434114202857018,-0.2653988003730774,-0.0018015194218605757,0.02571682073175907,0.147737517952919,-0.04851149022579193,0.08900895714759827,-0.14708517491817474,0.13342906534671783,-0.14808182418346405,0.1367129236459732,-0.004387133289128542,0.0031171105802059174,0.14670872688293457,-0.16970767080783844,0.13772477209568024,0.33853158354759216,-0.12792520225048065,-0.033147431910037994,0.10183818638324738,-0.06861705332994461,-0.10469672083854675,0.12256485968828201,-0.07556028664112091,0.057658594101667404,-0.2857418358325958,0.18846553564071655,-0.2298513650894165,0.5198027491569519,0.17184746265411377,-0.21271871030330658,0.3275977075099945,0.13861839473247528,0.1021277979016304,-0.31854739785194397,-0.06475002318620682,0.09149841219186783,-0.42223870754241943,-0.050887905061244965,-0.04616151005029678,-0.4328977167606354,-0.14964735507965088,-0.16653595864772797,0.2984754145145416,-0.00966984499245882,0.11891067028045654,-0.2845935821533203,-0.13315586745738983,-0.09187418967485428,0.45998847484588623,0.10911793261766434,0.13332843780517578,-0.33929771184921265,-0.045208804309368134,-0.011997669003903866,0.49519646167755127,0.20303691923618317,0.23048779368400574,-0.34952425956726074,-0.23218493163585663,0.04252539202570915,-0.27419060468673706,-0.11853348463773727,0.010894457809627056,-0.46797388792037964,-0.25946733355522156,-0.037401244044303894,-0.38049590587615967,-0.039076074957847595,0.16633252799510956,-0.48319634795188904,-0.02081834338605404,-0.2468317598104477,0.26502013206481934,-0.02150164730846882,-0.029985975474119186,-0.11424927413463593,-0.1143409013748169,-0.1701144576072693,-0.13166390359401703,-0.07592684030532837,-0.013513837940990925,0.17198477685451508,-0.04948689788579941,0.04347170516848564,0.24582919478416443,0.01984555833041668,0.17327754199504852,0.16281437873840332,-0.05939373001456261,0.05065413564443588,-0.1257079541683197,-0.13339601457118988,0.09619506448507309,-0.05618222430348396,-0.002293595112860203,-0.08127651363611221,-0.012465441599488258,-0.03950486704707146,0.08514492958784103,0.14096751809120178,0.004668527748435736,-0.06909233331680298,-0.22770626842975616,0.012883481569588184,0.15788757801055908,0.20742079615592957,-0.0358891636133194,0.03917307034134865,0.005962617229670286,-0.016762444749474525,-0.031426094472408295,0.16712962090969086,-0.006156362593173981,0.04809662327170372,0.1229461282491684,0.16989563405513763,-0.06266885995864868,0.014048874378204346,-0.010387289337813854,0.09099677950143814,-0.13066773116588593,0.10085852444171906,-0.28743842244148254,0.025304989889264107,0.04082055762410164,-0.288122296333313,0.03864206746220589,0.11545917391777039,0.2402816265821457,-0.012475461699068546,-0.2489878088235855,0.16283540427684784,0.08276686817407608,-0.25132718682289124,0.23450134694576263,0.11256514489650726,-0.08293259143829346,-0.24993717670440674,-0.10200769454240799,0.20068217813968658,0.16108953952789307,-0.07091593742370605,-0.12470586597919464,-0.26881980895996094,0.028907734900712967,0.2585890591144562,0.2799683213233948,0.10543622821569443,-0.022471144795417786,-0.35350802540779114,0.08610816299915314,0.029116708785295486,0.17817522585391998,0.011437115259468555,-0.0774192363023758,0.38486823439598083,-0.06578737497329712,-0.13624295592308044,0.3183557987213135,-0.17028537392616272,-0.034509193152189255,0.1203714981675148,-0.03129592537879944,-0.15879061818122864,0.1624632030725479,-0.013458584435284138,-0.013113035820424557,-0.26838216185569763,-0.054235588759183884,0.03843441978096962,-0.3426189422607422,0.15970593690872192,0.20443595945835114,-0.2232622355222702,0.03124544955790043,0.41995590925216675,0.1856808215379715,-0.012897991575300694,-0.2638712227344513,0.06334367394447327,-0.1621672511100769,-0.2705557942390442,0.23877863585948944,-0.07722221314907074,-0.3794621527194977,-0.19208993017673492,-0.02263576351106167,0.3400859832763672,0.10481845587491989,-0.1995149701833725,-0.11041557788848877,-0.20823043584823608,0.104713574051857,0.3641059994697571,0.1637352555990219,-0.18692073225975037,-0.396822065114975,-0.019296573475003242,0.13425157964229584,0.43755659461021423,0.07161402702331543,-0.0691174864768982,-0.3299678564071655,0.14309363067150116,-0.19731122255325317,-0.2819683849811554,0.15869514644145966,-0.12554332613945007,-0.3539592921733856,0.024007335305213928,-0.021183526143431664,-0.42046043276786804,0.1733594685792923,-0.16641855239868164,-0.37479501962661743,-0.1321842521429062,-0.010133235715329647,0.2624390125274658,-0.1433458924293518,-0.028997158631682396,0.06375741213560104,-0.1460857391357422,0.07611553370952606,0.007266584318131208,0.07764998078346252,-0.05127454549074173,0.029486538842320442,0.14147186279296875,0.027370458468794823,0.07761245965957642,0.124392569065094,-0.024458566680550575,0.04237305000424385,-0.19230735301971436,0.036967504769563675,0.03312843292951584,0.08121055364608765,-0.018970780074596405,0.11198259890079498,-0.06979891657829285,0.10993177443742752,0.040132373571395874,0.27836963534355164,-0.0908094123005867,-0.11755706369876862,-0.3348315954208374,0.16215291619300842,0.10466058552265167,0.09282881766557693,0.027966689318418503,0.09488337486982346,0.3616219460964203,0.10148890316486359,0.09614866971969604,0.1638200581073761,-0.07775651663541794,0.09732375293970108,0.2745018005371094,-0.11573723703622818,0.1105116456747055,0.26433229446411133,0.04975535348057747,-0.10857805609703064,-0.13417735695838928,-0.015103640034794807,0.11390364915132523,-0.045291174203157425,-0.008861486800014973,0.1282922625541687,0.101021908223629,-0.09879385679960251,0.20930637419223785,-0.14658956229686737,0.06662160158157349,-0.23682871460914612,-0.18585480749607086,-0.08207498490810394,-0.025908712297677994,0.03497662395238876,0.1703081876039505,-0.02012721262872219,-0.08689162880182266,-0.13470858335494995,0.1088646799325943,-0.09898382425308228,0.13809283077716827,-0.2028941661119461,-0.025022687390446663,-0.17765255272388458,0.057904671877622604,0.08997759968042374,0.15628491342067719,-0.017575092613697052,0.1492377072572708,0.08715657889842987,0.09879990667104721,0.020138446241617203,0.1588354855775833,-0.08733830600976944,0.1089625284075737,0.12027384340763092,-0.0500214509665966,-0.09550388157367706,0.10563091933727264,-0.1252214014530182,-0.07912830263376236,-0.04821451008319855,-0.22108891606330872,-0.15661689639091492,0.1277816891670227,-0.03363441675901413,0.01416275929659605,-0.10165689140558243,0.2164248824119568,-0.0590546615421772,0.2611822485923767,-0.15722692012786865,0.04386356100440025,0.311845988035202,-0.08928468823432922,0.21582601964473724,-0.1389009952545166,-0.06858345121145248,0.1599535495042801,-0.32907840609550476,-0.03432836756110191,0.2098814696073532,-0.2369009107351303,-0.1089993342757225,-0.14057840406894684,0.20362485945224762,-0.02689427137374878,0.1492176204919815,-0.081784687936306,0.07890469580888748,-0.17073196172714233,0.2576032280921936,0.08600731939077377,0.19291427731513977,-0.3545796573162079,0.0086672967299819,-0.20510613918304443,0.1876835972070694,0.050773318856954575,-0.014821466989815235,-0.18333174288272858,0.12455932796001434,0.11785944551229477,-0.35289862751960754,-0.051151927560567856,0.11072610318660736,-0.3612764775753021,0.055118490010499954,-0.05101047456264496,-0.38591712713241577,-0.1517796814441681,0.054630666971206665,-0.14345042407512665,-0.14234772324562073,-0.0008002336835488677,0.1462080180644989,-0.014659940265119076,0.2790193557739258,-0.04231101647019386,0.17771005630493164,0.2768275737762451,0.17240355908870697,0.11675094813108444,-0.2929156720638275,0.07993964850902557,-0.03568271920084953,-0.1283942610025406,-0.15862978994846344,-0.08345932513475418,-0.3435506522655487,-0.09972336888313293,-0.01200541015714407,0.09399180114269257,0.08815901726484299,0.11906442791223526,-0.18027547001838684,-0.1280931979417801,-0.11381080746650696,0.15626341104507446,0.10085596144199371,0.18714424967765808,-0.13321299850940704,-0.06632451713085175,0.005808899644762278,0.06807325780391693,-0.08195631206035614,0.10732530057430267,-0.2818906009197235,0.025323497131466866,-0.1440897136926651,-0.28347650170326233,-0.15027296543121338,0.031453218311071396,-0.21207551658153534,0.07283089309930801,0.04651642590761185,-0.11829967796802521,-0.0372033566236496,-0.0870201513171196,-0.23280225694179535,-0.026729818433523178,0.02787049673497677,0.12707820534706116,0.17881783843040466,0.038680385798215866,0.3718325197696686,-0.30500274896621704,0.20805051922798157,0.5266169309616089,-0.39359670877456665,0.07981715351343155,-0.3081659972667694,0.3386607766151428,0.13875021040439606,-0.4575040340423584,0.298189252614975,0.07221177220344543,-0.42666032910346985,0.3041788637638092,-0.025051020085811615,0.4834756851196289,-0.29585325717926025,-0.06558661162853241,-0.3474852442741394,0.3178900182247162,-0.07725077122449875,0.39864420890808105,-0.17161093652248383,-0.03241431340575218,-0.35752779245376587,0.2126997709274292,0.044675588607788086,0.30335748195648193,-0.34294945001602173,-0.07867257297039032,-0.24854733049869537,0.2105698436498642,0.008541515097022057,-0.48314476013183594,0.4087665379047394,0.1486525982618332,-0.49250325560569763,0.13778582215309143,-0.0933341532945633,-0.38078129291534424,0.21653077006340027,-0.0806773453950882,-0.4316467344760895,0.28069251775741577,-0.05987502634525299,0.41267991065979004,-0.27467358112335205,-0.06061960756778717,0.2524145245552063,0.052300602197647095,-0.2730148136615753,0.18248292803764343,-0.14066724479198456,-0.08493269979953766,-0.29594454169273376,-0.0428677462041378,0.3556345999240875,-0.2505687475204468,0.12111426889896393,0.19961316883563995,-0.19914713501930237,0.05511222407221794,0.29888972640037537,0.17916396260261536,-0.22623226046562195,-0.289882093667984,-0.2569076716899872,0.12879492342472076,0.05596441030502319,0.3008303940296173,-0.12497737258672714,-0.24210861325263977,-0.08535722643136978,0.1398034393787384,0.3000797629356384,0.2637423574924469,-0.12638309597969055,-0.3078945577144623,-0.17457279562950134,0.2064969837665558,0.15063050389289856,-0.326996773481369,0.14828208088874817,0.3610818386077881,-0.202865332365036,-0.024570876732468605,0.08655207604169846,-0.12453462183475494,0.08228782564401627,0.13840316236019135,-0.13295988738536835,0.14460767805576324,0.319594144821167,0.2950577735900879,-0.07799070328474045,-0.2722455561161041,0.18208205699920654,-0.33306729793548584,0.32354143261909485,0.2846830487251282,-0.5905588865280151,0.27217546105384827,-0.06826773285865784,0.5861064195632935,-0.25854259729385376,-0.25739097595214844,0.35570478439331055,-0.0006749830790795386,-0.2669312655925751,0.3947611451148987,-0.06021153926849365,0.1503663957118988,-0.5321731567382812,0.1346723437309265,-0.22421260178089142,0.3556100130081177,-0.04273926094174385,0.14739874005317688,-0.40802404284477234,0.26352623105049133,-0.15345093607902527,0.472215473651886,-0.04164087399840355,0.2467566430568695,-0.5356963872909546,0.2893853783607483,-0.17168548703193665,0.3080214262008667,-0.18322037160396576,-0.3430764973163605,0.5978129506111145,-0.18479791283607483,-0.3399193584918976,0.4494410455226898,-0.04691706970334053,-0.16611634194850922,0.5020052790641785,-0.12361551076173782,-0.14847098290920258,0.419797420501709,-0.1941961795091629,0.07613321393728256,-0.5354154109954834,0.21573981642723083,0.03219887986779213,-0.18635453283786774,0.09247202426195145,0.06063861399888992,-0.3276016414165497,0.07337435334920883,-0.12434364855289459,0.3515356183052063,-0.056119609624147415,-0.07759957015514374,0.31002503633499146,-0.004201526287943125,0.07026666402816772,0.12695087492465973,-0.07182931900024414,-0.010844769887626171,-0.20248501002788544,0.08876669406890869,-0.1756209135055542,0.23893320560455322,-0.06735525280237198,0.01222554687410593,-0.12759926915168762,-0.17232461273670197,-0.06954843550920486,0.3385097086429596,-0.010371986776590347,0.1723892092704773,-0.2750430405139923,0.07291113585233688,-0.19170764088630676,0.19976156949996948,0.01477926503866911,-0.02277708612382412,0.29077595472335815,0.15554696321487427,-0.0636848732829094,0.22915345430374146,0.1588784158229828,-0.08289351314306259,0.3576999008655548,-0.041542451828718185,-0.06319481134414673,0.2171524316072464,0.11220002919435501,0.19072870910167694,-0.20056970417499542,-0.0978604182600975,0.18453291058540344,0.19941551983356476,0.10066331177949905,0.06324930489063263,0.27095720171928406,0.2633827030658722,-0.14399997889995575,-0.31745579838752747,-0.012306694872677326,-0.2618831992149353,-0.14789600670337677,-0.08947018533945084,-0.2149258404970169,-0.12480782717466354,-0.2340686172246933,0.17936469614505768,0.08136343210935593,0.08530066162347794,-0.07309403270483017,-0.00891887117177248,-0.10164004564285278,0.24810947477817535,0.16296696662902832,0.04900524020195007,-0.24242711067199707,-0.2832396328449249,0.06903594732284546,0.10988296568393707,0.18126048147678375,0.14485730230808258,-0.04715868458151817,-0.04716428741812706,0.02155807800590992,-0.2445669174194336,-0.1974845826625824,-0.19733397662639618,-0.23893699049949646,-0.14872150123119354,0.018395347520709038,-0.26907819509506226,-0.09270278364419937,-0.18503259122371674,-0.1772811859846115,-0.06026189401745796,-0.1340077966451645,0.10883792489767075,0.017309343442320824,0.15495344996452332,0.10018843412399292,-0.445510596036911,0.18040727078914642,-0.07301533967256546,-0.47813981771469116,0.037649352103471756,0.09339410811662674,0.31169524788856506,0.035419024527072906,0.10294951498508453,0.4483897089958191,-0.10978782176971436,-0.04611998051404953,0.30347880721092224,-0.15523076057434082,0.037719644606113434,-0.2391689270734787,0.16932904720306396,-0.07338035106658936,0.3491162359714508,-0.16990841925144196,0.13312332332134247,-0.41638240218162537,-0.06809172034263611,-0.04747151955962181,0.4114551842212677,-0.21061186492443085,0.1738162636756897,-0.30679962038993835,-0.051333338022232056,-0.06579525768756866,0.4629010558128357,-0.1611325591802597,-0.09425549954175949,0.4173503816127777,-0.1762070506811142,0.05725572630763054,0.43233540654182434,0.05773996561765671,-0.1153397262096405,0.4952600598335266,-0.12090440839529037,0.1162993386387825,0.2059827446937561,-0.16940492391586304,0.17502214014530182,-0.27627992630004883,0.11709814518690109,-0.017644839361310005,-0.12385967373847961,-0.0775773823261261,-0.18874278664588928,0.003609109902754426,-0.013448058627545834,0.025821475312113762,-0.010067012161016464,-0.049402471631765366,0.28513452410697937,-0.07542314380407333,0.04046041890978813,0.012701552361249924,0.016609307378530502,-0.009478612802922726,0.11214100569486618,0.325936496257782,-0.3722752630710602,0.9278111457824707,-0.7909901142120361,0.14200007915496826,1.2209948301315308,1.0191307067871094,-0.4354671835899353,0.20372004806995392,0.16069267690181732,-0.4879368245601654,-0.5653024911880493,0.3998648226261139,-0.7637641429901123,0.28639695048332214,0.4544706642627716,-0.13794060051441193,0.3803289830684662,0.2316163033246994,0.3826179802417755,0.45676642656326294,0.2835683822631836,0.24434560537338257,-0.1760631650686264,-0.19332784414291382,-0.26982736587524414,0.1271481215953827,-0.23787620663642883,0.5155048370361328,0.051484230905771255,0.24102945625782013,0.1813558042049408,-0.01599004864692688,-0.17542581260204315,-0.42319467663764954,-0.0454321950674057,0.05198928713798523,-0.14009448885917664,-0.07518605887889862,0.04241746664047241,-0.0020627512130886316,0.39047983288764954,0.2205256074666977,0.02164336107671261,0.08486460149288177,-0.03372398018836975,0.020998816937208176,0.2596871554851532,0.10271807014942169,0.014475208707153797,-0.12323833256959915,0.15146762132644653,-0.17421306669712067,-0.26307055354118347,0.044907644391059875,0.04290318489074707,-0.03200991451740265,-0.12972186505794525,0.06324502825737,-0.17072872817516327,-0.04547717422246933,0.3226333558559418,-0.006008483003824949,-0.011476141400635242,0.056161392480134964,-0.15589523315429688,-0.040149711072444916,-0.29680657386779785,0.04585607349872589,0.05679124593734741,0.20779851078987122,0.028589768335223198,-0.14046594500541687,0.18618889153003693,-0.05041838437318802,-0.004249256569892168,0.24430173635482788,0.12684309482574463,-0.042376384139060974,-0.04186168313026428,-0.09735425561666489,-0.2918335795402527,-0.17025476694107056,0.14724032580852509,0.015675758942961693,0.025346243754029274,-0.007560205180197954,-0.08374301344156265,0.08756577223539352,0.2799929678440094,-0.1475517600774765,0.31261032819747925,-0.23638950288295746,0.12081148475408554,-0.05241169035434723,-0.03856649622321129,-0.20017088949680328,0.00038159327232278883,0.13184383511543274,0.124348483979702,0.21689309179782867,0.37663358449935913,0.23126602172851562,0.012638960033655167,0.12045720219612122,-0.028346627950668335,-0.1267216056585312,-0.1741762012243271,0.31456828117370605,-0.1577690988779068,0.08271721005439758,0.2211923897266388,-0.05659487470984459,-0.010418971069157124,0.18560072779655457,0.1001976877450943,-0.32390573620796204,-0.3851625919342041,0.03801252320408821,0.31479397416114807,0.2415657788515091,-0.3428661525249481,-0.2465793341398239,0.23643843829631805,-0.07933573424816132,-0.2760356366634369,0.10651957243680954,-0.5848296284675598,0.21725589036941528,0.008205144666135311,0.5027518272399902,-0.3253836929798126,-0.12356436252593994,0.49406152963638306,0.20477356016635895,0.11128394305706024,0.29333436489105225,-0.026695959270000458,0.4251691401004791,-0.3674800395965576,0.17029069364070892,-0.3649314343929291,0.13201935589313507,-0.12781783938407898,0.13244013488292694,-0.12351589649915695,-0.3678058981895447,-0.4398411810398102,0.22350504994392395,-0.1421826034784317,0.09212568402290344,-0.037264127284288406,-0.10952295362949371,-0.029452992603182793,0.05303260311484337,-0.061852749437093735,0.06781601905822754,-0.170815572142601,0.21737301349639893,-0.00737775256857276,-0.11653529852628708,-0.07777053862810135,0.17107130587100983,-0.29367440938949585,0.14573603868484497,0.17379319667816162,0.38228723406791687,-0.12007259577512741,0.16827906668186188,0.23703129589557648,-0.3055589497089386,-0.2565697729587555,-0.008719809353351593,0.1065216138958931,-0.1952301263809204,0.04877838119864464,0.0016454291762784123,0.23509196937084198,-0.3538273274898529,0.09499824792146683,0.08524035662412643,-0.21889857947826385,0.06599161773920059,-0.05496833100914955,0.03212137892842293,-0.14708785712718964,-0.24303409457206726,-0.08958302438259125,-0.034295398741960526,0.1851058006286621,-0.031134912744164467,0.30473580956459045,0.01653999648988247,-0.16902554035186768,0.23280657827854156,0.022868754342198372,0.23635175824165344,-0.06641047447919846,0.055249057710170746,-0.20389075577259064,0.09635445475578308,-0.3695569634437561,-0.6632272601127625,-0.44023653864860535,-0.10190142691135406,0.043198712170124054,-0.23974160850048065,-0.37027278542518616,0.027393260970711708,-0.03402248024940491,0.06682290881872177,0.12515272200107574,0.21300093829631805,-0.23605558276176453,0.15481607615947723,0.17928507924079895,0.10105985403060913,-0.11703602969646454,-0.3028715252876282,0.1032361090183258,0.028339264914393425,-0.062306568026542664,-0.09986966103315353,0.14643198251724243,0.04179039224982262,-0.20635904371738434,-0.2670011520385742,0.019969919696450233,-0.029256677255034447,0.12707366049289703,0.1025421991944313,0.15678931772708893,-0.0016338630812242627,-0.044731151312589645,-0.07850432395935059,-0.031743377447128296,0.04529564082622528,-0.02524385415017605,-0.22645536065101624,0.190185084939003,-0.1178116500377655,0.222730815410614,-0.20936276018619537,-0.16733330488204956,0.1690874993801117,-0.061842646449804306,0.2277553230524063,0.08219107985496521,-0.2652471959590912,0.09605441242456436,-0.20832613110542297,-0.1089276373386383,0.16088047623634338,0.25216129422187805,-0.30174461007118225,0.08864275366067886,0.05296732857823372,0.27741482853889465,0.39030981063842773,0.14598695933818817,-0.17188377678394318,0.38285064697265625,-0.027934547513723373,-0.03983152657747269,-0.24826230108737946,-0.36374935507774353,0.11634638160467148,-0.12503091990947723,0.2943892180919647,0.22469983994960785,0.007415998261421919,0.17143452167510986,0.22060920298099518,-0.24380448460578918,0.31554263830184937,-0.13319092988967896,-0.016756385564804077,-0.05736970156431198,0.18078398704528809,-0.10766299068927765,-0.10953065007925034,-0.2629337012767792,0.07726962119340897,0.04152854159474373,0.21682992577552795,0.1596294492483139,0.06439803540706635,0.03830953687429428,-0.1165601909160614,0.2890329360961914,-0.27194225788116455,0.14217117428779602,-0.1451028287410736,0.16130654513835907,-0.1910713016986847,-0.19652774930000305,0.2502575218677521,-0.1826886087656021,-0.06570449471473694,0.04117739200592041,-0.13940241932868958,-0.21886184811592102,0.1766047477722168,0.26874449849128723,0.1755019873380661,-0.17954391241073608,0.10604312270879745,-0.47343316674232483,0.3556444048881531,0.18716102838516235,0.1273692548274994,-0.3481736183166504,0.15536312758922577,0.07742880284786224,-0.03939751535654068,-0.0016544435638934374,0.09901420772075653,-0.09634793549776077,-0.3004320561885834,-0.23572129011154175,0.2543952167034149,-0.45177802443504333,0.3260645568370819,0.05366906151175499,-0.16844069957733154,-0.07169681787490845,0.1624964326620102,-0.2204362004995346,-0.06821946054697037,0.03684500977396965,-0.25930556654930115,-0.10447181761264801,0.2702730596065521,0.1704711616039276,0.17044244706630707,-0.361511766910553,0.086433544754982,0.3373156189918518,-0.0929194912314415,-0.2597997784614563,-0.7781097888946533,-0.29369568824768066,-0.02795247547328472,-0.22896522283554077,0.3442111313343048,-0.2024204283952713,-0.13575400412082672,-0.003217932768166065,0.038919977843761444,-0.33034518361091614,0.3024909794330597,-0.15401849150657654,0.1319751739501953,-0.3474411368370056,0.4286702275276184,0.3604593276977539,0.872582197189331,0.07186603546142578,0.1340436339378357,-0.2550053894519806,-0.14831630885601044,-0.7032545804977417,-0.2894657254219055,0.26579245924949646,0.2643924355506897,-0.2473474144935608,0.1037602350115776,-0.13918718695640564,0.2057914137840271,0.2951377332210541,1.1803432703018188,0.011641052551567554,-0.015331262722611427,-0.1644584685564041,0.33071765303611755,0.012561663053929806,-0.13929738104343414,0.16389994323253632,0.02074728161096573,-0.32053646445274353,0.1565965712070465,-0.07522861659526825,0.3487005829811096,-0.3030048906803131,-0.2914915978908539,-0.18183688819408417,0.11228590458631516,0.16986298561096191,0.04938532039523125,-0.35553470253944397,0.14713634550571442,0.17848622798919678,-0.14949841797351837,0.16658854484558105,0.04747673496603966,-0.13672618567943573,0.259589821100235,0.016225364059209824,0.018131855875253677,-0.24582794308662415,-0.07547973096370697,0.34010058641433716,0.236262246966362,0.048471301794052124,-0.18328845500946045,-0.24206309020519257,-0.19084197282791138,0.3166973888874054,-0.059900689870119095,-0.2987973093986511,-0.18672092258930206,-0.23794251680374146,0.08432820439338684,-0.11210974305868149,0.06352438032627106,0.007642139680683613,-0.18524199724197388,0.1592346429824829,-0.3474149703979492,0.02129657007753849,0.18210437893867493,0.022242076694965363,-0.2310025990009308,0.11292220652103424,0.03177277743816376,-0.09869194775819778,0.050331465899944305,0.24040693044662476,-0.15043342113494873,-0.24813798069953918,0.08517936617136002,0.3614708483219147,0.01962800696492195,-0.43896085023880005,0.3375263512134552,-0.1453222632408142,0.055789656937122345,-0.07239902019500732,0.17063136398792267,0.04442830756306648,-0.3555169105529785,0.12816056609153748,0.10415662080049515,-0.2781935930252075,-0.005546700209379196,0.035044118762016296,-0.2687564492225647,-0.19402702152729034,-0.11373379826545715,0.23460835218429565,0.075376957654953,0.759997546672821,-0.13312987983226776,-0.24891239404678345,-0.09547469764947891,0.3222154974937439,0.011523918248713017,-0.15194247663021088,-0.0722808763384819,0.024516968056559563,-0.19565577805042267,0.11424970626831055,0.18407189846038818,0.018981004133820534,-0.2369973212480545,0.3527873158454895,-0.2820762097835541,0.06057331711053848,0.13435785472393036,0.19476351141929626,-0.3645808696746826,0.17695744335651398,-0.0024558641016483307,-0.29578566551208496,0.036863405257463455,0.1355460286140442,-0.10073323547840118,-0.003927725367248058,-0.1357566863298416,0.42094048857688904,-0.22155119478702545,0.1725461781024933,-0.41231435537338257,0.320243775844574,0.23986385762691498,-0.00332448398694396,-0.16395580768585205,-0.07322175800800323,-0.3662056028842926,0.053557395935058594,0.28636306524276733,0.1888343244791031,-0.004412258043885231,-0.07122298330068588,-0.1527417153120041,-0.12214554101228714,0.16007070243358612,0.09691201895475388,-0.20890118181705475,-0.5589866638183594,0.26277709007263184,-0.02043265663087368,0.15241900086402893,0.3199939429759979,0.12908987700939178,0.012142698280513287,0.030630948022007942,-0.12359743565320969,0.029011353850364685,0.18956071138381958,0.12278103828430176,-0.12072774022817612,-0.23097288608551025,-0.17598474025726318,-0.14731895923614502,0.521159827709198,-0.25075531005859375,-0.2752697467803955,-0.17639070749282837,-0.07179311662912369,-0.18241192400455475,-0.31404435634613037,-0.04131874814629555,-0.15571211278438568,-0.3848933279514313,0.2104494273662567,0.27677014470100403,0.040112800896167755,-0.317874550819397,0.016937963664531708,-0.4451257586479187,0.007566048298031092,0.2854187786579132,0.050795942544937134,-0.2398817241191864,-0.09589744359254837,0.24688871204853058,-0.06814923137426376,0.08006427437067032,0.2007732391357422,-0.19214655458927155,-0.030774477869272232,0.15554340183734894,0.2702009379863739,-0.007973842322826385,-0.27922746539115906,0.011136614717543125,-0.4759605824947357,0.32292598485946655,0.33575084805488586,-0.03713344782590866,-0.11228959262371063,0.222701758146286,0.12208269536495209,-0.11719270795583725,0.29210299253463745,0.024604009464383125,-0.06077693775296211,-0.10091660171747208,0.02454841323196888,0.33883440494537354,-0.3192903995513916,-0.018106602132320404,0.3297002911567688,-0.19972681999206543,0.011779746040701866,0.30016395449638367,-0.2500169575214386,-0.20374928414821625,0.2584848403930664,-0.19788858294487,0.08146139979362488,0.09547173976898193,0.16410596668720245,0.08730114251375198,-0.23055537045001984,0.012156580574810505,0.04429751634597778,0.2297336906194687,0.02482008747756481,0.045555200427770615,-0.31878861784935,0.3383134603500366,0.005454832687973976,0.06886669248342514,0.15850350260734558,0.008224009536206722,-0.05570390447974205,0.19530999660491943,0.2117421180009842,0.05272814631462097,-0.10742422193288803,0.0627918466925621,0.2397623062133789,0.0823202058672905,-0.07099677622318268,-0.21924832463264465,-0.4219273328781128,0.050549328327178955,0.039330266416072845,0.10948581248521805,-0.42721590399742126,-0.4769183397293091,-0.09814470261335373,-0.08417010307312012,-0.07516604661941528,0.43786436319351196,-0.0546296089887619,-0.08774137496948242,-0.2925633192062378,-0.08162693679332733,0.05157201737165451,0.44772258400917053,0.10174337774515152,0.09577614814043045,0.3492062985897064,0.10533735901117325,-0.19941148161888123,0.26915132999420166,0.03170182183384895,-0.13277727365493774,-0.2587241232395172,-0.06587864458560944,0.015775611624121666,-0.29348084330558777,-0.4723761975765228,-0.19196251034736633,0.616460382938385,0.13768646121025085,0.175493061542511,-0.14487196505069733,-0.08409742265939713,0.11143288761377335,0.081609345972538,0.07567518949508667,0.043483179062604904,0.1329372674226761,-0.009762320667505264,-0.03125423938035965,0.1124565601348877,-0.045917198061943054,-0.04884705692529678,-0.5110302567481995,0.07071767002344131,-0.09206992387771606,-0.0018944769399240613,-0.025133682414889336,-0.009192129597067833,0.42763036489486694,0.2641446888446808,0.2643169164657593,0.22292278707027435,0.17265385389328003,0.13694165647029877,0.10646341741085052,-0.21184182167053223,0.018246624618768692,-0.582841694355011,0.41596490144729614,-0.0867895856499672,-0.06272739171981812,0.003782503539696336,-0.04453156143426895,-0.09775977581739426,-0.00907379761338234,-0.06893205642700195,0.1530863493680954,-0.03934178128838539,0.193643257021904,-0.27714741230010986,-0.3846936821937561,-0.14637714624404907,0.2604365944862366,0.46812644600868225,0.130782350897789,-0.6215186715126038,-0.2953239977359772,-0.062314487993717194,-0.015983983874320984,0.2315962314605713,0.3731960952281952,-0.09360529482364655,-0.06642322242259979,-0.11132128536701202,-0.08184842020273209,-0.0346500538289547,-0.04729342460632324,0.10012213885784149,0.03062227927148342,-0.0894506573677063,0.7279731035232544,0.30848953127861023,0.06683732569217682,0.24203382432460785,-0.09829971939325333,0.004533060826361179,-0.5361699461936951,0.1296665072441101,0.2870407700538635,-0.08994751423597336,-0.007948899641633034,-0.0818520337343216,-0.28422290086746216,-0.002408404368907213,0.11618819832801819,0.15061022341251373,-0.09998410940170288,0.16975639760494232,-0.20711825788021088,0.27144190669059753,0.16244781017303467,-0.20621521770954132,0.03366337716579437,0.07737922668457031,-0.3426514267921448,-0.04036855697631836,0.1904284507036209,0.21589510142803192,-0.08283273875713348,-0.18939971923828125,-0.11244333535432816,-0.09145122766494751,0.14976446330547333,-0.47003528475761414,-0.13913388550281525,-0.04175295680761337,0.008861972950398922,0.02406645193696022,-0.05201377719640732,-0.07695537060499191,0.06784721463918686,-0.10536108165979385,0.11707967519760132,0.0018880728166550398,-0.09785062074661255,-0.18597015738487244,-0.07306785136461258,0.14726990461349487,0.7423122525215149,0.45469924807548523,0.10546546429395676,-0.3327319622039795,-0.007022724486887455,0.1154511570930481,0.07688721269369125,0.1897767335176468,-0.012865370139479637,-0.05688624083995819,-0.19529184699058533,-0.008922201581299305,0.11665727198123932,0.05264110118150711,0.10034669935703278,0.8189629316329956,0.5456662178039551,0.4511033892631531,0.1935807764530182,-0.04439343512058258,-0.0867377370595932,0.02212868072092533,0.050881631672382355,-0.016717692837119102,0.08095626533031464,-0.1877826601266861,-0.00944059994071722,-0.27023938298225403,-0.09004353731870651,-0.022845711559057236,0.1483704149723053,0.17761273682117462,0.01018004771322012,-0.7012740969657898,-0.3264414966106415,-0.23085705935955048,-0.054251573979854584,-0.008707839995622635,0.09270736575126648,-0.12917526066303253,-0.07123542577028275,0.048715636134147644,-0.03477043658494949,0.05161052942276001,-0.09686059504747391,0.20430351793766022,0.11957751214504242,0.04497762396931648,-0.12759056687355042,0.5196784138679504,0.08977844566106796,0.10606366395950317,0.13508069515228271,0.1283123940229416,-0.5366789698600769,-0.06836558878421783,0.05816100537776947,-0.01207758765667677,-0.13352607190608978,-0.09154686331748962,0.009901471436023712,-0.10130808502435684,-0.13082879781723022,0.4941028654575348,0.04174397140741348,-0.1303761601448059,0.02614830993115902,0.0699005275964737,0.058364804834127426,0.028747592121362686,-0.056925978511571884,0.0663030743598938,-0.0006689714500680566,0.04582933709025383,-0.029998749494552612,0.1132921427488327,-0.19616614282131195,0.0626489669084549,-0.10966850817203522,0.13636155426502228,0.11429957300424576,-0.024049656465649605,-0.10120435059070587,-0.2622703015804291,0.17273099720478058,0.309035986661911,0.17978794872760773,0.11222315579652786,0.06021399050951004,-0.03152620792388916,0.1700829565525055,0.09261142462491989,-0.10429460555315018,-0.305512398481369,0.07523131370544434,0.02178514562547207,0.21146821975708008,-0.3938208222389221,-0.09847743809223175,-0.1354689747095108,0.01730228029191494,-0.0363764762878418,0.612785279750824,-0.30178505182266235,0.1750292032957077,-0.32996878027915955,0.023419316858053207,-0.04598916694521904,0.12274844199419022,0.16902156174182892,-0.039694078266620636,-0.37227848172187805,-0.1178201362490654,-0.02351328730583191,0.1720588207244873,-0.011606290936470032,0.1347651332616806,0.3263813555240631,0.15790310502052307,-0.005603564437478781,0.2920694351196289,0.21981856226921082,-0.037931233644485474,-0.4143125116825104,0.10846583545207977,0.0666961744427681,0.17094890773296356,-0.4286574423313141,-0.4356573522090912,0.0019035398727282882,0.20405519008636475,0.12225053459405899,0.025362949818372726,0.10198637843132019,-0.14389939606189728,0.060556408017873764,0.16151046752929688,0.018155019730329514,0.1146632730960846,0.09181023389101028,-0.07065902650356293,0.08770554512739182,-0.25680437684059143,0.16155341267585754,-0.4117463529109955,0.24067702889442444,0.11832130700349808,-0.05624542012810707,-0.1553627997636795,0.10898850858211517,-0.21617886424064636,0.15985089540481567,0.1479872614145279,0.09351509809494019,-0.006418328266590834,-0.09088250249624252,0.12454642355442047,0.18234311044216156,-0.010321361944079399,0.8286745548248291,-0.5239035487174988,-0.1753394454717636,-0.039934758096933365,-0.10567484050989151,-0.02594258263707161,-0.067558154463768,-0.038501959294080734,-0.17929381132125854,0.08355112373828888,-0.0005811076844111085,-0.0382828526198864,0.23036818206310272,-0.08964113891124725,0.006897479295730591,-0.07417892664670944,0.07841964811086655,0.4972170293331146,-0.08899754285812378,-0.11846067756414413,-0.3228825032711029,0.18422485888004303,0.014492325484752655,0.09509152173995972,-0.017357932403683662,0.07525339722633362,0.006740795448422432,0.03664729744195938,0.13950876891613007,0.1400298774242401,-0.2031225860118866,0.015433798544108868,0.012182842008769512,0.18939834833145142,-0.07553883641958237,-0.17454057931900024,0.018236273899674416,-0.0057525611482560635,-0.019543832167983055,0.2737251818180084,-0.3686525225639343,-0.16394348442554474,-0.07825738936662674,-0.24466344714164734,0.059448469430208206,0.007641644682735205,0.038903865963220596,-0.12042262405157089,-0.4137183427810669,-0.2317119985818863,0.16632792353630066,-0.05679276958107948,0.014825372025370598,-0.005685755051672459,0.052739955484867096,0.16776059567928314,-0.12713609635829926,-0.0037225070409476757,0.04918473958969116,-0.1152731254696846,-0.12908825278282166,0.09759467095136642,0.2417728751897812,0.005078576970845461,-0.2725090980529785,-0.1747177392244339,0.07893721014261246,0.2539216876029968,0.03635948896408081,0.05644620582461357,0.19640710949897766,-0.04527279734611511,0.026596983894705772,0.024038447067141533,0.008980766870081425,-0.010630229488015175,0.18082351982593536,0.005481447093188763,0.06456925719976425,-0.25254684686660767,0.008684296160936356,-0.41234755516052246,0.2730301022529602,-0.10885800421237946,-0.12341944128274918,-0.13321228325366974,-0.0660838931798935,0.32765913009643555,0.08929760009050369,0.19066214561462402,-0.13354487717151642,-0.19893507659435272,0.06472419947385788,0.1916416585445404,0.23340655863285065,0.08000381290912628,0.059398893266916275,-0.14268286526203156,0.028078975155949593,0.014630635268986225,0.031031062826514244,-0.1026059240102768,0.019160272553563118,-0.006939461454749107,-0.11343488097190857,0.0023799301125109196,0.08065292984247208,-0.21996186673641205,0.3377000391483307,-0.10531169921159744,0.08532323688268661,-0.10215180367231369,0.39278846979141235,-0.09978766739368439,-0.018826186656951904,-0.15208475291728973,-0.0777939036488533,0.14699196815490723,0.1035144031047821,0.09372397512197495,0.09734201431274414,0.08180495351552963,-0.10095316171646118,-0.0607425756752491,-0.0888604074716568,-0.028433362022042274,-0.1839641034603119,-0.08517713099718094,-0.029332758858799934,0.1839647889137268,-0.17644931375980377,-0.05621492117643356,-0.03438680246472359,-0.1470082849264145,-0.1783621907234192,0.07082226872444153,-0.4231664836406708,0.10067017376422882,-0.20719803869724274,0.1302482783794403,0.0658884271979332,0.11927634477615356,0.18619699776172638,-0.05954326316714287,-0.15652018785476685,-0.049165643751621246,0.3065620958805084,-0.01974242553114891,-0.15192630887031555,0.08123360574245453,0.09676524251699448,0.13178294897079468,-0.07607056200504303,0.13413791358470917,-0.0011503613786771894,0.059661973267793655,0.029943415895104408,0.5282589793205261,0.13252852857112885,0.028550365939736366,0.009199937805533409,0.06444330513477325,0.27139532566070557,-0.30988821387290955,-0.014277383685112,0.2669554650783539,0.06380036473274231,0.05006013810634613,-0.05315694585442543,0.07609034329652786,0.1651797592639923,0.028786564245820045,0.11291835457086563,0.028097163885831833,-0.10560519993305206,-0.6212813258171082,-0.17813734710216522,0.48866045475006104,-0.12125949561595917,0.2945333421230316,-1.1449192762374878,-0.4230843484401703,-0.3176608085632324,0.7989886999130249,-0.9343303442001343,-0.6124415993690491,-1.0236749649047852,0.2998672127723694,-0.9166320562362671,0.2860944867134094,-0.8200221657752991,-0.23260077834129333,-0.35231176018714905,0.24466343224048615,0.20325708389282227,0.08927801251411438,0.09975884109735489,-0.3260929584503174,-0.328199177980423,0.06596717983484268,-0.16209948062896729,0.05647147819399834,0.1807052493095398,0.40686920285224915,0.1312185376882553,-0.04044348746538162,0.14176473021507263,0.11751445382833481,-0.20629362761974335,-0.15974926948547363,-0.22763872146606445,-0.26742488145828247,0.34343457221984863,-0.004329270217567682,-0.19984401762485504,0.055620282888412476,-0.12088962644338608,0.01909356378018856,0.30872979760169983,0.07933158427476883,0.07503169029951096,0.16121535003185272,0.21872109174728394,0.08310024440288544,-0.25044575333595276,-0.026531530544161797,0.06847604364156723,0.1016790047287941,0.25401437282562256,-0.07100419700145721,-0.09215187281370163,-0.10956359654664993,0.08983853459358215,-0.17068684101104736,-0.19938892126083374,-0.0690411627292633,0.18915998935699463,0.045616503804922104,0.03786347061395645,0.18930694460868835,0.10323397815227509,-0.3034140169620514,-0.34425005316734314,-0.08949197083711624,0.08894599974155426,-0.22746728360652924,-0.015729855746030807,0.014820358715951443,0.01166982389986515,0.09604198485612869,0.069781094789505,0.0888587012887001,-0.3012506067752838,0.03336833789944649,-0.035824134945869446,0.3485780358314514,-0.05074329674243927,-0.18414530158042908,-0.06648512929677963,0.2052031308412552,-0.09407377988100052,-0.20140747725963593,0.17765390872955322,0.14441703259944916,-0.025449126958847046,0.04500484839081764,0.06361239403486252,-0.34110280871391296,-0.14291559159755707,-0.22228895127773285,-0.1357530653476715,-0.2990204095840454,-0.15499162673950195,-0.15278340876102448,0.05595075711607933,0.02489321306347847,-0.1154492199420929,-0.04339144006371498,-0.006410493515431881,0.2963363528251648,0.21833489835262299,-0.09327026456594467,-0.11491652578115463,0.01907285302877426,-0.10223995894193649,0.1510475128889084,0.1344471275806427,0.2616767883300781,-0.11357616633176804,0.019063342362642288,-0.34021174907684326,0.03287555277347565,0.19878505170345306,-0.1932721883058548,-0.18207477033138275,-0.048060160130262375,-0.04364427924156189,-0.1263401210308075,0.31168678402900696,-0.01306858193129301,0.015485962852835655,-0.11800166964530945,0.22788529098033905,-0.11666800826787949,0.05829554423689842,0.2479998618364334,0.15512724220752716,0.1919141262769699,-0.39926770329475403,0.2122281789779663,0.11213387548923492,-0.31294119358062744,0.3337332010269165,-0.2648352384567261,0.28441494703292847,-0.13947564363479614,0.267581582069397,0.11414332687854767,0.12106767296791077,-0.1866041123867035,0.006144501268863678,-0.06963963061571121,0.02815379947423935,-0.16908769309520721,-0.2617374658584595,0.11919910460710526,-0.03846098855137825,-0.3441581428050995,-0.05129443481564522,0.15492276847362518,0.0006186895188875496,0.08651769906282425,0.10457582771778107,-0.04143989831209183,0.1444542407989502,-0.3224242925643921,-0.16865764558315277,0.24984779953956604,0.3258444666862488,0.16203148663043976,-0.38163769245147705,0.13486550748348236,-0.21810992062091827,-0.2527812421321869,-0.05677331984043121,0.11858966946601868,0.28590720891952515,0.2850196659564972,-0.024717126041650772,0.145051047205925,-0.11268705129623413,-0.08008424937725067,-0.1747068166732788,-0.1493922770023346,0.05870867893099785,-0.016240116208791733,-0.06232529133558273,-0.12525439262390137,-0.18307943642139435,0.08911439776420593,0.11278102546930313,-0.13167430460453033,0.09351056814193726,0.013971060514450073,-0.009415711276233196,-0.08800343424081802,-0.02685660868883133,-0.09941808879375458,0.255720317363739,-0.24866321682929993,0.2423013597726822,-0.29381582140922546,-0.15189550817012787,0.047524891793727875,0.14225515723228455,0.06145375594496727,0.28491073846817017,0.36356499791145325,-0.14183129370212555,-0.046160873025655746,-0.2665528357028961,0.03653855249285698,-0.27775493264198303,-0.23724296689033508,-0.3016141355037689,-0.04111963510513306,0.30468297004699707,-0.2840721309185028,-0.1486019492149353,-0.2815360128879547,0.3108764588832855,0.13730135560035706,-0.15536625683307648,-0.25242364406585693,-0.3378993570804596,0.07576236873865128,-0.41650062799453735,0.05058318376541138,-0.206425279378891,0.21803335845470428,-0.17869700491428375,-0.286722868680954,0.12049731612205505,-0.33029383420944214,0.22635534405708313,-0.0893700122833252,0.04013950005173683,0.23709158599376678,0.06754734367132187,0.05042969435453415,-0.08027573674917221,0.1473885178565979,0.003085500793531537,0.1240096390247345,-0.14075009524822235,-0.052391279488801956,0.1382608860731125,0.09232623875141144,-0.07951419800519943,-0.22954577207565308,-0.03580189496278763,0.24166440963745117,-0.17745889723300934,-0.22342628240585327,0.19012214243412018,-0.22426117956638336,0.133941650390625,0.10926911234855652,0.19024541974067688,0.25744688510894775,0.257120281457901,0.28942880034446716,-0.23885181546211243,-0.10828272998332977,0.08907731622457504,-0.29420650005340576,0.11429430544376373,-0.23579980432987213,0.2592746615409851,0.22828425467014313,-0.2784176766872406,0.22812271118164062,0.03408683091402054,-0.2700413465499878,0.2683519423007965,-0.294363796710968,-0.2487056851387024,0.022820986807346344,-0.08474230766296387,0.005113225430250168,-0.08726245164871216,-0.06590569764375687,0.03983493894338608,0.12069442868232727,0.17030592262744904,-0.11003877967596054,-0.03506020829081535,-0.016873683780431747,-0.12137918174266815,-0.012076283805072308,-0.3116030991077423,-0.3244355320930481,-0.03387037664651871,0.30372872948646545,-0.07323543727397919,0.4315219819545746,0.1443556547164917,-0.03446982800960541,-0.14240364730358124,0.2450682669878006,0.019494980573654175,-0.20117071270942688,0.0925738587975502,0.05122261494398117,-0.0009755059727467597,0.04393138736486435,0.11549249291419983,0.08332326263189316,-0.0983678475022316,0.02021993324160576,0.17374287545681,0.24933822453022003,0.2139122635126114,-0.031182292848825455,-0.257180392742157,-0.11847030371427536,-0.1861175298690796,0.08434374630451202,0.062455423176288605,-0.06720472872257233,0.0879153162240982,0.026187513023614883,0.022611523047089577,-0.0103091299533844,0.15064100921154022,-0.0832771584391594,-0.42991721630096436,-0.05310574173927307,0.2720257341861725,0.054909899830818176,-0.16977529227733612,0.42135027050971985,-0.03798220306634903,0.2912710905075073,-0.05300615727901459,0.2551729381084442,0.17625615000724792,-0.16956134140491486,-0.011823412030935287,-0.21719522774219513,0.16093558073043823,0.03233884647488594,-0.24542118608951569,0.26083672046661377,-0.21644462645053864,0.17554157972335815,-0.08658736944198608,-0.013877484947443008,0.2177436202764511,0.18094351887702942,0.020280752331018448,0.14988143742084503,-0.22677788138389587,0.231164813041687,-0.019773004576563835,-0.13558578491210938,0.09695301204919815,-0.07777407765388489,-0.21133899688720703,0.11629974097013474,-0.035437293350696564,0.21554820239543915,-0.06415225565433502,-0.5548768639564514,-0.04527461528778076,-0.05607140436768532,0.017334170639514923,-0.050612010061740875,-0.08646580576896667,0.014026384800672531,0.12754875421524048,-0.02098013088107109,0.13260984420776367,0.07849222421646118,-0.11961821466684341,0.023645661771297455,-0.20529678463935852,0.0038668860215693712,0.256457656621933,-0.20119686424732208,-0.15795697271823883,0.1900179535150528,-0.15552431344985962,-0.16999171674251556,0.2063586264848709,0.19234305620193481,0.2753104865550995,-0.07536101341247559,-0.13377073407173157,-0.15321199595928192,0.17115387320518494,-0.349252849817276,0.3378087282180786,-0.005642683710902929,-0.19206033647060394,0.24702945351600647,-0.030517326667904854,0.04261038452386856,-0.19819855690002441,-0.3182423412799835,0.002974381670355797,-0.1739015281200409,-0.18922053277492523,0.24387793242931366,-0.10361234098672867,0.0957200899720192,0.0416703075170517,0.10394152998924255,0.10984107106924057,-0.15773490071296692,-0.1693820357322693,0.404185026884079,0.19771799445152283,0.2585141658782959,0.01306824292987585,-0.043465495109558105,0.23314878344535828,0.1277654767036438,-0.1938309520483017,0.05799183249473572,0.009687586687505245,-0.1200382262468338,0.028486527502536774,-0.2683282792568207,0.17751716077327728,-0.058089498430490494,-0.18144313991069794,0.14661432802677155,0.1670718938112259,-0.10138208419084549,0.0045969318598508835,0.3061342239379883,-0.16937540471553802,-0.1140136793255806,-0.333158940076828,-0.02138451859354973,0.2071504145860672,0.07431989163160324,-0.10559579730033875,0.10496114194393158,-0.181239053606987,0.19673524796962738,0.08331654965877533,-0.12162797898054123,0.1267196238040924,-0.2258126139640808,0.24980813264846802,0.22846445441246033,-0.10201913118362427,0.12898589670658112,-0.04790955409407616,-0.20294228196144104,0.13520827889442444,-0.10312607139348984,0.05298561975359917,0.045314304530620575,-0.12175408750772476,-0.21000277996063232,-0.012425527907907963,-0.0665864646434784,0.207804337143898,-0.08894280344247818,0.10372176021337509,0.0884624794125557,-0.2060438096523285,-0.08508177846670151,-0.022279446944594383,-0.17177274823188782,0.0905110239982605,-0.0029155141673982143,0.13182257115840912,0.040161728858947754,-0.01176909077912569,-0.0010488154366612434,-0.010257252492010593,-0.3066747188568115,0.05622945725917816,0.13953618705272675,0.07263433933258057,-0.1214367151260376,0.03858547285199165,0.18491949141025543,0.09515053778886795,-0.05496324971318245,-0.07896727323532104,0.4858787953853607,-0.853744387626648,0.46834760904312134,-0.19447042047977448,0.036245182156562805,0.08677425235509872,0.014971205033361912,0.16228434443473816,0.01224534958600998,-0.1241370365023613,0.4163030982017517,-0.15825188159942627,-0.039270468056201935,0.14691469073295593,-0.164174884557724,0.13985878229141235,0.01836005039513111,0.029657837003469467,-0.22979041934013367,-0.052054718136787415,0.15739426016807556,0.05800025165081024,-0.5559285879135132,-0.01055373065173626,-0.08043964952230453,-0.17335177958011627,0.16283242404460907,0.03552592918276787,-0.12689605355262756,0.1438944786787033,-0.13987433910369873,-0.0008999005658552051,0.1513373702764511,-0.14612776041030884,0.6778267025947571,-0.11511120200157166,0.005494305863976479,0.2096625119447708,0.015374697744846344,-0.26707732677459717,0.13311533629894257,0.12975770235061646,-0.11459001898765564,-0.11111567169427872,0.23319068551063538,0.13889199495315552,-0.12479190528392792,-0.21637465059757233,-0.15365441143512726,0.6357147097587585,-0.35901448130607605,0.17544004321098328,-0.0018322219839319587,0.1379787176847458,-0.10100677609443665,-0.2228301763534546,-0.06614743918180466,0.008553920313715935,-0.33278191089630127,0.20182770490646362,-0.0034513273276388645,-0.14439912140369415,0.13831734657287598,-0.0671844631433487,0.14764954149723053,0.053965844213962555,0.10948971658945084,0.16879993677139282,-0.005738795734941959,-0.0365346297621727,0.1824091523885727,0.018725622445344925,0.025243068113923073,-0.07047945261001587,-0.1798439621925354,-0.07618854939937592,0.2874413728713989,-0.05600423365831375,0.055116377770900726,-0.027561916038393974,0.023344336077570915,0.4410688281059265,-0.08040281385183334,0.04112894833087921,0.015295476652681828,-0.019231226295232773,-0.024850567802786827,0.08496271073818207,-0.06133737042546272,0.13763098418712616,0.0475335456430912,-0.12174513936042786,-0.09211842715740204,0.019640130922198296,-0.021987956017255783,0.03549587354063988,-0.039407096803188324,-0.14052516222000122,-0.09385727345943451,0.04453372582793236,-0.052835047245025635,-0.07689778506755829,0.0360470712184906,-0.033575914800167084,-0.017860285937786102,0.07473602890968323,0.2378780096769333,0.08232755959033966,0.057764869183301926,-0.03554018586874008,0.06455176323652267,0.09183479100465775,0.06751593202352524,-0.13614293932914734,-0.08106738328933716,-0.11246401071548462,-0.22489114105701447,0.12029198557138443,-0.04991469904780388,-0.11902472376823425,-0.213333398103714,0.025935517624020576,0.22803081572055817,-0.021921364590525627,0.09056487679481506,0.1541571319103241,-0.22859644889831543,-0.01033034548163414,-0.0340777263045311,0.1858266144990921,0.08351261168718338,-0.16470526158809662,0.06563523411750793,-0.024520287290215492,0.028481656685471535,0.033518169075250626,-0.11798244714736938,-0.05507617071270943,-0.22625243663787842,-0.010470308363437653,0.10656081140041351,0.21047820150852203,-0.09561709314584732,-0.05710102617740631,-0.49884912371635437,0.3129551410675049,0.052693694829940796,0.29263395071029663,-0.006742057856172323,-0.14765530824661255,-0.0767921507358551,-0.08678486198186874,-0.14850649237632751,-0.34920087456703186,-0.45318368077278137,-0.04946015402674675,-0.32716113328933716,-0.03675984591245651,0.059447817504405975,-0.03588016331195831,0.31218335032463074,0.16253353655338287,0.04660679027438164,-0.07596424221992493,-0.3073626458644867,0.35829395055770874,0.833315908908844,0.14672334492206573,0.16493578255176544,0.009614838287234306,-0.18714718520641327,0.09257754683494568,0.17036496102809906,-0.18271346390247345,0.21631190180778503,-0.24142295122146606,-0.14747871458530426,0.19891105592250824,-0.3017939031124115,-0.09273848682641983,-0.331402063369751,-0.2723965346813202,0.36861830949783325,0.10005547851324081,-0.3159351348876953,-0.17142431437969208,0.13792484998703003,-0.20814882218837738,-0.27349838614463806,-0.3377300500869751,-0.006221514195203781,0.11794542521238327,-0.15479648113250732,0.13305029273033142,-0.005598191171884537,0.22766712307929993,-0.09223180264234543,-0.03151123225688934,0.16173771023750305,0.004114885814487934,-0.0783756822347641,-0.06903597712516785,-0.02238873392343521,0.16302193701267242,-0.27049580216407776,-0.020497597754001617,0.20050984621047974,-0.15725593268871307,0.02022937312722206,-0.0577792227268219,0.07352998107671738,-0.11387685686349869,-0.12432412058115005,-0.08686117827892303,-0.02180805243551731,-0.10319840908050537,0.24525517225265503,-0.1754651516675949,-0.015427718870341778,0.26331543922424316,0.16186212003231049,0.1045546755194664,0.2249867171049118,-0.050140220671892166,-0.14705416560173035,0.2386014759540558,-0.017177579924464226,0.15735569596290588,-0.04710230231285095,0.13208022713661194,0.23061592876911163,0.15228866040706635,-0.14140118658542633,0.08052752912044525,0.3283187448978424,0.026182454079389572,-0.09692207723855972,-0.09699531644582748,0.15869642794132233,0.13933582603931427,0.06608906388282776,-0.47042179107666016,0.10103096067905426,-0.057034559547901154,0.18923600018024445,0.08766088634729385,-0.035571467131376266,0.1395987868309021,0.13442236185073853,-0.17501525580883026,-0.048763126134872437,-0.32124578952789307,0.05797950178384781,0.007301076781004667,-0.09446635097265244,-0.07874158024787903,-0.33809998631477356,-0.21508154273033142,-0.14627346396446228,0.280265212059021,0.14753130078315735,-0.002652843249961734,-0.30175432562828064,-0.10075066238641739,-0.1038750410079956,-0.049804531037807465,0.16220973432064056,-0.0879901871085167,-0.18496458232402802,0.03576773405075073,-0.04196513071656227,0.1457589566707611,0.029414711520075798,-0.04351404309272766,0.050331395119428635,-0.13269956409931183,0.11293403059244156,0.12456268072128296,-0.19097715616226196,-0.0958535373210907,-0.0014882917748764157,-0.05321512371301651,-0.14917249977588654,0.2225930541753769,-0.009137149900197983,0.2822193205356598,-0.08933894336223602,-0.13401535153388977,-0.07235479354858398,0.23811405897140503,-0.16713477671146393,-0.052617017179727554,0.19269363582134247,0.08064772188663483,-0.12385071814060211,0.20588931441307068,0.18236961960792542,0.12034066766500473,0.15544947981834412,0.13209408521652222,0.19760726392269135,-0.11602060496807098,0.08383335918188095,0.19354984164237976,-0.23209667205810547,-0.1525089591741562,0.17781615257263184,0.4668040871620178,0.13454502820968628,0.4344365894794464,-0.10571742057800293,-0.012148265726864338,-0.1044338047504425,0.09336964040994644,-0.16059641540050507,-0.15501247346401215,-0.09793751686811447,-0.08340537548065186,-0.01786709576845169,0.09032947570085526,0.10485970973968506,-0.0678674578666687,-0.7923117876052856,0.12894591689109802,-0.05673406273126602,0.09141146391630173,-0.10974562168121338,0.03367277979850769,-0.16868950426578522,-0.09839751571416855,-0.20284517109394073,0.19470641016960144,-0.15662632882595062,0.01968890056014061,-0.24949508905410767,-0.09707038849592209,-0.14677000045776367,-0.2221551239490509,-0.03279908001422882,0.03646698221564293,-0.10247256606817245,-0.16029322147369385,0.05602571368217468,-0.023786362260580063,0.11482222378253937,-0.1431245356798172,0.0385485403239727,-0.05121637135744095,0.08718930929899216,-0.040127985179424286,0.00645497627556324,-0.46423524618148804,-0.046327948570251465,-0.1259881854057312,-0.28112009167671204,-0.003677600994706154,0.052558645606040955,0.019987130537629128,-0.09605605900287628,-0.029091784730553627,-0.058879412710666656,0.010643718764185905,-0.03511855751276016,-0.12441693246364594,-0.03584366291761398,-0.018463240936398506,0.10702534019947052,-0.04645594209432602,-0.026636699214577675,-0.061414964497089386,0.06019415706396103,0.45701169967651367,-0.04773920774459839,0.05781940370798111,0.01415085420012474,0.00912347063422203,0.028343457728624344,0.14870017766952515,0.0054002669639885426,-0.20911595225334167,0.05579449608922005,0.08970030397176743,-0.11762424558401108,-0.09514972567558289,0.02714662440121174,-0.5090247988700867,0.48055320978164673,0.08444398641586304,0.10840199142694473,0.2504943311214447,-0.20916156470775604,-0.3081713318824768,-0.13176971673965454,-0.03258977830410004,0.1431986540555954,0.03544975817203522,0.12220632284879684,0.1321912705898285,-0.08526016026735306,0.10044918209314346,-0.15595558285713196,0.1520994007587433,0.01787630096077919,0.36586475372314453,0.4381760060787201,0.22782713174819946,-0.17699073255062103,-0.08493950217962265,0.0012574669672176242,-0.04340967535972595,0.1468016803264618,-0.09728395193815231,-0.0027463992591947317,0.0588502362370491,-0.04980899766087532,0.13543583452701569,0.10435705631971359,-0.27129751443862915,-0.05677143856883049,-0.17555581033229828,-0.2815818190574646,-0.10091225802898407,-0.3662411868572235,-0.02600058726966381,0.1928703337907791,0.4829028844833374,-0.0855792835354805,0.14125272631645203,0.021818483248353004,0.25036683678627014,-0.10500654578208923,-0.05508500710129738,0.3395145535469055,-0.5341264009475708,-0.20717617869377136,-0.02108125016093254,-0.04645982384681702,-0.17483815550804138,-0.054555732756853104,-0.1849455088376999,-0.35405993461608887,-0.25691506266593933,0.03362782299518585,0.19530317187309265,-0.18642696738243103,0.12895001471042633,0.15299838781356812,0.030059102922677994,-0.10778854042291641,0.031738560646772385,-0.09417513757944107,0.1163167804479599,0.10484124720096588,0.29914140701293945,0.07615593075752258,-0.16374248266220093,0.185907781124115,0.11411531269550323,-0.04076145961880684,0.33186250925064087,-0.07520775496959686,0.03472350910305977,0.09559301286935806,-0.07350520044565201,-0.2828931212425232,0.11859972774982452,0.2106972485780716,0.29531848430633545,-0.3918730616569519,-0.27753424644470215,-0.09585898369550705,-0.23969557881355286,0.03128041699528694,-0.12416394054889679,0.040179140865802765,-0.00004406266816658899,-0.12298375368118286,-0.15142978727817535,-0.05216875299811363,0.025745809078216553,0.04188165068626404,-0.5012888312339783,-0.18118202686309814,0.08711165934801102,0.25189101696014404,0.3582289218902588,0.14478111267089844,-0.060441840440034866,-0.021642958745360374,-0.13144956529140472,-0.012039730325341225,-0.051067955791950226,-0.07119105011224747,-0.13337482511997223,-0.37887880206108093,-0.16066493093967438,-0.38176730275154114,-0.46568334102630615,-0.03356517106294632,-0.15075667202472687,0.08034541457891464,-0.18388985097408295,-0.2247277796268463,0.08410028368234634,0.07746695727109909,0.0107654994353652,0.40377527475357056,-0.012173011898994446,-0.2683446705341339,0.20032620429992676,0.0951237604022026,0.2544255256652832,0.23482069373130798,-0.0842018872499466,0.84452885389328,0.03160351887345314,0.07552710920572281,-0.3534442186355591,-0.0822245255112648,0.1451970934867859,0.49836134910583496,0.37632274627685547,0.006067096721380949,0.009228112176060677,0.23363260924816132,0.09008254110813141,0.14542628824710846,-0.1645105481147766,0.04654987156391144,-0.23563456535339355,0.07965561747550964,-0.0039908867329359055,-0.12163699418306351,0.32612472772598267,-0.21198828518390656,0.06941304355859756,0.01874202862381935,-0.053412821143865585,0.049650683999061584,0.16245239973068237,0.15360938012599945,0.15477056801319122,-0.03279754891991615,0.07208950072526932,-0.01741337962448597,-0.05317975953221321,-0.05352461338043213,-0.22315895557403564,0.08211352676153183,-0.05005766451358795,0.11638214439153671,0.11924830824136734,-0.12795156240463257,0.04855916649103165,0.13639935851097107,-0.03900839760899544,0.22854623198509216,0.31240901350975037,-0.20704594254493713,-0.18023017048835754,0.10026378184556961,-0.34570279717445374,0.16051393747329712,-0.2740172743797302,-0.08623184263706207,0.4467182159423828,-0.37415605783462524,-0.1170109286904335,-0.04341819882392883,-0.033084966242313385,-0.05258610099554062,-0.06366442143917084,0.07172365486621857,0.05105125159025192,-0.16247954964637756,-0.14572158455848694,-0.13761357963085175,0.094756118953228,-0.02699340134859085,-0.1892169564962387,0.08368724584579468,-0.039525777101516724,-0.1052146703004837,0.10148321837186813,0.029016118496656418,0.2631685435771942,0.13139982521533966,0.08720257133245468,-0.2214394062757492,0.015606874600052834,0.05606544762849808,-0.06329673528671265,-0.3176155984401703,-0.6650623679161072,0.8353880643844604,0.2918013632297516,-0.5935656428337097,0.27780571579933167,-0.2894527316093445,0.07003913074731827,0.4693508744239807,-0.9576496481895447,1.0936331748962402,0.564184308052063,0.07632112503051758,-0.13811643421649933,0.030932536348700523,-0.6063715815544128,0.08705829828977585,-0.2925954759120941,0.22509358823299408,-0.31127282977104187,-0.07919896394014359,0.14910191297531128,0.2327975630760193,-0.022654125466942787,0.3155060112476349,-0.06994691491127014,0.08675839006900787,0.11532376706600189,-0.4177680015563965,-0.01550489105284214,-0.1183130070567131,-0.19448330998420715,0.18108710646629333,0.01941288635134697,-0.0683821439743042,0.2617873549461365,0.16653262078762054,-0.003658630419522524,0.041739653795957565,-0.14567831158638,-0.3432094156742096,0.13738428056240082,0.14373978972434998,-0.019799429923295975,0.18309958279132843,0.12430544942617416,0.05810185521841049,0.009206816554069519,-0.037589993327856064,-0.11164147406816483,-0.1900774985551834,-0.0010191117180511355,0.25941145420074463,-0.1251341551542282,-0.03548526391386986,-0.5345463156700134,-0.16682669520378113,0.11452481150627136,-0.05118304863572121,-0.0016335834516212344,0.3912995457649231,0.08280280232429504,-0.05990228429436684,0.4180431067943573,0.3738864064216614,-0.07257004082202911,0.3817359507083893,-0.1094517782330513,-0.1868772655725479,0.1150161623954773,-0.3090188205242157,0.3311639130115509,0.5304132103919983,-0.049314387142658234,-0.14074048399925232,-0.0759693905711174,-0.015325592830777168,0.10367920249700546,0.07467380166053772,-0.0545751228928566,0.3203383982181549,-0.17309720814228058,0.3470602035522461,-0.1736675202846527,0.17050054669380188,-0.14336317777633667,-0.10240016132593155,0.13538186252117157,0.21571950614452362,-0.17122302949428558,-0.1377367079257965,0.03195078670978546,-0.2272084504365921,-0.12564215064048767,0.35356244444847107,-0.10742911696434021,-0.12606877088546753,0.07755734026432037,-0.01844971999526024,0.007811743766069412,-0.005756724160164595,-0.02990717627108097,0.35667020082473755,-0.10324008762836456,-0.19800177216529846,-0.21975496411323547,0.1049519032239914,0.12155544757843018,0.07084266096353531,0.03381791338324547,0.12082429230213165,0.12707598507404327,0.0655832439661026,0.11365560442209244,-0.22798290848731995,0.03535765781998634,0.13336308300495148,0.08191053569316864,0.03341519087553024,-0.08442187309265137,-0.2784504294395447,0.19887645542621613,0.038387831300497055,-0.14346621930599213,0.08900104463100433,-0.11287999153137207,0.04814863204956055,0.08352479338645935,0.15804575383663177,0.30756691098213196,-0.3890078663825989,0.003583173966035247,0.2407098412513733,-0.12704557180404663,0.08156300336122513,-0.23821642994880676,-0.04005567729473114,0.13535302877426147,-0.12873435020446777,0.06588951498270035,-0.013403215445578098,0.16383351385593414,-0.04941096156835556,-0.10978217422962189,-0.2588120698928833,0.12133228778839111,-0.1313839852809906,0.19043685495853424,-0.05366431549191475,0.23953890800476074,-0.1870017647743225,0.03440322354435921,-0.14578667283058167,0.04972967132925987,-0.16853833198547363,0.18286669254302979,-0.3244783282279968,-0.23492594063282013,-0.08262230455875397,-0.1621655523777008,0.06691783666610718,-0.061162058264017105,-0.28565508127212524,0.16325852274894714,0.0877646803855896,0.16100823879241943,-0.22784078121185303,-0.08744596689939499,-0.12397091090679169,0.1494394987821579,0.22838114202022552,-0.20694604516029358,-0.06535954773426056,-0.09624303132295609,0.2160179615020752,0.018808869644999504,0.20982058346271515,-0.3026597201824188,-0.06905894726514816,-0.16140034794807434,0.04668278247117996,-0.24865704774856567,0.14772002398967743,0.10197392851114273,0.28338247537612915,0.01602473109960556,-0.21104460954666138,0.05095638334751129,-0.028345640748739243,-0.02857833169400692,-0.11236444115638733,-0.04659095034003258,0.03713163360953331,0.14020505547523499,0.048045046627521515,0.2834174335002899,-0.10388025641441345,0.20610208809375763,0.30530592799186707,0.0386698916554451,-0.18986628949642181,-0.1639845073223114,-0.24143828451633453,0.033682189881801605,-0.2392650693655014,-0.6328521966934204,0.1641915738582611,0.3693830072879791,-0.2510365843772888,-0.3346990942955017,0.11440718919038773,-0.05876591056585312,0.2572948932647705,0.2191905975341797,-0.20670533180236816,-0.2634159028530121,0.3635905086994171,-0.15149815380573273,-0.4723244309425354,-0.16105414927005768,0.18516677618026733,0.32391926646232605,0.21186472475528717,0.1768638789653778,-0.05376780405640602,-0.04620325192809105,-0.04355454817414284,-0.16951091587543488,-0.15201476216316223,0.14123207330703735,0.13583487272262573,-0.02725015953183174,0.3356388807296753,-0.00971798412501812,0.10851537436246872,-0.4298885762691498,-0.07329006493091583,0.03714153170585632,-0.1795789748430252,-0.1317213624715805,0.005444653797894716,0.1229933649301529,-0.25689658522605896,0.09472411870956421,-0.13314767181873322,-0.12856534123420715,0.125177264213562,-0.38520726561546326,0.05982888489961624,0.23596161603927612,0.14749588072299957,0.22926661372184753,0.06937573850154877,0.12927614152431488,-0.09764492511749268,-0.15631230175495148,-0.12255341559648514,-0.1713211089372635,-0.09809073805809021,-0.28502634167671204,-0.030333369970321655,-0.17255206406116486,-0.12029319256544113,-0.35187333822250366,0.11925207078456879,0.0498187318444252,0.06204472482204437,0.36619678139686584,-0.03666774928569794,0.35915687680244446,0.023648004978895187,0.22237630188465118,0.1654813587665558,-0.006489541381597519,0.05881676822900772,0.008705278858542442,0.014957335777580738,0.106827512383461,0.1761661320924759,0.0877060815691948,-0.24020561575889587,-0.15061716735363007,-0.009143245406448841,0.11534831672906876,-0.03577986732125282,0.08241797238588333,-0.07320281863212585,0.20409418642520905,0.09005589783191681,-0.06804608553647995,-0.05334612727165222,-0.16036246716976166,-0.03606375679373741,0.15027514100074768,0.0008467110455967486,-0.0008012683829292655,0.10740350186824799,-0.08774403482675552,0.0245817881077528,0.22352007031440735,0.3292596936225891,-0.22973692417144775,-0.007494939956814051,0.1896081417798996,-0.13793909549713135,0.06609875708818436,0.12583895027637482,-0.011529848910868168,0.09683623909950256,0.3065962791442871,-0.18376241624355316,0.015423323959112167,0.09093829244375229,-0.009258472360670567,-0.17810019850730896,-0.07311451435089111,0.06416523456573486,0.07845844328403473,-0.03205832839012146,0.09638232737779617,0.25095701217651367,-0.14692120254039764,-0.3911505937576294,-0.31647488474845886,-0.08790163695812225,-0.1486186981201172,0.17484718561172485,-0.023520642891526222,0.09051952511072159,-0.23316249251365662,-0.272449254989624,-0.03367139399051666,-0.06040738895535469,0.06336695700883865,-0.15660332143306732,-0.06331967562437057,0.015489339828491211,0.13044384121894836,-0.06557069718837738,0.216533824801445,-0.09327667206525803,0.192478746175766,0.09757103770971298,-0.08434497565031052,0.06799573451280594,-0.1976449191570282,-0.10296560823917389,0.26711633801460266,-0.10981708765029907,-0.26277828216552734,-0.014282247982919216,-0.1542198210954666,-0.21224483847618103,-0.27690553665161133,-0.21842388808727264,0.16068439185619354,-0.034495625644922256,-0.09901755303144455,-0.13572023808956146,0.007802130188792944,-0.026483524590730667,-0.05380641669034958,-0.010841310024261475,-0.10281355679035187,0.08830180019140244,0.08995618671178818,-0.005902610253542662,-0.14790895581245422,0.08619864284992218,0.3888542056083679,-0.3403922915458679,-0.9127405285835266,0.15942402184009552,0.010703067295253277,-0.19364812970161438,0.03560957312583923,0.25021684169769287,-0.008214599452912807,0.023487353697419167,-0.05233394727110863,0.0015182120259851217,0.1423582136631012,0.24720485508441925,-0.01271846704185009,-0.07185707986354828,-0.18993790447711945,0.022234132513403893,0.19352832436561584,0.11909293383359909,-0.22987283766269684,-0.08316492289304733,0.0684676244854927,-0.10821729153394699,0.1342877596616745,0.11353157460689545,0.006966196466237307,0.09496886283159256,-0.14620071649551392,0.06068911775946617,-0.2095455676317215,-0.23397321999073029,0.024356285110116005,0.06999384611845016,0.29470348358154297,-0.21089763939380646,-0.17166392505168915,-0.15125781297683716,0.41004234552383423,-0.05275973305106163,0.08557093143463135,0.023438727483153343,0.08223481476306915,-0.02491159178316593,-0.04639175906777382,0.1777491569519043,0.08467669785022736,-0.29799872636795044,-0.1364603340625763,-0.27894073724746704,0.2644221782684326,-0.021717458963394165,-0.09952576458454132,-0.3271985948085785,-0.0948210284113884,0.26053154468536377,-0.36425402760505676,0.2124582678079605,-0.04714025929570198,-0.2203611135482788,-0.18024982511997223,0.04283025488257408,0.11366785317659378,0.04109756276011467,0.22638973593711853,0.08274301141500473,0.07321993261575699,0.00769602507352829,0.001084397779777646,0.09102866798639297,0.012910526245832443,-0.10591618716716766,0.014380826614797115,0.039500683546066284,-0.18047171831130981,0.020135898143053055,0.012690400704741478,-0.23956957459449768,-0.17081785202026367,-0.20797008275985718,0.03415290638804436,0.2877080738544464,0.10739205777645111,0.07977812737226486,-0.13981610536575317,0.10849864780902863,0.6059449911117554,0.12943977117538452,-0.12898391485214233,-0.27945369482040405,-0.038914307951927185,0.04707247391343117,0.09558918327093124,0.20195263624191284,0.3008534610271454,-0.027232645079493523,0.12361816316843033,0.03614131361246109,-0.24076858162879944,-0.06165789067745209,-0.07000508904457092,-0.07590336352586746,0.2179723083972931,-0.07978832721710205,-0.10926783084869385,-0.053705696016550064,0.03699149191379547,-0.20825152099132538,-0.1287289708852768,0.08139262348413467,-0.027345381677150726,0.10531270503997803,-0.044807951897382736,-0.0817531868815422,0.19954492151737213,0.093284010887146,-0.000253377016633749,0.028915727511048317,0.12787184119224548,-0.055467117577791214,0.23367299139499664,-0.07461518049240112,-0.141464501619339,0.04868288338184357,-0.07143806666135788,-0.08608204871416092,-0.3065952658653259,0.1679384559392929,0.2887873649597168,-0.07087066024541855,-0.022250769659876823,0.03845195099711418,0.18259243667125702,0.008055729791522026,-0.20326730608940125,-0.01741182804107666,0.04999940097332001,-0.132221058011055,0.025958431884646416,-0.034196943044662476,-0.07521481812000275,0.1941237449645996,0.0565313845872879,-0.26323696970939636,-0.03304724767804146,-0.032431408762931824,0.3396206796169281,0.1766505390405655,-0.010795153677463531,-0.3144078254699707,-0.07020466774702072,-0.028474517166614532,0.015699900686740875,0.1230914294719696,-0.04453018680214882,-0.04775769263505936,-0.0687524601817131,-0.17132654786109924,0.05775569751858711,-0.130219966173172,-0.12171196937561035,-0.055091742426157,0.08226599544286728,0.10157840698957443,-0.14938326179981232,0.11125355958938599,0.178959921002388,0.08108002692461014,0.05399509146809578,0.024362139403820038,-0.17136016488075256,0.07589156180620193,-0.18890544772148132,-0.07002588361501694,-0.22482313215732574,-0.1605626940727234,0.15773989260196686,0.024852639064192772,0.1378418505191803,0.019586719572544098,0.05481605604290962,-0.21604320406913757,-0.20569656789302826,0.020027652382850647,0.04198579490184784,-0.19850170612335205,0.017067139968276024,0.06977973878383636,-0.21609148383140564,0.06358648836612701,-0.125083327293396,-0.31082308292388916,-0.13456015288829803,-0.2282516360282898,0.18430444598197937,0.03890754655003548,-0.2247464954853058,-0.3437577188014984,-0.0425213985145092,0.19400225579738617,-0.12784135341644287,0.12322797626256943,0.11536166071891785,-0.18403425812721252,-0.09766761213541031,0.06301096826791763,0.19688738882541656,0.11054971814155579,0.02179943025112152,0.11650537699460983,-0.06630893051624298,0.1607564091682434,0.060373637825250626,-0.054810136556625366,0.21684537827968597,-0.08802900463342667,-0.20541070401668549,-0.025512022897601128,-0.030218400061130524,-0.10201927274465561,-0.1549980491399765,-0.06728870421648026,0.022972574457526207,-0.15520533919334412,0.01850641332566738,-0.13541901111602783,-0.1484338641166687,-0.416643887758255,-0.04059651494026184,-0.28479108214378357,-0.11619997769594193,-0.0902729332447052,0.2196526676416397,0.0028158645145595074,-0.1285964995622635,-0.02584538608789444,0.10605885833501816,-0.17138522863388062,0.004207211546599865,0.11969702690839767,0.047420669347047806,-0.1809026300907135,-0.0701727643609047,-0.06827171891927719,0.11567646265029907,0.14665192365646362,-0.32635030150413513,0.13742731511592865,-0.22801652550697327,-0.295292466878891,0.22191770374774933,0.08560448884963989,0.275844007730484,0.047684237360954285,-0.1647399365901947,-0.07841058075428009,-0.05710923299193382,-0.11896610260009766,0.019331417977809906,-0.10571139305830002,0.29258397221565247,-0.1995648741722107,-0.3063742518424988,0.19507940113544464,-0.2139234095811844,0.23917557299137115,0.04070407152175903,-0.11725880205631256,0.25094419717788696,-0.07748008519411087,-0.040439706295728683,-0.10546252876520157,-0.32261520624160767,0.06942933797836304,-0.24508577585220337,0.14652438461780548,-0.008860324509441853,0.20949341356754303,-0.019018538296222687,-0.0763750895857811,0.06379522383213043,0.1533186137676239,-0.09386736899614334,-0.07268679887056351,0.19974668323993683,-0.20635518431663513,-0.11007474362850189,0.12815427780151367,0.05874663591384888,0.24693559110164642,-0.22376026213169098,-0.10872223228216171,-0.1161288172006607,0.0995996966958046,0.1732674390077591,-0.49239581823349,0.0492105670273304,-0.15665435791015625,-0.22432313859462738,0.1838645488023758,0.04372135549783707,-0.11470586061477661,-0.18693792819976807,-0.007928803563117981,0.21759195625782013,0.21320198476314545,0.21286194026470184,0.03390299528837204,-0.17060692608356476,-0.1157621294260025,-0.22911764681339264,-0.09188118577003479,0.2144920825958252,-0.07470083236694336,0.034193288534879684,-0.24381127953529358,-0.17990659177303314,0.24241706728935242,-0.13708199560642242,-0.02043314464390278,0.052343275398015976,-0.04279346764087677,0.028947733342647552,-0.1331923007965088,0.02519095130264759,-0.05739139765501022,-0.04358300566673279,0.100032277405262,0.020251408219337463,-0.15643593668937683,0.1366783231496811,0.1516018658876419,-0.24087759852409363,0.23949064314365387,0.06973060965538025,-0.10889550298452377,-0.12251048535108566,-0.2377552092075348,0.10309980809688568,0.1086161807179451,-0.18036773800849915,0.18852874636650085,-0.059302475303411484,0.2774142324924469,0.03452380374073982,0.18925178050994873,0.16592687368392944,-0.2671946883201599,-0.1084025576710701,-0.11330215632915497,0.3549175560474396,-0.030908683314919472,0.08727817237377167,0.03280951455235481,0.09371820837259293,-0.057997073978185654,-0.05336004123091698,0.14358511567115784,0.0924535021185875,-0.007187399547547102,0.3072775900363922,-0.023460159078240395,0.1359463334083557,0.1655886322259903,0.008718971163034439,0.20286151766777039,-0.05819479003548622,0.040947623550891876,-0.005156353581696749,-0.24206262826919556,-0.07073219120502472,-0.11086369305849075,-0.0236502792686224,-0.01585741527378559,-0.06428181380033493,0.042010508477687836,0.038771841675043106,0.07632014900445938,-0.18265827000141144,-0.01764792762696743,-0.10366564244031906,-0.01550769992172718,0.045965392142534256,-0.2018054872751236,-0.25355374813079834,-0.1825897991657257,-0.13061334192752838,0.18182037770748138,-0.1335512399673462,-0.18873298168182373,-0.26756373047828674,0.02963116392493248,-0.35187670588493347,0.17730830609798431,0.13749079406261444,-0.2781575620174408,0.06715185940265656,-0.01954340562224388,0.1992044895887375,0.07809238880872726,-0.027514643967151642,0.15357080101966858,0.18185009062290192,-0.0017975582741200924,0.03377682715654373,-0.1271541267633438,0.026655999943614006,0.09406333416700363,0.3090215027332306,0.04734818637371063,-0.20655612647533417,0.022200334817171097,-0.08873309195041656,-0.02450649067759514,0.06791841983795166,0.07516884058713913,0.16264908015727997,0.047700658440589905,-0.01827208139002323,-0.20837712287902832,0.130578875541687,0.04124626889824867,0.49487194418907166,-0.08183520287275314,0.02805451676249504,-0.15152044594287872,0.16188649833202362,-0.026869267225265503,-0.2622811198234558,0.10852672904729843,0.2178504317998886,-0.04258374497294426,-0.36015620827674866,-0.2618296444416046,-0.5236856341362,0.09889280050992966,-0.07330228388309479,0.26220399141311646,-0.14685887098312378,-0.220675989985466,-0.28932633996009827,-0.014683094806969166,0.084596648812294,-0.12790606915950775,-0.17101937532424927,-0.12348689883947372,0.18423950672149658,-0.049544982612133026,0.04147392883896828,-0.0753626823425293,-0.05215160548686981,0.04428957402706146,-0.0034421193413436413,0.028161199763417244,0.039191391319036484,0.2835306227207184,-0.1505613625049591,0.060764580965042114,0.22686035931110382,-0.037423886358737946,-0.07892417907714844,0.008350267075002193,0.16298680007457733,-0.1769210547208786,-0.2517096698284149,0.07414049655199051,-0.09503722935914993,-0.016897477209568024,-0.044473011046648026,0.21113458275794983,0.03846679627895355,-0.24811843037605286,0.008507619611918926,0.09079781174659729,-0.2454797774553299,0.15816520154476166,0.26499563455581665,0.05779094249010086,-0.117350734770298,0.25547245144844055,0.04342450574040413,-0.10442714393138885,-0.28150489926338196,-0.01645350456237793,0.31972554326057434,-0.03869054466485977,0.060514017939567566,-0.2563880383968353,0.014093929901719093,-0.24444811046123505,-0.16605345904827118,0.00950118713080883,0.18223869800567627,-0.048472240567207336,-0.07038259506225586,0.043936554342508316,0.14494790136814117,0.029258636757731438,-0.10958761721849442,-0.10162071138620377,-0.04617141932249069,-0.054439954459667206,-0.011754757724702358,-0.06282100081443787,-0.15565893054008484,0.037858281284570694,-0.03494589030742645,0.12757986783981323,-0.011274781078100204,-0.040822193026542664,0.07730869203805923,-0.15628211200237274,-0.3012588322162628,-0.01843249425292015,0.12561574578285217,-0.02816915325820446,-0.1155756339430809,0.2045038640499115,0.2621171772480011,-0.371766597032547,0.3293103277683258,-0.03356614708900452,-0.28943729400634766,0.09092697501182556,-0.09789885580539703,-0.033182352781295776,0.07354889065027237,0.11968658864498138,-0.166556254029274,-0.011248928494751453,0.1924908310174942,0.19129827618598938,0.2073068767786026,0.11718129366636276,0.20130740106105804,0.21313481032848358,0.369407057762146,-0.2880985736846924,0.004548237193375826,0.14217832684516907,0.19278652966022491,0.10214364528656006,-0.04986794665455818,0.10567773133516312,0.045215316116809845,0.03319608047604561,-0.10663242638111115,0.0035320331808179617,0.16883867979049683,-0.28238317370414734,-0.13112644851207733,0.09083733707666397,0.09642042219638824,0.18196633458137512,-0.037968192249536514,0.03970719501376152,0.023563534021377563,-0.2020256221294403,0.055463261902332306,0.07002708315849304,-0.07776977866888046,-0.11357199400663376,0.02027530036866665,0.557283878326416,0.2034391164779663,-0.04659455642104149,0.1464744657278061,-0.12081869691610336,-0.1681988537311554,0.3245287239551544,0.010708165355026722,-0.2961285710334778,0.22695189714431763,-0.0658339411020279,0.025666257366538048,0.27543482184410095,-0.07167020440101624,-0.2991836667060852,-0.07518161833286285,-0.169551819562912,0.015617030672729015,-0.32513687014579773,-0.09044917672872543,-0.15262576937675476,0.29629501700401306,-0.20148998498916626,-0.2374081015586853,0.2818312644958496,0.04476103559136391,0.15926863253116608,-0.0048853615298867226,-0.04886862635612488,0.035094499588012695,0.30297693610191345,-0.14728879928588867,-0.02286115661263466,-0.0718013122677803,0.027591582387685776,0.1959257572889328,0.13856694102287292,-0.23764896392822266,-0.22870992124080658,-0.06898228079080582,-0.13231316208839417,-0.2948566675186157,-0.07532539963722229,0.13034683465957642,-0.11826710402965546,-0.02641107700765133,-0.07099228352308273,-0.008493228815495968,-0.09886398911476135,-0.15796326100826263,-0.12073741108179092,0.14253240823745728,-0.029635975137352943,0.006930631119757891,0.1519988775253296,-0.12579184770584106,0.0716416984796524,0.017168685793876648,-0.08905163407325745,-0.11245561391115189,0.14703261852264404,-0.08545205742120743,-0.3891600966453552,-0.12044917792081833,-0.052398428320884705,0.011597121134400368,-0.08413185179233551,0.008982929401099682,0.3591247797012329,-0.08977284282445908,-0.09723933786153793,0.15548960864543915,0.10814724117517471,-0.01720668189227581,-0.008502339012920856,-0.019981585443019867,0.12212751805782318,0.3788186311721802,0.13659848272800446,-0.28400346636772156,-0.139497771859169,0.07246458530426025,-0.30705323815345764,-0.33339032530784607,-0.15880483388900757,0.25779908895492554,0.33934998512268066,0.07212276011705399,0.009437737986445427,0.42629799246788025,-0.18950605392456055,-0.23242120444774628,-0.11089549213647842,-0.11933718621730804,-0.02740989439189434,-0.1713373363018036,0.1112319752573967,0.2593477964401245,-0.015826398506760597,0.2512214183807373,-0.13687577843666077,-0.3770391643047333,0.16635143756866455,0.0667923092842102,-0.22814832627773285,0.2372153103351593,-0.0509355254471302,0.09315326064825058,-0.09280465543270111,-0.10202806442975998,-0.2866513431072235,-0.07650554925203323,-0.12070945650339127,0.303530216217041,0.024630172178149223,-0.1659247875213623,-0.00460316427052021,0.2677272856235504,0.0013845489593222737,-0.12831737101078033,0.10212848335504532,-0.15723790228366852,0.2309592068195343,0.14385543763637543,0.041702788323163986,-0.1455364227294922,-0.005761588457971811,-0.14594365656375885,0.1400892287492752,0.13857918977737427,0.03797832131385803,-0.15218965709209442,0.3173033893108368,0.12362968176603317,0.02287636511027813,-0.052336663007736206,0.1618865430355072,0.07888845354318619,-0.010895930230617523,0.16387996077537537,0.6357206106185913,0.5719641447067261,0.9041571617126465,-0.5168105363845825,-0.5124346613883972,0.07598429918289185,-0.05626046285033226,-0.17208760976791382,0.44246771931648254,0.3557731509208679,-0.9141294360160828,0.24801312386989594,-0.06669290363788605,-0.5832905769348145,-0.39027610421180725,-0.0939549133181572,-0.12089752405881882,-0.17270216345787048,0.1511751115322113,-0.141709566116333,-0.07916616648435593,0.13743242621421814,-0.11695171147584915,-0.1595441848039627,-0.18499821424484253,0.003959531430155039,-0.3976186215877533,0.02981908991932869,0.18616561591625214,-0.10055776685476303,0.20739229023456573,-0.03924250602722168,-0.07580459117889404,-0.34156855940818787,0.04847021773457527,-0.23121365904808044,-0.053623683750629425,-0.06429198384284973,0.09144412726163864,-0.07856626808643341,-0.24264341592788696,0.04052664712071419,-0.21976493299007416,0.16133402287960052,-0.03996729850769043,0.08999297767877579,-0.013734993524849415,0.10647764056921005,-0.12486047297716141,0.12089163810014725,-0.21365772187709808,0.21534067392349243,0.021087290719151497,-0.24203802645206451,-0.0201124120503664,0.022666020318865776,0.1388525366783142,-0.04627249762415886,0.14494703710079193,-0.21216970682144165,0.09935472905635834,0.1275748610496521,-0.09275291115045547,0.2859201729297638,-0.22533918917179108,-0.060788847506046295,-0.087673619389534,0.07866545021533966,0.25632792711257935,0.3001847267150879,0.1148405373096466,0.02802075445652008,-0.12261287122964859,-0.12968133389949799,0.21346502006053925,-0.2937910258769989,0.12083518505096436,0.04163161292672157,0.08290785551071167,-0.2495293915271759,0.11102691292762756,0.04448751360177994,-0.041013214737176895,0.22039465606212616,0.09472783654928207,-0.23015618324279785,-0.04661722853779793,-0.20733097195625305,0.21266835927963257,0.07218072563409805,0.024188002571463585,0.008579147048294544,-0.2092735469341278,-0.10828004777431488,-0.23905891180038452,-0.15068607032299042,-0.31359195709228516,0.1066136509180069,0.29385247826576233,0.05549577623605728,-0.15953238308429718,-0.02383085899055004,-0.08283483982086182,0.15512943267822266,0.12581945955753326,0.04152115806937218,-0.03788914158940315,0.22901205718517303,-0.05457094684243202,0.20833183825016022,-0.21752947568893433,0.1813182234764099,-0.11822447925806046,0.016308000311255455,-0.1583128124475479,-0.0069374521262943745,-0.026799973100423813,-0.11813052743673325,0.43260401487350464,0.1444835215806961,-0.350736141204834,-0.054715678095817566,0.13613247871398926,0.023514073342084885,0.06042032688856125,0.06706275045871735,0.12398073077201843,-0.25999701023101807,-0.18544219434261322,0.23177723586559296,-0.060410067439079285,-0.022537562996149063,0.2405211627483368,-0.06474900245666504,-0.3363582491874695,0.1438569873571396,-0.060093484818935394,0.02435871958732605,-0.10231098532676697,0.13941693305969238,-0.10343422740697861,0.05061349645256996,0.07857467234134674,-0.15921199321746826,-0.2325276881456375,0.21149387955665588,0.0014343938091769814,-0.14394442737102509,0.2524910271167755,0.0216200053691864,0.041079677641391754,-0.09204305708408356,-0.10176554322242737,-0.06351617723703384,-0.10777237266302109,-0.008472103625535965,0.24101389944553375,0.16371388733386993,0.09052720665931702,0.10184038430452347,0.12671776115894318,0.2384880781173706,-0.003511870512738824,-0.07332758605480194,-0.06353294104337692,0.045618534088134766,-0.2701457142829895,0.010315455496311188,-0.42564883828163147,-0.12642817199230194,0.14567185938358307,-0.06077846884727478,0.18906815350055695,-0.11842884123325348,0.11778133362531662,0.015806302428245544,-0.15847499668598175,0.08602463454008102,-0.3312283754348755,-0.07648896425962448,-0.15789265930652618,0.036134134978055954,0.12570156157016754,-0.10325118899345398,0.26245787739753723,0.082744300365448,-0.20526236295700073,-0.08985281735658646,-0.15793606638908386,0.005624081008136272,-0.008383182808756828,-0.06207379326224327,0.42684054374694824,0.5123816132545471,-0.20020891726016998,0.021627647802233696,-0.44729870557785034,-0.1334838569164276,0.07701394706964493,0.21043789386749268,-0.0562528632581234,0.0979711264371872,-0.061381079256534576,0.4656699299812317,0.15265429019927979,0.10534615814685822,0.136953204870224,-0.17715321481227875,0.10883811116218567,0.2710587680339813,0.08575154840946198,0.049990519881248474,-0.10690926760435104,0.10300114750862122,0.056437164545059204,0.01948034018278122,0.28831496834754944,0.10757113248109818,-0.21929287910461426,-0.12442775070667267,-0.09919151663780212,0.0546087808907032,0.023561079055070877,-0.00603065500035882,-0.27338820695877075,0.1155315414071083,0.07194118201732635,0.14375542104244232,0.1649991273880005,0.13797366619110107,0.1352393478155136,-0.10069681704044342,0.13913200795650482,0.29625535011291504,0.12106335908174515,-0.3112007975578308,-0.2502152919769287,-0.2982461750507355,-0.11136695742607117,-0.02449788898229599,0.2980985641479492,-0.0338955819606781,0.009603632614016533,0.024915194138884544,-0.14709196984767914,-0.0994608923792839,0.22380490601062775,0.15881097316741943,-0.26265305280685425,-0.04527415707707405,-0.16031381487846375,0.09087885171175003,0.1166234239935875,0.027524620294570923,-0.05375315621495247,0.0856708362698555,0.07069337368011475,0.13883645832538605,-0.16035372018814087,0.0165129192173481,-0.3258947730064392,-0.11995024234056473,-0.043403975665569305,-0.06502056121826172,-0.18882746994495392,0.008174418471753597,0.0004734303802251816,-0.06874851137399673,0.1524503231048584,-0.09835120290517807,0.20906922221183777,-0.02253265120089054,-0.10273955017328262,0.17787054181098938,0.0641564205288887,-0.015439559705555439,0.0010256905807182193,-0.08593586087226868,0.2655063271522522,0.18071667850017548,-0.09114587306976318,0.2185552567243576,0.1119249165058136,0.0974024310708046,-0.08225442469120026,-0.09109137952327728,-0.13267038762569427,0.0368923619389534,-0.10558054596185684,-0.27247095108032227,0.20424985885620117,-0.003992988262325525,0.22835776209831238,-0.3016457259654999,0.22244222462177277,0.06522585451602936,-0.4866434335708618,0.12355277687311172,-0.037578195333480835,-0.07181945443153381,0.07478160411119461,0.08952052891254425,-0.24731501936912537,0.014391076751053333,-0.07452784478664398,0.16910691559314728,-0.017116950824856758,-0.08830555528402328,-0.030353214591741562,0.10137432813644409,0.12719912827014923,0.24861003458499908,0.06351906806230545,0.06878417730331421,0.04507983475923538,0.09965892136096954,-0.0541476346552372,-0.033699482679367065,0.21722672879695892,0.2879050374031067,-0.26008141040802,-0.08908562362194061,-0.08198046684265137,-0.11645939946174622,0.03582203388214111,-0.0060766167007386684,0.08817455917596817,0.1420104056596756,-0.01448314730077982,-0.1300446093082428,0.09785717725753784,-0.0221649631857872,-0.2721622586250305,-0.11463645845651627,-0.11699161678552628,0.10672911256551743,-0.10732248425483704,-0.07792108505964279,-0.03885713219642639,0.2611401081085205,0.0957132950425148,0.09325584024190903,-0.21080809831619263,0.055898286402225494,-0.22615788877010345,-0.0041561489924788475,0.4680565297603607,-0.09644825011491776,0.1875990331172943,-0.09575498849153519,0.1678423136472702,-0.006441815290600061,-0.2662133276462555,0.10134179890155792,-0.027998575940728188,0.3029620945453644,0.03594783693552017,0.11014262586832047,-0.026377243921160698,-0.20399390161037445,-0.1276770979166031,-0.07877302169799805,0.07643094658851624,-0.028334055095911026,0.10658076405525208,-0.10884281992912292,0.10485716164112091,-0.02624981477856636,-0.13373486697673798,-0.24250465631484985,-0.0832369476556778,0.2680245637893677,0.061057280749082565,-0.18413516879081726,-0.1975470781326294,0.009596890769898891,-0.17550745606422424,-0.29244086146354675,0.16732296347618103,0.009206418879330158,0.013936249539256096,-0.22346612811088562,-0.024379592388868332,0.09064274281263351,-0.05004781484603882,-0.2571210563182831,0.18497781455516815,0.023127466440200806,0.15247099101543427,0.39580437541007996,-0.13939924538135529,-0.16864298284053802,0.016368906944990158,-0.26356789469718933,-0.11314333975315094,-0.02498830109834671,-0.12777885794639587,-0.1253920942544937,-0.0707717016339302,0.1529013067483902,0.15242742002010345,-0.014455152675509453,-0.1148037537932396,-0.25246909260749817,-0.18069054186344147,-0.2650294601917267,-0.021465368568897247,-0.24915988743305206,-0.04279539734125137,-0.3325002193450928,-0.0028989186976104975,0.08610061556100845,-0.1967170387506485,0.0984949991106987,0.0920330211520195,0.20267169177532196,0.3392803966999054,0.1846044808626175,-0.08140356093645096,-0.005529674235731363,-0.02559947408735752,-0.12373708933591843,-0.09958299249410629,0.07961822301149368,0.0019174589542672038,0.11234813928604126,-0.06492648273706436,-0.02278379537165165,0.26032376289367676,0.19593995809555054,-0.3772256374359131,-0.2998720109462738,0.16848456859588623,-0.0663561150431633,-0.08425292372703552,-0.020246058702468872,-0.0035311169922351837,0.2665078938007355,0.091315358877182,0.1503387838602066,0.17226730287075043,-0.1774732917547226,-0.24406744539737701,0.2088616043329239,0.016896585002541542,-0.039733223617076874,-0.34566885232925415,-0.10335803776979446,-0.009136684238910675,-0.12189634144306183,0.03155510872602463,-0.13831354677677155,0.28739702701568604,0.056982047855854034,0.08122262358665466,0.08527139574289322,0.013481676578521729,0.09385659545660019,0.2922956049442291,-0.1822626292705536,-0.0846540555357933,0.17863829433918,0.1266864836215973,0.14082348346710205,0.2343466728925705,-0.07939346134662628,-0.0972481295466423,-0.11200916767120361,0.07109500467777252,0.037324730306863785,-0.06750080734491348,-0.15389606356620789,-0.006084617227315903,-0.04502624645829201,0.0437578521668911,-0.15097634494304657,0.26306262612342834,0.2829652428627014,0.062177881598472595,-0.1159660816192627,-0.0791541114449501,-0.026080306619405746,0.20841889083385468,0.001377159496769309,0.13702742755413055,-0.09966925531625748,0.1323777735233307,0.0581413097679615,0.028017017990350723,0.028967928141355515,0.2836415469646454,0.052775051444768906,0.1070234552025795,0.08799795806407928,0.13348759710788727,0.15131813287734985,-0.08249261975288391,-0.0012358742533251643,0.01155767496675253,0.018495334312319756,-0.18489977717399597,0.00025605614064261317,0.15354406833648682,-0.20272836089134216,0.07357046753168106,-0.038812849670648575,0.15294742584228516,0.002087209839373827,0.1433778703212738,-0.023626739159226418,-0.01959366165101528,0.0676235631108284,-0.23350439965724945,-0.05388546362519264,-0.09276046603918076,-0.06793085485696793,-0.09628306329250336,0.016141608357429504,0.040454719215631485,0.11085899919271469,0.04079345613718033,-0.16726510226726532,-0.05531901493668556,0.01785076968371868,-0.19420284032821655,-0.19026848673820496,-0.05256400629878044,0.22671087086200714,-0.12669801712036133,0.21345388889312744,0.30266866087913513,0.007214801851660013,0.09012699872255325,-0.1561613529920578,-0.02772221714258194,-0.08937987685203552,-0.6253321766853333,0.16056464612483978,0.24354484677314758,-0.08968104422092438,0.16207540035247803,-0.04230748862028122,0.3405391275882721,-0.1488879770040512,-0.1973286122083664,0.24791637063026428,0.13239216804504395,0.07117869704961777,-0.30286961793899536,0.10113173723220825,-0.062003254890441895,-0.2355327159166336,-0.0036093895323574543,-0.09952674061059952,-0.15010187029838562,0.07707251608371735,0.24508027732372284,-0.1461380422115326,0.10498343408107758,0.0026600612327456474,-0.18169957399368286,-0.37183624505996704,0.12285241484642029,-0.030464092269539833,0.1441507488489151,-0.17800010740756989,-0.09993495792150497,-0.018437650054693222,-0.01582440920174122,-0.13572068512439728,0.08656597882509232,0.31585994362831116,-0.23608383536338806,-0.20493242144584656,0.05837486311793327,0.014390244148671627,-0.00355329061858356,-0.10938675701618195,-0.13932716846466064,-0.003737852443009615,-0.03452419862151146,0.05931136757135391,-0.14682352542877197,-0.13376815617084503,0.07688411325216293,-0.25440117716789246,-0.13674329221248627,0.22777262330055237,0.15062206983566284,0.1541484147310257,-0.05587378144264221,0.05298599600791931,0.17847992479801178,-0.014241350814700127,-0.040970273315906525,0.16016589105129242,0.11071943491697311,-0.267179012298584,0.03439465910196304,0.023161550983786583,-0.19548560678958893,0.0008210489177145064,0.1290091872215271,0.020711803808808327,0.09947340190410614,0.11025509238243103,-0.1481943130493164,0.011546021327376366,0.09119784086942673,0.08203700929880142,-0.02860007807612419,-0.18970736861228943,-0.20457758009433746,-0.07439956068992615,0.04971149191260338,-0.03291497007012367,0.15456129610538483,0.2705141603946686,-0.004311866592615843,-0.07068216800689697,0.07134980708360672,0.12276449054479599,-0.0008084640139713883,-0.09763820469379425,-0.026707936078310013,-0.05425624921917915,0.31183409690856934,0.10049282014369965,0.12436044216156006,-0.16816815733909607,0.12019415944814682,0.046295057982206345,0.10158276557922363,0.22731167078018188,0.051503926515579224,-0.030709918588399887,-0.009215347468852997,-0.05428464710712433,0.053218092769384384,-0.10170888155698776,-0.15229767560958862,0.03231433779001236,0.0058145057410001755,0.022257793694734573,-0.08259577304124832,0.19323290884494781,-0.08452225476503372,-0.2583068013191223,0.0007828773814253509,0.0035757566802203655,-0.0893339291214943,-0.0902780219912529,0.045858461409807205,-0.19840578734874725,0.00934547372162342,0.14673402905464172,-0.014111812226474285,-0.25494736433029175,-0.08004618436098099,0.17737799882888794,0.06239929422736168,0.04508155211806297,0.07020867615938187,0.15994217991828918,0.050227656960487366,-0.16052654385566711,0.02161703072488308,0.07952773571014404,-0.3259042501449585,-0.1592286229133606,-0.15029674768447876,0.24220997095108032,0.22962947189807892,-0.2767336666584015,0.13586315512657166,-0.03810277208685875,-0.12231950461864471,0.18338914215564728,-0.23700478672981262,-0.058224741369485855,0.33056581020355225,-0.36993521451950073,-0.49625107645988464,0.15428157150745392,0.16347603499889374,-0.09162237495183945,-0.07682720571756363,0.015706868842244148,0.07047102600336075,-0.27427852153778076,-0.2553560435771942,-0.465443879365921,0.09044976532459259,0.22192084789276123,0.041593752801418304,-0.03571636602282524,0.14479590952396393,-0.1100032776594162,0.09370242059230804,0.1621987521648407,-0.37568479776382446,0.2803307771682739,-0.20962069928646088,0.1034051701426506,0.24593287706375122,-0.3210441768169403,0.09560659527778625,-0.29275432229042053,0.1430383026599884,0.27215415239334106,-0.031603775918483734,-0.21372614800930023,-0.11404267698526382,0.21118439733982086,-0.5079463124275208,-0.16688647866249084,-0.2430596947669983,-0.00482366606593132,-0.2618114650249481,0.09965355694293976,-0.17846912145614624,-0.15975570678710938,-0.3935302495956421,0.06525369733572006,0.07305137813091278,-0.17847175896167755,-0.008645644411444664,0.04796066880226135,-0.12747132778167725,0.20318125188350677,0.24936360120773315,-0.0031300517730414867,-0.1041288822889328,-0.27993109822273254,-0.14882825314998627,0.1540071815252304,-0.1465914398431778,0.11436006426811218,-0.035895563662052155,0.03880282863974571,-0.07469473779201508,-0.13689090311527252,-0.20649652183055878,-0.014345858246088028,-0.024692511186003685,0.050951600074768066,-0.2137877196073532,-0.15194858610630035,0.08828463405370712,-0.1238798275589943,-0.025365930050611496,0.10522054135799408,-0.16795603930950165,0.11714189499616623,0.025551166385412216,0.12914294004440308,0.15215550363063812,-0.04339206591248512,-0.1590539515018463,0.008067796938121319,0.03702552244067192,0.061842188239097595,0.11767569929361343,0.05492011457681656,-0.005143862217664719,0.14125189185142517,0.16966032981872559,0.007222303189337254,-0.22002553939819336,0.0038081384263932705,0.6731013059616089,-0.035372935235500336,0.03301490470767021,0.2374926507472992,-0.10446251928806305,0.04389382153749466,-1.0050572156906128,0.04864119738340378,0.1605643779039383,0.3077244162559509,-0.02393016591668129,0.043391115963459015,0.12012843042612076,0.026057273149490356,0.14841784536838531,0.04632434621453285,-0.0637243464589119,0.00009092808613786474,-0.3081218898296356,0.006542564835399389,-0.11837884038686752,-0.7484220266342163,0.34268635511398315,0.0202447809278965,0.6494563817977905,0.06023488938808441,0.09454270452260971,0.020704731345176697,0.0329403392970562,-0.1351848989725113,-0.11118876188993454,-0.15825346112251282,0.18860310316085815,0.06848876923322678,0.14997243881225586,-0.04630948603153229,-0.10046938806772232,0.004189847968518734,-0.1268109530210495,-0.11078175157308578,0.1513759046792984,0.032244645059108734,-0.10170739889144897,-0.06115012243390083,0.11348468065261841,0.11558503657579422,0.013625282794237137,-0.18605388700962067,-0.031550757586956024,0.13908348977565765,0.039217785000801086,-0.09414546191692352,0.1367204189300537,0.04226798191666603,-0.0758044496178627,0.029288629069924355,-0.03241018205881119,-0.0826425552368164,-0.07818238437175751,0.016752438619732857,