{"version":"0.5.4","metadata":{"date":{"year":2026,"month":1,"day":22,"hour":2,"minute":32,"second":32},"loudness":-22.159650802612305,"gain":0.5107486984241516,"name":"G12-Ampt-1","modeled_by":"lum","gear_type":"amp","gear_make":"tz-make","gear_model":"tz-model","tone_type":"overdrive","input_level_dbu":null,"output_level_dbu":null,"training":{"settings":{"ignore_checks":false},"data":{"latency":{"manual":null,"calibration":{"algorithm_version":1,"delays":[4057],"safety_factor":1,"recommended":4056,"warnings":{"matches_lookahead":false,"disagreement_too_high":false}}},"checks":{"version":3,"passed":true}},"validation_esr":0.001046639220634696}},"architecture":"WaveNet","config":{"layers":[{"input_size":1,"condition_size":1,"head_size":8,"channels":16,"kernel_size":3,"dilations":[1,2,4,8,16,32,64,128,256,512],"activation":"Tanh","gated":false,"head_bias":false},{"input_size":16,"condition_size":1,"head_size":1,"channels":8,"kernel_size":3,"dilations":[1,2,4,8,16,32,64,128,256,512],"activation":"Tanh","gated":false,"head_bias":true}],"head":null,"head_scale":0.02},"weights":[0.2756887972354889,0.8616915345191956,-0.8616029620170593,-0.9627160429954529,-0.5031627416610718,0.2856426537036896,-0.0681767538189888,0.8582751154899597,-0.18234413862228394,0.39742526412010193,-0.289740651845932,-0.38271409273147583,-1.1261177062988281,-0.7464788556098938,-0.5234843492507935,-0.013183866627514362,-0.16741521656513214,0.10620616376399994,-0.13251306116580963,-0.23125095665454865,0.1292407512664795,0.1522451788187027,0.12097594141960144,0.02640632912516594,-0.04247461259365082,0.17117024958133698,0.05022544413805008,-0.1575884371995926,0.0669616237282753,-0.1156340166926384,-0.07170873880386353,-0.026001306250691414,-0.015205912292003632,-0.054154083132743835,0.039234042167663574,-0.21148820221424103,-0.0631011500954628,-0.030725788325071335,0.143647700548172,0.09059391915798187,0.17167310416698456,-0.142120823264122,0.017634930089116096,-0.2922857403755188,-0.02527264691889286,-0.05372524634003639,0.23685897886753082,0.0036711066495627165,-0.07621893286705017,0.15898188948631287,0.01562323048710823,0.12690584361553192,0.213555708527565,-0.06066248193383217,0.07172729820013046,0.06557179987430573,-0.05542941391468048,-0.13174939155578613,0.054801978170871735,-0.1544824242591858,0.049062006175518036,-0.04262642189860344,0.0047068665735423565,0.0012220684438943863,0.20139142870903015,-0.19294413924217224,0.20022501051425934,0.09545569121837616,-0.10196045786142349,0.25458621978759766,-0.16435283422470093,0.1353309005498886,-0.05433271825313568,0.06167822331190109,0.31639763712882996,0.012831689789891243,-0.026464559137821198,0.06656932085752487,-0.09954571723937988,-0.030867313966155052,-0.31656891107559204,0.2473483383655548,0.04619686305522919,0.03090716153383255,-0.11633997410535812,0.0304560624063015,-0.21319398283958435,0.04520934447646141,-0.016427012160420418,0.09487079083919525,-0.08336372673511505,0.13609153032302856,-0.08945851027965546,0.17374758422374725,-0.199999138712883,0.08712944388389587,-0.04704004526138306,-0.03304513543844223,0.08181463181972504,-0.2052810937166214,0.07923886179924011,0.2879411578178406,-0.17492488026618958,-0.09153272956609726,0.051666948944330215,-0.11528725922107697,-0.16547541320323944,0.07433413714170456,-0.12518742680549622,0.08691568672657013,-0.2205418199300766,0.2394922524690628,-0.0016071120044216514,0.4487624168395996,0.06266218423843384,-0.011108356527984142,0.30390000343322754,0.017207946628332138,-0.08656604588031769,-0.29766374826431274,0.04922402650117874,-0.10014759004116058,-0.40604734420776367,0.06030293554067612,-0.23853977024555206,-0.4131673574447632,-0.03537214919924736,0.018572941422462463,0.2627074122428894,-0.13141009211540222,-0.053970158100128174,-0.2047853022813797,-0.007901502773165703,0.10031090676784515,0.4366092085838318,-0.008119105361402035,-0.07498052716255188,-0.31146687269210815,0.05862795189023018,0.19074320793151855,0.46236786246299744,0.08657154440879822,0.04314206913113594,-0.32630348205566406,-0.11988220363855362,-0.16679945588111877,-0.22721686959266663,0.006521447096019983,-0.18236766755580902,-0.44747769832611084,-0.14505447447299957,-0.22871699929237366,-0.3613298237323761,0.07344920933246613,-0.023677516728639603,-0.46652594208717346,0.09020858258008957,-0.14733600616455078,0.06623762845993042,-0.2487684190273285,0.058850888162851334,-0.2750725746154785,-0.1362386792898178,-0.10022994130849838,-0.3247690498828888,-0.1020951196551323,-0.0865054801106453,0.3521474301815033,-0.029066719114780426,-0.031585898250341415,0.42852118611335754,0.04294312372803688,0.09854071587324142,0.34405046701431274,-0.04014183580875397,0.13060514628887177,-0.2945674657821655,-0.14502380788326263,0.012621227651834488,0.08495214581489563,0.021251097321510315,-0.007915196008980274,-0.19454960525035858,-0.058142274618148804,0.018929442390799522,0.31793391704559326,0.031571611762046814,0.0026133789215236902,-0.41077685356140137,-0.007111467886716127,0.08215033262968063,0.38121771812438965,-0.017512790858745575,-0.02974284067749977,0.1880088895559311,0.003104665083810687,-0.10437682271003723,0.35087475180625916,0.015868308022618294,-0.02472064644098282,0.30467262864112854,0.19153627753257751,-0.13651369512081146,0.19391417503356934,0.011624239385128021,0.18756887316703796,-0.16284002363681793,0.23821870982646942,0.07844918966293335,0.13995219767093658,-0.10343854129314423,0.047323036938905716,0.17132116854190826,-0.04345618560910225,-0.07415011525154114,-0.13758286833763123,-0.103883758187294,-0.14850769937038422,-0.03946404904127121,-0.10578520596027374,-0.08434344083070755,-0.014660210348665714,0.06347180157899857,0.07561931014060974,0.02941865473985672,0.0576840415596962,-0.1714518666267395,-0.1874600350856781,-0.0079479506239295,0.05323203653097153,0.15907108783721924,0.11095272749662399,-0.05687868967652321,-0.020900484174489975,0.11230076104402542,-0.018674224615097046,0.22108860313892365,-0.11946511268615723,-0.13735038042068481,-0.1142125055193901,0.05819307267665863,0.03460518643260002,-0.20269180834293365,0.020141320303082466,0.0011812003795057535,-0.29484206438064575,0.11473555862903595,-0.1915544867515564,-0.15434879064559937,-0.013557475060224533,-0.14974762499332428,-0.13618914783000946,0.13076698780059814,0.07353740930557251,0.05849079042673111,-0.09656455367803574,-0.3470169007778168,0.3388110399246216,0.11928504705429077,-0.25821125507354736,0.2199285924434662,0.34942683577537537,0.22561952471733093,-0.18920661509037018,-0.19606493413448334,0.10502047091722488,-0.34395796060562134,-0.21104983985424042,0.2796204686164856,-0.2552064061164856,-0.3109356760978699,-0.23372335731983185,0.14558635652065277,0.256629079580307,0.1451796144247055,-0.3353845775127411,-0.009079433046281338,-0.24571000039577484,0.2839013934135437,0.29148781299591064,0.19103844463825226,-0.36473169922828674,-0.33704057335853577,-0.04978344962000847,0.31819456815719604,0.35994046926498413,0.11233009397983551,-0.24119341373443604,-0.26178833842277527,0.16370585560798645,-0.37993234395980835,-0.19063669443130493,0.19746777415275574,-0.3066788911819458,-0.2882590591907501,0.06176396459341049,-0.20084935426712036,-0.354937881231308,0.21673917770385742,-0.34288209676742554,-0.313308984041214,-0.17429055273532867,-0.016925685107707977,0.05577933415770531,-0.05476294085383415,-0.01655581034719944,-0.03753191605210304,-0.08286481350660324,0.09445202350616455,-0.11533816903829575,0.007886610925197601,-0.06649328768253326,0.14339479804039001,0.07732435315847397,0.01080634631216526,0.18995049595832825,0.0578172467648983,-0.03955557942390442,0.1587996780872345,-0.12347480654716492,0.04682852327823639,-0.08683691173791885,0.017071595415472984,-0.020593758672475815,0.21730349957942963,-0.001576281851157546,0.12474699318408966,-0.07704893499612808,0.2102649062871933,-0.09850220382213593,-0.00915962178260088,-0.25841379165649414,0.18155668675899506,-0.009928938001394272,0.03223342075943947,0.020105775445699692,0.21200159192085266,0.28318318724632263,0.0887150913476944,0.21756188571453094,0.09776125848293304,-0.09293335676193237,0.21177883446216583,0.20687024295330048,-0.13123537600040436,0.2233087718486786,0.20047816634178162,0.03535075858235359,0.00644637830555439,-0.1346186101436615,-0.05920559912919998,-0.060980863869190216,-0.07870464026927948,0.1630885899066925,-0.12134888768196106,0.05915125086903572,0.10012684762477875,-0.0071999914944171906,-0.10391952842473984,-0.1208253800868988,-0.0262944083660841,-0.1440124362707138,-0.26903215050697327,0.18810395896434784,0.08036882430315018,-0.0165791604667902,0.19103749096393585,-0.1352522075176239,0.047302331775426865,-0.101680226624012,-0.06318251043558121,-0.023685164749622345,-0.012390263378620148,-0.06890243291854858,0.013299635611474514,-0.15390154719352722,0.1363750696182251,-0.014551754109561443,0.19500139355659485,0.1076044887304306,0.2787862718105316,-0.11442022025585175,0.0673467293381691,-0.017348285764455795,0.1240430474281311,0.15070396661758423,-0.07444261014461517,0.17157498002052307,-0.053283531218767166,-0.08445917814970016,0.08828767389059067,-0.037291690707206726,-0.23585204780101776,-0.009962495416402817,-0.1098761335015297,-0.05346867814660072,0.17857295274734497,-0.037416890263557434,0.03170355036854744,0.04928743839263916,-0.030047807842493057,0.12823767960071564,-0.21684236824512482,0.04080713540315628,0.2073698490858078,-0.16901248693466187,0.21768897771835327,-0.04266965761780739,0.004556578584015369,0.16497361660003662,-0.23503659665584564,0.036727577447891235,0.207215815782547,-0.14500290155410767,-0.03939983993768692,-0.13857784867286682,0.10243117064237595,-0.09840632975101471,0.11334829777479172,0.015122532844543457,0.11665602773427963,-0.16986185312271118,0.15931861102581024,0.011586700566112995,0.17406179010868073,-0.2610989212989807,0.06413336098194122,-0.19606120884418488,0.08747771382331848,-0.01889762654900551,-0.019875727593898773,-0.0925620049238205,0.18918895721435547,0.10107168555259705,-0.24366796016693115,0.022045142948627472,0.1136496290564537,-0.2625499367713928,0.12907230854034424,-0.050136566162109375,-0.2907969355583191,-0.0800650343298912,0.057705625891685486,-0.050217170268297195,-0.0720338299870491,0.05129982903599739,0.037824150174856186,-0.09269188344478607,-0.168874129652977,-0.16615167260169983,0.31700146198272705,-0.11364692449569702,0.08530102670192719,0.24184687435626984,0.08214983344078064,0.1764046549797058,-0.15319795906543732,0.25140196084976196,-0.05831708014011383,-0.20450101792812347,0.039018914103507996,0.0010685367742553353,-0.12912483513355255,-0.2949938178062439,-0.01966947689652443,0.22230395674705505,0.21453312039375305,-0.009305333718657494,-0.20760300755500793,-0.22450408339500427,0.0071466052904725075,0.30434533953666687,0.27826622128486633,0.05316562578082085,-0.09072954207658768,-0.32977014780044556,-0.1858820766210556,0.2201782912015915,0.10038509964942932,0.13242681324481964,-0.24912923574447632,0.11662524193525314,-0.05864769220352173,-0.08324460685253143,0.16725881397724152,0.16656185686588287,-0.07548303157091141,0.2592375874519348,0.06159644573926926,-0.2041313201189041,0.14912964403629303,0.07759248465299606,-0.0883411169052124,-0.26903149485588074,0.04758827015757561,-0.026807107031345367,-0.020324278622865677,-0.12048029899597168,0.3951583206653595,0.1697334200143814,-0.22487610578536987,0.27162015438079834,0.03465869650244713,0.17400212585926056,-0.046601083129644394,-0.11572632938623428,0.13627736270427704,-0.11121466010808945,-0.08302885293960571,0.13639457523822784,-0.2149447649717331,0.13523949682712555,-0.1202760562300682,0.12038030475378036,-0.028050154447555542,0.10442101955413818,-0.2692115604877472,0.04931895434856415,-0.007297770585864782,0.15374597907066345,-0.00861484557390213,0.03605058044195175,-0.14342927932739258,-0.05987792834639549,-0.17030411958694458,0.108460433781147,0.09413010627031326,0.046657249331474304,-0.1726767122745514,-0.11545861512422562,0.22852565348148346,-0.04371160268783569,-0.1465430110692978,-0.026549331843852997,-0.2792961895465851,-0.03932393714785576,0.052060212939977646,-0.2656155526638031,-0.09223476052284241,0.1131381168961525,-0.2483367621898651,0.07339205592870712,-0.07708035409450531,0.13051992654800415,0.24190546572208405,-0.019080910831689835,-0.28041476011276245,0.19545413553714752,-0.2311088740825653,-0.0891285315155983,-0.3054908514022827,0.04420271888375282,0.3620260953903198,-0.2658238410949707,0.2099134474992752,0.21079212427139282,-0.2111474722623825,0.14324091374874115,0.3038753271102905,0.1819947212934494,-0.3114798963069916,-0.2840874195098877,-0.25051045417785645,0.19366474449634552,0.027792267501354218,0.3117291033267975,-0.2105598747730255,-0.24536877870559692,-0.08175025135278702,0.22669470310211182,0.3170194923877716,0.2650390565395355,-0.21807365119457245,-0.3082263171672821,-0.18585596978664398,0.2898668050765991,0.1536894589662552,-0.3195244073867798,0.23401229083538055,0.3526877760887146,-0.21634335815906525,0.062035951763391495,0.0947117730975151,-0.13430529832839966,0.17083299160003662,0.14644309878349304,-0.14520657062530518,0.2342301309108734,0.33010247349739075,0.27546343207359314,-0.07757489383220673,-0.16633564233779907,-0.03745831176638603,0.05202949047088623,0.273214191198349,0.09967216104269028,-0.24192500114440918,0.24322114884853363,0.09784997999668121,0.24592003226280212,-0.2326180338859558,-0.09392157196998596,0.01859237626194954,0.024695605039596558,-0.10261610895395279,0.04951435700058937,-0.039040375500917435,-0.02265053242444992,-0.18175223469734192,0.10231305658817291,-0.05973288416862488,-0.012145502492785454,-0.02140619046986103,-0.027103886008262634,-0.06603103876113892,0.23366081714630127,0.028885478153824806,0.12875913083553314,-0.007945561781525612,0.062401555478572845,-0.18297383189201355,0.25584712624549866,-0.0009371966007165611,-0.025125648826360703,-0.15249398350715637,-0.14132867753505707,0.2417353242635727,-0.1464337557554245,-0.17019088566303253,0.10697226226329803,-0.019922783598303795,-0.0017673482652753592,0.1620035618543625,-0.09850714355707169,0.013511343859136105,0.07855255901813507,-0.17242947220802307,-0.19071495532989502,-0.21417544782161713,0.16698506474494934,0.00947047583758831,-0.08914577960968018,0.08969541639089584,0.046195726841688156,-0.2527426481246948,0.08293446898460388,-0.11226937919855118,0.27899792790412903,-0.06425777077674866,-0.06577491760253906,0.23973871767520905,-0.00797294732183218,0.08188670873641968,0.05547003448009491,-0.08023031800985336,-0.01851125992834568,-0.12010851502418518,0.1026904359459877,-0.16688594222068787,0.14388787746429443,-0.0744471326470375,-0.0008995883399620652,-0.05377664417028427,-0.1621287763118744,-0.04190204665064812,0.2692582309246063,-0.0016344200121238828,0.1528303176164627,-0.1993127018213272,0.07920203357934952,-0.17788861691951752,0.12935210764408112,0.01043278630822897,0.00047772593097761273,0.20769929885864258,0.14238333702087402,-0.050712134689092636,0.1563359946012497,0.152038112282753,-0.06839493662118912,0.2875458300113678,-0.04726729542016983,-0.05180269852280617,0.14716105163097382,0.10816605389118195,0.20265324413776398,-0.10410188883543015,-0.015388257801532745,0.01706991344690323,0.13852518796920776,0.024638215079903603,-0.11126348376274109,0.24069347977638245,0.1789897084236145,0.029065925627946854,-0.2857290208339691,0.061662252992391586,-0.08782372623682022,-0.11693666130304337,-0.019146542996168137,-0.043870266526937485,-0.0953681617975235,-0.1607629656791687,0.004203422926366329,0.04556530714035034,0.0054486533626914024,0.07398059219121933,0.032092880457639694,-0.030601773411035538,0.07555098086595535,0.1334710270166397,-0.02821107767522335,-0.09119930863380432,-0.2543802559375763,0.12976090610027313,-0.059796176850795746,0.15050512552261353,0.06834541261196136,0.11784347891807556,-0.021155158057808876,0.08903885632753372,-0.07803617417812347,-0.16071537137031555,-0.1074153408408165,-0.06557229906320572,-0.1178450733423233,0.09318239986896515,-0.09841705113649368,-0.0635547786951065,-0.11320468038320541,-0.0055649252608418465,-0.030737318098545074,-0.06495276093482971,-0.002781407441943884,-0.0023874612525105476,0.03311540186405182,-0.3922681510448456,-0.21509337425231934,0.23482197523117065,-0.5389394164085388,-0.2932674288749695,0.12403319776058197,0.5330569744110107,0.1363203525543213,-0.048179320991039276,0.548974871635437,0.27416059374809265,-0.19194751977920532,0.397832989692688,0.12628577649593353,-0.2391849011182785,-0.39798006415367126,-0.05088714882731438,0.25501954555511475,0.33311107754707336,0.12001000344753265,-0.25805649161338806,-0.31101229786872864,-0.23767991364002228,0.016436630859971046,0.4180077910423279,0.22510835528373718,-0.28338027000427246,-0.281565397977829,-0.11615050584077835,0.025623764842748642,0.37044286727905273,0.2884969413280487,-0.24189524352550507,0.37232303619384766,0.2126886397600174,-0.2561030685901642,0.5041811466217041,0.2548880875110626,-0.024865133687853813,0.32533952593803406,0.3203624188899994,-0.2032676637172699,0.559782087802887,0.0323607362806797,-0.25323423743247986,-0.05710635334253311,-0.06002787873148918,0.256400465965271,-0.02637067623436451,-0.14880657196044922,-0.0587548092007637,-0.021863404661417007,-0.04498995095491409,-0.022354988381266594,0.05441480129957199,0.014596548862755299,0.04219157621264458,0.18183420598506927,-0.035045698285102844,0.14623109996318817,-0.03504481911659241,-0.12839728593826294,-0.0005810586153529584,-0.051934268325567245,0.4691195487976074,-0.3211212754249573,0.8142763376235962,-0.8114337921142578,-0.004628509748727083,1.157139778137207,0.9065142273902893,-0.6450837850570679,0.1269560009241104,0.28296053409576416,-0.3057352602481842,-0.5721732378005981,0.3768380582332611,-0.7550753951072693,0.21234212815761566,0.5393015146255493,-0.13593605160713196,0.21898554265499115,-0.04539092630147934,0.135065957903862,0.14569838345050812,-0.1415368914604187,-0.09900908917188644,-0.225314661860466,-0.11931322515010834,0.016135159879922867,0.43838149309158325,0.08624240756034851,0.39733973145484924,0.059508245438337326,0.17075984179973602,0.1320384442806244,-0.05816883593797684,-0.026852484792470932,-0.29118525981903076,0.1460467129945755,0.06055179238319397,-0.00014561052375938743,-0.27050504088401794,0.10318495333194733,-0.13904444873332977,0.038358017802238464,0.23512177169322968,-0.04564818739891052,0.2600157856941223,-0.07875674217939377,0.11245692521333694,0.4622573256492615,-0.0030401733238250017,0.07892097532749176,-0.07060253620147705,0.2018931359052658,-0.23409606516361237,-0.17763055860996246,0.17178432643413544,-0.1431567370891571,-0.045248497277498245,-0.06214122846722603,0.2753617763519287,-0.32914915680885315,0.28153494000434875,0.2716914415359497,-0.0024075638502836227,0.22422371804714203,0.00740876654163003,-0.1571241021156311,0.16244816780090332,-0.27455949783325195,-0.07000494003295898,0.1405896097421646,0.17259541153907776,-0.0821661725640297,-0.17852149903774261,0.357259601354599,-0.2973550856113434,0.14366403222084045,0.05665199086070061,0.24743002653121948,-0.26730093359947205,-0.28696662187576294,-0.07852086424827576,-0.2771146595478058,-0.370029091835022,0.19539837539196014,0.1333118975162506,-0.06239992380142212,0.11744522303342819,-0.024603551253676414,0.18705081939697266,0.1882317215204239,-0.04532313719391823,0.09702929854393005,-0.02260110341012478,0.1308826506137848,-0.10136950761079788,0.13002899289131165,-0.15740573406219482,-0.2496376931667328,0.1712544858455658,0.02928238734602928,0.33388182520866394,0.31025221943855286,0.30481821298599243,0.23238340020179749,0.36209601163864136,-0.010926363989710808,-0.4359273612499237,-0.10927426069974899,-0.27222371101379395,-0.2381453812122345,0.18230794370174408,-0.018043190240859985,0.18497680127620697,0.25193169713020325,0.20805825293064117,0.08282362669706345,-0.1826402097940445,-0.19478683173656464,0.13729749619960785,0.0755222961306572,-0.07729312777519226,-0.21151764690876007,-0.12551520764827728,0.0873856395483017,0.1523142158985138,-0.2283387929201126,0.1187966987490654,-0.3245340883731842,0.13088364899158478,0.18291400372982025,0.3428870141506195,-0.21519553661346436,-0.20570078492164612,0.36332815885543823,0.10889109969139099,-0.08818025887012482,0.04089861363172531,-0.15494844317436218,0.036330461502075195,-0.2656360864639282,0.02553975209593773,-0.15982532501220703,-0.11767274886369705,0.01754874549806118,-0.10088194906711578,-0.08385324478149414,-0.23541827499866486,-0.24788294732570648,0.24077413976192474,-0.09735622256994247,-0.232559934258461,-0.10331298410892487,-0.1815847009420395,-0.32563403248786926,0.1822453737258911,0.13903766870498657,0.11049894243478775,-0.20291738212108612,0.15747886896133423,0.11809983104467392,-0.18208618462085724,-0.10404378175735474,0.1903708279132843,-0.08583448082208633,-0.41884279251098633,0.030910009518265724,0.25919216871261597,-0.1875142604112625,0.033873990178108215,0.24518772959709167,0.012478831224143505,0.003281621728092432,0.22358538210391998,0.31328946352005005,-0.36002546548843384,0.00922588910907507,0.09023267030715942,0.22063980996608734,-0.30702608823776245,0.15111735463142395,-0.0971294716000557,-0.24810290336608887,0.05357838049530983,0.035791195929050446,0.014513890258967876,-0.2780694365501404,-0.10391959547996521,-0.06833955645561218,-0.05278453975915909,0.14283457398414612,0.01696782559156418,0.2948363125324249,0.07955297827720642,-0.03620019927620888,0.09404553472995758,0.035768698900938034,0.01200597733259201,-0.29770442843437195,0.10441795736551285,0.0409807413816452,0.08787171542644501,-0.40410077571868896,-0.1123388409614563,-0.13848742842674255,-0.1284593790769577,0.1981651484966278,-0.1343006193637848,-0.10440479964017868,-0.022775113582611084,-0.031194936484098434,-0.018815087154507637,0.07533607631921768,0.1502102166414261,-0.45088255405426025,-0.02389407530426979,0.05437749996781349,0.1675625890493393,-0.09756723046302795,-0.007005115505307913,0.17429257929325104,0.12848098576068878,-0.1634928584098816,-0.016025420278310776,-0.06398504227399826,0.058747146278619766,-0.3001749813556671,-0.11243319511413574,0.06223103404045105,-0.07101394981145859,0.30800312757492065,0.32600846886634827,0.10556522756814957,0.2746801972389221,-0.043205343186855316,-0.11257248371839523,-0.11942324787378311,-0.18953314423561096,-0.06155475229024887,-0.1426629275083542,0.3915794789791107,-0.16590389609336853,0.25227537751197815,0.047067414969205856,-0.18002748489379883,0.16603153944015503,0.0971081331372261,0.03826545551419258,0.1832529902458191,-0.22978299856185913,-0.03106769546866417,-0.05733070895075798,-0.15849022567272186,0.12648805975914001,0.20548805594444275,-0.15287470817565918,0.08577533811330795,0.06341364234685898,0.0935782790184021,0.22558675706386566,-0.05898679420351982,-0.2365948110818863,0.29096901416778564,0.0197428110986948,-0.0005942653515376151,-0.11354935169219971,0.07979678362607956,-0.013842602260410786,-0.13503248989582062,0.12257072329521179,0.25500425696372986,-0.04339877516031265,-0.10195812582969666,0.13614362478256226,-0.11188863217830658,0.24189350008964539,-0.1841944456100464,-0.07371091097593307,-0.06443111598491669,0.11951521039009094,-0.06834454089403152,0.06522116810083389,-0.140605628490448,0.12994922697544098,-0.010958350263535976,0.04070752486586571,0.22458775341510773,0.0970921739935875,-0.0004374177660793066,-0.038225505501031876,0.07888773083686829,-0.0355658158659935,0.062090419232845306,0.022835418581962585,0.08604855835437775,-0.17650383710861206,-0.23362840712070465,0.17930592596530914,-0.003433874109759927,-0.11086957156658173,0.04741169139742851,-0.06451372802257538,-0.25760430097579956,0.3054594099521637,0.23500263690948486,0.18903851509094238,-0.17793728411197662,-0.1525566577911377,-0.27626118063926697,0.10560324788093567,0.10334120690822601,0.18537050485610962,-0.4721098840236664,-0.04241543635725975,-0.05385743826627731,0.09731559455394745,-0.154959037899971,0.2891252636909485,-0.27853792905807495,-0.24825523793697357,-0.3007529079914093,0.27397581934928894,-0.09977935254573822,-0.31490558385849,0.38636842370033264,-0.22812965512275696,-0.2443312257528305,0.22822800278663635,-0.19386915862560272,-0.060846757143735886,-0.03792466223239899,-0.09006282687187195,-0.03287660330533981,-0.1883283108472824,0.16832396388053894,0.15888521075248718,-0.43237268924713135,0.18963751196861267,0.35627955198287964,0.35568472743034363,-0.280452162027359,-0.10346246510744095,0.09321590512990952,0.1570023149251938,0.15060779452323914,0.294601708650589,-0.31202924251556396,-0.5594449639320374,-1.1262891292572021,0.0934959203004837,-0.12669387459754944,0.10633298754692078,-0.256259024143219,-0.20533686876296997,-0.06839508563280106,0.2955208718776703,0.14546962082386017,0.17691777646541595,-0.03275063633918762,-0.19700148701667786,-0.07031188160181046,0.08769351989030838,0.2078060358762741,0.2963632345199585,-0.20693311095237732,-0.3856014907360077,-0.5217131972312927,0.14712831377983093,0.18273788690567017,0.1823129653930664,-0.13664454221725464,-0.10315749049186707,-0.046858709305524826,0.02926957607269287,0.10360508412122726,0.23078615963459015,0.3415749967098236,0.4087779223918915,0.5188637375831604,0.38599738478660583,-0.20981968939304352,-0.22873850166797638,-0.2634960114955902,-0.29463136196136475,-0.6432463526725769,0.2759295403957367,0.1349577009677887,0.009182620793581009,0.26885372400283813,0.05054139345884323,-0.1438460350036621,0.03459513559937477,0.13187511265277863,0.06183260306715965,-0.11870768666267395,0.22551211714744568,-0.08164940774440765,0.09265636652708054,-0.07199520617723465,0.07464893162250519,-0.13085030019283295,-0.07523508369922638,0.08785859495401382,0.07047837972640991,-0.13533718883991241,-0.04279834032058716,-0.06035494804382324,-0.10899273306131363,0.12642252445220947,0.3704133629798889,0.07890903949737549,-0.0877942219376564,-0.14531420171260834,0.21161912381649017,-0.08317257463932037,-0.07986119389533997,-0.12181047350168228,0.06362334638834,-0.0017190169310197234,-0.12016671150922775,0.048114556819200516,-0.012722599320113659,0.012378798797726631,-0.023055672645568848,-0.0037230844609439373,-0.0009204053785651922,0.06144765764474869,0.06869035959243774,0.6524389386177063,0.019028153270483017,-0.07569751888513565,0.23878119885921478,0.15868768095970154,-0.19330400228500366,-0.05223335698246956,0.09316280484199524,0.07289157062768936,-0.033148143440485,-0.010742546990513802,0.3032778799533844,-0.17392536997795105,-0.07406487315893173,0.2976568937301636,0.1340211033821106,-0.13624057173728943,0.08549867570400238,-0.24357987940311432,-0.07846761494874954,-0.2711378037929535,0.10957640409469604,-0.02643050253391266,-0.003119496861472726,0.2685391902923584,0.11012030392885208,-0.288123220205307,0.20274055004119873,0.08467071503400803,-0.10319927334785461,-0.3222571015357971,0.1531936079263687,0.18924330174922943,0.09144821017980576,-0.023373829200863838,0.2988552749156952,-0.21909725666046143,0.0031546035315841436,0.15760338306427002,-0.14576858282089233,0.08326698839664459,0.19353224337100983,-0.08437984436750412,-0.05935298278927803,0.2573971152305603,-0.26005351543426514,-0.0707070529460907,0.19563469290733337,0.03152766451239586,0.11386939138174057,-0.04104108735918999,0.2731814384460449,0.11891794204711914,-0.3891873359680176,-0.20503133535385132,-0.06583265960216522,0.11074910312891006,0.1744108349084854,0.102885402739048,-0.06318239122629166,0.04905760660767555,-0.019606944173574448,-0.021184632554650307,0.10302558541297913,0.1169433444738388,0.05276726186275482,0.03530111908912659,-0.04394584149122238,-0.07580272108316422,0.19122423231601715,-0.1324431151151657,0.02282894402742386,-0.18094542622566223,-0.04762604087591171,-0.028891902416944504,0.16436052322387695,0.09543981403112411,0.1749255210161209,0.13756492733955383,-0.1541028767824173,-0.21038879454135895,-0.20628732442855835,-0.05832984670996666,0.16398985683918,-0.08061812072992325,0.015205775387585163,0.04148127883672714,0.09164460003376007,0.28220775723457336,0.002795384032651782,-0.011678975075483322,0.11335976421833038,0.1508679836988449,0.07802336663007736,-0.020386334508657455,-0.03231154382228851,-0.19376450777053833,0.029033398255705833,0.010901360772550106,0.009176746942102909,-0.0594821572303772,0.44917547702789307,0.05992148816585541,0.29789894819259644,-0.16976246237754822,-0.13803045451641083,0.41941940784454346,-0.30858075618743896,-0.17658810317516327,0.2156558781862259,-0.3063763678073883,0.017319610342383385,-0.3635863661766052,-0.28456777334213257,-0.006538244429975748,0.1717989444732666,0.3392700254917145,0.04895598441362381,-0.2043774127960205,0.09959492832422256,0.012048574164509773,-0.3033472001552582,0.36328423023223877,-0.10197261720895767,-0.0443725660443306,0.24096542596817017,0.3315294086933136,0.16543900966644287,0.23747043311595917,-0.28945061564445496,0.07627803087234497,-0.20256085693836212,-0.07011222839355469,0.29852035641670227,-0.0059597911313176155,0.12494327127933502,0.08199701458215714,-0.2170773297548294,0.19104576110839844,0.09787295758724213,-0.3054521679878235,-0.1692284792661667,0.2705247104167938,-0.26424863934516907,-0.1058722659945488,-0.20418614149093628,0.21566928923130035,0.007466874551028013,-0.22320014238357544,-0.19794051349163055,-0.09109751135110855,0.4055955111980438,0.14434385299682617,0.072633296251297,-0.26113659143447876,-0.00628701550886035,-0.14634880423545837,0.10807490348815918,-0.02581973560154438,-0.05900523066520691,0.01149753388017416,-0.043787192553281784,0.09365406632423401,-0.0386614054441452,0.21338170766830444,0.1261376142501831,0.03828439861536026,0.08156423270702362,-0.018809951841831207,0.14031445980072021,-0.07990995049476624,0.03152281418442726,-0.03329464793205261,-0.024201342836022377,0.017367752268910408,-0.11792968213558197,0.054649725556373596,-0.13895446062088013,0.022369850426912308,0.19376090168952942,-0.014540577307343483,0.006930883973836899,-0.21811605989933014,-0.08039060980081558,-0.060287438333034515,0.06532946974039078,0.016100941225886345,0.1525341123342514,0.15907081961631775,0.1349862962961197,-0.21896430850028992,-0.5846297740936279,-0.31448879837989807,0.16122755408287048,-0.28031763434410095,-0.08651698380708694,0.08300980180501938,0.1799376904964447,-0.14144055545330048,0.1496022492647171,0.5239295959472656,-0.30767112970352173,-0.090177521109581,0.013648740015923977,-0.2146812379360199,0.2066900134086609,-0.4803107678890228,-0.059118855744600296,-0.14097614586353302,0.11272401362657547,-0.27898529171943665,-0.09002611041069031,-0.003319483483210206,0.16796119511127472,-0.09221256524324417,-0.41873207688331604,0.1320207715034485,-0.008881337940692902,0.05585404485464096,0.0915023684501648,-0.09634906053543091,0.01210046000778675,0.1393347978591919,0.3680526316165924,0.2776331305503845,-0.12943652272224426,-0.06847618520259857,0.12813782691955566,-0.3740161657333374,0.049837835133075714,-0.1816624253988266,-0.0703159049153328,0.03207641467452049,-0.2660488188266754,-0.08277520537376404,0.013541953638195992,-0.0535120815038681,-0.14221180975437164,0.06058859825134277,0.01564755104482174,0.05918920785188675,0.24486683309078217,-0.10293539613485336,0.12852846086025238,-0.11899884790182114,0.3703104257583618,-0.31959524750709534,-0.16680487990379333,-0.1168692484498024,-0.13742253184318542,0.23254883289337158,0.002884359797462821,-0.05719295144081116,0.1789388805627823,0.19176937639713287,0.041648540645837784,-0.1920028030872345,0.03849675878882408,0.08629413694143295,0.13798926770687103,-0.0762815773487091,0.22220923006534576,-0.0711570531129837,0.08238037675619125,0.21373260021209717,-0.2235204577445984,-0.01514040119946003,-0.09227568656206131,0.02926759049296379,-0.029378628358244896,-0.13307996094226837,0.26599928736686707,0.12971000373363495,-0.1258450597524643,-0.18064865469932556,-0.09857752174139023,-0.06968649476766586,0.04849432781338692,0.004970968700945377,0.23591257631778717,0.21760950982570648,-0.04256156459450722,0.2762508988380432,0.04716622084379196,-0.1968015730381012,-0.1338585764169693,-0.0787234753370285,0.052442777901887894,-0.4789123237133026,0.1141812726855278,0.15634587407112122,-0.14887410402297974,-0.18421664834022522,-0.025380762293934822,0.023935168981552124,-0.21559780836105347,0.05855860933661461,0.07524478435516357,-0.04442625865340233,-0.10913444310426712,0.044636838138103485,-0.13684941828250885,-0.11730413883924484,0.11238525807857513,0.005644697695970535,0.10226794332265854,0.03420756012201309,-0.10019156336784363,-0.10517707467079163,-0.17975914478302002,0.22374950349330902,0.041796110570430756,-0.023030897602438927,0.20679113268852234,-0.10334008187055588,-0.05272741988301277,0.223666250705719,-0.16083505749702454,0.22854343056678772,0.040463805198669434,-0.014160788618028164,-0.19255758821964264,-0.08095728605985641,-0.037741150707006454,0.13489435613155365,0.014706732705235481,-0.12073461711406708,-0.009397285990417004,-0.14298123121261597,-0.08421028405427933,-0.06010245531797409,-0.07669167965650558,-0.1247493326663971,0.04677342623472214,-0.009669587947428226,-0.4009793996810913,-0.14783170819282532,-0.22272883355617523,-0.13139936327934265,-0.12972509860992432,-0.03989541530609131,-0.34403321146965027,-0.49959176778793335,-0.1048092171549797,0.18438869714736938,0.2285558432340622,-0.15636779367923737,0.2712346613407135,-0.26711148023605347,-0.0075888000428676605,-0.3230321407318115,0.09573476761579514,-0.02489567920565605,0.22426269948482513,-0.22590558230876923,-0.2294897586107254,-0.17842352390289307,0.44224247336387634,0.0740928128361702,-0.27577856183052063,-0.003712704172357917,0.29350265860557556,-0.29707014560699463,0.49566149711608887,0.2000671625137329,0.07279814779758453,-0.08536070585250854,0.3447578251361847,-0.3573749363422394,0.1772252470254898,-0.1816394031047821,0.4332566559314728,-0.32257238030433655,-0.2345573902130127,0.2592182457447052,-0.45434463024139404,-0.1081329882144928,0.32783380150794983,-0.3888182044029236,-0.043634433299303055,0.3898724913597107,-0.2046044021844864,-0.10524047911167145,0.379314124584198,0.02032705955207348,-0.170091912150383,-0.30976784229278564,0.14078181982040405,0.1552744060754776,-0.15175774693489075,0.06390432268381119,0.05595208704471588,-0.08982004970312119,0.1113235354423523,-0.034632205963134766,-0.1244051530957222,0.24969854950904846,0.056245822459459305,0.3061726987361908,0.17782332003116608,-0.1676570624113083,0.02917681261897087,0.19852043688297272,-0.13116340339183807,0.015625806525349617,-0.045889995992183685,0.007416186388581991,-0.0749252438545227,-0.26194483041763306,-0.05864205211400986,0.1380840390920639,-0.030567022040486336,0.12960480153560638,0.09795976430177689,-0.12654685974121094,-0.40191179513931274,-0.105863556265831,0.127335786819458,0.10426297783851624,-0.052927467972040176,0.19177117943763733,-0.15718334913253784,-0.1515091508626938,0.07738472521305084,-0.08959127962589264,-0.10883107781410217,-0.058981120586395264,-0.13377954065799713,0.22178810834884644,0.12866029143333435,-0.19648073613643646,0.09458557516336441,0.06430798768997192,-0.3623991310596466,-0.04553994536399841,-0.03700548782944679,0.22959238290786743,0.14930646121501923,0.24113622307777405,-0.4476470649242401,0.42524054646492004,0.36041608452796936,-0.42145487666130066,0.0734172835946083,0.3044140934944153,-0.31881317496299744,-0.6396892070770264,-0.10096247494220734,0.3190833628177643,0.07511287182569504,0.12007879465818405,-0.4038524925708771,-0.047282248735427856,-0.3799229860305786,0.4005587100982666,-0.08629253506660461,-0.2779092490673065,0.2169657051563263,-0.0103782769292593,-0.21483324468135834,0.3858017027378082,0.0751914232969284,0.20245614647865295,-0.41552701592445374,-0.009904405102133751,-0.09688661247491837,-0.04411635175347328,0.14394406974315643,0.36548084020614624,-0.2883016765117645,-0.10102767497301102,-0.10754524916410446,-0.2557187080383301,-0.08147048205137253,-0.07023299485445023,-0.17723025381565094,-0.09919526427984238,0.15359748899936676,-0.3015212416648865,0.06500350683927536,0.2859004735946655,-0.02855866588652134,0.08763551712036133,-0.0340166911482811,0.3638215959072113,0.07102055102586746,-0.11166287958621979,-0.06416942179203033,0.04179971665143967,0.1211070790886879,0.13226236402988434,0.27692756056785583,-0.025571642443537712,0.031178396195173264,0.033314500004053116,-0.06882671266794205,0.06340964138507843,0.039280544966459274,0.07386108487844467,0.12720777094364166,-0.24726861715316772,-0.049292732030153275,0.034047070890665054,-0.1256249099969864,0.0389317162334919,-0.12632395327091217,0.004928357899188995,-0.04548994451761246,0.02619658038020134,-0.12903790175914764,-0.0714702159166336,0.1195840835571289,0.23191381990909576,-0.12842895090579987,0.15097853541374207,0.17725494503974915,0.15992628037929535,-0.028097685426473618,0.2121269851922989,0.23142941296100616,-0.15034206211566925,-0.021166231483221054,0.037074945867061615,-0.08563593775033951,0.06635770946741104,0.10502874106168747,-0.1249699592590332,0.2779892385005951,0.05356708541512489,-0.11303125321865082,-0.059219781309366226,-0.15024244785308838,0.08008300513029099,-0.4232105016708374,0.23332169651985168,-0.102448970079422,-0.4371522068977356,0.6302885413169861,-0.04869448393583298,-0.3129901587963104,0.3625676929950714,-0.07132478058338165,0.38253045082092285,-0.30703476071357727,-0.05139349773526192,-0.19011276960372925,0.35618090629577637,0.011457761749625206,0.3914523422718048,-0.36980098485946655,0.03153573349118233,0.24762168526649475,-0.28026989102363586,0.034169960767030716,0.17171385884284973,-0.27889057993888855,-0.054669592529535294,0.002311956137418747,0.06185911223292351,-0.198507159948349,-0.06123220548033714,-0.039738718420267105,0.054839879274368286,-0.23969335854053497,0.4421084225177765,0.08113090693950653,0.051056936383247375,0.13380728662014008,-0.05002574250102043,-0.04724092409014702,0.13230334222316742,-0.04606920853257179,-0.2128785401582718,0.15686717629432678,-0.0777081772685051,-0.4703330099582672,0.05278778448700905,-0.16248370707035065,0.27360600233078003,-0.3373664617538452,0.040821559727191925,-0.26425203680992126,0.12401045113801956,-0.20678246021270752,-0.015314998105168343,0.13517597317695618,0.11354075372219086,-0.013465831987559795,0.2613276243209839,0.04206441342830658,0.3825419247150421,0.25318488478660583,-0.030218642204999924,-0.12075500935316086,0.1104135736823082,0.02894679829478264,0.0876164585351944,-0.2849296033382416,0.0019215471111238003,-0.13355059921741486,-0.08921336382627487,-0.16836467385292053,0.16282160580158234,-0.27300408482551575,-0.12687548995018005,-0.4283934533596039,-0.6609140038490295,-0.5581688284873962,0.121633380651474,0.4009024202823639,0.16267283260822296,-0.003106842515990138,0.32533782720565796,-0.05654413625597954,-0.10380008071660995,0.16260267794132233,0.13200092315673828,-0.197383850812912,-0.023515231907367706,0.0625162422657013,0.0247452724725008,0.25707581639289856,-0.1674318164587021,0.36565181612968445,0.44895845651626587,-0.10547821968793869,0.1260720044374466,0.03726869076490402,0.1301417350769043,0.011730114929378033,0.39308398962020874,0.064731165766716,0.20525120198726654,-0.1636674553155899,0.12861984968185425,0.17670001089572906,0.18564961850643158,-0.18027371168136597,-0.026118628680706024,0.010378804989159107,-0.04058618098497391,0.15159912407398224,-0.0030366643331944942,0.13117220997810364,-0.16685272753238678,-0.4920189678668976,0.3425629138946533,0.3308875560760498,-0.6055041551589966,0.11655959486961365,-0.7138530015945435,-0.471497118473053,-0.49392715096473694,0.8733069896697998,-0.898006796836853,-0.43278416991233826,-0.8087831735610962,0.3853268027305603,-0.677518367767334,0.37845948338508606,-0.5618604421615601,-0.2757454812526703,-0.26830434799194336,0.09004147350788116,0.1696304827928543,0.09354078769683838,-0.11810129880905151,-0.27850693464279175,-0.0992266982793808,-0.021061038598418236,0.04151484742760658,0.2911868393421173,0.019667427986860275,0.34383323788642883,0.06659828871488571,-0.27909794449806213,0.13470372557640076,0.07324011623859406,0.12789995968341827,-0.155146524310112,-0.2447175830602646,-0.044047433882951736,0.24970151484012604,-0.16859573125839233,-0.22551138699054718,0.3538629710674286,-0.13145597279071808,-0.0701294094324112,0.11420968919992447,-0.0549582801759243,-0.1263769567012787,0.12254997342824936,0.010104474611580372,0.13716983795166016,-0.19786834716796875,0.010086125694215298,0.1448320597410202,0.0006116466247476637,0.06106318533420563,0.000683645426761359,-0.15215526521205902,-0.23735342919826508,0.12513156235218048,-0.09986749291419983,-0.08121239393949509,-0.04319610819220543,0.08064515888690948,0.10732658952474594,-0.012041894719004631,-0.10433940589427948,0.08217964321374893,-0.10220963507890701,-0.44317805767059326,0.026344148442149162,-0.06030677631497383,0.1361188292503357,-0.15187835693359375,-0.13447125256061554,-0.0981980487704277,0.13075940310955048,0.31600984930992126,0.10331423580646515,-0.31554681062698364,0.19846835732460022,0.05258616805076599,0.09828685224056244,-0.13179731369018555,-0.19829212129116058,0.02577647939324379,0.02417951077222824,0.013047927990555763,0.00047926080878823996,0.12507741153240204,-0.04484749957919121,0.03884953260421753,0.12310919165611267,0.12492247670888901,0.025551022961735725,-0.15353721380233765,-0.10334398597478867,-0.2127961665391922,-0.3230787217617035,0.02531835064291954,-0.23505742847919464,-0.21869279444217682,0.12470655143260956,-0.05706861615180969,0.23508472740650177,-0.2682083547115326,0.30885040760040283,0.23941153287887573,-0.04111703485250473,-0.21285955607891083,0.049482643604278564,0.016580132767558098,0.10711207240819931,0.20210562646389008,0.20391599833965302,-0.1673363596200943,0.09284748136997223,-0.17151522636413574,0.18847344815731049,0.13040249049663544,-0.2826126515865326,-0.04633640870451927,0.13367019593715668,-0.1631854921579361,-0.07728501409292221,0.09121991693973541,0.03451758995652199,-0.06114277243614197,0.21654653549194336,0.14694562554359436,0.17281758785247803,0.020599137991666794,-0.00016786489868536592,0.1839670091867447,0.27437344193458557,0.08362564444541931,-0.06013011187314987,0.16756391525268555,0.05533357337117195,0.11982649564743042,-0.3270661234855652,0.17823182046413422,-0.344931036233902,0.15447846055030823,0.0691002756357193,0.1610131561756134,-0.10623966157436371,0.1353616863489151,-0.1965402364730835,-0.3614502549171448,-0.1786702573299408,-0.08583623915910721,-0.12318601459264755,-0.09850866347551346,0.2903168499469757,-0.15170107781887054,0.18028567731380463,0.07297082245349884,-0.012366513721644878,0.06902685016393661,-0.07246924191713333,0.1584303230047226,-0.22587254643440247,0.06540899723768234,-0.09021764993667603,-0.22894638776779175,0.06228073313832283,-0.0502006933093071,0.1664528101682663,-0.11758386343717575,-0.13453198969364166,-0.09718701243400574,0.2022647261619568,0.21722348034381866,0.3486856520175934,0.01997455023229122,-0.030072549358010292,0.16412563621997833,-0.09485671669244766,-0.18928369879722595,-0.04552094265818596,0.14724841713905334,0.0034515734296292067,0.04456424340605736,-0.08175886422395706,0.054316017776727676,0.10747753083705902,0.18105341494083405,-0.1526552140712738,0.11927086114883423,-0.03963541239500046,0.05882357433438301,-0.025495825335383415,-0.023839054629206657,0.0047859568148851395,0.3257747292518616,-0.0339461974799633,0.11191630363464355,-0.15406814217567444,-0.13828079402446747,-0.030911337584257126,0.14603504538536072,-0.0264699999243021,0.23374682664871216,0.09837687015533447,-0.004597467835992575,-0.09004504978656769,-0.17583276331424713,-0.09054175019264221,-0.12795118987560272,-0.16555538773536682,-0.22763973474502563,0.01803661324083805,0.06887694448232651,-0.015957286581397057,0.04414357617497444,-0.027698999270796776,0.11698724329471588,-0.2362426519393921,0.019782543182373047,-0.07453794777393341,0.3235786259174347,0.2898414134979248,-0.2532082200050354,0.09380481392145157,0.055247802287340164,0.08633705973625183,-0.18410064280033112,-0.23336616158485413,0.36629849672317505,0.23467561602592468,0.09712353348731995,0.07726544886827469,0.12495134025812149,0.028193829581141472,0.07778636366128922,0.011254753917455673,-0.0046091228723526,-0.15235285460948944,0.07560081034898758,-0.11707945168018341,-0.2812020182609558,0.03579474613070488,0.23168253898620605,0.02595975250005722,0.003648105775937438,-0.11153104901313782,0.04524180293083191,0.03500412777066231,-0.015934469178318977,-0.08333580195903778,0.17065489292144775,-0.25846996903419495,-0.03845461085438728,-0.2244439423084259,0.06935323774814606,0.13166551291942596,0.05321753770112991,0.19979865849018097,-0.24277156591415405,-0.23965494334697723,-0.02743840031325817,-0.2565295696258545,0.11898297816514969,-0.10055062174797058,0.22126047313213348,0.3447612524032593,-0.14458154141902924,0.10512907803058624,-0.09435153007507324,-0.06142144277691841,0.20164230465888977,-0.284743994474411,-0.06492461264133453,-0.08668271452188492,-0.0016760177677497268,0.04590029641985893,-0.014102431014180183,-0.09285140782594681,0.0557229146361351,0.08728565275669098,0.1061764732003212,0.17061801254749298,0.015075616538524628,0.02137102000415325,-0.2122012823820114,-0.023900946602225304,-0.2390793114900589,-0.1472170054912567,0.012479037046432495,-0.005762016400694847,0.14137299358844757,0.021854007616639137,-0.055988237261772156,-0.2772318720817566,0.03274921700358391,0.07719016075134277,-0.051832374185323715,-0.044876132160425186,-0.12913154065608978,-0.05978305637836456,-0.1584862619638443,-0.11383082717657089,0.20872651040554047,0.1864577680826187,0.19632212817668915,-0.029753802344202995,0.1366962045431137,-0.28740569949150085,-0.3367934226989746,-0.009520788677036762,-0.13113735616207123,-0.0626213327050209,-0.13698774576187134,-0.13674180209636688,-0.0261361263692379,-0.0000852952289278619,0.007654851768165827,0.2440056949853897,-0.14895525574684143,-0.1052715852856636,-0.05630087852478027,-0.09469115734100342,0.23281681537628174,0.12368915230035782,0.016701703891158104,-0.04812948778271675,-0.11454176157712936,-0.13822007179260254,-0.2737100124359131,0.17072904109954834,-0.09156358987092972,0.23216287791728973,-0.013674547895789146,-0.20290793478488922,-0.02671823836863041,-0.08212187886238098,0.07737592607736588,-0.13334667682647705,-0.5633540153503418,0.22914251685142517,0.025323327630758286,0.4873891770839691,-0.07538560777902603,0.12708508968353271,0.39977625012397766,0.1606009304523468,-0.2942219376564026,-0.47680163383483887,-0.07621516287326813,0.27625828981399536,-0.08811099827289581,0.09887510538101196,0.03511795029044151,0.26246848702430725,-0.012315378524363041,0.21488139033317566,-0.019207702949643135,-0.059721436351537704,0.07092567533254623,0.018720027059316635,-0.030987657606601715,-0.20576955378055573,0.09913074970245361,-0.23573951423168182,-0.08570687472820282,-0.10631642490625381,-0.08054839074611664,0.03797745332121849,0.25244125723838806,0.1423349380493164,-0.12763170897960663,-0.6066117882728577,-0.07329975068569183,-0.23590365052223206,-0.7744492888450623,-0.11763085424900055,0.16939885914325714,0.5671563744544983,-0.1724214404821396,-0.15422914922237396,0.4017420709133148,0.1997431516647339,0.3179774582386017,-0.06440265476703644,-0.07739266753196716,0.1565825194120407,0.36551418900489807,-0.14627042412757874,0.13158273696899414,-0.08871611952781677,-0.04301103949546814,0.21043461561203003,-0.2489793747663498,0.025116778910160065,-0.48232796788215637,0.28140154480934143,0.2231864184141159,-0.3578314483165741,-0.44859951734542847,0.007599242497235537,-0.4421783983707428,0.8252674341201782,-0.04682791978120804,0.008871662430465221,-0.05319109931588173,0.17024816572666168,-0.06596141308546066,0.3146066665649414,0.14564523100852966,0.1406240165233612,0.02142270840704441,0.09151937812566757,-0.03708644583821297,0.4137274920940399,-0.04346904903650284,-0.05277105048298836,-0.09286206215620041,-0.20430435240268707,0.0055958847515285015,-0.4627789556980133,-0.13712935149669647,-0.15398003160953522,0.13422568142414093,0.31570637226104736,-0.5608344674110413,0.1399254947900772,0.1745471954345703,0.22259214520454407,-0.3040195107460022,-0.13964225351810455,-0.19629159569740295,-0.031345441937446594,0.24932511150836945,0.011235777288675308,-0.5475773811340332,0.3143216073513031,-0.22355812788009644,0.2773228585720062,-0.05676926672458649,-0.09873010218143463,0.3138774335384369,-0.08063606917858124,-0.1592056006193161,-0.30528151988983154,-0.291537880897522,-0.13047844171524048,0.018201949074864388,0.31890031695365906,0.16508404910564423,-0.14785850048065186,-0.03071599081158638,0.1478969156742096,0.0986839234828949,-0.25565025210380554,0.13956144452095032,0.08699432015419006,-0.09200384467840195,-0.20637857913970947,0.07541967183351517,-0.00821321178227663,-0.1017705425620079,-0.3513064384460449,-0.35668787360191345,-0.19601118564605713,0.13025115430355072,0.11070769280195236,-0.1803223043680191,-0.2319817990064621,-0.10219785571098328,-0.11309435218572617,-0.7166193127632141,0.1179937943816185,-0.12331489473581314,0.25143197178840637,0.27479884028434753,-0.1551744043827057,0.11601585149765015,0.0665997788310051,0.13865028321743011,0.014164052903652191,0.0528087243437767,0.18339891731739044,-0.16213975846767426,-0.329643189907074,-0.13427792489528656,-0.1712619960308075,0.30700570344924927,0.0007096161716617644,0.058579787611961365,0.11459386348724365,-0.10913471132516861,0.2393082231283188,0.12326707690954208,-0.13352546095848083,0.3625907599925995,0.053987354040145874,-0.02954847738146782,0.051104895770549774,0.052019957453012466,-0.09504813700914383,-0.023231657221913338,0.21344318985939026,0.004980698227882385,-0.14467543363571167,-0.12122661620378494,-0.2149762362241745,-0.31884440779685974,0.19276131689548492,-0.04863429442048073,-0.064390629529953,0.16879835724830627,-0.17384909093379974,-0.11497064679861069,0.1712111085653305,-0.10716784745454788,0.29886624217033386,-0.2784562110900879,0.1381545215845108,0.4042667746543884,0.24760563671588898,-0.47670358419418335,0.3709336519241333,-0.026357173919677734,-0.10778199136257172,-0.25797346234321594,0.2467104196548462,0.17838351428508759,0.08966419100761414,-0.2401689738035202,0.009065833874046803,-0.298526793718338,-0.35018008947372437,0.05347445607185364,-0.19520442187786102,0.03367475047707558,0.025184011086821556,-0.15378527343273163,-0.0619068406522274,-0.06362975388765335,-0.02517925761640072,0.1827588826417923,-0.23854482173919678,-0.24877992272377014,0.01225452683866024,-0.15394626557826996,0.02255137637257576,0.1556650549173355,-0.34717950224876404,0.048666276037693024,0.12371385842561722,-0.05503734573721886,0.12972953915596008,0.2776153087615967,0.043359167873859406,-0.1783401519060135,-0.1748979687690735,-0.015113119035959244,0.08338762074708939,0.020176831632852554,0.1867535412311554,-0.15217991173267365,-0.015908582136034966,-0.09967683255672455,-0.3587315082550049,-0.075641930103302,0.08826747536659241,-0.11233289539813995,-0.06729317456483841,-0.09684868901968002,0.17115870118141174,-0.03354211151599884,0.265577107667923,-0.06038494408130646,-0.03591800108551979,-0.052625805139541626,0.02310882695019245,-0.0009407027973793447,-0.24423164129257202,-0.1556255966424942,0.06628011167049408,0.13909494876861572,-0.010720537044107914,0.08655822277069092,0.06453072279691696,-0.16637524962425232,-0.08712487667798996,-0.06602424383163452,0.2520478367805481,0.055784668773412704,-0.09872627258300781,-0.06728291511535645,0.3501115143299103,-0.06364332884550095,0.12619462609291077,-0.2952824532985687,0.1319025456905365,0.034126345068216324,-0.09400903433561325,0.2715487778186798,0.13119246065616608,-0.2977946400642395,-0.26629355549812317,-0.1572135090827942,0.019182279706001282,-0.030728207901120186,0.05592099949717522,-0.16104109585285187,-0.21600745618343353,-0.03241216391324997,-0.06651606410741806,-0.0009870128706097603,0.15137401223182678,0.2510189116001129,-0.2098197638988495,-0.4443751871585846,0.18185776472091675,-0.12134385108947754,-0.001523120328783989,-0.29233187437057495,-0.11194083094596863,0.025791047140955925,0.0010439498582854867,0.160101518034935,-0.06262922286987305,-0.0228034146130085,0.008774984627962112,0.2643563449382782,-0.3109888434410095,0.21100296080112457,-0.0038459438364952803,0.31147485971450806,-0.08541136980056763,0.030403774231672287,0.055835895240306854,-0.0341339185833931,-0.29020819067955017,0.13758382201194763,0.035066869109869,0.06944294273853302,-0.13938988745212555,0.00022238378005567938,0.23995673656463623,-0.00014067330630496144,-0.10812531411647797,0.00005949720070930198,0.15997444093227386,-0.21891097724437714,0.07869043201208115,0.04425282031297684,0.14867225289344788,0.07297775894403458,0.004703857935965061,-0.05787527933716774,0.05261121317744255,0.14765100181102753,0.22767771780490875,-0.16249923408031464,-0.024886492639780045,0.4284974932670593,0.06845511496067047,-0.1291055828332901,-0.0374201275408268,0.2202463001012802,0.2734852433204651,-0.13787220418453217,0.04435281828045845,-0.05700989440083504,0.06520663946866989,-0.19669599831104279,-0.03410065174102783,-0.18751966953277588,-0.0525100976228714,-0.07449430972337723,0.08410842716693878,-0.15986871719360352,0.20406225323677063,0.11805544048547745,0.12827524542808533,-0.2500794231891632,0.12631025910377502,0.09008527547121048,-0.14812114834785461,-0.27171456813812256,0.45746245980262756,-0.07108500599861145,-0.2547021210193634,-0.07886569947004318,0.17527145147323608,-0.2325408011674881,0.05611009523272514,-0.43901506066322327,0.03232290968298912,-0.15801455080509186,-0.223086416721344,-0.15191668272018433,-0.28546932339668274,0.15886345505714417,0.21384239196777344,0.13614696264266968,-0.16507112979888916,0.06743451207876205,0.22066408395767212,0.06981541216373444,0.19894857704639435,0.06524942815303802,-0.2243126779794693,0.03696375712752342,0.7757074236869812,0.5161389112472534,-0.2902330160140991,0.007592867594212294,-0.051483094692230225,-0.33580130338668823,-0.29386547207832336,0.4582366645336151,0.22737517952919006,0.25065848231315613,-0.12040014564990997,-0.0318174734711647,-0.19186891615390778,0.14869537949562073,0.10088449716567993,-0.35787904262542725,-0.10294611752033234,0.15625517070293427,-0.06980409473180771,0.23794028162956238,-0.07457547634840012,0.08645348995923996,0.24252139031887054,0.0505823977291584,0.21870164573192596,0.33161669969558716,0.11496531963348389,0.29032984375953674,-0.131037637591362,-0.3702361285686493,-0.4644608497619629,0.06292480230331421,-0.16818946599960327,0.20807279646396637,-0.11607015132904053,0.059064775705337524,-0.28242743015289307,-0.2815580368041992,-0.2288081794977188,-0.2920267581939697,0.16902783513069153,0.30084627866744995,-0.39634302258491516,0.25276240706443787,-0.08200036734342575,0.11272215098142624,0.06541938334703445,-0.04446834325790405,1.0445892810821533,-0.1603899449110031,0.04212509095668793,0.86616450548172,-0.06268570572137833,-0.5592767000198364,-0.1881318837404251,-0.31343257427215576,-0.16655468940734863,0.18681693077087402,0.030590996146202087,0.29158344864845276,0.022715594619512558,-0.25707146525382996,-0.25666117668151855,-0.159032940864563,-0.0015120927710086107,0.12412070482969284,0.14991141855716705,0.12648914754390717,0.1528022438287735,0.16275817155838013,0.0957183912396431,-0.041546765714883804,0.2488836795091629,0.1745246797800064,0.27700698375701904,-0.324375182390213,0.19014890491962433,-0.3387008607387543,0.3095002770423889,0.027941763401031494,0.264426052570343,0.13544383645057678,-0.25638216733932495,0.03012636862695217,0.037946924567222595,-0.1019386276602745,-0.19543932378292084,0.14097391068935394,-0.04774576425552368,-0.17754913866519928,0.0919680967926979,0.02159685082733631,0.012447564862668514,0.2070925533771515,0.14517782628536224,0.08407683670520782,-0.10213322192430496,0.5154671669006348,0.2580251097679138,0.1352372020483017,0.022596722468733788,-0.268917977809906,-0.03356054052710533,-0.01904686540365219,-0.13453969359397888,0.38487595319747925,-0.09001951664686203,0.10394643992185593,-0.3672275245189667,-0.13808447122573853,-0.041247665882110596,-0.32569175958633423,0.662024974822998,0.10940483957529068,-0.005509460344910622,0.06322942674160004,0.09599310904741287,0.060123227536678314,0.1976989209651947,-0.007164155598729849,0.1971098631620407,0.024168552830815315,0.2278527021408081,0.053540460765361786,0.2771926522254944,-0.07970721274614334,-0.25157538056373596,0.12349620461463928,-0.1753433495759964,0.033251259475946426,0.2222173511981964,0.06047183275222778,0.066842220723629,-0.2820216715335846,-0.033622801303863525,-0.23162336647510529,-0.08715646713972092,-0.01936865784227848,0.04214406758546829,0.00460121501237154,0.005636724643409252,-0.09912072867155075,0.07686116546392441,0.1515422910451889,0.03457628935575485,-0.5236217379570007,0.033719502389431,-0.013879913836717606,0.2940046489238739,-0.12389316409826279,0.10666852444410324,0.4162771701812744,0.02154322899878025,0.014125453308224678,-0.08636016398668289,-0.08086393028497696,-0.0857490673661232,-0.060109298676252365,-0.0012384122237563133,-0.5511581301689148,0.11606115847826004,0.0031055693980306387,0.1464923620223999,-0.08148070424795151,-0.00232303561642766,-0.01744997501373291,0.1626543402671814,0.08150467276573181,-0.30425798892974854,0.05648435279726982,0.07661885023117065,0.19856709241867065,0.06350395828485489,-0.03664085641503334,0.01041060034185648,0.00034012782271020114,-0.14934447407722473,0.15106487274169922,0.08867719024419785,-0.1419074982404709,0.02334953099489212,-0.1366262435913086,0.0695517510175705,-0.11630111932754517,0.1374443918466568,0.13698627054691315,-0.2996726334095001,-0.10463070869445801,0.03554917126893997,0.3448640704154968,0.09242071956396103,0.0456220768392086,0.060469165444374084,-0.17138303816318512,0.2039419263601303,-0.2928922772407532,-0.13860152661800385,-0.054023340344429016,0.2637225091457367,-0.01172465831041336,-0.10485534369945526,0.26141124963760376,-0.1154467836022377,0.19381265342235565,-0.02244218997657299,0.06519877910614014,-0.09924657642841339,-0.14260120689868927,-0.26867273449897766,-0.1517409086227417,-0.2555699646472931,0.08178011327981949,-0.12240207195281982,-0.047737542539834976,-0.068616583943367,-0.1125754863023758,-0.19941775500774384,0.10806062072515488,-0.3629496395587921,-0.052988652139902115,0.3598000407218933,0.10362546890974045,-0.17350628972053528,-0.16178534924983978,-0.10947392880916595,0.015606564469635487,0.06679507344961166,0.06281711906194687,0.1459435075521469,-0.2027060091495514,-0.027007807046175003,0.02059464156627655,0.11715991795063019,0.09494104981422424,-0.11545133590698242,0.0037927499506622553,-0.20485873520374298,-0.046284060925245285,-0.05659456178545952,0.11945021152496338,0.1678345948457718,-0.03156958147883415,-0.04393932968378067,-0.23545724153518677,-0.3110677897930145,-0.18994729220867157,0.09505882114171982,0.009941979311406612,-0.17947156727313995,-0.004193470813333988,-0.015496759675443172,-0.0102151520550251,-0.014308718033134937,-0.028130117803812027,0.5626827478408813,0.17900429666042328,-0.02340085431933403,-0.03816232457756996,-0.320734441280365,-0.068491131067276,-0.09348830580711365,-0.04003159701824188,-0.05674513429403305,0.2324911206960678,0.18805767595767975,0.139031320810318,-0.05212334915995598,0.03331833332777023,-0.2367987036705017,0.29668179154396057,-0.3027156889438629,-0.28379881381988525,0.08022579550743103,-0.07175236940383911,-0.001633074483834207,-0.27238354086875916,-0.2109776884317398,0.06490308046340942,0.3745045065879822,-0.14181703329086304,0.1313042938709259,0.30034831166267395,-0.09072302281856537,-0.09084387868642807,-0.10094311833381653,-0.052800100296735764,0.02291368506848812,-0.44427165389060974,0.27213552594184875,0.1326727271080017,0.12794628739356995,-0.3743707239627838,-0.4470851719379425,0.004801375791430473,0.14297015964984894,-0.01944287307560444,-0.19618305563926697,-0.23002830147743225,0.11498736590147018,0.11794804036617279,0.2446223944425583,-0.19232173264026642,-0.017394138500094414,0.2482578605413437,-0.07125555723905563,-0.06872004270553589,-0.17147886753082275,0.12722726166248322,-0.24796569347381592,0.2226354479789734,0.2311665564775467,-0.1828327625989914,0.0691181942820549,0.09584298729896545,-0.29096493124961853,0.14346766471862793,0.06475284695625305,0.05115729942917824,0.026554640382528305,-0.15869022905826569,0.05372219905257225,0.11861398816108704,0.18018537759780884,0.02543405070900917,-0.001431929529644549,0.2704490125179291,0.0042385198175907135,-0.0071050310507416725,-0.04230279475450516,-0.048050567507743835,-0.06030696630477905,-0.05809807777404785,-0.16071182489395142,-0.03145132586359978,0.019708963111042976,0.023801829665899277,-0.2369871735572815,-0.2658224403858185,-0.1455591470003128,0.381801962852478,-0.04074462130665779,-0.3495185077190399,0.35174039006233215,0.26173368096351624,0.17302830517292023,-0.1213223859667778,0.07129675894975662,-0.08223075419664383,-0.011368378065526485,0.17413443326950073,0.04658382758498192,-0.017389684915542603,0.015227208845317364,-0.02244732156395912,0.26514363288879395,0.025569669902324677,-0.15870815515518188,-0.2347898781299591,0.09624644368886948,0.09669652581214905,0.04759664833545685,0.02691047079861164,-0.09947706758975983,0.17681115865707397,0.07525632530450821,0.06622954457998276,-0.0932336151599884,-0.5510376691818237,0.8590104579925537,0.33102303743362427,-0.5553278923034668,0.19423481822013855,-0.01861375942826271,-0.11911775171756744,0.3426781892776489,-0.7826980352401733,0.8930465579032898,0.5254731774330139,-0.04596443474292755,-0.33682695031166077,0.22670133411884308,-0.6784225106239319,0.008533421903848648,-0.07205160707235336,0.05357133969664574,0.039029236882925034,0.2967992424964905,0.06547471880912781,0.13149236142635345,0.21173854172229767,0.2630932629108429,-0.008731924928724766,0.19230543076992035,-0.16381385922431946,-0.01849381998181343,0.2881343960762024,-0.20298101007938385,0.09337935596704483,0.32035619020462036,0.012130492366850376,0.010586782358586788,-0.04619462043046951,0.03331655263900757,0.09632836282253265,0.05642726644873619,-0.27268463373184204,-0.16330154240131378,0.001991224940866232,0.04894696921110153,-0.3105936348438263,-0.21039831638336182,-0.10785140097141266,0.19061055779457092,-0.2538032829761505,-0.04354630783200264,-0.2601161003112793,0.14658001065254211,-0.16490538418293,-0.18150755763053894,-0.2508152723312378,-0.16988547146320343,-0.16073165833950043,-0.12879154086112976,-0.04181663691997528,-0.19592736661434174,0.1230955719947815,0.18191076815128326,-0.048315778374671936,0.0592147596180439,0.02475873939692974,0.16766147315502167,0.0826290026307106,-0.027902916073799133,0.16432376205921173,-0.06746507436037064,0.11135915666818619,-0.029518064111471176,0.08885566890239716,0.03547833859920502,-0.057080626487731934,-0.09560184180736542,0.23295192420482635,0.04981841519474983,0.09666429460048676,-0.02733706682920456,-0.03946937620639801,-0.014713408425450325,-0.14826516807079315,0.25578442215919495,-0.12547604739665985,-0.11239808797836304,-0.1714349389076233,-0.14481469988822937,-0.05265139788389206,0.2568366527557373,-0.2580549120903015,-0.2016293704509735,-0.08192307502031326,-0.05185272544622421,-0.05834227427840233,-0.015223551541566849,-0.1471124142408371,-0.2700287699699402,0.09269246459007263,0.02150729112327099,-0.09121021628379822,0.08236061781644821,-0.4315473139286041,0.463378369808197,-0.02019062265753746,0.07165936380624771,0.03728450462222099,0.0031378103885799646,0.060827698558568954,0.1366172432899475,0.04368382692337036,0.10390782356262207,0.40798598527908325,0.20790623128414154,0.14649036526679993,-0.185125932097435,0.0762423425912857,0.16411201655864716,0.2054763287305832,0.028115293011069298,-0.09174904972314835,-0.1533093899488449,0.16992047429084778,0.25119200348854065,-0.1960611790418625,0.013479495421051979,0.10107530653476715,0.02994237095117569,0.32523399591445923,0.21932147443294525,0.2273145169019699,-0.3845154047012329,0.08440525829792023,0.22564543783664703,-0.043120574206113815,0.10802825540304184,-0.1895807981491089,-0.13000425696372986,0.2937941253185272,0.08738015592098236,0.23481574654579163,-0.13284865021705627,-0.011412275955080986,0.2562616169452667,0.02908610738813877,-0.029110971838235855,0.1117100641131401,-0.1214483380317688,0.12582848966121674,0.0687129870057106,0.3472086787223816,-0.12022493034601212,0.024872684851288795,-0.09570536762475967,0.03597119078040123,0.12114380300045013,0.20298944413661957,-0.2131241261959076,0.017065510153770447,0.03440937027335167,0.04929431900382042,0.2423059344291687,-0.08069028705358505,-0.15837623178958893,0.1592494696378708,0.0016730305505916476,0.13326168060302734,0.34561121463775635,-0.05255749076604843,-0.3939729630947113,0.20121514797210693,0.13280875980854034,-0.042853664606809616,0.0007229840848594904,0.37940770387649536,0.11395718157291412,-0.05553459748625755,0.21550661325454712,-0.16997505724430084,0.155783548951149,-0.2783253490924835,0.12455151230096817,-0.13659068942070007,-0.12650790810585022,-0.07264947891235352,0.228260338306427,-0.020035967230796814,-0.2237161099910736,-0.21650002896785736,-0.12590017914772034,-0.29218295216560364,0.07608398795127869,0.10363113880157471,-0.034122761338949203,-0.007191190496087074,0.1317482888698578,0.013401011005043983,-0.2025882452726364,0.14395229518413544,0.06575419008731842,0.0647217407822609,0.019377905875444412,-0.1821666657924652,-0.1956416219472885,0.33732593059539795,-0.1711561530828476,-0.18523122370243073,0.0340852327644825,0.0013400745810940862,-0.15956436097621918,-0.08225565403699875,-0.03294503316283226,0.033751629292964935,0.23667879402637482,0.06554669141769409,-0.30079907178878784,-0.1389826536178589,0.18516258895397186,0.13474524021148682,-0.19566594064235687,-0.2638818621635437,0.03453030437231064,0.1061103567481041,0.25591811537742615,0.13441109657287598,-0.16327546536922455,0.0920286625623703,-0.03989782929420471,0.04175766557455063,0.004694086499512196,-0.23391161859035492,0.11837955564260483,-0.11462409794330597,0.1412549763917923,-0.06411190330982208,0.07957156002521515,-0.35897359251976013,-0.04551275074481964,0.07622716575860977,0.019288161769509315,-0.22782091796398163,-0.0024096795823425055,0.14619481563568115,-0.09911832213401794,0.009045973420143127,-0.033923130482435226,0.0035204063169658184,0.16140961647033691,-0.18661923706531525,0.028548143804073334,0.045775074511766434,0.15550459921360016,0.2033933848142624,-0.01184745505452156,-0.0043326206505298615,-0.040632717311382294,-0.32786399126052856,0.02271931618452072,-0.0180631373077631,-0.019903820008039474,-0.17030233144760132,0.036520570516586304,-0.06796131283044815,0.08767905086278915,-0.16908036172389984,-0.02216353639960289,0.020100492984056473,0.12178263813257217,0.16082008183002472,-0.3042825162410736,-0.05891573801636696,0.0464002825319767,0.09995174407958984,0.14245133101940155,0.01997019723057747,0.13726100325584412,0.11046183854341507,-0.03034067712724209,0.19216914474964142,0.05815381556749344,-0.06486205011606216,-0.0781954750418663,-0.20157058537006378,0.047144562005996704,0.11072102934122086,0.09291572868824005,0.13313643634319305,0.06294059008359909,0.02370615117251873,0.12964217364788055,-0.2081894874572754,0.32487916946411133,-0.17256879806518555,-0.07574105262756348,-0.03978179395198822,-0.03814554959535599,0.022469745948910713,-0.01806407794356346,0.09205203503370285,0.002883792156353593,-0.05428457632660866,0.159657821059227,-0.02030072920024395,-0.0976475179195404,-0.27174633741378784,-0.08076611906290054,0.10906491428613663,0.01783752627670765,-0.06021343544125557,-0.21170476078987122,0.12154234945774078,0.012391661293804646,0.010356185957789421,-0.09499745815992355,-0.07874814420938492,-0.020487094298005104,-0.10986331105232239,0.1577533483505249,-0.11370348930358887,-0.026600470766425133,-0.029323941096663475,0.4405894875526428,0.0493292473256588,-0.0965009555220604,-0.16361205279827118,-0.024710897356271744,-0.20174548029899597,-0.3193139135837555,-0.18802976608276367,0.013927380554378033,0.15022623538970947,-0.24349944293498993,-0.1470993608236313,0.02627478539943695,0.06700704991817474,-0.10351496934890747,-0.09711791574954987,0.16710002720355988,-0.0018057927954941988,-0.012953365221619606,0.20185574889183044,0.020545464009046555,-0.05322401598095894,-0.017846541479229927,0.08503035455942154,-0.12283705919981003,0.2568041682243347,-0.12443239986896515,-0.2226245105266571,0.19512712955474854,0.010813207365572453,0.0377776138484478,0.20190821588039398,0.13220922648906708,-0.19471651315689087,-0.36632293462753296,-0.08756746351718903,-0.02235172875225544,-0.058472875505685806,-0.42167311906814575,-0.07581374794244766,-0.11820001900196075,0.12716904282569885,-0.0755559578537941,0.04492238909006119,0.24444934725761414,0.24288202822208405,-0.20845486223697662,0.13108886778354645,0.04510621353983879,0.15872889757156372,-0.18259581923484802,-0.15037032961845398,0.0478329174220562,-0.026401201263070107,-0.04431971535086632,-0.2630636990070343,0.27604901790618896,-0.08667834848165512,-0.11946715414524078,0.40054747462272644,0.128505140542984,0.20809084177017212,-0.15467818081378937,-0.15652038156986237,0.22813229262828827,-0.24942874908447266,-0.17799954116344452,-0.1121520921587944,-0.1578761786222458,-0.17000149190425873,-0.11080100387334824,-0.11595524847507477,0.10687323659658432,-0.023938078433275223,-0.004388018511235714,0.19970905780792236,0.20409534871578217,-0.035148367285728455,0.08202452957630157,0.3604241907596588,-0.09475729614496231,-0.14474816620349884,-0.1878380924463272,-0.09453672170639038,0.0759166032075882,-0.1254909634590149,0.1751938909292221,0.14295527338981628,-0.2534703016281128,0.005588748957961798,0.13028092682361603,0.2543599307537079,0.16926856338977814,-0.036803945899009705,-0.1522364318370819,0.04369737207889557,0.07248634099960327,0.0688629075884819,-0.04854718968272209,-0.08900454640388489,-0.09045016765594482,0.21533414721488953,-0.2190352976322174,-0.21397510170936584,-0.04402681067585945,0.10661790519952774,0.08284689486026764,-0.27139154076576233,-0.0049921623431146145,-0.006732563022524118,0.10637319833040237,0.04443996399641037,0.045437224209308624,-0.0725298672914505,0.10275956988334656,-0.20611883699893951,-0.07880093902349472,-0.03610963374376297,0.5088778734207153,0.2022489756345749,0.14023518562316895,-0.0528569221496582,0.03537263721227646,0.05579422786831856,0.13075289130210876,-0.007676273584365845,-0.21933118999004364,-0.17104949057102203,-0.22772495448589325,-0.15759320557117462,0.04382609948515892,-0.01042012870311737,-0.0011931038461625576,-0.1441054493188858,0.17236880958080292,0.19115452468395233,0.04124422371387482,-0.17524658143520355,0.014422068372368813,-0.11957429349422455,-0.24750123918056488,0.032872408628463745,0.14102418720722198,0.2686321437358856,-0.09753597527742386,0.028809966519474983,0.1815682351589203,-0.0030255159363150597,0.03904092311859131,0.288139671087265,-0.3993385136127472,0.18694593012332916,0.004890583921223879,-0.06831599026918411,-0.05018965154886246,0.024218829348683357,-0.10589977353811264,-0.1538972556591034,-0.0005006128340028226,-0.0289662703871727,0.07245998084545135,-0.17314882576465607,-0.037037450820207596,-0.010268797166645527,0.004160379990935326,0.06682328879833221,-0.2494087815284729,0.029997970908880234,0.23643825948238373,0.2417374551296234,-0.11743161827325821,-0.17634153366088867,0.039940353482961655,-0.1926853209733963,0.006111661437898874,-0.23282663524150848,0.2242189198732376,0.046675704419612885,-0.09932451695203781,0.24687765538692474,-0.048864904791116714,0.11217862367630005,0.15709148347377777,-0.08722951263189316,0.040868327021598816,0.25372233986854553,-0.24090887606143951,-0.192753866314888,-0.04749174043536186,0.06354881078004837,0.12117480486631393,0.009383369237184525,-0.1651201993227005,-0.15497364103794098,-0.24568475782871246,-0.010211063548922539,-0.1017947569489479,0.025981949642300606,-0.24143116176128387,-0.2220534384250641,-0.12337843328714371,-0.23873119056224823,0.023855963721871376,0.11704399436712265,0.04135839641094208,-0.062163930386304855,-0.22027285397052765,0.029768256470561028,0.12740439176559448,0.015280620194971561,-0.022649010643363,-0.021404778584837914,-0.3056865334510803,-0.11705028265714645,-0.06815093010663986,-0.064239501953125,0.4054276645183563,-0.00027729940484277904,0.07862106710672379,-0.35371315479278564,0.10824034363031387,-0.177693709731102,-0.07275247573852539,-0.11094090342521667,0.02941822074353695,-0.10876068472862244,-0.04108068346977234,0.20448574423789978,0.032734282314777374,0.04732354357838631,-0.052807096391916275,-0.03694913536310196,-0.05116308480501175,0.05569180101156235,-0.21342380344867706,-0.07824863493442535,0.0016603987896814942,0.05340753123164177,0.07351811230182648,-0.08136916905641556,-0.1741783171892166,-0.013089006766676903,-0.16874894499778748,0.25200533866882324,0.1261739432811737,-0.02809927985072136,0.01813926361501217,0.010210287757217884,0.1201198399066925,-0.24280104041099548,-0.0469101257622242,0.17169372737407684,0.04894722253084183,-0.025659581646323204,0.01617121323943138,0.03450394421815872,-0.09189578890800476,-0.15471743047237396,-0.18595725297927856,-0.025516647845506668,-0.026909369975328445,-0.16489176452159882,0.08438387513160706,0.04045236110687256,-0.05984944850206375,0.21996013820171356,0.1283116191625595,-0.17337191104888916,0.006457716692239046,0.1564231663942337,0.015704646706581116,-0.22943826019763947,-0.0375184565782547,-0.09352511167526245,-0.11777298897504807,-0.04893302917480469,-0.317876935005188,0.07056839019060135,-0.22754597663879395,-0.07100086659193039,-0.104775071144104,0.1001003161072731,0.038789939135313034,0.04920783266425133,0.16247856616973877,-0.05998827517032623,0.14434412121772766,0.11491024494171143,0.10615954548120499,-0.015231628902256489,0.1360098421573639,-0.02760179154574871,0.05598215013742447,0.12113147974014282,0.014615596272051334,-0.03689388930797577,-0.0874369814991951,0.00922581646591425,-0.044908307492733,0.07402759045362473,0.08648122102022171,-0.016360577195882797,0.0388781912624836,-0.2522132098674774,-0.18178139626979828,0.29981955885887146,-0.0051458654925227165,0.06191861629486084,-0.37923210859298706,0.12034302949905396,-0.06187289580702782,0.09222007542848587,0.2272326648235321,-0.021253447979688644,0.42116668820381165,0.02769932709634304,-0.05352940037846565,0.14081132411956787,-0.05184691771864891,0.3944961428642273,0.11888660490512848,-0.1174439787864685,0.07230452448129654,-0.4111412763595581,0.05099570378661156,-0.25004780292510986,-0.13818281888961792,0.024888155981898308,-0.014186845161020756,-0.06831317394971848,0.24493582546710968,-0.09164328128099442,-0.05413607135415077,-0.04849810153245926,-0.18092390894889832,-0.29231852293014526,-0.00494216987863183,0.12992601096630096,-0.05913301557302475,0.015149177052080631,0.01673385687172413,0.009066294878721237,-0.10004640370607376,-0.18947625160217285,-0.415497750043869,0.034471020102500916,-0.1759379357099533,-0.1957351416349411,-0.058497484773397446,0.06810862571001053,-0.10224287956953049,0.032924387603998184,-0.025368893519043922,-0.20610766112804413,-0.05094539746642113,0.03576832637190819,0.0029299017041921616,0.4719865322113037,0.06670528650283813,-0.12367884069681168,-0.1353660672903061,-0.08078119158744812,-0.23001597821712494,-0.012842965312302113,-0.06665348261594772,0.0009695664630271494,0.06919156014919281,0.1141238808631897,0.12530457973480225,-0.3174597918987274,-0.0812695100903511,-0.007900168187916279,-0.04430199787020683,0.03967002034187317,-0.22827723622322083,-0.21552473306655884,-0.12345068156719208,-0.006362963002175093,-0.06704449653625488,0.040343355387449265,0.3356931805610657,0.016781341284513474,-0.050618976354599,0.02838781848549843,-0.05409204214811325,0.19129414856433868,0.01350165344774723,0.0383811816573143,0.06429948657751083,-0.09147176146507263,-0.2783198654651642,-0.11914388090372086,0.2561700940132141,-0.052229542285203934,0.048023760318756104,0.30075278878211975,-0.10549704730510712,0.09781043976545334,-0.28834572434425354,0.2455201894044876,-0.04008358344435692,0.11036354303359985,-0.26355990767478943,0.11620445549488068,-0.0769561156630516,0.16311563551425934,-0.015161210671067238,0.048169489949941635,0.2324419468641281,0.06878899782896042,-0.0224120132625103,0.10910508781671524,0.15718933939933777,0.08303645998239517,-0.006559356581419706,0.18710972368717194,-0.12085189670324326,-0.5828766822814941,0.036875952035188675,0.10130968689918518,0.14387525618076324,0.006742555182427168,0.21449454128742218,0.13356241583824158,-0.13978388905525208,-0.028648236766457558,0.06456038355827332,-0.06898847222328186,0.13036732375621796,0.11099408566951752,-0.14130578935146332,0.22549565136432648,0.03204430267214775,0.02981731854379177,-0.04378562048077583,-0.02822810970246792,0.201838880777359,-0.0020819518249481916,-0.1289413720369339,-0.03291169926524162,0.16661441326141357,-0.19530385732650757,-0.13252408802509308,0.11898218095302582,0.10426273196935654,0.20040252804756165,0.039107706397771835,0.055946990847587585,0.09876576066017151,0.05095456540584564,0.23299889266490936,-0.024738959968090057,-0.1324300616979599,-0.05492127314209938,-0.1265554130077362,0.07942051440477371,-0.06489665061235428,0.009893406182527542,0.13937656581401825,-0.22292472422122955,-0.10598063468933105,-0.0386967808008194,-0.12526819109916687,0.04949609190225601,-0.08168438076972961,0.10039854049682617,0.13827338814735413,-0.09886126965284348,-0.21550151705741882,0.004075287375599146,0.018185047432780266,0.00399070093408227,0.017020070925354958,0.14911365509033203,0.08012311905622482,0.10058178752660751,-0.10546156764030457,-0.4741106331348419,0.02441272884607315,-0.12188895791769028,-0.055179663002491,-0.04123934730887413,0.07214876264333725,-0.18903996050357819,0.0780770480632782,-0.169728621840477,0.35869300365448,0.1172623261809349,-0.20177018642425537,-0.0757376179099083,-0.07072487473487854,-0.028365496546030045,0.039060499519109726,0.15006425976753235,0.18165312707424164,-0.00591889675706625,-0.07546726614236832,0.11532771587371826,0.011191845871508121,0.18510441482067108,0.15305915474891663,-0.13651619851589203,-0.09683956950902939,-0.10801060497760773,0.003321768017485738,-0.017975926399230957,-0.02739560604095459,0.17225246131420135,-0.047016069293022156,0.003174959681928158,-0.059996187686920166,-0.06152746081352234,-0.11711536347866058,-0.3115529417991638,0.14677107334136963,-0.0983818769454956,0.0013880460755899549,0.15353547036647797,-0.2535974979400635,0.12494328618049622,-0.20958684384822845,-0.05555751174688339,0.18571950495243073,-0.0011729600373655558,0.13378220796585083,0.14322148263454437,-0.011571209877729416,-0.08284370601177216,0.2609146237373352,0.1027282103896141,0.03926627337932587,-0.20482924580574036,0.09966161847114563,0.09565187990665436,-0.0489426888525486,0.22136694192886353,0.20602503418922424,0.29711681604385376,-0.19904464483261108,-0.15214130282402039,-0.06660107523202896,0.17804257571697235,-0.004309994634240866,-0.029993807896971703,0.021978452801704407,0.1501280665397644,-0.008699784055352211,0.04488983750343323,0.061852239072322845,-0.26421934366226196,0.18573179841041565,-0.11123146116733551,0.2645641267299652,-0.04314615949988365,0.2190518081188202,-0.36988335847854614,-0.04653305187821388,0.2186480313539505,-0.09503845870494843,0.024279126897454262,-0.09330584108829498,0.01267029158771038,-0.23847022652626038,-0.10826852917671204,0.04758068174123764,0.001429458730854094,0.15863579511642456,0.13939879834651947,-0.022297782823443413,-0.021244719624519348,-0.06081564724445343,-0.04234326630830765,-0.2177920639514923,-0.006559603847563267,-0.09205064922571182,-0.212505042552948,-0.28735437989234924,-0.22966152429580688,0.08926993608474731,-0.0550709031522274,-0.14471828937530518,-0.07422368228435516,-0.364903062582016,-0.010226305574178696,-0.08605016022920609,0.21915028989315033,-0.07505621016025543,-0.16198568046092987,0.3257157802581787,0.045879386365413666,0.31961339712142944,-0.17001527547836304,0.03838174045085907,0.055378545075654984,0.24785733222961426,0.057842474430799484,0.11617540568113327,-0.042256828397512436,-0.07863525301218033,-0.07158562541007996,-0.013637118972837925,0.04714464768767357,0.12313259392976761,0.003602708224207163,0.07689248770475388,-0.03463288024067879,0.09675294905900955,0.048515405505895615,-0.056964702904224396,-0.04593314975500107,-0.049393437802791595,0.050005923956632614,0.1699979603290558,-0.0027612033300101757,0.05047730728983879,-0.16942794620990753,-0.02799086831510067,-0.049620404839515686,0.16632455587387085,0.014384056441485882,-0.1192137748003006,-0.021910378709435463,-0.07653356343507767,-0.19595706462860107,0.07288018614053726,-0.0030667211394757032,0.08057001978158951,-0.20229583978652954,-0.021748920902609825,0.17815087735652924,-0.39960259199142456,-0.05524587631225586,-0.13207919895648956,0.10757697373628616,-0.05980653315782547,-0.14057688415050507,0.2882006764411926,0.04384411871433258,0.2512289583683014,0.05830564722418785,0.03647523373365402,0.22294455766677856,0.08248614519834518,-0.025224611163139343,0.0929027646780014,0.16316938400268555,0.10005322843790054,0.12159896641969681,0.13086473941802979,-0.06633171439170837,-0.25600722432136536,0.3654823899269104,-0.15270593762397766,-0.25926265120506287,-0.008366377092897892,-0.03668757155537605,0.04514196515083313,-0.04365340247750282,0.014303688891232014,-0.19110623002052307,0.03386927396059036,0.018598631024360657,-0.1736641377210617,-0.060231130570173264,0.06511793285608292,0.1139516606926918,0.06701779365539551,-0.0435972660779953,0.019338984042406082,0.1036602184176445,0.10859332978725433,-0.06046220287680626,-0.001247685868293047,0.003411376615986228,-0.2722332179546356,0.03463009372353554,0.02479935996234417,0.11630382388830185,0.1272827684879303,0.15464340150356293,0.23735322058200836,-0.214514821767807,0.013328738510608673,0.16534152626991272,-0.1831626445055008,-0.06086263433098793,-0.1431795209646225,0.15821626782417297,0.035863399505615234,0.3926638066768646,-0.06138283759355545,-0.021334422752261162,-0.2367037534713745,0.005505846347659826,0.196248859167099,-0.08275416493415833,-0.5470786690711975,-0.08859220147132874,-0.11643090099096298,0.14532145857810974,-0.04086063802242279,0.07999243587255478,0.10251429677009583,0.012307927943766117,0.11449932307004929,-0.2126545011997223,0.10476287454366684,-0.14382518827915192,0.13813579082489014,-0.249410018324852,0.03440730646252632,-0.004818835761398077,0.011756892316043377,-0.07866271585226059,0.01933947205543518,-0.011504633352160454,-0.1329132467508316,-0.08902452141046524,-0.20346033573150635,0.027311153709888458,-0.05467776581645012,0.03888002410531044,-0.08867929875850677,-0.015458466485142708,-0.24482333660125732,0.008329184725880623,0.04352760314941406,-0.19799581170082092,-0.15380291640758514,0.333359032869339,0.12026491016149521,0.013495764695107937,0.06540417671203613,0.03751445561647415,0.09467379748821259,0.17565734684467316,-0.2346692979335785,0.035063568502664566,0.1218302771449089,-0.06558310985565186,0.04401710629463196,0.06178032606840134,-0.179214209318161,0.057366061955690384,0.013334384188055992,0.11004067957401276,-0.06934767216444016,-0.049834564328193665,0.04371364042162895,0.07698754221200943,0.27423611283302307,0.10835292935371399,0.4867653548717499,0.042727030813694,0.4120297133922577,-0.8242040276527405,-0.6172159910202026,-0.15543171763420105,0.29465851187705994,0.22822178900241852,0.2406063675880432,0.1418449431657791,-0.7348873615264893,0.3334527313709259,-0.1548435389995575,-0.46845176815986633,0.05697207897901535,-0.2486044317483902,-0.3440932631492615,-0.044137563556432724,0.2533067762851715,-0.04236920550465584,0.15528100728988647,0.19628217816352844,0.12791521847248077,-0.25093722343444824,-0.22644832730293274,0.1684759110212326,0.029005955904722214,0.1914118081331253,0.14037132263183594,0.07200963795185089,0.08566673845052719,0.1445433646440506,-0.03438711538910866,-0.09216663986444473,0.22133710980415344,-0.1331874281167984,-0.05536336451768875,-0.00032770971301943064,0.20718084275722504,-0.15057291090488434,-0.1736510694026947,-0.1331736445426941,0.0995197519659996,0.08678439259529114,-0.16935107111930847,-0.07314155995845795,0.3333050310611725,0.052575211971998215,0.09415284544229507,-0.13463221490383148,0.10214615613222122,0.18273760378360748,-0.112397700548172,-0.3844013810157776,0.08836394548416138,-0.016336340457201004,0.23123867809772491,-0.13972406089305878,-0.09885211288928986,-0.11004295945167542,-0.07474787533283234,0.07333613932132721,-0.12761501967906952,0.2089991420507431,0.0429677776992321,-0.020435549318790436,-0.11958669126033783,0.07278469204902649,0.02881433069705963,0.3102242350578308,0.06284648925065994,0.021744512021541595,0.13252456486225128,-0.06388697773218155,0.2423221915960312,-0.05146929621696472,0.13445945084095,0.11829611659049988,0.04784071817994118,0.04453501105308533,0.032625313848257065,-0.1362123191356659,-0.23997221887111664,0.0335393026471138,-0.017831485718488693,-0.08445117622613907,0.1150766909122467,-0.045079875737428665,0.09816587716341019,0.1649448573589325,0.29927411675453186,0.09410860389471054,-0.15958161652088165,0.017490627244114876,-0.15991315245628357,-0.13137875497341156,-0.11475647240877151,0.3315739929676056,0.05405694246292114,0.12127432972192764,-0.0955868810415268,0.3772442042827606,0.008777392096817493,0.09454341232776642,0.05875173956155777,0.4940260946750641,-0.23632486164569855,0.37515246868133545,0.022743355482816696,0.16425250470638275,0.007829217240214348,0.10059864819049835,-0.058151740580797195,-0.027830464765429497,-0.06426965445280075,0.0762346014380455,-0.07379616051912308,-0.15731778740882874,0.37753310799598694,-0.0177212655544281,-0.3175913095474243,0.08084343373775482,-0.00589704466983676,0.11838016659021378,-0.03879716619849205,-0.013479622080922127,0.18349647521972656,-0.12139702588319778,-0.17682038247585297,0.2638486325740814,-0.18962480127811432,0.1762712001800537,0.0677032545208931,-0.11870988458395004,-0.1574336141347885,0.24046021699905396,0.015863584354519844,0.04511406645178795,-0.0025319757405668497,0.1043100580573082,-0.09882664680480957,-0.10709094256162643,0.25875476002693176,-0.05887797474861145,-0.06389746814966202,0.18356958031654358,-0.022427450865507126,-0.008965332992374897,0.19913166761398315,0.18864469230175018,-0.1869145631790161,-0.21716196835041046,-0.145633265376091,-0.12002678215503693,-0.05404616892337799,-0.18030127882957458,0.19346509873867035,0.13161976635456085,0.11234252154827118,0.11479174345731735,-0.09333530813455582,0.04633209481835365,0.0012612424325197935,-0.18317654728889465,-0.1133931502699852,0.2044488936662674,0.024102771654725075,-0.006083173677325249,-0.16738645732402802,-0.020351460203528404,0.4825552999973297,-0.14358554780483246,0.12104520201683044,-0.06174401938915253,0.1501169502735138,0.06117233633995056,-0.020376676693558693,0.12370654195547104,-0.2169703245162964,-0.09689391404390335,-0.12355418503284454,0.05239030346274376,0.06728130578994751,-0.10323802381753922,0.17744870483875275,-0.004162151366472244,-0.1624547839164734,-0.016152692958712578,-0.23273925483226776,0.014613572508096695,0.090167336165905,0.05597423017024994,0.08299550414085388,-0.031397752463817596,0.009279318153858185,-0.032547663897275925,-0.15280264616012573,-0.2585078775882721,-0.0368613600730896,0.10818415880203247,-0.06258446723222733,0.019421961158514023,0.14005817472934723,0.2255387306213379,-0.13310903310775757,0.17578661441802979,-0.13304024934768677,-0.06411378085613251,0.14650410413742065,0.013296789489686489,0.29213958978652954,0.1668885052204132,0.011566764675080776,-0.2681047022342682,0.04897281527519226,-0.009142491966485977,0.18908916413784027,0.030118606984615326,-0.4303898513317108,-0.06692706793546677,-0.2081107348203659,0.06526127457618713,0.06927476823329926,-0.18302541971206665,-0.04047776013612747,0.07382996380329132,0.045652907341718674,-0.018051529303193092,0.1870734691619873,0.16495327651500702,-0.042424749583005905,-0.054947782307863235,-0.06674043089151382,0.3526555597782135,0.07608307898044586,-0.0805666446685791,-0.11703379452228546,-0.16788659989833832,-0.14606955647468567,-0.23703041672706604,0.05190229043364525,-0.045272503048181534,0.19375371932983398,0.10661584883928299,-0.27976465225219727,-0.08044548332691193,0.029937630519270897,0.2065611481666565,-0.2289588451385498,-0.18526877462863922,-0.0949845090508461,0.22950422763824463,0.11063969880342484,-0.16243846714496613,-0.08554587513208389,0.031006326898932457,-0.10332600027322769,0.13075581192970276,-0.14157909154891968,-0.2823423147201538,-0.12400322407484055,0.2721655070781708,0.2145208716392517,0.09170748293399811,-0.09190765023231506,-0.08571165800094604,-0.18284505605697632,-0.107683464884758,0.16613206267356873,-0.2323114573955536,0.057652004063129425,-0.212314635515213,-0.2475806325674057,-0.005203031934797764,0.12225763499736786,-0.12208149582147598,0.16330164670944214,-0.008722162805497646,-0.06703456491231918,-0.1396154910326004,-0.1670883595943451,-0.02501186728477478,0.1018592044711113,0.06334075331687927,-0.04141102358698845,-0.18825548887252808,-0.07512839883565903,0.039530809968709946,0.024770256131887436,-0.22412696480751038,-0.08557277172803879,-0.024493711069226265,-0.11866894364356995,-0.10569941997528076,0.18074831366539001,-0.08821573853492737,-0.19146853685379028,-0.0020986266899853945,-0.07814741134643555,-0.15391212701797485,-0.12036747485399246,0.1018998846411705,-0.08541988581418991,-0.20990103483200073,-0.1320091187953949,-0.17299696803092957,-0.0732022076845169,0.01827777922153473,-0.03399434685707092,0.010906284675002098,0.012909996323287487,-0.11086374521255493,-0.026079434901475906,0.07424266636371613,-0.08669058978557587,-0.09322605282068253,0.001109180273488164,0.12453863769769669,-0.01347820833325386,0.09567607939243317,-0.11172259598970413,0.05656573176383972,-0.07296256721019745,-0.008846095763146877,0.1838202029466629,0.09630365669727325,0.4332277774810791,-0.13099220395088196,0.017864571884274483,0.008313203230500221,0.01469038613140583,-0.08704020828008652,-0.04567467048764229,0.06634457409381866,-0.033418916165828705,-0.13130690157413483,-0.07933034002780914,-0.10732787102460861,0.09920278191566467,-0.1220313161611557,-0.10200635343790054,-0.04934309422969818,-0.2203475683927536,-0.130490243434906,-0.14547917246818542,0.06192738935351372,-0.0033058798871934414,-0.3684192895889282,0.10584892332553864,0.17190739512443542,0.2504163980484009,0.03916975483298302,-0.07481356710195541,0.3502984941005707,-0.1778043955564499,0.009183941408991814,-0.060557443648576736,-0.03662161901593208,0.05224623158574104,-0.1457141637802124,0.009348842315375805,0.2199992686510086,0.009303145110607147,-0.04200358688831329,-0.025765608996152878,0.004728980828076601,0.17824433743953705,0.06233110651373863,-0.08961270749568939,-0.3014661967754364,-0.18505577743053436,-0.13455939292907715,-0.01350352168083191,-0.09449580311775208,0.2028912603855133,-0.048017896711826324,0.037662968039512634,-0.047354962676763535,0.00544365681707859,0.03721768036484718,-0.017574306577444077,-0.15580636262893677,-0.048538755625486374,-0.06257597357034683,-0.21171285212039948,-0.035071104764938354,-0.2742139399051666,-0.06346597522497177,0.042031429708004,0.038117416203022,0.16437667608261108,0.18815529346466064,-0.309271901845932,-0.2131212204694748,-0.14159780740737915,-0.28083574771881104,-0.16448336839675903,-0.2078145444393158,-0.07386977225542068,-0.047517769038677216,-0.041013073176145554,-0.21715106070041656,0.08643089234828949,0.07551707327365875,-0.2505951523780823,-0.10481567680835724,-0.10098351538181305,0.14427778124809265,0.1335236132144928,-0.0673014298081398,0.03705388680100441,-0.1369425654411316,-0.04624010995030403,-0.09616735577583313,-0.03372612223029137,-0.15293891727924347,-0.04818229749798775,-0.06148309260606766,0.09843450784683228,0.25510695576667786,-0.06487838923931122,-0.09370202571153641,0.15299366414546967,0.07131833583116531,-0.0023759177420288324,0.07999725639820099,-0.09982676804065704,-0.18382827937602997,0.3408242166042328,-0.027359062805771828,-0.15407584607601166,-0.010950425639748573,-0.11581447720527649,-0.4053642749786377,-0.2083069235086441,-0.1221030130982399,-0.04114832356572151,-0.06592247635126114,-0.10795442014932632,-0.15626093745231628,-0.11832688003778458,0.15856927633285522,0.15792565047740936,-0.2792189419269562,0.010190403088927269,-0.03577418625354767,0.08022202551364899,-0.11465320736169815,-0.2036828100681305,0.21175430715084076,0.016495002433657646,-0.14397279918193817,-0.041874416172504425,0.08633816242218018,0.24476635456085205,0.07054050266742706,0.007819612510502338,0.11746694147586823,-0.03202281519770622,-0.11079352349042892,0.06462092697620392,0.028628520667552948,-0.16552506387233734,0.12641851603984833,-0.028418026864528656,-0.05407465621829033,-0.17395274341106415,0.019659705460071564,0.09093210101127625,0.0522334910929203,0.023159969598054886,-0.05308395251631737,0.06077135354280472,0.048474784940481186,0.0025391329545527697,-0.1682814657688141,0.010425574146211147,0.11483079195022583,-0.07142104208469391,0.06323704123497009,0.04539031907916069,-0.2823218107223511,-0.02524646744132042,0.08287741988897324,0.21238476037979126,0.11502468585968018,-0.05956697091460228,-0.0011794435558840632,0.3454608917236328,-0.08515343070030212,0.12898829579353333,-0.028010336682200432,0.06098976731300354,0.13499413430690765,0.1054878756403923,0.11725132167339325,0.0058728656731545925,-0.11679602414369583,0.13994257152080536,-0.03155089542269707,-0.11297738552093506,-0.043554581701755524,0.21863411366939545,0.034281909465789795,-0.0015428195474669337,-0.26941239833831787,0.2031899094581604,-0.009039855562150478,0.14236724376678467,0.05947904288768768,0.03038230910897255,-0.06769115477800369,0.04935899004340172,0.08461298048496246,0.01794338785111904,-0.24719220399856567,-0.09119563549757004,-0.08117799460887909,-0.039548758417367935,0.10161297768354416,-0.1276475191116333,-0.04024174436926842,-0.014183572493493557,-0.15808811783790588,0.04093681648373604,-0.014316445216536522,0.17297840118408203,0.10032679885625839,0.024865297600626945,-0.05523032322525978,-0.24369345605373383,-0.056718338280916214,-0.03765501454472542,0.15089137852191925,0.10860906541347504,0.10533934086561203,-0.0059854984283447266,0.08777014911174774,0.127414271235466,0.08927399665117264,-0.1358957290649414,0.004160458687692881,-0.06975783407688141,-0.05510319769382477,0.08499341458082199,-0.0746215358376503,0.10438169538974762,0.003228376619517803,-0.07183455675840378,-0.004854867234826088,-0.04782460257411003,-0.09931552410125732,-0.09906971454620361,-0.0901888981461525,0.05930570140480995,-0.07441875338554382,0.2253751903772354,-0.041571587324142456,0.0562065951526165,0.10604649037122726,0.010369588620960712,-0.04421120509505272,0.1976848542690277,-0.06422007828950882,0.0854589194059372,-0.26580655574798584,-0.16157853603363037,-0.023270364850759506,-0.13067853450775146,0.022575508803129196,0.15895727276802063,0.1476370096206665,0.05197004973888397,0.08916554600000381,0.07742532342672348,-0.05560651049017906,-0.1448516547679901,0.09658719599246979,0.006533681880682707,-0.0495409332215786,-0.005120411515235901,-0.11785515397787094,0.10496332496404648,-0.2865005433559418,-0.0987817645072937,-0.10586551576852798,-0.1301804631948471,-0.19218678772449493,0.04453014209866524,0.0769476667046547,-0.11793271452188492,-0.02718118205666542,-0.00316869979724288,0.2865968644618988,0.04561099782586098,0.05401560664176941,0.08054663240909576,-0.11743509769439697,0.021291594952344894,-0.06389767676591873,0.010280665010213852,0.15209941565990448,0.050216805189847946,0.1469387263059616,0.06574663519859314,-0.08493635803461075,0.000707371043972671,0.28718578815460205,-0.08612877130508423,-0.07950251549482346,-0.26868581771850586,0.04114053398370743,0.04170820862054825,0.07847856730222702,0.18520671129226685,0.013389305211603642,0.3646080493927002,0.13503162562847137,0.009523092769086361,-0.005388265009969473,0.054631032049655914,-0.006277631502598524,-0.14618247747421265,-0.052455682307481766,-0.07066354900598526,0.16101299226284027,0.23720449209213257,-0.009897960349917412,0.1424117386341095,0.13082799315452576,-0.0939272865653038,0.052370473742485046,0.14986655116081238,0.005723230075091124,-0.04158041998744011,-0.023248940706253052,0.07661673426628113,0.006008002441376448,0.11255086958408356,-0.09337285906076431,-0.059291936457157135,-0.35361042618751526,0.08352462202310562,-0.1418641209602356,-0.10987184941768646,0.1017589345574379,-0.09016168117523193,0.2598007917404175,-0.07720378786325455,-0.12880736589431763,0.2585647404193878,0.11380402743816376,-0.026662662625312805,0.001319580595009029,-0.013613487593829632,-0.1502462923526764,0.17072652280330658,-0.12778398394584656,0.019040776416659355,0.2913564443588257,-0.017512496560811996,0.30167868733406067,0.04327010363340378,0.03137102723121643,0.03330183029174805,-0.31705227494239807,-0.012454281561076641,-0.08298288285732269,0.24504566192626953,-0.028596287593245506,-0.026685265824198723,-0.20075710117816925,0.06236564740538597,-0.07370632886886597,0.2645878195762634,0.12088266015052795,0.32006117701530457,-0.0350063219666481,-0.04964054748415947,-0.01126095186918974,0.07043188065290451,-0.18312190473079681,-0.1139945462346077,0.110887810587883,0.11641757935285568,-0.11225541681051254,0.06336468458175659,0.14790137112140656,-0.15782368183135986,-0.24468591809272766,0.0023725545033812523,-0.10309082269668579,0.12162768095731735,0.03724130615592003,-0.10646003484725952,0.11018992215394974,-0.04413677752017975,-0.09375709295272827,0.043417081236839294,-0.05468921735882759,-0.020259203389286995,0.34046146273612976,-0.0742773711681366,-0.07088882476091385,0.2504129707813263,0.022850405424833298,0.06623107939958572,-0.20215679705142975,0.04351241886615753,0.09193488955497742,-0.24697254598140717,-0.10792457312345505,0.00044914899626746774,0.19651611149311066,-0.08824677765369415,0.052131474018096924,-0.15722382068634033,0.02204526588320732,-0.009027858264744282,0.030705871060490608,0.039863549172878265,0.06465975940227509,-0.14072956144809723,-0.13479533791542053,0.029887165874242783,0.0015665265964344144,0.005761877633631229,-0.07034185528755188,-0.11084538698196411,0.17304489016532898,0.12291915714740753,-0.011081596836447716,0.18932537734508514,-0.0667356625199318,0.03975655138492584,0.024186797440052032,0.22372104227542877,0.5765277147293091,0.09597453474998474,0.0263168103992939,-0.04492833465337753,0.17118576169013977,-0.11350862681865692,-0.005024065263569355,-0.07605956494808197,0.23739013075828552,0.010253244079649448,0.052012454718351364,-0.022387882694602013,-0.3004271984100342,0.09817393869161606,0.08655016124248505,-0.06390922516584396,-0.003962006885558367,-0.01375289261341095,0.10768664628267288,-0.12848272919654846,-0.17618690431118011,-0.22690033912658691,-0.06249605119228363,0.08775781840085983,-0.15493465960025787,-0.032719872891902924,0.018659871071577072,-0.17878305912017822,-0.032240498811006546,0.09780647605657578,-0.09254474192857742,0.131287083029747,-0.04674210399389267,-0.3661194145679474,-0.014028111472725868,0.12596900761127472,0.039449162781238556,-0.03203357756137848,0.010975922457873821,-0.19480444490909576,-0.12702670693397522,0.06504664570093155,-0.04538468271493912,0.032782576978206635,0.09439762681722641,0.16905449330806732,0.05280642583966255,0.15324892103672028,-0.343144029378891,0.0024145750794559717,-0.04822075366973877,-0.16072559356689453,0.044933170080184937,0.019124548882246017,0.21462805569171906,-0.03554297983646393,0.0011990073835477233,-0.139334574341774,-0.010433477349579334,0.024195212870836258,-0.07492205500602722,0.015803953632712364,0.05927882716059685,-0.08006800711154938,0.08094754070043564,0.051258623600006104,-0.34944164752960205,-0.039292480796575546,-0.10919415950775146,0.0525297187268734,-0.08976950496435165,-0.08380693942308426,0.0895429477095604,0.00681369099766016,-0.11219220608472824,0.18190573155879974,-0.019885268062353134,-0.09602860361337662,-0.03882719948887825,-0.09665842354297638,-0.19164057075977325,0.1563825011253357,0.058377303183078766,-0.10619565844535828,0.0844130590558052,