{"version":"0.5.4","metadata":{"date":{"year":2026,"month":1,"day":22,"hour":3,"minute":42,"second":4},"loudness":-21.936628341674805,"gain":0.8402230712455744,"name":"V30-Ampt-2","modeled_by":"lum","gear_type":"amp","gear_make":"tz-make","gear_model":"tz-model","tone_type":"overdrive","input_level_dbu":null,"output_level_dbu":null,"training":{"settings":{"ignore_checks":false},"data":{"latency":{"manual":null,"calibration":{"algorithm_version":1,"delays":[4058],"safety_factor":1,"recommended":4057,"warnings":{"matches_lookahead":false,"disagreement_too_high":false}}},"checks":{"version":3,"passed":true}},"validation_esr":0.0031434273333475313}},"architecture":"WaveNet","config":{"layers":[{"input_size":1,"condition_size":1,"head_size":8,"channels":16,"kernel_size":3,"dilations":[1,2,4,8,16,32,64,128,256,512],"activation":"Tanh","gated":false,"head_bias":false},{"input_size":16,"condition_size":1,"head_size":1,"channels":8,"kernel_size":3,"dilations":[1,2,4,8,16,32,64,128,256,512],"activation":"Tanh","gated":false,"head_bias":true}],"head":null,"head_scale":0.02},"weights":[0.12352222949266434,0.8392434120178223,-0.8024436831474304,-0.9645518660545349,-0.47356700897216797,0.054886188358068466,-0.05211861804127693,0.8682159185409546,-0.10194477438926697,0.2718372344970703,-0.27627021074295044,-0.1980101317167282,-1.026528000831604,-0.6128054261207581,-0.6063405871391296,0.20361243188381195,-0.12381058186292648,0.13968050479888916,-0.18151620030403137,-0.19205550849437714,0.18662051856517792,0.11954385787248611,0.09124597162008286,-0.028831902891397476,-0.020693670958280563,0.13885709643363953,-0.00713872816413641,-0.135835662484169,0.04011329263448715,-0.1720602959394455,-0.05121771618723869,0.025536051020026207,0.01785172149538994,-0.08984231948852539,0.003807976609095931,-0.2274184226989746,-0.01140152383595705,0.0014597928384318948,0.20208196341991425,0.06616730242967606,0.13901713490486145,-0.17696993052959442,0.07582513242959976,-0.2586837708950043,0.02381931059062481,-0.09357888996601105,0.20945435762405396,-0.04311111196875572,-0.04471946880221367,0.11645162105560303,-0.031230825930833817,0.14271870255470276,0.17828857898712158,-0.11913785338401794,0.09847234934568405,0.03559616208076477,-0.10983888804912567,-0.10667724162340164,0.03219271078705788,-0.20947901904582977,0.07500138878822327,-0.0923956036567688,-0.0847969725728035,0.013939078897237778,0.0939263179898262,-0.18334157764911652,0.22585369646549225,0.029950281605124474,-0.10268993675708771,0.29818522930145264,-0.10733553022146225,0.13725395500659943,-0.0945575013756752,0.12480384111404419,0.3193826675415039,-0.02620377577841282,0.03470925986766815,0.07040368020534515,-0.14040406048297882,-0.10769238322973251,-0.31001877784729004,0.27248531579971313,0.1200290247797966,0.03188459202647209,-0.16147162020206451,-0.029804665595293045,-0.21746361255645752,0.08677130937576294,0.05154906213283539,0.08794131129980087,-0.13497240841388702,0.06848856806755066,-0.08640886843204498,0.217656672000885,-0.1416447013616562,0.08978793770074844,-0.09006555378437042,0.027607867494225502,0.06463632732629776,-0.23847192525863647,0.14272452890872955,0.2922498285770416,-0.2151537388563156,-0.027426360175013542,0.057668063789606094,-0.15477892756462097,-0.10830073058605194,0.08026916533708572,-0.16868969798088074,0.06125607341527939,-0.11318057775497437,0.07492666691541672,-0.18281829357147217,0.41010305285453796,0.0537617988884449,-0.1588612198829651,0.2974257469177246,0.04640527442097664,0.05442073568701744,-0.29165616631507874,0.016379117965698242,0.04406294971704483,-0.39930224418640137,0.028220055624842644,-0.09358557313680649,-0.4078340232372284,-0.06526119261980057,-0.11176623404026031,0.20102307200431824,-0.11436670273542404,0.04029684141278267,-0.1958037167787552,-0.023935338482260704,-0.04299572482705116,0.429612398147583,0.021433088928461075,0.0604996494948864,-0.2915668487548828,0.043696604669094086,0.04735858738422394,0.44806063175201416,0.10946502536535263,0.17843784391880035,-0.3184244930744171,-0.14959952235221863,-0.026511166244745255,-0.2112104594707489,-0.039136700332164764,-0.0373523086309433,-0.43680232763290405,-0.17206673324108124,-0.08654115349054337,-0.35132527351379395,0.04634075239300728,0.11999543756246567,-0.470723956823349,0.05642310902476311,-0.177458718419075,0.1638277769088745,-0.0019887005910277367,-0.1462726593017578,-0.115996353328228,0.025201022624969482,-0.3125060200691223,-0.20144693553447723,0.04518173262476921,0.11658322066068649,0.2347385138273239,-0.17169183492660522,0.1733657717704773,0.3057815134525299,-0.1027502790093422,0.3033057153224945,0.22354336082935333,-0.1848255693912506,-0.05556279420852661,-0.16762486100196838,-0.0049302238039672375,0.24096344411373138,0.0038285611663013697,-0.11261134594678879,-0.21054889261722565,-0.07592900842428207,0.08756772428750992,0.2250966727733612,0.2086150050163269,-0.117904432117939,-0.20059897005558014,-0.2859807312488556,0.1420159786939621,0.2836799621582031,0.26674318313598633,-0.16419322788715363,0.17883513867855072,0.06465785205364227,-0.12402310967445374,0.09775805473327637,0.22999462485313416,-0.13119253516197205,0.17655637860298157,0.18475373089313507,0.045185986906290054,0.07106578350067139,0.07740860432386398,-0.13503527641296387,-0.04516047239303589,-0.12318450212478638,0.13250842690467834,0.30350857973098755,-0.12810729444026947,-0.26479145884513855,0.21393941342830658,-0.1059442088007927,-0.2735535800457001,-0.23121802508831024,0.1307322382926941,0.11433424800634384,-0.3138238191604614,0.23423953354358673,0.11766836792230606,-0.24846269190311432,0.2545482814311981,0.28165802359580994,0.22566305100917816,-0.1957230418920517,-0.1144346222281456,-0.30570900440216064,0.04223654791712761,0.15909840166568756,0.21214857697486877,-0.11079899966716766,-0.10977370291948318,-0.22432638704776764,0.2154073566198349,0.29292336106300354,0.14520634710788727,-0.03978368639945984,-0.3222934305667877,-0.29288187623023987,0.14344201982021332,0.261591374874115,-0.1456897109746933,0.0526898093521595,0.2112949788570404,-0.15932539105415344,-0.025523532181978226,0.33573243021965027,-0.35069507360458374,0.11515425890684128,0.20552285015583038,-0.3148786723613739,0.1303662806749344,0.34839707612991333,0.05916580557823181,-0.07263274490833282,-0.023537926375865936,-0.14691609144210815,0.18868300318717957,-0.2321784645318985,-0.11366783827543259,0.026298129931092262,-0.032129790633916855,0.09328843653202057,0.000758712412789464,0.16012591123580933,-0.032261934131383896,-0.1519107073545456,0.15214493870735168,0.13633109629154205,-0.07317133992910385,0.04592851549386978,-0.07139716297388077,-0.030931411311030388,-0.0687747448682785,-0.07427378743886948,-0.23080778121948242,0.2915579378604889,-0.11032120883464813,0.09545402228832245,-0.06941361725330353,0.02883896976709366,-0.19519516825675964,0.028980907052755356,0.09626995772123337,0.130853071808815,-0.004005321301519871,-0.02749839425086975,-0.06104588136076927,0.08875969052314758,0.019601089879870415,-0.18392913043498993,0.16338010132312775,0.060674916952848434,-0.11603941023349762,0.07679323107004166,-0.07571665197610855,-0.01435977965593338,0.002202091971412301,0.07979185879230499,-0.1590685248374939,0.048984095454216,-0.06327403336763382,-0.13653932511806488,-0.042044032365083694,0.1194196343421936,0.02586081065237522,-0.11258959770202637,0.07951685041189194,0.14952294528484344,-0.19406312704086304,-0.12951599061489105,-0.1169818714261055,0.22344619035720825,-0.06708290427923203,-0.03951937332749367,0.2696550786495209,-0.09020766615867615,-0.09462077915668488,0.2354096621274948,0.02371385507285595,0.09228698164224625,-0.15197083353996277,-0.1308305859565735,-0.06924665719270706,0.29834458231925964,0.14174093306064606,0.18010848760604858,-0.15664450824260712,0.05410144478082657,-0.15625010430812836,0.07198842614889145,-0.11349808424711227,0.2337687462568283,-0.09280400723218918,-0.108550064265728,-0.03411553055047989,0.290429949760437,0.13322530686855316,0.04429958760738373,0.28151196241378784,-0.04635932669043541,-0.1470230668783188,0.29287612438201904,0.0653161033987999,-0.18396280705928802,0.3038058578968048,0.05525470897555351,-0.018694890663027763,0.08753325790166855,-0.052619680762290955,-0.09394507110118866,0.039733849465847015,-0.09931538254022598,0.15672914683818817,0.007107061799615622,-0.02463552914559841,0.03338649868965149,0.02184423618018627,-0.015822099521756172,-0.0418054424226284,-0.04630490392446518,-0.058087822049856186,-0.19477815926074982,0.16407853364944458,0.15980692207813263,0.05649502947926521,0.16114605963230133,-0.2000660002231598,-0.043271519243717194,-0.06449931859970093,0.0026840518694370985,0.06492425501346588,-0.06822826713323593,-0.1543676257133484,-0.0632677972316742,-0.13194482028484344,0.204313263297081,0.055529963225126266,0.1509222686290741,0.027877455577254295,0.20312990248203278,-0.082784503698349,0.1488572359085083,0.05847848579287529,0.09830442816019058,0.227700337767601,0.000002465619445501943,0.13938455283641815,0.033371683210134506,-0.006807092577219009,0.06708040088415146,0.04859428107738495,-0.1567172259092331,-0.031830158084630966,-0.027257835492491722,0.01602858304977417,0.1481679528951645,-0.04468443617224693,-0.05738833174109459,0.06772100180387497,0.10247258841991425,0.1616988480091095,-0.19091206789016724,0.1806936264038086,0.25166767835617065,-0.1340642273426056,0.09272071719169617,-0.07890792936086655,-0.028826283290982246,0.035753678530454636,-0.27248039841651917,0.002488545374944806,0.08267076313495636,-0.17788584530353546,-0.07031900435686111,-0.02092069946229458,0.1160798966884613,-0.07533201575279236,-0.025733428075909615,-0.04289980232715607,0.0839376151561737,-0.04437730833888054,0.1969965398311615,0.04239686578512192,0.0456642247736454,-0.30408579111099243,0.039937153458595276,-0.06708784401416779,0.1234259158372879,0.01236465759575367,-0.14158287644386292,-0.1298685371875763,0.16136029362678528,-0.03041762299835682,-0.27887970209121704,-0.026121627539396286,-0.014713907614350319,-0.301408588886261,0.09717535227537155,-0.1770237684249878,-0.32880014181137085,-0.11302179098129272,-0.07048621773719788,-0.08934539556503296,-0.10496921092271805,0.12289771437644958,-0.045369576662778854,0.05747140198945999,0.40839868783950806,0.11537531018257141,0.01861998252570629,0.448395311832428,0.38337963819503784,-0.048322319984436035,-0.4513503611087799,-0.1172572448849678,0.12050587683916092,-0.29847151041030884,-0.3589053750038147,0.07191383093595505,-0.5077569484710693,-0.3005771040916443,0.1451433151960373,0.17985452711582184,0.2460642009973526,-0.014638558961451054,-0.222952738404274,-0.23743832111358643,0.04192499816417694,0.315895140171051,0.3047516644001007,0.029274605214595795,-0.23199251294136047,-0.22074255347251892,0.17895467579364777,0.2052319049835205,0.10567275434732437,-0.053283825516700745,-0.42127177119255066,-0.15631912648677826,0.015230944380164146,-0.41090211272239685,-0.33877500891685486,0.19078882038593292,-0.3753639757633209,-0.13060660660266876,0.20208953320980072,-0.27721869945526123,-0.23412907123565674,0.06864964962005615,-0.3989274799823761,-0.22347526252269745,0.1885247528553009,0.11346837878227234,0.2340380847454071,-0.15142685174942017,0.03137319162487984,-0.13163435459136963,0.032105688005685806,0.3307708203792572,-0.12430864572525024,0.03911295905709267,-0.11737917363643646,0.07432208955287933,0.18355946242809296,-0.2688426971435547,0.03793793544173241,0.12281668186187744,-0.22429288923740387,0.04340013489127159,0.029899751767516136,0.25562646985054016,-0.03127255290746689,-0.1011810228228569,-0.09531771391630173,0.08993229269981384,0.02869759500026703,0.19947634637355804,0.09142456203699112,-0.08135231584310532,-0.1247367188334465,-0.02916872315108776,0.12441696971654892,0.07615398615598679,-0.08642072975635529,-0.14685671031475067,-0.0409056656062603,-0.03367327153682709,0.07719452679157257,-0.25126251578330994,0.14315342903137207,0.20263060927391052,-0.29773563146591187,-0.12621591985225677,-0.04546492546796799,-0.1887618452310562,-0.04697715863585472,-0.030778197571635246,-0.24066494405269623,0.020089000463485718,-0.004770421423017979,0.11734510958194733,-0.047296322882175446,-0.17283597588539124,-0.04762416332960129,0.30717092752456665,-0.09977666288614273,-0.12107639759778976,0.03615390136837959,0.04057469218969345,-0.014233579859137535,-0.20978836715221405,0.24501022696495056,0.031361691653728485,-0.05399833992123604,0.08858977258205414,0.07868140190839767,-0.12227357178926468,0.17873239517211914,-0.09012561291456223,-0.08978121727705002,-0.15517036616802216,0.0471905842423439,0.006482196506112814,-0.07785693556070328,0.01679213158786297,0.044356461614370346,-0.12311404198408127,0.22050347924232483,-0.002922911662608385,0.18683280050754547,-0.0328892320394516,0.03492818400263786,-0.1807519793510437,0.10526677221059799,0.04711034148931503,0.03955553099513054,-0.0007474981248378754,-0.0110299251973629,0.25109007954597473,0.07999975979328156,-0.1945980340242386,-0.03198434039950371,0.15451361238956451,-0.08680002391338348,0.0214410237967968,0.14785446226596832,-0.03021365776658058,0.20762024819850922,0.0723416730761528,0.08355165272951126,-0.2237861007452011,-0.19089685380458832,0.02608216181397438,0.3116661012172699,-0.03237354755401611,-0.2672622799873352,0.30527472496032715,0.226970836520195,0.26743900775909424,-0.2850281298160553,0.037447988986968994,0.03924239054322243,-0.03271680697798729,0.029909772798419,0.07300683110952377,-0.09248285740613937,-0.14264187216758728,-0.20206934213638306,0.13010549545288086,0.039903756231069565,0.023401129990816116,-0.048664141446352005,-0.15500719845294952,-0.08742862194776535,0.2907559275627136,0.16018323600292206,0.16746854782104492,-0.03495539352297783,-0.0750972181558609,-0.21160633862018585,0.2950705587863922,0.12350677698850632,0.0003432326775509864,-0.19909390807151794,-0.0038436707109212875,0.2671974301338196,-0.18833854794502258,-0.040577005594968796,0.12872876226902008,-0.07547719776630402,0.12818321585655212,0.18433251976966858,-0.15025007724761963,0.14816537499427795,0.10759566724300385,-0.22704669833183289,-0.19177204370498657,-0.20983628928661346,0.05254412442445755,0.0981917679309845,-0.14398860931396484,0.1012175977230072,0.1884370893239975,-0.24313725531101227,0.14915254712104797,-0.2558143436908722,0.2587168514728546,-0.12540818750858307,-0.21029023826122284,0.22309637069702148,-0.0701054036617279,-0.05383436009287834,0.043320924043655396,-0.13290376961231232,0.09510273486375809,-0.09447626769542694,0.17463418841362,-0.20907527208328247,0.20545276999473572,-0.0817570686340332,0.14104458689689636,-0.03643069043755531,-0.10065601021051407,-0.16575007140636444,0.26436761021614075,-0.07111185044050217,0.28566160798072815,-0.18549612164497375,0.13930828869342804,-0.31327518820762634,0.11464256793260574,-0.05014590919017792,-0.1407906413078308,0.18695685267448425,0.08028349280357361,-0.19274574518203735,0.13851328194141388,0.08822523057460785,-0.20819339156150818,0.2711903750896454,-0.10769275575876236,-0.19493608176708221,0.13342249393463135,0.05005168914794922,0.20811599493026733,0.018249982967972755,-0.23760159313678741,0.011171969585120678,-0.04080250486731529,-0.05004335567355156,-0.10332987457513809,0.0836164578795433,0.10190412402153015,0.02542131021618843,-0.13363614678382874,0.1353825181722641,-0.09180397540330887,0.03787199407815933,0.054860569536685944,-0.0480981208384037,0.05713086202740669,-0.09159823507070541,0.013587852008640766,-0.0722196102142334,-0.05535571277141571,0.034660302102565765,0.11375688761472702,0.002011802513152361,0.07748053967952728,-0.020526770502328873,-0.10488815605640411,-0.09558248519897461,-0.1261267364025116,0.20016270875930786,-0.05220148712396622,0.004139408934861422,-0.004837986081838608,0.11552481353282928,0.125798299908638,0.1627228856086731,-0.08557423204183578,-0.013884919695556164,-0.04826629161834717,-0.06774527579545975,0.035266175866127014,0.17065638303756714,-0.10019225627183914,0.0877862349152565,-0.038043443113565445,-0.010184021666646004,0.12567007541656494,0.009043673984706402,0.010399583727121353,-0.2330726534128189,0.08733052015304565,-0.14464285969734192,-0.08650067448616028,0.20340777933597565,-0.2806987762451172,-0.18751142919063568,0.09297041594982147,0.2842947542667389,0.03589974716305733,-0.01839333027601242,0.29821017384529114,0.17076018452644348,-0.16034086048603058,0.148023784160614,0.02570675127208233,-0.20614385604858398,-0.1423194855451584,0.04945380240678787,0.21297211945056915,0.13204599916934967,0.05605306103825569,-0.20233148336410522,-0.060326095670461655,-0.1358330398797989,-0.011078862473368645,0.160126194357872,0.12842266261577606,-0.2549242675304413,-0.029710644856095314,-0.012436817400157452,0.00030444844742305577,0.12574103474617004,0.18878261744976044,-0.21544334292411804,0.13037174940109253,0.11770447343587875,-0.20309875905513763,0.2501261532306671,0.1515224575996399,0.002195757580921054,0.07607345283031464,0.21778707206249237,-0.17524392902851105,0.3122948110103607,-0.0645786002278328,-0.22049441933631897,0.02836080826818943,0.00924424547702074,0.07398584485054016,-0.03100721910595894,0.009619481861591339,-0.21128901839256287,-0.15938594937324524,0.17580744624137878,-0.021219586953520775,-0.005190377123653889,0.025377754122018814,0.19292473793029785,-0.17710089683532715,-0.1378493309020996,-0.09875953197479248,-0.14199909567832947,-0.004148210398852825,-0.05382150411605835,0.21714140474796295,0.45036202669143677,-0.2815394997596741,0.8428528904914856,-0.6654638648033142,-0.23253488540649414,0.7964813709259033,0.8240553140640259,-0.6303662657737732,0.1607232540845871,0.008268609642982483,-0.5271220803260803,-0.44973400235176086,0.43738314509391785,-0.6916974782943726,0.13616545498371124,0.5128876566886902,-0.11460284888744354,0.12925641238689423,0.05569833889603615,0.04183303192257881,0.39315277338027954,-0.011783110909163952,0.024872489273548126,-0.034030523151159286,-0.0026285462081432343,0.11576647311449051,-0.01920635998249054,-0.046787142753601074,0.059902459383010864,0.18439462780952454,0.12934230268001556,-0.04405194893479347,0.10423336178064346,0.08355755358934402,-0.13098183274269104,0.045673854649066925,-0.2824627757072449,-0.08488329499959946,-0.31356534361839294,-0.1320999413728714,0.039124995470047,0.0784444659948349,-0.12586456537246704,-0.08971564471721649,0.3770889639854431,-0.25647011399269104,-0.029839137569069862,0.3850998282432556,0.08766808360815048,0.03433002158999443,-0.005758820101618767,0.2402327060699463,-0.02876562625169754,-0.0035435298923403025,0.007156104315072298,-0.24779510498046875,-0.01471095159649849,-0.1734960824251175,0.10048514604568481,-0.19873517751693726,0.1051345095038414,0.22199557721614838,0.021518493071198463,0.14427712559700012,0.1889507919549942,-0.28637367486953735,0.13441431522369385,-0.11347527801990509,-0.015994861721992493,0.04138760641217232,0.2136031538248062,0.20370052754878998,-0.2339101880788803,0.053371135145425797,-0.008840718306601048,0.2381778359413147,-0.1987600177526474,0.06951909512281418,-0.01935245282948017,-0.17628811299800873,-0.07520673424005508,-0.21154463291168213,-0.35834750533103943,0.27721846103668213,0.2786438763141632,0.09842244535684586,0.27822601795196533,-0.12832655012607574,-0.02219725400209427,0.026126958429813385,0.034824054688215256,0.10001333057880402,-0.10461168736219406,0.191610187292099,0.0433414988219738,0.00345457810908556,-0.18626224994659424,0.16907274723052979,0.3124263286590576,0.14198347926139832,-0.06067296490073204,0.15667369961738586,-0.0025191239546984434,0.2783327102661133,0.10355903953313828,0.016311630606651306,-0.453166663646698,0.08918777853250504,0.03234163299202919,-0.33235475420951843,-0.13431616127490997,0.17645081877708435,-0.0949312224984169,0.10844071209430695,0.18582318723201752,0.09206505864858627,-0.3448215425014496,-0.2252388298511505,0.00663333386182785,0.04744371771812439,0.10566870868206024,-0.3625967502593994,-0.2878069281578064,0.16616636514663696,0.09472212940454483,-0.11723574995994568,0.04069912061095238,0.013044750317931175,0.1850922405719757,0.09515552967786789,0.2636561691761017,-0.3319537341594696,-0.36565592885017395,0.1353137344121933,0.20734822750091553,-0.0004878253675997257,0.2226990908384323,-0.11030320823192596,0.21630370616912842,-0.34489747881889343,0.16112102568149567,-0.1993943452835083,-0.08403734862804413,-0.05575871095061302,0.0005928142345510423,-0.14295095205307007,-0.29112178087234497,-0.2789810597896576,0.007287926040589809,0.032788727432489395,-0.13276687264442444,-0.022057730704545975,-0.13430115580558777,-0.23539669811725616,0.04029926285147667,0.14459991455078125,0.038093261420726776,-0.27950817346572876,0.02877654880285263,0.0927814394235611,-0.03092390112578869,-0.047679461538791656,0.4791436195373535,-0.26760926842689514,-0.3507462441921234,0.05976145714521408,0.2519899606704712,-0.03505424037575722,0.07235807180404663,0.3493865728378296,0.053384147584438324,0.18834100663661957,0.32461392879486084,0.04898373782634735,-0.11023963987827301,-0.11326140910387039,0.12144999951124191,0.15378376841545105,-0.2829810082912445,0.11567497253417969,-0.044063303619623184,-0.1485285460948944,0.003190488088876009,-0.14392752945423126,0.09227662533521652,-0.2637398838996887,-0.23960383236408234,-0.054069843143224716,-0.11080114543437958,0.08962979912757874,-0.034160759299993515,0.3811901807785034,0.014983649365603924,-0.09773273020982742,0.22655215859413147,-0.03559427335858345,-0.0638756975531578,-0.062263987958431244,-0.07589981704950333,-0.02088385447859764,0.03006260097026825,-0.15830475091934204,-0.09133515506982803,-0.12267152220010757,-0.03509184718132019,0.10307189077138901,-0.19125628471374512,-0.11989232897758484,0.218818798661232,-0.21334730088710785,0.11364159733057022,-0.03509651497006416,-0.12135287374258041,0.06143469363451004,0.10677234083414078,0.10260505974292755,0.35558661818504333,-0.05093315988779068,-0.23689329624176025,0.1753072440624237,0.1038997620344162,-0.48962658643722534,-0.08739238977432251,0.1509842574596405,0.08424043655395508,-0.24679341912269592,-0.28071045875549316,0.10215295851230621,-0.04222983121871948,0.2453969568014145,0.21844372153282166,-0.09084928780794144,0.010733628645539284,-0.21935927867889404,0.04377063363790512,-0.09083876013755798,-0.1743156611919403,-0.14171618223190308,-0.10509031265974045,0.149570032954216,-0.29627102613449097,0.3437363803386688,-0.10317130386829376,0.05251063033938408,0.4010986387729645,-0.06771904975175858,0.002684549195691943,0.16381403803825378,-0.40593910217285156,0.043321963399648666,-0.10200405865907669,-0.03592841699719429,0.011381696909666061,0.4003663659095764,-0.16170130670070648,0.09502246975898743,0.18890109658241272,0.37617728114128113,0.14572812616825104,-0.037968941032886505,-0.4990532398223877,0.15006734430789948,-0.13724465668201447,-0.2139897495508194,-0.13977815210819244,-0.2174387276172638,-0.03341188654303551,-0.41979092359542847,0.7742222547531128,0.24770015478134155,-0.035977523773908615,0.12948283553123474,0.2533932030200958,-0.19073009490966797,0.33114615082740784,-0.14745384454727173,-0.357099324464798,0.05640484392642975,0.1566309630870819,0.1627579629421234,0.08198212087154388,-0.2627828121185303,0.10252121835947037,0.20555733144283295,-0.023585334420204163,0.03804301843047142,0.057232607156038284,0.004244856536388397,0.24741438031196594,0.08320643752813339,-0.17460212111473083,0.39816492795944214,-0.30783984065055847,0.22241650521755219,-0.1737903505563736,-0.09927977621555328,0.035157252103090286,-0.35501667857170105,0.3479434549808502,0.0658777579665184,-0.09623226523399353,0.13725623488426208,0.18433021008968353,-0.12540942430496216,-0.20479066669940948,0.2607758939266205,-0.3480672538280487,-0.5351927876472473,0.18752844631671906,0.1231008917093277,-0.13315486907958984,-0.20792275667190552,-0.13285167515277863,0.04246899485588074,-0.06645102053880692,-0.011439002119004726,0.059253476560115814,-0.200412780046463,-0.21526513993740082,-0.13562890887260437,0.10983414202928543,-0.5463657975196838,-0.1408219337463379,-0.21059450507164001,-0.8295702338218689,0.1264055073261261,-0.12897004187107086,-0.265927791595459,0.13565553724765778,-0.03245314210653305,-0.2268967479467392,0.08006562292575836,0.05577539652585983,0.2946312427520752,-0.5475735068321228,0.21630670130252838,0.18248018622398376,0.0788176953792572,0.23460136353969574,-0.22093310952186584,-0.12101448327302933,0.028131943196058273,-0.07778141647577286,-0.054799195379018784,0.3561355173587799,-0.18958476185798645,0.04485643655061722,-0.23241004347801208,-0.0814155638217926,-0.269226998090744,0.12990927696228027,-0.25117868185043335,0.05953969061374664,-0.030380096286535263,0.05770213156938553,0.055949561297893524,0.25262439250946045,0.25348636507987976,0.05776989087462425,-0.1595005840063095,-0.22060133516788483,-0.06494634598493576,0.1639360785484314,0.20785702764987946,0.06879480183124542,-0.35500991344451904,-0.09268326312303543,-0.057412803173065186,0.19047056138515472,0.13782291114330292,0.2315344363451004,0.18535785377025604,-0.043822288513183594,0.4800439774990082,0.07518452405929565,-0.03572677820920944,0.11588745564222336,0.25690868496894836,-0.1701337695121765,-0.24135692417621613,0.17736691236495972,-0.1186651885509491,-0.056055691093206406,0.010006193071603775,-0.5530139207839966,-0.5263112783432007,-0.28929978609085083,0.08139791339635849,0.6577056646347046,-0.08758243173360825,-0.10093870013952255,-0.11745347082614899,-0.03787803277373314,0.566790759563446,0.033467330038547516,0.24928581714630127,0.34875941276550293,0.06215224787592888,0.30610060691833496,0.161916583776474,0.1744341254234314,0.16442440450191498,0.20653587579727173,-0.021692434325814247,-0.06633160263299942,-0.16123753786087036,-0.09500675648450851,0.06457243114709854,-0.05213291570544243,-0.19926054775714874,-0.05473081022500992,-0.029932141304016113,0.14752522110939026,-0.012134711258113384,-0.14885200560092926,-0.16174398362636566,0.014774639159440994,0.24654927849769592,-0.2633112072944641,0.1733885407447815,0.48004356026649475,-0.26781702041625977,0.20396682620048523,0.06961610913276672,-0.2225726693868637,0.1067841425538063,-0.13461852073669434,-0.05717863887548447,-0.010873669758439064,-0.20941226184368134,0.6185033917427063,0.26006436347961426,0.018453197553753853,-0.03859911486506462,0.1481824368238449,-0.2926298677921295,-0.02218884602189064,-0.06551272422075272,0.28261375427246094,-0.1308005005121231,-0.2231808751821518,0.1437717080116272,0.04781505465507507,-0.069023497402668,-0.002218516543507576,-0.13938650488853455,-0.13945883512496948,-0.1043616458773613,0.04884452372789383,-0.0054276203736662865,0.06821851432323456,-0.07810229063034058,-0.21071267127990723,-0.32309025526046753,-0.003588058054447174,0.11148654669523239,0.16044768691062927,-0.17618714272975922,-0.06958457082509995,-0.03776852786540985,-0.13379201292991638,0.11588659137487411,0.2671089172363281,-0.04542342573404312,-0.030399009585380554,0.13861830532550812,0.06205809488892555,0.28320226073265076,0.15490755438804626,0.03212570771574974,-0.15828940272331238,0.1740102469921112,-0.17892779409885406,-0.24101358652114868,0.1712033450603485,0.010742556303739548,0.06505186855792999,-0.021428706124424934,-0.08209506422281265,-0.03971973434090614,-0.27329134941101074,-0.23619556427001953,-0.07280166447162628,0.04035845398902893,0.25331392884254456,0.11956357210874557,0.08064134418964386,0.014727666042745113,-0.0934978798031807,-0.01950971595942974,0.052171748131513596,0.0697002038359642,0.1041935607790947,-0.14382030069828033,-0.1495874524116516,-0.06699768453836441,0.1348731368780136,0.002394719049334526,0.27330711483955383,-0.07920042425394058,0.048603251576423645,-0.14861634373664856,0.18617308139801025,0.1455659121274948,0.2331676483154297,-0.02085324376821518,-0.08483409881591797,-0.214882031083107,-0.02125573717057705,0.08318360149860382,0.30038735270500183,-0.08494321256875992,-0.05677236244082451,-0.1454687863588333,-0.007041226141154766,0.21267713606357574,0.118955597281456,-0.12990626692771912,0.17715078592300415,0.1477549523115158,-0.12699227035045624,-0.03670221194624901,0.13383547961711884,-0.21953214704990387,-0.1650591939687729,0.14641204476356506,0.0940743088722229,-0.01149666402488947,-0.026071419939398766,-0.16062793135643005,0.0392753966152668,-0.39820224046707153,0.11092116683721542,0.07632390409708023,0.12233392894268036,0.09332261234521866,0.08412338048219681,0.16335229575634003,0.06136923283338547,0.031954795122146606,0.12532047927379608,0.12062207609415054,0.1340518295764923,0.08102849870920181,0.05787834897637367,-0.033082831650972366,0.16759909689426422,0.042973730713129044,-0.23006731271743774,-0.16060489416122437,-0.2819175124168396,0.08224707841873169,0.32849106192588806,0.32738468050956726,0.06696338951587677,-0.14975135028362274,-0.2988205552101135,-0.18003416061401367,0.23074576258659363,0.31356319785118103,0.24481552839279175,0.13827794790267944,-0.20766255259513855,-0.04876598343253136,0.7543001770973206,0.502903938293457,-0.32813864946365356,0.37154558300971985,0.11476422846317291,0.17029045522212982,0.16040386259555817,0.28637176752090454,-0.01661977544426918,-0.4143409729003906,-0.1576744168996811,0.16377171874046326,0.09622232615947723,0.13952913880348206,0.04371923953294754,0.027201056480407715,0.11049042642116547,-0.1528630256652832,-0.017548004165291786,-0.07738056778907776,0.2866869270801544,0.1269364058971405,0.07004373520612717,0.010911498218774796,-0.1995694935321808,0.0007318533607758582,0.08999327570199966,-0.05622914806008339,0.19528813660144806,0.09406807273626328,0.09037468582391739,0.011189663782715797,0.26727184653282166,0.010799136012792587,0.12827135622501373,-0.1578790247440338,-0.05154396593570709,-0.16175924241542816,0.07251457870006561,0.13809454441070557,0.06673556566238403,-0.16591915488243103,0.026979710906744003,-0.13150441646575928,0.22366861999034882,0.10745342820882797,0.3902619183063507,0.15146058797836304,0.2188185602426529,0.254557728767395,0.5386167764663696,-0.041451435536146164,0.10148021578788757,0.10565607249736786,-0.22789700329303741,-0.12118446826934814,0.053279392421245575,-0.05066206306219101,-0.17699259519577026,-0.11091908067464828,-0.048397842794656754,0.09537184238433838,0.051565516740083694,0.1252731829881668,-0.09378667920827866,-0.2030314803123474,-0.3817480802536011,-0.1170043870806694,0.3525283932685852,-0.058466941118240356,-0.03223579749464989,-0.0652090460062027,-0.2500525414943695,-0.1433393657207489,0.07711716741323471,0.15579688549041748,-0.06545370072126389,-0.4042520821094513,-0.22666798532009125,-0.3088839054107666,0.08903404325246811,0.4440256357192993,0.006058963015675545,-0.3405701220035553,-0.2808809280395508,-0.22070176899433136,0.508376955986023,0.4258747100830078,0.20000199973583221,-0.3493589460849762,-0.2889060974121094,-0.2858869433403015,0.32155510783195496,0.17123600840568542,-0.010528674349188805,-0.2245223969221115,-0.4756503403186798,-0.0014697778970003128,0.16259507834911346,-0.3566510081291199,-0.019122714176774025,0.26209864020347595,-0.29604366421699524,-0.036617789417505264,0.4294055998325348,-0.16116295754909515,-0.34562528133392334,-0.13313047587871552,0.2521005868911743,0.026593169197440147,-0.09694218635559082,-0.3239654302597046,-0.031472016125917435,-0.09762436151504517,0.13327698409557343,0.1377946436405182,0.12329883128404617,0.33665940165519714,0.13457955420017242,0.09359988570213318,0.3725661039352417,0.26952269673347473,0.22242675721645355,-0.3726058900356293,0.1749631017446518,0.10506571829319,-0.31272077560424805,0.1478036791086197,-0.06650508940219879,-0.3113841414451599,-0.3279816806316376,-0.02234039455652237,-0.007153911050409079,-0.02503087930381298,0.11607035249471664,-0.023737147450447083,0.002588547533378005,-0.14466866850852966,0.029614325612783432,0.12050247192382812,-0.03484421595931053,-0.06675323843955994,-0.12014517188072205,0.12065247446298599,-0.10890208929777145,0.20453175902366638,0.11396782100200653,-0.013976260088384151,-0.01916787214577198,-0.12792682647705078,0.1177700012922287,0.06199733167886734,0.03908567875623703,-0.18781329691410065,0.16977795958518982,-0.07640668004751205,0.07562204450368881,0.28514939546585083,0.0008285141084343195,0.07545310258865356,0.10694725066423416,0.09194805473089218,-0.29123565554618835,0.1411951631307602,-0.007046046666800976,-0.1472211331129074,0.0012773677008226514,-0.012868613004684448,-0.14425277709960938,0.17972314357757568,-0.01273853424936533,-0.28948739171028137,-0.5940647721290588,0.018825994804501534,-0.0752003937959671,-0.06869842857122421,0.16154976189136505,0.09646038711071014,-0.171241894364357,0.1335601508617401,-0.16745376586914062,0.29630306363105774,-0.012554804794490337,0.024836977943778038,-0.23355324566364288,0.03622640296816826,-0.2707696557044983,0.17450490593910217,0.10928048938512802,0.05343901365995407,-0.2622023820877075,0.020879419520497322,-0.30395644903182983,-0.6561470031738281,-0.04600650072097778,-0.2600354850292206,0.13520467281341553,0.05920245125889778,-0.2924124002456665,0.08353842049837112,0.04537788778543472,-0.05195172131061554,0.15281511843204498,-0.03837849572300911,0.41752660274505615,0.4312676191329956,0.09978163242340088,-0.26816996932029724,0.06166348606348038,0.09435225278139114,-0.03416293486952782,0.011469308286905289,0.19194327294826508,-0.29932332038879395,-0.23535209894180298,-0.33953857421875,-0.45420995354652405,-0.3786052465438843,-0.3937341868877411,0.027828576043248177,0.10085928440093994,-0.2536202073097229,-0.17053306102752686,0.16953781247138977,0.25725996494293213,0.20510947704315186,0.2728121280670166,0.14504815638065338,-0.19032920897006989,-0.07416895776987076,0.29165342450141907,0.05545523390173912,-0.11337536573410034,-0.11327171325683594,-0.10591094940900803,-0.16667179763317108,-0.029357589781284332,0.4288577735424042,0.2668709456920624,-0.19646510481834412,-0.3007763922214508,-0.12929478287696838,-0.03880686312913895,-0.06781061738729477,-0.12024876475334167,0.131874680519104,-0.05857439339160919,-0.03713439404964447,-0.036682676523923874,0.00927440170198679,-0.12108314037322998,-0.1957463175058365,0.19128204882144928,-0.1079423576593399,-0.14346113801002502,-0.18296609818935394,0.10142979770898819,0.04696983844041824,-0.1311987191438675,-0.0158176701515913,0.15805916488170624,0.08406458795070648,0.07840218394994736,-0.02666340209543705,0.14518317580223083,-0.013143191114068031,0.011689887382090092,-0.2335631102323532,0.18040497601032257,-0.11023084074258804,-0.21439629793167114,-0.007788254413753748,0.24027395248413086,0.10817019641399384,0.2866120934486389,-0.07847977429628372,0.075889952480793,-0.20608656108379364,0.06669931858778,-0.12043407559394836,0.20083267986774445,-0.09258875995874405,-0.13440270721912384,-0.06798558682203293,0.08765847980976105,-0.002677096286788583,0.09619539231061935,-0.09700644761323929,-0.3884950280189514,-0.008703566156327724,0.0763520896434784,0.058082494884729385,-0.08632545173168182,-0.0077270218171179295,0.057284288108348846,-0.22328223288059235,-0.056384194642305374,-0.07703472673892975,0.06715323030948639,0.18023072183132172,0.0689176693558693,0.14849154651165009,0.042281366884708405,-0.18871964514255524,-0.09082575887441635,-0.1320585161447525,0.3280578553676605,0.15942446887493134,-0.10692234337329865,-0.04180558770895004,-0.04939258098602295,-0.0918227881193161,0.22421392798423767,-0.121512770652771,-0.267023503780365,-0.20780116319656372,-0.07272778451442719,0.4317929744720459,-0.03497183695435524,-0.11611621081829071,-0.011120646260678768,-0.3031373918056488,-0.07000488042831421,0.2139459103345871,0.0514172799885273,0.08136730641126633,-0.035985201597213745,-0.2131529003381729,-0.004583701025694609,-0.013925619423389435,0.30112287402153015,0.18948042392730713,-0.0822070762515068,0.04700993001461029,-0.07503999769687653,0.22781381011009216,0.22986404597759247,-0.3046010434627533,0.05036530643701553,0.07826617360115051,-0.042627666145563126,-0.24273569881916046,0.3150278329849243,-0.03034335933625698,-0.09470988810062408,-0.21107682585716248,-0.05620069429278374,0.029816508293151855,0.13354457914829254,0.2663654088973999,0.4312056005001068,0.08356521278619766,0.1621979922056198,-0.04717162251472473,0.1917281448841095,0.00967478472739458,-0.026862258091568947,-0.35382896661758423,-0.5471410751342773,-0.18075594305992126,-0.23157766461372375,-0.24681107699871063,-0.23465722799301147,0.3288182020187378,0.05577806383371353,0.14549191296100616,0.1072041392326355,0.1691175401210785,-0.053274836391210556,0.13785982131958008,0.1780441850423813,0.33534806966781616,0.16084922850131989,0.1734493523836136,-0.016182707622647285,-0.14924970269203186,-0.3243725299835205,0.22382137179374695,0.11280347406864166,0.14317284524440765,-0.22779187560081482,0.13573165237903595,0.18145889043807983,0.4651030898094177,-0.0030122785829007626,-0.421366423368454,-0.05447870492935181,0.21082952618598938,0.18607793748378754,-0.1975940316915512,0.019466733559966087,-0.03653513267636299,-0.36877310276031494,-0.11259397864341736,-0.24277536571025848,-0.29985177516937256,-0.11842739582061768,0.16314853727817535,0.1095750704407692,-0.20966307818889618,0.015485103242099285,-0.30829620361328125,-0.10088513791561127,0.2899610698223114,0.06325792521238327,0.0708516463637352,-0.06689446419477463,-0.000735586800146848,-0.17112797498703003,0.19424162805080414,-0.08986587822437286,0.32895606756210327,0.0020483180414885283,0.0432208813726902,-0.03580844774842262,0.14252255856990814,-0.04338129237294197,0.12409880012273788,-0.18456174433231354,-0.026300380006432533,-0.021825499832630157,-0.031629230827093124,-0.18934085965156555,-0.08007247745990753,-0.23692083358764648,0.16132313013076782,-0.11547153443098068,0.23785994946956635,0.03518541902303696,0.3010735809803009,0.0875992476940155,0.10652606934309006,0.3862772285938263,0.2078467756509781,0.03691139444708824,0.0039040150586515665,0.05608460307121277,-0.11136146634817123,-0.2436704784631729,0.26402318477630615,-0.08300679177045822,-0.20199571549892426,0.09267675876617432,0.05162476748228073,0.01321217231452465,0.20485535264015198,0.0764269158244133,-0.12616123259067535,0.20353199541568756,-0.046798206865787506,-0.038778141140937805,0.23956821858882904,0.036678873002529144,0.18421430885791779,-0.047637805342674255,-0.05187152698636055,-0.07547213137149811,0.06314782053232193,-0.05995539203286171,-0.025018708780407906,-0.13874277472496033,0.054606057703495026,-0.08472470939159393,0.23722787201404572,-0.32177111506462097,0.0871359184384346,-0.33018580079078674,-0.05254611372947693,-0.16809290647506714,0.09382917732000351,-0.20129381120204926,-0.06987437605857849,-0.032145120203495026,0.27030089497566223,-0.1032896414399147,0.3066491484642029,-0.23669938743114471,0.14091047644615173,-0.05869166925549507,0.1562478393316269,0.17398211359977722,-0.2109994739294052,-0.10891565680503845,0.06997247785329819,0.19757676124572754,-0.25035592913627625,-0.03147004172205925,0.16501553356647491,0.0168438870459795,-0.43126142024993896,0.5029810667037964,0.1801096647977829,0.024871667847037315,0.21384595334529877,-0.3107248544692993,0.18025703728199005,-0.13448835909366608,0.1371525377035141,0.17067764699459076,0.1133214682340622,-0.16579030454158783,-0.03801572322845459,0.3360791802406311,-0.021767813712358475,0.19434599578380585,0.34434452652931213,0.20941312611103058,0.012041582725942135,-0.3003315329551697,0.043269187211990356,0.09640658646821976,-0.5319237112998962,0.09691742062568665,-0.6831272840499878,-0.537671685218811,-0.6390845775604248,0.7526891827583313,-0.9467915892601013,-0.3304803967475891,-0.941962480545044,0.2615683078765869,-0.4213659167289734,0.3425346910953522,-0.6642406582832336,-0.10843618214130402,-0.3792363703250885,0.005410674028098583,0.3915645480155945,0.3951963782310486,-0.1300782412290573,-0.22803257405757904,-0.19830653071403503,-0.03320656716823578,-0.30833861231803894,-0.08532164990901947,-0.010801752097904682,0.22444650530815125,0.11883170902729034,-0.1472957730293274,-0.12147588282823563,0.13272330164909363,-0.25958698987960815,-0.19992032647132874,0.14837151765823364,-0.370781272649765,0.06559328734874725,-0.4084423780441284,-0.3760010302066803,-0.02243916690349579,0.020395196974277496,-0.022634273394942284,-0.09823238104581833,0.17178794741630554,0.22428813576698303,0.5036168098449707,0.34997037053108215,0.050528429448604584,-0.15416359901428223,-0.013790005818009377,0.12656047940254211,0.0990053191781044,-0.05939169228076935,-0.013014283962547779,0.037773363292217255,-0.0792708471417427,-0.009683588519692421,-0.30821606516838074,-0.12280543893575668,-0.08800482004880905,0.1845645159482956,0.19781972467899323,-0.0617244653403759,-0.12275183200836182,0.07433783262968063,-0.14410056173801422,-0.39881426095962524,-0.03808394446969032,0.06013951450586319,-0.1711290031671524,-0.15850405395030975,-0.11925362050533295,0.2745770215988159,0.2728787958621979,0.13517285883426666,0.02083786576986313,-0.17892791330814362,0.0020914350170642138,0.18262095749378204,-0.12231426686048508,0.38610127568244934,-0.1759795844554901,-0.0054846215061843395,0.23534569144248962,-0.024841193109750748,0.5608437657356262,0.7002930045127869,0.06570791453123093,-0.26484376192092896,0.24684017896652222,0.246267631649971,-0.08836904168128967,0.04976620152592659,-0.4480161666870117,-0.659461259841919,-0.12722811102867126,0.017969010397791862,-0.16474898159503937,-0.31296175718307495,-0.09789088368415833,-0.06941558420658112,0.12124331295490265,0.063776895403862,-0.05534089356660843,0.32865846157073975,-0.09551289677619934,-0.0572487972676754,-0.37661612033843994,-0.27453452348709106,-0.047785140573978424,0.09711772203445435,0.29460468888282776,-0.0004030737036373466,-0.0749700739979744,-0.06216636300086975,0.033959344029426575,0.2528231739997864,-0.19569334387779236,-0.23588131368160248,-0.03535643219947815,-0.006853131577372551,-0.1679891049861908,0.10662573575973511,0.018915321677923203,0.17756445705890656,0.18806271255016327,0.2102728635072708,0.10590963810682297,-0.07491718977689743,0.05000241473317146,0.06153715029358864,0.009341411292552948,0.014606636948883533,-0.3270922303199768,-0.08864445984363556,0.032409653067588806,0.3067680597305298,-0.16168460249900818,0.16384847462177277,0.07557646930217743,0.03693664073944092,0.2988969385623932,0.3549979329109192,-0.11313370615243912,0.07950682193040848,-0.24897640943527222,0.085024893283844,-0.17312751710414886,-0.03382415324449539,-0.05144278332591057,0.015756648033857346,0.0973539873957634,-0.20742738246917725,0.13100914657115936,-0.07788421958684921,0.02531580813229084,0.20479202270507812,0.0042689028196036816,0.10291062295436859,-0.2378130704164505,-0.0252398494631052,0.09604683518409729,0.07626324892044067,0.2672739326953888,-0.07175055891275406,-0.01408490538597107,0.006441064178943634,-0.012077679857611656,-0.011064647696912289,0.14948387444019318,0.09880145639181137,0.3241739869117737,-0.09398414194583893,0.013347587548196316,-0.059457819908857346,0.03292156755924225,-0.14661024510860443,-0.3396352529525757,0.17036251723766327,0.006768808700144291,-0.06162802502512932,-0.1405993103981018,-0.05273947864770889,0.18208439648151398,0.21973764896392822,-0.25133252143859863,-0.04390757530927658,0.020196910947561264,0.3091922402381897,0.15297171473503113,0.1026744470000267,0.08174987882375717,0.16244642436504364,-0.3204207420349121,-0.13989996910095215,-0.22191239893436432,-0.1053004339337349,-0.008642948232591152,0.08157585561275482,-0.09667016565799713,0.06845841556787491,0.21020613610744476,-0.02490486018359661,-0.14058011770248413,-0.10886815190315247,0.13900545239448547,0.015477540902793407,0.09167331457138062,-0.4167453348636627,-0.3594312071800232,0.39437031745910645,-0.019264841452240944,0.14788195490837097,-0.272919625043869,0.02742023952305317,0.0387595035135746,-0.05276698246598244,-0.3578908145427704,-0.24644841253757477,0.18819451332092285,0.0712837427854538,0.17093002796173096,0.0940399169921875,0.13088089227676392,0.026966052129864693,-0.37594711780548096,0.5217974781990051,-0.35680827498435974,0.06011297553777695,-0.05537118390202522,-0.16570095717906952,0.33695483207702637,0.20383962988853455,-0.13519278168678284,-0.15298311412334442,0.2523140609264374,0.34360232949256897,0.2621760964393616,0.13186469674110413,0.06352292001247406,0.2744818925857544,0.06184951588511467,-0.06372006237506866,-0.1555412858724594,-0.1270321011543274,0.1252073496580124,0.09162283688783646,-0.19511018693447113,0.20392583310604095,-0.27136167883872986,0.07599984854459763,-0.208359956741333,0.11635150015354156,0.16570207476615906,0.22725103795528412,0.06253748387098312,-0.10485578328371048,0.05018896982073784,-0.18066202104091644,-0.1674509197473526,0.028383227065205574,-0.06493856757879257,0.4472215473651886,0.3386882543563843,-0.22747492790222168,0.5376366972923279,0.31336528062820435,-0.4091655910015106,0.11957646906375885,-0.4571593999862671,-0.08501783758401871,0.02461792528629303,-0.13082405924797058,0.2151123583316803,0.12343751639127731,-0.26682108640670776,0.14810489118099213,0.06249656528234482,0.270668625831604,0.12761297821998596,-0.09909629821777344,0.05003079026937485,0.09522940963506699,0.041306111961603165,-0.33471617102622986,-0.09416784346103668,-0.12101335823535919,-0.08358000218868256,-0.1671876311302185,-0.037765983492136,0.031931523233652115,-0.11348189413547516,-0.15940900146961212,-0.11709912866353989,0.004245202522724867,0.05155722796916962,0.3082730174064636,-0.16381730139255524,-0.23903252184391022,0.07416003942489624,-0.07405444234609604,-0.05850137770175934,0.16539838910102844,0.105964295566082,-0.15202778577804565,-0.09048015624284744,0.07791616022586823,0.15152418613433838,0.17896811664104462,0.10187891125679016,-0.1284460425376892,-0.05634627118706703,0.14413195848464966,0.05216403305530548,0.12120030075311661,-0.004163375124335289,-0.07223283499479294,-0.19518713653087616,0.019156258553266525,-0.05202588811516762,-0.033406876027584076,0.008355190977454185,-0.02710619755089283,-0.04533269256353378,-0.12028571218252182,0.15551361441612244,-0.1223006322979927,0.07738993316888809,-0.0342794694006443,-0.038335684686899185,0.14343929290771484,-0.18296873569488525,0.12319765985012054,-0.07516072690486908,-0.12381763011217117,-0.0443282425403595,0.0009006531327031553,0.2527015209197998,-0.07233208417892456,0.13607166707515717,-0.40147367119789124,0.20723892748355865,0.11017461121082306,0.06702975928783417,0.38234224915504456,0.09346190094947815,-0.2041611224412918,-0.02703583985567093,-0.09851840883493423,0.32414233684539795,0.14080539345741272,0.08211461454629898,-0.1111343577504158,0.22834037244319916,-0.1638864427804947,-0.168038010597229,-0.23611143231391907,-0.18410100042819977,-0.23923715949058533,-0.016491075977683067,-0.1066557914018631,-0.23908710479736328,-0.0377618633210659,0.10135600715875626,0.14870764315128326,0.20952706038951874,-0.02129015512764454,-0.12299454212188721,-0.1641489416360855,-0.12348785251379013,-0.060646042227745056,0.10588351637125015,0.0340711884200573,-0.25594931840896606,-0.007951837964355946,-0.09042279422283173,-0.2357822209596634,0.19084104895591736,0.2681802809238434,0.20707952976226807,-0.1388469636440277,-0.09280664473772049,0.10568305104970932,0.45989516377449036,0.44051721692085266,-0.8174411654472351,0.29962262511253357,-0.04202133044600487,-0.13011066615581512,0.29955756664276123,0.015654653310775757,0.04665164276957512,-0.6414304971694946,0.005810493603348732,0.392302930355072,-0.02841186709702015,-0.10587712377309799,-0.07111182063817978,-0.022285884246230125,0.12130727618932724,0.32399582862854004,0.16121599078178406,0.07144694775342941,0.011362229473888874,-0.1440572440624237,0.11289703845977783,0.09908537566661835,0.14952777326107025,-0.08452983945608139,-0.004954807460308075,-0.0818481370806694,0.15572835505008698,-0.06135784462094307,0.035809118300676346,0.02521529421210289,-0.11956068128347397,-0.18382570147514343,0.027991455048322678,0.28022950887680054,0.2533224821090698,0.07561314105987549,-0.007405821233987808,0.09248316287994385,-0.0564187653362751,-0.04929782822728157,0.1766441911458969,-0.2786862850189209,0.07156943529844284,-0.33284392952919006,-0.24735921621322632,0.18173252046108246,-0.18132133781909943,-0.10005159676074982,0.27434322237968445,-0.002875717356801033,0.11703123152256012,-0.05047399178147316,0.17376239597797394,0.15814976394176483,-0.29194554686546326,0.14876453578472137,0.12938746809959412,-0.10746130347251892,0.04821467772126198,0.0878203809261322,-0.09218684583902359,-0.19430701434612274,-0.046505607664585114,0.18578296899795532,0.21622854471206665,-0.01967260055243969,-0.1944744735956192,-0.14712849259376526,0.01656772382557392,0.1419466733932495,0.153684601187706,0.040857311338186264,-0.07617495954036713,-0.22985003888607025,-0.09483496844768524,0.021180523559451103,0.15154695510864258,0.04979199916124344,-0.1236797347664833,0.06178944930434227,-0.016166627407073975,0.05022374168038368,0.10248873382806778,-0.03246588632464409,-0.11217612028121948,0.26306599378585815,-0.0410967655479908,-0.047312572598457336,0.24039633572101593,0.02321035787463188,-0.010144121013581753,-0.25067582726478577,-0.058274831622838974,0.22576145827770233,-0.06631170958280563,-0.19159844517707825,-0.20512768626213074,-0.20729652047157288,-0.0036908620968461037,0.2049170285463333,-0.11104486137628555,0.0733075961470604,0.10426035523414612,0.1658422201871872,0.19209818542003632,-0.20050449669361115,-0.14225761592388153,0.07680857926607132,-0.2362404316663742,0.1235470250248909,0.07821808755397797,-0.07984504848718643,-0.26654019951820374,-0.11962994933128357,0.25875014066696167,0.09751922637224197,-0.12342013418674469,0.021570999175310135,-0.11900783330202103,-0.11932487040758133,0.2064944952726364,0.18417589366436005,0.059206195175647736,-0.13266631960868835,-0.21052511036396027,-0.03807607293128967,0.21958526968955994,0.11450492590665817,0.0365014374256134,-0.34929516911506653,-0.22193643450737,0.053038373589515686,0.1438876986503601,-0.21020643413066864,-0.08342582732439041,0.26420798897743225,-0.08895349502563477,-0.04507536068558693,0.316550076007843,0.24430470168590546,-0.03943977132439613,-0.30066171288490295,0.3653091788291931,-0.07506097853183746,0.014064798131585121,0.28838443756103516,0.054985854774713516,0.15751652419567108,0.11237262189388275,-0.11924057453870773,-0.23287604749202728,-0.11718148738145828,0.23018860816955566,-0.0623076856136322,-0.07406818866729736,-0.018452145159244537,0.08459313958883286,-0.11792095750570297,0.055252790451049805,0.23115657269954681,-0.0973956510424614,0.08903859555721283,0.0391584150493145,-0.10735256224870682,-0.08344289660453796,0.1449144333600998,0.02291867509484291,-0.12969958782196045,-0.3184499442577362,-0.15233655273914337,0.0806838721036911,0.2934671938419342,0.15872998535633087,0.013543430715799332,-0.14992639422416687,-0.15498267114162445,0.1983753889799118,0.15120171010494232,0.1612830013036728,-0.029283562675118446,-0.1236179769039154,0.07660338282585144,0.02537837065756321,-0.11910715699195862,0.3836561441421509,0.07282862812280655,-0.30813851952552795,-0.034953467547893524,-0.03353800252079964,0.21384285390377045,-0.04327712208032608,0.15793654322624207,-0.5432685613632202,0.01381831057369709,-0.09808485954999924,-0.029279952868819237,0.04396698623895645,-0.13627183437347412,0.0016817024443298578,0.41477957367897034,0.104859359562397,-0.5360950827598572,-0.003387624863535166,-0.04300229251384735,0.7003459334373474,-0.03516577184200287,0.09110872447490692,-0.06553895771503448,-0.06238752603530884,-0.0548320934176445,-0.035539716482162476,0.11371684074401855,0.04852677509188652,-0.33745965361595154,-0.2607913017272949,-0.16183078289031982,0.3035190999507904,-0.002177609596401453,0.19044727087020874,-0.27821215987205505,-0.24740462005138397,0.011805186979472637,0.06266850233078003,-0.08844853192567825,-0.13845926523208618,-0.055360980331897736,-0.1550367921590805,-0.13607338070869446,0.15531307458877563,-0.1096348986029625,-0.12610483169555664,0.1870785802602768,-0.1553492695093155,0.05098704621195793,0.369718998670578,0.12112526595592499,-0.08435237407684326,0.2173571139574051,0.07234311103820801,0.19009296596050262,-0.004878896754235029,0.21733124554157257,-0.007660194765776396,0.2706306278705597,0.035008180886507034,0.023101750761270523,-0.18519683182239532,-0.2537915110588074,0.03821030259132385,0.16994306445121765,-0.04638964682817459,0.11548837274312973,-0.03910718113183975,-0.2324984073638916,0.1523592472076416,-0.10531947761774063,0.0701102614402771,-0.1320992261171341,-0.024793948978185654,-0.30788278579711914,0.09751319885253906,-0.012300681322813034,0.0835164487361908,-0.10205991566181183,-0.1487084925174713,-0.11721865832805634,0.2892245352268219,0.12474583089351654,0.22249576449394226,-0.2566429078578949,-0.1666795164346695,-0.05913693830370903,0.017968809232115746,-0.07921438664197922,0.18376468122005463,0.04861033707857132,-0.038532644510269165,0.052325066179037094,-0.17340414226055145,-0.024887442588806152,0.09784085303544998,-0.21335244178771973,-0.2514737546443939,-0.10182306170463562,0.04052441567182541,0.17216576635837555,-0.04910179227590561,-0.30776774883270264,-0.10872054100036621,0.056335918605327606,0.14601245522499084,-0.14486703276634216,0.05036720633506775,0.27078959345817566,-0.16886630654335022,-0.07673686742782593,-0.026091525331139565,0.07680436223745346,-0.069493368268013,-0.09529328346252441,0.2943851053714752,0.0028338355477899313,-0.052366264164447784,0.1936781406402588,0.11900297552347183,0.14591938257217407,-0.0812336802482605,-0.05820250138640404,-0.05323203280568123,0.03617487847805023,0.15975382924079895,0.0872669592499733,-0.04462479427456856,-0.06897807121276855,-0.08624006807804108,0.15927591919898987,0.09620676189661026,0.17143481969833374,-0.18355174362659454,0.09255558997392654,0.02446594275534153,-0.01767422817647457,-0.17732931673526764,0.21887390315532684,-0.16947618126869202,-0.007680500391870737,0.08528067171573639,-0.036597784608602524,0.19612063467502594,0.2267887145280838,-0.10670272260904312,0.16325369477272034,-0.18133871257305145,0.23890303075313568,-0.20579233765602112,-0.23338794708251953,-0.31115567684173584,-0.09575196355581284,0.1801808774471283,-0.24802623689174652,-0.17444409430027008,0.0747765377163887,0.24732033908367157,0.05481928214430809,-0.06644006818532944,0.0007650029147043824,-0.04176944121718407,-0.09661117941141129,0.2083284705877304,0.18207252025604248,-0.041848909109830856,0.08147633820772171,-0.2739228308200836,0.11401107907295227,-0.15180017054080963,0.24937129020690918,-0.08515819162130356,-0.3740823566913605,-0.20999152958393097,-0.07702578604221344,0.07603980600833893,0.22878648340702057,-0.2624492347240448,-0.23425999283790588,-0.12518252432346344,0.1320747584104538,0.10574481636285782,0.008766964077949524,0.15241853892803192,-0.16650177538394928,-0.2233520895242691,0.04908989369869232,0.09685537219047546,-0.28549036383628845,-0.06114823371171951,0.066998191177845,-0.13553966581821442,0.19262923300266266,0.18113109469413757,0.2191765159368515,-0.04232136532664299,-0.1985335499048233,0.15560267865657806,-0.4246503412723541,0.45193272829055786,0.035856541246175766,0.19994579255580902,0.026936445385217667,0.11311271041631699,0.1374344378709793,0.024480091407895088,-0.05251968652009964,0.25076332688331604,0.3754167854785919,0.12768158316612244,-0.25367221236228943,-0.17938517034053802,-0.04788971692323685,0.028961792588233948,0.09422366321086884,0.12026158720254898,0.2382461428642273,-0.23024998605251312,-0.06077050790190697,0.10609224438667297,0.09319332987070084,0.07660035789012909,0.1855607032775879,-0.14212003350257874,-0.09149833768606186,-0.053535934537649155,0.1860855221748352,0.15754640102386475,0.06164275109767914,-0.06459220498800278,0.004691974725574255,-0.05455039441585541,0.1473878175020218,0.16168628633022308,0.08475449681282043,-0.11154618859291077,0.1882617026567459,-0.09648647159337997,-0.23077061772346497,-0.016974352300167084,0.15267270803451538,-0.23078112304210663,-0.17132924497127533,-0.25507694482803345,-0.026136353611946106,-0.06475967913866043,0.19271320104599,-0.00014710646064486355,-0.08826302736997604,-0.20969098806381226,0.029203006997704506,-0.051141537725925446,-0.07085219025611877,0.20684510469436646,0.03634300455451012,0.27152058482170105,0.026576457545161247,0.03212364390492439,-0.03535805642604828,0.13221630454063416,-0.021784190088510513,-0.13107267022132874,-0.13729976117610931,-0.08056336641311646,0.06856576353311539,0.15808621048927307,0.19028741121292114,-0.08564047515392303,-0.21774117648601532,-0.2453145980834961,-0.04839487001299858,-0.05763763561844826,-0.017941225320100784,-0.00592218479141593,-0.2119254767894745,-0.20270684361457825,-0.18606704473495483,0.006807500030845404,0.025672849267721176,-0.27034464478492737,-0.09699591249227524,-0.1013476550579071,-0.054879508912563324,0.054701145738363266,-0.2196047306060791,-0.1990830898284912,0.2092597484588623,-0.14857599139213562,-0.22687408328056335,0.27383965253829956,0.06395197659730911,-0.0736866295337677,-0.22630928456783295,0.09851586073637009,-0.22136227786540985,0.2624663710594177,0.12457438558340073,0.09073168784379959,-0.05023496598005295,0.017116688191890717,-0.16529592871665955,-0.0341980867087841,-0.019867965951561928,-0.16978362202644348,0.0845666453242302,0.07540960609912872,0.15904612839221954,0.051914773881435394,-0.0006280203233473003,0.0676681250333786,0.1111110970377922,-0.053734276443719864,0.08460859209299088,-0.13524480164051056,-0.13911670446395874,-0.12064596265554428,-0.01575109176337719,-0.024426067247986794,-0.1511315554380417,-0.012205744162201881,-0.1396881490945816,0.07290743291378021,0.06041182577610016,0.17769543826580048,0.13661949336528778,-0.01303593348711729,-0.2546655237674713,-0.06012335047125816,0.1569247543811798,0.06120073050260544,-0.006757706869393587,-0.14132480323314667,0.12245175242424011,0.04738566651940346,0.004598863888531923,0.02010778710246086,0.15124249458312988,-0.13433830440044403,-0.001433810917660594,0.004049665294587612,0.0041114212945103645,0.028150245547294617,-0.21370680630207062,0.13961830735206604,0.1271369606256485,0.04049108549952507,-0.2039802521467209,0.18711614608764648,0.07144451141357422,-0.16554094851016998,-0.08390554785728455,-0.0769726037979126,0.2378237396478653,0.10041090101003647,0.06922361254692078,0.5271458029747009,-0.09132977575063705,0.007410337682813406,-0.06562528014183044,0.02445847913622856,0.008098386228084564,-0.1433832198381424,-0.007910327054560184,0.10928719490766525,-0.04008302092552185,0.13895273208618164,0.14170721173286438,-0.027675701305270195,-0.05244747921824455,-0.0763770043849945,0.1983509510755539,0.11093126982450485,0.052832819521427155,-0.18078583478927612,-0.009531186893582344,0.2119431495666504,0.21081553399562836,-0.02494727075099945,0.082304447889328,-0.1425923854112625,0.15495237708091736,0.14794959127902985,-0.15540297329425812,0.0246513020247221,-0.012943929992616177,-0.06860524415969849,-0.15403197705745697,-0.02388446219265461,0.07625890523195267,-0.12531991302967072,0.35885727405548096,0.009924430400133133,0.06894446909427643,-0.3771093487739563,-0.010523848235607147,0.03581596165895462,-0.16309398412704468,0.13508954644203186,-0.027196552604436874,-0.03526291251182556,-0.03999675065279007,-0.05490817874670029,0.005033197347074747,-0.07898585498332977,-0.2052798718214035,-0.12149890512228012,-0.40941596031188965,0.0016436089063063264,-0.26409727334976196,-0.05637788772583008,0.2527565360069275,0.042189426720142365,0.0628037229180336,0.1711186319589615,-0.16392721235752106,0.218098983168602,0.06308319419622421,0.169602632522583,-0.0007236739038489759,-0.06438875943422318,-0.17444342374801636,0.0722227543592453,-0.07376040518283844,0.09182015806436539,-0.04055052250623703,0.03740277141332626,-0.20929017663002014,0.07229394465684891,0.09006498754024506,-0.25983181595802307,0.19123077392578125,-0.16012731194496155,-0.3084944486618042,0.03050781972706318,-0.006433323957026005,0.40446069836616516,-0.12683787941932678,0.2313401848077774,0.22682544589042664,-0.7151925563812256,-0.041877441108226776,-0.2104024887084961,0.15266597270965576,-0.18409116566181183,0.012881316244602203,0.21128323674201965,-0.3349059224128723,-0.21387207508087158,0.27426207065582275,0.00968832615762949,0.4104163646697998,0.30257415771484375,0.012737967073917389,-0.09935491532087326,-0.09614796936511993,0.037917010486125946,-0.12087461352348328,0.18580804765224457,0.3249376118183136,0.17609606683254242,0.049908608198165894,-0.06362301856279373,-0.054883215576410294,0.20394738018512726,0.08241120725870132,0.09387274086475372,-0.2908864915370941,-0.1593436896800995,-0.20580297708511353,0.24240922927856445,-0.05139010399580002,0.09645659476518631,0.07585528492927551,-0.17892152070999146,0.10280312597751617,0.011861998587846756,-0.15424399077892303,0.0431864969432354,0.14842967689037323,-0.1776517629623413,-0.2895326614379883,0.24181227385997772,0.017071504145860672,0.05907994136214256,0.19319722056388855,0.14968881011009216,-0.06570743769407272,0.07212217152118683,-0.005443792790174484,0.1170441210269928,-0.26086321473121643,-0.197087824344635,-0.19486798346042633,0.18055513501167297,0.12900559604167938,0.13570702075958252,-0.07166972011327744,-0.3546435236930847,0.195969358086586,0.1639440804719925,0.13191701471805573,-0.2886895537376404,-0.5685874819755554,0.7642332315444946,0.35516560077667236,-0.41933467984199524,0.48524269461631775,-0.30315154790878296,0.0984928235411644,0.42530396580696106,-1.1718844175338745,0.8496429920196533,0.5708075165748596,0.029470236971974373,-0.44624167680740356,0.20541802048683167,-0.6458247303962708,0.31232136487960815,-0.08606541156768799,-0.14797361195087433,-0.5317704677581787,0.38417473435401917,-0.11246400326490402,0.12813305854797363,-0.22151124477386475,0.12861068546772003,0.270709365606308,0.031263940036296844,0.2124776840209961,-0.2600274682044983,-0.23448877036571503,-0.19020210206508636,-0.1362830549478531,0.2907651662826538,-0.13888533413410187,-0.3504525423049927,-0.07381885498762131,0.6569076776504517,0.0759105235338211,-0.10747776925563812,-0.2702127993106842,-0.2566409409046173,0.16138242185115814,-0.2039150595664978,0.0002521731366869062,0.06780348718166351,-0.01472917478531599,0.19107100367546082,-0.12239748984575272,-0.032437775284051895,-0.08192647993564606,-0.029305296018719673,-0.2554582953453064,0.017125621438026428,-0.18476015329360962,0.11528713256120682,-0.02110842429101467,-0.13124367594718933,-0.2220306098461151,-0.23104292154312134,0.26574277877807617,0.1881948858499527,-0.36594635248184204,-0.07273831963539124,0.01653599552810192,0.3650127351284027,-0.11002389341592789,-0.05281625688076019,-0.107178695499897,0.13404393196105957,0.1940944641828537,-0.3294552266597748,0.19324806332588196,0.0124334916472435,-0.02931360714137554,0.13073305785655975,0.27651143074035645,-0.040062010288238525,-0.22976404428482056,0.17385129630565643,-0.12250615656375885,0.0759863555431366,-0.37820571660995483,0.09111637622117996,0.024645516648888588,0.44817885756492615,-0.35541293025016785,0.004549834877252579,0.013750332407653332,0.35763952136039734,0.22582916915416718,-0.3571774661540985,0.3036437928676605,-0.23672915995121002,-0.3365095257759094,0.22663426399230957,0.3722950220108032,-0.20493853092193604,0.02967763878405094,0.22226981818675995,0.011635694652795792,-0.13541948795318604,-0.0008572497754357755,0.159613698720932,0.24094951152801514,-0.25867605209350586,-0.13404907286167145,-0.08449368923902512,0.17137297987937927,-0.05042016878724098,0.1502472460269928,0.48697778582572937,0.1344892680644989,0.0034826702903956175,0.03736231476068497,-0.02222379669547081,-0.15622387826442719,0.3104797899723053,-0.058019354939460754,0.08886998891830444,-0.03944126516580582,-0.28882598876953125,0.23615537583827972,-0.012340934947133064,-0.09586403518915176,0.18436478078365326,0.08023180812597275,0.14829117059707642,0.11637075245380402,0.06358370184898376,0.268307089805603,-0.7404538989067078,0.00263958889991045,0.35328179597854614,0.01247430220246315,-0.010442402213811874,-0.14522475004196167,0.10553888231515884,0.13667838275432587,0.17268182337284088,-0.22370919585227966,0.005265964660793543,0.22306977212429047,-0.2563706040382385,-0.3025711476802826,-0.1852915734052658,0.14539390802383423,-0.24550606310367584,0.04211696609854698,0.5045984983444214,0.04705439507961273,-0.09540321677923203,-0.06584702432155609,-0.10788699984550476,0.3060479760169983,-0.2663295567035675,0.09853798896074295,-0.1183432936668396,-0.02871284820139408,0.0401177704334259,0.06857337057590485,0.23827533423900604,-0.3203575611114502,-0.3226185441017151,0.11675803363323212,0.23717382550239563,0.083992138504982,-0.34733760356903076,-0.4660530686378479,0.036814771592617035,0.17145486176013947,0.10908380150794983,-0.23156115412712097,-0.011565898545086384,-0.08668037503957748,0.08236977458000183,-0.06476263701915741,0.27324923872947693,-0.16735950112342834,-0.10088177025318146,-0.3064732551574707,0.22464831173419952,-0.21315355598926544,0.2275693565607071,-0.061603665351867676,0.22477304935455322,0.1133308857679367,-0.30661293864250183,0.18655993044376373,0.046816106885671616,-0.3151915967464447,0.0308944433927536,0.15086032450199127,0.0961119681596756,0.16010142862796783,-0.03329789638519287,-0.20341011881828308,0.05027399957180023,0.15113453567028046,0.3817094564437866,0.1507202386856079,-0.21764704585075378,-0.20791636407375336,-0.31754449009895325,0.4143953323364258,-0.24538244307041168,-0.5022834539413452,0.04722634330391884,0.06336081773042679,-0.3061386048793793,-0.16721409559249878,-0.12970958650112152,-0.1791037619113922,0.24587313830852509,0.13386590778827667,-0.05611364543437958,-0.17182797193527222,0.012258129194378853,-0.04275648295879364,-0.19480136036872864,0.0668799877166748,0.10070299357175827,-0.029018746688961983,0.04507286846637726,-0.24776838719844818,-0.23623788356781006,0.2040991336107254,-0.23533709347248077,-0.09841546416282654,0.1141524612903595,-0.18373137712478638,0.18430286645889282,-0.12428990751504898,0.06311921775341034,0.017589909955859184,0.02313254028558731,-0.2039787471294403,0.2228086143732071,0.06498092412948608,-0.3843344449996948,0.004017820581793785,0.2105633169412613,0.2537609040737152,-0.02138039842247963,-0.03749508783221245,-0.04511237144470215,-0.1167382299900055,0.00821340549737215,-0.1340307891368866,0.1533699333667755,0.39365440607070923,0.2383403778076172,0.1250077188014984,-0.17819474637508392,0.08383438736200333,0.09874962270259857,-0.13514916598796844,-0.134730264544487,-0.19706615805625916,0.04859880357980728,-0.13919387757778168,0.020634135231375694,-0.18251359462738037,0.054418109357357025,-0.40054744482040405,0.06113838776946068,0.32332339882850647,0.13905002176761627,-0.12785686552524567,-0.10096754878759384,0.1934591382741928,-0.3445131182670593,0.28694188594818115,0.3881063163280487,-0.05890166759490967,0.24242188036441803,0.25911733508110046,-0.24317507445812225,0.2184479832649231,0.06659062206745148,0.15604321658611298,-0.2941397428512573,-0.3022345006465912,0.0717509314417839,0.4234350323677063,0.16047127544879913,-0.00990529078990221,0.031585708260536194,-0.07891396433115005,-0.2171737104654312,-0.051617786288261414,-0.12784124910831451,0.0900188609957695,0.18062549829483032,-0.15941746532917023,0.1695021688938141,0.0657416358590126,-0.08023983985185623,-0.300272136926651,-0.03862821310758591,0.23625797033309937,-0.2909657061100006,-0.2896040976047516,0.013161852024495602,-0.04250454902648926,-0.07270530611276627,0.4083191454410553,0.28997161984443665,0.10785837471485138,-0.1832256317138672,-0.042205456644296646,0.2147567719221115,-0.22793413698673248,0.1536950170993805,-0.07758035510778427,-0.199015811085701,-0.16788893938064575,-0.024160830304026604,-0.04235506430268288,0.011710979044437408,0.04257737100124359,-0.025224260985851288,-0.27801504731178284,-0.20047976076602936,0.17135745286941528,-0.00815536454319954,0.05909579247236252,-0.26631197333335876,0.19823312759399414,0.0721329003572464,-0.29384440183639526,-0.03518884256482124,-0.1565808653831482,-0.24506548047065735,-0.21630321443080902,0.06253130733966827,0.167326882481575,0.35000094771385193,0.651788592338562,-0.27502572536468506,0.32251402735710144,0.4429399371147156,-0.003688766388222575,0.055879462510347366,0.07435283064842224,0.11441100388765335,0.08555860817432404,0.03359886631369591,0.1646479219198227,0.29431748390197754,0.061067674309015274,0.0146576426923275,0.1817086935043335,-0.3679613769054413,-0.049280282109975815,-0.05220450088381767,0.3657267689704895,0.06304126977920532,0.15280187129974365,0.31650781631469727,-0.3290165364742279,0.03619278222322464,0.3377469778060913,-0.07754210382699966,0.20036551356315613,0.20661234855651855,0.056809090077877045,-0.10912581533193588,0.3990950882434845,-0.04621056839823723,0.237352654337883,0.020277712494134903,-0.2818504869937897,-0.13623180985450745,0.15729014575481415,0.05120065063238144,-0.2646951675415039,0.23718944191932678,-0.07944055646657944,0.02178126946091652,0.15666218101978302,-0.032839640974998474,0.06302335113286972,0.23917768895626068,-0.1852836310863495,-0.35964784026145935,-0.15528413653373718,0.18143150210380554,0.22905480861663818,-0.02025688625872135,-0.358411580324173,-0.07600371539592743,-0.008404264226555824,-0.11727707087993622,-0.15826109051704407,-0.022613707929849625,-0.00009003280865726992,0.011086303740739822,-0.026614587754011154,0.11253408342599869,-0.21426187455654144,-0.20249366760253906,0.05997442081570625,0.0704239085316658,0.1024884358048439,-0.31783220171928406,-0.16243141889572144,-0.10143455117940903,0.11022966355085373,0.07529044151306152,0.04944552108645439,-0.1080213189125061,-0.08826383948326111,-0.07078228145837784,0.22171513736248016,0.07931770384311676,0.09899243712425232,-0.2866675853729248,-0.2223435491323471,-0.20250238478183746,-0.027692977339029312,0.042136162519454956,0.052671827375888824,-0.1624162197113037,0.06398157775402069,0.0759747177362442,-0.192287415266037,0.11844595521688461,-0.18649548292160034,-0.23311960697174072,-0.19662022590637207,0.36713993549346924,0.3519549071788788,0.02103852480649948,0.3221408724784851,0.11245426535606384,0.07443750649690628,0.08101029694080353,-0.003213008400052786,0.16293273866176605,0.09501438587903976,-0.19046466052532196,0.03493136167526245,0.05009491741657257,0.15566956996917725,-0.010798545554280281,0.0333942174911499,0.03404230624437332,-0.1607278734445572,-0.19285458326339722,0.16437934339046478,0.1328900009393692,0.06613907217979431,-0.07405983656644821,0.03225752338767052,-0.015126441605389118,0.04086492583155632,0.1406230926513672,-0.10367996245622635,-0.21563135087490082,-0.24101541936397552,-0.08222756534814835,0.1907474249601364,0.10232064872980118,0.22207489609718323,-0.18788498640060425,-0.03461557626724243,0.07943273335695267,0.19291579723358154,0.05588802695274353,0.20300444960594177,-0.21292297542095184,0.15659478306770325,0.16462154686450958,-0.24457065761089325,-0.019280172884464264,0.18360620737075806,-0.08592164516448975,-0.20427630841732025,0.19290295243263245,-0.05319860950112343,0.1902714967727661,0.21500833332538605,-0.1497187316417694,0.24873194098472595,0.3746293783187866,0.2200271189212799,-0.2378060221672058,0.11376159638166428,-0.09166378527879715,0.11310796439647675,-0.19813790917396545,-0.06076212227344513,0.22157369554042816,-0.05437472462654114,-0.04752021282911301,-0.007953489199280739,-0.0003265989071223885,0.1260439157485962,-0.12832795083522797,0.04294252768158913,0.1714286506175995,0.07965429872274399,0.1603783816099167,-0.1739862561225891,-0.15672734379768372,0.11511465162038803,-0.05760779604315758,-0.048884231597185135,-0.04234152287244797,-0.02195204794406891,-0.10952253639698029,0.1288117617368698,-0.07840636372566223,0.06574530899524689,-0.057565778493881226,-0.14628687500953674,-0.23105132579803467,0.06751511245965958,-0.045726485550403595,-0.2303686887025833,-0.03488532453775406,-0.018030380830168724,-0.10596015304327011,-0.09703389555215836,-0.18395930528640747,-0.14778919517993927,0.06992319971323013,0.020253581926226616,-0.10788896679878235,-0.19501571357250214,-0.20631150901317596,-0.022092336788773537,-0.09026104211807251,-0.11449836939573288,0.020559005439281464,-0.001978027168661356,0.17265942692756653,0.19121454656124115,0.2610394358634949,-0.14569082856178284,0.031571369618177414,0.04217088967561722,-0.40818846225738525,-0.0013376792194321752,-0.1423664093017578,-0.1145588606595993,-0.15606041252613068,0.08342308551073074,0.23692774772644043,-0.1434766948223114,-0.03382271155714989,-0.046820953488349915,-0.24298591911792755,0.12766332924365997,-0.10403729975223541,0.13068357110023499,0.08847399055957794,-0.20274198055267334,-0.20268812775611877,-0.0128091499209404,-0.005718494299799204,0.12115099281072617,-0.013528191484510899,-0.020068636164069176,-0.11557341367006302,0.10138644278049469,0.016554413363337517,-0.1538792997598648,-0.04388101398944855,0.005344956647604704,-0.23641334474086761,0.14937588572502136,0.11600801348686218,0.12223779410123825,0.2644907236099243,0.31816646456718445,0.13527606427669525,-0.0025884087663143873,-0.134697824716568,-0.09077361226081848,-0.17010337114334106,-0.35010579228401184,0.12473461031913757,0.15308789908885956,-0.09719610214233398,-0.15563495457172394,-0.05531729757785797,0.058620989322662354,-0.0752735510468483,0.026470059528946877,0.003817131510004401,-0.25781863927841187,-0.09831403940916061,0.31282839179039,-0.04769977554678917,-0.10997655242681503,-0.2202625274658203,0.08466330915689468,-0.16162294149398804,-0.2705078423023224,0.07256120443344116,0.06672435998916626,-0.15642893314361572,-0.13325031101703644,-0.03321247547864914,0.09806366264820099,0.29671797156333923,0.023983443155884743,-0.11809776723384857,-0.1424122452735901,-0.1594836562871933,0.17622965574264526,0.28264227509498596,-0.06365736573934555,-0.21169275045394897,0.04307025671005249,0.04517555981874466,-0.2939869165420532,0.15337881445884705,0.20224495232105255,0.033825747668743134,-0.09495620429515839,0.06686446070671082,-0.22311340272426605,-0.2616119682788849,-0.010568182915449142,0.23025837540626526,0.10461083054542542,0.1380774974822998,0.2731301486492157,-0.10081686079502106,-0.0720730721950531,0.18779079616069794,-0.23737986385822296,0.1337571144104004,0.18101803958415985,-0.12176709622144699,0.13677357137203217,-0.005193100310862064,-0.1585267186164856,-0.13147707283496857,-0.07944003492593765,0.08510787039995193,-0.09001583606004715,-0.017042703926563263,-0.20349743962287903,0.06906557083129883,0.1153348982334137,0.16608202457427979,0.08327104896306992,0.0590079165995121,-0.15193788707256317,-0.02727203257381916,0.19876301288604736,-0.004005450755357742,0.02988172136247158,-0.12397259473800659,-0.24154093861579895,-0.10646665841341019,0.2288447469472885,0.1689833104610443,-0.026966920122504234,0.0715922936797142,0.22298890352249146,-0.08223017305135727,-0.10716823488473892,0.05342891812324524,-0.02046329341828823,0.07398183643817902,-0.1304316222667694,0.08333521336317062,-0.048112452030181885,0.14340554177761078,0.08966346830129623,0.15328742563724518,0.11330004036426544,0.0002902112319134176,0.041018471121788025,0.051962390542030334,0.006904872599989176,0.08633872866630554,-0.014278963208198547,0.07083001732826233,-0.08291539549827576,-0.12004584074020386,-0.0815211609005928,0.009161509573459625,0.18639729917049408,0.046825289726257324,0.012300192378461361,-0.06460978835821152,0.04627319797873497,0.018456479534506798,0.01604362390935421,-0.11964674293994904,-0.20871089398860931,-0.10322809219360352,0.03347126021981239,-0.10079488903284073,0.18203938007354736,0.0316646583378315,-0.16141648590564728,-0.0067865182645618916,0.09702391922473907,0.043026674538850784,0.2208680808544159,0.04671681299805641,-0.13757605850696564,-0.016043180599808693,0.11314170807600021,-0.021638741716742516,-0.19576554000377655,0.2347468137741089,0.030966272577643394,0.18154555559158325,0.29900673031806946,0.10663270950317383,-0.03141791373491287,-0.23266975581645966,0.16963279247283936,-0.01892458088696003,0.2104858011007309,0.03699611499905586,0.15840812027454376,-0.09309781342744827,-0.143409863114357,0.18424324691295624,-0.0063567813485860825,0.020301397889852524,0.3694402277469635,-0.13843338191509247,0.11611008644104004,0.04393654689192772,-0.07372800260782242,-0.02304629608988762,-0.1545533537864685,-0.043840233236551285,0.04917655885219574,-0.10056847333908081,-0.06600110232830048,0.06765331327915192,0.08748723566532135,0.01799570582807064,-0.001248699496500194,0.1448536515235901,-0.06498179584741592,-0.045630574226379395,-0.13658875226974487,0.09413716197013855,-0.017984559759497643,0.0555490180850029,0.1874755322933197,-0.06962449103593826,0.03558696061372757,-0.2522664964199066,-0.04067951440811157,0.10498442500829697,-0.06320589035749435,-0.1566881686449051,-0.04081053286790848,0.12518678605556488,-0.13213980197906494,0.3790547251701355,0.42626476287841797,0.35284364223480225,-0.2227407693862915,0.11506573855876923,-0.014936116524040699,-0.03254101797938347,-0.05042115971446037,0.006192061584442854,-0.12102703750133514,-0.08110346645116806,-0.06812884658575058,-0.19629304111003876,-0.03985893353819847,0.14047424495220184,0.08321500569581985,-0.07820381224155426,-0.27531489729881287,-0.18091027438640594,-0.14675910770893097,-0.15446095168590546,0.009048058651387691,0.13779644668102264,0.11069195717573166,0.1466619074344635,0.0834808349609375,0.006027154624462128,-0.0860583707690239,0.049596529453992844,0.19908221065998077,0.11735188215970993,0.072021484375,0.13016630709171295,-0.1865369826555252,0.05399199575185776,-0.16814032196998596,0.006319035310298204,-0.003741531865671277,-0.10508893430233002,-0.06967481970787048,0.16287116706371307,-0.01305591594427824,0.10199815779924393,-0.06145185977220535,0.156025692820549,0.15417557954788208,-0.05409575626254082,0.0773843377828598,0.050024647265672684,0.19813449680805206,0.34300127625465393,0.0437275767326355,-0.08518923074007034,0.039721328765153885,-0.45148026943206787,-0.12571606040000916,0.2840915620326996,-0.03426958993077278,-0.0031158109195530415,0.038783468306064606,0.018887314945459366,-0.13955624401569366,0.10634772479534149,-0.2300952821969986,0.05161019787192345,0.23478490114212036,-0.2892325520515442,-0.5300242304801941,0.27379822731018066,-0.20127834379673004,-0.12424850463867188,0.1717834174633026,0.03586021065711975,-0.16090017557144165,-0.12445812672376633,0.001017286442220211,0.06067514047026634,0.15174970030784607,0.08748330920934677,-0.18972623348236084,0.08179538697004318,-0.29394567012786865,0.1663229912519455,0.27246731519699097,0.258878618478775,-0.1989789456129074,0.10756033658981323,-0.14498351514339447,-0.19036349654197693,0.3200809061527252,0.1548052728176117,0.07126809656620026,-0.23283980786800385,0.3644774556159973,-0.05757564306259155,-0.08918312937021255,0.08287593722343445,-0.32186129689216614,-0.33754098415374756,0.07185763120651245,-0.398883581161499,0.14727135002613068,0.10698818415403366,0.005892472807317972,0.1782238781452179,0.03619972616434097,-0.22826452553272247,-0.3887532651424408,0.17431597411632538,0.03119473345577717,-0.15238723158836365,-0.03318072855472565,-0.003871208755299449,0.010698684491217136,-0.030468791723251343,0.017998797819018364,-0.08318320661783218,0.03557075187563896,-0.10369561612606049,0.005110402125865221,-0.10549008846282959,0.1445077508687973,-0.2057623565196991,-0.005035098642110825,-0.0026681472081691027,0.24735069274902344,-0.009473947808146477,0.15788231790065765,-0.3151298463344574,-0.07419886440038681,0.07453848421573639,0.17025461792945862,0.07051616162061691,0.05914749950170517,-0.2852720618247986,-0.16763025522232056,-0.18561136722564697,0.17432892322540283,0.09289095550775528,0.0832623839378357,-0.09731586277484894,0.18750207126140594,0.09182444214820862,-0.09114758670330048,-0.02700188010931015,0.12518562376499176,0.03930755332112312,0.010754397138953209,0.38744768500328064,-0.07420701533555984,0.14719007909297943,0.09787937253713608,-0.0009749875753186643,-0.08535858243703842,0.08163926005363464,-0.03596261888742447,-0.1068197712302208,0.01331524271517992,0.2545258700847626,0.29180148243904114,0.1398598998785019,-0.0792180597782135,0.0930340364575386,-0.004100456368178129,0.29369446635246277,0.1204165443778038,0.16242170333862305,-0.017310624942183495,-0.21597734093666077,0.03648786619305611,0.30218350887298584,0.08934483677148819,0.0062853493727743626,-0.29994481801986694,-0.08445411175489426,-0.07530555129051208,0.3744184970855713,0.07130620628595352,-0.052605628967285156,-0.11324692517518997,0.012914183549582958,-0.1378960758447647,0.37073180079460144,0.2406141757965088,-0.030644016340374947,-0.07406101375818253,-0.09189759939908981,-0.04297053813934326,0.07748546451330185,-0.1747257113456726,-0.1722232848405838,0.2410738319158554,-0.060046568512916565,-0.13415645062923431,0.4482342302799225,0.009665317833423615,-0.12395580857992172,0.3139459490776062,0.3006940186023712,0.020101582631468773,-0.01812090165913105,-0.06444746255874634,-0.13071763515472412,0.21069297194480896,-0.02450515329837799,0.021982038393616676,0.07580196857452393,-0.040913600474596024,-0.060996148735284805,-0.08210532367229462,0.0606040321290493,-0.07750385254621506,-0.007883003912866116,0.1504010558128357,-0.04887426272034645,-0.1914825290441513,-0.06212915852665901,-0.2401205450296402,0.19582810997962952,0.20413538813591003,-0.11206600069999695,0.002009638585150242,-0.19080229103565216,-0.03590022772550583,0.18053443729877472,0.1157546415925026,0.09650188684463501,-0.01445937529206276,-0.1274692416191101,-0.21546198427677155,0.094698965549469,0.2242668867111206,-0.04788535460829735,-0.32960209250450134,-0.18114538490772247,0.03236076980829239,0.0655147060751915,-0.16317960619926453,0.07461611181497574,0.09911192208528519,-0.1206444650888443,-0.03901154175400734,0.025009583681821823,0.07322856783866882,-0.3287295997142792,-0.02301502786576748,-0.1347072720527649,0.012994153425097466,0.3448708951473236,-0.025142207741737366,0.11718454211950302,0.015048597939312458,-0.17524482309818268,-0.19846214354038239,-0.12208597362041473,0.07859653234481812,0.04434172809123993,0.22028808295726776,-0.23362001776695251,0.11625008285045624,0.14766116440296173,-0.08392287790775299,-0.032651495188474655,0.12274714559316635,0.18269219994544983,0.09835144132375717,-0.2143198400735855,-0.22945456206798553,0.1833522617816925,-0.0339987687766552,0.053187232464551926,-0.009136337786912918,-0.05781620368361473,-0.1823054850101471,0.06197253614664078,0.2457868605852127,-0.07482875883579254,0.12702596187591553,-0.09170018136501312,-0.11307418346405029,-0.30121567845344543,0.0682663768529892,-0.014574771746993065,-0.0591791532933712,-0.020233916118741035,-0.05378154665231705,0.08154381811618805,-0.00038763933116570115,0.0012698270147666335,0.20096717774868011,0.08950051665306091,-0.2451261729001999,0.2964528203010559,0.1841229945421219,0.08447350561618805,-0.09471657872200012,0.14013126492500305,-0.07057107985019684,0.023551378399133682,0.24621324241161346,-0.05746016278862953,-0.17588500678539276,0.17344947159290314,0.16031910479068756,0.1298023909330368,0.011791650205850601,0.3596593141555786,0.09138620644807816,-0.052423518151044846,0.0885515883564949,0.7227619290351868,0.19421787559986115,0.5688372254371643,-0.9612193703651428,-0.5498335361480713,0.15980017185211182,0.25826287269592285,-0.19466577470302582,0.20996113121509552,0.17455917596817017,-0.8205981850624084,0.35272106528282166,-0.1012970581650734,-0.8163493871688843,0.016336696222424507,-0.3333658277988434,-0.08434085547924042,-0.34263771772384644,-0.026832152158021927,-0.34751200675964355,0.017039204016327858,0.2775985300540924,-0.11945774406194687,-0.24223165214061737,-0.10057239234447479,0.012237240560352802,0.019919656217098236,-0.07357095927000046,-0.07960233837366104,-0.014566890895366669,0.16355130076408386,-0.16582395136356354,-0.08389051258563995,-0.4638836681842804,-0.005192016717046499,-0.2754303216934204,-0.19701935350894928,-0.02730577439069748,-0.03629320487380028,0.048720236867666245,0.0478607676923275,0.014904316514730453,-0.0901181623339653,0.31158801913261414,0.007857002317905426,0.09462133795022964,0.00030837388476356864,0.019717203453183174,-0.15412822365760803,-0.039416324347257614,-0.41872647404670715,-0.2136959582567215,-0.025958415120840073,-0.17123112082481384,-0.12489166110754013,-0.13020503520965576,0.3326493799686432,-0.14758877456188202,-0.2175992727279663,-0.09009910374879837,0.1896427422761917,0.35323089361190796,-0.06475766003131866,0.19996780157089233,-0.08933890610933304,0.019436808302998543,0.009249694645404816,0.3067905902862549,0.40535926818847656,0.1576780080795288,0.30575087666511536,-0.33306512236595154,-0.2621347904205322,0.19454039633274078,0.17541509866714478,-0.10618624836206436,0.034210484474897385,-0.05945460498332977,0.5360153913497925,-0.7547332048416138,0.367756724357605,-0.016117220744490623,-0.12132824212312698,0.057638123631477356,-0.02898598648607731,0.23167084157466888,0.08362782001495361,0.004843598231673241,0.3552102744579315,0.23702536523342133,0.11979929357767105,0.3547086715698242,-0.008895697072148323,-0.031876273453235626,-0.5615743398666382,0.03452311456203461,-0.15435874462127686,0.25174227356910706,0.2309577912092209,0.41409575939178467,-0.12245360761880875,0.2320198118686676,0.15564322471618652,-0.011624905280768871,-0.005385871510952711,0.1027650535106659,-0.18617236614227295,0.2716691493988037,0.061792291700839996,0.2521902918815613,-0.06696398556232452,-0.021594146266579628,-0.17072996497154236,-0.2880803346633911,-0.22855336964130402,-0.33884698152542114,-0.22721844911575317,-0.19326578080654144,-0.006426143925637007,0.14570295810699463,-0.4692811369895935,0.07488209754228592,0.07742075622081757,0.03078644908964634,0.02206989750266075,0.28038015961647034,-0.15806572139263153,-0.27696067094802856,-0.14530210196971893,0.2957276999950409,0.17079290747642517,0.21457020938396454,0.009791822172701359,-0.1864640712738037,-0.21059687435626984,0.1927483230829239,-0.01559557393193245,0.1588619500398636,0.10476651787757874,-0.2322254627943039,-0.25076988339424133,-0.026381490752100945,-0.02726585604250431,0.10754244029521942,-0.27794012427330017,0.11394467949867249,-0.36690303683280945,-0.303499311208725,-0.05180280655622482,0.25100651383399963,-0.49179643392562866,-0.3872225284576416,0.041317012161016464,0.011400613933801651,-0.1584659367799759,-0.19054800271987915,0.1684645563364029,0.5019506216049194,0.21393808722496033,0.20886684954166412,-0.1104140430688858,0.05325045436620712,0.04242274910211563,-0.010321726091206074,-0.20355452597141266,0.1867673099040985,-0.21471089124679565,0.12405192106962204,0.2586289942264557,-0.014296019449830055,0.011658687144517899,-0.21674418449401855,0.054182980209589005,-0.5480106472969055,0.01149456575512886,0.25234174728393555,-0.17764997482299805,0.1104779839515686,-0.5663946866989136,-0.2605019211769104,-0.057627156376838684,0.1636204719543457,-0.057031236588954926,-0.46161314845085144,0.3600294291973114,-0.11767406761646271,-0.11979382485151291,-0.15211734175682068,-0.06566344946622849,0.37859901785850525,-0.07769164443016052,-0.09229785203933716,0.0738140121102333,0.08195158839225769,-0.22401905059814453,-0.22951731085777283,0.17176763713359833,0.09083936363458633,-0.12324696034193039,0.1196766197681427,-0.21241344511508942,0.06557989120483398,0.4353032112121582,0.0748024508357048,-0.34541845321655273,0.29914307594299316,-0.06543906033039093,-0.17826078832149506,0.06319501996040344,0.22829478979110718,-0.01644488051533699,0.09077925235033035,0.04302791506052017,0.1709914207458496,-0.19415868818759918,-0.12380073964595795,0.23321983218193054,0.030812660232186317,-0.38787394762039185,-0.2382960021495819,-0.3411390483379364,-0.10841122269630432,0.29123252630233765,-0.0222356915473938,-0.12477117776870728,0.29266244173049927,-0.29558131098747253,0.23533615469932556,0.22726783156394958,0.38075071573257446,-0.12281986325979233,-0.18456795811653137,0.1966686248779297,-0.08533686399459839,-0.26265737414360046,-0.23658578097820282,-0.14360758662223816,-0.029463546350598335,0.02094333991408348,0.168497234582901,0.19896335899829865,0.01299393828958273,0.1437925398349762,0.35163500905036926,-0.0238676518201828,-0.2479836493730545,0.2319168597459793,0.19594809412956238,-0.11625108122825623,-0.01650986261665821,-0.3401753604412079,0.16349764168262482,0.2982589900493622,-0.03424208611249924,-0.04921520873904228,0.10979019850492477,-0.052621856331825256,-0.14404204487800598,-0.06140992417931557,0.006605131085962057,0.18941143155097961,-0.5274258852005005,0.09422104060649872,-0.2674565613269806,-0.35726773738861084,0.37262463569641113,-0.035894643515348434,0.11607538908720016,-0.038552939891815186,-0.028936145827174187,-0.018277185037732124,-0.03273111581802368,-0.15780355036258698,-0.00945797748863697,0.28747299313545227,0.1730688214302063,-0.14862142503261566,-0.004354552831500769,-0.04671122506260872,0.3383605182170868,-0.059607747942209244,-0.1905255764722824,0.1513829380273819,0.25406181812286377,0.14034444093704224,-0.11341186612844467,-0.2138049453496933,0.1192934438586235,0.15477807819843292,-0.060768622905015945,0.06566766649484634,-0.36563414335250854,0.007962385192513466,-0.03408920019865036,0.010660536587238312,0.005800741259008646,-0.2839248776435852,0.28872594237327576,0.16593198478221893,-0.06536275893449783,-0.12452128529548645,0.14768238365650177,0.027902502566576004,0.23253345489501953,0.00697370246052742,-0.10134662687778473,0.04170040413737297,-0.06657847762107849,0.27219638228416443,0.271952748298645,0.17875759303569794,-0.4193989336490631,0.16188958287239075,-0.12253822386264801,0.061837587505578995,0.0783977210521698,-0.2192481905221939,-0.022589288651943207,0.06030159816145897,-0.06405527889728546,-0.15935075283050537,0.28539609909057617,-0.09536197036504745,-0.3279646039009094,-0.09462692588567734,-0.04170350357890129,0.1188599243760109,-0.17037124931812286,-0.10270361602306366,0.06363797932863235,0.0105751296505332,-0.2525358200073242,-0.1300087720155716,0.09597451984882355,0.06161682680249214,-0.060474809259176254,-0.042539726942777634,0.2767956554889679,0.20839208364486694,0.2238016128540039,0.2830660045146942,0.11160026490688324,-0.16352468729019165,-0.17304649949073792,0.25681573152542114,-0.20239225029945374,-0.031136637553572655,0.03570596128702164,0.3038002550601959,0.2759866714477539,-0.08203323930501938,-0.07873097062110901,0.04720039665699005,-0.08773965388536453,-0.03887374326586723,-0.01692708022892475,0.30275076627731323,-0.07581741362810135,-0.04577289894223213,-0.0010266054887324572,-0.21867415308952332,-0.09241200238466263,0.33140838146209717,0.12806308269500732,0.18187223374843597,-0.2180810570716858,0.027815021574497223,-0.27485328912734985,0.37590351700782776,-0.11554979532957077,0.0407336987555027,0.18697689473628998,0.02529742382466793,-0.2887880504131317,0.19022506475448608,0.019688822329044342,-0.26930996775627136,0.20744553208351135,0.23802006244659424,-0.05114281550049782,-0.05547241494059563,-0.13681302964687347,0.022350598126649857,0.3367868959903717,-0.21003097295761108,-0.28366750478744507,0.31994882225990295,0.055624280124902725,0.3173168897628784,0.20741619169712067,-0.061412643641233444,-0.22694441676139832,-0.03325382620096207,-0.16887833178043365,0.1734343022108078,0.0071157850325107574,-0.21248884499073029,-0.09796835482120514,-0.03501539304852486,0.02983982302248478,0.06012194976210594,0.07464949041604996,0.013247103430330753,-0.0674600601196289,-0.017245754599571228,0.016646238043904305,-0.23550966382026672,-0.38317638635635376,0.1847974807024002,-0.12336575984954834,-0.08273258060216904,-0.04354792833328247,0.06596026569604874,0.1096610501408577,0.08731354773044586,0.06799941509962082,0.05761326104402542,-0.21783627569675446,-0.15057414770126343,0.08788219839334488,-0.027983302250504494,-0.0647146925330162,-0.1345536857843399,0.13894955813884735,0.08727894723415375,-0.10174351930618286,0.11339091509580612,0.1653047353029251,0.15746375918388367,0.48378974199295044,-0.5297296643257141,-0.39458081126213074,0.01951093226671219,-0.24261054396629333,0.053455900400877,0.025419702753424644,0.16723139584064484,0.026011910289525986,0.05394540727138519,0.2008749097585678,-0.1375604122877121,0.20197851955890656,-0.1719353199005127,0.30598971247673035,0.11915465444326401,0.1455497145652771,0.11275433748960495,-0.13492454588413239,-0.04180069640278816,0.4572039544582367,-0.038913559168577194,-0.1443236917257309,0.09927809238433838,0.230221688747406,-0.1879279464483261,-0.2816718518733978,0.09322232753038406,0.041969187557697296,-0.09353134036064148,-0.20973840355873108,0.02095930464565754,-0.02094860002398491,0.0725630447268486,0.22170431911945343,-0.14331820607185364,-0.17328095436096191,-0.46642929315567017,0.3855879008769989,0.09761356562376022,0.046490203589200974,-0.2022131085395813,0.07247921079397202,0.1775626391172409,-0.3178498446941376,0.15031421184539795,0.11789066344499588,0.08585856109857559,0.10809098184108734,-0.09290334582328796,-0.09147560596466064,-0.19538982212543488,-0.1766670048236847,0.011148947291076183,0.09970936179161072,0.26359930634498596,-0.052223581820726395,0.062400124967098236,-0.014256604947149754,0.20811323821544647,-0.22659732401371002,-0.13556048274040222,0.14408570528030396,0.04197276756167412,0.11638948321342468,0.05517362058162689,0.03562205657362938,0.029885563999414444,0.001445308211259544,0.10853345692157745,0.05296908691525459,-0.15064188838005066,-0.07409324496984482,-0.157162144780159,-0.02725255861878395,-0.025766577571630478,-0.004470554180443287,0.2313441038131714,-0.02858380600810051,-0.008160505443811417,0.08105245977640152,-0.07301101833581924,0.048899296671152115,-0.06170027703046799,0.009882664307951927,-0.5072710514068604,-0.16246731579303741,-0.15802398324012756,-0.026080943644046783,0.045929472893476486,0.03010869026184082,0.03107638843357563,-0.06256510317325592,-0.12165534496307373,-0.029323844239115715,-0.016971969977021217,-0.3274880349636078,0.06770163029432297,0.4743734896183014,-0.19608387351036072,-0.040327273309230804,-0.07780154794454575,-0.2514842748641968,0.3814339339733124,0.04461653158068657,0.12681995332241058,-0.1652376800775528,-0.02729550004005432,-0.10279174149036407,0.05766819417476654,-0.07396981120109558,-0.02675219066441059,0.4579661190509796,-0.022716281935572624,-0.11755948513746262,0.04482210427522659,-0.06079068034887314,0.23821625113487244,-0.09661982208490372,-0.07760011404752731,0.1445278376340866,-0.3655504584312439,0.14052973687648773,-0.006632714997977018,-0.32889524102211,0.04676057770848274,-0.10217706114053726,0.06366651505231857,-0.13260459899902344,0.08089537918567657,-0.06157423555850983,0.03499450907111168,-0.11839409172534943,0.13024258613586426,0.05268178880214691,0.20243161916732788,-0.09326577931642532,-0.15140551328659058,-0.06929805129766464,-0.1065058782696724,0.001140451175160706,0.055437881499528885,0.13957850635051727,-0.0394369512796402,0.3181193470954895,0.1142774373292923,0.07911327481269836,0.07845882326364517,0.17738454043865204,-0.08548695594072342,0.019839683547616005,0.092931367456913,0.3385455012321472,-0.07099542766809464,-0.28134140372276306,0.19841550290584564,0.08833367377519608,0.08169685304164886,0.014204490929841995,0.14976821839809418,0.03849995881319046,-0.056518539786338806,-0.015937691554427147,0.05212440341711044,-0.07282625883817673,-0.10625142604112625,0.1272617131471634,0.2941465973854065,-0.21351104974746704,-0.34405186772346497,-0.061649639159440994,-0.055514801293611526,-0.11026913672685623,0.28789809346199036,0.299346387386322,0.08196073025465012,-0.19661228358745575,-0.025135081261396408,0.030254080891609192,0.2657884955406189,0.08001232892274857,-0.07005344331264496,0.2367345094680786,-0.12762796878814697,0.12442541867494583,0.26305797696113586,0.019855622202157974,0.019846832379698753,0.24420227110385895,-0.21871130168437958,-0.21337412297725677,0.008726924657821655,0.0194137841463089,-0.2505989968776703,-0.47997209429740906,0.07305791229009628,0.13345465064048767,0.09134221076965332,-0.08807339519262314,0.660354495048523,0.08118972182273865,0.06427599489688873,-0.08520742505788803,0.010275979526340961,0.4225437641143799,-0.04731319099664688,-0.041926998645067215,0.31807801127433777,0.08858200907707214,0.05596938356757164,0.20861849188804626,0.012663055211305618,-0.16809970140457153,0.0273128729313612,0.3647398054599762,-0.05936140567064285,0.5138475894927979,-0.47925513982772827,0.16964474320411682,0.2703249454498291,-0.17260105907917023,-0.13494037091732025,-0.2768701910972595,-0.19949519634246826,0.11848042905330658,0.16135582327842712,-0.05439557507634163,0.04097195714712143,0.026715494692325592,-0.17852769792079926,-0.1307702213525772,0.18397848308086395,-0.28466951847076416,-0.029824092984199524,0.10588647425174713,-0.084378682076931,-0.02489275112748146,-0.1928117275238037,0.07787308096885681,-0.17419683933258057,0.5171137452125549,-0.4745813012123108,-0.2649996280670166,0.12750527262687683,-0.05465845391154289,-0.03649769723415375,0.03479015827178955,0.19221019744873047,0.1502961367368698,-0.1493116319179535,-0.1953774094581604,-0.15048158168792725,0.15648630261421204,-0.05072774738073349,-0.04036714509129524,0.06167082488536835,0.04088203236460686,0.2589869797229767,0.08841264992952347,-0.09503133594989777,0.15662477910518646,-0.029903484508395195,-0.18744608759880066,-0.06582941859960556,-0.15499430894851685,-0.23203696310520172,-0.06667148321866989,0.18855445086956024,0.024489449337124825,0.04428834095597267,0.008565522730350494,0.02352171577513218,0.256835401058197,-0.0882587805390358,0.029338480904698372,0.02642473764717579,0.011155679821968079,-0.17299841344356537,-0.10875317454338074,0.09716790169477463,0.059799063950777054,-0.047908030450344086,-0.1129368245601654,0.08069800585508347,0.059907954186201096,-0.1415516585111618,-0.16879896819591522,-0.6812503337860107,-0.09978333115577698,0.07794058322906494,0.49361321330070496,0.13917158544063568,0.16958381235599518,-0.1081404834985733,0.2776350677013397,0.06859082728624344,0.09100564569234848,-0.0732075572013855,0.24936248362064362,-0.13274799287319183,0.04579436779022217,-0.09911324083805084,-0.040947627276182175,0.3127567768096924,0.2188374549150467,0.045505788177251816,0.033566273748874664,0.06375492364168167,-0.010348770767450333,-0.17958609759807587,0.10514026135206223,-0.09929221868515015,-0.24159128963947296,-0.3121647834777832,-0.268781453371048,-0.11339622735977173,0.34573307633399963,0.07926880568265915,0.27550309896469116,-0.2509557008743286,-0.07832673192024231,-0.08601051568984985,0.3774297535419464,-0.07368199527263641,0.06089433655142784,0.22792190313339233,-0.1349695771932602,-0.08219152688980103,0.031878288835287094,0.1344567984342575,-0.09124413877725601,0.03310249745845795,0.13167279958724976,-0.04410003498196602,-0.07824673503637314,0.007644496858119965,-0.4856009781360626,0.2625928223133087,-0.10971466451883316,-0.3137051463127136,0.10696334391832352,0.1041785404086113,0.1674068421125412,0.4924219846725464,-0.012562138959765434,-0.11396849155426025,-0.15487249195575714,0.01540442742407322,0.029947489500045776,-0.010057947598397732,0.006864415947347879,-0.11835354566574097,0.11603737622499466,-0.11127249896526337,-0.09490196406841278,-0.06566821783781052,0.09888903796672821,0.04876940697431564,0.11606761068105698,-0.06393339484930038,-0.07618933916091919,-0.23933275043964386,0.1291208416223526,-0.12788967788219452,-0.2772495448589325,-0.06763900071382523,0.0689115822315216,0.11588933318853378,-0.12468191981315613,0.016601689159870148,-0.03240524232387543,0.032975394278764725,-0.1729891002178192,0.20922428369522095,0.10624686628580093,0.1055147647857666,-0.08124672621488571,0.09897512942552567,0.06795747578144073,-0.11491799354553223,0.037643346935510635,0.36855024099349976,0.21730077266693115,0.05502200126647949,0.1328020542860031,-0.11796703189611435,0.039360467344522476,0.02969491481781006,-0.17422246932983398,0.07318169623613358,-0.01654009148478508,-0.10637374967336655,-0.45220109820365906,-0.007023253012448549,0.2365320771932602,-0.410690575838089,-0.07858845591545105,-0.22241440415382385,0.26512107253074646,-0.06847113370895386,-0.06548857688903809,0.14167135953903198,-0.04314648360013962,-0.002993497531861067,