{"version":"0.5.4","metadata":{"date":{"year":2026,"month":1,"day":22,"hour":3,"minute":19,"second":23},"loudness":-20.413860321044922,"gain":0.8152796184859153,"name":"AMP-SLO1-2","modeled_by":"lum","gear_type":"amp","gear_make":"tz-make","gear_model":"tz-model","tone_type":"overdrive","input_level_dbu":null,"output_level_dbu":null,"training":{"settings":{"ignore_checks":false},"data":{"latency":{"manual":null,"calibration":{"algorithm_version":1,"delays":[4056],"safety_factor":1,"recommended":4055,"warnings":{"matches_lookahead":false,"disagreement_too_high":false}}},"checks":{"version":3,"passed":true}},"validation_esr":0.0011438337522551671}},"architecture":"WaveNet","config":{"layers":[{"input_size":1,"condition_size":1,"head_size":8,"channels":16,"kernel_size":3,"dilations":[1,2,4,8,16,32,64,128,256,512],"activation":"Tanh","gated":false,"head_bias":false},{"input_size":16,"condition_size":1,"head_size":1,"channels":8,"kernel_size":3,"dilations":[1,2,4,8,16,32,64,128,256,512],"activation":"Tanh","gated":false,"head_bias":true}],"head":null,"head_scale":0.02},"weights":[-0.07518912851810455,0.66603022813797,-0.7845127582550049,-0.8991441130638123,-0.49882665276527405,0.349860817193985,-0.0026509438175708055,0.873218297958374,-0.13518792390823364,0.315809041261673,-0.36039140820503235,-0.2836028039455414,-1.1086368560791016,-0.6615011692047119,-0.49884676933288574,0.002843704540282488,0.23328396677970886,0.3336721956729889,-0.2001543641090393,-0.20431311428546906,-0.1537318378686905,0.14556829631328583,0.0905829668045044,0.30325067043304443,-0.04819396883249283,0.15352781116962433,0.3379041850566864,-0.16233281791210175,0.04473196715116501,0.1618751883506775,-0.08828449994325638,-0.010214067995548248,-0.29230886697769165,-0.019940154626965523,0.05262307450175285,0.05054992809891701,-0.19063718616962433,-0.006487210746854544,-0.13963185250759125,0.09831486642360687,0.15193051099777222,0.1253543198108673,-0.04748638719320297,-0.27125754952430725,-0.30403414368629456,-0.028770867735147476,0.2147226631641388,0.2787708342075348,-0.10608214139938354,0.14089326560497284,0.3011441230773926,0.09799855947494507,0.19221852719783783,0.22649970650672913,0.06992372125387192,0.04763385280966759,0.2298242449760437,-0.14080986380577087,0.024881556630134583,0.12209297716617584,0.03591223433613777,-0.06977018713951111,-0.14295260608196259,0.011062487959861755,0.0889727920293808,0.05804131180047989,-0.13497941195964813,-0.03247729688882828,-0.052976157516241074,0.2146376520395279,-0.04279182478785515,0.09399697184562683,-0.011291362345218658,0.1896156221628189,0.27446356415748596,0.057369664311409,0.09156684577465057,0.013633853755891323,-0.06735497713088989,-0.15003696084022522,-0.27026861906051636,0.2078448086977005,0.09969322383403778,-0.12352871894836426,-0.08890997618436813,-0.09422267973423004,-0.17278316617012024,0.0018667872063815594,0.08977887034416199,0.020393529906868935,-0.05027254670858383,0.016755158081650734,-0.027864016592502594,0.1394042819738388,-0.08486921340227127,0.04148774966597557,-0.00832259189337492,0.08321637660264969,0.01776984892785549,-0.16986338794231415,0.20698541402816772,0.24765118956565857,-0.13156579434871674,0.030382901430130005,0.006999581586569548,-0.07439996302127838,-0.04413362964987755,0.03172144293785095,-0.08224223554134369,0.02716626040637493,-0.06971944868564606,0.18374940752983093,0.037500619888305664,-0.015656225383281708,0.17290066182613373,-0.1799563318490982,0.1307368129491806,0.035124048590660095,0.07317955046892166,-0.12822608649730682,0.021490871906280518,0.06214097887277603,-0.2399570345878601,0.0382893830537796,-0.07390277087688446,-0.246465802192688,-0.05707351118326187,-0.13504303991794586,0.10925143957138062,-0.105594202876091,0.09878246486186981,-0.06920436769723892,-0.013591292314231396,-0.059742867946624756,0.2708539664745331,0.01630341447889805,0.0969279408454895,-0.15652881562709808,0.055538516491651535,0.024521291255950928,0.2970837652683258,0.0993826687335968,0.20070725679397583,-0.16921088099479675,-0.1445581316947937,0.004223885480314493,-0.06304177641868591,-0.005029900465160608,-0.02007361501455307,-0.2810949981212616,-0.16703563928604126,-0.06770585477352142,-0.19618946313858032,0.05185099318623543,0.1384163796901703,-0.29802176356315613,0.06433335691690445,-0.23183470964431763,0.03590383008122444,-0.07102213054895401,0.06085321679711342,0.023339565843343735,-0.23469746112823486,-0.24780040979385376,-0.10644389688968658,0.05077606067061424,0.050190698355436325,0.1354922503232956,-0.17811083793640137,0.11202163249254227,0.21371060609817505,-0.10888615995645523,0.24612826108932495,0.12865334749221802,-0.19091171026229858,-0.017663663253188133,-0.09048406779766083,0.0015539921587333083,0.16161584854125977,-0.10890886187553406,-0.09865404665470123,-0.1486331671476364,0.01695871539413929,0.08973196893930435,0.15440404415130615,0.10820130258798599,-0.12749524414539337,-0.13951432704925537,-0.1948089599609375,0.14563851058483124,0.22188358008861542,0.17278128862380981,-0.16456706821918488,0.11289263516664505,-0.025244513526558876,-0.14933738112449646,0.037987273186445236,0.13803204894065857,-0.1339724361896515,0.11486729234457016,0.09166203439235687,0.04211468994617462,0.004680122248828411,-0.022866282612085342,-0.13989149034023285,0.04955548420548439,-0.011091358959674835,0.1882733851671219,0.09733761847019196,0.15364457666873932,-0.13229615986347198,-0.13806337118148804,-0.16395039856433868,0.024257833138108253,0.1085958257317543,0.1966186761856079,-0.16146394610404968,0.035551201552152634,0.30037811398506165,-0.1697412133216858,0.09585856646299362,0.32318830490112305,-0.012661602348089218,-0.09733032435178757,-0.2959839105606079,0.135833740234375,-0.07968549430370331,0.06276291608810425,-0.16904400289058685,-0.130829855799675,-0.179052472114563,0.16953802108764648,0.0931040495634079,0.28067588806152344,-0.005122257396578789,-0.18798215687274933,-0.1058194562792778,-0.030078114941716194,0.036643922328948975,0.21040752530097961,-0.016455553472042084,0.2018606960773468,0.12657690048217773,-0.07290153950452805,0.18602663278579712,0.044802065938711166,0.05359596014022827,-0.012264744378626347,0.18168528378009796,-0.079172283411026,0.02852628380060196,0.19332222640514374,0.060921236872673035,-0.06606776267290115,-0.16481834650039673,0.027204450219869614,-0.0019614126067608595,-0.087803915143013,-0.005193780642002821,-0.18003115057945251,0.09787391126155853,0.10535790771245956,0.15492579340934753,-0.0686526969075203,0.02834874950349331,0.03082953207194805,-0.22584925591945648,0.021004531532526016,0.20998413860797882,-0.13486601412296295,-0.08364453911781311,-0.15893764793872833,0.037172310054302216,0.036838844418525696,0.06305935978889465,-0.22548259794712067,0.18780815601348877,-0.17138619720935822,0.16849267482757568,0.06273782253265381,0.12222103029489517,-0.2515081763267517,-0.08931630849838257,0.02387051284313202,0.19865618646144867,0.1216597855091095,0.040171731263399124,-0.13232049345970154,-0.03896375000476837,0.09083288162946701,-0.26237213611602783,0.049138497561216354,0.1226748675107956,-0.1901686042547226,-0.05516793951392174,-0.01074877381324768,-0.08408710360527039,-0.1260482221841812,0.1453680545091629,-0.22413301467895508,-0.08645085990428925,-0.09103564918041229,-0.008997071534395218,0.04354982078075409,0.08074940741062164,-0.2877361476421356,0.20256806910037994,0.07080688327550888,0.26199010014533997,-0.11178509145975113,-0.1303645372390747,-0.222817063331604,0.13893422484397888,-0.06552258878946304,-0.15394465625286102,0.19076406955718994,-0.0778873860836029,-0.19738875329494476,0.16118720173835754,0.009915385395288467,0.2085498571395874,-0.09405048936605453,-0.03119145892560482,-0.11808840185403824,0.26329725980758667,0.14280474185943604,0.2914749085903168,-0.07431603223085403,0.09712712466716766,-0.25077876448631287,0.024275241419672966,-0.12600573897361755,0.3412177264690399,-0.02325906604528427,-0.09970330446958542,-0.13910920917987823,0.21802324056625366,0.15011818706989288,-0.0748634934425354,0.22912080585956573,-0.0472969226539135,-0.26023203134536743,0.21141883730888367,0.0691777691245079,-0.2922448515892029,0.22531422972679138,0.06353595107793808,-0.11987488716840744,0.007966662757098675,-0.027360301464796066,0.017570611089468002,0.03691577911376953,-0.22964367270469666,0.2657341957092285,-0.08632009476423264,0.3548819124698639,-0.21318000555038452,0.2577352821826935,-0.39262905716896057,0.19613109529018402,-0.2878880500793457,-0.4393434226512909,0.0493549183011055,-0.07461123168468475,-0.21676959097385406,0.30590584874153137,-0.06539195030927658,0.15764161944389343,-0.2694467604160309,0.15070843696594238,-0.24842804670333862,0.28088122606277466,-0.15846844017505646,0.2239188849925995,-0.3024926483631134,0.10765953361988068,-0.13734622299671173,0.2935866713523865,-0.04503384605050087,0.38590651750564575,-0.04094294458627701,0.13511835038661957,-0.21252329647541046,0.29963821172714233,-0.12739521265029907,-0.1340930014848709,0.2484956979751587,-0.08014840632677078,-0.34729239344596863,0.23173095285892487,-0.17456161975860596,-0.3198396563529968,0.08136861026287079,-0.2670897841453552,-0.40554648637771606,0.26749494671821594,-0.08355483412742615,0.08111804723739624,-0.26987695693969727,0.16923905909061432,0.08198080211877823,-0.06612993776798248,0.035902608186006546,0.20025183260440826,0.1513020098209381,-0.11085204035043716,0.06776227802038193,0.0214840155094862,-0.05883411318063736,0.010163502767682076,-0.17645658552646637,-0.023176677525043488,0.06001172587275505,-0.08149048686027527,-0.0938568115234375,0.011188077740371227,0.046244680881500244,-0.040760673582553864,0.030664030462503433,0.08137523382902145,0.08471041172742844,-0.018542947247624397,0.0996660441160202,0.07171966135501862,0.041220773011446,-0.20412784814834595,0.02139766328036785,-0.0498410165309906,0.02562902495265007,0.032834235578775406,-0.162910595536232,-0.031238902360200882,0.13475501537322998,-0.043184880167245865,-0.18312899768352509,-0.027560288086533546,-0.04086218401789665,-0.20545582473278046,0.06911957263946533,-0.19949328899383545,-0.2315567582845688,-0.13874585926532745,-0.0944669246673584,0.013741477392613888,-0.13198179006576538,0.10508999973535538,-0.023367473855614662,-0.0159157682210207,-0.039326492697000504,-0.3094855546951294,0.28662100434303284,0.158070906996727,0.3288237154483795,-0.020762380212545395,-0.17002934217453003,-0.058823976665735245,0.0985945612192154,-0.01306280866265297,-0.3047181963920593,0.05408696457743645,-0.21700185537338257,-0.23472128808498383,0.13260915875434875,-0.04265127703547478,0.22528265416622162,-0.03485240787267685,0.02188343182206154,-0.20171210169792175,0.05597846955060959,0.034268300980329514,0.2503995895385742,0.04747676104307175,0.02976035885512829,-0.18638284504413605,0.18911196291446686,-0.07058999687433243,0.056947048753499985,-0.0447804294526577,-0.14884670078754425,-0.10730668157339096,0.006870664190500975,-0.14281482994556427,-0.30400219559669495,0.19024136662483215,-0.09591308981180191,-0.07837247848510742,0.1832215040922165,0.0014583573210984468,-0.18096521496772766,0.05071047693490982,-0.10486418753862381,-0.15937566757202148,0.17073112726211548,-0.07339603453874588,0.16670726239681244,-0.040648650377988815,-0.382220596075058,0.031394366174936295,0.23740363121032715,0.4571719467639923,-0.1866481751203537,0.05387949198484421,-0.2416844666004181,0.14525441825389862,0.17008058726787567,-0.4029507040977478,0.10178864002227783,0.10984896868467331,-0.3679775893688202,0.10776864737272263,0.01355829183012247,0.4051753878593445,-0.10718521475791931,-0.1237708255648613,-0.19611847400665283,0.18777357041835785,0.054697923362255096,0.330883651971817,0.02599511854350567,-0.06653919070959091,-0.24918310344219208,0.041351404041051865,0.14709322154521942,0.19937165081501007,-0.14889617264270782,-0.14223280549049377,-0.16747941076755524,0.03161614015698433,0.06605955958366394,-0.3836528956890106,0.20752297341823578,0.2094687819480896,-0.4308929741382599,-0.0620432011783123,-0.060047466307878494,-0.3122970461845398,0.01945955865085125,-0.042184848338365555,-0.3686600923538208,0.0947156623005867,-0.02210063487291336,0.2374328374862671,-0.17967192828655243,-0.04759807139635086,0.0881403237581253,0.19770829379558563,-0.17654705047607422,-0.10646940767765045,-0.14432653784751892,0.1622457653284073,-0.024651408195495605,-0.05205914005637169,0.11801580339670181,0.025271814316511154,0.12092353403568268,-0.038656871765851974,0.07585327327251434,0.05154194310307503,0.06329721957445145,-0.09615366905927658,-0.22207574546337128,-0.044773563742637634,-0.027513699606060982,0.1096881553530693,-0.17452113330364227,0.020897427573800087,-0.123900406062603,0.001641565002501011,0.18935711681842804,0.14320454001426697,0.057929497212171555,-0.019630447030067444,-0.13000088930130005,-0.0534563809633255,0.0928272008895874,0.20169638097286224,-0.08913812041282654,-0.032012198120355606,0.1471756547689438,0.09850218892097473,0.07614731788635254,-0.02484738640487194,-0.15668007731437683,0.15007907152175903,0.08182675391435623,-0.10192792862653732,0.13954876363277435,0.13718608021736145,0.08469325304031372,0.08945012092590332,-0.02265259437263012,-0.1113479807972908,-0.3914109766483307,0.004412037320435047,0.1936729997396469,0.4012927711009979,0.025556785985827446,0.10578496754169464,-0.1967124044895172,-0.012532874010503292,-0.10431928932666779,-0.39653918147087097,-0.2508283853530884,0.16270586848258972,-0.40045443177223206,-0.210466206073761,0.11172734946012497,0.2641407251358032,0.07162633538246155,-0.061059754341840744,-0.22302183508872986,-0.18270999193191528,0.2817102074623108,0.27288326621055603,0.1995476931333542,0.1014394611120224,-0.2288985550403595,-0.11642874777317047,0.21145141124725342,0.3380402624607086,0.07603311538696289,0.08583997189998627,-0.2848609387874603,-0.2786397635936737,-0.00002087980647047516,-0.4247365891933441,-0.0212863702327013,0.03074723109602928,-0.4715424180030823,-0.16080313920974731,0.1135251447558403,-0.29177379608154297,-0.10255404561758041,0.04047460854053497,-0.28124189376831055,-0.17367713153362274,-0.030263978987932205,0.04010900855064392,-0.08804682642221451,0.008991793729364872,-0.2824062705039978,0.12738549709320068,0.11722762882709503,0.17190377414226532,-0.20982855558395386,-0.018371233716607094,-0.24134375154972076,0.23065362870693207,0.04683377593755722,-0.1940048635005951,0.19538621604442596,0.10075769573450089,-0.04646340757608414,0.015564118511974812,0.03069273754954338,0.0986906886100769,-0.08926648646593094,-0.019230805337429047,-0.22624002397060394,0.16609658300876617,0.06341443955898285,0.1267586201429367,-0.007971827872097492,-0.27227336168289185,-0.16612732410430908,0.23589187860488892,0.10312395542860031,0.27808499336242676,-0.15530067682266235,-0.0280732624232769,-0.30223292112350464,0.088877372443676,0.12391261011362076,-0.1268537938594818,0.16514644026756287,0.2490341067314148,-0.1790316253900528,0.11129476875066757,0.25982969999313354,-0.19782565534114838,0.23999595642089844,0.05956648662686348,-0.18205435574054718,0.10024312138557434,0.21762602031230927,0.26228001713752747,-0.12181012332439423,-0.17989394068717957,0.2857464849948883,-0.0368025116622448,-0.193440243601799,-0.3216295540332794,0.1471884399652481,0.38127371668815613,0.23557156324386597,-0.1909751296043396,-0.1397610902786255,0.12158447504043579,-0.022503754124045372,-0.22461478412151337,0.16893938183784485,-0.005477522499859333,-0.37746554613113403,-0.19164296984672546,-0.028096472844481468,0.23701615631580353,0.1845312863588333,0.02493823878467083,-0.34599432349205017,-0.13133372366428375,0.03761947154998779,0.17489467561244965,0.10034074634313583,-0.19411659240722656,-0.10925392061471939,-0.25795993208885193,0.06578060984611511,0.2864755690097809,0.3125929832458496,0.06012329086661339,-0.12932859361171722,0.12445836514234543,-0.07734021544456482,-0.33162546157836914,0.14350956678390503,-0.020777877420186996,-0.10864011198282242,0.10704243928194046,0.032963600009679794,-0.3153306841850281,0.20076429843902588,0.05902785807847977,-0.2761565148830414,-0.17029473185539246,0.0003593401052057743,0.31204667687416077,0.10112030804157257,-0.4026908278465271,0.09703858196735382,-0.18056926131248474,0.24701978266239166,0.018078219145536423,0.19672836363315582,-0.3983190357685089,0.05895089730620384,0.20336151123046875,-0.27054688334465027,-0.0829707682132721,0.06962824612855911,-0.40269598364830017,-0.11732011288404465,-0.09202339500188828,0.4601534307003021,0.1134977787733078,0.1439436376094818,-0.20905672013759613,-0.011297948658466339,0.027553731575608253,0.30342137813568115,-0.09421432018280029,0.13151200115680695,-0.2396211177110672,-0.09737564623355865,0.043537430465221405,0.4004029631614685,-0.11135390400886536,0.059514015913009644,-0.222229465842247,-0.10308434814214706,0.0512256883084774,-0.3048154413700104,-0.11328589916229248,0.15728022158145905,-0.2917930483818054,0.08111722022294998,-0.013617271557450294,-0.2152518481016159,-0.09049849212169647,0.23223836719989777,-0.4946266710758209,-0.12940935790538788,0.007277729921042919,0.17774292826652527,0.04143589362502098,-0.03827674686908722,-0.09268105030059814,-0.16740570962429047,-0.15870808064937592,0.010967948473989964,-0.06619618833065033,0.017594564706087112,0.03726932033896446,0.1592499017715454,0.08414272218942642,-0.2516492009162903,-0.11161532998085022,-0.27064844965934753,0.009152784943580627,0.02177971415221691,-0.17504140734672546,0.46360522508621216,-0.36667829751968384,0.8400071263313293,-0.6631664633750916,0.04386068135499954,0.9306266903877258,0.9121992588043213,-0.3823336660861969,0.19080257415771484,0.033734485507011414,-0.5093650221824646,-0.32686400413513184,0.26073166728019714,-0.8629060983657837,0.4054258465766907,0.4487827718257904,-0.1013835147023201,0.25471940636634827,-0.025502478703856468,0.16450656950473785,0.2468140721321106,-0.05714620277285576,0.1254965215921402,-0.5149198174476624,-0.02649557776749134,-0.0568486787378788,-0.2731245756149292,-0.038363948464393616,-0.06546369940042496,-0.19631722569465637,0.31995582580566406,0.03524480387568474,0.47700029611587524,0.02979736216366291,-0.45653820037841797,0.38546162843704224,0.47901809215545654,-0.2548471987247467,-0.3801391124725342,-0.10549700260162354,-0.2733740508556366,-0.16841958463191986,-0.4783615171909332,0.37250491976737976,-0.13769224286079407,-0.06397376954555511,0.5062795281410217,-0.10308479517698288,0.02063900977373123,0.028915835544466972,0.03689637407660484,0.20549675822257996,-0.20330902934074402,-0.16186746954917908,0.11832612752914429,-0.06143556907773018,-0.0696757435798645,-0.11341364681720734,0.34824708104133606,-0.13169480860233307,0.27067580819129944,0.40581873059272766,-0.268342524766922,-0.006382643710821867,0.1440066397190094,-0.006824322510510683,-0.13974864780902863,-0.08741980046033859,0.0005924791330471635,-0.12508873641490936,-0.03311823680996895,0.028655989095568657,-0.3517646789550781,-0.04339377209544182,-0.056060705333948135,0.10190751403570175,0.13740958273410797,0.5187592506408691,-0.6384830474853516,-0.156980961561203,-0.34076401591300964,-0.2907312214374542,-0.3265945613384247,-0.011719156987965107,0.08482000231742859,-0.012823540717363358,0.23314951360225677,-0.21042287349700928,0.10404542833566666,0.4157428443431854,-0.2492794543504715,0.18469327688217163,-0.11928581446409225,0.3553745150566101,-0.5703033208847046,-0.052565544843673706,-0.23097722232341766,-0.1211559846997261,0.24634724855422974,-0.057949867099523544,0.06185372546315193,0.3693690896034241,0.3404645621776581,0.1862100213766098,0.3215295374393463,0.08104175329208374,-0.06541184335947037,-0.2011910229921341,0.14985167980194092,-0.34712114930152893,0.29243677854537964,0.2553054392337799,0.24750487506389618,0.14612743258476257,0.07985073328018188,0.21423675119876862,-0.056159522384405136,-0.2409725785255432,-0.08720991015434265,0.16999472677707672,0.057931818068027496,-0.45379671454429626,-0.3069734275341034,0.22193363308906555,0.10168534517288208,-0.22950735688209534,0.19453972578048706,-0.3417080342769623,0.2253843992948532,0.0319577232003212,0.27834734320640564,-0.2748837471008301,-0.25623783469200134,0.18555185198783875,0.22618629038333893,0.19711701571941376,0.18090152740478516,-0.19254744052886963,0.2491227239370346,-0.23248957097530365,0.12167958170175552,-0.20991352200508118,-0.04044508561491966,0.06684304028749466,-0.06831496953964233,0.009367402642965317,-0.2893531024456024,-0.1230907216668129,0.17510712146759033,-0.15896719694137573,-0.22045199573040009,-0.18914572894573212,-0.2837263345718384,-0.27650782465934753,0.10426704585552216,0.2044331580400467,-0.027066165581345558,-0.03762431442737579,-0.033885203301906586,-0.022550176829099655,-0.3557984232902527,-0.030579017475247383,0.3743244409561157,-0.3558063209056854,-0.44371360540390015,0.14846883714199066,0.36808452010154724,-0.01761588081717491,0.13772130012512207,0.3694879710674286,0.3232100307941437,-0.05565148964524269,0.39045584201812744,0.17232440412044525,-0.2432979792356491,0.1578684151172638,0.21296426653862,0.3097877502441406,-0.40498116612434387,0.23712430894374847,0.0658310130238533,-0.3644404411315918,-0.0683608204126358,-0.2396755814552307,-0.064251609146595,-0.2779441475868225,-0.267864465713501,0.0752190500497818,-0.1826150119304657,0.28723907470703125,0.03161777928471565,0.014307417906820774,0.2021009624004364,0.024437176063656807,-0.029777461662888527,0.12620118260383606,0.40270838141441345,-0.16152949631214142,-0.22042274475097656,-0.010923506692051888,-0.15218901634216309,-0.36410051584243774,-0.13678030669689178,-0.04955725744366646,-0.23487675189971924,0.28718534111976624,-0.05531732738018036,-0.3970763087272644,-0.1537160575389862,-0.11884873360395432,-0.02473556250333786,0.0008071979391388595,-0.0065384902991354465,-0.3065482974052429,-0.05059000477194786,0.5587185025215149,0.15830127894878387,-0.016852563247084618,0.09553778916597366,0.07630147784948349,0.30653488636016846,0.1367502212524414,-0.6372718811035156,0.0171908400952816,-0.07457005977630615,-0.22081810235977173,-0.030950823798775673,0.11881528049707413,-0.07986042648553848,0.2758041024208069,0.30341625213623047,-0.3338562846183777,0.05746752396225929,-0.024069983512163162,-0.3206728398799896,0.013413508422672749,-0.3156074583530426,-0.27839890122413635,0.141398623585701,0.3401440382003784,-0.15030035376548767,0.27181774377822876,-0.028201088309288025,-0.13385026156902313,0.10686031728982925,0.02595997229218483,0.2420772910118103,0.11632050573825836,-0.3029588460922241,0.21226030588150024,0.055149972438812256,-0.026356298476457596,0.1907557249069214,0.4101608991622925,-0.2765296697616577,-0.04114363715052605,0.17216628789901733,0.11020343005657196,-0.04996226727962494,-0.13856947422027588,0.08525731414556503,0.05308770015835762,-0.07531687617301941,0.7138758897781372,-0.21653857827186584,-0.20510554313659668,0.05321381613612175,-0.14527487754821777,0.04134410619735718,0.48918384313583374,-0.1670912802219391,-0.3037015199661255,0.04565217345952988,-0.2210826277732849,0.21049849689006805,-0.3038538694381714,-0.143228217959404,0.09236156940460205,0.20528824627399445,0.08258513361215591,0.04661322757601738,-0.15464358031749725,0.04533517360687256,-0.13008329272270203,0.14845365285873413,0.09140913188457489,0.06941691040992737,-0.08290714025497437,-0.015957951545715332,-0.2575330436229706,0.019596414640545845,0.14231765270233154,-0.2550612986087799,0.25636741518974304,-0.453252911567688,-0.21556636691093445,-0.0812859907746315,-0.12138766795396805,0.07764200121164322,0.2684282064437866,-0.006798446644097567,0.10260148346424103,0.2677789628505707,0.20765362679958344,-0.008193365298211575,-0.1377793699502945,-0.22455507516860962,-0.36147773265838623,0.13192316889762878,0.02657388336956501,-0.004141069017350674,-0.35345199704170227,-0.16083678603172302,-0.1324722319841385,-0.016885673627257347,-0.06806866079568863,0.22354307770729065,-0.20937509834766388,-0.1516094207763672,-0.14209337532520294,0.1692861169576645,-0.22142422199249268,-0.20121365785598755,0.19081838428974152,-0.3955274224281311,-0.14264705777168274,-0.03509974107146263,-0.10883207619190216,-0.06426800787448883,-0.12858836352825165,-0.3148905336856842,0.25061339139938354,-0.10652589797973633,0.026617994531989098,-0.24584689736366272,0.06580427289009094,-0.09087851643562317,0.03168821707367897,0.010938041843473911,-0.2487192451953888,0.10879837721586227,-0.17456695437431335,-0.1444399207830429,-0.1466825008392334,0.03145195171236992,-0.31623148918151855,0.008121962659060955,-0.227731853723526,0.010633107274770737,-0.027727343142032623,0.07239040732383728,0.025942949578166008,-0.16205450892448425,0.1324688196182251,0.10717648267745972,-0.05703731253743172,-0.18016862869262695,0.22666801512241364,-0.11444859206676483,0.1436322182416916,-0.23021669685840607,0.01274561882019043,-0.16567830741405487,0.1507730931043625,-0.025259023532271385,-0.00841254647821188,-0.039234817028045654,0.02389577403664589,-0.20717525482177734,-0.23278366029262543,-0.027902575209736824,-0.06536997109651566,-0.1523681879043579,-0.1290813535451889,-0.04820841923356056,0.009302652440965176,0.08535867929458618,-0.0027446639724075794,-0.05176978558301926,-0.1489488035440445,0.11319968849420547,-0.1050882488489151,0.33704712986946106,-0.29438936710357666,-0.10071468353271484,-0.011017096228897572,-0.11610407382249832,0.1223321333527565,0.3227638602256775,-0.21145005524158478,-0.07768595963716507,0.1910969763994217,-0.09394219517707825,0.18107010424137115,0.1327138990163803,-0.20374444127082825,0.17310020327568054,-0.02521943673491478,-0.028326774016022682,-0.07294585555791855,-0.06661127507686615,0.3439169228076935,0.10547144711017609,-0.04555695503950119,-0.24712352454662323,-0.07270987331867218,-0.19934509694576263,0.33687177300453186,-0.008968351408839226,0.04021254926919937,-0.2428007274866104,-0.08390551060438156,-0.04907833784818649,0.04351423308253288,-0.10439585149288177,-0.05463515594601631,-0.10918723046779633,0.1427718847990036,0.046916663646698,-0.12728649377822876,0.07073553651571274,0.0768185630440712,-0.2856323719024658,-0.012489445507526398,-0.0023424590472131968,-0.01885429583489895,0.0035330522805452347,-0.035578109323978424,0.09001749008893967,-0.07684438675642014,0.24774207174777985,0.0014953473582863808,-0.27141764760017395,0.14000293612480164,-0.017493179067969322,-0.40043485164642334,0.2374822050333023,0.003933716099709272,-0.10836996883153915,-0.1427738070487976,-0.25924360752105713,-0.0019096434116363525,0.25943461060523987,-0.13910676538944244,0.19549907743930817,0.06331939995288849,0.049128543585538864,0.2019868791103363,-0.17969830334186554,-0.007722932379692793,-0.18829810619354248,0.22072499990463257,-0.02281770668923855,0.028542783111333847,-0.2761680781841278,0.01996825821697712,-0.16776449978351593,0.046639274805784225,0.03397563472390175,0.410091757774353,-0.33518537878990173,0.022752802819013596,-0.1769436001777649,0.08208491653203964,0.005264640785753727,-0.20734593272209167,0.3961867094039917,0.12638406455516815,-0.06858395040035248,0.20241710543632507,-0.10187917202711105,0.04687967523932457,0.01930549368262291,-0.20619003474712372,0.23434215784072876,-0.14325575530529022,0.11153387278318405,-0.22405914962291718,0.34077373147010803,0.04605083540081978,-0.09452866017818451,0.023805076256394386,-0.13676464557647705,0.08108999580144882,0.31145474314689636,-0.13387954235076904,-0.18319937586784363,0.03363576903939247,-0.03896982967853546,-0.05016069859266281,0.18422192335128784,0.09909697622060776,0.04842333495616913,-0.06600955873727798,-0.1055813729763031,-0.1555597484111786,-0.00865129567682743,0.07711105048656464,0.12088952213525772,-0.034195613116025925,-0.15440168976783752,-0.026424970477819443,0.026761189103126526,0.26206105947494507,0.107381671667099,0.14840920269489288,-0.21405480802059174,-0.11798223853111267,-0.2067333310842514,0.18933402001857758,0.19156669080257416,0.014966623857617378,-0.17451037466526031,-0.05952591821551323,0.09709614515304565,-0.05935017764568329,-0.22595541179180145,-0.21073420345783234,0.01395698543637991,0.08469115942716599,-0.05868750065565109,-0.11813538521528244,0.0526670403778553,-0.2476935088634491,0.06473761051893234,0.027356121689081192,0.16050413250923157,-0.06986908614635468,-0.24720388650894165,-0.18470962345600128,0.10371322929859161,-0.2749483585357666,-0.06285363435745239,0.17164063453674316,0.08544318377971649,0.46459951996803284,-0.20848195254802704,-0.06411226838827133,0.280217707157135,0.01852983608841896,-0.23386436700820923,0.16832363605499268,0.052192576229572296,0.22239293158054352,-0.1861722469329834,-0.1140163317322731,-0.06274624913930893,-0.23620988428592682,0.06995587795972824,0.25824958086013794,-0.14479312300682068,0.018664691597223282,0.01922251097857952,0.17184539139270782,0.09703217446804047,0.2632938027381897,-0.03913823887705803,-0.22384317219257355,-0.10393043607473373,0.05435673147439957,0.23320797085762024,0.0005917285452596843,-0.01766999624669552,0.1584339737892151,0.11230046302080154,0.397132933139801,-0.13942177593708038,-0.3789198696613312,-0.21677057445049286,0.27559906244277954,0.17945584654808044,0.43648937344551086,-0.44831883907318115,0.14370852708816528,0.10761338472366333,-0.09278455376625061,0.031584396958351135,0.3578600585460663,-0.10694675147533417,-0.10846859216690063,0.44235458970069885,-0.23083148896694183,0.1041293814778328,-0.30123940110206604,0.3540186285972595,0.09130758792161942,-0.06340618431568146,-0.05295787751674652,0.1343025267124176,-0.0008341186912730336,0.09625311940908432,0.19117674231529236,0.0218343548476696,0.1795807182788849,0.13776759803295135,0.19847135245800018,0.007859616540372372,-0.030460599809885025,-0.012349708937108517,0.07162531465291977,-0.038195155560970306,0.06635599583387375,-0.21433323621749878,0.09275747090578079,-0.23265868425369263,0.09744042903184891,0.05734192952513695,0.05764160305261612,-0.08590005338191986,-0.12386038154363632,0.1833391636610031,-0.0729614719748497,0.19431379437446594,-0.06567889451980591,0.24779823422431946,0.07955493777990341,0.23150035738945007,-0.20681050419807434,0.09842349588871002,-0.5285356044769287,0.30456823110580444,-0.36262246966362,0.06669776886701584,-0.022572696208953857,-0.22682778537273407,-0.08571814745664597,0.11722961813211441,0.3638429343700409,-0.12300463020801544,0.022270334884524345,-0.025569213554263115,-0.13095833361148834,0.06895432621240616,0.048926595598459244,-0.12286096811294556,0.036721475422382355,-0.22488251328468323,-0.17743472754955292,-0.15750528872013092,0.06827220320701599,0.11070480197668076,-0.11745528876781464,0.027660001069307327,-0.24546903371810913,0.09307017177343369,0.06547785550355911,0.11112511903047562,-0.06200430542230606,0.05975804477930069,-0.3412359654903412,0.16002033650875092,0.13828256726264954,0.3544824719429016,-0.04316740855574608,0.04188304394483566,-0.299312561750412,0.01657278649508953,0.003638527123257518,-0.2630048096179962,0.14410120248794556,-0.16961626708507538,-0.21233908832073212,-0.10146910697221756,-0.3256739377975464,-0.0807645171880722,-0.13925568759441376,-0.2142600268125534,0.025602256879210472,-0.0012419619597494602,0.19284503161907196,-0.20418734848499298,0.06289057433605194,0.04459303617477417,-0.032477717846632004,-0.08476424962282181,-0.006716084200888872,-0.2611987888813019,-0.08000769466161728,0.20336812734603882,0.010107843205332756,0.10718794167041779,0.2684246301651001,0.026672901585698128,-0.018729642033576965,-0.0181068517267704,-0.004091708920896053,0.022409826517105103,-0.30042004585266113,0.18099823594093323,0.018715618178248405,0.012179229408502579,-0.17276564240455627,-0.034409914165735245,-0.22363489866256714,0.028926949948072433,0.09249317646026611,0.06578510254621506,-0.2705286145210266,0.07227297127246857,-0.011164545081555843,0.3463468551635742,0.005522608291357756,0.09989294409751892,-0.16361550986766815,-0.06435047090053558,0.16489146649837494,-0.15859642624855042,0.06038762629032135,-0.01693143881857395,0.03698807209730148,-0.0037472171243280172,-0.19359470903873444,-0.2411593794822693,-0.13000157475471497,-0.03585619106888771,-0.08271323889493942,-0.04946218058466911,0.2503436207771301,-0.2485983520746231,-0.2443912774324417,0.009648480452597141,0.2107882797718048,-0.05372841656208038,-0.21513547003269196,0.1890866607427597,0.18799330294132233,-0.2320844531059265,-0.039865028113126755,-0.24307548999786377,-0.10799173265695572,0.19725356996059418,-0.0694577619433403,0.177390918135643,0.12997885048389435,-0.12668511271476746,0.09102310985326767,-0.11240316927433014,0.09076278656721115,-0.05282938480377197,0.04904506355524063,0.11006402224302292,0.022378671914339066,-0.06338892132043839,0.1519344598054886,-0.18818402290344238,0.18392589688301086,0.006677108816802502,0.04820943996310234,-0.15189579129219055,0.012207040563225746,-0.24259231984615326,0.04441775754094124,0.07750814408063889,-0.16057734191417694,0.007273306138813496,-0.025392504408955574,-0.15703803300857544,-0.04532928392291069,-0.21782277524471283,-0.1772809624671936,0.14657673239707947,-0.04429410398006439,0.034317418932914734,-0.2496313750743866,-0.12198290228843689,-0.13020803034305573,0.1198234111070633,0.03205559402704239,0.027644407004117966,0.13292919099330902,-0.031131595373153687,-0.1376832127571106,-0.12809234857559204,0.044113826006650925,0.1484430879354477,-0.09206408262252808,0.08292143791913986,-0.23871801793575287,-0.22112424671649933,-0.09520038962364197,0.032339081168174744,0.11378396302461624,-0.2704724371433258,0.12894274294376373,0.1504937708377838,-0.16831427812576294,-0.0024347559083253145,0.15579582750797272,0.4163725674152374,-0.05086716264486313,0.05796326696872711,-0.07437264174222946,-0.01720476523041725,-0.05058375000953674,0.3755713701248169,-0.08557633310556412,-0.13519145548343658,-0.3368070721626282,0.09606286883354187,-0.000639244681224227,0.11377853900194168,0.012959619052708149,-0.013698185794055462,0.11205533891916275,0.22646784782409668,0.12925474345684052,0.22235403954982758,0.31406551599502563,0.21343876421451569,0.18936792016029358,0.055455319583415985,0.1546219289302826,-0.2371496707201004,-0.05707748606801033,-0.401854544878006,0.14823368191719055,0.13149577379226685,0.13940727710723877,-0.02074301987886429,-0.07851547002792358,-0.06883153319358826,-0.08085470646619797,0.20185035467147827,0.08927642554044724,0.2479363977909088,-0.01639651693403721,-0.04683622345328331,-0.003574731992557645,0.002842529444023967,0.04173656180500984,-0.10127883404493332,0.020241331309080124,0.12439911812543869,-0.08500352501869202,0.030675141140818596,0.05596655607223511,0.3162236213684082,0.09887394309043884,0.07429243624210358,-0.07560241222381592,0.18889540433883667,-0.03365655243396759,0.09668850898742676,-0.21142667531967163,-0.02335304021835327,-0.22226367890834808,-0.007169753313064575,0.18661795556545258,0.09721115976572037,-0.1467834711074829,0.08259530365467072,0.10484921187162399,0.25110918283462524,0.016826067119836807,0.37086811661720276,0.37922656536102295,0.22374433279037476,0.11606967449188232,0.0831107571721077,0.02113456092774868,-0.22851261496543884,-0.26537662744522095,-0.13693170249462128,0.05684054270386696,0.0366235077381134,0.05621681734919548,-0.10751394182443619,0.11425744742155075,0.05444314330816269,-0.0632006824016571,0.02082832157611847,-0.03945019096136093,-0.09181752055883408,0.036294907331466675,0.03512075915932655,0.008013872429728508,0.4007045328617096,0.0540817491710186,0.0684468224644661,-0.00794971827417612,-0.04692457243800163,0.11293663084506989,-0.05108657851815224,-0.14664317667484283,-0.08635308593511581,-0.18414409458637238,-0.08565270155668259,0.00777390506118536,-0.15953345596790314,-0.03413194790482521,0.07193681597709656,-0.013344209641218185,0.06156914681196213,-0.07787881791591644,0.14929014444351196,0.15823253989219666,0.06390685588121414,0.09167318791151047,-0.16475781798362732,-0.014007311314344406,0.03423858433961868,-0.2689795196056366,0.028194831684231758,0.16546885669231415,-0.0074531626887619495,-0.08469681441783905,0.0800529271364212,-0.04249473288655281,0.11260130256414413,-0.20284025371074677,0.01236527506262064,-0.10333693772554398,-0.11354392021894455,0.00800908263772726,0.18505628407001495,-0.03533901274204254,0.06953096389770508,0.08175522089004517,-0.041020434349775314,-0.10818378627300262,-0.0105288065969944,-0.12764161825180054,0.017098765820264816,-0.011383184231817722,-0.09104879200458527,0.10937127470970154,0.12364660948514938,0.08211789280176163,0.014194810763001442,-0.1246735230088234,-0.17323492467403412,0.024490125477313995,0.08446348458528519,0.28334271907806396,0.01759120635688305,-0.06927969306707382,-0.08757665753364563,-0.024936938658356667,0.15151984989643097,0.16478128731250763,-0.12032251805067062,0.060509297996759415,-0.1827467381954193,-0.017910061404109,-0.00789643358439207,-0.1535889059305191,0.06715807318687439,-0.03166662156581879,-0.293129026889801,-0.027653932571411133,-0.06813111901283264,-0.03126630187034607,0.1394679844379425,-0.05650290101766586,-0.007146156392991543,-0.006304985843598843,-0.26212483644485474,-0.07039415836334229,-0.18419396877288818,-0.05869608372449875,-0.06583280116319656,0.08793821185827255,-0.24310335516929626,-0.03348696604371071,0.477794885635376,-0.23126143217086792,-0.10428456962108612,0.07360301166772842,-0.029237087815999985,-0.051813121885061264,0.043782249093055725,-0.1730501800775528,0.08725100010633469,0.06871038675308228,-0.0033645678777247667,0.06785114854574203,-0.17553263902664185,0.20526424050331116,0.07227601855993271,0.3061366081237793,-0.08543479442596436,-0.01728898100554943,-0.06508301943540573,0.16482390463352203,0.10274267941713333,0.05418728291988373,-0.2599894106388092,-0.13965418934822083,-0.3139825463294983,0.30540230870246887,0.05539455637335777,0.17484696209430695,-0.14871782064437866,0.167953222990036,0.18394021689891815,-0.25961264967918396,0.12650538980960846,0.0477602481842041,-0.09677084535360336,0.04257233068346977,-0.08894911408424377,-0.0952618271112442,-0.137166365981102,-0.20119325816631317,0.11839266121387482,0.0010700235143303871,0.463680624961853,-0.10711876302957535,-0.05494029447436333,0.047340020537376404,-0.1898188591003418,0.0964006707072258,0.0989900603890419,0.14236482977867126,-0.23809251189231873,-0.10994414240121841,-0.19108812510967255,0.20926377177238464,0.2527831494808197,-0.009921322576701641,0.33091962337493896,0.24854977428913116,0.12060629576444626,-0.04229216277599335,-0.19033019244670868,-0.016243845224380493,-0.07022111117839813,-0.02336304821074009,-0.30573928356170654,-0.032056063413619995,-0.2363705337047577,-0.15310265123844147,-0.21109400689601898,-0.08811933547258377,-0.06340577453374863,-0.08381093293428421,0.12129887193441391,0.16823400557041168,0.05835882946848869,0.14151468873023987,-0.0911707729101181,-0.02975890226662159,0.04966767132282257,-0.0014526444720104337,-0.23914556205272675,-0.1631166934967041,-0.15496575832366943,0.0785505548119545,0.1374153047800064,-0.20660364627838135,0.017755407840013504,-0.09755294770002365,-0.10420440882444382,-0.0378996804356575,0.16501477360725403,0.1972283273935318,-0.1318645179271698,0.10091628134250641,-0.11377173662185669,0.11017569899559021,-0.2610689699649811,0.17426949739456177,0.19934549927711487,0.00521292956545949,-0.17967620491981506,-0.08716949820518494,0.3271540105342865,0.22813184559345245,0.03521453216671944,0.07237718999385834,0.08533290773630142,-0.22482231259346008,-0.69441819190979,0.5064045786857605,0.5977717638015747,-0.585486114025116,0.3368522822856903,-0.9413102269172668,-0.2312299609184265,-0.5593355894088745,0.745171844959259,-0.7294941544532776,-0.48844990134239197,-1.1825404167175293,0.12786951661109924,-0.8303633332252502,0.6187103986740112,-0.6218187212944031,-0.14745548367500305,0.0047949510626494884,0.07512034475803375,0.30894219875335693,0.28327563405036926,-0.028659367933869362,-0.3840197026729584,-0.05180757865309715,-0.11457269638776779,-0.000020959998437319882,0.2523609697818756,0.22679778933525085,0.25275641679763794,-0.2751142978668213,-0.0008604510221630335,0.011159783229231834,0.15811391174793243,-0.013273397460579872,-0.1331159621477127,0.00025302593712694943,-0.33928626775741577,0.38173404335975647,0.07136888056993484,-0.1122741848230362,0.09843216091394424,-0.1663409173488617,0.01797802932560444,0.07525483518838882,-0.09364958852529526,0.06725766509771347,0.07724785804748535,0.0786086916923523,-0.24514208734035492,-0.08961723744869232,0.08217785507440567,0.3837974965572357,0.11664270609617233,0.16091987490653992,0.06952662765979767,0.0016148783033713698,-0.34553423523902893,0.4304927885532379,-0.19954818487167358,-0.11892955005168915,-0.5295698046684265,0.6572961211204529,0.29097434878349304,0.028468945994973183,0.016077321022748947,0.12146025151014328,-0.12571899592876434,-0.1861918568611145,-0.037805523723363876,-0.18107479810714722,-0.001839636592194438,0.011586223728954792,0.013148813508450985,0.0033773849718272686,-0.01901112124323845,0.24161410331726074,0.11929278075695038,-0.19568024575710297,0.2062225490808487,0.04141698777675629,0.4549552798271179,0.02835342474281788,-0.165264293551445,-0.4603448808193207,0.01289528887718916,0.018665563315153122,-0.4040029048919678,0.49127987027168274,0.42950239777565,-0.09699424356222153,0.09826968610286713,0.4352004826068878,-0.09976615011692047,-0.12089081108570099,-0.3045228123664856,-0.41857558488845825,-0.19142641127109528,-0.08737653493881226,-0.13260459899902344,-0.21761523187160492,0.09193435311317444,-0.2208082228899002,-0.2013368159532547,0.026005206629633904,0.3144073486328125,0.002590289106592536,-0.25746893882751465,-0.35672271251678467,-0.24578851461410522,-0.11257365345954895,0.061885181814432144,0.07656173408031464,0.2736649215221405,-0.1351078301668167,0.022718528285622597,-0.14218680560588837,0.011732006445527077,0.33815768361091614,-0.3126429319381714,-0.16720779240131378,0.010745633393526077,0.13487078249454498,-0.0005263183848001063,0.2059156447649002,-0.016999948769807816,0.012718936428427696,-0.1658766120672226,0.2371843308210373,0.17247530817985535,-0.0074877566657960415,0.004363428335636854,0.10667289048433304,0.16981132328510284,-0.1624748557806015,-0.15974803268909454,-0.019225288182497025,-0.0013087490806356072,0.20447176694869995,-0.19398608803749084,0.12638066709041595,-0.03801536560058594,0.03555886074900627,0.13152509927749634,0.04870021715760231,-0.0300142765045166,0.05699634924530983,-0.12629224359989166,-0.10634671151638031,-0.20724095404148102,-0.1282797008752823,0.13312748074531555,-0.1282627284526825,-0.24242743849754333,0.04391590878367424,0.28711655735969543,0.0858730897307396,-0.07606057077646255,0.08167067170143127,0.025905150920152664,0.4440801441669464,-0.08407284319400787,-0.06680617481470108,0.003849606728181243,0.10954205691814423,0.2036648690700531,-0.24740828573703766,0.11412104219198227,-0.10638956725597382,-0.09670773148536682,0.14335709810256958,0.19577907025814056,0.32756203413009644,0.17577336728572845,0.11234871298074722,0.2266649454832077,-0.009983206167817116,-0.15234452486038208,-0.0015331888571381569,-0.18809005618095398,0.2083238661289215,0.02459172159433365,-0.02965681254863739,-0.1216014102101326,0.08637309074401855,0.10456575453281403,0.3464048504829407,-0.02588082104921341,0.14426764845848083,0.12934860587120056,-0.04931149631738663,-0.026745308190584183,0.036114174872636795,-0.0012589922407642007,0.32936662435531616,-0.156137615442276,-0.14785553514957428,-0.07594525068998337,-0.11454539746046066,0.142030268907547,0.2384663075208664,-0.4836888909339905,0.3165760636329651,0.34743165969848633,-0.1161816269159317,-0.11984053254127502,0.12463954836130142,0.1282035857439041,-0.03581187129020691,-0.007667898666113615,-0.27981504797935486,-0.2331295609474182,0.14227497577667236,0.15636636316776276,-0.20731908082962036,0.0723627582192421,0.14283235371112823,-0.15050789713859558,-0.32483524084091187,-0.2950241267681122,-0.1768755167722702,0.3821175694465637,-0.1987738460302353,-0.015206068754196167,0.008627873845398426,0.23624444007873535,0.03951272368431091,-0.30053046345710754,0.2907816469669342,-0.294931024312973,0.09355669468641281,0.057238031178712845,-0.020620735362172127,0.13766923546791077,0.24405252933502197,0.11482740193605423,-0.0015860580606386065,0.19392727315425873,0.10985720902681351,-0.05475814267992973,-0.09477530419826508,-0.06920154392719269,0.30464309453964233,0.10906393826007843,0.1584608256816864,-0.2178802341222763,-0.031170472502708435,0.03596413880586624,-0.11691535264253616,-0.2218063622713089,0.2624732255935669,-0.18776659667491913,-0.06210056692361832,-0.14405079185962677,0.3719390332698822,0.12470275163650513,0.04836233705282211,0.40497544407844543,-0.1621377319097519,-0.2891550660133362,-0.09938272088766098,-0.34569787979125977,0.3074393570423126,-0.15616779029369354,0.3793230354785919,0.16201995313167572,0.11602343618869781,0.3356938362121582,0.2730955183506012,-0.1982089728116989,0.27410760521888733,-0.4364930987358093,-0.4362849295139313,-0.25048208236694336,-0.05218903720378876,0.004179676063358784,-0.18279625475406647,-0.08490780740976334,0.06807855516672134,0.15322734415531158,0.18906304240226746,0.03420446440577507,0.030120236799120903,-0.013868806883692741,-0.3407217562198639,0.14162756502628326,-0.3618198037147522,-0.1490132212638855,-0.07600657641887665,-0.03239388018846512,-0.12063203006982803,-0.0711221769452095,-0.07749496400356293,-0.21889813244342804,-0.04040529206395149,-0.17132215201854706,-0.2987233102321625,0.14576147496700287,-0.12329792231321335,-0.14783445000648499,-0.18109185993671417,0.1534351408481598,0.23000913858413696,-0.06551999598741531,0.17989172041416168,0.11542826890945435,-0.08480487763881683,-0.11678716540336609,0.037554800510406494,0.22342123091220856,0.15750153362751007,0.14140500128269196,-0.1375596523284912,-0.09822019189596176,0.13147379457950592,0.10532557964324951,0.0009621060453355312,-0.06864752620458603,-0.195182204246521,-0.18279293179512024,-0.02117878571152687,0.009894105605781078,0.011323923245072365,-0.22844065725803375,-0.33635640144348145,-0.16019469499588013,0.07257381081581116,0.2419862598180771,-0.05326048284769058,-0.2467997670173645,0.08161196112632751,0.12332134693861008,-0.07184680551290512,-0.2967184782028198,-0.016282735392451286,-0.0944991260766983,-0.13661730289459229,-0.06708250194787979,0.15973582863807678,0.2348513901233673,-0.22929459810256958,0.2919432520866394,0.015874318778514862,-0.08046969771385193,-0.15333455801010132,-0.18779312074184418,-0.21226367354393005,-0.2645481526851654,-0.02203506976366043,0.033405404537916183,-0.323363333940506,-0.15569297969341278,0.09087589383125305,0.06737636029720306,-0.14725260436534882,0.04320729523897171,0.04132213816046715,0.13265185058116913,0.05546553432941437,-0.07802969962358475,-0.10933935642242432,-0.04533562809228897,0.02664690837264061,-0.0772295594215393,0.3979582190513611,0.14597712457180023,0.0522787943482399,-0.035622451454401016,0.13112770020961761,0.05049196258187294,-0.32858461141586304,-0.2105867713689804,0.006627925671637058,-0.21057935059070587,-0.07731648534536362,-0.027304230257868767,0.21707181632518768,0.2966114580631256,-0.3569450080394745,0.07804093509912491,-0.2333461493253708,-0.18211902678012848,-0.02705422230064869,-0.04037506505846977,-0.03557873144745827,0.23100218176841736,-0.010679084807634354,-0.19321881234645844,0.25154802203178406,0.0007405635551549494,-0.1881754994392395,-0.03970747068524361,-0.2657957077026367,0.19434277713298798,-0.05856267362833023,-0.2378794401884079,-0.018378425389528275,-0.21140973269939423,-0.3448571264743805,0.17639875411987305,-0.058510079979896545,0.2008752077817917,0.06195755675435066,0.1496289223432541,0.11658821254968643,-0.06874102354049683,-0.1391582190990448,0.2711467444896698,0.16889023780822754,0.22900408506393433,-0.08623100817203522,-0.00274738110601902,-0.16158360242843628,0.07233799993991852,-0.05416294187307358,0.024096665903925896,0.041852161288261414,-0.16032056510448456,0.005549335386604071,-0.6158614158630371,0.16704046726226807,0.18533052504062653,-0.15592409670352936,-0.1177670955657959,-0.2042112499475479,0.0027336387429386377,0.2263515740633011,-0.048323072493076324,-0.23355835676193237,0.1631099283695221,-0.27809619903564453,-0.5753475427627563,0.27027803659439087,0.0010578203946352005,-0.05399661511182785,0.0010390173410996795,-0.008309955708682537,0.20218347012996674,-0.11561847478151321,0.07082948833703995,0.3766685128211975,-0.0819368064403534,0.21671965718269348,0.12898346781730652,-0.16284430027008057,-0.0010467388201504946,-0.1643347293138504,-0.0889703705906868,-0.07160922884941101,-0.03985077142715454,0.36036595702171326,0.2012617290019989,0.043314870446920395,-0.2744211256504059,-0.10889635235071182,-0.010917571373283863,0.27431437373161316,0.044887471944093704,0.04822612926363945,-0.1396413892507553,-0.22398629784584045,-0.1882990002632141,0.03575458377599716,0.17378254234790802,0.10767356306314468,-0.11277742683887482,0.1674167811870575,0.23394116759300232,-0.33565494418144226,0.11786842346191406,-0.09150921553373337,-0.11252378672361374,0.16258874535560608,-0.1370050609111786,-0.1916010081768036,-0.07508833706378937,-0.07981610298156738,0.2525019347667694,-0.1516162008047104,-0.1353417932987213,-0.42996746301651,-0.0910392701625824,-0.19331082701683044,0.1993352323770523,-0.16810627281665802,0.003890867345035076,0.24528871476650238,-0.1625397652387619,-0.1096622422337532,0.3047182261943817,-0.12840710580348969,0.14360009133815765,-0.010109147988259792,0.017113130539655685,0.12743936479091644,-0.20299218595027924,0.13001883029937744,0.13089744746685028,-0.22524826228618622,-0.24546723067760468,-0.1091286763548851,0.3073505163192749,0.10848288238048553,-0.05108792334794998,-0.12811143696308136,-0.10894878208637238,-0.1618022471666336,0.2918667197227478,0.21594880521297455,0.1347772479057312,-0.21700572967529297,-0.23541311919689178,-0.09448546916246414,0.28419822454452515,-0.08352482318878174,-0.21782413125038147,0.055285729467868805,-0.18331201374530792,0.15199783444404602,0.1242867037653923,-0.105906642973423,-0.22792990505695343,0.2943524122238159,0.06385160237550735,-0.0858706533908844,0.012452026829123497,0.18197357654571533,-0.02301962301135063,-0.07032616436481476,0.23001009225845337,-0.060724660754203796,-0.3834882974624634,-0.029346024617552757,-0.058625370264053345,-0.1817121058702469,-0.11879228055477142,-0.1840573251247406,0.15457794070243835,0.011981028132140636,-0.1284942477941513,0.04276832565665245,0.0403953492641449,-0.005113270133733749,0.06908468902111053,-0.17167969048023224,-0.08294548839330673,0.07449281215667725,-0.15586410462856293,0.06708760559558868,-0.13986533880233765,-0.24090199172496796,-0.2093804031610489,0.10256374627351761,0.08625780791044235,0.03314024582505226,-0.08969854563474655,-0.06326987594366074,-0.08081793785095215,0.15251760184764862,0.15730322897434235,0.06902440637350082,-0.03799670934677124,0.06457731127738953,0.35560938715934753,0.12132681906223297,0.1840924173593521,-0.30833300948143005,0.1569744199514389,0.0744498148560524,0.056942448019981384,0.26170504093170166,0.07245368510484695,0.03182775154709816,0.1456412374973297,-0.10485504567623138,-0.18832966685295105,0.12459186464548111,-0.13183818757534027,-0.12541495263576508,0.09115239977836609,0.011940200813114643,-0.040020931512117386,0.12980760633945465,-0.09433658421039581,-0.2145405113697052,-0.4345061779022217,-0.014680905267596245,0.1258276104927063,0.06756996363401413,-0.0935700535774231,-0.08956901729106903,0.0034336261451244354,-0.0662008672952652,0.10978130996227264,-0.08132877200841904,-0.04651981592178345,0.014840872958302498,0.04511910676956177,0.15987716615200043,0.10256846249103546,-0.22148215770721436,-0.0871599093079567,-0.03949664160609245,0.21248500049114227,0.0832999050617218,0.21647578477859497,-0.19930283725261688,-0.1969977468252182,0.009444033727049828,-0.032098401337862015,-0.0630350187420845,-0.2771611511707306,0.0010243949946016073,-0.07105036824941635,-0.046749502420425415,0.14271824061870575,-0.2328532487154007,-0.1913081705570221,0.14904257655143738,-0.2119286060333252,-0.07273996621370316,-0.2118818759918213,-0.0016168678412213922,-0.1737373322248459,0.18415924906730652,-0.0036235342267900705,0.11734449118375778,-0.08449007570743561,-0.043573398143053055,-0.0002833539911080152,0.11426318436861038,-0.21651475131511688,-0.1380169838666916,0.020718608051538467,-0.2125195413827896,-0.13006193935871124,-0.09693104028701782,-0.06658826768398285,-0.15726540982723236,-0.12595556676387787,0.01980281062424183,0.0895543247461319,0.014468342065811157,-0.054029591381549835,-0.008712880313396454,0.18402636051177979,-0.08681139349937439,0.07639190554618835,0.04119187220931053,0.14880099892616272,0.31239527463912964,0.054749637842178345,0.02968723140656948,0.26618802547454834,-0.1737537980079651,0.100726418197155,-0.10135414451360703,0.04337174817919731,-0.051350973546504974,0.23338773846626282,-0.16390493512153625,0.004422618541866541,-0.17614103853702545,0.04114791005849838,-0.04983394965529442,-0.20662221312522888,0.06165513023734093,0.06939560920000076,-0.07999461144208908,-0.19857990741729736,-0.03905070200562477,-0.03931666910648346,0.12543830275535583,-0.16725283861160278,-0.07449039816856384,-0.10339080542325974,-0.041009292006492615,-0.1309875100851059,-0.1732066571712494,-0.10184915363788605,0.2958623170852661,0.032512564212083817,-0.2078002542257309,0.10639265179634094,-0.13316267728805542,-0.15476326644420624,-0.05505692958831787,-0.167485773563385,-0.07721249014139175,-0.4698682129383087,-0.06767464429140091,0.13924051821231842,0.044545579701662064,-0.1053697019815445,0.07953342795372009,-0.2531287372112274,0.048649098724126816,0.27123016119003296,0.38466721773147583,0.20500771701335907,0.08974568545818329,0.03680947795510292,0.24390612542629242,-0.0057756840251386166,0.11379627883434296,-0.18767058849334717,-0.11733084917068481,0.6191844940185547,-0.11850863695144653,-0.1444772630929947,0.32144469022750854,0.00020750556723214686,0.05821865051984787,0.011928582563996315,0.011983373202383518,0.023278001695871353,0.018784742802381516,-0.1181153729557991,0.2911589443683624,0.6344568133354187,0.023735536262392998,-0.14990027248859406,-0.13497738540172577,-0.1231226995587349,0.07126975804567337,0.11631490290164948,0.15495462715625763,0.04140856862068176,0.0890604555606842,-0.0234764963388443,-0.05392540618777275,0.021057069301605225,0.003130614524707198,0.019359393045306206,0.09476226568222046,0.17067652940750122,-0.018580397590994835,-0.006992284208536148,-0.1418539583683014,-0.1828322559595108,-0.04218994081020355,-0.12323305010795593,0.07921811193227768,-0.23880934715270996,-0.2130705565214157,-0.16044048964977264,-0.19496065378189087,0.0533766895532608,0.10878327488899231,-0.1085267961025238,-0.09474080055952072,-0.01750483550131321,-0.03136308118700981,-0.04861399158835411,0.09899742901325226,0.2464081346988678,0.15758681297302246,-0.11362006515264511,-0.023358456790447235,-0.1832430362701416,-0.11844558268785477,-0.1705990433692932,-0.038716353476047516,-0.03498926758766174,0.21398989856243134,-0.07781688123941422,0.06487920135259628,0.013128522783517838,-0.0012984888162463903,0.0760440081357956,-0.0063796876929700375,-0.08987414836883545,-0.04527193680405617,0.0348518043756485,-0.013615994714200497,-0.2672179639339447,-0.25566813349723816,0.05460355803370476,0.12125690281391144,0.012249835766851902,-0.10734787583351135,0.0491008497774601,-0.14183220267295837,-0.127680242061615,-0.06537086516618729,0.05537698417901993,0.09348926693201065,0.13296468555927277,0.15524837374687195,-0.29059407114982605,-0.006767670623958111,0.20495808124542236,0.12622559070587158,0.13769055902957916,0.07836851477622986,-0.037780169397592545,0.15113869309425354,0.1491433084011078,0.23202425241470337,0.07096615433692932,-0.02951240912079811,0.046170372515916824,-0.19165471196174622,-0.45099350810050964,-0.2851184606552124,0.3245382308959961,0.1319182962179184,0.16667035222053528,0.06232811138033867,-0.15376226603984833,-0.07667838782072067,-0.18062269687652588,-0.02478342317044735,-0.17976480722427368,-0.03831810876727104,-0.030178353190422058,-0.11591972410678864,0.1256367266178131,-0.053067028522491455,0.1648220419883728,-0.06682509928941727,-0.14729082584381104,0.08804374933242798,-0.01798822358250618,-0.742628812789917,0.23334884643554688,-0.159428671002388,-0.04248131811618805,0.09891657531261444,-0.14902402460575104,0.0018318031216040254,-0.28028762340545654,-0.16441728174686432,0.021917030215263367,-0.11876837909221649,-0.07460130751132965,0.07239992916584015,0.05652076005935669,0.16100938618183136,0.08983993530273438,-0.16930009424686432,-0.07351382076740265,-0.029994675889611244,-0.032642386853694916,-0.04029268026351929,0.21708932518959045,-0.05030763894319534,-0.008246767334640026,-0.28137120604515076,0.023150121793150902,0.08421582728624344,-0.46900689601898193,0.2679859697818756,-0.04210607334971428,-0.4573613107204437,0.09918556362390518,-0.08270512521266937,-0.14111673831939697,0.25942009687423706,-0.09341444075107574,-0.2794489860534668,0.24448449909687042,-0.18328607082366943,-0.3489256501197815,-0.13974560797214508,-0.0057092406786978245,-0.08312401920557022,0.11183369904756546,0.07324977964162827,0.11408337950706482,-0.1828121840953827,0.13751718401908875,0.43556714057922363,0.3128916621208191,0.0068422951735556126,-0.042178940027952194,-0.12941500544548035,0.0392879955470562,-0.010581248439848423,-0.12339624762535095,-0.021447191014885902,-0.03034217469394207,0.15166567265987396,-0.07618062198162079,0.29607677459716797,-0.13049528002738953,0.045755211263895035,-0.16984596848487854,0.08597439527511597,0.057251449674367905,-0.12749828398227692,-0.04374649003148079,-0.08800201117992401,-0.0862773135304451,0.07530912756919861,0.13827960193157196,0.20280735194683075,0.02992943860590458,0.17812152206897736,0.1559867262840271,-0.038889892399311066,-0.03446156904101372,0.24256974458694458,0.06687867641448975,-0.08645546436309814,0.2644414007663727,-0.14251679182052612,-0.02031470276415348,0.0957406684756279,-0.07466208189725876,0.18788468837738037,0.268158495426178,-0.0662776455283165,0.1912977248430252,0.010048956610262394,-0.1930217742919922,0.15708234906196594,-0.014619668945670128,-0.07822101563215256,-0.1983838677406311,0.1715812236070633,0.2490791231393814,-0.03714624047279358,-0.16696414351463318,0.005811502691358328,-0.11717743426561356,0.08414673060178757,0.07741839438676834,-0.18013514578342438,-0.05248044803738594,-0.04691489413380623,0.17753420770168304,0.05514492839574814,0.005682268645614386,-0.12382522225379944,0.041152652353048325,-0.017922544851899147,0.06861110776662827,0.006681609433144331,-0.06467311084270477,0.05684857815504074,-0.07227683812379837,0.22304560244083405,0.06499192863702774,0.046071525663137436,-0.10715223848819733,0.03964894264936447,0.06654013693332672,0.016684209927916527,-0.037968479096889496,-0.14154669642448425,-0.0521070770919323,-0.05246797949075699,0.32829150557518005,0.0322815366089344,-0.19396774470806122,0.003242040751501918,0.18588198721408844,-0.16215795278549194,0.0980614647269249,0.08262580633163452,0.06402288377285004,0.2385307103395462,-0.03344807028770447,0.06262180954217911,0.1202305406332016,-0.2092798501253128,0.037356458604335785,0.17224903404712677,-0.1604475975036621,-0.11287468671798706,-0.20051345229148865,-0.203713521361351,-0.020421704277396202,-0.2754572927951813,-0.13253913819789886,0.0011614635586738586,-0.1276504248380661,0.17548368871212006,0.041382815688848495,0.15562620759010315,-0.25307968258857727,-0.07611062377691269,-0.06498056650161743,0.2650752663612366,0.18468640744686127,0.08071893453598022,-0.06786906719207764,0.023093031719326973,-0.07607394456863403,0.35356709361076355,0.019469667226076126,0.12891501188278198,-0.17565394937992096,0.0005911181215196848,0.37135517597198486,-0.45935311913490295,0.013763729482889175,-0.1597474068403244,-0.2398657202720642,-0.06066316366195679,0.07257848232984543,-0.2929789423942566,-0.07260843366384506,-0.27472442388534546,0.11890842020511627,0.12172366678714752,0.0787283256649971,-0.4233992397785187,-0.1660887449979782,-0.05371595174074173,0.22127068042755127,-0.10094723105430603,-0.07190877199172974,0.31794241070747375,-0.14010894298553467,-0.26111477613449097,0.3822808265686035,-0.23694336414337158,0.04183699190616608,0.20910808444023132,0.045115549117326736,0.23079536855220795,-0.05631047487258911,0.2374083548784256,0.07834131270647049,-0.2873568832874298,-0.0326094776391983,-0.057856637984514236,0.25494569540023804,0.2009701430797577,0.14825592935085297,-0.06485069543123245,-0.11644721776247025,-0.14622586965560913,0.15505792200565338,0.01708497293293476,0.05106440186500549,-0.2689255475997925,-0.1458887755870819,-0.19204413890838623,0.25813448429107666,-0.20913849771022797,-0.2600553333759308,0.28286996483802795,-0.23347212374210358,0.19801300764083862,-0.007003982085734606,-0.18603630363941193,-0.2208004742860794,0.13464932143688202,0.2593134939670563,0.018766162917017937,-0.08599964529275894,-0.08430474251508713,-0.15014766156673431,0.2704285979270935,0.2467220574617386,0.02309754490852356,0.10274891555309296,-0.23119518160820007,0.12314500659704208,-0.005890528205782175,-0.010864350944757462,0.03762967139482498,0.5017797350883484,-0.017066605389118195,0.15637649595737457,0.04078074172139168,-0.14579828083515167,0.04136855900287628,0.1550971418619156,-0.015111807733774185,-0.3823714852333069,-0.2902829647064209,0.9851982593536377,0.4706539809703827,-0.6596930027008057,0.06232595071196556,-0.07860121876001358,0.3338976502418518,0.6187512874603271,-1.201484203338623,1.3018723726272583,0.9563958644866943,-0.08727328479290009,-0.42148104310035706,0.4495268166065216,-0.8626967668533325,0.2391374260187149,-0.48546260595321655,0.06186741963028908,-0.33781349658966064,0.03665753826498985,0.13682027161121368,0.18933279812335968,-0.19426985085010529,0.1032886654138565,0.20850934088230133,0.14470721781253815,-0.0036937387194484472,-0.25375601649284363,0.10541553050279617,-0.10754960030317307,-0.13757584989070892,0.1788536161184311,0.15401427447795868,0.09175822138786316,0.07244986295700073,0.2618481516838074,0.3368860185146332,-0.24316580593585968,-0.2892506420612335,-0.2733685076236725,0.013684988021850586,0.16904012858867645,-0.07185086607933044,0.10923688113689423,0.29500842094421387,0.08406944572925568,0.09833107888698578,0.05234907194972038,-0.13315443694591522,-0.00402382668107748,-0.19404244422912598,0.4630137085914612,0.034605614840984344,-0.012466221116483212,-0.11414328217506409,-0.20227225124835968,-0.47575557231903076,0.376912385225296,0.38120126724243164,0.07686707377433777,-0.08703107386827469,-0.16866198182106018,0.22032314538955688,0.2492038756608963,0.03825617954134941,0.09751220047473907,0.025211993604898453,-0.3475090265274048,0.13370418548583984,-0.1983264535665512,0.07949355244636536,0.19834662973880768,-0.025057729333639145,0.150162473320961,0.13280527293682098,-0.02099110372364521,0.02646893449127674,0.21583832800388336,-0.19289104640483856,0.015047415159642696,0.13522589206695557,0.4788019061088562,-0.04841635003685951,-0.16676197946071625,-0.2513926923274994,0.02530626207590103,-0.3207607567310333,0.3237123191356659,0.021867185831069946,-0.161131352186203,-0.0595291405916214,-0.07715991139411926,-0.2553917169570923,0.05651930347084999,-0.336810439825058,-0.15721528232097626,-0.22871047258377075,0.11732947826385498,0.034381236881017685,-0.16122321784496307,0.04290902614593506,0.18671144545078278,0.16414228081703186,0.05519668385386467,-0.21786145865917206,-0.017571954056620598,0.10633386671543121,0.006450148764997721,0.09993796795606613,0.1431424915790558,-0.0122459027916193,0.15401053428649902,0.2840515077114105,-0.10634487122297287,-0.06293830275535583,0.2779589891433716,-0.23124833405017853,-0.04755261167883873,-0.10960063338279724,-0.3521553575992584,0.2106494903564453,0.2582022249698639,-0.15150678157806396,0.09526640176773071,-0.04945395141839981,0.13385605812072754,0.24653927981853485,0.14118637144565582,0.03054894506931305,-0.3747144937515259,-0.013553328812122345,0.14815224707126617,-0.04243874549865723,-0.09463316947221756,-0.2592220604419708,0.13708914816379547,0.055440835654735565,0.049938980489969254,-0.06764670461416245,0.12058552354574203,0.18695810437202454,0.016406387090682983,-0.14167003333568573,-0.22466009855270386,0.5217371582984924,0.019535396248102188,0.2098485827445984,0.1820845603942871,-0.07276105135679245,-0.3556806147098541,0.00740586593747139,-0.1097419336438179,0.14568841457366943,-0.15643996000289917,0.3029967248439789,-0.1344827115535736,-0.046107929199934006,0.13113006949424744,0.07720095664262772,0.26596781611442566,0.06054111570119858,-0.17715997993946075,0.3195435404777527,-0.02806784212589264,0.1929091066122055,-0.295291543006897,-0.09002520143985748,-0.05236270651221275,-0.018341677263379097,0.14271898567676544,-0.23152443766593933,-0.03592729568481445,-0.016438709571957588,0.27506834268569946,-0.2044370025396347,0.43099039793014526,-0.19423720240592957,-0.21159660816192627,-0.384057879447937,0.2660524547100067,-0.3588898777961731,0.07490451633930206,-0.2824878692626953,0.05535859614610672,0.2835721969604492,-0.31973233819007874,-0.23849128186702728,0.010440453886985779,-0.37595707178115845,0.01511972676962614,0.32518336176872253,0.1408568173646927,-0.06639000028371811,0.12093009799718857,-0.20786823332309723,0.12142067402601242,0.23551465570926666,0.010796413756906986,0.03161592409014702,-0.29024171829223633,-0.16229601204395294,-0.05120902881026268,0.18828485906124115,-0.23002032935619354,-0.09460695832967758,-0.11631956696510315,0.4111989438533783,-0.25303855538368225,-0.33934882283210754,-0.2611435651779175,0.4076371192932129,-0.15814800560474396,0.14505647122859955,-0.25154608488082886,-0.06394398212432861,0.13668681681156158,-0.13078747689723969,-0.10892710834741592,-0.034997064620256424,0.0021034099627286196,0.03977246955037117,0.1271170675754547,-0.2386493682861328,-0.2733277380466461,0.1858576387166977,-0.06905748695135117,-0.1497696489095688,0.06236384063959122,-0.2139931321144104,0.16068591177463531,-0.06643445789813995,-0.19070979952812195,0.12680259346961975,-0.04310540482401848,-0.13746751844882965,0.09248166531324387,0.1915189027786255,-0.1727258414030075,0.14991064369678497,0.12685851752758026,0.1267985701560974,-0.1120443120598793,0.05643323436379433,0.02536114677786827,-0.07888053357601166,-0.00015886574692558497,-0.19265921413898468,0.16136418282985687,0.2683711349964142,0.04009139537811279,0.2816852331161499,0.0003621814539656043,-0.15022116899490356,-0.02007465437054634,-0.20223255455493927,-0.2252354621887207,-0.4178847074508667,0.05069650709629059,-0.22337757050991058,-0.34811654686927795,0.04511779919266701,-0.21502386033535004,-0.34493961930274963,0.06069158762693405,-0.20462733507156372,0.479347825050354,0.18527035415172577,0.191259503364563,0.31380054354667664,-0.3970277011394501,-0.01493954285979271,-0.029594184830784798,0.1352263242006302,0.15950967371463776,0.0058260648511350155,0.006228904239833355,0.3012719452381134,0.15352079272270203,-0.010021909140050411,-0.35377293825149536,-0.1936626434326172,0.05933786556124687,0.12473832815885544,0.16769926249980927,0.19948971271514893,0.027295485138893127,-0.028524810448288918,0.2004295289516449,0.04682895541191101,-0.062363848090171814,0.017016973346471786,0.12914352118968964,-0.02152223512530327,0.065202496945858,-0.038496073335409164,0.0580158568918705,0.12444479763507843,0.03213152661919594,-0.07267562299966812,-0.08204463869333267,-0.21517476439476013,-0.06857883930206299,0.02932363748550415,-0.0628853514790535,0.4201415777206421,0.1316872239112854,0.09939303994178772,-0.25203937292099,-0.23428313434123993,-0.04332450032234192,0.22989504039287567,0.03120587207376957,-0.020415637642145157,-0.3615439236164093,-0.053452860563993454,0.0003501322353258729,0.1437315046787262,-0.08833163976669312,-0.04260454699397087,-0.2526281476020813,-0.2322741597890854,-0.35228344798088074,-0.3816537857055664,0.06459935754537582,0.04260721802711487,-0.15840472280979156,0.046461619436740875,0.10201465338468552,-0.374393492937088,-0.20739299058914185,-0.21816816926002502,0.024985508993268013,0.14774273335933685,0.11031017452478409,-0.2064158320426941,-0.041827861219644547,0.24114197492599487,-0.022874685004353523,0.1471008062362671,-0.044818781316280365,-0.29503369331359863,0.058937449008226395,-0.05876769497990608,0.10381625592708588,-0.012614683248102665,0.26325514912605286,0.22359812259674072,0.05262181907892227,0.06379442662000656,0.2641952931880951,-0.029500391334295273,-0.22875136137008667,0.11759797483682632,-0.06763766705989838,0.14609186351299286,-0.19415156543254852,-0.029058365151286125,-0.17164939641952515,-0.006205609533935785,0.05744657665491104,0.24546682834625244,-0.17814603447914124,-0.005925209727138281,0.12012922763824463,0.2909694314002991,0.14060993492603302,0.1490977555513382,0.11789946258068085,-0.13120640814304352,-0.05549407750368118,-0.04238466918468475,0.055601853877305984,0.06985285878181458,0.004808178637176752,-0.0055061518214643,0.18246570229530334,-0.4205840229988098,0.18078599870204926,0.24882857501506805,0.15867120027542114,0.025182759389281273,-0.07154197990894318,-0.3564402163028717,-0.04667164757847786,0.029694732278585434,0.033553969115018845,0.11005394160747528,0.12774476408958435,-0.2540346384048462,0.13896220922470093,0.006915760226547718,0.043448932468891144,-0.0143430819734931,0.22574590146541595,-0.08388291299343109,0.08057669550180435,-0.039796989411115646,0.04962041974067688,-0.11158622056245804,-0.2300228476524353,0.23892031610012054,0.06584818661212921,0.2125581055879593,-0.2557506561279297,-0.05825018137693405,-0.11711659282445908,0.17930848896503448,-0.021786542609333992,0.20849795639514923,-0.11582554131746292,0.008481471799314022,-0.11934909969568253,0.161911740899086,-0.036603040993213654,0.15696796774864197,-0.18882432579994202,-0.20782025158405304,-0.24841560423374176,-0.1997445970773697,0.03343668580055237,0.0940374806523323,-0.11773554235696793,-0.030577313154935837,0.03304077684879303,-0.28731536865234375,0.09114830940961838,-0.10845445841550827,0.013566751964390278,0.06181837245821953,0.13787445425987244,-0.6042723655700684,0.05329658091068268,0.24961934983730316,-0.10259697586297989,-0.004001162480562925,0.09643377363681793,-0.04260861501097679,-0.027556287124753,-0.057326335459947586,0.11587963998317719,0.13178607821464539,0.18763338029384613,-0.1033329963684082,0.12360575050115585,0.1179545596241951,0.07965728640556335,-0.1272144317626953,-0.26421400904655457,0.2034527212381363,0.14173322916030884,0.061158664524555206,-0.05250011384487152,0.05274663865566254,0.013033224269747734,0.3078230917453766,0.061082623898983,-0.016930008307099342,-0.2927083373069763,-0.14982503652572632,0.01337848138064146,0.2529153525829315,0.10506099462509155,0.35765308141708374,0.09801353514194489,-0.10200869292020798,0.05958344414830208,0.3483069837093353,0.06955523043870926,0.12715521454811096,-0.2738542854785919,0.06463687121868134,0.15010395646095276,-0.2272164225578308,-0.07435685396194458,0.0795593112707138,0.11107279360294342,0.02340736612677574,-0.06267400830984116,0.07406116276979446,0.3636448383331299,0.009328441694378853,-0.0941520556807518,0.16091814637184143,0.07099007815122604,-0.1250201165676117,-0.12323186546564102,-0.12955835461616516,0.03762265294790268,0.11753552407026291,-0.02842218056321144,-0.11969634145498276,-0.21189887821674347,-0.06309238076210022,0.04858751967549324,-0.06677898019552231,0.0436868816614151,0.08696602284908295,-0.21640899777412415,0.0006551638944074512,0.08852604776620865,0.09379347413778305,-0.025220172479748726,0.14036065340042114,-0.08648211508989334,0.18793857097625732,-0.055818937718868256,-0.15440645813941956,-0.02854781597852707,0.20612716674804688,-0.0679326057434082,0.18615305423736572,0.282269150018692,0.02138715609908104,-0.1558535099029541,-0.039129070937633514,0.04359941557049751,-0.031597793102264404,-0.19120295345783234,-0.1762436330318451,-0.08249066770076752,-0.09849078953266144,-0.13074681162834167,-0.06501235067844391,0.1626916229724884,0.0719367191195488,0.08555635064840317,-0.06504962593317032,-0.054625414311885834,0.041234392672777176,0.12436160445213318,0.011215368285775185,0.18893858790397644,-0.21857498586177826,0.058953043073415756,-0.0765330046415329,-0.0005176701815798879,-0.14181473851203918,0.3323260247707367,-0.10970966517925262,0.06905872374773026,-0.03347846493124962,-0.06427455693483353,-0.08069256693124771,-0.31336599588394165,0.013763118535280228,-0.03135423734784126,0.08146889507770538,-0.02964889630675316,0.10846050083637238,-0.15486852824687958,-0.030352557078003883,-0.0763322189450264,0.14619901776313782,-0.19273048639297485,-0.016528122127056122,0.0026867773849517107,0.018177080899477005,-0.028926286846399307,0.05859680846333504,0.14922131597995758,-0.10394342988729477,-0.06272903084754944,0.2985585927963257,-0.10098128020763397,0.022635608911514282,-0.25978323817253113,-0.10466988384723663,-0.14106999337673187,-0.23678454756736755,0.035253800451755524,0.046210065484046936,-0.10918401926755905,0.03573492169380188,0.21215170621871948,-0.44041934609413147,-0.2135782688856125,-0.02961660549044609,-0.17711585760116577,-0.29845714569091797,0.04595889151096344,0.14805983006954193,-0.014973284676671028,-0.33670660853385925,0.23800675570964813,-0.3009386956691742,-0.20718908309936523,0.039048586040735245,0.23281915485858917,-0.4779908061027527,-0.11217831820249557,-0.030349014326930046,-0.4194297790527344,0.07345371693372726,-0.1418769210577011,0.23888984322547913,-0.11648572236299515,0.40375789999961853,0.3148476481437683,-0.3087657690048218,-0.07599439471960068,0.32187438011169434,0.22575035691261292,0.2535398006439209,0.17826208472251892,-0.19397477805614471,0.31272950768470764,0.7949851751327515,-0.3074457347393036,0.42260658740997314,-0.529826283454895,0.07951377332210541,-0.08965649455785751,0.21825554966926575,0.1579592525959015,-0.17814883589744568,0.2547045946121216,-0.12522059679031372,0.1210540160536766,-0.09795060008764267,-0.23569276928901672,-0.08085894584655762,-1.0591351985931396,0.18861541152000427,0.22390501201152802,0.12515757977962494,-0.006103601306676865,0.08656518161296844,-0.008381352759897709,0.07260897755622864,-0.08086694031953812,-0.008186236023902893,0.03837338462471962,0.118972547352314,0.16025841236114502,-0.009820970706641674,-0.10561200976371765,0.03369257226586342,0.01736418716609478,-0.11590100079774857,-0.05898118019104004,0.14403079450130463,-0.052599940448999405,-0.17346736788749695,0.0813671424984932,-0.09577341377735138,-0.15527674555778503,0.040917813777923584,0.05537104606628418,0.10838009417057037,-0.028162745758891106,0.000585040426813066,-0.0023196847178041935,0.26860547065734863,-0.12669405341148376,-0.11066003888845444,-0.07059399783611298,-0.02424887754023075,0.0487370491027832,0.15241646766662598,0.024327725172042847,-0.1373291015625,-0.029609518125653267,0.21326953172683716,-0.051015645265579224,-0.21885380148887634,-0.12958961725234985,0.032900795340538025,-0.06669827550649643,-0.04389890283346176,-0.14600321650505066,0.04217763617634773,0.09654657542705536,-0.06422842293977737,-0.12900589406490326,0.2390923947095871,0.17391866445541382,-0.1064106747508049,-0.08381901681423187,-0.2568175494670868,-0.046781279146671295,0.01160514634102583,0.20618070662021637,-0.07933962345123291,-0.09736340492963791,-0.11186053603887558,0.12503476440906525,-0.13257773220539093,-0.09188122302293777,-0.1541774421930313,-0.04774327948689461,-0.10713540762662888,-0.23175355792045593,-0.11875104159116745,-0.1176360696554184,0.023099662736058235,-0.0691278725862503,0.20180825889110565,-0.0974552109837532,0.05892709270119667,0.020831594243645668,0.13787858188152313,0.02431107498705387,0.07344316691160202,0.2373359203338623,-0.037164654582738876,0.040457338094711304,-0.25243279337882996,0.1225796490907669,-0.013661488890647888,-0.17919601500034332,-0.04830845072865486,-0.12763383984565735,-0.017294537276029587,-0.06846751272678375,0.09734543412923813,0.23744872212409973,0.027013463899493217,-0.0956503376364708,0.21543510258197784,-0.08253400027751923,-0.030207030475139618,-0.15922267735004425,0.13909903168678284,0.15815436840057373,-0.09192945808172226,0.1842201203107834,-0.03174985200166702,-0.18474644422531128,-0.02415534108877182,0.017135532572865486,-0.05584592744708061,-0.09055832028388977,0.07233086973428726,0.3364226818084717,0.019901446998119354,-0.22017639875411987,0.08329711109399796,0.0034358687698841095,0.20758992433547974,0.03263935074210167,0.023305509239435196,0.017856013029813766,0.08907327055931091,0.09288257360458374,0.3279991149902344,0.0199747197329998,-0.19333212077617645,-0.05144813656806946,0.04824547842144966,0.023897923529148102,0.37455952167510986,-0.2200014442205429,0.015153038315474987,0.10431978851556778,0.05656837299466133,0.07611249387264252,-0.10290384292602539,-0.29230692982673645,-0.1260443776845932,0.14920754730701447,-0.2785089612007141,-0.03903265297412872,-0.052937813103199005,-0.11795826256275177,-0.18552285432815552,0.16342391073703766,-0.020918136462569237,0.19921886920928955,-0.17483371496200562,-0.159077450633049,0.02495160885155201,0.037673018872737885,-0.03325333818793297,-0.051015786826610565,-0.16380196809768677,0.36730149388313293,0.10924941301345825,0.18810445070266724,-0.30879828333854675,-0.258818656206131,-0.32228201627731323,0.22068436443805695,0.18535569310188293,-0.05977329611778259,0.15890946984291077,0.11085351556539536,0.24153625965118408,-0.13627538084983826,-0.18034566938877106,-0.013421139679849148,0.0844029039144516,0.17571736872196198,0.20541401207447052,0.08890488743782043,-0.17346860468387604,-0.0188923180103302,0.09620130062103271,-0.04772495478391647,0.11190906912088394,-0.1982092410326004,-0.014484543353319168,-0.15168967843055725,0.3285268545150757,0.13888832926750183,-0.1254459172487259,-0.2596518099308014,0.10883582383394241,-0.06867115944623947,-0.04986106604337692,-0.06242942437529564,0.10712580382823944,0.2688491642475128,0.020985214039683342,-0.1953587383031845,0.11672273278236389,0.06892138719558716,-0.12752088904380798,-0.16944044828414917,0.1674303412437439,0.018065091222524643,-0.3094227910041809,-0.13165369629859924,-0.10689146816730499,0.6829811930656433,0.1136191263794899,0.03315753862261772,-0.13811641931533813,-0.32551896572113037,-0.13286495208740234,0.20791639387607574,-0.09555558860301971,0.01790250465273857,0.16566918790340424,0.07696151733398438,-0.2737523913383484,-0.36338794231414795,-0.07615087181329727,0.015468863770365715,0.32299232482910156,0.02488291636109352,-0.08753250539302826,-0.17155660688877106,-0.21094104647636414,0.28654706478118896,0.27308279275894165,-0.08069702982902527,-0.728398859500885,-0.05799096077680588,-0.03127863258123398,-0.35354799032211304,0.4115791618824005,0.2793034315109253,0.14426007866859436,-0.41107234358787537,0.2108650654554367,-0.23857131600379944,-0.026433385908603668,-0.2487919181585312,-0.06514028459787369,0.21292661130428314,0.17001116275787354,-0.6273282766342163,0.3000031113624573,0.09284047782421112,0.22787943482398987,-0.005669075530022383,-0.011801356449723244,0.012855703942477703,-0.23856914043426514,0.029320189729332924,-0.15757374465465546,-0.03756158798933029,0.0050840009935200214,0.16401778161525726,0.07680528610944748,0.15199868381023407,0.06042132526636124,0.10233709216117859,0.0018678243504837155,-0.12484263628721237,0.07139244675636292,-0.14191262423992157,-0.043471816927194595,-0.46181514859199524,0.11250397562980652,-0.1295447200536728,0.1454116851091385,0.023406390100717545,0.22044943273067474,-0.1789073646068573,0.10206422954797745,0.2366289347410202,0.1770889312028885,-0.05626232922077179,-0.11019115149974823,-0.5081380009651184,-0.14280526340007782,-0.03592434525489807,0.3299385905265808,-0.12189891189336777,-0.08693929016590118,-0.08723162859678268,0.1253819465637207,0.051328420639038086,-0.17454874515533447,0.13058315217494965,0.0032398137263953686,0.22323979437351227,0.03530766814947128,-0.11302894353866577,0.07495861500501633,-0.10708536952733994,-0.08278292417526245,0.29992201924324036,-0.00798961240798235,0.004870032891631126,0.11373189091682434,0.13505585491657257,0.09340640157461166,0.1307307481765747,-0.13758108019828796,-0.05915316194295883,0.01903519593179226,0.01186396460980177,-0.06270622462034225,-0.127659410238266,0.17208392918109894,0.2570902109146118,0.08754470944404602,-0.09213229268789291,0.08403084427118301,0.33388105034828186,0.079826220870018,0.06075716391205788,-0.11256608366966248,-0.07091497629880905,-0.10500968992710114,0.17330026626586914,0.019370369613170624,-0.18602056801319122,-0.049658313393592834,0.11158951371908188,-0.09548439085483551,0.2511044144630432,0.045836951583623886,0.10001720488071442,0.06859400868415833,0.001547245541587472,-0.012548551894724369,-0.03229163959622383,-0.08656544983386993,-0.14600110054016113,0.06345748156309128,0.0032156093511730433,-0.08346448838710785,0.07959634810686111,-0.07423674315214157,-0.038743723183870316,-0.36335617303848267,-0.1718548685312271,-0.06538651883602142,0.2764166295528412,-0.19607104361057281,-0.1479734182357788,0.2106018215417862,0.021904123947024345,0.36887240409851074,0.14705343544483185,-0.1738463193178177,-0.10708019137382507,0.2555800974369049,-0.025441627949476242,-0.12304321676492691,-0.3565591871738434,0.16821612417697906,0.011674526147544384,-0.3106266260147095,0.007502953987568617,-0.16393324732780457,0.34220632910728455,0.03566955402493477,0.07906085252761841,-0.14782322943210602,-0.08241020143032074,-0.021367598325014114,0.36890140175819397,0.01931092143058777,0.1061692088842392,-0.13336697220802307,-0.06434953212738037,-0.32050442695617676,0.14700841903686523,0.11518460512161255,0.041482310742139816,-0.2592799663543701,-0.19711031019687653,0.029427072033286095,0.14275576174259186,-0.14997664093971252,0.07428467273712158,0.08573805540800095,0.004738181363791227,0.04382134974002838,-0.21398743987083435,-0.11042089760303497,0.055705852806568146,-0.6062483787536621,-0.25527799129486084,0.025120530277490616,0.46584421396255493,-0.1923629492521286,0.11406078934669495,0.039786987006664276,-0.09755170345306396,-0.07052541524171829,-0.19149073958396912,-0.11664368957281113,-0.027740320190787315,0.3196108937263489,0.03299738094210625,0.09200748801231384,-0.2668924629688263,0.05874456465244293,0.11971648037433624,0.11479413509368896,-0.06306342780590057,0.027581213042140007,-0.2075151950120926,0.05160350725054741,0.07341719418764114,-0.20891021192073822,-0.04318459331989288,0.09989740699529648,0.12894713878631592,0.08180436491966248,0.1376524567604065,0.024208519607782364,0.07422433793544769,0.018329838290810585,0.0037274316418915987,0.2119932472705841,0.02898631989955902,-0.07173678278923035,-0.1984981894493103,0.11174089461565018,0.17324846982955933,-0.13738377392292023,0.08425776660442352,-0.10588778555393219,0.12452258169651031,-0.06702670454978943,-0.18324580788612366,-0.1121673509478569,-0.05010906234383583,-0.6103029847145081,-0.03995317965745926,-0.04589150473475456,0.0992000624537468,-0.07698363810777664,0.10069741308689117,0.0319976806640625,-0.08300406485795975,-0.14304473996162415,0.0011076608207076788,0.14271338284015656,0.08411280065774918,0.07686208933591843,0.09587599337100983,0.17642319202423096,0.027811475098133087,0.048142433166503906,0.839351236820221,0.29688507318496704,0.5507009029388428,-0.890574038028717,-0.5765250325202942,-0.4288526177406311,-0.2965729236602783,0.07174532860517502,0.3769182860851288,0.24405084550380707,-0.7887951731681824,0.6672657132148743,-0.5166976451873779,-0.76821368932724,-0.1395917534828186,-0.4048503041267395,-0.10128599405288696,-0.29675716161727905,0.09122288227081299,-0.2075338214635849,-0.2688528597354889,0.20598037540912628,-0.04321065545082092,-0.30009424686431885,-0.33075249195098877,0.030605103820562363,-0.21067868173122406,-0.0631045401096344,0.01971150003373623,0.015838347375392914,0.12101086229085922,-0.08786129951477051,-0.10886058956384659,-0.2340441793203354,-0.0033932060468941927,-0.24944064021110535,-0.08924590796232224,0.012525412254035473,0.1608714759349823,-0.13363267481327057,-0.239004984498024,-0.14942437410354614,-0.12912659347057343,0.0009808734757825732,-0.07936102896928787,0.0019385985797271132,0.2900194823741913,0.013134480454027653,-0.25990915298461914,0.3560653328895569,-0.1941777914762497,-0.11569062620401382,0.0027479706332087517,-0.39836356043815613,0.013310643844306469,0.2784322500228882,0.10594991594552994,0.026332464069128036,-0.09265490621328354,-0.2817001938819885,-0.00038491981104016304,-0.1999923139810562,0.14132866263389587,0.5677908658981323,-0.11370868980884552,-0.0012910012155771255,-0.04961327090859413,0.16661761701107025,0.2114371508359909,0.2687593698501587,0.13702358305454254,0.11870240420103073,-0.021345818415284157,-0.14816990494728088,-0.004507595207542181,-0.12089485675096512,0.2882184684276581,0.12544089555740356,0.11075922101736069,-0.19266974925994873,0.03869673237204552,-0.06438730657100677,-0.09716106206178665,0.08970990777015686,0.012730822898447514,-0.003152482444420457,0.03323664143681526,-0.17889004945755005,0.30902981758117676,0.1553080976009369,0.055117662996053696,0.020875975489616394,-0.20517608523368835,-0.17009389400482178,-0.2659180760383606,-0.3679644763469696,-0.18432831764221191,0.2657386362552643,0.2036954015493393,0.14314039051532745,-0.21530073881149292,0.17413893342018127,0.06339132785797119,-0.11694668233394623,0.09260645508766174,0.13709565997123718,-0.17437952756881714,0.16459019482135773,-0.010079516097903252,-0.007562786340713501,-0.3480091392993927,-0.014526043087244034,-0.08012958616018295,-0.2813540995121002,-0.2108495980501175,0.04211927577853203,-0.07557188719511032,-0.29917848110198975,0.16533954441547394,0.23253309726715088,-0.08792436122894287,0.06934477388858795,0.11086886376142502,-0.12282796949148178,0.09518586099147797,-0.05940753594040871,0.2755744755268097,-0.018448101356625557,-0.09276069700717926,0.3126446604728699,-0.0389220267534256,0.006432044319808483,0.15662075579166412,-0.3583695888519287,-0.27982297539711,0.40706709027290344,0.1397726982831955,-0.04889708757400513,-0.02175576239824295,0.09179549664258957,-0.15249179303646088,-0.19369959831237793,0.10983157902956009,-0.02060723304748535,-0.26067933440208435,0.17986179888248444,0.0611758679151535,0.22885474562644958,0.030408456921577454,0.09179630875587463,-0.25457146763801575,-0.07478035986423492,0.1462804228067398,-0.0760938972234726,-0.010602530092000961,0.054083503782749176,0.4320615231990814,0.19642971456050873,0.027921896427869797,0.137144535779953,0.005746636539697647,0.21912282705307007,0.062361035495996475,-0.0031904480420053005,-0.12367696315050125,0.1126817911863327,-0.11650973558425903,0.09812440723180771,-0.31804198026657104,-0.15336893498897552,0.07311703264713287,-0.13513244688510895,0.11339008808135986,-0.20894619822502136,0.16247162222862244,0.0874076709151268,-0.20479567348957062,-0.023652559146285057,-0.4004570245742798,-0.16035084426403046,-0.2852133512496948,0.04492463544011116,-0.13474160432815552,-0.22118794918060303,0.2056884765625,-0.10724357515573502,-0.20205530524253845,-0.013851387426257133,-0.1849697083234787,0.14605289697647095,0.21785929799079895,-0.1131327822804451,-0.021964963525533676,0.3222585618495941,-0.0715990662574768,0.07992991805076599,-0.10742910951375961,-0.20649200677871704,-0.2677921950817108,0.10992695391178131,-0.2138155996799469,0.07135661691427231,0.35774698853492737,0.3165382742881775,-0.21681438386440277,0.1788274049758911,-0.2870202660560608,-0.18053388595581055,0.22797513008117676,0.39970654249191284,0.2850363254547119,0.30937591195106506,0.022304760292172432,-0.022638462483882904,0.010814874432981014,0.033901065587997437,0.13682718575000763,0.1102064922451973,-0.19862188398838043,-0.09618305414915085,-0.11406058818101883,0.03940197452902794,-0.1568548083305359,-0.06955882906913757,-0.07150744646787643,0.02826707251369953,0.048517726361751556,0.22151488065719604,0.19050399959087372,0.01502546202391386,0.02917088381946087,0.13429537415504456,0.24307216703891754,0.1902414709329605,0.18520551919937134,-0.05940176919102669,-0.09262818098068237,-0.14927177131175995,-0.08945056796073914,0.01774975098669529,0.11717794835567474,0.029348287731409073,0.17738337814807892,0.02841954678297043,-0.14894382655620575,-0.12229867279529572,0.22658967971801758,-0.01939430832862854,-0.4218856990337372,0.015115687623620033,-0.4270869791507721,-0.12222813069820404,0.2226826548576355,0.0881870836019516,0.16081877052783966,0.2908318042755127,-0.2544725835323334,-0.029576918110251427,-0.28133007884025574,-0.07706939429044724,-0.3098336160182953,-0.11800134181976318,0.16969305276870728,-0.28918886184692383,-0.012491299770772457,0.11898507177829742,-0.3682946264743805,-0.008563981391489506,0.13053055107593536,-0.048953164368867874,-0.11894389241933823,0.2862829566001892,-0.1571156233549118,0.040280383080244064,0.010794750414788723,-0.09943240880966187,0.06364503502845764,0.0020089412573724985,0.011393524706363678,0.06307906657457352,-0.21312867105007172,0.11143700778484344,0.08426127582788467,0.019131533801555634,0.042726654559373856,-0.11584111303091049,-0.0342370867729187,-0.016536425799131393,-0.04074207320809364,0.0035221423022449017,0.06016276776790619,0.011806797236204147,0.14284494519233704,-0.0961395800113678,-0.14229831099510193,0.04600870609283447,-0.29453718662261963,0.12310166656970978,0.165245920419693,-0.246009960770607,-0.04781109839677811,-0.13319233059883118,-0.06846709549427032,0.07378671318292618,0.07860299199819565,0.07628752291202545,-0.047071490436792374,-0.03285987675189972,0.12843434512615204,-0.01364525593817234,-0.07065197080373764,0.13597416877746582,0.11429593712091446,-0.048029400408267975,0.22764798998832703,0.05023764446377754,-0.23088596761226654,0.18262946605682373,0.1497773826122284,0.06333179771900177,0.0752020999789238,0.04988397657871246,-0.34578263759613037,-0.07371724396944046,0.05045125260949135,0.10351306200027466,-0.10346826165914536,-0.06472373753786087,0.07753957808017731,-0.038559578359127045,0.1199532300233841,-0.14546272158622742,0.37144848704338074,0.031003206968307495,0.12738639116287231,0.0978732705116272,-0.04083441570401192,-0.06750386953353882,0.18740251660346985,0.03349291905760765,-0.10142307728528976,0.1670236736536026,0.014529231004416943,0.05784529447555542,-0.2707802951335907,-0.1913585066795349,0.002609577961266041,0.264900803565979,0.12684908509254456,0.07293678820133209,0.036213647574186325,0.1550014466047287,-0.03517160564661026,-0.29016995429992676,-0.15335851907730103,0.07589787244796753,0.14091640710830688,-0.11344368755817413,0.02614840678870678,-0.2429262101650238,-0.007793982047587633,0.10317102819681168,0.4063412547111511,0.06009722501039505,0.05718129873275757,-0.22199535369873047,0.13071462512016296,-0.11230213195085526,0.1609303504228592,-0.08542650192975998,-0.06443977355957031,0.054539527744054794,-0.11773466318845749,-0.23621752858161926,0.059633247554302216,-0.11261630803346634,-0.06363099068403244,0.20215600728988647,0.1988898515701294,0.08966188132762909,-0.2336733043193817,0.14245609939098358,-0.0249213594943285,-0.041769012808799744,-0.029107939451932907,-0.059642940759658813,0.3475717306137085,0.11878509819507599,0.09756790846586227,0.29619330167770386,0.01406033243983984,0.0844137966632843,-0.039133891463279724,-0.25261449813842773,-0.024647481739521027,0.08971930295228958,-0.01868804171681404,-0.09404639899730682,-0.2601436376571655,0.2095354050397873,0.02977905236184597,0.03400236740708351,0.01661190763115883,0.0346536710858345,0.054381631314754486,-0.021465636789798737,0.1293676644563675,0.059885043650865555,0.0523659810423851,-0.10617370158433914,-0.14123547077178955,0.07965915650129318,-0.12911075353622437,0.06788042932748795,0.049366578459739685,0.018141938373446465,0.21518412232398987,-0.04419928416609764,0.0131181376054883,0.0971306562423706,-0.02731279656291008,0.05653547868132591,0.14493121206760406,-0.10002844035625458,-0.13952487707138062,-0.18562787771224976,0.054264236241579056,-0.04850753769278526,0.07350469380617142,0.21956883370876312,0.07084731757640839,-0.2609776556491852,0.07078921794891357,-0.08863767236471176,0.05092036724090576,0.011219050735235214,-0.15126894414424896,-0.16858376562595367,-0.23892748355865479,-0.3345869183540344,0.1442878395318985,-0.09634384512901306,-0.14235828816890717,0.2191465198993683,0.08647914975881577,0.00842429418116808,0.021927569061517715,-0.18849222362041473,-0.07859748601913452,0.07211580127477646,0.07078947871923447,-0.3823302984237671,0.07086865603923798,0.23108667135238647,0.5548990964889526,0.04311490058898926,-0.09256397187709808,0.6520191431045532,-0.12874092161655426,-0.06433422118425369,0.2895611822605133,0.13706444203853607,-0.05443418398499489,0.2556456923484802,0.2229197472333908,0.016436638310551643,1.3492987155914307,-0.044575851410627365,-0.006741960998624563,-0.13365858793258667,-0.005477015860378742,0.006103536579757929,-0.4094310998916626,-0.1448972374200821,0.08027036488056183,-0.07249800115823746,-0.13003547489643097,-0.20418767631053925,-0.5176569819450378,-0.10875682532787323,-0.05219411849975586,-0.00215184991247952,0.17462719976902008,0.0672108605504036,0.13867269456386566,0.002782926196232438,0.12756934762001038,0.20335985720157623,0.0034131116699427366,-0.26681315898895264,0.2758001983165741,0.06325642019510269,0.10978443175554276,0.1752830594778061,0.09286501258611679,0.15466351807117462,-0.09130953997373581,-0.05265266075730324,0.1328936666250229,0.016497323289513588,-0.19949078559875488,-0.06742709875106812,-0.13599322736263275,0.09647338092327118,0.09997490048408508,0.11291235685348511,0.2065272331237793,0.11546212434768677,-0.0420866422355175,0.19740287959575653,0.0014760070480406284,0.009064828045666218,0.0543321929872036,0.1510474979877472,-0.1337738335132599,-0.10282973945140839,-0.042721670120954514,0.21924754977226257,-0.0412752665579319,-0.08529703319072723,0.18406882882118225,-0.1493932455778122,0.11137455701828003,-0.05234658345580101,0.11381363123655319,-0.14144450426101685,0.021603969857096672,0.23698998987674713,-0.1225627064704895,-0.04437047243118286,-0.30511170625686646,-0.06722919642925262,-0.0941823199391365,0.0859663337469101,0.01212094072252512,-0.015624729916453362,-0.17931871116161346,0.07086539268493652,0.11361569166183472,0.18047451972961426,-0.10694185644388199,0.16527651250362396,-0.11857336759567261,-0.07137849181890488,-0.035859595984220505,-0.11557286977767944,-0.02222312241792679,-0.06312816590070724,-0.11112786084413528,-0.09179864078760147,-0.04820343852043152,-0.2804632782936096,0.005252279806882143,0.02169702760875225,0.08022137731313705,0.05514977499842644,0.1726352870464325,-0.24467185139656067,0.04851324483752251,0.059261709451675415,-0.06889066100120544,0.009489416144788265,-0.03585907444357872,0.08776188641786575,-0.039810702204704285,-0.20964957773685455,-0.1899982988834381,-0.1480235457420349,-0.06281420588493347,0.1610715240240097,0.16785266995429993,0.27199071645736694,-0.2681148052215576,0.23203936219215393,0.09653633087873459,-0.288960725069046,-0.0916496217250824,-0.16523882746696472,-0.16935770213603973,0.027548328042030334,-0.11030803620815277,-0.08816354721784592,0.14521193504333496,0.30120736360549927,0.08540761470794678,-0.020059801638126373,-0.1943163126707077,0.03146461397409439,0.05507541075348854,0.23545336723327637,-0.021369384601712227,0.1808152049779892,0.1272408664226532,-0.018994800746440887,0.049809642136096954,0.25071191787719727,0.11381115019321442,0.07503506541252136,0.09252522140741348,0.03907519578933716,-0.010984149761497974,-0.11433155834674835,0.17695024609565735,-0.007673515006899834,0.15654858946800232,-0.08504396677017212,-0.0013552034506574273,0.18749232590198517,0.013299131765961647,-0.04153845086693764,0.007843113504350185,-0.000789076613727957,-0.06488356739282608,-0.027779506519436836,0.14968618750572205,0.07018209993839264,-0.0018385566072538495,0.20613336563110352,-0.1641090214252472,-0.005988290999084711,-0.12286578118801117,-0.11982870101928711,-0.16731606423854828,-0.023664554581046104,-0.04145371913909912,-0.036370810121297836,0.17001600563526154,0.020802782848477364,0.025398029014468193,-0.0038752485997974873,-0.018667370080947876,-0.049400005489587784,0.008997580967843533,0.11433717608451843,0.021944684907794,-0.056986793875694275,-0.013222014531493187,-0.13223642110824585,-0.0023152714129537344,-0.11257609724998474,-0.08464588224887848,0.04764581844210625,-0.05030600354075432,-0.032667092978954315,-0.10548266768455505,0.023429498076438904,-0.16593758761882782,-0.12010233104228973,0.05101104453206062,0.1467469334602356,0.11646220088005066,-0.2022969275712967,-0.06224731728434563,0.008499173447489738,-0.14803405106067657,-0.11811690777540207,0.03548166900873184,0.031553808599710464,0.00733893271535635,-0.10885690152645111,0.053948406130075455,0.032436106353998184,-0.08318081498146057,0.1552865207195282,0.10156212747097015,-0.22949007153511047,-0.1478799283504486,-0.17724965512752533,0.07925105094909668,-0.19197474420070648,-0.08020780980587006,0.15134218335151672,-0.004163573030382395,-0.01905350759625435,-0.11812463402748108,0.07681947946548462,0.02958451770246029,-0.24268148839473724,0.09731674194335938,-0.09721069782972336,-0.29389113187789917,0.00996795017272234,0.013085628859698772,-0.15002651512622833,0.08986012637615204,-0.21911515295505524,0.4169756770133972,0.003911603707820177,-0.03779138624668121,0.420638769865036,0.0183449424803257,-0.08528511971235275,-0.20491690933704376,0.06821848452091217,-0.16070248186588287,0.10394810140132904,0.03934796154499054,-0.06823194772005081,-0.23889508843421936,-0.15353649854660034,-0.10863334685564041,0.29686111211776733,-0.01599554717540741,-0.02926480956375599,-0.12954431772232056,0.001637217472307384,0.005066445097327232,-0.13874749839305878,0.1437561959028244,0.11529663950204849,-0.09217021614313126,-0.036750826984643936,0.02323075942695141,-0.07768946141004562,-0.12732045352458954,-0.12094097584486008,-0.0885464996099472,-0.13592545688152313,-0.04618367180228233,0.3472026586532593,-0.010579865425825119,0.03349719196557999,-0.43914005160331726,-0.018110714852809906,0.022671403363347054,0.08356413245201111,-0.019906258210539818,-0.05247458070516586,0.03647793084383011,0.05776054412126541,-0.03309106454253197,0.12665992975234985,0.029730675742030144,-0.04391883686184883,-0.2257096916437149,0.09012848138809204,0.08959316462278366,-0.08832485228776932,-0.10568109899759293,-0.12111251801252365,-0.1936669647693634,0.042758550494909286,0.13582517206668854,0.2295483946800232,0.03279682248830795,0.01250358484685421,0.2851918935775757,-0.0940360352396965,-0.1113852933049202,-0.03263334929943085,0.11391851305961609,0.07337769120931625,-0.10638409852981567,0.059740230441093445,0.06541373580694199,-0.513970136642456,0.08331850916147232,0.07573128491640091,0.4004859924316406,-0.03952609375119209,-0.10354336351156235,0.11527366936206818,0.06548717617988586,0.028960054740309715,0.052306171506643295,0.09138348698616028,0.126021146774292,-0.14203469455242157,0.049622420221567154,0.07801789790391922,-0.1340542733669281,0.08195148408412933,0.14439567923545837,0.03792136535048485,-0.27319103479385376,0.018897032365202904,-0.3899640738964081,-0.035047709941864014,-0.027090715244412422,0.21312938630580902,-0.16751539707183838,0.04340755566954613,0.14668700098991394,0.0010100894141942263,0.1920737475156784,-0.10218502581119537,-0.044189050793647766,-0.018064310774207115,-0.21449357271194458,0.08911427110433578,-0.07064387947320938,-0.4599515497684479,0.05020768195390701,0.03655058145523071,-0.2590589225292206,0.029207780957221985,0.09647192806005478,-0.24169175326824188,-0.017972353845834732,0.06468912959098816,0.13309326767921448,0.28766587376594543,0.17703939974308014,-0.12056752294301987,0.019648488610982895,0.026012787595391273,0.027568869292736053,-0.14666172862052917,-0.07695311307907104,-0.07599599659442902,0.06529517471790314,0.03866824880242348,-0.1069469153881073,0.05251789838075638,-0.029635146260261536,-0.41723254323005676,-0.23958152532577515,-0.21885479986667633,0.1576528698205948,0.12324956804513931,-0.14218781888484955,-0.08725159615278244,-0.037729982286691666,-0.03053058497607708,