{"version":"0.5.4","metadata":{"date":{"year":2026,"month":1,"day":22,"hour":2,"minute":52,"second":41},"loudness":-23.690208435058594,"gain":0.24556834518640705,"name":"V30-SLO1-1","modeled_by":"lum","gear_type":"amp","gear_make":"tz-make","gear_model":"tz-model","tone_type":"overdrive","input_level_dbu":null,"output_level_dbu":null,"training":{"settings":{"ignore_checks":false},"data":{"latency":{"manual":null,"calibration":{"algorithm_version":1,"delays":[4058],"safety_factor":1,"recommended":4057,"warnings":{"matches_lookahead":false,"disagreement_too_high":false}}},"checks":{"version":3,"passed":true}},"validation_esr":0.0006555374555796815}},"architecture":"WaveNet","config":{"layers":[{"input_size":1,"condition_size":1,"head_size":8,"channels":16,"kernel_size":3,"dilations":[1,2,4,8,16,32,64,128,256,512],"activation":"Tanh","gated":false,"head_bias":false},{"input_size":16,"condition_size":1,"head_size":1,"channels":8,"kernel_size":3,"dilations":[1,2,4,8,16,32,64,128,256,512],"activation":"Tanh","gated":false,"head_bias":true}],"head":null,"head_scale":0.02},"weights":[0.12228536605834961,0.613481879234314,-0.6646515727043152,-0.7705954313278198,-0.3090289235115051,0.10043612122535706,-0.019274789839982986,0.7197055816650391,-0.06359604001045227,0.22932322323322296,-0.19583366811275482,-0.07558509707450867,-0.9109670519828796,-0.6532590985298157,-0.4986526072025299,-0.08899898082017899,0.19093582034111023,0.048599883913993835,-0.035939574241638184,-0.12362620234489441,-0.07122769951820374,0.14804288744926453,0.03206603229045868,0.23234649002552032,-0.05129460617899895,0.07874433696269989,0.2539922893047333,-0.1646646410226822,-0.033209677785634995,0.07935702800750732,-0.08361191302537918,0.07596909999847412,-0.19441574811935425,-0.0379038080573082,-0.02239122800529003,-0.15769188106060028,-0.2158048301935196,0.060848746448755264,-0.06021453067660332,0.10093897581100464,0.04166101664304733,0.00012919258733745664,0.00470247445628047,-0.18947438895702362,-0.2148851901292801,-0.04560990631580353,0.14311756193637848,0.19517074525356293,-0.09462679177522659,0.047823838889598846,0.19063369929790497,0.12403709441423416,0.12095515429973602,0.14506515860557556,0.06542538851499557,-0.021217260509729385,0.15001718699932098,-0.14165939390659332,-0.038433291018009186,0.04904460161924362,0.04324563592672348,0.0780385285615921,-0.14650775492191315,-0.03763013333082199,-0.010099045000970364,0.06266291439533234,-0.11455588042736053,0.06021662801504135,0.1139475554227829,0.12940603494644165,-0.13977010548114777,-0.07817430049180984,0.06612960994243622,0.09122293442487717,0.09989618510007858,0.13801582157611847,0.0038870065473020077,-0.14504094421863556,0.02385968528687954,-0.06663058698177338,-0.11788955330848694,0.12045248597860336,0.06283240020275116,-0.1186457946896553,0.0018163807690143585,0.0015044438187032938,0.003800690406933427,-0.07908555865287781,0.04037705063819885,-0.08012522757053375,0.04876500368118286,0.09415177255868912,0.12031865864992142,0.041920848190784454,-0.1688346266746521,-0.11628003418445587,0.07807634770870209,0.00030127502395771444,-0.1246725395321846,-0.08261267095804214,0.10945495963096619,0.07010330259799957,-0.04953897371888161,-0.06310239434242249,-0.16336825489997864,0.008947494439780712,-0.1363568902015686,-0.1324877291917801,-0.0020589521154761314,-0.14445807039737701,-0.03444995358586311,-0.0328809916973114,-0.15743818879127502,0.20096555352210999,0.17431215941905975,-0.12552332878112793,0.2689920663833618,-0.034047581255435944,0.021553905680775642,-0.26916903257369995,0.09082790464162827,0.008658184669911861,-0.3779878318309784,0.10603190213441849,-0.1263510286808014,-0.37796592712402344,0.01207086630165577,-0.10065077245235443,0.21271653473377228,-0.18577644228935242,0.09388874471187592,-0.0709027647972107,-0.07627787441015244,-0.008122909814119339,0.41167229413986206,-0.05228675529360771,0.0702410563826561,-0.23700733482837677,0.13940149545669556,0.07256995886564255,0.42047974467277527,0.03457305207848549,0.15823912620544434,-0.29187020659446716,-0.07249729335308075,-0.03882373124361038,-0.17040246725082397,0.06267355382442474,-0.07314526289701462,-0.4207903742790222,-0.09975514560937881,-0.12034069001674652,-0.33526766300201416,0.11753126978874207,0.08613608032464981,-0.43841367959976196,0.1302243322134018,-0.053058575838804245,-0.062737375497818,-0.2673213481903076,0.08469077199697495,-0.03720732405781746,-0.23164013028144836,-0.1404268741607666,-0.15396453440189362,0.21420712769031525,-0.047637827694416046,0.18774397671222687,-0.3385949730873108,0.009788868017494678,0.26048657298088074,-0.2717302143573761,0.14170052111148834,0.17790353298187256,-0.3450208306312561,0.08801344782114029,-0.1272348165512085,0.14232221245765686,0.03408542275428772,0.017132695764303207,-0.22611217200756073,-0.04767760634422302,-0.03169194608926773,0.25297001004219055,0.0540030337870121,0.12776406109333038,-0.2533893287181854,-0.036837976425886154,-0.2368520051240921,0.2953008711338043,0.12202785164117813,0.22093278169631958,-0.31344157457351685,0.01854417659342289,0.015559694729745388,-0.28307828307151794,-0.06547227501869202,0.1854308843612671,-0.2983947992324829,0.014319846406579018,0.13896404206752777,-0.12066192179918289,-0.095832459628582,0.030143193900585175,-0.2936494052410126,0.14810895919799805,0.026706473901867867,0.2556527256965637,0.007901372388005257,0.004799506161361933,-0.08551771193742752,-0.030358241870999336,-0.028012385591864586,0.04962622746825218,0.004289102740585804,0.06657582521438599,-0.18823027610778809,-0.07110202312469482,0.1652667224407196,-0.19626100361347198,-0.014768344350159168,0.18298445641994476,-0.034928206354379654,0.01973988488316536,-0.15403200685977936,0.1710376739501953,-0.04361475259065628,0.06221020221710205,0.09894980490207672,-0.02421080879867077,-0.04790745675563812,0.1978664994239807,-0.02267681248486042,0.12650151550769806,-0.04519803449511528,-0.08011180907487869,0.032009098678827286,-0.0077387490309774876,-0.07112369686365128,0.0798410028219223,-0.044580962508916855,0.08358359336853027,-0.01923692412674427,-0.10515358299016953,0.0792333111166954,-0.08870278298854828,0.027333764359354973,-0.11643580347299576,0.04952593520283699,-0.10355782508850098,-0.07911516726016998,0.05856522172689438,0.036145612597465515,-0.06567014008760452,-0.1482997089624405,0.05717845261096954,-0.2820885181427002,0.03140084818005562,0.01892889477312565,-0.2335657924413681,0.08875039964914322,0.14135481417179108,0.20895937085151672,-0.06050043925642967,-0.011205960996448994,0.08561939746141434,-0.21440689265727997,-0.0181506909430027,0.2604326903820038,-0.12257437407970428,-0.11850868910551071,-0.21958211064338684,0.0026031038723886013,0.05690663307905197,0.03750650957226753,-0.140481635928154,0.10013575851917267,-0.22746722400188446,0.15826775133609772,0.10272586345672607,0.1881689578294754,-0.20176801085472107,-0.10291147232055664,-0.032509252429008484,0.177596777677536,0.16201786696910858,0.09822652488946915,-0.11130253225564957,-0.07056528329849243,0.14481371641159058,-0.2322690635919571,0.020964065566658974,0.17746058106422424,-0.17948059737682343,-0.09587827324867249,0.04565468803048134,-0.0727364644408226,-0.16859693825244904,0.20081816613674164,-0.21458815038204193,-0.12995316088199615,0.15492594242095947,-0.027586955577135086,-0.04899674281477928,0.027204906567931175,-0.11020570248365402,-0.0017458142247051,0.08999872952699661,0.22510413825511932,-0.15330423414707184,-0.1503327637910843,-0.19007770717144012,0.1777956187725067,-0.08422985672950745,-0.11584794521331787,0.2281205952167511,-0.09504661709070206,-0.15555545687675476,0.20026430487632751,0.011745505034923553,0.1444428265094757,-0.141448974609375,-0.09041806310415268,0.03005899488925934,0.11855383217334747,0.16132158041000366,0.2559988796710968,-0.11272265017032623,0.10331837087869644,-0.16387416422367096,0.08087097853422165,-0.11154894530773163,0.2919262647628784,-0.059206217527389526,-0.11032916605472565,-0.09159379452466965,0.25892171263694763,0.1455250233411789,-0.010834023356437683,0.2653732895851135,-0.06651382893323898,-0.2237425297498703,0.2485153079032898,0.050199560821056366,-0.2556999623775482,0.2622385323047638,0.04438338056206703,-0.08215108513832092,0.044094834476709366,0.06893012672662735,0.030982961878180504,0.06065697222948074,-0.01664014905691147,0.006333815865218639,0.03428696095943451,0.334606409072876,0.11084125936031342,0.1373036801815033,-0.3738303482532501,-0.1270957887172699,-0.16671055555343628,-0.4195076823234558,-0.27930301427841187,0.04371676221489906,-0.1827070564031601,-0.014822042547166348,0.05888820439577103,0.10188371688127518,0.02753257006406784,0.01095172856003046,-0.10141813009977341,0.09314587712287903,-0.07374872267246246,0.20491279661655426,0.025100093334913254,-0.01237606629729271,-0.07962847501039505,0.032624971121549606,0.10434108972549438,0.3655027449131012,0.2690543532371521,0.013813198544085026,-0.1817859560251236,-0.01290042046457529,0.002314353361725807,-0.08706600219011307,-0.06098097935318947,0.051671918481588364,-0.328505277633667,-0.09698082506656647,-0.055403970181941986,-0.30981308221817017,-0.24293002486228943,-0.15030090510845184,-0.3808141052722931,-0.05621165409684181,0.03682124987244606,-0.13637393712997437,-0.062254954129457474,-0.148048996925354,0.03939012438058853,-0.038010187447071075,-0.066998690366745,0.16561385989189148,0.16000056266784668,-0.20958484709262848,0.10261186212301254,0.0076165650971233845,0.04081521928310394,0.045483529567718506,-0.18516306579113007,0.07500673085451126,0.09751944988965988,-0.08676992356777191,0.003485239576548338,-0.0418565571308136,0.03168139606714249,-0.14710389077663422,-0.012196911498904228,0.059715986251831055,0.022252347320318222,-0.05538267269730568,0.11140552908182144,-0.02696702629327774,0.09471254795789719,-0.1689712405204773,0.13074029982089996,-0.08985809981822968,0.022420959547162056,-0.0585624985396862,-0.11842397600412369,-0.03127732872962952,0.2348410040140152,0.008368966169655323,-0.16888217628002167,0.07248350232839584,-0.004770028870552778,-0.21596352756023407,0.16587938368320465,-0.1643405258655548,-0.24037423729896545,-0.043297525495290756,-0.05558973550796509,0.0024820766411721706,-0.035540658980607986,0.2796219289302826,0.06785139441490173,0.10829217731952667,-0.06765935570001602,-0.1867528110742569,0.18879152834415436,0.06348247081041336,0.20147474110126495,-0.013880261220037937,-0.0840797871351242,0.06262484192848206,0.08721040189266205,0.07977059483528137,-0.17575623095035553,0.044051818549633026,-0.12658372521400452,-0.11036723107099533,0.1188037246465683,-0.12857049703598022,0.09442104399204254,-0.018267275765538216,0.015390447340905666,-0.13978931307792664,0.03399066999554634,-0.05632956698536873,0.12416182458400726,0.056853845715522766,0.11377251148223877,-0.04593950882554054,0.17113225162029266,-0.15791335701942444,-0.07226048409938812,-0.02658703364431858,-0.06555065512657166,0.015710409730672836,-0.007468671537935734,-0.049901098012924194,-0.16663751006126404,0.17731411755084991,-0.004163374193012714,0.04925510659813881,0.17304758727550507,0.09130260348320007,-0.05469696968793869,0.040693704038858414,-0.015046674758195877,-0.033760156482458115,0.15337081253528595,0.009374399669468403,0.21021194756031036,-0.02159089222550392,-0.13382846117019653,-0.07386218756437302,0.15195727348327637,0.20330588519573212,-0.15352921187877655,0.09109406918287277,-0.0009648517589084804,0.10353497415781021,0.12825019657611847,-0.1515926569700241,0.06412805616855621,0.06904971599578857,-0.1072007417678833,0.07166890799999237,-0.026543954387307167,0.14155638217926025,-0.06473583728075027,-0.08246388286352158,-0.021319575607776642,0.08902951329946518,0.004230530932545662,0.08533491939306259,0.06616921722888947,-0.025330662727355957,0.01480963733047247,0.013708965852856636,0.09835650771856308,-0.0453675240278244,-0.112761951982975,-0.09546491503715515,0.07352722436189651,-0.016909446567296982,0.021589020267128944,-0.1232542172074318,0.16504071652889252,0.16439400613307953,-0.18298836052417755,-0.10025186836719513,-0.09978245943784714,-0.07363196462392807,-0.01777450554072857,-0.08454161882400513,-0.12156259268522263,0.05122620239853859,-0.06813699752092361,-0.09196628630161285,0.04693037271499634,-0.0774344876408577,0.0070496005937457085,0.2502344846725464,-0.021532582119107246,-0.1766478717327118,0.01008747797459364,0.17460964620113373,0.04619412124156952,-0.20178741216659546,0.10904692858457565,0.09318161010742188,-0.037298500537872314,-0.04598992317914963,0.14554819464683533,-0.09135708212852478,0.05815025046467781,-0.15099047124385834,-0.09157738089561462,-0.05247321352362633,-0.11597447842359543,-0.07055775821208954,-0.20499034225940704,-0.048307809978723526,0.03256703540682793,0.006676742807030678,0.24929852783679962,0.03355635330080986,0.08597062528133392,-0.08995748311281204,0.012368712574243546,-0.06299484521150589,0.15873830020427704,0.06646017730236053,-0.08044734597206116,0.0291890949010849,0.026476867496967316,0.1265329122543335,0.1440909057855606,-0.184955894947052,-0.16455604135990143,0.2191515415906906,-0.07635285705327988,-0.10734562575817108,0.21129915118217468,-0.006002374459058046,0.08194607496261597,0.1614971160888672,-0.037235427647829056,-0.1018381416797638,-0.0874728113412857,0.17516162991523743,0.1695450395345688,-0.10161544382572174,-0.07684813439846039,0.10819750279188156,0.2949821650981903,0.07847443222999573,-0.10265301167964935,0.11050096899271011,-0.14934141933918,0.15764431655406952,0.09460341930389404,-0.11043469607830048,0.10279637575149536,-0.19446751475334167,-0.02817562222480774,-0.045993365347385406,0.015395322814583778,-0.14792893826961517,0.035400647670030594,-0.22648844122886658,0.10168814659118652,0.10383346676826477,0.20155979692935944,-0.00222065020352602,0.17678037285804749,-0.1332765370607376,-0.02532380446791649,0.10142042487859726,0.17772668600082397,-0.18775145709514618,-0.009109888225793839,0.037045713514089584,0.09315790235996246,0.015832960605621338,0.031977973878383636,-0.06120230630040169,0.11122070252895355,0.20062793791294098,-0.003609573235735297,0.035897593945264816,0.21693141758441925,-0.07937153428792953,-0.03114481270313263,-0.008738784119486809,-0.10332708060741425,-0.0214073583483696,-0.0836024060845375,0.04023681953549385,-0.007828155532479286,0.009700840339064598,-0.18879634141921997,0.24965618550777435,-0.08147502690553665,0.21540147066116333,-0.2203117311000824,-0.032345883548259735,0.17506827414035797,-0.16845335066318512,0.11516937613487244,-0.0107112443074584,-0.23710580170154572,-0.04361720383167267,-0.04714330658316612,0.25786593556404114,0.0066045126877725124,0.20502403378486633,0.046195413917303085,-0.031337615102529526,0.008417323231697083,-0.0038214479573071003,-0.025324152782559395,0.17729683220386505,-0.17679540812969208,0.12412314116954803,-0.12621189653873444,0.23442226648330688,-0.15387476980686188,0.061336372047662735,-0.14581869542598724,0.0148925194516778,0.12246351689100266,-0.02708444744348526,-0.018782807514071465,0.09399651736021042,-0.007000631652772427,-0.038894470781087875,0.22231756150722504,-0.20440049469470978,-0.02150692790746689,0.08172930777072906,-0.049121543765068054,-0.04960465058684349,-0.14655785262584686,-0.21521377563476562,-0.025714891031384468,-0.08790667355060577,-0.02016093209385872,-0.048016972839832306,0.17463794350624084,0.046469543129205704,-0.03098108619451523,-0.21753153204917908,0.18689340353012085,-0.14988991618156433,-0.050801608711481094,0.10928667336702347,-0.10456626862287521,-0.026966897770762444,-0.03508836403489113,0.058162033557891846,-0.029186299070715904,-0.11477875709533691,-0.0038622203283011913,-0.051668789237737656,-0.06920146197080612,0.13268382847309113,0.06559249758720398,-0.15697093307971954,-0.1347479373216629,-0.16957786679267883,0.26113370060920715,-0.0036753127351403236,0.07688743621110916,-0.05645070970058441,0.0654531940817833,0.0501081719994545,0.21276527643203735,-0.124596506357193,-0.0850951299071312,0.022376595064997673,-0.1248314157128334,-0.05091893672943115,0.2225981503725052,-0.15605677664279938,0.005311096087098122,0.014001988805830479,-0.06328567862510681,0.040286239236593246,0.05997087061405182,0.043523527681827545,-0.06769855320453644,-0.002546886680647731,0.1135016530752182,-0.07982009649276733,0.021103104576468468,-0.11947890371084213,-0.05851585045456886,-0.04938777908682823,0.13004587590694427,-0.09823629260063171,0.12206684052944183,0.1435311734676361,0.038149114698171616,-0.021621519699692726,-0.0013907384127378464,-0.10063929855823517,-0.0652758926153183,-0.004060672130435705,0.1619313806295395,0.07455016672611237,0.02583417482674122,0.00694954302161932,-0.18598158657550812,0.09211398661136627,-0.0037372789811342955,-0.15443871915340424,0.020992526784539223,0.02683665230870247,-0.08261029422283173,0.12039735168218613,0.10916267335414886,-0.15269102156162262,-0.022890007123351097,0.06823083013296127,-0.06243392825126648,-0.019821297377347946,0.006980427075177431,-0.07355062663555145,0.09591630101203918,0.017617523670196533,0.1428612619638443,-0.07466352730989456,0.08701184391975403,-0.03180672600865364,0.15988647937774658,-0.19222968816757202,-0.06806139647960663,0.26079249382019043,-0.016637122258543968,0.04570705443620682,-0.15342094004154205,-0.2060065120458603,-0.2535077631473541,-0.14841939508914948,0.059744372963905334,-0.22945928573608398,0.19838203489780426,-0.19907718896865845,-0.012469136156141758,0.04708567634224892,-0.08316599577665329,0.05327046290040016,-0.06544534116983414,-0.01218440942466259,-0.025303587317466736,-0.05088518187403679,0.474499374628067,-0.43978196382522583,0.7698028683662415,-0.4919362962245941,0.0730164498090744,0.9707552194595337,0.872110903263092,-0.49930524826049805,0.09083615243434906,0.03822242468595505,-0.47283145785331726,-0.3117719292640686,0.2545451819896698,-0.5947742462158203,0.08260437846183777,0.3784582018852234,-0.09830673038959503,0.3677981495857239,-0.10871648043394089,0.08644212037324905,0.01294848695397377,0.08043283224105835,0.11615566909313202,-0.07883958518505096,0.03827415779232979,0.04221125319600105,0.24385683238506317,0.026657970622181892,0.1570843905210495,-0.01092281099408865,0.2736435830593109,0.027316609397530556,0.06842033565044403,-0.12953241169452667,-0.17176321148872375,0.04291322082281113,-0.010007685050368309,0.03282882273197174,-0.09482143074274063,-0.044788166880607605,0.09337275475263596,0.1450393944978714,-0.12304464727640152,-0.07492652535438538,0.06869885325431824,-0.2653350532054901,0.11717680096626282,0.15076705813407898,0.2300744205713272,0.04298582673072815,0.260036826133728,0.22732724249362946,0.027514325454831123,0.21759003400802612,0.10681810230016708,-0.23405858874320984,-0.05800912156701088,-0.20059801638126373,0.021877750754356384,-0.2562009394168854,0.1299525499343872,0.2544327974319458,0.04833899438381195,0.13580422103405,0.16821767389774323,0.045375581830739975,-0.07034575194120407,-0.09536141157150269,0.004086448345333338,0.052296869456768036,-0.03347969800233841,-0.11053866147994995,-0.20852412283420563,-0.059830695390701294,-0.01572192646563053,-0.06463633477687836,0.14501331746578217,0.19418449699878693,-0.2023511528968811,0.004832366947084665,-0.12873297929763794,-0.11372885853052139,-0.3296603858470917,0.07042577117681503,0.18197064101696014,0.17965126037597656,0.10687221586704254,-0.16730163991451263,0.18514059484004974,0.26539933681488037,-0.10886755585670471,-0.06166023388504982,0.012648879550397396,0.01474626362323761,0.03572817146778107,-0.0883178785443306,-0.19486212730407715,-0.015290425159037113,0.15393848717212677,0.05219343677163124,0.15618710219860077,0.2603697180747986,0.283957839012146,0.24799573421478271,0.15563802421092987,0.01583494246006012,-0.13799521327018738,-0.002263032365590334,-0.07197857648134232,-0.10422535985708237,0.16617539525032043,0.01605805568397045,0.36419713497161865,0.09743983298540115,0.26215487718582153,0.2976687252521515,-0.16016040742397308,-0.18434853851795197,-0.030441759154200554,-0.1055740937590599,-0.0326024666428566,-0.40703144669532776,-0.4270024299621582,0.16162186861038208,0.33680129051208496,-0.13035409152507782,-0.06567405164241791,0.08502918481826782,0.23916640877723694,0.09647013247013092,0.27199113368988037,-0.22514529526233673,-0.2017534226179123,0.14959587156772614,0.22410568594932556,0.17750677466392517,0.11188546568155289,-0.1977590024471283,0.18112055957317352,-0.17358539998531342,0.05322530120611191,-0.09294982999563217,-0.0864798054099083,-0.010203536599874496,-0.11597415059804916,0.02327469363808632,-0.33680081367492676,-0.28463175892829895,0.09135539829730988,-0.1799541860818863,-0.19935674965381622,-0.14062023162841797,-0.20525772869586945,-0.21632929146289825,0.19819094240665436,-0.013122023083269596,0.032318949699401855,-0.13168838620185852,0.0796876922249794,-0.04664495214819908,-0.24731053411960602,0.030668221414089203,0.19703422486782074,-0.19115693867206573,-0.2712821960449219,-0.10567376762628555,0.1387963593006134,-0.12597960233688354,-0.02391570247709751,0.19021399319171906,0.15600544214248657,0.348812460899353,0.13390973210334778,0.18801958858966827,-0.16721677780151367,-0.012884722091257572,0.1064697802066803,0.21060867607593536,-0.25219109654426575,0.06004851311445236,-0.08702551573514938,-0.20977294445037842,0.024732770398259163,-0.12622956931591034,0.07472836971282959,-0.17865866422653198,-0.1652914434671402,-0.25298887491226196,-0.011349717155098915,0.08707505464553833,0.05792055279016495,0.1476111263036728,0.06730085611343384,-0.0372382216155529,0.12940935790538788,0.035655636340379715,0.13385796546936035,-0.03903910890221596,-0.10493955761194229,-0.04427977651357651,-0.05457321181893349,-0.25484150648117065,0.04106055200099945,-0.12364976108074188,-0.09391386806964874,0.18421432375907898,-0.20575056970119476,-0.08770450204610825,0.06599205732345581,0.037470489740371704,0.15883494913578033,0.06682559847831726,0.25269603729248047,0.034124474972486496,0.09236612915992737,0.12698175013065338,0.2715023159980774,-0.08978915214538574,-0.2771705389022827,-0.11319027096033096,0.1635274440050125,-0.24757389724254608,-0.10948087275028229,0.17765986919403076,0.037806443870067596,-0.06591249257326126,-0.13308106362819672,0.10684260725975037,-0.08022161573171616,0.28774142265319824,0.14884375035762787,-0.05764737352728844,-0.09254449605941772,-0.14509181678295135,0.04914402216672897,-0.24676497280597687,-0.2075168639421463,0.08009509742259979,-0.24083907902240753,0.04500848054885864,-0.09364482015371323,0.15320247411727905,0.017297497019171715,-0.16183549165725708,0.06592416018247604,0.11463302373886108,0.26482251286506653,0.16570186614990234,-0.2812923491001129,0.16655924916267395,-0.07766552269458771,0.15651607513427734,0.22091108560562134,0.21708011627197266,-0.16799777746200562,0.0459778793156147,0.24405379593372345,0.07365236431360245,0.18541479110717773,0.18382902443408966,0.058527108281850815,0.2037399262189865,0.06453095376491547,0.32817819714546204,-0.21713294088840485,-0.22164441645145416,-0.00717498641461134,-0.1938566416501999,0.07839883118867874,0.3250807523727417,-0.039761874824762344,0.066508948802948,0.08646058291196823,-0.1541559249162674,0.1611398458480835,-0.2933821380138397,-0.26161447167396545,-0.01910727471113205,-0.015085186809301376,-0.023607628419995308,0.014484087936580181,-0.17946653068065643,-0.008732335641980171,-0.02010807953774929,0.01893821731209755,0.07067376375198364,0.04857741296291351,-0.04217079281806946,-0.14126552641391754,0.06314598023891449,-0.035548824816942215,0.3927011489868164,-0.2448623925447464,0.22886961698532104,-0.2471427172422409,0.01997273787856102,-0.02171139605343342,-0.1915612816810608,0.09534619748592377,-0.017455069348216057,-0.05346399545669556,0.06533146649599075,0.15358813107013702,0.08445438742637634,-0.34360161423683167,0.044133491814136505,0.17354892194271088,-0.748446524143219,0.07286830991506577,0.010935924015939236,-0.30112308263778687,-0.14969561994075775,-0.04498415067791939,0.27923309803009033,-0.06735564023256302,-0.2685866951942444,-0.11762486398220062,-0.08155379444360733,-0.06821327656507492,0.17293678224086761,0.039834100753068924,-0.19423288106918335,-0.04508240520954132,-0.09369279444217682,-0.4699351191520691,-0.13208216428756714,-0.22347234189510345,-0.15288765728473663,0.1653977781534195,-0.116334930062294,-0.44883963465690613,0.4850097596645355,-0.13072797656059265,0.23106350004673004,-0.18740379810333252,-0.181712344288826,0.27850449085235596,0.04946300387382507,0.09318525344133377,-0.08780772238969803,0.01176836434751749,0.04905349016189575,0.11079621315002441,-0.015016461722552776,0.004900774918496609,-0.32598528265953064,-0.17322123050689697,-0.27763035893440247,0.0019524258095771074,-0.20709413290023804,-0.0028925975784659386,0.022563887760043144,0.0383053719997406,-0.10409853607416153,0.025012578815221786,-0.09295070916414261,-0.23869816958904266,0.2847062647342682,0.1061309427022934,-0.027485070750117302,-0.1897394359111786,-0.09463245421648026,0.056941330432891846,-0.030145086348056793,-0.08992511034011841,-0.3829044699668884,-0.08427049219608307,-0.1393679976463318,0.0823470801115036,-0.1820649802684784,-0.18326762318611145,0.02921764925122261,-0.21292655169963837,-0.18695788085460663,-0.008701120503246784,0.05479201301932335,0.043422337621450424,0.10960709303617477,-0.11425432562828064,-0.2148420214653015,-0.15366463363170624,0.0095717404037714,0.1606816053390503,-0.23192079365253448,-0.009067541919648647,0.07016187161207199,0.03080148436129093,-0.008249526843428612,0.18222136795520782,-0.20399311184883118,0.12212395668029785,-0.04891219735145569,0.09798628091812134,0.22750695049762726,-0.14900203049182892,-0.02961512841284275,0.1767439842224121,-0.16633138060569763,0.09465473890304565,-0.1275331974029541,0.32681989669799805,0.09118422120809555,-0.08839210867881775,-0.16548746824264526,-0.23281539976596832,-0.1524626761674881,0.14232970774173737,0.09388208389282227,0.07047691941261292,-0.3416145145893097,-0.030232418328523636,-0.23047013580799103,0.20635582506656647,-0.26264238357543945,-0.031478412449359894,-0.37118905782699585,0.10440024733543396,0.3825092613697052,-0.2634715139865875,0.24146981537342072,0.16543398797512054,0.15132150053977966,-0.0016820024466142058,0.12109529227018356,-0.10563116520643234,0.12849879264831543,-0.07893767207860947,0.23380030691623688,0.10570742189884186,-0.16836106777191162,0.2329426258802414,0.18430669605731964,-0.0386262945830822,-0.09270432591438293,-0.012425187975168228,-0.08791203796863556,0.03413686528801918,-0.017432376742362976,0.12243065237998962,-0.10679346323013306,-0.30192434787750244,0.16924746334552765,0.10134057700634003,-0.1668081283569336,0.022450469434261322,-0.1339980661869049,-0.2257264107465744,-0.1298033744096756,0.02448660507798195,0.016474708914756775,0.042974162846803665,0.008152301423251629,-0.02579834684729576,-0.2280767560005188,-0.032081134617328644,0.10069496184587479,0.11460066586732864,-0.12365742772817612,0.04768913984298706,0.09258981049060822,-0.1767008751630783,0.09687874466180801,0.1085401400923729,-0.12391865998506546,-0.0764690563082695,0.23813579976558685,0.18904821574687958,0.22704258561134338,0.1569841504096985,-0.00013093148299958557,-0.2096870094537735,0.20648905634880066,-0.11643567681312561,-0.21797341108322144,-0.04869520291686058,-0.029164614155888557,0.20287638902664185,0.07103607058525085,0.09573405981063843,0.13636848330497742,-0.39498263597488403,-0.14040982723236084,0.01309183705598116,0.14061492681503296,0.2599654197692871,0.044441137462854385,-0.05323047563433647,-0.00844678282737732,-0.04786346107721329,-0.04750487208366394,0.011759730987250805,0.032789357006549835,0.01749524101614952,-0.11375266313552856,-0.13846473395824432,-0.2311752885580063,0.12369397282600403,-0.020258983597159386,0.3629792034626007,-0.017135271802544594,-0.03628489002585411,-0.08826449513435364,0.17931607365608215,0.18551130592823029,0.17254725098609924,-0.016158290207386017,-0.10740386694669724,-0.07361960411071777,-0.030614443123340607,-0.02306804247200489,0.23601624369621277,-0.09592239558696747,-0.05454374849796295,-0.07123951613903046,-0.09860263019800186,0.071563221514225,-0.08260427415370941,-0.12863527238368988,-0.050959959626197815,0.08783375471830368,-0.12238634377717972,0.027164289727807045,-0.2165665626525879,-0.1876010000705719,-0.12001261860132217,-0.15215903520584106,-0.04153641313314438,-0.07250753790140152,0.31730151176452637,0.010700884275138378,-0.09649735689163208,-0.32409608364105225,0.24930493533611298,0.17150697112083435,-0.524615466594696,0.05759533494710922,-0.00503451656550169,-0.033925268799066544,0.16669823229312897,-0.046393413096666336,-0.03317739814519882,0.18544906377792358,-0.03158240765333176,0.04093342274427414,-0.2249416708946228,0.07019121944904327,-0.3264669179916382,-0.04884278029203415,-0.039975766092538834,-0.012710384093225002,-0.22424393892288208,0.23180784285068512,0.24632856249809265,0.27161598205566406,-0.1491401344537735,0.33570873737335205,-0.07974307984113693,0.16203990578651428,0.1129259392619133,0.21304017305374146,-0.052988771349191666,-0.21704356372356415,0.04173273593187332,0.02746482565999031,0.16832423210144043,0.035000454634428024,-0.3544362783432007,-0.06865790486335754,0.012468955479562283,-0.06792949885129929,0.2941894233226776,-0.08413175493478775,-0.18563982844352722,-0.25797605514526367,-0.19861209392547607,0.05686527490615845,-0.2161118984222412,-0.1066262349486351,-0.06811731308698654,0.4523637890815735,0.28150349855422974,0.19073452055454254,-0.3292776346206665,-0.4983768165111542,-0.3853301703929901,0.125029519200325,0.01885930262506008,0.12633000314235687,-0.14807775616645813,0.10498301684856415,0.17110960185527802,0.46883922815322876,0.28947627544403076,0.01607542671263218,0.35970818996429443,-0.12942467629909515,0.19156873226165771,0.32197633385658264,0.30988097190856934,-0.01666259579360485,-0.5157544612884521,-0.3546445667743683,-0.0981815904378891,0.42282670736312866,0.34199362993240356,0.1272384226322174,-0.1793893575668335,-0.25916072726249695,0.16529306769371033,-0.12025699019432068,-0.11443264037370682,0.02149430476129055,-0.21324469149112701,-0.14730167388916016,-0.23889270424842834,-0.5727397799491882,-0.3334050476551056,-0.3503149449825287,-0.3155589997768402,-0.20390328764915466,-0.3988915681838989,0.8834810256958008,0.34668704867362976,0.18470753729343414,-0.1523067057132721,0.02468869276344776,0.12238067388534546,0.10534631460905075,0.018357230350375175,-0.12462358176708221,-0.05121399089694023,0.11628871411085129,0.10623057931661606,-0.1633247584104538,-0.0870029553771019,-0.04185956344008446,-0.08295299857854843,-0.09064676612615585,-0.06966444849967957,0.2552518844604492,-0.0907072052359581,-0.16271165013313293,-0.12720218300819397,-0.08515127748250961,-0.14041705429553986,0.1717773675918579,-0.06399926543235779,-0.13236425817012787,-0.056682683527469635,-0.08169502019882202,0.28185394406318665,0.019756590947508812,-0.06402068585157394,-0.19820193946361542,0.02046254277229309,-0.06279408186674118,0.15637260675430298,-0.03525139391422272,-0.03594494238495827,-0.018684135749936104,-0.2855759561061859,-0.05238291248679161,0.0736888125538826,-0.1031174287199974,0.023883922025561333,-0.034440308809280396,0.09500820189714432,-0.04766831919550896,0.07032150775194168,0.04228070750832558,-0.010410151444375515,-0.08548035472631454,0.16135519742965698,0.2836322784423828,0.10958173871040344,-0.20698264241218567,0.0062264809384942055,-0.1219211295247078,0.2391163557767868,0.015486391261219978,0.01482435967773199,0.21795068681240082,-0.053001489490270615,-0.2589210867881775,0.24375762045383453,0.09614050388336182,-0.11902181804180145,-0.31984734535217285,0.09221020340919495,0.20101012289524078,0.12787090241909027,0.026215847581624985,0.04031439125537872,-0.35603684186935425,-0.060962606221437454,0.24379737675189972,0.1751333475112915,-0.128573939204216,-0.03651841729879379,-0.15447227656841278,0.06458678096532822,-0.004419315606355667,0.26453840732574463,0.009919118136167526,-0.2605651021003723,0.23208123445510864,0.08585944026708603,0.01311744935810566,0.08177559822797775,-0.1176147311925888,0.06656946241855621,0.10003041476011276,-0.08316528797149658,-0.24842844903469086,-0.15708979964256287,-0.2820202708244324,0.20891787111759186,-0.2547248899936676,-0.0914960578083992,0.030638236552476883,0.26312243938446045,0.2592735290527344,-0.3260272145271301,-0.019452309235930443,-0.10567259043455124,0.20959603786468506,-0.1529032438993454,-0.04915599897503853,0.029616694897413254,-0.17105044424533844,0.0661160796880722,-0.03729281201958656,0.040852926671504974,-0.005885289516299963,-0.15953241288661957,0.14164380729198456,0.011108795180916786,-0.07684231549501419,0.06374126672744751,-0.19739094376564026,0.2599281668663025,0.09315182268619537,0.018427366390824318,0.05525383725762367,-0.14464563131332397,0.1551792174577713,0.09988352656364441,-0.10768552869558334,-0.032491039484739304,-0.12844577431678772,-0.24923557043075562,-0.07569558918476105,0.22237631678581238,-0.11472198367118835,-0.2624722421169281,0.02762695774435997,-0.022424397990107536,0.1508377194404602,-0.07638130336999893,-0.14622341096401215,0.0631222352385521,-0.009663563221693039,-0.006624235771596432,0.0384439118206501,-0.08991984277963638,0.0701785758137703,-0.12484926730394363,-0.0812515988945961,-0.08571332693099976,0.09781979024410248,-0.32932814955711365,-0.012397194281220436,0.022657418623566628,0.02551734633743763,0.14100925624370575,0.007430394645780325,0.080631785094738,-0.08148346841335297,-0.016703471541404724,0.09270641207695007,0.02610362321138382,0.02983682230114937,-0.12741582095623016,0.16088882088661194,0.14310012757778168,-0.09027563035488129,-0.009252963587641716,0.028602782636880875,0.26714789867401123,0.07286906987428665,0.10776824504137039,-0.009878294542431831,-0.10308533161878586,-0.0217739287763834,0.225623220205307,-0.05266870558261871,-0.0613902248442173,-0.11816391348838806,0.0522189661860466,-0.10707958042621613,0.07735700905323029,0.19096232950687408,-0.05545425042510033,-0.05427616834640503,0.01630089432001114,0.12236345559358597,0.20790927112102509,0.11091725528240204,-0.043874211609363556,0.06304288655519485,0.03483949601650238,0.2146107256412506,-0.06811322271823883,0.11592525243759155,-0.1355883926153183,0.011206957511603832,0.20779556035995483,-0.013139617629349232,0.0031383566092699766,-0.07701288908720016,0.04759075865149498,0.06066432595252991,0.2551380693912506,0.15494024753570557,0.1072750836610794,0.20228087902069092,0.004339274019002914,0.06943557411432266,0.2164892703294754,0.014392701908946037,-0.06919930130243301,-0.043393559753894806,0.27931150794029236,-0.02187218703329563,-0.11391191184520721,-0.04739145562052727,0.1867806762456894,0.07525836676359177,0.2573121190071106,0.020012661814689636,0.15698200464248657,-0.2538231909275055,-0.037816401571035385,-0.1940300464630127,0.14415009319782257,-0.09335339814424515,-0.017473900690674782,-0.08114781975746155,0.05405058711767197,0.13768696784973145,-0.021502438932657242,0.141418918967247,0.003806058317422867,0.09691472351551056,0.20501743257045746,0.3353448212146759,0.051727380603551865,-0.047854579985141754,0.23049922287464142,0.16218893229961395,-0.2380976378917694,-0.14444991946220398,0.0767894759774208,0.06831169128417969,0.09847380965948105,-0.16041165590286255,-0.1343974620103836,0.10950233787298203,0.013994770124554634,-0.24928025901317596,-0.0114816939458251,0.12100013345479965,-0.10810472071170807,-0.20327532291412354,0.016618233174085617,-0.1851259469985962,-0.03069511614739895,-0.1165044754743576,-0.2409946322441101,0.02315603382885456,-0.3040606379508972,0.16493408381938934,0.07247735559940338,-0.005347403697669506,-0.19902414083480835,-0.05338267236948013,-0.22376058995723724,0.09174175560474396,-0.19369304180145264,0.2095826119184494,0.10095788538455963,0.30247366428375244,-0.08879365772008896,-0.12979932129383087,-0.04190070182085037,0.269096314907074,-0.06203768029808998,-0.38253548741340637,-0.024003373458981514,-0.13178205490112305,0.27547553181648254,-0.36410701274871826,-0.19788001477718353,-0.15110720694065094,-0.006572458427399397,-0.11604853719472885,0.30195048451423645,-0.2651256024837494,0.13650086522102356,-0.07860209047794342,-0.030147280544042587,-0.06167924404144287,0.02752668224275112,0.047419916838407516,0.007665737997740507,0.015737568959593773,0.03351014107465744,0.11581005156040192,0.33413517475128174,-0.14002162218093872,-0.030480634421110153,0.007541169412434101,-0.04660161957144737,0.028158672153949738,0.04002607986330986,0.05448891595005989,0.09539516270160675,-0.055841296911239624,0.1338072568178177,-0.12062004953622818,0.020370692014694214,-0.015818141400814056,0.07890170812606812,0.13341568410396576,0.11478178948163986,-0.028656449168920517,0.0075971223413944244,-0.11841021478176117,0.1396895796060562,-0.029152002185583115,-0.05862883850932121,0.06595341861248016,-0.0098043754696846,-0.09451586753129959,0.01991354487836361,0.14512145519256592,-0.032430604100227356,-0.0717647522687912,-0.03162665665149689,0.07000484317541122,0.13048328459262848,0.25190168619155884,0.14231719076633453,-0.11927679926156998,0.062096007168293,0.09523850679397583,-0.25912585854530334,0.08510953187942505,-0.04947507381439209,0.08988658338785172,-0.07025977224111557,-0.07457928359508514,-0.2091146856546402,-0.009823450818657875,0.042928408831357956,-0.11850927770137787,0.23197788000106812,0.15521541237831116,0.09019912779331207,-0.05085800588130951,-0.07156573235988617,0.029804639518260956,0.006530361250042915,0.09151673316955566,0.0069849551655352116,0.194681316614151,-0.019565455615520477,-0.17949385941028595,0.24428127706050873,0.15514019131660461,0.1960311084985733,0.10804439336061478,0.08239464461803436,-0.16750568151474,-0.021641787141561508,-0.12023727595806122,0.018899329006671906,-0.03885580971837044,-0.08654476702213287,0.02042829990386963,-0.0404004342854023,0.06139381602406502,0.2557148337364197,0.06958335638046265,0.040563274174928665,0.06546251475811005,0.28926578164100647,0.09043201059103012,0.3297550082206726,-0.006942521780729294,-0.02035140059888363,0.023006606847047806,-0.1164044439792633,-0.030190952122211456,-0.17293760180473328,0.11614874750375748,-0.06254910677671432,-0.012758572585880756,0.027600234374403954,0.00629403768107295,-0.16477394104003906,-0.08002082258462906,-0.00003061709139728919,0.18138371407985687,-0.15029051899909973,0.16058342158794403,0.1437513828277588,-0.11181904375553131,0.12991689145565033,-0.16268356144428253,-0.20903067290782928,0.1235354095697403,0.05877569317817688,0.0006579967448487878,-0.19271139800548553,0.130672886967659,-0.39637207984924316,0.004641203675419092,-0.06959738582372665,0.09698658436536789,-0.2232285737991333,-0.01170592661947012,-0.12297159433364868,0.02631392888724804,-0.14247334003448486,-0.13744202256202698,-0.1806158572435379,0.12310467660427094,-0.13996633887290955,0.16787059605121613,-0.22757600247859955,-0.19170595705509186,0.12659429013729095,0.05394206568598747,-0.24356397986412048,-0.08551941812038422,-0.0015019576530903578,-0.13703246414661407,0.3488610088825226,0.003996869549155235,0.12890063226222992,-0.044132430106401443,-0.02783963270485401,0.10627640038728714,0.17589129507541656,0.20350678265094757,0.10391776263713837,0.3846995532512665,0.033561401069164276,0.08172663301229477,-0.028124947100877762,0.10174867510795593,-0.16554827988147736,0.23249799013137817,-0.003841043682768941,0.010158482007682323,0.051188770681619644,0.07405406981706619,0.3068893551826477,0.08321972191333771,0.12668295204639435,-0.041691914200782776,-0.2200527936220169,0.3345545530319214,0.2178940773010254,-0.4717343747615814,0.15007412433624268,-0.641834020614624,-0.13317880034446716,-0.47252392768859863,0.8983723521232605,-0.7485965490341187,-0.5356471538543701,-0.807572603225708,0.24476321041584015,-0.7125734686851501,0.20532813668251038,-0.5210368037223816,-0.05948209390044212,-0.11996730417013168,-0.04436669126152992,0.2734973430633545,0.14629463851451874,0.05029354989528656,-0.0973103940486908,-0.1417645961046219,-0.253844678401947,-0.07848374545574188,0.1362186223268509,-0.2078971266746521,0.3371281027793884,0.18982861936092377,-0.08697445690631866,0.2036292999982834,0.11441460996866226,-0.24287660419940948,-0.1672532707452774,-0.20634935796260834,-0.11357641965150833,0.2081192284822464,0.09326127916574478,-0.19360066950321198,0.3101484477519989,-0.20129603147506714,-0.04233145713806152,-0.1812763214111328,0.2746618688106537,-0.1590755134820938,0.03591727465391159,-0.04176266863942146,0.023117270320653915,-0.2144356071949005,-0.018167462199926376,0.188271626830101,0.19307133555412292,0.12091483920812607,0.10709661990404129,0.05950360372662544,-0.18690365552902222,0.06101302430033684,-0.31874483823776245,-0.3566763997077942,-0.029747512191534042,0.044114988297224045,-0.007956732995808125,-0.20869889855384827,0.17537306249141693,0.07589830458164215,-0.2183476686477661,-0.007354639004915953,-0.09261126816272736,0.00016831306857056916,-0.045130252838134766,-0.15715499222278595,-0.12674076855182648,0.03826898708939552,0.019373267889022827,0.34930220246315,0.13572047650814056,-0.034470804035663605,-0.0033026740420609713,-0.03831692785024643,0.41625338792800903,0.029896598309278488,-0.280085027217865,-0.24096204340457916,0.3157850503921509,-0.023751359432935715,-0.08366452157497406,0.324101060628891,0.08055064082145691,0.020774178206920624,-0.13368046283721924,0.07799544185400009,-0.19135136902332306,-0.09433287382125854,0.26339322328567505,-0.3742983639240265,-0.22955162823200226,0.05586811155080795,-0.15747760236263275,-0.30778566002845764,0.0010752599919214845,-0.2977658212184906,0.036096058785915375,0.14007264375686646,0.08226240426301956,0.3125948905944824,0.0380680114030838,-0.1487179547548294,-0.307700514793396,-0.0131092993542552,0.2658182978630066,-0.08027798682451248,0.16866739094257355,-0.22804662585258484,0.07188229262828827,-0.547005832195282,0.1359693855047226,0.15599404275417328,-0.1486259251832962,-0.1744619905948639,0.19224542379379272,0.03868057578802109,-0.2667255401611328,-0.2010136991739273,0.07811283320188522,-0.20530934631824493,0.007509978488087654,0.06687667965888977,0.068453848361969,-0.04231715574860573,-0.08391819894313812,-0.11200151592493057,0.0030825540889054537,-0.011799211613833904,-0.12927766144275665,0.15101298689842224,0.06655187159776688,0.14394964277744293,-0.24275721609592438,-0.33232226967811584,0.05590274930000305,-0.15840668976306915,0.2026313841342926,0.07252240180969238,0.017065050080418587,0.10469649732112885,-0.10556994378566742,-0.13201548159122467,-0.1616009920835495,-0.07118131220340729,0.09057063609361649,-0.12450099736452103,-0.08097721636295319,0.1755472719669342,0.25301849842071533,0.16841697692871094,-0.056231539696455,0.15225964784622192,-0.15120820701122284,0.22444865107536316,-0.10612267255783081,-0.03191617131233215,-0.047613151371479034,0.23907433450222015,-0.13778160512447357,-0.04434366896748543,0.07312808185815811,0.12342474609613419,-0.1752149909734726,0.057365234941244125,0.24928417801856995,0.31368595361709595,0.14928005635738373,0.008566931821405888,0.03709699213504791,-0.06238756701350212,-0.05330706760287285,-0.18885168433189392,-0.2658791244029999,-0.10992200672626495,0.0004833220154978335,0.10224854946136475,0.02889220044016838,-0.08017618954181671,0.04753950238227844,0.05381442606449127,-0.318522185087204,-0.1049421951174736,0.29446297883987427,-0.17709727585315704,-0.05419735610485077,0.29446589946746826,0.19854845106601715,0.32330772280693054,-0.35321325063705444,-0.1766366809606552,-0.1757056713104248,-0.062236279249191284,0.18516696989536285,0.13274331390857697,-0.43998047709465027,0.1586323380470276,0.15590623021125793,-0.15030358731746674,0.033932194113731384,-0.02704550325870514,0.060996200889348984,-0.047782331705093384,-0.056183259934186935,-0.17660380899906158,-0.1763516217470169,-0.004105622414499521,0.04496130719780922,-0.1321035921573639,-0.044635023921728134,0.0998593345284462,-0.13792650401592255,-0.10307706147432327,-0.3111351430416107,-0.2318321019411087,0.08335162699222565,-0.19301070272922516,0.14355769753456116,0.04172036424279213,0.15602512657642365,-0.1273677498102188,-0.11589328944683075,0.426639586687088,-0.04703734815120697,0.0622343085706234,-0.029199453070759773,0.05070367082953453,0.36468958854675293,0.25465235114097595,0.30254703760147095,0.11944634467363358,0.14072956144809723,0.3085663616657257,-0.005153954029083252,-0.372622013092041,-0.18222062289714813,0.51263827085495,0.2074834555387497,-0.013847814872860909,-0.11517874151468277,-0.2549578845500946,0.20063547790050507,-0.025388702750205994,-0.12799988687038422,-0.06633730232715607,-0.15212440490722656,0.08704476058483124,-0.1985473334789276,0.18398027122020721,0.20538121461868286,0.14715228974819183,0.22025518119335175,0.04263344407081604,-0.10880916565656662,0.06498682498931885,-0.21343140304088593,0.09507963806390762,-0.3487055003643036,0.09411785006523132,-0.1908758282661438,-0.07409682124853134,0.06992615759372711,0.03872854635119438,0.03784431889653206,0.2078053504228592,-0.3046712577342987,-0.009132016450166702,-0.09005653858184814,-0.053652096539735794,-0.014061284251511097,-0.08638180792331696,-0.2636084258556366,0.23906883597373962,0.011759241111576557,0.0962563082575798,-0.025382565334439278,0.08381650596857071,-0.05638647451996803,-0.15600627660751343,0.07376827299594879,-0.34574246406555176,-0.037342045456171036,-0.12076199054718018,-0.20945584774017334,0.07152479887008667,0.018447892740368843,-0.04294275492429733,-0.8424554467201233,-0.10464074462652206,-0.09711018204689026,-0.1810968965291977,0.07727127522230148,-0.16253922879695892,-0.14014530181884766,0.09945093840360641,-0.03472419083118439,0.020676905289292336,0.23138414323329926,0.2176470309495926,0.12123411148786545,-0.23212800920009613,-0.12346355617046356,-0.4282028377056122,0.18349477648735046,0.2535010874271393,0.064308300614357,-0.25576603412628174,-0.1047031506896019,0.29416587948799133,0.34962695837020874,-0.21000328660011292,0.15346546471118927,-0.12417955696582794,-0.18358975648880005,-0.07044528424739838,0.13947390019893646,0.14180363714694977,0.16281384229660034,0.3898528218269348,-0.16695494949817657,0.08184756338596344,0.28136929869651794,-0.3274194002151489,-0.02049984224140644,0.11399339884519577,0.22352595627307892,0.19335150718688965,-0.47064000368118286,0.12006605416536331,0.27607104182243347,0.676278293132782,-0.038203492760658264,-0.0025940032210201025,-0.08405476063489914,0.15337741374969482,0.15780942142009735,-0.37764692306518555,0.21542878448963165,0.0808672234416008,-0.04642469435930252,0.09052558243274689,-0.15349973738193512,-0.17376194894313812,0.2570205330848694,-0.10018696635961533,-0.11887643486261368,-0.1387503296136856,0.14785364270210266,0.009852089919149876,0.19486330449581146,-0.03289943188428879,-0.05368098244071007,-0.22736558318138123,0.05585605278611183,0.0391743928194046,0.0818205326795578,-0.2079775333404541,-0.24469247460365295,-0.04686681553721428,0.24769841134548187,0.23859445750713348,0.2994758188724518,-0.030858896672725677,-0.14747782051563263,0.005458483938127756,-0.2200312316417694,0.03188939765095711,-0.024802513420581818,0.04253041371703148,-0.21757186949253082,0.18409463763237,-0.09708691388368607,-0.25283023715019226,-0.29132747650146484,0.047701649367809296,0.2692963778972626,-0.017601797357201576,0.24753980338573456,-0.20314209163188934,0.029452534392476082,-0.22662676870822906,-0.5251314043998718,0.05815572664141655,0.22536110877990723,-0.08691516518592834,0.16545554995536804,0.28752097487449646,0.08759418874979019,-0.13674312829971313,-0.020091669633984566,0.08206541836261749,0.05230286717414856,-0.18815921247005463,0.1396404653787613,0.05580297112464905,0.12771040201187134,0.04414821043610573,-0.03294080123305321,0.13115742802619934,0.0952911451458931,-0.10025010257959366,0.0780838206410408,0.05834690481424332,0.17090170085430145,0.06285225600004196,0.18979279696941376,0.03505022078752518,0.22654151916503906,-0.037259407341480255,-0.07636857032775879,0.04415793716907501,-0.05248267203569412,-0.024859990924596786,0.10942893475294113,0.030782606452703476,0.05820470675826073,-0.23263868689537048,-0.06581435352563858,0.20007319748401642,0.006687679793685675,0.15668311715126038,0.08331700414419174,-0.12147093564271927,0.03725017234683037,0.0009826882742345333,-0.1692006140947342,0.11604692786931992,-0.0273564625531435,0.07021257281303406,0.06664963066577911,-0.07407481968402863,0.07830572873353958,-0.17657580971717834,0.0325489267706871,0.18197289109230042,-0.34629112482070923,0.13567955791950226,0.10042411834001541,-0.29050856828689575,0.04584700986742973,0.08921534568071365,-0.27868157625198364,-0.1065170094370842,-0.06794412434101105,0.24400866031646729,0.10323029011487961,0.07527871429920197,-0.2505204379558563,-0.11893603950738907,0.039658065885305405,0.20212863385677338,0.051542047411203384,0.05068317428231239,-0.08283952623605728,-0.17416319251060486,-0.08925268799066544,-0.02614060789346695,0.09036153554916382,0.054882701486349106,-0.17064446210861206,0.033735837787389755,0.03171295300126076,-0.6615668535232544,0.06599847227334976,0.13760057091712952,-0.11499029397964478,0.19520701467990875,0.08961980044841766,-0.08850304782390594,-0.16107018291950226,-0.28115007281303406,0.24846316874027252,-0.02192259393632412,0.034617263823747635,0.2364339530467987,-0.057875994592905045,-0.12474814802408218,0.32281097769737244,0.040593527257442474,-0.3144741654396057,0.2698197066783905,0.12007057666778564,-0.0020209653303027153,0.06779569387435913,-0.0515267550945282,0.16000118851661682,-0.03057214431464672,-0.1950906217098236,-0.05695631727576256,0.004554873798042536,0.15731117129325867,0.12010161578655243,-0.09529775381088257,-0.22955943644046783,-0.5349898338317871,0.16370835900306702,0.02680101804435253,-0.23443719744682312,-0.04076666012406349,-0.08811412006616592,-0.03170759230852127,0.08145378530025482,0.07567273080348969,0.20881031453609467,-0.06625695526599884,-0.16697777807712555,-0.09574392437934875,0.2199251651763916,0.0279913991689682,0.12933872640132904,-0.20134209096431732,-0.10270334780216217,0.14573676884174347,0.16371501982212067,-0.2044905424118042,-0.15650124847888947,0.22342410683631897,0.14788614213466644,0.11325256526470184,-0.04326765611767769,-0.2832716703414917,-0.5115029215812683,0.21988101303577423,0.08426245301961899,-0.13148455321788788,-0.2616502642631531,0.055748388171195984,-0.11335404962301254,-0.04716179892420769,-0.05259399116039276,-0.05018017813563347,-0.05789030343294144,0.003884722478687763,-0.012700360268354416,0.32714614272117615,0.06561433523893356,-0.033839985728263855,0.19038790464401245,-0.14076963067054749,-0.11315308511257172,-0.10593950748443604,-0.13481862843036652,0.10250306874513626,0.10846694558858871,-0.1769634485244751,-0.1814393848180771,-0.1623668670654297,0.07412173599004745,-0.05535747855901718,0.017113488167524338,-0.0015914865070953965,0.0750773623585701,-0.2148982584476471,0.054108940064907074,0.06655533611774445,0.23602864146232605,-0.06742441654205322,0.2323114573955536,0.07649514079093933,0.15387625992298126,-0.048492398113012314,0.0903121680021286,-0.02860850840806961,0.19998586177825928,0.3238212466239929,0.03907124325633049,-0.113916777074337,-0.14301401376724243,0.2701053023338318,-0.04960739240050316,0.09610946476459503,-0.06489183753728867,-0.42642366886138916,-0.22915203869342804,0.07176826149225235,-0.02600843645632267,0.15548785030841827,0.30993345379829407,-0.20473966002464294,-0.09161984175443649,0.032203808426856995,0.028261888772249222,0.09363005310297012,-0.008118417114019394,-0.17032954096794128,0.15645380318164825,-0.17445051670074463,0.2276437133550644,-0.09844311326742172,0.19228872656822205,-0.04029408469796181,0.06337949633598328,0.028332645073533058,0.17094917595386505,-0.12692111730575562,-0.05416426435112953,-0.14532791078090668,0.1897212415933609,-0.18925251066684723,0.12862642109394073,-0.2357509285211563,-0.04874735325574875,-0.23468033969402313,0.023621462285518646,-0.06086459010839462,-0.2236008197069168,-0.1366908699274063,0.19491693377494812,-0.30468669533729553,0.19722847640514374,0.09063410758972168,-0.24190780520439148,0.11091969162225723,-0.2150978296995163,0.2435067743062973,-0.1525273621082306,0.09867880493402481,-0.11327850818634033,-0.11917604506015778,-0.1589740663766861,0.17105621099472046,-0.1252928525209427,-0.2198292464017868,0.3691355884075165,0.012772055342793465,-0.14729605615139008,0.4249434769153595,0.020700601860880852,-0.24311377108097076,0.27172207832336426,0.08359577506780624,-0.26783645153045654,0.28079646825790405,0.008465870283544064,0.14490479230880737,-0.15083767473697662,0.09000644832849503,-0.15873026847839355,0.36515751481056213,0.04027658328413963,0.11347615718841553,-0.07731754332780838,-0.04010790213942528,-0.05557527765631676,0.253740519285202,-0.04793183133006096,-0.010956084355711937,-0.1151246502995491,0.0781828835606575,-0.10785342007875443,0.10391407459974289,-0.04055704548954964,0.23798531293869019,0.4281986355781555,-0.10173845291137695,-0.09895668923854828,0.20015902817249298,0.069737508893013,-0.2663325369358063,0.27816373109817505,0.03587668761610985,0.3613244295120239,-0.2909446358680725,-0.011229255236685276,0.07768961042165756,0.4287961721420288,0.15786589682102203,-0.03581354767084122,-0.34692007303237915,-0.014747101813554764,-0.18828992545604706,-0.14890983700752258,-0.07167202979326248,-0.16422942280769348,0.14381615817546844,-0.08585525304079056,-0.07290055602788925,0.41730597615242004,0.23908951878547668,-0.2100704163312912,0.20347262918949127,0.1336015909910202,0.06530855596065521,-0.29118335247039795,-0.1413285881280899,0.08152208477258682,-0.10682310909032822,0.021886060014367104,0.2346564084291458,-0.3279624879360199,-0.1403493732213974,-0.04447087273001671,0.16555151343345642,0.05234361067414284,0.126510888338089,-0.016317065805196762,0.07258907705545425,-0.10555920004844666,0.12605389952659607,-0.09823360294103622,0.09696902334690094,0.535993218421936,-0.28733786940574646,-0.1401851326227188,0.016675181686878204,-0.05012837052345276,-0.0925673320889473,0.17276783287525177,0.21543607115745544,0.41329485177993774,0.15225614607334137,-0.12979161739349365,0.5796594023704529,0.09114175289869308,0.2459646612405777,0.06774555146694183,-0.28485774993896484,-0.3100198805332184,0.12387213855981827,-0.06054215133190155,0.17424774169921875,0.13165263831615448,-0.09012959897518158,0.061948686838150024,0.025027716532349586,-0.027250513434410095,-0.07424353063106537,-0.06745041906833649,0.04367588832974434,0.158183753490448,-0.03403785824775696,0.1411634385585785,-0.0649203509092331,0.06554967910051346,-0.19004377722740173,-0.08085521310567856,0.0016648295568302274,-0.1345771998167038,-0.04187585785984993,-0.21395759284496307,-0.20341432094573975,-0.04389826953411102,-0.021171221509575844,-0.12003837525844574,-0.1311321258544922,0.00933112297207117,-0.15917623043060303,-0.012676101177930832,-0.26475077867507935,0.32130733132362366,-0.044014230370521545,0.27884605526924133,-0.07943346351385117,0.09644121676683426,-0.014695998281240463,-0.2363877147436142,0.046115241944789886,-0.10547240078449249,0.33876875042915344,-0.24699662625789642,0.12177632004022598,0.15236985683441162,0.15577363967895508,0.03862307593226433,0.03179541975259781,0.022413328289985657,0.2144252359867096,0.19090530276298523,-0.1020035371184349,-0.009662561118602753,-0.08369748294353485,-0.02258986607193947,0.10059741884469986,-0.1140635684132576,0.03943517804145813,0.24765875935554504,-0.20827922224998474,0.042177941650152206,-0.11799416691064835,0.15384787321090698,-0.002596647245809436,0.19764184951782227,0.2836652398109436,-0.20391803979873657,-0.06436033546924591,0.3187938928604126,0.10528578609228134,0.0004204644064884633,-0.10463838279247284,0.0035924077965319157,-0.28862375020980835,-0.09225133061408997,0.08248685300350189,0.15413427352905273,-0.1519630253314972,-0.028106559067964554,-0.34642255306243896,-0.5526701211929321,0.3368372321128845,0.12277475744485855,-0.061064645648002625,0.023595668375492096,0.2683558166027069,-0.27252793312072754,-0.12115944921970367,-0.3541082441806793,0.05481522157788277,-0.08683250099420547,0.19986967742443085,0.2733165919780731,0.0919128954410553,-0.02992723509669304,0.1742563396692276,0.18166683614253998,-0.19462896883487701,-0.08958292752504349,-0.026805710047483444,0.11072579771280289,-0.07127267867326736,-0.06508679687976837,0.06319451332092285,-0.026365937665104866,0.013442873023450375,0.07947272807359695,-0.1198124960064888,0.0037257540971040726,-0.32576432824134827,-0.03388850763440132,0.023194875568151474,0.16245919466018677,0.052209559828042984,-0.022091547027230263,-0.2561842203140259,-0.028974510729312897,-0.057828519493341446,0.008047626353800297,-0.029757004231214523,-0.0749199241399765,-0.23640552163124084,0.02527732029557228,0.08913592249155045,0.13239464163780212,-0.17748723924160004,-0.13827528059482574,-0.0682976022362709,-0.10301679372787476,0.18153390288352966,0.2647008001804352,0.13868416845798492,-0.06739936023950577,0.2996569573879242,-0.29616644978523254,0.028907665982842445,-0.10625584423542023,-0.051813457161188126,0.21294409036636353,-0.28977590799331665,0.04464755207300186,-0.14855611324310303,0.14074662327766418,0.16594485938549042,0.4033335745334625,0.2224246859550476,-0.10242994874715805,-0.22677381336688995,-0.06393962353467941,-0.14076370000839233,0.0902138501405716,0.08890694379806519,0.14389537274837494,0.12228470295667648,0.12047161906957626,0.2562175393104553,0.09844361245632172,-0.002168768085539341,0.0021681254729628563,0.029173441231250763,-0.3012319505214691,-0.06619540601968765,-0.09938499331474304,-0.1075202152132988,-0.23877717554569244,-0.14407514035701752,-0.06120043247938156,-0.07784253358840942,0.030100718140602112,-0.07286502420902252,0.12093310803174973,-0.11298324912786484,0.016688929870724678,0.16381576657295227,0.04502188786864281,-0.037116214632987976,0.11916946619749069,0.1648661196231842,-0.08840607851743698,0.13381507992744446,-0.019952580332756042,0.0363180972635746,0.11924590915441513,0.0715584009885788,-0.07412982732057571,0.06123988330364227,-0.11120849847793579,-0.2566445767879486,-0.18555544316768646,0.6898722648620605,-0.037774451076984406,-0.12457297742366791,-0.18022431433200836,0.15748968720436096,-0.1674817055463791,0.025808187201619148,0.17555776238441467,-0.0950372964143753,-0.027598541229963303,-0.03239796683192253,-0.12734101712703705,0.0371258445084095,-0.058524973690509796,-0.021805139258503914,0.07929303497076035,-0.11625029891729355,0.04324379935860634,-0.05907672271132469,0.02510076016187668,-0.18010133504867554,0.07116477191448212,-0.11569145321846008,0.11610393971204758,0.08067967742681503,0.06463160365819931,-0.0657428503036499,0.03702044486999512,-0.050728023052215576,0.0613442026078701,0.10192970931529999,0.03616733103990555,-0.19015167653560638,0.017836937680840492,-0.17494507133960724,0.007281964644789696,0.15106101334095,0.10489238053560257,-0.1386399269104004,-0.03681228309869766,0.19794756174087524,-0.007108334451913834,-0.11682917922735214,-0.19369493424892426,-0.012101034633815289,-0.034610673785209656,0.061435624957084656,0.18899057805538177,0.1890302300453186,-0.20422933995723724,0.04970712959766388,0.3014446198940277,0.10865747183561325,-0.003366998629644513,0.03410109505057335,-0.13213276863098145,0.09616384655237198,0.06884441524744034,-0.18282850086688995,0.004548407159745693,0.12387678027153015,0.020169958472251892,0.11581836640834808,-0.08921194076538086,0.22643566131591797,-0.05898677930235863,-0.2363385707139969,-0.2937840223312378,0.10086899250745773,-0.05706217139959335,0.17486578226089478,-0.07543578743934631,-0.059106625616550446,-0.050659116357564926,-0.1039426177740097,-0.09955824911594391,0.15598368644714355,0.06001104414463043,-0.10180982947349548,-0.14894291758537292,0.1263667345046997,0.060256849974393845,0.24090765416622162,0.1111433282494545,-0.3023287057876587,-0.41639602184295654,0.04267805069684982,-0.02298346720635891,-0.3363981544971466,0.045163605362176895,0.20181161165237427,-0.010670698247849941,-0.26021748781204224,-0.09223057329654694,-0.2527555525302887,-0.005608399398624897,0.2961489260196686,-0.025120388716459274,-0.09561480581760406,0.2602434456348419,0.021521685644984245,-0.24744270741939545,0.6167668700218201,0.00003406330506550148,-0.010235586203634739,0.2834232747554779,-0.10527799278497696,0.08807922899723053,0.20267173647880554,-0.009352440014481544,0.05480266734957695,0.1326753944158554,0.1700553297996521,-0.010399590246379375,-0.18238691985607147,0.14033445715904236,-0.257672518491745,0.24162869155406952,0.07822998613119125,-0.062157146632671356,-0.007991679944097996,0.01896575279533863,0.09334009885787964,0.08744887262582779,0.033305902034044266,0.07103853672742844,-0.14264154434204102,-0.05516480654478073,-0.15984193980693817,0.2261030673980713,-0.003938558977097273,0.18975716829299927,0.0976007804274559,-0.08892225474119186,0.06418895721435547,0.0015226128743961453,-0.047821104526519775,0.017335236072540283,0.09044155478477478,0.27730587124824524,0.2015334516763687,-0.11260773241519928,-0.10976783186197281,-0.4190290868282318,0.33577802777290344,0.2582145929336548,-0.06453526020050049,0.019478196278214455,-0.00018597461166791618,-0.012068556621670723,0.06421524286270142,-0.088473379611969,-0.08150485903024673,0.04669220373034477,-0.04541213810443878,0.09967103600502014,0.017613684758543968,-0.3321692943572998,0.0257025808095932,-0.03867613524198532,-0.18343187868595123,-0.40313223004341125,-0.46795567870140076,0.5732787847518921,0.39944419264793396,-0.4226573407649994,-0.29359665513038635,0.017455128952860832,-0.1540636420249939,0.3998396396636963,-0.4048566222190857,0.891788125038147,0.5287643671035767,-0.13405634462833405,-0.1051797941327095,-0.03076426312327385,-0.6544031500816345,0.12313593924045563,-0.10542111098766327,0.02623716928064823,-0.42328596115112305,0.17934948205947876,0.07089001685380936,0.31134033203125,0.1340695023536682,0.26873767375946045,0.17037460207939148,0.001536118215881288,0.29636457562446594,-0.2645625174045563,0.060862746089696884,-0.14877451956272125,0.14593704044818878,0.3341599106788635,0.17978955805301666,-0.04926522448658943,0.08765874058008194,0.16909174621105194,0.17814823985099792,0.4190501868724823,-0.1213989183306694,-0.16132883727550507,0.2924640476703644,0.06722188740968704,-0.05136856809258461,0.003668261459097266,0.09847100079059601,-0.12043442577123642,-0.22231905162334442,0.2159115970134735,0.04113417863845825,0.004122840240597725,-0.12551775574684143,0.12264121323823929,-0.15690718591213226,0.19607648253440857,-0.11925113946199417,-0.08941818028688431,-0.02410578913986683,0.021486561745405197,0.6111571192741394,0.11407706886529922,-0.12422757595777512,-0.24095572531223297,0.014989511109888554,0.17138494551181793,0.04997223988175392,0.12701725959777832,-0.04731835052371025,-0.1872757226228714,-0.17880865931510925,-0.4163099527359009,-0.015264423564076424,0.0603611059486866,-0.314556360244751,0.15407425165176392,0.21230356395244598,-0.05286621302366257,0.07724961638450623,0.17827075719833374,-0.25248581171035767,0.04959858953952789,-0.06383148580789566,-0.08525736629962921,-0.17296484112739563,-0.11042413860559464,-0.30831432342529297,-0.08781687915325165,-0.1550586074590683,-0.06179189309477806,-0.240645632147789,-0.13831637799739838,-0.20555202662944794,-0.27907517552375793,-0.18625755608081818,0.3973015248775482,-0.21350353956222534,-0.29938042163848877,0.04493657127022743,0.012670068070292473,-0.15532110631465912,-0.06393519043922424,0.11446215212345123,0.17654819786548615,-0.027441393584012985,-0.0369756706058979,-0.050491318106651306,-0.09832660108804703,-0.09415069967508316,-0.0009870707290247083,-0.16028498113155365,0.2514321208000183,-0.11520183086395264,0.21332494914531708,-0.06218039244413376,-0.15809793770313263,0.1274985671043396,0.17590321600437164,-0.16520431637763977,0.1568494737148285,-0.10258640348911285,-0.21389290690422058,0.1304788589477539,0.21823251247406006,-0.0554327666759491,0.1432800143957138,0.025656672194600105,0.12438884377479553,-0.010247250087559223,-0.01565093919634819,0.032261136919260025,-0.1504012644290924,0.10022512078285217,0.1472255438566208,0.07745953649282455,0.00010892387945204973,-0.025564737617969513,0.12345687299966812,0.0919828712940216,-0.06640434265136719,0.2386363297700882,0.15322425961494446,0.212474524974823,-0.19413964450359344,-0.06297565996646881,-0.04949609935283661,0.06362313032150269,-0.22136256098747253,0.4680917263031006,0.1092061847448349,0.06689997762441635,0.013401123695075512,0.16375954449176788,-0.07545780390501022,0.14262129366397858,-0.09757108986377716,0.2927851676940918,-0.14689207077026367,0.026255544275045395,-0.022982528433203697,-0.07362741231918335,0.21610043942928314,-0.16874955594539642,-0.11352533102035522,0.30300068855285645,0.0852271094918251,0.11650797724723816,-0.06327652931213379,-0.22380325198173523,-0.17881719768047333,0.0978897213935852,0.1744273155927658,-0.24021168053150177,0.04440606012940407,-0.09010613709688187,0.27054980397224426,-0.14047852158546448,0.3737339377403259,-0.19581295549869537,-0.252789705991745,-0.18026036024093628,0.29164713621139526,-0.3566936254501343,0.14678923785686493,0.1600172370672226,0.26318562030792236,0.21541039645671844,-0.19556526839733124,0.08304910361766815,0.01746322773396969,-0.10197217017412186,0.0241815485060215,0.2903425395488739,-0.13503310084342957,0.16375134885311127,-0.12060477584600449,0.12920242547988892,0.049324505031108856,0.0011461788089945912,0.15549123287200928,0.08477161079645157,0.010804364457726479,-0.15746913850307465,-0.1775347739458084,0.09318561851978302,-0.2600570619106293,-0.5605123043060303,0.062047332525253296,0.05561200529336929,-0.17639553546905518,0.02288872003555298,-0.07701769471168518,-0.16683979332447052,0.12308735400438309,-0.00581321818754077,0.019452489912509918,0.02065660059452057,0.1692807823419571,-0.019325053319334984,-0.046472787857055664,0.15988664329051971,-0.01953474059700966,0.23587000370025635,0.02826017513871193,0.008761362172663212,-0.12123307585716248,0.04915722459554672,-0.2773744761943817,-0.07021717727184296,-0.052147798240184784,-0.33244213461875916,0.14304788410663605,-0.22957807779312134,-0.13430002331733704,0.14592613279819489,0.045610278844833374,-0.07903768122196198,-0.07112700492143631,0.10327401757240295,-0.08975701779127121,-0.019796576350927353,-0.04010659456253052,0.11971577256917953,0.11134866625070572,0.1196381151676178,-0.07953096926212311,-0.012154586613178253,0.2386813759803772,-0.26572272181510925,0.016978515312075615,0.20143812894821167,0.19523291289806366,0.08188629895448685,-0.06921028345823288,0.049400318413972855,0.03367793560028076,-0.23935915529727936,-0.1231389194726944,0.16947154700756073,-0.14679910242557526,-0.4473530948162079,-0.030568785965442657,0.07396771013736725,0.30478590726852417,0.09399878978729248,-0.02213824912905693,0.1505926549434662,-0.030220527201890945,0.46508803963661194,-0.26696866750717163,-0.05305585265159607,-0.40077152848243713,0.07526203989982605,0.10604913532733917,-0.03601395711302757,0.10603345185518265,0.0007472991128452122,-0.12235288321971893,0.23529762029647827,-0.09140665084123611,-0.004720037803053856,-0.1947886049747467,-0.22484539449214935,0.029834657907485962,0.07841373980045319,0.1567659080028534,-0.007260644342750311,0.10240345448255539,0.057326238602399826,0.2681705355644226,-0.30797284841537476,0.01563403196632862,-0.2787642478942871,-0.1523660570383072,-0.06153290718793869,0.24821045994758606,-0.055988166481256485,0.0688798576593399,-0.14252732694149017,0.3642849922180176,0.14552275836467743,0.2401796132326126,0.22885935008525848,-0.008783913217484951,0.1223834976553917,0.02816825732588768,0.1991858333349228,-0.12637698650360107,-0.019914619624614716,-0.08717766404151917,-0.1435529887676239,-0.10094811767339706,0.08553677052259445,-0.10730297118425369,-0.12085526436567307,0.058387093245983124,0.16943073272705078,-0.011803684756159782,0.16204680502414703,0.23889636993408203,-0.014411295764148235,0.06681117415428162,0.005044603254646063,-0.016233451664447784,-0.17576785385608673,-0.24559953808784485,0.049101248383522034,-0.12744833528995514,0.23721131682395935,-0.29143714904785156,0.039488352835178375,-0.07872477918863297,-0.42561039328575134,-0.09295762330293655,0.29234960675239563,-0.3382033407688141,0.1332746148109436,-0.010429414920508862,0.4131244719028473,-0.01221107691526413,0.07086144387722015,-0.2468641847372055,-0.14164265990257263,0.0116256233304739,0.23635631799697876,-0.012722478248178959,-0.10159142315387726,-0.011770933866500854,0.018450187519192696,0.09065675735473633,-0.1408209204673767,0.15552233159542084,0.029129402711987495,-0.2487569898366928,0.006592552177608013,-0.04908638820052147,-0.03975443169474602,0.014653471298515797,-0.3111424148082733,-0.3557407855987549,-0.09238189458847046,0.021633395925164223,0.21914798021316528,-0.16240878403186798,0.0324658527970314,-0.10435664653778076,0.02104060910642147,0.09549901634454727,0.43602555990219116,0.06485456228256226,0.15874464809894562,0.21201570332050323,0.06899506598711014,-0.11361486464738846,-0.05874193459749222,-0.07071108371019363,0.27586907148361206,0.4590890407562256,-0.2872764468193054,-0.03276927024126053,-0.014329696074128151,-0.056293707340955734,-0.06357647478580475,0.05040240287780762,-0.20488786697387695,0.15654444694519043,-0.032619357109069824,-0.00974238384515047,-0.07211688905954361,-0.21478135883808136,0.006090975366532803,-0.09645546972751617,-0.033710118383169174,-0.0007677323883399367,0.000990842585451901,0.11966043710708618,0.014413326978683472,0.3042900562286377,0.09208113700151443,0.039831697940826416,-0.1319689154624939,-0.19609996676445007,-0.09494799375534058,-0.0020155799575150013,0.17072464525699615,-0.11492709070444107,-0.0338749997317791,-0.05121395364403725,0.06429231911897659,-0.34752732515335083,-0.0809585377573967,0.18396435678005219,0.13807910680770874,0.02184363640844822,0.1483522355556488,0.12401151657104492,0.2855769991874695,0.042084526270627975,0.12711848318576813,-0.20843419432640076,-0.02899819239974022,-0.1659575253725052,-0.10601940006017685,-0.1759321689605713,-0.15168032050132751,-0.38351303339004517,0.14122529327869415,0.054047826677560806,-0.365540087223053,-0.0855877548456192,0.35826995968818665,-0.8095922470092773,-0.04572785273194313,-0.014530540443956852,0.20262132585048676,0.0302057396620512,-0.04596277326345444,-0.1700277030467987,0.07416888326406479,0.06926055997610092,-0.036227963864803314,-0.030311137437820435,-0.012292420491576195,0.05846576392650604,-0.05640457198023796,0.10119283944368362,0.29300594329833984,0.09405454248189926,-0.1297958642244339,-0.1283448189496994,-0.010102101601660252,0.10721287876367569,-0.026476195082068443,0.05648304894566536,-0.0027951716911047697,-0.027697080746293068,0.10033302754163742,0.11115153878927231,-0.20329248905181885,-0.17226794362068176,-0.18898649513721466,-0.03579467535018921,0.09794878959655762,0.04619802534580231,0.2893206477165222,0.03920206427574158,0.08290564268827438,0.16123570501804352,0.2679181694984436,-0.14225943386554718,0.07275655120611191,-0.26845312118530273,0.14594128727912903,0.19555938243865967,-0.0024638327304273844,-0.22458282113075256,-0.075494684278965,0.03564315661787987,-0.08842122554779053,-0.10426165163516998,0.1528775691986084,-0.0064621577039361,-0.5176414251327515,0.1141953244805336,0.04855446517467499,-0.1096314787864685,-0.03144734352827072,0.21606898307800293,0.10562536865472794,-0.019566619768738747,0.03780420869588852,-0.1685720682144165,-0.024873733520507812,-0.0773535892367363,-0.47133439779281616,-0.21637824177742004,-0.15404649078845978,0.13739806413650513,0.15075892210006714,-0.17421545088291168,0.10525783896446228,-0.09930911660194397,0.15087279677391052,0.05292612686753273,0.034922756254673004,0.11719067394733429,0.31490179896354675,-0.10518840700387955,-0.14451415836811066,0.3047727048397064,-0.07262933999300003,-0.06153087690472603,-0.25285497307777405,0.009281838312745094,0.05876539647579193,-0.011502751149237156,0.0934734046459198,-0.06834207475185394,-0.09876472502946854,0.030231446027755737,-0.1309596598148346,-0.07926574349403381,-0.2911498546600342,-0.04011460393667221,0.20249570906162262,-0.006307207513600588,-0.058764468878507614,-0.11935137212276459,0.12557926774024963,-0.06431698799133301,-0.24723441898822784,-0.07187805324792862,-0.1349305659532547,-0.014718890190124512,0.0008777067414484918,0.11845424771308899,0.012622726149857044,0.07273035496473312,-0.009768793359398842,0.12113840132951736,-0.38326165080070496,0.046935755759477615,-0.037094566971063614,-0.1346091628074646,-0.18377184867858887,-0.09309665858745575,0.06496596336364746,0.05094689503312111,-0.02442670427262783,0.03698287904262543,0.04809647426009178,-0.21175812184810638,0.0022904970683157444,-0.03850003331899643,-0.31501835584640503,-0.003179405815899372,-0.0676880031824112,0.18621346354484558,0.10823018848896027,-0.06494008749723434,-0.24281609058380127,-0.014509106986224651,0.021541744470596313,-0.3640381991863251,0.3606613576412201,0.0731266662478447,0.0014191516675055027,-0.19532226026058197,0.028057117015123367,-0.07570397853851318,-0.06650244444608688,-0.0725671648979187,0.018470728769898415,-0.04902501776814461,-0.018250850960612297,0.07529474794864655,0.1529281586408615,0.15939567983150482,0.11618313193321228,0.030494194477796555,-0.0015712155727669597,-0.22598573565483093,-0.07327595353126526,0.09833746403455734,0.2807818651199341,0.23351836204528809,0.12721052765846252,-0.1165735125541687,-0.3952377736568451,-0.10656627267599106,0.0453590489923954,-0.15139231085777283,-0.11931172013282776,0.03155932202935219,0.1293947547674179,-0.259907066822052,-0.14105142652988434,-0.3596094250679016,0.33226853609085083,0.024768570438027382,0.16094999015331268,0.2621776759624481,-0.13037386536598206,0.029263367876410484,-0.10133864730596542,-0.07066789269447327,-0.03795116767287254,-0.09917933493852615,0.09238819777965546,0.008159228600561619,-0.14859825372695923,0.06112149730324745,-0.34152260422706604,0.1197131797671318,-0.02507736347615719,0.09563977271318436,-0.18421708047389984,-0.05578481778502464,-0.03175216540694237,-0.19773176312446594,0.006006600335240364,0.16278739273548126,0.13670223951339722,0.0851139947772026,-0.2245723456144333,0.026434054598212242,-0.05954859405755997,-0.09197687357664108,0.09587222337722778,-0.04298775643110275,0.16160264611244202,-0.17201581597328186,-0.16706408560276031,-0.038845792412757874,-0.08707833290100098,0.21608561277389526,0.07319558411836624,0.2635491192340851,0.48563525080680847,0.25977474451065063,-0.2069510817527771,-0.31547293066978455,-0.1837276965379715,0.014867143705487251,0.12631867825984955,-0.026842689141631126,-0.08776215463876724,-0.042856547981500626,-0.06164304167032242,0.13455624878406525,0.2278233766555786,0.12036849558353424,-0.15249954164028168,0.029420156031847,0.044303297996520996,-0.02872682362794876,0.06153873726725578,-0.21014420688152313,0.134315624833107,-0.15879441797733307,-0.2525843679904938,0.12671411037445068,0.023370465263724327,-0.00561936991289258,0.28266891837120056,0.26321670413017273,0.11865247040987015,-0.13239599764347076,-0.20395399630069733,0.06406690180301666,-0.006051427219063044,0.04496334493160248,-0.27492594718933105,-0.25091078877449036,0.24701660871505737,0.13616374135017395,0.1112348884344101,-0.1775190234184265,-0.057358622550964355,0.027063127607107162,0.17053158581256866,-0.13398216664791107,-0.1842610239982605,-0.05987849086523056,0.3184422254562378,-0.018460707738995552,0.02895037643611431,-0.26194655895233154,0.18080508708953857,0.12874804437160492,-0.07000019401311874,0.0714450255036354,-0.09596201777458191,-0.11309321969747543,-0.1291864812374115,-0.18256229162216187,-0.1552160084247589,-0.16094394028186798,-0.044442981481552124,0.12304393202066422,0.10903216153383255,-0.0987880676984787,-0.18116144835948944,0.09644108265638351,-0.12527570128440857,-0.22459131479263306,0.09523985534906387,-0.14802998304367065,-0.06858264654874802,0.1711781769990921,-0.04295596480369568,-0.09045566618442535,0.011360478587448597,0.19925493001937866,-0.28332290053367615,0.13675764203071594,0.07559903711080551,-0.3109513819217682,-0.1096947118639946,0.31839409470558167,0.17520706355571747,0.04006809741258621,0.09641870856285095,0.03988457843661308,0.015940506011247635,0.0007537428173236549,-0.035755570977926254,0.14590442180633545,-0.18492554128170013,0.02447858266532421,0.16369707882404327,0.0035087596625089645,-0.020391318947076797,0.023129839450120926,0.10793575644493103,0.3262673616409302,-0.1715535670518875,0.014348525553941727,-0.0005722841015085578,-0.18048624694347382,0.08197801560163498,0.020938146859407425,0.026667386293411255,0.021603647619485855,0.18385855853557587,0.15872052311897278,0.20757213234901428,-0.21203917264938354,-0.3513237237930298,-0.07264836877584457,0.21462498605251312,-0.1424560844898224,0.051802679896354675,0.003114883555099368,-0.39547160267829895,-0.022425392642617226,-0.15354500710964203,0.0798414796590805,-0.0332023948431015,-0.3320659101009369,0.06492775678634644,0.1386788785457611,-0.42667990922927856,-0.15196746587753296,-0.08760060369968414,-0.07559985667467117,0.3421849012374878,0.04236234351992607,0.3488355278968811,-0.06852050870656967,-0.43881887197494507,0.10898225754499435,-0.07733024656772614,0.1034374088048935,0.41509515047073364,0.09754551947116852,-0.049075234681367874,0.32240235805511475,0.08075916767120361,-0.054007094353437424,-0.26444554328918457,-0.21406038105487823,-0.43438559770584106,-0.32745838165283203,0.040034230798482895,0.15204022824764252,0.09115716814994812,0.050857920199632645,0.020611383020877838,-0.138754203915596,-0.11101840436458588,0.04743727296590805,0.09474259614944458,0.06455599516630173,-0.026504332199692726,0.21293994784355164,-0.0708494707942009,0.053868792951107025,-0.15725351870059967,0.04205358028411865,-0.10205783694982529,-0.05042211711406708,0.009289450943470001,0.10901738703250885,-0.09245780110359192,0.07711201906204224,-0.03522239252924919,0.06985371559858322,-0.029962748289108276,-0.10839363187551498,0.045675791800022125,0.018169429153203964,0.09705153852701187,0.31404247879981995,-0.008474156260490417,-0.06218207627534866,0.789050281047821,-0.04290563985705376,0.05356418341398239,-0.10415061563253403,-0.007470631040632725,-0.19238097965717316,-0.05583870783448219,-0.15785391628742218,0.008214413188397884,0.0774230882525444,-0.15652966499328613,-0.09530550241470337,0.08283594995737076,0.09634795039892197,-0.33028656244277954,-0.0571133978664875,0.16581858694553375,-0.22824737429618835,-0.006782223470509052,0.12289594858884811,-0.13460960984230042,-0.14403480291366577,0.13722702860832214,-0.059185292571783066,0.0969185084104538,-0.2025127112865448,-0.18847566843032837,0.14028306305408478,0.09930133819580078,-0.13008953630924225,0.12496348470449448,0.03415944054722786,-0.05386997014284134,-0.004992546513676643,0.14184992015361786,-0.09026463329792023,-0.06772780418395996,-0.09924306720495224,0.22789627313613892,0.07716100662946701,0.05683013051748276,-0.21985279023647308,-0.0958171859383583,-0.058671966195106506,-0.29017117619514465,-0.14544598758220673,0.08436904847621918,-0.39880016446113586,0.19859206676483154,0.053073737770318985,0.23891745507717133,-0.16481877863407135,-0.25603339076042175,-0.26169314980506897,-0.0629189983010292,0.09549221396446228,0.03436027094721794,-0.2503781020641327,-0.163511261343956,0.20688851177692413,-0.0674721747636795,0.010731421411037445,0.12438482791185379,0.12609493732452393,0.010904011316597462,-0.1816517561674118,-0.28728747367858887,-0.0090707466006279,0.06027035042643547,0.09386848658323288,0.11368977278470993,-0.07982435822486877,-0.021104639396071434,-0.25328871607780457,0.05873052403330803,0.0016106057446449995,-0.03201630711555481,0.06296723335981369,-0.327142596244812,0.03706509619951248,0.09710659086704254,-0.1487637460231781,-0.007422317750751972,0.17616057395935059,-0.08547084033489227,0.05869312956929207,0.04420681297779083,0.038248609751462936,0.051259297877550125,0.06895316392183304,0.2890022397041321,0.11179117113351822,-0.015622518956661224,-0.06291599571704865,-0.08314842730760574,0.12597495317459106,-0.5552276968955994,0.07110146433115005,0.2093736082315445,-0.012509561143815517,0.33199775218963623,0.012906261719763279,0.32466554641723633,0.03186364844441414,0.041954174637794495,-0.20112034678459167,0.11519061774015427,-0.028606917709112167,-0.1784602403640747,-0.07926881313323975,-0.17456330358982086,0.18903474509716034,-0.0030512483790516853,0.19992142915725708,0.3012537360191345,-0.23071067035198212,-0.13882462680339813,0.17381392419338226,-0.11915825307369232,0.001171685173176229,-0.06109404191374779,0.07943812757730484,-0.2310570627450943,-0.05560119077563286,-0.15419164299964905,-0.03028148226439953,0.33480706810951233,-0.11427110433578491,0.027085715904831886,0.09883490204811096,-0.15964826941490173,-0.1139385998249054,-0.15698711574077606,0.10133562237024307,0.1187458410859108,-0.30453065037727356,-0.08733078837394714,-0.34623339772224426,0.06966176629066467,-0.21581882238388062,-0.2010362297296524,0.16256970167160034,0.08463404327630997,0.2012098878622055,0.09569793194532394,-0.05604616925120354,-0.08668944239616394,0.05651650205254555,-0.12819014489650726,0.10779865086078644,0.2615673243999481,-0.04095441848039627,-0.08682649582624435,0.007720733992755413,-0.27751708030700684,-0.016349485144019127,0.13733457028865814,0.05161219835281372,0.01633882150053978,-0.17188294231891632,0.22250419855117798,0.017003793269395828,-0.13335207104682922,0.10644777119159698,-0.13920752704143524,0.13294143974781036,0.10710982978343964,0.030545959249138832,0.06859106570482254,-0.11957789957523346,0.22892677783966064,0.29442518949508667,0.11535094678401947,0.034254077821969986,-0.07592283934354782,0.1138252541422844,-0.17893598973751068,0.019935285672545433,0.2935340106487274,0.012175310403108597,-0.12364691495895386,-0.10299935191869736,0.2171819806098938,0.19498667120933533,0.10373228788375854,0.23006168007850647,-0.020273379981517792,0.23563988506793976,0.0313553623855114,-0.21047061681747437,-0.08777350932359695,0.14307817816734314,-0.20590823888778687,0.17140991985797882,0.2008526772260666,0.12134523689746857,0.061080120503902435,0.11293449252843857,-0.07816137373447418,-0.10067499428987503,-0.1870654970407486,-0.3682624101638794,0.08743290603160858,0.2169482260942459,0.19903630018234253,0.43872442841529846,0.7440343499183655,0.2323789894580841,-0.18831555545330048,-0.09367097169160843,0.0980851948261261,0.030653083696961403,0.26390936970710754,-0.005186061374843121,-0.1709945797920227,0.002064273227006197,0.08111590892076492,-0.04013225436210632,-0.15706606209278107,-0.07352730631828308,0.08965542912483215,0.027203939855098724,0.16210989654064178,0.04191235825419426,0.02284001186490059,-0.24120348691940308,0.4227420687675476,-0.6064777374267578,0.08627583086490631,0.09209921211004257,-0.23843251168727875,-0.07857208698987961,0.25205886363983154,0.05279431864619255,0.1315106898546219,0.0743773952126503,-0.038897667080163956,0.1521323025226593,-0.018811874091625214,-0.088412344455719,0.039335042238235474,-0.08505893498659134,-0.20284904539585114,0.1407015025615692,-0.15860022604465485,0.02265007607638836,0.05591323971748352,0.014065301977097988,-0.31600138545036316,0.03330839425325394,0.042260315269231796,0.022377297282218933,-0.06646648049354553,0.3108353912830353,0.05408579483628273,0.05459345132112503,0.2941295802593231,0.2262367606163025,0.2577827572822571,0.3871297538280487,-0.8023293614387512,-0.252151757478714,-0.0023027430288493633,0.3260343670845032,0.07264945656061172,0.3001282215118408,0.3212336003780365,-0.5527896285057068,0.24236944317817688,0.006140072364360094,-0.4179929494857788,-0.09171916544437408,-0.08401953428983688,-0.017348550260066986,-0.2417687475681305,0.1326676458120346,-0.17272865772247314,-0.014755861833691597,0.024567265063524246,-0.07243744283914566,-0.1838076263666153,-0.18432791531085968,-0.06451532244682312,-0.2220882773399353,-0.06134357675909996,-0.021614277735352516,-0.13578292727470398,0.15678328275680542,-0.142277792096138,-0.08526637405157089,-0.0745537206530571,0.26724597811698914,-0.15253102779388428,-0.10528615862131119,-0.15187400579452515,-0.10590358078479767,-0.11781009286642075,0.03231658414006233,-0.12468573451042175,-0.40675419569015503,-0.11416729539632797,0.039287060499191284,-0.3894527554512024,0.1843307763338089,0.0931643694639206,-0.1852349191904068,0.13697883486747742,0.07125432044267654,-0.002247642958536744,0.03816821053624153,-0.22106288373470306,-0.46664899587631226,-0.11977296322584152,0.12110712379217148,-0.011751377023756504,-0.10613135993480682,-0.10802852362394333,-0.09061585366725922,-0.008122021332383156,0.0782657116651535,0.1497536152601242,-0.09120717644691467,-0.07450392097234726,-0.07969918847084045,0.0708065927028656,0.12110201269388199,0.3742196261882782,0.2553485929965973,0.001521063270047307,-0.5242586731910706,0.18175019323825836,0.06227662041783333,-0.026404792442917824,-0.032084546983242035,0.17461588978767395,-0.0422821082174778,-0.15536774694919586,0.11236364394426346,-0.19313915073871613,-0.02889515832066536,0.06916238367557526,0.05108771100640297,-0.3947378993034363,-0.06519315391778946,-0.039282169193029404,0.2520087957382202,-0.243652805685997,0.41941916942596436,0.23947203159332275,0.07774659991264343,-0.08365323394536972,-0.37888699769973755,0.0029777793679386377,-0.09740851074457169,0.2315351665019989,0.0726354718208313,0.053859297186136246,-0.16041480004787445,0.09656264632940292,0.042300403118133545,0.09585428982973099,0.07053754478693008,0.1387123167514801,-0.12315715104341507,0.11923658102750778,0.0033152559772133827,-0.037295956164598465,-0.07819073647260666,-0.0075379665940999985,-0.11765587329864502,-0.10377490520477295,0.148777574300766,0.008863874711096287,0.08807413280010223,-0.4542140066623688,0.16057361662387848,-0.14066605269908905,0.11694476753473282,-0.07545608282089233,0.1216726303100586,0.1094847023487091,0.1251627802848816,-0.13068388402462006,-0.24277953803539276,-0.024147769436240196,-0.15251661837100983,0.11667115241289139,-0.14127293229103088,0.12395104020833969,0.08005739003419876,0.03597842529416084,-0.10583887249231339,0.3122498691082001,-0.0017848638817667961,-0.009147832170128822,-0.032970577478408813,-0.1246153712272644,-0.2411111295223236,-0.04523709416389465,-0.030701132491230965,0.021931547671556473,-0.04272563382983208,0.05216877907514572,-0.022057930007576942,-0.30479004979133606,0.06456805020570755,0.15814745426177979,-0.19888074696063995,-0.04049759730696678,0.04158083721995354,0.13509482145309448,-0.12818332016468048,-0.19058026373386383,0.299072802066803,0.008977736346423626,-0.07174037396907806,0.2371881753206253,-0.1437004804611206,0.08595933765172958,0.15477408468723297,-0.05450043827295303,-0.11599429696798325,0.09435087442398071,-0.1323823481798172,0.054307322949171066,-0.058990638703107834,-0.22361014783382416,0.13938365876674652,-0.14312835037708282,0.16587185859680176,-0.08313208818435669,0.19291804730892181,0.06487572938203812,0.0885147824883461,0.1482335329055786,-0.1226768046617508,-0.10337425023317337,-0.17506593465805054,0.1606028527021408,0.05173999071121216,-0.2420719712972641,0.11649686098098755,0.005008941516280174,-0.3474394381046295,0.07884025573730469,-0.10380227118730545,0.042404189705848694,0.07991819083690643,-0.0011485193390399218,0.07277639210224152,0.03931960090994835,-0.1358778029680252,0.13361042737960815,0.1378583014011383,-0.19170928001403809,0.10533976554870605,0.09519925713539124,-0.03424905613064766,0.3544149100780487,0.48045632243156433,0.3905766010284424,-0.19583293795585632,0.02327493578195572,-0.057014383375644684,-0.04641268402338028,0.2681354582309723,0.29413941502571106,0.2094835788011551,0.31106558442115784,-0.20499029755592346,0.08107814192771912,-0.013707112520933151,0.015297330915927887,0.08790577203035355,0.23240071535110474,-0.23661649227142334,-0.14636105298995972,-0.1659454107284546,0.09581981599330902,-0.05866565182805061,-0.13817660510540009,0.07544800639152527,0.08972954750061035,-0.22526250779628754,0.1347377449274063,0.1967296600341797,-0.028555123135447502,-0.34902986884117126,-0.18119651079177856,-0.12881773710250854,0.3548893332481384,0.12334699183702469,0.034173328429460526,0.06540364027023315,-0.37316983938217163,0.04075417295098305,0.14062879979610443,0.21828602254390717,-0.02778213657438755,0.05718224495649338,0.08606509119272232,0.0056411088444292545,-0.10270032286643982,0.009340128861367702,0.17551715672016144,-0.056632667779922485,0.20444348454475403,-0.07186824083328247,0.004172036424279213,0.08851230144500732,-0.0740412026643753,0.13173097372055054,0.06074109300971031,-0.4067288041114807,0.1441793590784073,0.03971254825592041,-0.00014397990889847279,-0.14555062353610992,-0.00844245683401823,0.3141040503978729,-0.04406420886516571,-0.22433678805828094,-0.10920008271932602,-0.0033358074724674225,-0.19721505045890808,0.1082264706492424,-0.2837112843990326,0.1459016352891922,0.05315397307276726,-0.16235974431037903,-0.03552824258804321,-0.06432981044054031,-0.015971707180142403,0.11260292679071426,0.005968320649117231,-0.08776751905679703,0.026269707828760147,-0.12605135142803192,-0.07119560986757278,0.038581568747758865,0.07673858106136322,0.057492874562740326,0.03756194934248924,-0.05326811596751213,-0.04989868402481079,-0.010076193138957024,-0.26962175965309143,0.05254678800702095,-0.09701444953680038,0.0909772738814354,-0.24297316372394562,0.24077685177326202,0.055683135986328125,-0.06242075189948082,-0.10591267794370651,0.04746369644999504,0.15667875111103058,0.06933434307575226,-0.00001775625605660025,-0.0016258069081231952,0.04195483401417732,0.11537480354309082,0.128585085272789,0.0500880591571331,0.028545262292027473,0.016748249530792236,-0.12785455584526062,-0.10808944702148438,-0.08433463424444199,-0.09660611301660538,0.13007624447345734,-0.13136911392211914,-0.05528164654970169,0.1521053910255432,0.3711733818054199,0.09867946058511734,0.22772808372974396,-0.004680129233747721,-0.028105678036808968,-0.0051275985315442085,0.09857581555843353,0.04035158455371857,0.08956610411405563,0.21577252447605133,0.010925778187811375,-0.2535308599472046,0.0773371160030365,0.14148913323879242,0.08302579075098038,-0.062056347727775574,-0.1330709010362625,0.33898934721946716,-0.4077684283256531,0.05889282375574112,0.10878248512744904,0.28837016224861145,0.1849597990512848,0.19475936889648438,0.6601609587669373,0.009035802446305752,-0.045423947274684906,-0.05293291062116623,-0.17979691922664642,0.036552704870700836,0.2803325653076172,0.18911103904247284,0.13841751217842102,-0.05895835533738136,-0.03429962322115898,-0.0463879331946373,-0.17089463770389557,-0.08600259572267532,0.043327707797288895,0.030231375247240067,-0.05292809009552002,-0.10782821476459503,-0.22987186908721924,-0.04473360255360603,0.138851135969162,0.31574547290802,0.030728140845894814,-0.10395248234272003,0.1087416484951973,-0.03299123793840408,-0.10747434943914413,0.313104510307312,0.011838738806545734,0.02008042484521866,-0.844994306564331,-0.11547169089317322,-0.036566659808158875,0.024125635623931885,-0.042349379509687424,-0.18639028072357178,-0.3661322593688965,0.033211350440979004,-0.010823258198797703,-0.3540618419647217,0.03735750913619995,0.21697938442230225,-0.16156773269176483,-0.16938266158103943,-0.015328895300626755,0.12966758012771606,0.07145770639181137,0.07454515993595123,0.03971626237034798,-0.16095401346683502,-0.03455618768930435,-0.058794766664505005,0.044922515749931335,0.12398892641067505,-0.2847668528556824,-0.041378818452358246,-0.05490130931138992,0.0085930610075593,-0.06601601839065552,0.15933860838413239,0.03474568575620651,-0.12620125710964203,-0.1816253960132599,-0.44261741638183594,-0.06268621236085892,-0.05975639820098877,0.18332332372665405,0.01327135507017374,0.19260787963867188,0.2074986696243286,0.14254342019557953,-0.19554287195205688,0.24079366028308868,0.12054165452718735,-0.0408184751868248,0.223224475979805,0.12969869375228882,0.06005001813173294,0.17436352372169495,-0.04099476337432861,-0.023492977023124695,-0.04834245517849922,-0.1598723828792572,-0.10676432400941849,0.165744349360466,-0.053945835679769516,-0.13934893906116486,0.2808055281639099,0.3041989505290985,0.05038318783044815,0.16441971063613892,-0.01454909797757864,-0.09132379293441772,-0.1634625941514969,-0.0936509445309639,0.10284506529569626,-0.3552393317222595,-0.0006374249933287501,0.04360753670334816,-0.4362553060054779,0.16554182767868042,-0.05491521209478378,-0.30958041548728943,-0.11159262806177139,-0.016376689076423645,0.05253852903842926,-0.09891742467880249,-0.04930609464645386,0.28909391164779663,-0.030326155945658684,-0.11749512702226639,0.04993046447634697,0.01457181852310896,0.003427828662097454,0.09743516147136688,0.037378787994384766,-0.1927533596754074,0.011018765158951283,-0.15382365882396698,-0.022581374272704124,0.14154675602912903,-0.03416185826063156,-0.06956179440021515,-0.48954808712005615,-0.028987251222133636,0.05494672432541847,0.017779387533664703,0.1842709630727768,0.05401180312037468,-0.2986305058002472,-0.055212296545505524,0.049169350415468216,-0.20253022015094757,-0.0432928241789341,-0.08173587173223495,0.21672633290290833,0.037357147783041,-0.09890856593847275,-0.18295110762119293,-0.022337326779961586,0.15846972167491913,0.04487437754869461,0.10164456069469452,0.08758848160505295,-0.064137302339077,0.05129179358482361,0.16791415214538574,0.14969538152217865,-0.14158228039741516,0.13761374354362488,-0.04343646392226219,0.16457770764827728,-0.0038467461708933115,0.08911433815956116,-0.023947698995471,-0.00779748847708106,-0.1920599490404129,-0.05694637820124626,-0.1454717218875885,-0.1395769715309143,0.03787684068083763,-0.13967305421829224,0.08207057416439056,-0.05960844084620476,-0.0811435878276825,0.019151143729686737,0.04758751392364502,-0.10098284482955933,0.170299232006073,-0.030732713639736176,0.24532334506511688,-0.07949910312891006,-0.024361034855246544,-0.26309096813201904,-0.06030496209859848,-0.13230036199092865,0.274625301361084,0.11349950730800629,-0.026407379657030106,-0.060642872005701065,-0.16026431322097778,0.023944564163684845,-0.21150662004947662,-0.010007484816014767,-0.0684579536318779,-0.00015214207815006375,0.019032428041100502,-0.1248488575220108,0.32859325408935547,0.02476166933774948,-0.19856677949428558,-0.03488186374306679,0.09029848873615265,0.017653224989771843,-0.05065866559743881,-0.07161024212837219,0.06732569634914398,-0.027158182114362717,0.13970425724983215,0.032781172543764114,-0.14276809990406036,0.016321465373039246,-0.05328970402479172,0.013533912599086761,-0.15696178376674652,0.10211750864982605,-0.02605286054313183,-0.2513543665409088,0.15286844968795776,0.09744611382484436,-0.2961192727088928,0.004911944270133972,-0.05816887691617012,0.012767787091434002,-0.027790185064077377,0.0416584350168705,-0.3273923099040985,0.14476655423641205,-0.08130486309528351,0.0319189578294754,-0.1722654551267624,0.12622809410095215,-0.011419996619224548,0.09813573956489563,-0.13183139264583588,-0.047811172902584076,-0.03787253051996231,0.14132806658744812,-0.10997337102890015,0.08871407806873322,0.1987922638654709,0.01263514719903469,0.046071674674749374,-0.0068523455411195755,0.22842267155647278,-0.12564022839069366,-0.005593393929302692,-0.07429914176464081,0.0535239614546299,-0.06811188161373138,-0.13819116353988647,-0.05257227644324303,-0.12419161945581436,0.13470236957073212,-0.33101457357406616,-0.09663259983062744,0.22195252776145935,0.19769956171512604,0.21488578617572784,0.13696371018886566,0.002601420506834984,0.008970546536147594,0.029747236520051956,0.06253036111593246,0.050067126750946045,0.17120449244976044,-0.17244194447994232,-0.22706201672554016,-0.2208506166934967,-0.20434269309043884,0.06704862415790558,0.15476197004318237,0.11948179453611374,0.06007706746459007,-0.012679644860327244,0.047236260026693344,0.09490320086479187,-0.022943533957004547,0.00863269716501236,0.10745690017938614,0.10137367248535156,-0.159579336643219,0.09200509637594223,0.15571264922618866,0.07020777463912964,0.20791055262088776,0.2276613861322403,0.026041418313980103,0.0032419897615909576,-0.06904453039169312,0.050924282521009445,0.06677906960248947,0.13242708146572113,-0.07885018736124039,0.01201464980840683,0.1234814003109932,0.016174277290701866,0.04797742888331413,-0.04696119949221611,0.034000273793935776,0.021713802590966225,0.20584604144096375,0.09407579153776169,-0.07091415673494339,0.0006645652465522289,0.08879265934228897,-0.017864856868982315,0.2077530026435852,-0.1321742683649063,0.09404484182596207,-0.03273159638047218,-0.0805850699543953,-0.020253613591194153,-0.03506859391927719,0.03240242972970009,-0.31039005517959595,-0.10135461390018463,0.055262818932533264,-0.21315911412239075,0.18168535828590393,-0.14041440188884735,-0.05182816833257675,0.3622630536556244,-0.03150522708892822,0.0007651071064174175,0.11975325644016266,-0.09280171245336533,0.07647743821144104,0.06250963360071182,0.055823106318712234,0.16186776757240295,-0.028399944305419922,-0.07791997492313385,-0.13213491439819336,-0.3033025562763214,-0.06471923738718033,0.11605104058980942,0.17294304072856903,0.08985259383916855,0.14970111846923828,-0.28553855419158936,0.0337076261639595,-0.06777223944664001,-0.0395590141415596,0.03477366641163826,-0.10689397901296616,-0.06655716896057129,-0.06880564242601395,-0.1664896309375763,-0.04163452610373497,0.03358116000890732,-0.11572306603193283,-0.14437466859817505,0.1664203554391861,0.03594740480184555,0.278243750333786,0.03844635933637619,0.03967882692813873,0.13862738013267517,-0.008140187710523605,-0.022354036569595337,-0.0689844861626625,-0.057076938450336456,-0.07466862350702286,0.17429101467132568,0.032667309045791626,-0.043037448078393936,-0.19210797548294067,-0.11224101483821869,-0.1868378072977066,0.4532923698425293,-0.10011588037014008,0.09577242285013199,0.015478053130209446,0.05713048204779625,-0.04138842597603798,-0.1109563559293747,0.18375490605831146,0.22792015969753265,-0.12172143906354904,-0.02458782121539116,0.1175152063369751,0.05148807168006897,-0.02809181809425354,0.10025100409984589,-0.21572861075401306,0.050519272685050964,-0.16699014604091644,-0.06994301825761795,0.04713865742087364,-0.03087649680674076,-0.17798690497875214,-0.09769778698682785,0.061757005751132965,0.13618770241737366,-0.067164845764637,0.003875379217788577,-0.0019728613551706076,0.06683437526226044,0.014670209027826786,-0.233824223279953,-0.06094188243150711,-0.1291227638721466,0.08239925652742386,-0.08038046956062317,-0.036918431520462036,0.08474484086036682,0.03580991178750992,-0.02774735912680626,0.3074844181537628,0.04746721684932709,0.05097435787320137,0.16230465471744537,-0.035505954176187515,0.05015607178211212,0.0634065717458725,-0.2949824929237366,0.013864212669432163,0.017106710001826286,0.03523632138967514,0.025297967717051506,-0.03317379206418991,0.06690307706594467,0.10495861619710922,0.20659424364566803,0.16268886625766754,0.1060434952378273,-0.14989183843135834,0.03223555162549019,0.09506505727767944,0.20180054008960724,0.10923657566308975,-0.010269299149513245,-0.19537387788295746,-0.42663589119911194,-0.2515893578529358,-0.163129985332489,-0.3450000584125519,0.08631293475627899,0.04176673665642738,0.16991810500621796,0.036012593656778336,0.08960946649312973,-0.012240818701684475,0.13142554461956024,0.0401792898774147,0.011357681825757027,-0.10087776184082031,-0.20869088172912598,-0.13808123767375946,-0.09703201800584793,0.36347031593322754,-0.052812401205301285,0.10437765717506409,-0.0725889652967453,0.10371752083301544,-0.02020021714270115,-0.016945306211709976,-0.1435612142086029,-0.09399647265672684,-0.0075998990796506405,0.05072956532239914,0.03142465651035309,-0.27005672454833984,0.0007454499718733132,0.023117464035749435,0.2567448318004608,0.03255319595336914,-0.07581479847431183,0.0409526526927948,-0.06684669107198715,0.06123194843530655,-0.22705747187137604,0.24055859446525574,0.22737807035446167,-0.05894017964601517,-0.08299842476844788,-0.04769981652498245,0.09996353089809418,0.05665978789329529,-0.010838202200829983,0.13663093745708466,