{"version":"0.5.4","metadata":{"date":{"year":2026,"month":2,"day":11,"hour":18,"minute":57,"second":4},"loudness":-24.374805450439453,"gain":0.8196175411146431,"name":"G65-OD12-3","modeled_by":"lum","gear_type":"amp_cab","gear_make":"tz-make","gear_model":"tz-model","tone_type":"overdrive","input_level_dbu":null,"output_level_dbu":null,"training":{"settings":{"ignore_checks":false},"data":{"latency":{"manual":null,"calibration":{"algorithm_version":1,"delays":[4057],"safety_factor":1,"recommended":4056,"warnings":{"matches_lookahead":false,"disagreement_too_high":false}}},"checks":{"version":3,"passed":true}},"validation_esr":0.00824594320327026}},"architecture":"WaveNet","config":{"layers":[{"input_size":1,"condition_size":1,"head_size":8,"channels":16,"kernel_size":3,"dilations":[1,2,4,8,16,32,64,128,256,512],"activation":"Tanh","gated":false,"head_bias":false},{"input_size":16,"condition_size":1,"head_size":1,"channels":8,"kernel_size":3,"dilations":[1,2,4,8,16,32,64,128,256,512],"activation":"Tanh","gated":false,"head_bias":true}],"head":null,"head_scale":0.02},"weights":[-0.058601897209882736,0.7575505971908569,-0.9663150906562805,-0.9955043792724609,-0.5740450620651245,0.4934047758579254,0.015714041888713837,0.8888296484947205,-0.3613278567790985,0.3426932692527771,-0.5607837438583374,-0.3328426480293274,-1.0315402746200562,-0.749591588973999,-0.5612185001373291,0.2776920795440674,0.3896443843841553,0.3444969654083252,-0.3900996744632721,-0.3922545611858368,-0.1789875328540802,0.325714647769928,0.2890726923942566,0.3329824209213257,-0.21958774328231812,0.3411327302455902,0.3620343804359436,-0.3359355330467224,0.23096415400505066,0.18922868371009827,-0.26447099447250366,-0.19478248059749603,-0.31882280111312866,0.15159863233566284,0.22602549195289612,0.10781492292881012,-0.3527604341506958,-0.19366119801998138,-0.16240853071212769,0.2661324143409729,0.3613961935043335,0.17443257570266724,-0.22853830456733704,-0.4512290954589844,-0.32683679461479187,0.14078009128570557,0.4138587713241577,0.31325486302375793,-0.27896565198898315,0.31178462505340576,0.3148868680000305,-0.0788847878575325,0.37777912616729736,0.24877680838108063,-0.09833410382270813,0.2335585504770279,0.25327175855636597,-0.31014421582221985,0.2204570770263672,0.15047189593315125,-0.14157690107822418,-0.3227583169937134,-0.31693029403686523,0.3342684805393219,-0.23040752112865448,-0.09482379257678986,0.1944066733121872,0.3635372519493103,0.17286203801631927,-0.0937075987458229,-0.4427920877933502,-0.13621950149536133,0.2936140298843384,-0.21062321960926056,0.044861748814582825,0.36238282918930054,-0.296345055103302,-0.2052815705537796,0.2461772859096527,0.2388874590396881,-0.058292657136917114,-0.11106692254543304,-0.19031941890716553,-0.2444957047700882,0.11317361891269684,0.30182239413261414,0.05568838492035866,-0.2977149188518524,-0.2808922529220581,-0.16523072123527527,0.2957427203655243,0.39458033442497253,0.1817093789577484,-0.17010091245174408,-0.4755699932575226,-0.17159077525138855,0.31441500782966614,-0.2877068519592285,-0.18654397130012512,0.14519503712654114,-0.19317889213562012,0.015532372519373894,0.1679431051015854,-0.36045268177986145,-0.21702808141708374,0.22631675004959106,-0.43928152322769165,-0.19416823983192444,0.22670826315879822,0.3639468848705292,0.05226857587695122,-0.14431527256965637,-0.00868416577577591,0.13450822234153748,0.15993018448352814,-0.12936972081661224,-0.031700752675533295,0.04882434383034706,0.021412907168269157,0.03249622881412506,0.007818103767931461,0.010592065751552582,-0.07723843306303024,0.02324124239385128,-0.12567289173603058,-0.08600553125143051,-0.07154310494661331,-0.08452872931957245,-0.055142730474472046,-0.08693516254425049,0.08186552673578262,0.0018653603037819266,0.0015530056552961469,-0.006992615293711424,0.10970000922679901,0.03000667318701744,0.04901311174035072,-0.0049364748410880566,0.013754643499851227,0.07265504449605942,0.13363909721374512,0.11748397350311279,0.15138542652130127,-0.006246325094252825,-0.16651733219623566,-0.044456180185079575,0.10224305093288422,-0.022361041978001595,-0.07306142896413803,-0.11844532191753387,-0.18195754289627075,-0.12027107924222946,-0.035742394626140594,0.0375216081738472,0.0908723920583725,-0.13619832694530487,0.05016636103391647,-0.20069380104541779,-0.05456928908824921,-0.09216393530368805,-0.042124923318624496,0.35375136137008667,-0.1682329773902893,-0.15248052775859833,-0.41274577379226685,-0.05702248960733414,-0.03540538623929024,0.43801024556159973,-0.06419543921947479,0.021362384781241417,0.5162938833236694,0.0036351874005049467,0.15267829596996307,0.4391154646873474,-0.0788826271891594,0.07197009027004242,-0.39601948857307434,-0.11419323831796646,0.041409172117710114,0.20521613955497742,-0.11670207977294922,-0.060475751757621765,-0.2776637673377991,-0.022449152544140816,0.07352379709482193,0.4535132646560669,0.0009055640548467636,-0.04426569864153862,-0.4916893243789673,0.036110006272792816,0.13320130109786987,0.48103854060173035,-0.046719975769519806,0.0191766656935215,0.2752322256565094,-0.04064686596393585,-0.052726276218891144,0.43263480067253113,-0.021840129047632217,0.026071777567267418,0.3871389329433441,0.15150636434555054,-0.08866866677999496,0.2838570773601532,-0.02651544287800789,0.11575204133987427,-0.4864770174026489,0.13576558232307434,-0.02738437056541443,0.2714388072490692,-0.22362762689590454,-0.00889618881046772,-0.25264039635658264,0.09560851007699966,-0.01429631095379591,0.28455907106399536,-0.23211708664894104,-0.09167911112308502,0.3878462612628937,-0.24065038561820984,-0.03567143529653549,0.4088571071624756,-0.08357363194227219,0.029389889910817146,-0.38617128133773804,0.20960605144500732,-0.1467767357826233,0.22140149772167206,-0.2503889203071594,-0.006539029069244862,-0.2646316587924957,0.23884151875972748,-0.025379570201039314,0.4005778729915619,-0.07584986090660095,-0.060873597860336304,-0.19291676580905914,0.03895192593336105,-0.08451053500175476,0.30615976452827454,-0.08541233837604523,0.07184635102748871,0.21166901290416718,-0.14813271164894104,0.06027166545391083,0.1285245418548584,-0.014420782215893269,-0.13637830317020416,0.26861870288848877,-0.14822544157505035,-0.09872595965862274,0.2820458710193634,-0.010381357744336128,0.03391009196639061,-0.35146602988243103,0.17132991552352905,0.05779695883393288,-0.06776516884565353,-0.208591029047966,-0.23817843198776245,0.0595872700214386,0.3191990256309509,0.2130064219236374,-0.027605757117271423,-0.18854835629463196,0.08863938599824905,-0.18475818634033203,-0.19527889788150787,0.26535657048225403,-0.10007867962121964,-0.2980685234069824,-0.21922363340854645,-0.0028826568741351366,0.2579692304134369,0.13384296000003815,-0.22078321874141693,0.0783877894282341,-0.22756308317184448,0.12493111938238144,0.27480626106262207,0.18675853312015533,-0.23646782338619232,-0.34255364537239075,-0.03716070577502251,0.1561427116394043,0.3361627161502838,0.1042793020606041,-0.09208836406469345,-0.2666202783584595,0.15031349658966064,-0.22149676084518433,-0.16549374163150787,0.17881450057029724,-0.14588670432567596,-0.2684192359447479,0.045556917786598206,-0.04196138307452202,-0.33749133348464966,0.20833294093608856,-0.18346187472343445,-0.3040771186351776,-0.19242028892040253,0.06487671285867691,0.23599787056446075,0.10188189148902893,-0.21121618151664734,0.20788060128688812,0.051532357931137085,0.16509175300598145,-0.10482317954301834,-0.11439186334609985,-0.1267937272787094,0.1282208263874054,-0.046739473938941956,-0.05531999096274376,0.1784248650074005,-0.06024372577667236,-0.10304290056228638,0.152520552277565,-0.0069156247191131115,0.1112082302570343,-0.08109565824270248,-0.0585545152425766,-0.11612678319215775,0.2827928066253662,0.12497791647911072,0.19248008728027344,-0.060254424810409546,0.10739630460739136,-0.17323537170886993,0.0069604660384356976,-0.1464838832616806,0.24286489188671112,-0.009485932067036629,-0.08288741111755371,-0.044453203678131104,0.20328500866889954,0.17166830599308014,0.027428369969129562,0.2188325971364975,-0.02920040674507618,-0.16004620492458344,0.19659210741519928,0.08743487298488617,-0.19490572810173035,0.21201804280281067,0.08443064242601395,-0.022287048399448395,-0.001017555594444275,-0.02370927482843399,0.04086577519774437,-0.0671384334564209,0.20885780453681946,-0.07939989864826202,-0.21619316935539246,-0.13982388377189636,0.09574156254529953,0.3665074408054352,0.09779847413301468,-0.10531582683324814,-0.3925756514072418,0.054411157965660095,-0.25954845547676086,-0.18311378359794617,0.2845935523509979,-0.003275919007137418,-0.17269791662693024,-0.33778488636016846,0.03588824346661568,0.2637206017971039,0.1496102213859558,-0.08327952772378922,-0.3324401080608368,-0.26299014687538147,0.0011214058613404632,0.21162758767604828,0.3542936444282532,-0.028526170179247856,-0.1900734305381775,-0.096488356590271,0.2636561095714569,0.24503043293952942,0.2734682857990265,-0.009254517033696175,-0.24461373686790466,0.3573353588581085,-0.058922044932842255,-0.18866440653800964,0.14095209538936615,-0.07374566048383713,-0.28005167841911316,0.15927563607692719,-0.22189751267433167,-0.37181413173675537,0.09740325063467026,-0.04055170342326164,-0.18904940783977509,-0.29929277300834656,0.049385976046323776,0.3948426842689514,0.14343568682670593,-0.21213868260383606,0.03220045566558838,0.13452136516571045,0.29005393385887146,-0.11159839481115341,0.13472577929496765,-0.11716941744089127,-0.05715005844831467,0.07858404517173767,-0.31367748975753784,-0.02332601696252823,0.12640663981437683,-0.22132527828216553,-0.0928698182106018,-0.058543913066387177,0.18305067718029022,-0.04235134646296501,0.04806293919682503,-0.08424577116966248,0.1218237355351448,-0.08698088675737381,0.23498260974884033,0.07136853039264679,0.09085717052221298,-0.365139365196228,0.008834206499159336,-0.1167936623096466,0.1596715748310089,0.036025431007146835,-0.09444443881511688,-0.17123930156230927,0.13157546520233154,0.025572776794433594,-0.31519290804862976,-0.02729390189051628,0.02710375189781189,-0.34042757749557495,0.06696992367506027,-0.13276545703411102,-0.3665342628955841,-0.13972899317741394,-0.024473659694194794,-0.12693454325199127,-0.13067509233951569,0.09611791372299194,0.18688268959522247,-0.03681984543800354,-0.04910949245095253,-0.42566582560539246,0.23740729689598083,0.16899926960468292,0.43073076009750366,0.056679997593164444,-0.18673446774482727,-0.15960288047790527,0.016719594597816467,-0.025506502017378807,-0.40384599566459656,-0.029661621898412704,-0.22852399945259094,-0.33992016315460205,0.052299126982688904,-0.03197704255580902,0.3256937563419342,0.050355978310108185,0.02201264537870884,-0.3111831247806549,0.06714383512735367,0.047008588910102844,0.3450886011123657,0.13136468827724457,0.00869989674538374,-0.31622663140296936,0.09914467483758926,-0.06511246412992477,0.15092609822750092,0.03514004871249199,-0.1629304736852646,-0.21227270364761353,-0.07942014187574387,-0.1486804485321045,-0.39825335144996643,0.11039041727781296,-0.10753355175256729,-0.17237991094589233,0.0989317074418068,-0.011200577951967716,-0.27726274728775024,-0.03047204576432705,-0.11472409963607788,-0.2603333294391632,0.0897369533777237,-0.020533470436930656,0.4265848696231842,-0.11246035993099213,-0.45108065009117126,0.08307447284460068,0.08276109397411346,0.5106868147850037,-0.297023743391037,0.19990256428718567,-0.3108992576599121,0.24968896806240082,0.018540281802415848,-0.4588199853897095,0.2097053974866867,-0.04057833179831505,-0.4176348149776459,0.21209675073623657,-0.13852673768997192,0.47355523705482483,-0.206663578748703,0.04084740951657295,-0.257489413022995,0.183118537068367,-0.03964017331600189,0.3862898051738739,-0.07746835052967072,0.0851912871003151,-0.34656664729118347,0.13925479352474213,-0.029501065611839294,0.2623702883720398,-0.24330134689807892,0.016799842938780785,-0.25340500473976135,0.13317981362342834,-0.09324989467859268,-0.43894919753074646,0.3007446527481079,0.04819343984127045,-0.4840761423110962,0.04560929164290428,-0.20860929787158966,-0.3723725378513336,0.12181008607149124,-0.19403304159641266,-0.4310568869113922,0.19354583323001862,-0.17223581671714783,0.4128068685531616,-0.22431959211826324,-0.004560298286378384,0.4116937518119812,0.08888061344623566,0.10890571027994156,-0.3880722224712372,0.00020310166291892529,-0.16181567311286926,0.2510693669319153,-0.20302842557430267,0.4498031437397003,0.3048705756664276,-0.0270401444286108,0.29463067650794983,0.3602280616760254,-0.08830403536558151,0.38775843381881714,-0.37714144587516785,-0.07262825220823288,-0.3780457675457001,0.22134564816951752,0.022172555327415466,-0.0334387943148613,-0.2503034770488739,0.024192603304982185,-0.32873135805130005,0.5034312605857849,0.014466133899986744,0.40644386410713196,-0.2897690534591675,0.012741351500153542,-0.3778885006904602,0.3700858950614929,0.04879022017121315,0.24853911995887756,0.24895624816417694,0.008297501131892204,0.42466306686401367,0.3479365408420563,-0.1751386970281601,0.17401550710201263,0.4250555634498596,-0.06374911218881607,0.22689805924892426,0.40917348861694336,-0.009877781383693218,0.4135132133960724,-0.31191813945770264,0.03709982708096504,-0.3854776620864868,-0.11174096912145615,-0.19118696451187134,0.37010467052459717,0.09449303150177002,0.20122304558753967,-0.10638868063688278,0.09993557631969452,-0.19496214389801025,0.10773805528879166,-0.0891183465719223,-0.4294719398021698,0.371518075466156,-0.08954793959856033,-0.3891950845718384,0.31836560368537903,-0.040134936571121216,0.2523637115955353,-0.2601190507411957,-0.05093221366405487,-0.37815555930137634,0.37742000818252563,-0.030002282932400703,0.37664440274238586,-0.10301405936479568,0.05713256448507309,-0.3075203001499176,0.4071928560733795,0.04032071679830551,0.24640563130378723,-0.10962402820587158,0.005407129414379597,-0.4656556248664856,0.20509620010852814,-0.11592505872249603,-0.18980422616004944,0.2274651676416397,-0.16641350090503693,-0.33609652519226074,0.3191448450088501,0.0060294996947050095,-0.2787039577960968,0.24451065063476562,0.022644037380814552,-0.35694894194602966,0.1817803531885147,-0.13170062005519867,0.20442429184913635,-0.2785153090953827,-0.27102360129356384,0.25595879554748535,-0.007302707526832819,0.15099602937698364,-0.357169508934021,0.0943392738699913,-0.2202855497598648,0.3802589476108551,-0.06374379247426987,-0.1724412441253662,0.3427458703517914,-0.012075173668563366,-0.02552250772714615,0.16002951562404633,-0.08555057644844055,0.08272109180688858,-0.23101097345352173,0.09926905483007431,-0.24316401779651642,0.3014442026615143,-0.10753441601991653,0.10388536751270294,-0.15412244200706482,-0.1605180948972702,-0.14904266595840454,0.39732372760772705,-0.003842114470899105,0.2598952353000641,-0.2965911328792572,0.08568888157606125,-0.2854071855545044,0.23704558610916138,0.014279363676905632,-0.10999283939599991,0.30450621247291565,0.13135996460914612,-0.1551177054643631,0.2574544847011566,0.14990848302841187,-0.17599895596504211,0.38635388016700745,-0.051241930574178696,-0.16091835498809814,0.24978581070899963,0.10549838840961456,0.29689082503318787,-0.2926197946071625,-0.09126177430152893,-0.010921425186097622,-0.1162528246641159,0.3310677707195282,0.021052410826086998,0.2565949857234955,-0.056658919900655746,-0.09725216031074524,-0.29604461789131165,0.2846609950065613,-0.2150917500257492,-0.1314198523759842,0.20781134068965912,-0.17171518504619598,-0.10966712236404419,0.07036277651786804,0.13223637640476227,0.06279285252094269,-0.21681353449821472,-0.1225966364145279,-0.08122450113296509,0.17887315154075623,0.19679291546344757,0.14223529398441315,-0.24982856214046478,-0.23445330560207367,-0.29549577832221985,0.37709012627601624,0.061540424823760986,0.16106978058815002,-0.16174231469631195,-0.004674832336604595,-0.03303901478648186,0.31548750400543213,-0.19861352443695068,-0.1734858751296997,0.12518811225891113,-0.18884800374507904,-0.12878639996051788,0.31566354632377625,-0.2195766121149063,-0.07318703085184097,0.10970704257488251,-0.13301150500774384,-0.04265131801366806,0.1633063703775406,0.14557886123657227,0.08410173654556274,-0.18594680726528168,0.3556082248687744,-0.42273056507110596,-0.06763336807489395,-0.4481792747974396,0.22171272337436676,0.21327607333660126,0.4564387798309326,-0.3682869076728821,-0.14592519402503967,0.46403002738952637,-0.23995256423950195,-0.28712353110313416,0.33290377259254456,-0.37464195489883423,-0.31347423791885376,-0.35306069254875183,0.43245115876197815,0.3205181062221527,0.3932396173477173,-0.28060197830200195,-0.10794760286808014,-0.22629529237747192,0.2687188684940338,0.11152441799640656,0.40599435567855835,-0.2553948163986206,-0.3127036392688751,-0.2208486646413803,0.37172892689704895,0.08688412606716156,0.32404637336730957,-0.20328664779663086,-0.3167153596878052,0.3129776120185852,-0.27464646100997925,-0.30871251225471497,0.41439223289489746,-0.2560660243034363,-0.1240229681134224,0.2435377985239029,-0.18529808521270752,-0.29132166504859924,0.49647068977355957,-0.4642847180366516,-0.3332071900367737,-0.3325366973876953,0.3475152850151062,0.14595553278923035,-0.14769455790519714,-0.033090535551309586,-0.02735404297709465,-0.20129580795764923,0.03421487286686897,0.24437490105628967,-0.023980893194675446,-0.009875715710222721,0.18047480285167694,0.17086902260780334,0.029987415298819542,-0.036506619304418564,-0.04711125046014786,-0.1485239714384079,0.0179288312792778,0.03797575831413269,0.6291326880455017,-0.6581107378005981,0.8529859185218811,-0.7756503224372864,0.10999993234872818,1.1416325569152832,0.9276448488235474,-0.27918773889541626,0.19206662476062775,0.11848907172679901,-0.3654404580593109,-0.657017707824707,0.053084347397089005,-0.7556009292602539,-0.0031252519693225622,0.6558813452720642,-0.0932815819978714,0.35655009746551514,0.2517610788345337,0.2898673415184021,-0.22365830838680267,-0.14985238015651703,0.30852633714675903,0.3405252993106842,-0.04514290392398834,-0.2181798815727234,0.0846022516489029,0.3391380310058594,0.3582488000392914,-0.08461233228445053,0.27912572026252747,0.2877691984176636,0.15048722922801971,-0.35695385932922363,-0.26632195711135864,0.011349533684551716,0.14333760738372803,0.10870180279016495,-0.15061795711517334,0.07332563400268555,0.07478420436382294,0.1757012903690338,-0.3676210641860962,0.3433006703853607,-0.026904698461294174,-0.32428789138793945,-0.20418745279312134,0.5479893684387207,-0.11550219357013702,0.03690389171242714,-0.060740672051906586,0.3095549941062927,0.14550678431987762,-0.3459537625312805,0.08529183268547058,-0.34408846497535706,-0.0871889516711235,-0.1468750238418579,0.28532087802886963,-0.2328970730304718,0.10020484775304794,0.5068367719650269,0.17433887720108032,-0.45971357822418213,0.29440322518348694,-0.09302660077810287,-0.08485163003206253,-0.12418357282876968,-0.033360451459884644,-0.012039409019052982,-0.11054106801748276,0.045891307294368744,-0.26498934626579285,-0.07335970550775528,-0.20811684429645538,0.1152111366391182,0.22859251499176025,0.22734591364860535,-0.34133681654930115,0.1401473581790924,-0.27983421087265015,-0.12478712201118469,-0.2495543509721756,0.06430280208587646,0.07330898195505142,0.11395183205604553,0.1719079464673996,-0.17465980350971222,0.14173303544521332,0.34578582644462585,-0.3909052610397339,0.17444583773612976,0.13320006430149078,0.08171943575143814,0.0839076042175293,0.13758841156959534,-0.304438054561615,-0.0002392523892922327,0.16328737139701843,-0.11239242553710938,0.10834114253520966,0.40008196234703064,0.31291109323501587,0.14306041598320007,0.34440740942955017,0.12625998258590698,-0.09519535303115845,-0.12598486244678497,0.030589664354920387,-0.3505936861038208,0.2082137018442154,0.20234227180480957,0.08651981502771378,0.10290217399597168,0.3798304498195648,0.2215540111064911,-0.45273834466934204,-0.2765154540538788,0.24081632494926453,0.28726810216903687,0.08634795248508453,-0.3459455072879791,-0.11578632891178131,0.2637651860713959,0.28714099526405334,-0.26258987188339233,0.17629531025886536,0.23350952565670013,0.17577700316905975,0.0631621927022934,0.17790605127811432,-0.265384703874588,-0.23969964683055878,0.14314550161361694,0.21575140953063965,-0.08619682490825653,0.19658662378787994,-0.1716567426919937,0.18176645040512085,-0.10170773416757584,0.08954650163650513,-0.17961512506008148,-0.06376105546951294,-0.08119630068540573,-0.08906994014978409,-0.11084893345832825,-0.37679243087768555,-0.12615366280078888,0.14052844047546387,-0.42248907685279846,-0.2825075089931488,-0.20429836213588715,-0.3708229959011078,-0.3716154396533966,0.02633134461939335,0.2536224126815796,0.009180259890854359,0.09029316902160645,-0.022887922823429108,-0.15839113295078278,-0.3131254315376282,0.1355983167886734,0.2798326909542084,-0.434554785490036,-0.3341711163520813,0.20469677448272705,0.2502186894416809,-0.10902010649442673,0.22018609941005707,0.36557042598724365,0.1898246556520462,0.006274804938584566,0.27114710211753845,-0.04309327155351639,-0.001029154285788536,0.13994093239307404,0.12224854528903961,0.1730242520570755,-0.3103286027908325,0.16043606400489807,-0.2743493318557739,-0.5127105116844177,0.013839561492204666,-0.002692973939701915,-0.03191192448139191,-0.2602318227291107,-0.3240478038787842,0.17930208146572113,0.02028058096766472,0.12323220819234848,0.06312447786331177,0.27729272842407227,0.1662936955690384,-0.06935595721006393,0.18442845344543457,0.11073969304561615,0.30638450384140015,-0.08770368248224258,-0.09087512642145157,-0.029160592705011368,-0.1153605580329895,-0.2958456873893738,0.02008514292538166,-0.3005678355693817,-0.16612517833709717,0.319519579410553,-0.29567763209342957,-0.4048958122730255,0.04059645161032677,-0.17265501618385315,0.03465448319911957,0.17612482607364655,0.19151778519153595,-0.27581050992012024,-0.06936054676771164,0.2765576243400574,0.1278969645500183,-0.14202572405338287,-0.19037386775016785,0.1722942292690277,0.0489838570356369,-0.09977804869413376,-0.3776993155479431,0.27740034461021423,0.35103845596313477,-0.3714871108531952,-0.1570904701948166,0.30225300788879395,0.22326432168483734,0.09933535754680634,0.03426620364189148,0.14684045314788818,-0.1808621734380722,-0.2983211874961853,-0.28931674361228943,0.1730671375989914,-0.319018691778183,0.10009019076824188,-0.6518896222114563,0.12143856287002563,-0.4072832763195038,0.49008652567863464,-0.007781277410686016,-0.1380651444196701,-0.23008228838443756,-0.23417946696281433,0.2893403172492981,-0.11046241968870163,-0.27382662892341614,0.18670950829982758,0.3177431523799896,-0.10166524350643158,0.4764060974121094,0.32665663957595825,0.17052169144153595,-0.5994650721549988,0.5337932109832764,-0.16588348150253296,0.28028997778892517,-0.048710234463214874,0.3398650288581848,0.4657037556171417,0.02731642872095108,0.5064427852630615,-0.15333078801631927,-0.21526378393173218,-0.41039538383483887,-0.3610699772834778,-0.3034645915031433,0.1734274923801422,-0.35031065344810486,0.3055191934108734,0.09150312840938568,-0.07079049944877625,0.43686363101005554,-0.23258142173290253,-0.24808670580387115,-0.14893195033073425,0.20908525586128235,-0.06970663368701935,0.20333045721054077,-0.4033544659614563,0.14713776111602783,-0.0552271232008934,0.31348833441734314,0.2657938301563263,0.059103190898895264,-0.0686369240283966,-0.6070584058761597,0.4976481795310974,-0.12012063711881638,0.4137352406978607,-0.6955685019493103,0.18489907681941986,-0.28593748807907104,0.5211464762687683,0.32343241572380066,-0.40436214208602905,-0.20872196555137634,-0.03026403672993183,-0.37863925099372864,-0.23853570222854614,-0.11602197587490082,0.3826029598712921,-0.17589949071407318,-0.15588900446891785,-0.19214242696762085,0.12086796015501022,0.14786605536937714,0.27742519974708557,-0.13619403541088104,-0.275508850812912,-0.339106023311615,0.20300088822841644,0.09003657102584839,-0.0731959193944931,-0.003376974258571863,-0.43289604783058167,-0.40690335631370544,0.07151652872562408,0.15017589926719666,-0.4274757504463196,-0.1958392858505249,0.18271149694919586,-0.16099518537521362,0.02943297289311886,0.09200606495141983,-0.12512226402759552,0.001253041555173695,0.20823004841804504,-0.3880152702331543,0.7919802069664001,-0.2906471788883209,0.5786793828010559,-0.8671252727508545,-0.013131344690918922,0.5523753762245178,0.09382203966379166,0.4628402590751648,0.05102706328034401,0.11307557672262192,0.3724612593650818,-0.05262245237827301,-0.2744722366333008,0.07521005719900131,-0.17065048217773438,-0.07677169144153595,-0.1412397027015686,0.0290728397667408,-0.4376536011695862,-0.039256349205970764,-0.18057172000408173,0.00580483116209507,-0.04315973073244095,0.3954254388809204,-0.10825172066688538,0.1049603670835495,0.06605962663888931,0.17084090411663055,0.009586789645254612,-0.04330798238515854,-0.23960795998573303,-0.03788578510284424,0.08911899477243423,0.10612703114748001,-0.19262558221817017,0.2711794972419739,-0.029578451067209244,0.1146923303604126,-0.11240466684103012,-0.15274693071842194,0.17950254678726196,-0.010140802711248398,-0.15977855026721954,0.0794861912727356,0.005547970999032259,-0.007196777034550905,0.056932736188173294,-0.10346364229917526,-0.2004948854446411,-0.3054405748844147,-0.06492762267589569,0.3196755349636078,0.010326383635401726,-0.0038654746022075415,-0.12602660059928894,0.1548914909362793,0.04222062975168228,0.3225966691970825,-0.17398589849472046,0.14759333431720734,-0.2506501376628876,-0.03813306614756584,0.21586182713508606,-0.02399277314543724,-0.14924727380275726,0.17648668587207794,-0.05325927212834358,0.10117025673389435,-0.22725604474544525,0.24826718866825104,0.25197890400886536,0.1386585235595703,-0.17700017988681793,-0.07609433680772781,-0.2565669119358063,0.08480706065893173,0.1934950202703476,0.218248650431633,-0.274792343378067,-0.12886697053909302,-0.17850351333618164,0.13241665065288544,0.001484891981817782,0.08585384488105774,-0.2597144544124603,0.025980554521083832,0.2748523950576782,-0.18729765713214874,-0.06775608658790588,0.14725424349308014,-0.05665602535009384,-0.09414716809988022,0.10611525177955627,-0.052340973168611526,-0.033236049115657806,-0.07817337661981583,-0.07159502804279327,0.26110368967056274,-0.031234337016940117,0.30423814058303833,0.04960007965564728,-0.09884538501501083,-0.17373187839984894,0.0953521803021431,0.4356704652309418,0.28740015625953674,-0.4177374541759491,-0.13052469491958618,-0.3304779529571533,-0.5370563268661499,0.3242787718772888,0.2712133228778839,-0.1053619310259819,0.22424010932445526,0.1053100973367691,0.007490227930247784,-0.1082838848233223,0.039658091962337494,0.21823056042194366,0.14246457815170288,-0.2173669934272766,-0.36494678258895874,-0.1845891922712326,0.011471151374280453,0.32384026050567627,0.07350248098373413,-0.18875105679035187,-0.2824471592903137,0.22127003967761993,0.0009478331776335835,0.47595125436782837,0.07467185705900192,-0.14848649501800537,-0.2536483108997345,0.1307699978351593,0.19867518544197083,-0.031012345105409622,0.038869909942150116,-0.1515793353319168,-0.6783774495124817,0.16647644340991974,-0.1752394735813141,-0.5113712549209595,-0.5445370078086853,-0.48151135444641113,0.6370878219604492,-0.028654199093580246,0.4384918212890625,0.11510321497917175,-0.3174764811992645,-0.3373607099056244,-0.22664321959018707,0.05444006994366646,0.12297160923480988,0.010262981057167053,-0.1331036239862442,-0.05291898921132088,-0.02518513798713684,-0.1314663290977478,0.07370688766241074,0.1307656317949295,-0.0034805668983608484,0.06594850867986679,0.001559663680382073,-0.07159271836280823,0.15051646530628204,-0.1172952726483345,-0.030564574524760246,-0.2725967466831207,-0.1962302029132843,-0.012914367951452732,0.10095134377479553,-0.04848784580826759,0.05067633464932442,-0.03051128052175045,0.027578210458159447,0.031618669629096985,0.010332909412682056,0.023241350427269936,0.12989966571331024,-0.09997796267271042,0.06555289775133133,-0.14222730696201324,-0.018157709389925003,0.14951089024543762,-0.19531157612800598,-0.1392051726579666,0.23599030077457428,-0.0904930979013443,-0.11832097172737122,0.03977254033088684,0.049379266798496246,-0.0802893340587616,-0.19482143223285675,0.13718445599079132,-0.05997656285762787,-0.08350078761577606,-0.10380323976278305,-0.0951090082526207,-0.18784043192863464,-0.07446622103452682,0.10725231468677521,-0.11745056509971619,-0.27654320001602173,0.14077109098434448,0.006673908326774836,0.0474090501666069,0.23896561563014984,0.15684357285499573,-0.09939088672399521,0.11854593455791473,-0.04477587714791298,0.15822012722492218,-0.2796701490879059,-0.05096949264407158,-0.06943190097808838,-0.22825568914413452,-0.16062362492084503,0.16726695001125336,-0.31931808590888977,0.12365846335887909,-0.045281533151865005,0.3126261532306671,-0.07280083745718002,0.2961061894893646,-0.09097924083471298,0.05937439575791359,0.019407540559768677,0.2510448694229126,0.10450644791126251,0.1430300623178482,0.1188424751162529,0.11213728785514832,-0.08891963958740234,0.1612669676542282,-0.03082805871963501,-0.21806082129478455,-0.10630989819765091,-0.007956767454743385,-0.1038152351975441,0.04377273842692375,-0.021316828206181526,0.15705940127372742,-0.003115008119493723,-0.056605350226163864,0.12916257977485657,-0.33366796374320984,0.02380155399441719,0.2944255769252777,0.1733270138502121,-0.026884673163294792,0.13343772292137146,-0.15484219789505005,0.2831888496875763,-0.09075234830379486,-0.3294261395931244,-0.29989761114120483,-0.019341714680194855,-0.24642154574394226,-0.07481526583433151,0.16725461184978485,0.31355515122413635,0.18888486921787262,0.431917667388916,-0.15176713466644287,0.09806187450885773,-0.050485797226428986,0.3491753339767456,0.0476609542965889,0.16769099235534668,-0.24047018587589264,-0.10228253901004791,-0.12959419190883636,-0.021503373980522156,-0.09511566907167435,0.13047921657562256,-0.33592337369918823,-0.02686445601284504,-0.25269457697868347,-0.16031445562839508,-0.1302008330821991,0.30925455689430237,0.06184599921107292,0.20525571703910828,0.19044341146945953,0.15143877267837524,-0.04025975614786148,-0.2091391682624817,-0.08342785388231277,-0.047701600939035416,-0.39819827675819397,0.10941093415021896,0.006642274558544159,-0.16930584609508514,0.23286183178424835,0.4502559304237366,0.3646310269832611,0.021676065400242805,-0.4815501570701599,-0.38667699694633484,-0.19398397207260132,0.49372729659080505,-0.038091447204351425,-0.07864271104335785,0.10683494806289673,0.05200497433543205,-0.14517615735530853,-0.10505568981170654,0.2852441966533661,0.07280880212783813,-0.3864842653274536,-0.021760674193501472,-0.019771631807088852,0.07301712781190872,0.11220842599868774,0.0601256899535656,-0.32156747579574585,-0.13645651936531067,-0.30042803287506104,0.5157197713851929,0.26657262444496155,0.26287856698036194,-0.2886960506439209,0.04115324839949608,-0.20698823034763336,0.28463804721832275,-0.17507226765155792,-0.19585101306438446,0.3953063189983368,-0.12038516253232956,-0.18397216498851776,0.043385595083236694,-0.204316645860672,-0.15687792003154755,0.09062113612890244,-0.07401711493730545,0.08194100856781006,0.36431318521499634,0.1481688767671585,0.002474989043548703,-0.22066815197467804,0.549948513507843,0.6595454216003418,0.0009715532069094479,-0.2995802164077759,0.2547442615032196,-0.08210575580596924,0.22999608516693115,-0.24945242702960968,0.2458345890045166,0.16104714572429657,-0.09205801784992218,-0.06791521608829498,0.039036594331264496,0.12212353199720383,0.023701466619968414,-0.26632392406463623,0.2533588111400604,-0.1129876896739006,0.18785248696804047,0.4825146198272705,0.16689486801624298,-0.18696364760398865,0.054095350205898285,-0.00923013687133789,0.10024112462997437,-0.26704850792884827,0.24802842736244202,-0.15464845299720764,0.33561721444129944,-0.16323013603687286,0.15554802119731903,-0.08099941909313202,0.09321168065071106,0.1895664781332016,-0.25418969988822937,0.13115346431732178,-0.07789875566959381,-0.017464490607380867,0.0839768499135971,0.07116694748401642,-0.31780439615249634,-0.08531252294778824,0.11407892405986786,-0.11937868595123291,0.09321602433919907,-0.16868767142295837,-0.13207367062568665,-0.08460742235183716,0.12931686639785767,0.34589993953704834,-0.16990675032138824,0.19146670401096344,-0.013487218879163265,0.3439880907535553,-0.3014944791793823,-0.08622701466083527,-0.03141998499631882,-0.09249640256166458,0.08635203540325165,0.005125637631863356,0.2087252140045166,0.05451725050806999,0.0575079545378685,0.10390447080135345,0.027659546583890915,0.005891586188226938,0.16832797229290009,0.14958910644054413,0.24846462905406952,-0.0713924989104271,0.02872609905898571,0.03162020817399025,-0.1627054661512375,0.07698823511600494,0.05366650968790054,-0.04598123952746391,-0.04191680625081062,-0.0422646589577198,-0.19507800042629242,-0.0354011245071888,0.1587739735841751,-0.19660434126853943,-0.16076430678367615,0.011320536956191063,0.017952071502804756,0.02659556455910206,0.08297435194253922,-0.18844904005527496,-0.03842809423804283,0.08898944407701492,-0.23220539093017578,-0.011630461551249027,-0.18671654164791107,0.0163117665797472,-0.2782861888408661,-0.18092288076877594,-0.4720170199871063,-0.2657632529735565,-0.498963326215744,-0.06801743805408478,0.030803166329860687,-0.1362825483083725,0.050761595368385315,0.14192236959934235,-0.028288092464208603,-0.0355411022901535,0.06072540953755379,0.029592182487249374,0.12537071108818054,0.15670834481716156,-0.0037983625661581755,-0.015915028750896454,-0.08390872180461884,0.08821883797645569,-0.13784976303577423,-0.03599228709936142,-0.004921230021864176,-0.07190734893083572,-0.04745513200759888,0.22854232788085938,-0.027272120118141174,0.0590551421046257,-0.03759985417127609,-0.07267328351736069,-0.14729559421539307,0.08201799541711807,0.09330029040575027,0.04988536611199379,-0.20430304110050201,0.18980291485786438,0.17992153763771057,-0.09142177551984787,0.07822762429714203,0.045611411333084106,-0.08175463229417801,0.07539450377225876,-0.07612685114145279,-0.08838509023189545,-0.019171452149748802,0.12237194180488586,0.0968848392367363,0.06378884613513947,-0.1329311728477478,0.09380008280277252,0.04641575366258621,0.3045390844345093,-0.21381869912147522,-0.40208983421325684,-0.2650046944618225,-0.0741702988743782,-0.011527393944561481,0.2732597589492798,0.1514541357755661,0.014823367819190025,0.044030509889125824,0.08668775856494904,-0.06875316053628922,0.06491897255182266,-0.04294680058956146,-0.01717151142656803,0.11412141472101212,-0.045157626271247864,-0.29581400752067566,-0.03196712210774422,0.10321900993585587,0.13932164013385773,0.09959965199232101,-0.05461270362138748,0.10260883718729019,-0.07768335193395615,-0.027811342850327492,-0.07566124945878983,0.2665114104747772,-0.05440349504351616,-0.12814517319202423,0.09319888055324554,0.013288932852447033,-0.04944092035293579,-0.008499111980199814,0.036882128566503525,-0.22240743041038513,-0.10517942905426025,0.2047111839056015,-0.04585492983460426,-0.22150421142578125,-0.020279662683606148,0.34510156512260437,0.5944983959197998,-0.28589630126953125,-0.0874313935637474,-0.4501033425331116,-0.02476150169968605,-0.09513026475906372,0.13815411925315857,-0.08899500221014023,0.10273219645023346,0.0586455762386322,-0.0957682654261589,0.10428819060325623,0.17670319974422455,-0.1190856322646141,0.010906873270869255,0.1021682620048523,-0.047712214291095734,0.14716756343841553,-0.03706476092338562,-0.15597760677337646,-0.019735144451260567,-0.2691780626773834,0.20066648721694946,0.004247563425451517,-0.031949929893016815,0.008230247534811497,-0.05652045086026192,-0.1672993004322052,0.23190240561962128,-0.1359531432390213,0.15892505645751953,0.00781257450580597,-0.019846666604280472,-0.006824099458754063,-0.038266621530056,0.0632002204656601,0.268435537815094,-0.05119842663407326,0.08364704996347427,-0.045796364545822144,-0.062435731291770935,0.05400685966014862,-0.0384429395198822,-0.026017537340521812,-0.05223635211586952,0.0026078135706484318,-0.19441476464271545,0.11507583409547806,-0.058672256767749786,0.149348646402359,0.04048313573002815,0.06400686502456665,-0.012131409719586372,0.030559701845049858,-0.5493740439414978,-0.2478836327791214,0.041538797318935394,0.1881754994392395,0.18199312686920166,-0.025631967931985855,-0.22657693922519684,0.06367463618516922,-0.08409399539232254,0.00662580830976367,0.05628872290253639,0.0740814283490181,0.12286552786827087,0.3005806803703308,-0.009781870990991592,0.09506181627511978,-0.14367923140525818,-0.04340429604053497,-0.18029814958572388,-0.12432084232568741,0.11353430151939392,0.05952376872301102,-0.1825476586818695,-0.017010612413287163,-0.11648699641227722,0.17337404191493988,0.1862756460905075,-0.11695700883865356,0.09697946906089783,-0.01732165366411209,-0.1070263683795929,-0.02610599808394909,-0.12079092860221863,0.04397028312087059,-0.02985220216214657,-0.154218852519989,-0.044150352478027344,0.13975873589515686,-0.021863196045160294,0.10383302718400955,-0.06864657998085022,0.07712326943874359,-0.14317686855793,-0.2424294352531433,-0.10049552470445633,-0.0032593877986073494,-0.00472766300663352,0.2580261528491974,0.12142761051654816,0.3204248249530792,-0.026471855118870735,0.24572941660881042,0.004219102207571268,-0.0061905947513878345,-0.2117091566324234,0.04154941067099571,-0.05548687279224396,-0.1682431548833847,-0.04740067571401596,-0.038990337401628494,-0.03753162920475006,-0.021963883191347122,0.08907901495695114,0.1313468962907791,-0.07972858101129532,0.2298075407743454,0.1621333509683609,0.3214831054210663,0.00485547911375761,0.2421485185623169,-0.12526559829711914,0.17713336646556854,-0.3012339174747467,0.0426102839410305,-0.17382049560546875,-0.03318072855472565,0.03977647051215172,0.06830765306949615,-0.08092809468507767,0.1573432981967926,0.11057353764772415,-0.10497026890516281,-0.011908283457159996,0.0473489984869957,-0.1360558718442917,0.0826282873749733,0.011638769879937172,-0.10181009024381638,0.010935908183455467,-0.1908189356327057,-0.102986641228199,-0.19505928456783295,0.006865060422569513,0.16488726437091827,-0.007578668650239706,0.08814974129199982,0.14964795112609863,-0.1656758189201355,0.2993474304676056,0.19151374697685242,-0.047139570116996765,-0.08383230119943619,0.24233075976371765,0.06947506964206696,0.10947177559137344,0.20384234189987183,-0.10547216981649399,0.019451966509222984,0.07972215861082077,0.006754337344318628,-0.03771629184484482,-0.33380189538002014,0.01739196665585041,0.10210718959569931,0.14167849719524384,-0.09483824670314789,0.06154082715511322,-0.34925949573516846,-0.09586279839277267,-0.1550985723733902,0.1568177044391632,-0.029829727485775948,-0.07081107795238495,0.007289307191967964,0.25381335616111755,0.02003893069922924,0.289043128490448,-0.08298801630735397,-0.05702783539891243,0.1922026425600052,-0.05706740543246269,-0.1379108726978302,0.011437120847404003,0.010755910538136959,0.014088527299463749,0.24164214730262756,-0.17319053411483765,-0.1947030872106552,-0.3066078722476959,0.19555070996284485,0.14331039786338806,0.19428245723247528,-0.038855455815792084,0.3163290321826935,0.09724421054124832,-0.002380965743213892,-0.1351994127035141,-0.14083442091941833,0.006569329183548689,0.5927269458770752,0.0642021968960762,-0.04723373427987099,-0.07701712101697922,0.016473259776830673,0.013675556518137455,0.06509272009134293,0.038585808128118515,0.09423874318599701,-0.11912376433610916,-0.3704930543899536,0.6792474389076233,0.4147610068321228,-0.18016475439071655,-0.2114078253507614,-0.9738020300865173,-0.09680046886205673,-0.44487014412879944,0.5654182434082031,-1.0947977304458618,-0.5004488229751587,-1.171797513961792,0.27447280287742615,-0.9937341213226318,0.6084827780723572,-0.9547280669212341,0.14222948253154755,-0.3761651813983917,-0.12867121398448944,-0.09382858872413635,0.28121137619018555,-0.03832295909523964,-0.35351982712745667,-0.18015235662460327,-0.2664727568626404,-0.1901199370622635,-0.03116118535399437,0.33150750398635864,0.047124795615673065,-0.1036391630768776,-0.2138163298368454,0.05753451958298683,0.40095606446266174,-0.1418927162885666,-0.24775530397891998,0.21744072437286377,-0.45612871646881104,0.3259378969669342,-0.1693955808877945,-0.28984272480010986,0.5155141353607178,-0.11702880263328552,0.12706854939460754,0.05877315625548363,0.03678826615214348,-0.23383265733718872,0.06535187363624573,0.2737443149089813,-0.1907494217157364,0.008015798404812813,0.13414105772972107,0.28170111775398254,-0.006383517291396856,0.08887229114770889,-0.032811298966407776,0.1783464252948761,0.09876161813735962,-0.1545403003692627,-0.1302146017551422,-0.08825331926345825,-0.18756289780139923,0.21349577605724335,0.17720584571361542,-0.022068222984671593,0.2938169240951538,-0.05755867809057236,-0.28907856345176697,-0.3091343939304352,-0.2631527781486511,0.06375937163829803,-0.16915090382099152,-0.09091436117887497,-0.07488077878952026,-0.06265611201524734,0.1153699979186058,0.045861899852752686,0.33858722448349,-0.3025040626525879,0.00016028010577429086,0.1241123303771019,0.5140830874443054,0.06615666300058365,-0.4651889503002167,-0.19152453541755676,0.3061034083366394,0.035442184656858444,-0.08407057821750641,0.2181844711303711,0.14681409299373627,0.11892183870077133,-0.33109620213508606,0.32177653908729553,-0.26546719670295715,0.31405726075172424,-0.0657595545053482,-0.2757483124732971,-0.24821791052818298,0.05246538668870926,-0.0309587512165308,-0.1310800164937973,0.2339903861284256,-0.28883811831474304,0.18498004972934723,-0.05547595024108887,-0.03041362389922142,0.3290875554084778,-0.19722983241081238,-0.10985905677080154,-0.4083060622215271,0.08665277063846588,0.24365264177322388,-0.03842778131365776,0.1930202692747116,0.0002798277710098773,0.09953959286212921,-0.14543889462947845,-0.0405258908867836,0.3582269549369812,-0.38254764676094055,0.0671631321310997,0.3135700821876526,0.08062168210744858,-0.08749495446681976,0.34546294808387756,-0.07148310542106628,-0.13228054344654083,-0.07241390645503998,0.30995863676071167,-0.09549622982740402,0.24180252850055695,0.05043334513902664,0.07800517231225967,0.20920610427856445,-0.12781110405921936,0.017114713788032532,0.06060556322336197,0.042702943086624146,0.21714377403259277,-0.09971179068088531,0.12423431128263474,-0.13944704830646515,0.2986994683742523,0.19646818935871124,0.13225117325782776,-0.007679895497858524,-0.03679532930254936,-0.19147498905658722,-0.1312088519334793,-0.43146950006484985,0.02776096761226654,-0.29218992590904236,-0.13365624845027924,0.38168877363204956,-0.19319547712802887,0.5376039147377014,-0.24359823763370514,0.2027195692062378,-0.22365087270736694,-0.16981390118598938,0.3477306067943573,-0.32132649421691895,0.20391038060188293,0.23892295360565186,-0.17266561090946198,0.18340083956718445,-0.3777158260345459,0.45287296175956726,0.12243320792913437,-0.03225107491016388,-0.24313931167125702,0.010782727040350437,0.08303859084844589,0.014387917704880238,0.23942701518535614,0.24175022542476654,-0.40809714794158936,0.2104739397764206,-0.32287219166755676,-0.560670793056488,0.22689799964427948,-0.02719358168542385,0.06188715249300003,-0.20196115970611572,-0.09253591299057007,0.13237141072750092,0.18121466040611267,0.0034497573506087065,0.2832156717777252,0.11063855141401291,-0.08667140454053879,-0.27850067615509033,0.1717788577079773,0.2666373550891876,0.2846607565879822,-0.39612606167793274,0.004652186296880245,-0.043552737683057785,-0.15522858500480652,0.10832220315933228,0.20474907755851746,-0.3178212344646454,0.16497662663459778,-0.052120599895715714,-0.25190243124961853,-0.05519941821694374,-0.009289205074310303,0.1224195659160614,-0.15006425976753235,-0.09325523674488068,-0.15802086889743805,-0.361197292804718,0.31410688161849976,-0.2171192169189453,0.11215142160654068,-0.2557966113090515,0.1975349485874176,-0.19528992474079132,0.043654512614011765,-0.009255442768335342,0.09557922929525375,0.17007316648960114,-0.4063894748687744,-0.03401912376284599,0.052336908876895905,0.14710861444473267,0.06082933023571968,-0.020373711362481117,0.19757141172885895,-0.2340259552001953,0.019022298976778984,-0.13342228531837463,-0.27769026160240173,0.22317342460155487,-0.013780683279037476,0.11488302797079086,-0.25147679448127747,0.2239077091217041,-0.013334717601537704,0.09713605046272278,0.06032892316579819,-0.04498985409736633,0.1959037333726883,-0.16146378219127655,-0.03459866717457771,-0.016299370676279068,-0.09223895519971848,0.2247282862663269,-0.12405366450548172,0.15969863533973694,0.32529908418655396,-0.36579570174217224,-0.020772084593772888,-0.3006425201892853,0.35795459151268005,0.180916890501976,0.15837302803993225,0.5391045808792114,-0.2481594830751419,-0.2567002475261688,0.11236245185136795,-0.18700011074543,0.16791020333766937,-0.28110042214393616,-0.15487705171108246,-0.06825901567935944,-0.14534762501716614,0.1748892217874527,0.08602214604616165,-0.051261432468891144,0.08946751803159714,-0.1653318554162979,-0.17183183133602142,-0.2764340043067932,0.14463891088962555,0.15903690457344055,-0.05621469393372536,-0.2499564290046692,-0.24720846116542816,0.2636178731918335,0.05512595549225807,0.363979309797287,-0.18886145949363708,0.13910987973213196,-0.235263854265213,0.3615918755531311,-0.15818077325820923,-0.19774605333805084,-0.0415426529943943,0.05708514526486397,-0.06597185879945755,-0.17523518204689026,0.037965867668390274,0.01637778989970684,0.04514619708061218,-0.05822698026895523,-0.15532509982585907,0.048581067472696304,0.012044446542859077,-0.1213863417506218,-0.07602755725383759,0.23940999805927277,0.04861760139465332,-0.20046141743659973,0.13721860945224762,0.091124527156353,-0.07610233873128891,-0.1259937435388565,0.017049120739102364,0.05415230616927147,-0.036990609019994736,0.032987359911203384,-0.1899614781141281,-0.10088138282299042,0.1131279319524765,0.08002927154302597,0.100131094455719,0.09069101512432098,-0.06131378188729286,-0.06411008536815643,-0.006005679722875357,-0.12881648540496826,-0.12128924578428268,0.0028768149204552174,-0.014294717460870743,0.003656412474811077,-0.08866553008556366,0.11425962299108505,-0.282274067401886,0.04563266038894653,0.024915698915719986,0.16885490715503693,0.04382546246051788,-0.3901642858982086,0.38239040970802307,0.03847998008131981,0.016578122973442078,-0.007630510255694389,-0.052996926009655,0.064068503677845,-0.20981661975383759,0.05107756704092026,-0.2768394351005554,0.21061217784881592,0.2856431305408478,0.312660813331604,-0.18602177500724792,-0.18600758910179138,-0.2400088757276535,-0.1352890431880951,-0.0028555148746818304,-0.17975908517837524,-0.030902553349733353,-0.07803141325712204,-0.18497610092163086,0.0030809452291578054,0.07382087409496307,0.05578919127583504,0.04214361310005188,-0.007379266433417797,0.07431406527757645,0.011598194018006325,0.029347741976380348,-0.15913623571395874,0.030122224241495132,-0.08626266568899155,-0.03811819478869438,0.12985770404338837,0.14983664453029633,-0.022034145891666412,-0.2871149480342865,-0.474352091550827,-0.08932533115148544,0.16852949559688568,0.43223389983177185,0.15836942195892334,0.09256944060325623,-0.06507640331983566,-0.10682155936956406,-0.2373414933681488,-0.051797520369291306,-0.17518027126789093,0.13471069931983948,-0.06330668926239014,0.025020336732268333,0.13838832080364227,-0.02947675809264183,0.00014352425932884216,0.07641291618347168,-0.20321081578731537,-0.08642029762268066,-0.02863439917564392,0.08209819346666336,0.04824144020676613,-0.027788586914539337,0.03144160658121109,0.02446334809064865,-0.042994994670152664,-0.08099818229675293,-0.06482096016407013,0.04615778475999832,0.028404314070940018,0.01998879387974739,0.14687253534793854,0.13387282192707062,0.09472380578517914,-0.13323655724525452,0.07258304208517075,0.1057744026184082,0.13741090893745422,-0.010708189569413662,-0.02253834716975689,-0.08875855058431625,0.02943233773112297,-0.06162364408373833,-0.1320357769727707,0.050991207361221313,0.012751663103699684,0.08374913781881332,0.28774285316467285,-0.3861852288246155,-0.06817445904016495,-0.1364327371120453,-0.008451065048575401,0.12041039764881134,-0.025760047137737274,-0.06269071251153946,-0.2878616452217102,-0.2536713778972626,0.04733624681830406,-0.12481364607810974,-0.1403549462556839,-0.02531108632683754,0.1287066638469696,0.11273898929357529,0.2683753967285156,-0.1884051412343979,0.3499050736427307,-0.23579762876033783,0.06126908212900162,0.05749024450778961,-0.17684239149093628,0.2369907647371292,0.31406721472740173,-0.18209771811962128,0.14458635449409485,0.43435412645339966,-0.5777242183685303,0.0241079144179821,-0.209233358502388,0.4667706787586212,0.1102861762046814,0.3882218599319458,-0.36625415086746216,-0.13264773786067963,-0.1617787629365921,0.18334762752056122,-0.0769774317741394,0.162627711892128,-0.3748333752155304,-0.07414279878139496,-0.36414065957069397,0.31481456756591797,0.0932326689362526,0.24715937674045563,-0.1849297732114792,0.4025484025478363,0.20383122563362122,-0.46034082770347595,-0.38868993520736694,-0.002618751721456647,-0.7046710848808289,0.16686704754829407,0.16036108136177063,-0.04340922459959984,0.10406862944364548,-0.22088971734046936,0.23140215873718262,-0.13156461715698242,0.5474365949630737,-0.16433383524417877,0.10362845659255981,-0.03145322948694229,0.032462846487760544,-0.0616937130689621,0.04298761114478111,0.041257865726947784,-0.017463089898228645,0.15869709849357605,0.2771774232387543,-0.06466113775968552,0.1551581174135208,-0.09775157272815704,0.15538820624351501,0.08563392609357834,-0.1528528481721878,0.02668909914791584,-0.014570934697985649,-0.11993953585624695,-0.1942632645368576,-0.17536485195159912,-0.017923729494214058,0.05370616540312767,-0.11187654733657837,-0.0028967787511646748,-0.1901579648256302,-0.2211218625307083,0.18538513779640198,0.2131129801273346,0.1109551191329956,-0.03313484787940979,-0.04724167659878731,0.08286350220441818,0.07580408453941345,-0.19742275774478912,0.3952239453792572,-0.09493283927440643,0.19013985991477966,0.23468206822872162,-0.04480772837996483,-0.21474941074848175,-0.08677999675273895,0.36813056468963623,-0.09228447824716568,0.030509434640407562,0.18392805755138397,0.46615350246429443,0.13737399876117706,-0.051514770835638046,0.10065194964408875,-0.0752180814743042,-0.09689280390739441,0.11415999382734299,-0.004579927772283554,-0.1744711548089981,-0.11905357241630554,-0.2734938859939575,0.08303836733102798,-0.009649494662880898,-0.1677132546901703,0.03013283759355545,0.2601932883262634,0.3602050244808197,0.11432808637619019,-0.16721384227275848,0.0134733272716403,0.055907439440488815,0.03483172878623009,0.1014198511838913,-0.06783462315797806,-0.09702975302934647,-0.0357748344540596,0.1440984010696411,0.13173744082450867,-0.08210032433271408,-0.2575247883796692,-0.16370941698551178,0.020189424976706505,0.02722814865410328,0.001602300675585866,-0.04142187163233757,-0.021866919472813606,-0.037792548537254333,0.14424845576286316,0.26422151923179626,0.14056091010570526,-0.10203053057193756,-0.009273326024413109,0.07536347210407257,0.09698650240898132,0.030337586998939514,0.00186062790453434,0.08277876675128937,0.14111652970314026,0.3468630611896515,0.16632582247257233,-0.008637971244752407,-0.12614032626152039,-0.14002731442451477,-0.03586774319410324,0.11811364442110062,0.021740874275565147,0.11737621575593948,0.046944014728069305,-0.18972980976104736,0.02836798131465912,-0.08237382769584656,0.10114717483520508,0.032925255596637726,-0.08720934391021729,-0.1898805797100067,-0.2925243675708771,-0.056619975715875626,0.09898177534341812,-0.10662972182035446,0.09477658569812775,0.07401979714632034,0.05922606959939003,0.17973755300045013,0.14572162926197052,-0.14588148891925812,-0.17256879806518555,-0.07767800986766815,0.2420923262834549,0.014248151332139969,0.23717100918293,-0.16738241910934448,-0.08565843850374222,0.06201118603348732,-0.05696587264537811,-0.16038191318511963,-0.05884251743555069,-0.17408819496631622,-0.16143473982810974,-0.18030546605587006,0.1778416782617569,-0.168418288230896,-0.11979968100786209,0.11182218790054321,-0.04660482704639435,0.0668971836566925,-0.1092207133769989,0.15564528107643127,-0.12269686907529831,-0.07824209332466125,-0.005858874414116144,0.07248875498771667,-0.15446831285953522,0.24026982486248016,0.24374184012413025,0.29883113503456116,-0.5441115498542786,-0.004778178408741951,-0.2747207283973694,-0.08451475948095322,0.03138284385204315,0.1345311999320984,-0.013401868753135204,-0.09056311100721359,-0.026857951655983925,0.27286145091056824,0.20271743834018707,0.23200444877147675,-0.06676215678453445,0.0043190536089241505,0.1550820916891098,-0.09496915340423584,-0.013154681771993637,-0.06353690475225449,-0.000741001102142036,0.09709596633911133,-0.1221930980682373,-0.009588029235601425,0.05849161744117737,-0.127690389752388,0.17445780336856842,0.006492899265140295,0.059187598526477814,-0.16914008557796478,-0.19358401000499725,-0.07150547206401825,-0.17773160338401794,0.12672923505306244,0.10515522211790085,-0.26772719621658325,-0.010111839510500431,0.027908360585570335,0.3844442367553711,-0.0293973907828331,-0.059498999267816544,-0.21532578766345978,-0.267457515001297,-0.04960278049111366,-0.11577527970075607,-0.12901414930820465,0.11230127513408661,0.16845545172691345,-0.025527188554406166,0.21616974472999573,-0.054170411080121994,-0.18298043310642242,-0.0025035433936864138,-0.0011665716301649809,0.1736263632774353,0.20035022497177124,0.15628311038017273,-0.169156014919281,-0.17108657956123352,0.05618266388773918,0.06779616326093674,-0.10121621191501617,0.0847005546092987,-0.21918195486068726,0.13418634235858917,0.10270459949970245,-0.09571234881877899,-0.0222313329577446,-0.034538157284259796,-0.16861096024513245,0.03455069288611412,0.10273651778697968,0.17855970561504364,-0.0033063427545130253,0.09505242854356766,0.025187266990542412,0.031127871945500374,0.14913494884967804,0.13312382996082306,-0.2226947396993637,-0.28136563301086426,-0.1907004714012146,-0.0421343594789505,-0.014449589885771275,0.07023085653781891,0.2460714876651764,0.2446557730436325,0.16948829591274261,-0.17386287450790405,0.23039303719997406,0.0375654362142086,0.19211159646511078,-0.2279158979654312,-0.1558828353881836,-0.1953352689743042,0.21206824481487274,0.10892972350120544,0.24285739660263062,0.018022570759058,0.34384119510650635,0.23785148561000824,-0.13184118270874023,-0.05432085320353508,-0.043453652411699295,0.3643447458744049,0.3152311146259308,-0.18180711567401886,0.06268955022096634,0.061291661113500595,-0.17887115478515625,-0.12107428908348083,-0.07412051409482956,-0.009498652070760727,0.15933945775032043,-0.09757325053215027,-0.1825743466615677,-0.09448610991239548,-0.18174371123313904,0.2847426235675812,0.21949976682662964,-0.008940892294049263,-0.13144253194332123,0.016985604539513588,0.09193088859319687,0.05723104253411293,0.021686257794499397,0.5460809469223022,-0.1916775405406952,-0.0438573956489563,-0.07199103385210037,0.06686849892139435,-0.12623266875743866,-0.15681104362010956,0.17017190158367157,0.16850732266902924,0.4527687132358551,-0.20507380366325378,0.09637866914272308,-0.2908945083618164,-0.2706432640552521,0.04254614934325218,-0.03389369696378708,0.02528388984501362,-0.020129099488258362,0.2489507645368576,0.17641033232212067,0.039727583527565,0.010006200522184372,0.10656939446926117,0.07114503532648087,0.030428802594542503,0.01685159094631672,0.047209013253450394,-0.17557841539382935,-0.10428082942962646,0.09818925708532333,0.11770045757293701,0.12248662114143372,0.20583921670913696,0.3892226219177246,-0.10201580077409744,0.043249983340501785,0.1458212286233902,0.01191958412528038,0.07220888882875443,0.0843491405248642,-0.010531584732234478,-0.08571109920740128,0.004324533045291901,0.11599906533956528,0.14925667643547058,0.11370182037353516,0.1482871025800705,-0.0027420001570135355,-0.3780202269554138,0.056130144745111465,-0.07682478427886963,0.07377814501523972,-0.03130413219332695,0.040660567581653595,-0.27808433771133423,-0.23582318425178528,0.07376226782798767,-0.06281793117523193,-0.14065632224082947,-0.17034175992012024,-0.06284594535827637,-0.23672205209732056,0.099936343729496,-0.08993968367576599,0.14478032290935516,0.155645951628685,-0.24371649324893951,0.22877739369869232,-0.013760760426521301,-0.35099467635154724,-0.062192320823669434,-0.13267147541046143,-0.06350207328796387,0.02198745682835579,-0.010629783384501934,-0.09372836351394653,-0.1971176564693451,-0.228788360953331,0.0639038234949112,-0.11579684168100357,0.1922513246536255,-0.04528911039233208,0.23183679580688477,0.0901067852973938,0.04280328005552292,-0.11907410621643066,-0.06423859298229218,-0.09325386583805084,-0.08113831281661987,-0.2664584219455719,0.19201794266700745,-0.1699395775794983,0.07015188783407211,-0.2493336945772171,-0.011180239729583263,-0.10796763002872467,0.18482978641986847,-0.17479322850704193,0.20976459980010986,-0.3855523467063904,0.049322664737701416,0.003931940998882055,-0.2635074257850647,0.14460612833499908,-0.23687979578971863,-0.10966648906469345,-0.027645230293273926,0.12083949893712997,-0.3117082118988037,-0.1643490195274353,-0.03905661031603813,-0.08561871945858002,0.1399078220129013,-0.14407922327518463,-0.16933785378932953,-0.4232921600341797,0.11317997425794601,0.3614782392978668,-0.5335171222686768,-0.0227284487336874,-0.04530133306980133,-0.11533018201589584,0.18385401368141174,0.16369271278381348,0.15668635070323944,-0.0009933235123753548,-0.09434579312801361,0.27965041995048523,-0.03602610155940056,0.27147769927978516,-0.17468419671058655,0.0817568227648735,-0.04742313548922539,0.14082694053649902,0.10402972996234894,-0.028468558564782143,-0.07248435914516449,-0.1916479617357254,-0.15679770708084106,0.18520192801952362,0.06319426745176315,0.09087450057268143,-0.15333884954452515,-0.031138107180595398,-0.15191063284873962,-0.04040376469492912,-0.037149958312511444,0.24886737763881683,-0.33885738253593445,0.12967728078365326,0.11962368339300156,-0.13775737583637238,0.14246168732643127,0.04691227898001671,-0.0646558329463005,-0.09123166650533676,-0.05628487467765808,-0.019775941967964172,0.08171837031841278,-0.01404917798936367,-0.026040775701403618,-0.0011708212550729513,-0.13983085751533508,-0.21055378019809723,0.2045900821685791,0.08825439214706421,0.07566504180431366,-0.03660326823592186,-0.0804227665066719,0.1264752894639969,-0.08432190120220184,0.308819442987442,0.12807787954807281,-0.027029095217585564,-0.01771070621907711,-0.05955227464437485,0.11429332196712494,-0.0005169075448065996,0.012714680284261703,-0.03940970078110695,0.1313551813364029,-0.016311684623360634,0.12059921026229858,-0.05277228355407715,-0.010914194397628307,-0.09214674681425095,-0.0779581069946289,0.07767010480165482,0.05181816220283508,0.008288798853754997,-0.0991021990776062,0.07426443696022034,0.22433476150035858,0.15062223374843597,-0.0893126130104065,0.27769988775253296,-0.07826931029558182,0.23615001142024994,0.11124289780855179,-0.12303894758224487,-0.21664902567863464,-0.05842955783009529,0.10218825191259384,-0.1601993590593338,-0.038899000734090805,0.015603691339492798,0.16143210232257843,0.1969185471534729,0.15502704679965973,0.12418191134929657,-0.2961072325706482,-0.26860252022743225,0.10017816722393036,-0.110386423766613,0.0645814910531044,-0.05813507363200188,-0.29815736413002014,-0.1363149732351303,-1.0799161195755005,-0.8485120534896851,0.9228807687759399,-0.22614938020706177,0.3059854805469513,-0.024068284779787064,-0.013772035017609596,-0.06204682216048241,-0.23389078676700592,-0.18875683844089508,0.23784483969211578,0.331913024187088,0.18002566695213318,-0.5199227333068848,-0.43103349208831787,-0.12882894277572632,0.30868691205978394,0.257445752620697,-0.1021408811211586,-0.2206147313117981,-0.0645257756114006,-0.3530445396900177,-0.6096282005310059,0.08571050316095352,0.2789432406425476,-0.5609645843505859,-0.03299780935049057,0.19676199555397034,-0.2589261531829834,-0.1662178933620453,-0.1553720384836197,-0.23701460659503937,0.46240413188934326,-0.1112065240740776,0.006133893970400095,0.11290854215621948,-0.03791778162121773,0.11288449913263321,0.11551117151975632,0.019721871241927147,-0.05293286591768265,0.2553805410861969,-0.18308603763580322,0.03124065510928631,0.21781693398952484,-0.11238374561071396,0.15158168971538544,0.2233523428440094,0.2726072072982788,0.16047431528568268,-0.00995868444442749,0.22148875892162323,0.06605786830186844,-0.13877740502357483,-0.03577835485339165,-0.22561272978782654,0.0913534015417099,0.08207061886787415,0.015997642651200294,-0.011453825980424881,-0.16230595111846924,-0.13012416660785675,0.05073975771665573,0.017064275220036507,0.05357403680682182,-0.13177084922790527,-0.017691610381007195,-0.1330338418483734,0.1833261400461197,0.14344356954097748,0.485089510679245,0.04634474962949753,-0.09760428220033646,0.010087838396430016,-0.10601780563592911,0.0005050183390267193,0.19140423834323883,0.1340571492910385,0.06751039624214172,0.06590244174003601,0.010654588229954243,0.12825699150562286,-0.1909162849187851,0.03455324470996857,0.0726551041007042,0.14387817680835724,0.06591092795133591,-0.3473226726055145,0.07369807362556458,-0.00006372898496920243,-0.05992002412676811,-0.14215612411499023,0.017954235896468163,0.07743459939956665,-0.006545712240040302,0.09899275004863739,-0.05744781345129013,0.04931110888719559,-0.06790235638618469,-0.17347769439220428,-0.2099715769290924,-0.5085626840591431,0.8914337158203125,0.6590197086334229,-0.6509137153625488,0.22106420993804932,0.027376238256692886,-0.07006511092185974,0.4456053078174591,-0.9756950736045837,1.3407633304595947,0.8474822044372559,0.08840949833393097,-0.4645248353481293,0.281534343957901,-1.0661747455596924,0.30203086137771606,-0.4555485248565674,-0.2580859363079071,-0.4366138279438019,0.25136715173721313,0.0004488507693167776,0.2264547049999237,0.2049199938774109,0.19025205075740814,0.33720093965530396,-0.0793122798204422,-0.16530480980873108,-0.2691830098628998,-0.06553158909082413,-0.1354379653930664,-0.08650491386651993,0.1847187727689743,0.07277553528547287,0.03994046151638031,0.31390222907066345,0.20014463365077972,0.3966328501701355,-0.14529989659786224,-0.2580544352531433,0.05424811318516731,-0.1321941763162613,0.10540232062339783,0.022642385214567184,0.12981519103050232,0.0947805717587471,0.29829731583595276,-0.042150117456912994,-0.04308496415615082,0.015027244575321674,0.037226270884275436,-0.05291299894452095,0.2084500640630722,-0.39346951246261597,0.02185596153140068,-0.14102669060230255,-0.12221185863018036,-0.1469067931175232,-0.049563437700271606,0.04545065015554428,0.20537696778774261,-0.18290823698043823,-0.11835339665412903,0.16858021914958954,0.194865420460701,-0.11009988188743591,0.15107588469982147,-0.00006922941975062713,-0.2408726066350937,0.06223117932677269,-0.21818897128105164,0.09690811485052109,0.07533828914165497,-0.09628241509199142,0.02518909052014351,0.29441115260124207,0.11822118610143661,0.1009817123413086,0.07873951643705368,-0.09170900285243988,-0.042115338146686554,-0.08159246295690536,0.21663512289524078,-0.2908833622932434,0.24824552237987518,0.01011483184993267,0.06898291409015656,-0.2481803148984909,0.18803691864013672,-0.07761814445257187,-0.2029416859149933,0.2190481722354889,-0.17026002705097198,-0.15257370471954346,-0.08182644098997116,-0.08398576825857162,-0.09792326390743256,0.0021809558384120464,0.14809191226959229,-0.11957915872335434,0.001944184536114335,0.051557544618844986,0.24666748940944672,-0.1321728378534317,-0.3384021520614624,-0.2510163187980652,0.18447178602218628,0.4575289487838745,-0.09256558120250702,0.3000524342060089,0.22088700532913208,-0.0134748425334692,0.09908642619848251,0.024136580526828766,-0.1781366616487503,0.03323441743850708,0.24163101613521576,-0.20420944690704346,0.037366852164268494,0.12126176804304123,-0.08893221616744995,0.13767419755458832,0.08565215766429901,-0.029750797897577286,0.19802948832511902,0.02787001058459282,0.06912071257829666,0.3347122371196747,0.03260189667344093,0.3622061312198639,0.00833550188690424,-0.005825638305395842,0.18624430894851685,0.014427090995013714,-0.1187041625380516,-0.04872339218854904,0.007691377308219671,0.04409520700573921,0.09729347378015518,0.2549518942832947,0.029648886993527412,0.21271167695522308,-0.07022488862276077,-0.08504290133714676,-0.053625427186489105,0.323111355304718,-0.13459303975105286,0.15710300207138062,0.17313310503959656,0.15280809998512268,-0.20502969622612,-0.10546713322401047,-0.11091967672109604,0.12182989716529846,-0.0038617399986833334,0.07788004726171494,-0.08901689201593399,-0.15954792499542236,0.00269723660312593,0.1065240427851677,0.27061232924461365,-0.23524217307567596,-0.2759177088737488,0.29894015192985535,0.11304841935634613,-0.0076685682870447636,-0.02309284172952175,-0.04808291047811508,-0.11226561665534973,0.0696532130241394,0.09239199757575989,-0.27383872866630554,0.11903681606054306,-0.04560165852308273,0.05597108602523804,-0.2471117526292801,0.34682899713516235,-0.2730556130409241,-0.31701332330703735,-0.22969047725200653,0.18366998434066772,-0.17501159012317657,0.12115141749382019,0.06979267299175262,0.36969247460365295,0.1725786328315735,-0.5534538626670837,-0.324052631855011,-0.2035309076309204,-0.33777233958244324,0.10879381000995636,0.525005578994751,-0.023594357073307037,0.43719127774238586,0.5216755270957947,0.2317308783531189,-0.2457931935787201,-0.22011232376098633,0.17523439228534698,0.03939394652843475,-0.21739768981933594,-0.2438562959432602,-0.2755374014377594,0.4312085807323456,0.0628381073474884,-0.17488041520118713,-0.08955937623977661,0.18437394499778748,-0.5514883995056152,0.08447354286909103,0.4178007245063782,0.09906928241252899,-0.20366376638412476,0.08759509772062302,-0.38586753606796265,-0.4697495102882385,-0.17989513278007507,-0.19405575096607208,0.09702426195144653,0.2861078381538391,0.13570712506771088,0.31078386306762695,0.08945657312870026,-0.06342185288667679,-0.298421710729599,0.2855968475341797,-0.014505850151181221,-0.22994506359100342,-0.01624503917992115,-0.08464609086513519,0.00410418538376689,-0.2769923508167267,-0.15531326830387115,0.03391949087381363,0.06770089268684387,-0.17272157967090607,0.16356885433197021,0.3348251283168793,-0.08690895140171051,0.17577555775642395,-0.0773768201470375,0.26666268706321716,0.021599337458610535,0.14024049043655396,0.08683516085147858,0.009706543758511543,-0.06955022364854813,-0.052464477717876434,0.1895255595445633,-0.009945277124643326,0.0802900493144989,0.31119129061698914,-0.11216487735509872,-0.004745696671307087,-0.14970439672470093,-0.027718249708414078,-0.08295422792434692,0.11266151070594788,0.16475114226341248,-0.2825682759284973,-0.19663098454475403,0.31466734409332275,-0.07110060751438141,-0.2949458360671997,0.020019764080643654,0.09821873903274536,0.22134383022785187,0.42728322744369507,0.09041296690702438,-0.13607896864414215,-0.16875562071800232,0.05410923436284065,-0.09301558881998062,0.23039624094963074,0.15097755193710327,0.1629859358072281,-0.22288033366203308,0.14558976888656616,0.1268979161977768,-0.01082406472414732,0.015467229299247265,-0.2533704340457916,-0.001908167963847518,0.3016684949398041,0.40178927779197693,0.22412271797657013,0.08148245513439178,-0.09387718886137009,0.015415692701935768,-0.17431801557540894,-0.06358182430267334,-0.22833876311779022,-0.0006331605836749077,-0.06589255481958389,-0.11406102776527405,0.07751107960939407,-0.3241848051548004,-0.020196788012981415,0.13937926292419434,-0.028990579769015312,-0.2437467724084854,-0.49592113494873047,0.26158979535102844,0.03948008269071579,-0.0862722098827362,0.3278382122516632,0.12095478177070618,0.06053712218999863,-0.15559618175029755,-0.1697964072227478,0.021482545882463455,0.2239367812871933,0.04747616499662399,-0.02454761043190956,-0.31484702229499817,-0.15137240290641785,-0.020997848361730576,0.1450110673904419,-0.33685925602912903,-0.2268194556236267,-0.061719104647636414,0.12190981209278107,0.138272225856781,0.0018278069328516722,-0.08628084510564804,-0.04268012195825577,-0.1517203152179718,0.1071801632642746,0.01600346341729164,-0.3116910755634308,-0.18236085772514343,-0.07695183902978897,-0.045280784368515015,-0.04479677602648735,-0.20931923389434814,-0.11015331000089645,0.03899826109409332,0.050223954021930695,-0.318437784910202,0.2689547836780548,-0.13507743179798126,-0.10610157996416092,0.10171662271022797,0.23014158010482788,-0.015137016773223877,-0.004321740940213203,0.15155771374702454,-0.07748376578092575,-0.120850570499897,-0.05132152885198593,-0.32436636090278625,-0.09668803960084915,-0.4391500949859619,-0.04151540994644165,-0.12961046397686005,0.2606920599937439,-0.2656312584877014,-0.15755735337734222,-0.2706066370010376,-0.06768243759870529,0.16435612738132477,0.29924923181533813,-0.2995469272136688,-0.10053721070289612,0.004165469203144312,0.44581732153892517,0.036186423152685165,0.39498916268348694,-0.27832290530204773,0.10410767793655396,0.16033834218978882,-0.20267923176288605,0.006403938867151737,-0.0029258851427584887,-0.15261299908161163,-0.09996502846479416,0.2150419056415558,-0.5095058083534241,-0.11598818004131317,0.17984451353549957,0.039774999022483826,0.10125160217285156,-0.04963327571749687,-0.28078100085258484,-0.07878002524375916,-0.11219007521867752,0.14304950833320618,0.2724291682243347,-0.06252162903547287,-0.316752165555954,-0.1516365110874176,-0.011831416748464108,0.06142811104655266,-0.05878913775086403,0.08131392300128937,-0.1832515299320221,0.03299836814403534,-0.04545368626713753,0.04647505655884743,-0.21018213033676147,-0.15978755056858063,0.10313749313354492,0.06109529733657837,0.29285261034965515,-0.10528409481048584,0.028684917837381363,-0.05629464611411095,0.18287205696105957,0.03770090267062187,0.12308866530656815,-0.09895847737789154,0.0143640898168087,-0.08450155705213547,0.17540402710437775,0.0003554978175088763,0.19552427530288696,-0.05848577991127968,-0.06433328986167908,-0.03707171976566315,-0.12521789968013763,-0.014868595637381077,-0.020323479548096657,-0.30373120307922363,0.007075769826769829,0.09627863019704819,-0.13040561974048615,0.03795903921127319,-0.11329538375139236,-0.0889105275273323,0.06973053514957428,-0.2585684359073639,-0.10608332604169846,0.12637586891651154,0.1244349554181099,-0.02661672607064247,0.024255827069282532,0.014313623309135437,-0.04151449352502823,0.05083257704973221,0.08542819321155548,-0.2565038204193115,0.09939642250537872,0.07339087873697281,-0.18889111280441284,0.03725545108318329,0.030659038573503494,-0.0866577997803688,-0.18491852283477783,-0.2726166844367981,0.1596790850162506,0.039767470210790634,0.022380415350198746,-0.15010681748390198,-0.057209618389606476,-0.10335321724414825,0.17986324429512024,0.1356872320175171,-0.07743925601243973,-0.4042797088623047,-0.2866731882095337,-0.05822942405939102,0.373907208442688,0.008058478124439716,0.28747451305389404,-0.19716662168502808,0.14321941137313843,0.2869371473789215,-0.009849040769040585,0.02592477761209011,0.0772915706038475,-0.3434019386768341,0.12318240106105804,0.14840923249721527,-0.3944254517555237,-0.13425786793231964,-0.018673906102776527,-0.09856536239385605,0.17284786701202393,-0.06115845590829849,-0.21012051403522491,0.12443901598453522,0.07718241214752197,0.09764312207698822,0.3078819513320923,-0.21118991076946259,-0.1309777945280075,-0.14920659363269806,0.4256766438484192,0.04905484989285469,0.032337114214897156,-0.23747844994068146,-0.09740612655878067,-0.029109934344887733,-0.004513363819569349,-0.08150728791952133,-0.27546098828315735,-0.03820126876235008,0.1627480834722519,-0.10185712575912476,-0.044242799282073975,0.04837817698717117,0.0743936076760292,0.10595603287220001,-0.014383990317583084,-0.015167057514190674,0.14091356098651886,-0.2076898068189621,-0.25359928607940674,-0.0622677318751812,0.11119803041219711,0.08159936964511871,0.24835306406021118,0.14536145329475403,-0.23554299771785736,0.01941298320889473,-0.26247379183769226,0.0665208250284195,-0.060093190521001816,-0.17858485877513885,-0.0016155719058588147,-0.0033162888139486313,-0.1342218816280365,-0.023790795356035233,0.27734947204589844,0.09297946840524673,0.26631754636764526,-0.11831467598676682,-0.2339937388896942,-0.06257770210504532,-0.004286086652427912,-0.19581960141658783,0.17472296953201294,-0.12893259525299072,0.19803892076015472,-0.34331920742988586,-0.047332514077425,0.010901223868131638,0.04441189393401146,-0.019345231354236603,-0.04392310604453087,0.20670515298843384,0.026288142427802086,-0.005480913911014795,-0.06084092706441879,0.032435204833745956,-0.035960666835308075,0.09536965191364288,-0.03131241723895073,0.16269470751285553,-0.08127907663583755,-0.07691143453121185,-0.15363745391368866,-0.12041997164487839,-0.06099027022719383,0.026277586817741394,0.042055629193782806,0.046033136546611786,-0.20484989881515503,0.009594040922820568,-0.14880841970443726,-0.16367314755916595,-0.06946974992752075,-0.19178584218025208,0.21782924234867096,-0.18417812883853912,-0.08371073007583618,0.010366315022110939,-0.08860789239406586,-0.06376445293426514,-0.009267025627195835,0.10920250415802002,0.25678643584251404,-0.025971274822950363,-0.05717058852314949,0.4540444612503052,0.4388459324836731,0.1221323236823082,0.24543052911758423,-0.0011502401903271675,-0.08344829082489014,-0.18275877833366394,-0.13809898495674133,-0.2768213748931885,0.08670353144407272,0.2217254340648651,-0.11423173546791077,-0.22017832100391388,-0.217002734541893,-0.23417554795742035,-0.1720801591873169,-0.04888102784752846,0.011904938146471977,-0.11338113248348236,0.13940750062465668,-0.15659716725349426,-0.11748264729976654,-0.1529638171195984,0.22679981589317322,0.07042058557271957,0.03716469556093216,-0.021597405895590782,0.026130320504307747,-0.045498404651880264,-0.0281129851937294,-0.07150404900312424,-0.06985185295343399,0.07901066541671753,0.2347923368215561,0.19666075706481934,0.08982851356267929,-0.017581379041075706,0.05988117307424545,0.2182786464691162,-0.037208955734968185,-0.03927939385175705,0.031016269698739052,0.2191818654537201,0.04182512313127518,0.031274955719709396,0.02869723178446293,-0.047584451735019684,-0.0972030907869339,-0.08151774108409882,-0.5074950456619263,0.03082549385726452,-0.12771070003509521,-0.06204160675406456,-0.27060630917549133,-0.1134185716509819,0.014331374317407608,-0.2756305932998657,-0.08670863509178162,-0.012207464314997196,-0.07059750705957413,0.0971435010433197,-0.08388736844062805,-0.13354314863681793,0.004743931815028191,0.2732945382595062,-0.1171354353427887,-0.16915112733840942,0.0687541514635086,-0.022686339914798737,-0.15166164934635162,0.1090325191617012,-0.1356094926595688,0.014388547278940678,-0.009471194818615913,0.11517801135778427,0.031499091535806656,-0.04911891743540764,-0.2168935239315033,-0.1812121868133545,0.09458863735198975,-0.3342497944831848,-0.04494396597146988,-0.10529683530330658,-0.008580334484577179,0.04735131189227104,0.10654041916131973,0.07762721925973892,0.03260735422372818,-0.028852814808487892,0.11996763944625854,-0.0935528352856636,-0.06633389741182327,0.17525362968444824,-0.017345480620861053,0.14320965111255646,0.07861360907554626,-0.15184278786182404,-0.1923505812883377,-0.10591582208871841,0.12189032137393951,0.20726077258586884,-0.01589365489780903,0.19451434910297394,0.06899019330739975,0.05934731662273407,-0.05465354397892952,-0.10968157649040222,-0.03191036358475685,0.04880381375551224,-0.10467202216386795,-0.10644350945949554,-0.18118230998516083,0.22287103533744812,-0.1643029749393463,-0.10136046260595322,0.0526161715388298,-0.012966347858309746,0.08063572645187378,-0.05153854563832283,-0.10109808295965195,-0.1577109843492508,-0.05279197171330452,0.07009202241897583,0.15241602063179016,-0.17466039955615997,-0.03451535850763321,0.06562460958957672,0.0065026856027543545,0.033452361822128296,0.018380524590611458,0.0036880800034850836,0.15451665222644806,0.19295506179332733,-0.17854848504066467,0.25123417377471924,-0.03331863880157471,-0.2528255581855774,-0.046019457280635834,0.12110898643732071,-0.12692692875862122,0.019391465932130814,0.005440322682261467,0.0770074650645256,-0.006803228985518217,-0.3348144590854645,0.14653342962265015,-0.11643623560667038,0.1263173669576645,-0.020268287509679794,0.16472230851650238,-0.16379784047603607,0.11814692616462708,0.3237122595310211,0.09581349790096283,0.013505288399755955,-0.11761589348316193,-0.20531724393367767,-0.10963322222232819,-0.15351815521717072,-0.06386251747608185,-0.0005897271330468357,-0.19721688330173492,-0.05512186884880066,-0.07988926768302917,0.17840078473091125,0.12168919295072556,0.1122589111328125,0.0440395325422287,0.07380934804677963,0.06347418576478958,0.05180491507053375,0.07542642205953598,-0.12481839954853058,-0.3201790750026703,-0.05864835903048515,0.07598055899143219,-0.053866684436798096,0.13439004123210907,-0.06271447241306305,-0.22580675780773163,-0.21173521876335144,-0.25263410806655884,0.1989239603281021,-0.106044702231884,-0.15468013286590576,-0.015691524371504784,0.09950234740972519,-0.2362852841615677,0.08088567852973938,0.17712737619876862,0.036554478108882904,0.14110518991947174,-0.1321934312582016,-0.016493989154696465,-0.044673334807157516,-0.018857382237911224,0.11558862030506134,-0.018788259476423264,-0.1004011258482933,0.1793547123670578,0.06446123868227005,-0.1011110320687294,-0.006818228401243687,0.032556258141994476,-0.07820994406938553,-0.20216616988182068,-0.200177401304245,-0.07235140353441238,-0.05414337292313576,0.006256640888750553,-0.010958143509924412,0.020486794412136078,0.21209505200386047,0.06332956254482269,-0.053107041865587234,-0.08748738467693329,0.04662230983376503,0.00715220719575882,0.09037178009748459,0.030623281374573708,0.050712890923023224,-0.2042667120695114,0.05258679762482643,0.1407090723514557,-0.021196193993091583,0.0459422692656517,-0.012599390000104904,-0.1297803670167923,-0.001014764653518796,-0.43030157685279846,0.21589574217796326,-0.15524834394454956,-0.0140937939286232,0.12747274339199066,-0.09720953553915024,-0.031333670020103455,0.010497906245291233,0.09229886531829834,0.16685587167739868,0.014090530574321747,0.2803312838077545,0.10592514276504517,-0.17090806365013123,-0.21059401333332062,0.4626339375972748,-0.014218206517398357,0.13604357838630676,-0.42153865098953247,-0.021942108869552612,-0.1362324208021164,0.1845463365316391,-0.07470544427633286,-0.0807214304804802,-0.11856869608163834,-0.041356127709150314,-0.18319669365882874,0.35499706864356995,0.032159432768821716,-0.08700724691152573,-0.2396634817123413,-0.06417644768953323,-0.15407782793045044,-0.00664863595739007,0.07044923305511475,0.04039664939045906,0.18175382912158966,-0.12654326856136322,-0.10388688743114471,-0.03620954975485802,-0.08232352882623672,0.15273945033550262,0.06646710634231567,0.1040901243686676,-0.33617979288101196,0.36310911178588867,-0.029090849682688713,-0.06891828030347824,0.3491276204586029,0.04056435078382492,0.18874257802963257,-0.3263356685638428,0.12786251306533813,-0.10452716052532196,0.12033701688051224,-0.10161853581666946,-0.05489141866564751,0.21844319999217987,-0.0411541573703289,-0.28512081503868103,0.4148920476436615,0.1606154590845108,0.1914529651403427,-0.3162234127521515,0.09591668844223022,-0.019147690385580063,0.2637733817100525,-0.10915955901145935,-0.17739936709403992,0.1509874165058136,-0.267269104719162,-0.17420794069766998,-0.19312253594398499,-0.1158505380153656,-0.12172546982765198,0.004848571494221687,0.1903807669878006,0.038825444877147675,-0.061084017157554626,-0.014807083643972874,0.0002671712136361748,0.07622396945953369,0.2034192681312561,0.09183694422245026,0.07454360276460648,-0.21854323148727417,0.011533728800714016,-0.059299036860466,-0.06373149156570435,0.08214430510997772,-0.21271677315235138,0.03574223816394806,-0.06558138132095337,0.017315668985247612,-0.019686507061123848,-0.13796788454055786,0.4967910051345825,-0.11330746859312057,-0.036769330501556396,0.1377839893102646,0.07289346307516098,0.06398625671863556,0.20491072535514832,0.37061676383018494,0.14632512629032135,0.04906737804412842,0.20268487930297852,0.12262897193431854,0.14626522362232208,-0.06906139105558395,-0.04229298233985901,0.23289430141448975,0.24391436576843262,0.3589387536048889,0.012864072807133198,-0.28831833600997925,0.1302594244480133,0.02984006702899933,0.11784180998802185,0.07272753119468689,-0.00776622723788023,-0.08659492433071136,-0.22313432395458221,0.006361589301377535,0.03612028807401657,0.07836610823869705,0.1312728077173233,-0.030982522293925285,0.3592100143432617,0.3912848234176636,-0.10236333310604095,0.07384534180164337,0.03767034411430359,0.0003116581356152892,0.05218284949660301,-0.06100630760192871,-0.06339066475629807,-0.13596469163894653,0.15780717134475708,-0.04503880441188812,0.043455593287944794,0.096491239964962,-0.019683532416820526,-0.16492243111133575,-0.7411410808563232,0.22405320405960083,0.0908341333270073,-0.16377386450767517,0.008138354867696762,-0.08597345650196075,-0.06450600922107697,-0.20762793719768524,-0.1841205209493637,0.1910930573940277,0.18885812163352966,-0.015476038679480553,-0.08644990622997284,-0.03980445861816406,-0.10831707715988159,-0.03612595051527023,-0.18253855407238007,-0.05857367068529129,0.13425005972385406,-0.031024787575006485,0.07426594942808151,-0.036188092082738876,-0.09822653234004974,0.026555506512522697,0.2895126938819885,0.01507799606770277,-0.1478705108165741,-0.3062707483768463,0.19705361127853394,-0.06003401055932045,-0.1329866349697113,0.04494393989443779,-0.3060561418533325,0.040975917130708694,-0.031139129772782326,0.0696362778544426,-0.05206327885389328,-0.1148223876953125,0.04397742822766304,0.26825395226478577,0.09082385897636414,0.13439714908599854,-0.07511495053768158,0.05818285420536995,-0.3068598806858063,-0.14504072070121765,0.0770418792963028,-0.05112829431891441,0.00026845952379517257,-0.2785315215587616,0.058757878839969635,0.13215814530849457,-0.1391313225030899,0.07236920297145844,0.06860733032226562,-0.10691019892692566,0.1960759311914444,-0.16575251519680023,-0.14940838515758514,0.24704456329345703,0.20459933578968048,0.07103175669908524,0.1733623743057251,0.06904943287372589,-0.1258351355791092,0.04384632781147957,0.16626255214214325,-0.36653000116348267,0.13970094919204712,0.12304617464542389,0.18770426511764526,0.057989466935396194,0.012195649556815624,0.1609821915626526,0.1018519327044487,0.04113341122865677,-0.14002078771591187,-0.11880798637866974,0.1054038256406784,0.0013005638029426336,0.08162356913089752,0.0820217877626419,-0.1727025806903839,0.012715368531644344,-0.11846062541007996,0.08933385461568832,-0.08115653693675995,-0.06153586879372597,-0.07317338138818741,-0.029589321464300156,0.1164475828409195,-0.10237651318311691,0.38289645314216614,0.19449535012245178,0.029451590031385422,0.11059103906154633,-0.21910588443279266,-0.1902967244386673,-0.12178263813257217,-0.002651015529409051,-0.09675589948892593,0.04260242357850075,0.037721578031778336,0.2876935303211212,0.1671256124973297,-0.24585288763046265,-0.03975586220622063,-0.34140971302986145,-0.5255616903305054,0.00919382181018591,-0.18630272150039673,0.09439671039581299,-0.16231423616409302,0.11713230609893799,0.04490150511264801,-0.008817890658974648,-0.07580454647541046,0.053969331085681915,0.09595140069723129,-0.007627827115356922,-0.14358212053775787,0.0749560222029686,0.01340299192816019,-0.02735762670636177,0.013651893474161625,0.568867564201355,0.14439883828163147,0.30047962069511414,-1.1582958698272705,-1.201629638671875,0.018612153828144073,-0.6076128482818604,-0.6609079241752625,0.30563321709632874,0.08720910549163818,-1.2764101028442383,0.6317007541656494,-0.16825345158576965,-0.5110742449760437,0.47717422246932983,-0.9043412804603577,-0.1401965618133545,-0.3399495780467987,0.15924032032489777,-0.24635978043079376,0.07520096749067307,0.3669849932193756,-0.010804756544530392,-0.20841389894485474,-0.4151335656642914,-0.03259555250406265,-0.2827438712120056,-0.1374092996120453,0.14594580233097076,-0.1894693225622177,0.2304214984178543,0.10426090657711029,-0.11924967914819717,-0.08757960796356201,0.12159861624240875,-0.09990237653255463,-0.024087898433208466,-0.05029638484120369,0.07795380055904388,-0.24290812015533447,-0.3228905498981476,-0.2244011014699936,-0.21058408915996552,0.32194188237190247,-0.1951102763414383,0.25875145196914673,0.09479900449514389,0.24219197034835815,0.21934694051742554,0.11568285524845123,-0.17574672400951385,-0.2720699608325958,-0.06644836068153381,0.03651217743754387,-0.23615051805973053,0.1706676483154297,0.4400240182876587,-0.30607733130455017,-0.055069778114557266,-0.05872061476111412,-0.140035480260849,-0.3685948848724365,0.2460969090461731,0.3577972948551178,-0.1564038246870041,0.016918662935495377,-0.07891809940338135,0.3250082731246948,0.01049614604562521,0.1247791275382042,0.12425285577774048,0.09721662849187851,0.009616485796868801,-0.09284605830907822,-0.024800486862659454,-0.04553099721670151,0.21247369050979614,0.12975715100765228,-0.06350452452898026,-0.1220056340098381,0.15816976130008698,-0.0006422892329283059,-0.11469412595033646,0.19962680339813232,0.3055872321128845,0.0033052361104637384,0.013003500178456306,-0.259670615196228,-0.1493905782699585,0.1112440824508667,0.23990954458713531,0.1142873466014862,-0.10599495470523834,0.02301733009517193,0.030596883967518806,-0.17283952236175537,-0.17704322934150696,0.29238998889923096,0.045831672847270966,0.21393544971942902,-0.15544350445270538,0.07327263057231903,-0.09206276386976242,-0.07714332640171051,0.1810242235660553,0.202225461602211,-0.1306428760290146,0.2972237169742584,-0.13618062436580658,0.0813397541642189,-0.39045798778533936,-0.020069411024451256,-0.2206009328365326,-0.20300514996051788,0.031170126050710678,-0.15166933834552765,0.016511231660842896,-0.09049226343631744,0.12103493511676788,0.06534097343683243,-0.055269110947847366,0.13653065264225006,0.06871867179870605,0.038658495992422104,0.07861749082803726,-0.03534179553389549,0.142510786652565,-0.11988237500190735,-0.19673921167850494,0.26573094725608826,-0.3294680416584015,0.15565656125545502,0.3208670914173126,0.05767473950982094,0.011046425439417362,0.20980675518512726,-0.07026249915361404,0.016528457403182983,0.030155014246702194,-0.035048093646764755,-0.14768777787685394,-0.2335055023431778,0.24634256958961487,0.007385044824331999,-0.16958175599575043,0.10795723646879196,0.15108273923397064,0.05767351761460304,0.16895288228988647,0.2814296782016754,-0.08249986171722412,-0.3090643584728241,-0.2552117109298706,-0.2320549041032791,-0.21324539184570312,-0.13067351281642914,0.3371962606906891,-0.21165013313293457,0.25297924876213074,0.18286998569965363,-0.12855164706707,0.17108839750289917,0.021686235442757607,-0.014489196240901947,-0.2269609272480011,0.1463678926229477,-0.20057733356952667,-0.0020678795408457518,-0.26221784949302673,-0.20472000539302826,-0.1112227737903595,-0.28655728697776794,0.16705255210399628,-0.22743681073188782,0.2827107608318329,0.12372421473264694,-0.05114925280213356,0.038170598447322845,-0.2530364990234375,-0.21661809086799622,-0.2796238362789154,0.11202372610569,-0.24927926063537598,-0.11497543752193451,0.14565040171146393,-0.11303524672985077,-0.17751415073871613,0.09457817673683167,-0.07965727895498276,-0.031406451016664505,0.32634344696998596,-0.022788019850850105,0.027188191190361977,0.05314377695322037,-0.11359194666147232,-0.08805684000253677,-0.06887973845005035,-0.12601566314697266,-0.23211337625980377,0.24372872710227966,-0.12746858596801758,0.478447824716568,0.6205814480781555,0.21363645792007446,-0.21319584548473358,0.2502053678035736,-0.14041739702224731,-0.22472578287124634,0.20500485599040985,0.18594570457935333,0.2568935751914978,0.31792399287223816,0.07379774749279022,0.009728627279400826,-0.26465314626693726,0.07877770811319351,0.2961775064468384,0.1740638017654419,-0.04299122840166092,0.04077981784939766,-0.27135565876960754,0.17154671251773834,-0.16459229588508606,-0.12844647467136383,0.13467805087566376,-0.007623171433806419,0.11019628494977951,0.2530466616153717,0.13332735002040863,-0.10493038594722748,-0.10243012011051178,0.0789865106344223,0.06283698976039886,0.3280894160270691,0.13371002674102783,-0.11138230562210083,-0.13574060797691345,-0.20212742686271667,-0.22849637269973755,0.1592390239238739,0.336911678314209,0.035759374499320984,0.1236509308218956,0.0755886510014534,0.010347820818424225,-0.06186380982398987,0.1435527801513672,-0.023069240152835846,-0.19948382675647736,0.03626508265733719,-0.183309406042099,0.19837568700313568,-0.04012206569314003,0.01425155159085989,0.09580077975988388,-0.008522960357367992,-0.14319635927677155,0.24231091141700745,0.08724284172058105,0.02590685896575451,-0.02628777176141739,-0.011483952403068542,0.33396047353744507,-0.13355642557144165,-0.41736772656440735,-0.06553176790475845,-0.1560640037059784,-0.1670665740966797,0.2983911335468292,-0.08530630171298981,-0.1362215131521225,0.26755616068840027,-0.25679340958595276,0.0258868969976902,0.0537441186606884,0.001160109299235046,-0.012490381486713886,0.031076373532414436,-0.06256665289402008,0.10850879549980164,-0.11182083934545517,0.04120297729969025,0.06008683517575264,0.08615478128194809,0.15634313225746155,-0.08235543221235275,0.02325759455561638,-0.01487654447555542,0.01436628494411707,-0.2007332295179367,0.4636073410511017,0.09484328329563141,0.38455989956855774,-0.3138847053050995,0.06391483545303345,0.08500372618436813,0.23043231666088104,-0.00911501795053482,0.2120784968137741,-0.06930718570947647,-0.06369885057210922,-0.01332730520516634,-0.3856774866580963,0.16873393952846527,-0.05821675434708595,-0.0024696465115994215,-0.1706908941268921,0.032436635345220566,0.03504136949777603,-0.13031694293022156,-0.018491797149181366,-0.23471757769584656,0.11747805774211884,0.06399717926979065,0.0010727359913289547,0.02632381021976471,-0.1476229727268219,0.06211778149008751,0.0923730880022049,0.16035112738609314,0.09916926175355911,0.2496301680803299,-0.13394853472709656,-0.12032211571931839,0.12993671000003815,0.3958530128002167,0.11122141033411026,0.021480392664670944,0.13509607315063477,-0.062295105308294296,0.014848009683191776,-0.099262535572052,-0.06511236727237701,-0.25477397441864014,-0.265707790851593,0.21943487226963043,0.02197853848338127,0.011583507992327213,0.1828060895204544,0.07120052725076675,-0.19237618148326874,0.12265022844076157,-0.1832636445760727,0.13656805455684662,0.18451201915740967,-0.02817065455019474,0.09184230864048004,0.1189301609992981,0.04959763586521149,0.08098550140857697,0.0071283187717199326,0.1077234223484993,0.011166837066411972,-0.2355441004037857,-0.21069927513599396,-0.016649119555950165,0.18029366433620453,-0.18622960150241852,-0.13168354332447052,-0.1977228969335556,-0.0487358532845974,0.04837848246097565,0.16426080465316772,0.10046719014644623,0.09973224252462387,-0.22817647457122803,0.062155742198228836,-0.10614962130784988,0.19136348366737366,-0.38169270753860474,-0.011567538604140282,-0.04080329090356827,-0.048518989235162735,-0.1548084020614624,0.19396722316741943,-0.04898551478981972,-0.04892589524388313,0.23636488616466522,0.07762438803911209,-0.049696218222379684,-0.25948187708854675,-0.02999519556760788,-0.1726474165916443,-0.01333314087241888,0.11832284182310104,-0.09525005519390106,0.05816316232085228,-0.23083125054836273,0.052390776574611664,-0.19075706601142883,-0.1669767200946808,0.005067821126431227,-0.24197392165660858,-0.1249430850148201,0.11361820250749588,0.0519830621778965,0.19437335431575775,0.12737876176834106,0.12909552454948425,0.10289280116558075,-0.02311570569872856,-0.004810560494661331,-0.1635676473379135,-0.09988060593605042,-0.2152414172887802,-0.09927579015493393,0.03817778825759888,-0.022684775292873383,-0.03571669012308121,-0.02355271391570568,-0.057344503700733185,0.15655437111854553,0.015878945589065552,-0.10468191653490067,0.021249786019325256,0.20763762295246124,0.08580905199050903,0.0638507753610611,0.1583510786294937,0.4453792870044708,-0.1619148999452591,-0.009815271943807602,0.04199701175093651,0.09542766958475113,0.21343880891799927,0.22698377072811127,0.16756094992160797,0.08293730020523071,0.40232720971107483,0.032163139432668686,-0.05935898795723915,0.2918836176395416,-0.21192115545272827,-0.11700134724378586,0.17556798458099365,0.33412089943885803,0.2949405610561371,-0.4521503448486328,-0.022766802459955215,0.11414288729429245,0.3802781105041504,-0.17260292172431946,-0.11194317787885666,-0.03934232145547867,-0.013137447647750378,0.04104281961917877,-0.25942203402519226,-0.07250749319791794,-0.10695301741361618,0.08324574679136276,-0.005707157775759697,-0.15370768308639526,-0.018052581697702408,0.04623948410153389,-0.13880325853824615,-0.10271826386451721,-0.05866311118006706,0.06236289069056511,0.02486281283199787,-0.0936986654996872,-0.009649831801652908,0.1141701191663742,0.12351123988628387,0.11993017047643661,0.08268049359321594,-0.04301130399107933,-0.03880409523844719,-0.2192431390285492,0.2209634631872177,0.35421884059906006,-0.11391068249940872,-0.1162002831697464,0.016805196180939674,-0.20618169009685516,0.014737538062036037,0.07343731820583344,0.09368858486413956,0.050176430493593216,-0.07585131376981735,0.043329231441020966,-0.12082266807556152,-0.037729084491729736,0.28252342343330383,0.09079395979642868,0.23860664665699005,-0.17615950107574463,0.14418193697929382,0.19861511886119843,-0.057571496814489365,-0.043980199843645096,0.2020738422870636,-0.010818914510309696,0.08202400803565979,-0.06059525907039642,0.24454303085803986,0.06795161217451096,-0.04170633479952812,-0.0683584064245224,0.09446600824594498,-0.07287206500768661,-0.10934425890445709,-0.01903538405895233,0.06209039315581322,0.02168438211083412,0.10372157394886017,0.10611001402139664,0.109752357006073,-0.03220415115356445,-0.014488664455711842,0.2621496021747589,-0.08899945765733719,-0.07396157830953598,0.04775722324848175,0.1713276207447052,-0.10744824260473251,-0.2756177484989166,-0.02002844028174877,0.30414530634880066,-0.4304938316345215,0.1583230048418045,0.12390867620706558,-0.13402625918388367,-0.13335338234901428,0.005470497068017721,0.14344124495983124,-0.04904706031084061,0.05541666969656944,0.14628097414970398,-0.06318118423223495,0.058120399713516235,-0.18817895650863647,-0.057375796139240265,-0.0061078062281012535,-0.03155429661273956,-0.035942524671554565,0.06517346948385239,-0.2675766348838806,-0.009225110523402691,0.01627613790333271,0.06632369756698608,-0.11058426648378372,-0.15290604531764984,0.04997876286506653,-0.011645102873444557,-0.03627466410398483,-0.11400977522134781,0.12801867723464966,-0.06393906474113464,-0.14253239333629608,0.052646297961473465,0.2926214635372162,-0.05561089515686035,-0.1355316936969757,-0.09819967299699783,0.00547455670312047,0.041071705520153046,0.04698004946112633,-0.21968933939933777,0.17108739912509918,0.13933829963207245,0.05519271641969681,-0.19908687472343445,0.09924636036157608,0.1371140480041504,-0.0009577295859344304,-0.11113262921571732,-0.14453086256980896,-0.1453481763601303,-0.07050798088312149,0.026310116052627563,0.1221579760313034,0.19910292327404022,-0.07523748278617859,0.07099809497594833,0.1873522400856018,-0.02428179234266281,0.006004917901009321,-0.020503217354416847,-0.12230753153562546,0.14876382052898407,-0.09885040670633316,-0.061437275260686874,-0.061437204480171204,-0.0973430946469307,0.19162556529045105,-0.16589869558811188,-0.14882344007492065,0.14380748569965363,0.16137033700942993,0.03127173334360123,-0.35568684339523315,0.16059930622577667,0.17149370908737183,-0.03314853832125664,-0.00045500797568820417,0.12411599606275558,0.036176227033138275,-0.025991788133978844,-0.004798423498868942,-0.05819457396864891,-0.15021079778671265,-0.14233331382274628,0.23824606835842133,0.1538858860731125,0.1595778614282608,-0.24466760456562042,-0.029295755550265312,-0.1270885318517685,-0.16509956121444702,-0.12109196186065674,-0.022525371983647346,0.13121354579925537,-0.20621603727340698,0.04515518993139267,0.4572058320045471,-0.07280624657869339,0.05525621026754379,0.26797977089881897,-0.021589763462543488,-0.13420231640338898,-0.16297636926174164,0.20420297980308533,-0.26140913367271423,0.15906520187854767,0.17081204056739807,0.1202806830406189,0.2676902115345001,0.2703261971473694,0.2506667673587799,0.0022930819541215897,-0.21375834941864014,-0.26077428460121155,-0.1319245547056198,0.1935766041278839,0.16129446029663086,-0.17297345399856567,0.0518648736178875,-0.12950913608074188,-0.027994083240628242,-0.05830368772149086,-0.11967398971319199,0.09731453657150269,-0.05906839668750763,-0.0012631159042939544,-0.22448457777500153,-0.07291161268949509,-0.2619361877441406,0.014277901500463486,0.0736876130104065,0.1554637849330902,-0.05179151892662048,-0.0825231671333313,-0.10203492641448975,0.2248898595571518,-0.18448211252689362,0.08786345273256302,0.03574210777878761,-0.07096246629953384,-0.09159791469573975,-0.1402711123228073,0.1366865634918213,0.04551909118890762,-0.3831982910633087,0.10170333832502365,0.1226869747042656,-0.22873301804065704,-0.10078345239162445,-0.14945076406002045,0.04315095394849777,-0.16965216398239136,0.35347193479537964,0.047442007809877396,-0.11493998020887375,-0.033464036881923676,-0.08000393956899643,0.07608920335769653,0.02154073677957058,0.13020408153533936,-0.16131368279457092,-0.0621042400598526,-0.14363624155521393,-0.1060154139995575,-0.0356123261153698,-0.33804619312286377,0.006053948309272528,0.059826601296663284,0.10697243362665176,-0.09061160683631897,-0.15266670286655426,0.3075704276561737,0.009505297057330608,-0.08046750724315643,-0.10822074115276337,0.07042322307825089,-0.10966963320970535,0.15144729614257812,0.058409638702869415,-0.000991213251836598,-0.2614098787307739,-0.23331888020038605,-0.12266004085540771,0.3464830219745636,-0.04022445157170296,-0.014848578721284866,-0.029116708785295486,0.1311991810798645,0.018047085031867027,0.017398733645677567,0.2160021960735321,0.1317168027162552,-0.10743832588195801,0.0350600965321064,-0.02532137930393219,-0.12554886937141418,-0.19292141497135162,0.023250488564372063,-0.16150860488414764,-0.12551501393318176,0.052500080317258835,0.15184369683265686,-0.06776242703199387,0.08461062610149384,0.2771013081073761,-0.08372413367033005,0.08915029466152191,0.08985406160354614,0.12742623686790466,0.12206077575683594,-0.19080103933811188,0.0942484587430954,-0.02908925898373127,-0.142644464969635,-0.18487779796123505,-0.02919396571815014,-0.04152671620249748,-0.04349038004875183,0.022756779566407204,0.2045295685529709,0.14349250495433807,-0.03704126924276352,-0.13126857578754425,0.09353101998567581,0.12216783314943314,-0.19113118946552277,0.04699986055493355,0.10174157470464706,0.0361386239528656,-0.1890140324831009,0.03279011324048042,-0.10379660129547119,-0.053823355585336685,0.011702187359333038,-0.1452440321445465,0.18606197834014893,0.016316376626491547,-0.327602356672287,0.08734557777643204,0.07172856479883194,-0.14617915451526642,-0.06255214661359787,-0.06367745995521545,0.012853236868977547,-0.18337497115135193,-0.02767832949757576,-0.14558996260166168,-0.13380953669548035,0.03690182790160179,0.0536283478140831,-0.17444740235805511,0.19998788833618164,0.14885829389095306,-0.06345298141241074,0.04843756556510925,-0.17288431525230408,0.017659638077020645,0.15952758491039276,-0.41718629002571106,-0.022776300087571144,0.016975730657577515,0.17135603725910187,-0.10317362844944,-0.069529227912426,-0.17194342613220215,0.17839829623699188,0.1451290398836136,-0.0490587055683136,-0.0714307352900505,0.0036908548790961504,-0.11855790764093399,-0.03682204708456993,0.07810389995574951,0.027247587218880653,0.08528625965118408,-0.049442823976278305,0.02679337188601494,0.09517116099596024,-0.00951299350708723,-0.13281121850013733,-0.11526287347078323,0.12227341532707214,-0.26972758769989014,-0.27353546023368835,0.050212014466524124,-0.4618389308452606,-0.020206931978464127,0.02992108091711998,0.019827472046017647,-0.1367105096578598,-0.0023207978811115026,0.2149599939584732,0.0990414172410965,0.10103095322847366,-0.3212457299232483,-0.24541360139846802,0.09117165952920914,0.0669255182147026,-0.16742189228534698,-0.03547833114862442,0.13480862975120544,-0.015359640121459961,-0.04712336137890816,-0.11340417712926865,-0.009010347537696362,0.005755855236202478,0.20157000422477722,-0.11205114424228668,-0.044430285692214966,-0.03643152862787247,-0.11992479115724564,-0.13733002543449402,