{"version":"0.5.4","metadata":{"date":{"year":2026,"month":1,"day":19,"hour":0,"minute":10,"second":53},"loudness":-27.114261627197266,"gain":0.7384564478869479,"name":"V30-Tri2-3","modeled_by":"lum","gear_type":"amp","gear_make":"tz-make","gear_model":"tz-model","tone_type":"overdrive","input_level_dbu":null,"output_level_dbu":null,"training":{"settings":{"ignore_checks":false},"data":{"latency":{"manual":null,"calibration":{"algorithm_version":1,"delays":[0],"safety_factor":1,"recommended":-1,"warnings":{"matches_lookahead":false,"disagreement_too_high":false}}},"checks":{"version":3,"passed":true}},"validation_esr":0.00201834018522336}},"architecture":"WaveNet","config":{"layers":[{"input_size":1,"condition_size":1,"head_size":8,"channels":16,"kernel_size":3,"dilations":[1,2,4,8,16,32,64,128,256,512],"activation":"Tanh","gated":false,"head_bias":false},{"input_size":16,"condition_size":1,"head_size":1,"channels":8,"kernel_size":3,"dilations":[1,2,4,8,16,32,64,128,256,512],"activation":"Tanh","gated":false,"head_bias":true}],"head":null,"head_scale":0.02},"weights":[-0.21299923956394196,0.8670474290847778,-1.0868768692016602,-1.0025964975357056,-0.4887285828590393,0.44991543889045715,-0.10190726071596146,0.8810580372810364,-0.2660287320613861,0.3549959361553192,-0.39018964767456055,-0.4637032449245453,-1.0789343118667603,-0.7527158856391907,-0.5841301679611206,0.34322717785835266,0.46286866068840027,-0.1293269693851471,-0.04024394229054451,-0.46264925599098206,0.262416809797287,0.01990879327058792,0.35000982880592346,-0.09741245955228806,0.06904087960720062,0.40470898151397705,-0.07352729886770248,-0.039091940969228745,0.2944754958152771,-0.23436155915260315,0.03722657263278961,-0.26405754685401917,0.11834699660539627,-0.1584394872188568,0.32978808879852295,-0.40345078706741333,-0.022912614047527313,-0.25702884793281555,0.25929901003837585,-0.02310251072049141,0.42283037304878235,-0.2971567213535309,0.12361358106136322,-0.5167167782783508,0.10093244165182114,-0.1618121862411499,0.4643736183643341,-0.11727278679609299,0.016898196190595627,0.3974381983280182,-0.12181483209133148,0.24545496702194214,0.43807634711265564,-0.17780977487564087,0.18898294866085052,0.29531994462013245,-0.1713734269142151,-0.02077743597328663,0.28488481044769287,-0.27245408296585083,0.1610082983970642,-0.37350746989250183,0.17959217727184296,-0.05063614249229431,-0.07759180665016174,-0.08603931218385696,0.015437775291502476,0.21017420291900635,0.18808922171592712,0.11222793161869049,-0.2846403419971466,-0.14946667850017548,0.0851142406463623,-0.0550408810377121,0.03014419414103031,0.15404334664344788,-0.14448748528957367,-0.22033867239952087,0.03810443356633186,0.08220376074314117,-0.03879668563604355,0.10069938004016876,-0.03080415353178978,-0.20885133743286133,0.04693254083395004,0.15000499784946442,0.071858711540699,-0.09256695210933685,-0.11587119847536087,-0.1793781965970993,0.07907721400260925,0.24092620611190796,0.19236524403095245,0.024345336481928825,-0.30996912717819214,-0.18324369192123413,0.10143513232469559,-0.14668333530426025,-0.21305342018604279,-0.05585479363799095,-0.037893809378147125,0.002399103483185172,-0.03565237671136856,-0.20870108902454376,-0.2311054915189743,0.024736154824495316,-0.2842261791229248,-0.2097415328025818,0.017902038991451263,0.18567253649234772,0.040989093482494354,0.05731811746954918,-0.04865504801273346,0.03477701544761658,0.23516103625297546,-0.12338665872812271,0.0627809464931488,-0.04138460010290146,0.016689302399754524,-0.0657675489783287,0.0960908979177475,0.007088333368301392,-0.1712503582239151,0.11284627765417099,-0.1334797590970993,-0.18088169395923615,0.01597382314503193,-0.07593805342912674,0.04568435251712799,-0.17209050059318542,-0.018072843551635742,-0.08874841034412384,0.01896653324365616,-0.005132808815687895,0.20358920097351074,-0.0568309985101223,0.027020806446671486,-0.10138501971960068,0.10790599882602692,0.08505955338478088,0.23161017894744873,0.03556350991129875,0.13801877200603485,-0.11084845662117004,-0.07787729799747467,-0.0543435774743557,0.007450691889971495,0.05740593746304512,-0.07518632709980011,-0.2119300365447998,-0.0939793735742569,-0.12330082803964615,-0.12949562072753906,0.1234126016497612,0.08181726932525635,-0.23413221538066864,0.13752706348896027,-0.14395013451576233,0.03642270341515541,-0.16760917007923126,0.004997265059500933,0.02923094481229782,-0.3336648941040039,-0.2119450569152832,-0.07696846127510071,0.09843365848064423,0.022039884701371193,0.10713694244623184,-0.2193678766489029,0.07718319445848465,0.18391595780849457,-0.15378667414188385,0.21092812716960907,0.10738984495401382,-0.23190070688724518,0.009535218589007854,-0.06655361503362656,0.03665298596024513,0.173130601644516,-0.06318154186010361,-0.16325056552886963,-0.11785993725061417,0.04580819979310036,0.13055384159088135,0.13985572755336761,0.09643545001745224,-0.15855205059051514,-0.10714753717184067,-0.16903311014175415,0.18539389967918396,0.19457316398620605,0.15227296948432922,-0.20714206993579865,0.08562824875116348,-0.05638591945171356,-0.18017922341823578,0.00352864689193666,0.10676014423370361,-0.17655503749847412,0.08198869228363037,0.06281331926584244,-0.0010909807169809937,-0.024840621277689934,-0.04693330079317093,-0.1770399659872055,0.033359527587890625,-0.061736103147268295,0.2838330864906311,-0.08975778520107269,0.2780642807483673,-0.06884016841650009,0.0814676433801651,-0.2403932362794876,-0.051605530083179474,-0.10328798741102219,0.27262377738952637,-0.08537045121192932,-0.1818060576915741,0.3727405071258545,-0.09618029743432999,-0.1236095130443573,0.3894454836845398,0.06312275677919388,0.11577742546796799,-0.3790731728076935,0.056552156805992126,-0.212210550904274,0.26398077607154846,-0.07264817506074905,0.08420606702566147,-0.24770882725715637,0.09775210171937943,-0.11145171523094177,0.3857688009738922,0.08070118725299835,0.020962227135896683,-0.18453364074230194,-0.11197638511657715,-0.16672134399414062,0.2946450412273407,0.06316999346017838,-0.014562892727553844,0.20450426638126373,0.009455136954784393,-0.029657727107405663,0.11213088780641556,0.1274973452091217,-0.22475215792655945,0.25310081243515015,-0.004387884866446257,-0.18810361623764038,0.264724999666214,0.135860875248909,0.10241619497537613,-0.3326486051082611,-0.025428922846913338,-0.12393703311681747,0.19372226297855377,-0.14601600170135498,-0.10142050683498383,-0.26727813482284546,0.27706873416900635,0.0742785856127739,0.28630760312080383,-0.14045195281505585,-0.04884687811136246,0.13022162020206451,-0.14579792320728302,0.12178786844015121,0.2087189108133316,-0.24666406214237213,-0.07538022100925446,-0.32004156708717346,0.21536600589752197,-0.06799736618995667,0.040522243827581406,-0.008422762155532837,-0.09114737063646317,-0.17959623038768768,0.2255934476852417,0.02832532487809658,0.10306502133607864,-0.2932804822921753,0.10938876122236252,-0.1475679725408554,0.29370877146720886,-0.050377387553453445,0.2024119794368744,-0.2048519104719162,0.012192393653094769,0.11245120316743851,-0.1427498757839203,0.04214290529489517,0.16029007732868195,-0.21817129850387573,-0.09082690626382828,0.26344600319862366,-0.2897219657897949,0.06297682970762253,0.12706626951694489,-0.25485169887542725,-0.01026140432804823,-0.34938403964042664,0.22279174625873566,0.09284329414367676,-0.0854860320687294,0.04351383075118065,0.00687358109280467,0.008588439784944057,0.054101213812828064,-0.07031577080488205,0.021705443039536476,-0.02563663013279438,-0.0034173240419477224,0.09616193920373917,0.02475988306105137,-0.021358244121074677,0.045295633375644684,-0.0028616096824407578,-0.04654565826058388,-0.03732730820775032,0.08174378424882889,-0.061077434569597244,0.039344433695077896,0.08596672862768173,0.08237635344266891,0.04610259830951691,0.08912315219640732,0.14086686074733734,-0.010352568700909615,-0.16815224289894104,-0.18053974211215973,0.09868084639310837,0.14889788627624512,-0.051812078803777695,0.09232686460018158,0.04947230964899063,0.21268469095230103,0.18563129007816315,0.04679224640130997,0.013610020279884338,-0.012581738643348217,0.04732716456055641,0.1292572319507599,-0.04798327758908272,0.061970267444849014,0.12409795820713043,0.12527135014533997,-0.15821777284145355,-0.046913992613554,-0.16058585047721863,0.1535521149635315,-0.09833008795976639,0.15186122059822083,-0.07648011296987534,0.19821403920650482,-0.1541079431772232,0.23831073939800262,-0.2354145646095276,0.13890238106250763,-0.26168498396873474,-0.2771366536617279,-0.015449181199073792,-0.05115039274096489,-0.0508098378777504,0.23323224484920502,-0.043645940721035004,0.0003449582727625966,-0.20696307718753815,0.13624846935272217,-0.1847907304763794,0.22079028189182281,-0.23500299453735352,0.06443552672863007,-0.235988587141037,0.08133160322904587,-0.0030370280146598816,0.22984924912452698,-0.0546623095870018,0.23626844584941864,0.026570996269583702,0.11729096621274948,-0.05911021679639816,0.22884167730808258,-0.10166297107934952,0.013941212557256222,0.1888991743326187,-0.0753110870718956,-0.1853790134191513,0.16679121553897858,-0.14693519473075867,-0.16679707169532776,0.015918448567390442,-0.24246002733707428,-0.2437884658575058,0.1983196884393692,-0.060220543295145035,0.1023963913321495,-0.24156853556632996,0.26363545656204224,0.24748989939689636,-0.1500987708568573,-0.03157510235905647,0.003655067877843976,0.2243649661540985,-0.04924777150154114,0.25984424352645874,-0.05591156333684921,-0.11901888251304626,0.20545557141304016,-0.2481440007686615,-0.08340412378311157,0.2528001368045807,-0.15306434035301208,-0.15301857888698578,-0.1803198605775833,0.121981680393219,0.025938551872968674,0.14134864509105682,-0.0607895702123642,-0.0010108000133186579,-0.2124939113855362,0.17015719413757324,0.12920667231082916,0.22163325548171997,-0.2878233790397644,-0.0591946505010128,-0.23757003247737885,0.09776340425014496,0.100612573325634,0.020545896142721176,-0.1112222820520401,0.07023563981056213,0.1531623750925064,-0.25214752554893494,-0.10298261046409607,0.1533994972705841,-0.27473220229148865,0.009940001182258129,-0.0076691145077347755,-0.30221128463745117,-0.19879531860351562,0.10160716623067856,-0.06051718816161156,-0.19249440729618073,-0.04339724779129028,0.0915604904294014,0.063033826649189,-0.1385888010263443,0.10519487410783768,0.015101744793355465,0.22156912088394165,-0.1951734870672226,0.2954671382904053,-0.2386268824338913,0.4458034038543701,-0.20767228305339813,-0.07703699171543121,0.20283494889736176,-0.25488758087158203,-0.2848118543624878,0.2540915906429291,-0.17383426427841187,0.02670994959771633,-0.2881903648376465,0.2886982560157776,-0.12543447315692902,0.23427075147628784,-0.2720358967781067,0.10106208920478821,-0.24048630893230438,0.34974294900894165,-0.05333326756954193,0.3389316499233246,-0.1631089448928833,-0.0016533118905499578,-0.43695035576820374,0.2667950689792633,-0.2260230928659439,0.36878132820129395,-0.2946740686893463,-0.20730282366275787,0.23614466190338135,-0.1492156833410263,-0.16056756675243378,0.4167729616165161,-0.11908301711082458,-0.06436123698949814,0.31029224395751953,-0.24995727837085724,-0.17442919313907623,0.33726802468299866,-0.14018400013446808,0.03941476717591286,-0.3428141176700592,0.22425396740436554,-0.3204086124897003,-0.09840080887079239,0.279877632856369,0.38774698972702026,-0.10334338992834091,0.008534803986549377,-0.17490020394325256,0.057049497961997986,0.21160419285297394,-0.3275282680988312,0.014436746947467327,0.15111508965492249,-0.2879289984703064,0.01545351929962635,0.051304470747709274,0.33767858147621155,-0.012538010254502296,-0.15093788504600525,-0.18259210884571075,0.051617007702589035,0.08069221675395966,0.26038798689842224,0.1176304891705513,-0.1025257557630539,-0.20846454799175262,-0.06077871471643448,0.15937282145023346,0.13670141994953156,-0.057503797113895416,-0.17304591834545135,-0.10203775018453598,-0.06474172323942184,0.1026376485824585,-0.32669463753700256,0.11532321572303772,0.23637500405311584,-0.35575905442237854,-0.1497173011302948,-0.020097320899367332,-0.24600975215435028,-0.06913378089666367,-0.0033852618653327227,-0.30143675208091736,-0.005585228092968464,0.013824435882270336,0.28139975666999817,-0.04820606857538223,-0.20497927069664001,0.17480534315109253,-0.014410119503736496,-0.1464843899011612,-0.16578738391399384,0.10753285884857178,0.1077287495136261,0.027529869228601456,-0.29802632331848145,0.17610028386116028,0.07813683897256851,-0.1265050172805786,0.01927953027188778,0.13337674736976624,-0.18376468122005463,0.11767834424972534,-0.15677954256534576,0.021098269149661064,-0.10909277200698853,0.1292528510093689,-0.09545519948005676,-0.12683823704719543,-0.030329078435897827,0.11639361828565598,-0.05745404213666916,0.27919211983680725,-0.09574966877698898,0.1367931067943573,-0.07661689817905426,0.11149278283119202,-0.11411233246326447,0.1485544741153717,-0.03031245619058609,-0.03248913213610649,0.03143924102187157,-0.1086038127541542,0.16994516551494598,0.12520736455917358,-0.26937371492385864,-0.09937738627195358,0.20079253613948822,-0.16084249317646027,-0.04441162943840027,0.1928928792476654,-0.10035061836242676,0.1458064168691635,-0.06310511380434036,0.2120867520570755,-0.1305183470249176,-0.061176858842372894,0.22682160139083862,0.04755435883998871,-0.005274397321045399,-0.263018935918808,0.2391214370727539,0.20087790489196777,0.26856011152267456,-0.2366958111524582,0.010408135131001472,0.035367466509342194,0.028348103165626526,0.004899091087281704,0.06691739708185196,-0.023648563772439957,-0.13511955738067627,-0.2051628977060318,0.08745057135820389,0.0358864888548851,-0.03953828662633896,0.09353875368833542,-0.12698662281036377,-0.08179069310426712,0.23484185338020325,0.14762938022613525,0.14993822574615479,0.044829268008470535,-0.048272810876369476,-0.19715064764022827,0.22900699079036713,0.09603183716535568,-0.01509613636881113,-0.1384524405002594,-0.021073849871754646,0.26859092712402344,-0.12195654958486557,-0.06870380789041519,0.12401419878005981,-0.020278749987483025,0.10109127312898636,0.17734362185001373,-0.09314698725938797,0.12072088569402695,0.10108727216720581,-0.1637991964817047,-0.22707991302013397,-0.28958654403686523,0.11557511240243912,-0.3085605800151825,0.21487800776958466,0.05933201685547829,0.21380388736724854,-0.3025473952293396,0.04094656556844711,-0.2793384790420532,0.32731565833091736,-0.010614367201924324,-0.23305577039718628,0.2865541875362396,0.03930789977312088,-0.08309421688318253,0.10058078914880753,-0.033441174775362015,0.13824467360973358,-0.17869780957698822,0.04007360711693764,-0.26261913776397705,0.2851637005805969,0.026791680604219437,0.16543875634670258,-0.09600361436605453,-0.20934338867664337,-0.20544521510601044,0.33381885290145874,0.053951676934957504,0.3138512969017029,-0.2442675083875656,0.02847328595817089,-0.3338019549846649,0.18269656598567963,0.0669192522764206,-0.16885657608509064,0.25361892580986023,0.19954174757003784,-0.2167212814092636,0.1991264820098877,0.19836388528347015,-0.23541279137134552,0.33009958267211914,0.0004309874202590436,-0.21956679224967957,0.18989011645317078,0.1573898196220398,0.33780157566070557,-0.22535909712314606,-0.18200024962425232,0.16275976598262787,-0.06906680762767792,-0.06585192680358887,-0.17157913744449615,0.18867835402488708,0.35076838731765747,0.08738304674625397,-0.23068369925022125,-0.1157630905508995,-0.02939831092953682,-0.06434878706932068,-0.1905471533536911,0.015714513137936592,-0.04034562408924103,-0.32851457595825195,-0.05130558833479881,-0.0006462344899773598,0.19084632396697998,0.09193311631679535,-0.014696287922561169,-0.25118133425712585,0.015392573550343513,0.07509157061576843,0.13812445104122162,-0.02501557022333145,-0.21974721550941467,-0.05347668379545212,-0.11891486495733261,0.09819439053535461,0.23651927709579468,0.1720125824213028,0.025671131908893585,-0.08238431066274643,-0.010222910903394222,-0.10636388510465622,-0.29229259490966797,-0.006920951884239912,-0.06124727427959442,-0.07359528541564941,-0.038692906498909,-0.007117780856788158,-0.28068962693214417,0.055462125688791275,0.02739684097468853,-0.23711158335208893,-0.0974046066403389,-0.025912370532751083,0.3208581805229187,0.2129637449979782,-0.12721379101276398,-0.2446066290140152,-0.3679301142692566,-0.11248645931482315,0.39328324794769287,0.3676014840602875,-0.04385553300380707,-0.311599999666214,0.3777002990245819,0.08939322084188461,-0.45271649956703186,0.23966951668262482,-0.04585801064968109,-0.47871166467666626,-0.2579762637615204,0.10512590408325195,0.4907727539539337,0.26510706543922424,0.006680981256067753,-0.437151700258255,-0.13878782093524933,-0.05711410939693451,0.2652962803840637,0.29959836602211,0.0959579348564148,-0.4991815388202667,-0.12000260502099991,0.05291439965367317,0.2582220733165741,0.2051112949848175,0.11794394999742508,-0.4667929708957672,0.2335178554058075,0.06055968254804611,-0.4992455244064331,0.3262315094470978,0.06964979320764542,-0.2800257205963135,0.15559035539627075,0.13932575285434723,-0.4520163834095001,0.4007641077041626,-0.13453207910060883,-0.4939335882663727,-0.22534708678722382,-0.016319306567311287,0.4070505201816559,-0.09354002773761749,-0.11703834682703018,-0.05581210181117058,-0.24386699497699738,-0.005031895358115435,0.09679482877254486,0.010800926014780998,-0.07705055922269821,0.13115519285202026,0.1030689999461174,0.035013098269701004,-0.11944039911031723,0.002240362111479044,-0.08915907889604568,-0.16098815202713013,0.06927230954170227,0.3514249920845032,-0.45294705033302307,0.7636542320251465,-0.618934154510498,-0.02630678005516529,1.0875129699707031,1.070791482925415,-0.41264021396636963,0.24555657804012299,0.32728245854377747,-0.5520991086959839,-0.3825758397579193,0.3864094614982605,-0.7999165654182434,0.377724289894104,0.8029254674911499,0.0319024883210659,-0.05205225199460983,-0.15467265248298645,0.2643090784549713,0.41637933254241943,0.05730648338794708,0.05184222385287285,-0.06098640710115433,-0.11885343492031097,-0.008031749166548252,-0.4797460436820984,-0.025615304708480835,0.33976033329963684,0.09227178245782852,0.16701862215995789,0.21994780004024506,0.21540053188800812,-0.41590824723243713,-0.1068890169262886,0.13494475185871124,0.03704969957470894,0.41649168729782104,0.0482974648475647,-0.08512619137763977,0.11987697333097458,0.46549826860427856,-0.4023393988609314,-0.08200531452894211,0.18437990546226501,-0.3960021734237671,0.23720602691173553,0.8283290863037109,0.17498794198036194,0.054430391639471054,0.013332960195839405,0.30064982175827026,-0.03055167943239212,-0.23243947327136993,0.11505033075809479,-0.1828935742378235,-0.1673668473958969,-0.23054715991020203,0.16512295603752136,-0.08814892172813416,0.24959111213684082,0.4174617528915405,0.0281261894851923,-0.19501973688602448,0.5045731663703918,-0.2055862843990326,-0.19153638184070587,-0.062127504497766495,0.12752903997898102,-0.07267104089260101,-0.14862945675849915,-0.2736911177635193,-0.30437594652175903,-0.21563342213630676,-0.3181430697441101,0.1953740417957306,0.1435781717300415,0.3421771228313446,-0.37566423416137695,-0.1303386241197586,-0.25069481134414673,-0.29707545042037964,-0.24036423861980438,0.1677740514278412,0.42765238881111145,0.1401224285364151,0.0704139992594719,-0.28087806701660156,0.012518353760242462,0.2506733536720276,-0.1429818570613861,0.235855832695961,-0.2669370174407959,0.28434211015701294,-0.20884239673614502,0.023274030536413193,-0.30846107006073,0.04906408116221428,0.18259505927562714,-0.06044605374336243,0.0543084442615509,0.3307941257953644,0.2889804244041443,0.16756927967071533,0.3122538626194,0.1231977716088295,0.06205766275525093,-0.22604604065418243,-0.06139601394534111,-0.3283294439315796,0.25542646646499634,0.1970406025648117,0.2640974819660187,0.12264852225780487,0.18718154728412628,0.20680730044841766,-0.24785512685775757,-0.2756379246711731,0.030749958008527756,-0.08698995411396027,0.11061087995767593,-0.43003514409065247,-0.36337026953697205,0.3163873255252838,0.08862323313951492,-0.3363245725631714,0.026496736332774162,-0.0852234810590744,0.225215345621109,0.16792860627174377,0.30950820446014404,-0.29616478085517883,-0.3889078199863434,0.056291669607162476,0.21653583645820618,0.11642568558454514,0.2682291865348816,-0.2868391275405884,0.21671900153160095,-0.2047874480485916,-0.0972234457731247,-0.3507859408855438,-0.04355845972895622,0.11053759604692459,-0.07510761171579361,-0.049836866557598114,-0.3157106935977936,-0.08439839631319046,0.24692709743976593,-0.23094488680362701,-0.20710527896881104,-0.04888797551393509,-0.3549252450466156,-0.32594698667526245,0.06996168196201324,0.2840419113636017,-0.077350914478302,0.04647025838494301,-0.09485408663749695,-0.2945122718811035,-0.2373676598072052,0.08521091938018799,0.22124135494232178,-0.3780467212200165,-0.31686821579933167,-0.08517227321863174,0.11115260422229767,-0.21347104012966156,0.16287273168563843,0.15167395770549774,0.21110454201698303,0.10021480917930603,-0.028530610725283623,-0.0007080382201820612,-0.13823756575584412,0.08850659430027008,0.15539629757404327,0.20952050387859344,-0.1912698745727539,0.08750417828559875,-0.1362127810716629,-0.17520979046821594,0.07525114715099335,-0.04343281686306,0.08072824031114578,-0.1336301863193512,-0.233006089925766,-0.011793702840805054,-0.13471925258636475,0.08554915338754654,0.06905122101306915,0.3260240852832794,0.11428136378526688,-0.1381145417690277,-0.0838618054986,-0.01484205573797226,0.26830509305000305,-0.4429309666156769,-0.2791023552417755,-0.209159255027771,-0.21050551533699036,-0.42134803533554077,-0.0027565681375563145,0.0412328727543354,-0.24545298516750336,0.4543914496898651,-0.4994306266307831,-0.7061727046966553,0.07642576098442078,0.07018053531646729,0.11947917938232422,0.12646983563899994,-0.024685993790626526,-0.23416148126125336,0.015401392243802547,0.13902030885219574,0.1865418255329132,-0.2047281712293625,-0.0999908372759819,0.17721353471279144,0.115984708070755,-0.1004984900355339,-0.13981971144676208,0.07952281832695007,0.2754862308502197,-0.11848747730255127,-0.04076528549194336,0.2710857391357422,-0.2903186082839966,0.3469296991825104,0.3245004117488861,0.06677329540252686,0.028809232637286186,-0.09010011702775955,-0.3458392322063446,0.12564703822135925,0.023977885022759438,-0.228972926735878,-0.0821620374917984,0.47186747193336487,-0.33353444933891296,0.2714037597179413,-0.05893215537071228,-0.17499655485153198,0.18915025889873505,-0.0181824192404747,0.18432573974132538,0.2791663408279419,-0.32161903381347656,0.22972947359085083,0.1646987795829773,-0.13616642355918884,0.05165170878171921,0.372964084148407,-0.17511335015296936,-0.167730450630188,-0.14415547251701355,-0.08186150342226028,-0.06171133741736412,0.1446467936038971,0.5444767475128174,0.7162557244300842,0.17140178382396698,0.5323485136032104,-0.34209340810775757,0.554294228553772,-0.18088190257549286,-0.4277816712856293,0.3953014016151428,0.5656968355178833,-0.09345916658639908,0.2723192572593689,-0.009252277202904224,-0.11316274851560593,0.19205696880817413,-0.25071752071380615,-0.25320401787757874,-0.019750069826841354,0.16156204044818878,-0.04417699575424194,0.06268125027418137,-0.24455036222934723,0.04012579098343849,-0.05440233647823334,0.036274999380111694,0.010782151482999325,0.006027573253959417,-0.06143471598625183,-0.0365711972117424,0.061435528099536896,0.1943768560886383,0.24162913858890533,-0.12404503673315048,-0.11257705837488174,-0.055162012577056885,0.06121893972158432,0.2901625335216522,-0.22385761141777039,0.0021149683743715286,0.1683765947818756,-0.15306136012077332,0.04973146691918373,0.2558056116104126,0.18939219415187836,-0.1358940303325653,-0.1959591805934906,-0.05827011540532112,-0.2960238754749298,0.2278343141078949,0.04586777463555336,-0.21656541526317596,-0.45340287685394287,-0.12299191951751709,0.1140800267457962,0.12961982190608978,-0.17552268505096436,-0.09675383567810059,-0.40357354283332825,-0.09409680217504501,-0.03910922259092331,0.21087618172168732,-0.23522773385047913,-0.07384137809276581,0.3162979781627655,-0.16670824587345123,0.02527925930917263,0.15360607206821442,-0.09357822686433792,0.018328506499528885,0.07934987545013428,-0.14925803244113922,0.7301450967788696,0.10990547388792038,0.12061702460050583,0.2799696922302246,0.07959406077861786,0.09019365161657333,-0.04070720076560974,0.27284419536590576,-0.026181533932685852,0.21916580200195312,-0.08585527539253235,-0.02497474104166031,-0.25264987349510193,0.2898060977458954,-0.1134757474064827,-0.10944139957427979,0.05999742075800896,0.256987601518631,-0.24502119421958923,0.16734130680561066,-0.1588411182165146,0.11927378177642822,-0.2178562730550766,0.14079760015010834,-0.26701346039772034,0.12802961468696594,0.0013165271375328302,0.16619190573692322,-0.16236042976379395,-0.05236802250146866,-0.2616773247718811,0.1461462825536728,-0.008675000630319118,0.22510239481925964,-0.2573549151420593,0.09330668300390244,-0.07604550570249557,0.20243386924266815,-0.00034041324397549033,-0.33457520604133606,0.3289048373699188,-0.0894809439778328,-0.24469318985939026,0.21759817004203796,0.0596492625772953,0.0021379876416176558,0.18960890173912048,-0.16640561819076538,-0.11572273820638657,-0.10969734936952591,-0.2566947937011719,0.9943522214889526,-0.8440120220184326,-0.09683625400066376,0.22028246521949768,0.059447720646858215,-0.07508758455514908,0.28268566727638245,-0.01957383193075657,0.04689929634332657,0.02059406414628029,-0.06927528232336044,0.1272079050540924,-0.02983623929321766,-0.22922085225582123,0.1100182980298996,0.012024495750665665,0.04140632972121239,-0.11288588494062424,0.08305227756500244,0.2947734594345093,0.059634532779455185,-0.33974897861480713,-0.1211102306842804,-0.11635904759168625,-0.12107552587985992,0.260049968957901,0.10731710493564606,-0.0789630264043808,-0.17876626551151276,-0.12841060757637024,0.020023835822939873,-0.04037799313664436,-0.15864241123199463,-0.12872840464115143,0.029161185026168823,0.17512793838977814,-0.08038643002510071,-0.12969231605529785,0.16028036177158356,-0.06565606594085693,-0.14760929346084595,-0.05592982470989227,0.027067381888628006,0.155069500207901,0.1849776804447174,0.1966964155435562,0.0905594453215599,0.2430555820465088,1.3103797435760498,0.2063445895910263,0.06759917736053467,-0.03492865338921547,-0.12164592742919922,-0.3464491367340088,-0.07962173968553543,0.018345598131418228,0.2314448356628418,0.07107307016849518,-0.18829546868801117,0.053773391991853714,0.07492855936288834,-0.27064287662506104,-0.13546080887317657,-0.1100204661488533,-0.2049923986196518,-0.191833958029747,-0.1971459835767746,0.04220441356301308,0.07396825402975082,0.20842969417572021,-0.07907481491565704,-0.20990251004695892,-0.1927572339773178,0.13215447962284088,0.19467735290527344,0.09573246538639069,0.0074376678094267845,0.0322062149643898,-0.3781619071960449,0.005239154677838087,0.08123090118169785,0.022592853754758835,-0.13186918199062347,0.12417109310626984,0.28068581223487854,0.041445180773735046,0.22722472250461578,0.2946029603481293,-0.14920702576637268,0.26229751110076904,0.03938472643494606,-0.12006963789463043,-0.014233489520847797,-0.13609205186367035,0.15814922749996185,-0.025527281686663628,-0.40935519337654114,-0.043847065418958664,-0.18428821861743927,-0.013283349573612213,0.0016366043128073215,-0.010900312103331089,0.00021913886303082108,-0.010514220222830772,-0.15151473879814148,0.11173353344202042,-0.07967469841241837,-0.1684846132993698,0.12766467034816742,0.11609590798616409,-0.08870047330856323,-0.15414780378341675,-0.06091943383216858,-0.05628851428627968,0.019723081961274147,-0.05164390429854393,-0.03370676934719086,0.08333636820316315,-0.01668274775147438,0.067276731133461,0.1245977059006691,0.11324562877416611,0.07852201163768768,0.08588623255491257,-0.05545870214700699,-0.03977514058351517,-0.12429554760456085,0.020739469677209854,-0.010800551623106003,0.05181778967380524,0.0441063717007637,-0.16242726147174835,0.09837726503610611,0.08243776857852936,-0.21935981512069702,-0.03915544971823692,0.1472282111644745,-0.15718424320220947,0.0498797632753849,0.041577961295843124,0.21804119646549225,-0.2898125648498535,-0.1110677570104599,0.2353932410478592,-0.23720698058605194,-0.0973682776093483,-0.2792675793170929,0.346160888671875,-0.1977577805519104,-0.06216960400342941,-0.03552194684743881,0.08865296840667725,-0.24422624707221985,0.03812053054571152,-0.11334317922592163,-0.06667667627334595,0.260334849357605,0.09010850638151169,-0.33561450242996216,0.5071011781692505,0.027830244973301888,0.24874581396579742,-0.21161483228206635,0.01792191155254841,0.2512597441673279,-0.5635351538658142,-0.06152351200580597,0.350538045167923,-0.3669086694717407,0.19749009609222412,-0.08953305333852768,0.3108851909637451,-0.13496798276901245,0.38595521450042725,-0.19149459898471832,0.06592266261577606,0.07995221018791199,0.04629338160157204,0.004594335798174143,-0.004311619326472282,0.1435835212469101,0.07452626526355743,0.01702636107802391,0.12237031012773514,0.004752269014716148,-0.09052687883377075,-0.07772870361804962,-0.013176040723919868,-0.14450311660766602,0.3418858051300049,-0.23116832971572876,-1.1018718481063843,0.6177974939346313,-0.16981397569179535,0.21082937717437744,0.045870617032051086,0.11177369952201843,0.042389266192913055,0.5519563555717468,-0.33158591389656067,0.0550926998257637,-0.2560799717903137,0.28081634640693665,0.2001217007637024,-0.08011401444673538,0.08531909435987473,0.07846939563751221,0.011252636089920998,0.09529133886098862,0.07343137264251709,0.31118133664131165,0.001741940388455987,0.23195511102676392,0.06788318604230881,0.3406292200088501,-0.1403786540031433,0.3250894844532013,-0.08430753648281097,0.11287692934274673,-0.329425185918808,0.026546433568000793,-0.013270535506308079,0.20414264500141144,-0.013892482034862041,0.169320747256279,-0.023121125996112823,0.14978307485580444,0.02225406840443611,-0.22701404988765717,0.11835689842700958,0.14438222348690033,-0.02653896063566208,0.27313992381095886,0.1056026965379715,0.2797468900680542,-0.18200451135635376,-0.25911179184913635,-0.4583253860473633,-0.06378182768821716,-0.18269699811935425,0.21834002435207367,-0.9307752251625061,-0.26166796684265137,-0.07782011479139328,0.31846344470977783,0.20767468214035034,0.22658920288085938,-0.3930601477622986,-0.15543147921562195,-0.17953617870807648,0.38480859994888306,-0.1053769439458847,-0.2365889549255371,0.2316528856754303,-0.027784012258052826,-0.25233912467956543,-0.010788433253765106,0.24264369904994965,0.20754921436309814,-0.38788315653800964,-0.03576255962252617,-0.2746950387954712,0.2537596821784973,0.09781976789236069,0.18290919065475464,-0.3474397361278534,-0.049648478627204895,-0.37359899282455444,0.39230096340179443,0.1428692638874054,0.2737889587879181,-0.24183937907218933,0.00481165898963809,-0.2989507019519806,0.2761633098125458,-0.10118699818849564,-0.3942578136920929,0.4559180438518524,-0.1648072600364685,-0.21647301316261292,0.2645838260650635,-0.1931016594171524,-0.11815953999757767,0.07857047766447067,-0.039268601685762405,0.07430694997310638,0.07664225995540619,-0.17655611038208008,0.35516488552093506,0.11356057226657867,0.07902653515338898,0.1311933398246765,-0.18113777041435242,-0.24178926646709442,-0.34044966101646423,0.015567494556307793,0.12279749661684036,0.16001468896865845,-0.020119698718190193,0.04987097159028053,0.03987642377614975,-0.3162180781364441,-0.02097773551940918,0.09392565488815308,-0.07023824006319046,-0.16927437484264374,-0.1283639818429947,0.2425111085176468,0.11683192104101181,0.15218617022037506,-0.18374598026275635,-0.10679294168949127,-0.2619324028491974,0.31163740158081055,-0.02107049711048603,0.0367974191904068,-0.042984094470739365,0.0038166677113622427,-0.007677285000681877,-0.0011842240346595645,0.06562988460063934,0.024938367307186127,-0.3543602228164673,-0.006647281348705292,0.22890397906303406,-0.16938287019729614,0.03540664166212082,0.22207437455654144,-0.1694856882095337,-0.06031012535095215,-0.011765850707888603,-0.2832804024219513,0.11324263364076614,-0.09199775755405426,0.30836042761802673,-0.27149859070777893,-0.34382280707359314,0.2175593227148056,0.5202800035476685,-0.14332053065299988,-0.2284035086631775,0.41865208745002747,0.24325621128082275,0.20790979266166687,-0.18875347077846527,-0.12340103089809418,-0.05209663510322571,0.07278348505496979,0.10471075028181076,0.0621810145676136,0.4593176245689392,-0.16318482160568237,0.046496499329805374,-0.017990635707974434,0.048877689987421036,-0.01704825460910797,-0.11926230788230896,0.16528165340423584,-0.09369944781064987,-0.2249186933040619,0.20532725751399994,0.05698058381676674,-0.08621126413345337,-0.029833247885107994,0.03533449396491051,-0.23904924094676971,0.010139415971934795,0.0641346424818039,0.049492284655570984,0.07309075444936752,0.10490576177835464,0.01838512159883976,-0.14490444958209991,0.07285625487565994,-0.11417803168296814,-0.08599495142698288,-0.061712443828582764,0.2828946113586426,0.1733376532793045,0.012512512505054474,-0.4521365165710449,-0.665622889995575,0.13308990001678467,0.8658841252326965,-0.5164260864257812,0.22444412112236023,-0.3727690875530243,-0.016502011567354202,0.025553449988365173,0.03676123544573784,0.3075103461742401,-0.39550742506980896,-0.15810713171958923,-0.12447451800107956,0.37356433272361755,-0.29270488023757935,-0.1752251535654068,0.3111986815929413,-0.1365119218826294,-0.09936247766017914,-0.008754868991672993,0.3127722442150116,0.2426997423171997,-0.3676200807094574,-0.23784594237804413,-0.1510026901960373,0.38174575567245483,0.18421536684036255,0.21257714927196503,-0.26097843050956726,-0.22108858823776245,-0.17470616102218628,0.4579225182533264,0.130942702293396,0.013447717763483524,-0.278987854719162,-0.19094185531139374,-0.16977761685848236,0.23103228211402893,-0.15223278105258942,-0.21409724652767181,0.3099854290485382,-0.17069126665592194,-0.11199890822172165,0.34981870651245117,-0.19088678061962128,-0.14723721146583557,0.2976440191268921,0.22584682703018188,0.31953829526901245,-0.1538841873407364,-0.08308515697717667,0.241463765501976,-0.11441460251808167,0.04006807878613472,-0.12066230922937393,-0.21874962747097015,-0.021749921143054962,-0.13426068425178528,-0.2659982442855835,-0.05385785922408104,0.24563655257225037,0.18364247679710388,-0.1649053394794464,-0.10455344617366791,-0.1490422785282135,-0.22944816946983337,-0.23806557059288025,-0.2667345106601715,0.09039479494094849,0.14455661177635193,0.041155487298965454,0.05528908967971802,0.0237344391644001,0.19614556431770325,0.2632761001586914,0.20570005476474762,0.09375803172588348,0.08754266053438187,-0.08314324170351028,-0.05837588757276535,-0.2170550376176834,-0.0020077296067029238,-0.0983143225312233,-0.052043743431568146,-0.0849360004067421,-0.2566716969013214,-0.294784277677536,-0.0581156425178051,-0.06423886120319366,-0.12198927253484726,-0.08716613799333572,0.05509017035365105,0.14391177892684937,0.022674404084682465,-0.05224490910768509,0.04772543907165527,0.12181992083787918,-0.06844478100538254,-0.38201311230659485,0.036875609308481216,0.18416526913642883,-0.036488018929958344,0.0783868134021759,-0.2198949009180069,-0.1363566666841507,0.14099305868148804,-0.14900758862495422,0.24701650440692902,0.11764839291572571,-0.02440946362912655,0.07058675587177277,0.013339633122086525,-0.09376578032970428,0.19077003002166748,0.0458567813038826,-0.2846483290195465,-0.161024272441864,-0.11535976827144623,0.10911284387111664,0.00529753603041172,-0.18694251775741577,0.0010845990618690848,-0.16972233355045319,-0.1172652542591095,0.12419060617685318,-0.014560962095856667,0.057888779789209366,0.08806177973747253,-0.06800482422113419,0.015212253667414188,-0.07963893562555313,0.15219806134700775,0.13244204223155975,-0.12651339173316956,0.22807447612285614,-0.18436887860298157,-0.027050888165831566,0.11018892377614975,-0.13361206650733948,0.03387627378106117,0.03854620084166527,0.03284769877791405,-0.15832404792308807,0.18056772649288177,-0.05309557542204857,0.07304573804140091,-0.0044702449813485146,0.06191406771540642,0.14650912582874298,0.14293737709522247,-0.07870427519083023,0.06227043643593788,0.3126782178878784,0.17395631968975067,0.20312996208667755,0.006665135268121958,-0.13865888118743896,0.06152492016553879,-0.039947137236595154,0.040356989949941635,0.0770564079284668,0.05429111793637276,0.016858922317624092,0.3017372786998749,0.032166313380002975,0.03584805503487587,-0.11184217780828476,-0.0955529436469078,0.18266688287258148,-0.02621862292289734,0.11246500164270401,0.04749498516321182,-0.128245547413826,-0.04225825518369675,-0.02777268923819065,0.1544770747423172,0.02003432624042034,-0.16333317756652832,0.04583378881216049,-0.016525626182556152,0.04960146173834801,0.07376431673765182,-0.1649065613746643,0.05992477014660835,-0.049286164343357086,-0.12171179056167603,0.03538394346833229,0.05104539170861244,0.2737347483634949,0.1995759904384613,-0.0023022324312478304,-0.17240166664123535,-0.2274782359600067,-0.2078641951084137,0.3327280879020691,-0.19586281478405,-0.12559989094734192,0.01651698909699917,-0.42484381794929504,-0.012913104146718979,-0.07885298132896423,0.1315678507089615,-0.136831596493721,0.016652178019285202,0.05842382460832596,0.08648530393838882,-0.03756284341216087,-0.19256150722503662,-0.023469021543860435,0.0522196963429451,-0.3286314606666565,0.029036283493041992,0.09383490681648254,0.05865766853094101,-0.0632854700088501,0.04763254523277283,0.7395541667938232,0.05986463651061058,-0.021948199719190598,0.36009708046913147,-0.07672852277755737,0.13296061754226685,-0.22251223027706146,0.02059129998087883,-0.1835123747587204,0.014232024550437927,0.10302956402301788,-0.005334809888154268,0.13255111873149872,0.08912814408540726,0.11594133079051971,-0.11603440344333649,-0.06894120573997498,0.05603637918829918,0.08712933957576752,0.09678173065185547,-0.038982804864645004,-0.053449563682079315,-0.029025115072727203,-0.17958635091781616,-0.6206101775169373,0.10544644296169281,0.5348495841026306,-1.3263919353485107,0.3500746488571167,0.012533634901046753,0.07693503051996231,-0.29552918672561646,0.02925710193812847,-0.1287386566400528,0.19490081071853638,0.031168660148978233,0.17852528393268585,-0.09155438095331192,0.1152978241443634,0.18764035403728485,-0.22271788120269775,-0.07683403789997101,0.14649032056331635,0.005006450694054365,-0.10582531243562698,-0.27673935890197754,0.0858849361538887,0.1257171332836151,0.13533787429332733,-0.3830774128437042,0.0544290691614151,-0.27129796147346497,-0.03920878469944,-0.11955718696117401,0.08120051771402359,-0.11229550838470459,-0.08998005092144012,0.03618359565734863,0.23892392218112946,0.14123250544071198,0.1256934255361557,-0.2838633358478546,0.0030527685303241014,0.19797594845294952,-0.0644005835056305,-0.026548326015472412,-0.01345755998045206,-0.1275840848684311,0.1807485967874527,0.16181746125221252,-0.26525890827178955,-0.07619648426771164,-0.1166219636797905,0.12450094521045685,-0.11541049927473068,-0.2012493908405304,0.07640167325735092,0.2166324257850647,0.0703173577785492,-0.02860521525144577,0.2415209859609604,-0.13342852890491486,-0.03442290052771568,0.09678389132022858,0.11836405098438263,-0.011430609971284866,-0.11694969236850739,0.07839327305555344,0.2705511748790741,0.1514759361743927,0.057460952550172806,0.07086188346147537,-0.08686361461877823,-0.6033073663711548,0.01691082864999771,0.5217645168304443,-0.5377773642539978,0.1741611361503601,-0.7295454740524292,-0.35411959886550903,-0.7697080969810486,1.0816255807876587,-1.1162070035934448,-0.9953009486198425,-0.9422006607055664,0.1368117481470108,-0.6938311457633972,0.26843497157096863,-0.5509958267211914,-0.3318483233451843,-0.12778186798095703,0.06393300741910934,0.16120430827140808,-0.09102499485015869,0.01070451084524393,0.33235400915145874,-0.2214292585849762,-0.07013200968503952,-0.4444343149662018,-0.020302575081586838,0.355584979057312,0.5248782634735107,-0.6571133136749268,0.026180325075984,0.015847543254494667,0.03060269169509411,-0.39855533838272095,-0.05069046467542648,0.28794458508491516,-0.16523729264736176,0.13748492300510406,-0.13870476186275482,-0.8209022283554077,0.3406085669994354,-0.27228814363479614,-0.541718602180481,0.29751771688461304,0.03001204878091812,-0.000486274337163195,0.03577081486582756,0.39641809463500977,-0.224922776222229,-0.4052251875400543,0.012700209394097328,-0.035955727100372314,0.17161209881305695,0.03171057254076004,-0.40661585330963135,0.08741532266139984,0.10855366289615631,0.23056118190288544,-0.07584017515182495,-0.22344624996185303,-0.12207897752523422,0.14827336370944977,0.2577010989189148,0.04914585500955582,-0.01627860777080059,-0.044116873294115067,0.017776723951101303,-0.2255161851644516,-0.11980409920215607,0.04829815402626991,0.1019337922334671,0.04004649817943573,0.055646128952503204,0.16213084757328033,0.09523076564073563,0.5214666724205017,0.10824668407440186,-0.018340760841965675,0.14366023242473602,0.020691202953457832,0.4290662407875061,-0.08978419750928879,-0.22053073346614838,-0.20619246363639832,0.3080419600009918,-0.048427268862724304,-0.34605222940444946,0.5434187054634094,0.3501446843147278,0.1263359785079956,0.4138758182525635,0.33379918336868286,-0.2549287974834442,0.14820145070552826,-0.01614275574684143,-0.2258138209581375,-0.2548457384109497,-0.2360781729221344,-0.12557771801948547,-0.057517584413290024,0.27314308285713196,-0.4033835232257843,-0.13303567469120026,-0.2321745902299881,0.25967633724212646,0.21909229457378387,-0.2478245049715042,-0.08380555361509323,-0.37229210138320923,0.21765053272247314,0.10096213221549988,0.005707439500838518,0.21423770487308502,0.014121019281446934,0.3068775534629822,-0.18774953484535217,-0.061405256390571594,0.12915590405464172,-0.13039664924144745,-0.18769334256649017,0.34078991413116455,-0.02135734260082245,-0.24659216403961182,-0.06278832256793976,0.10230443626642227,-0.355571985244751,-0.14188574254512787,0.3299764394760132,0.2177431583404541,-0.019061634317040443,-0.12668536603450775,0.23394811153411865,0.1378956288099289,-0.31586694717407227,0.21353481709957123,-0.009971694089472294,0.015455811284482479,0.5398221611976624,-0.22705884277820587,0.01982172392308712,-0.2111845314502716,0.10285370796918869,0.21879403293132782,0.05859769880771637,-0.04597257822751999,0.2727499306201935,-0.2031209021806717,-0.2687649428844452,-0.12122362852096558,-0.02080347388982773,0.07627201080322266,-0.06034710630774498,0.0516468808054924,0.07220663875341415,0.18299539387226105,-0.1842428296804428,-0.043034877628088,-0.08781686425209045,-0.08843978494405746,0.22197236120700836,-0.003879391821101308,-0.09476117044687271,-0.0872669443488121,0.09210824221372604,0.21969972550868988,-0.3444909155368805,0.06487570703029633,0.020535126328468323,0.06228671967983246,0.1963188648223877,0.2651354968547821,0.13018621504306793,-0.029387038201093674,0.23217998445034027,0.18595901131629944,-0.21484965085983276,-0.17056594789028168,-0.3295653164386749,-0.016727762296795845,0.1315433382987976,-0.1317627876996994,0.06367332488298416,-0.2828570008277893,-0.10951565951108932,0.35759854316711426,0.02795710228383541,-0.3390364348888397,0.22376029193401337,0.24015289545059204,-0.32759639620780945,-0.00940935779362917,0.12194442749023438,0.11267177760601044,0.20412805676460266,-0.10931617021560669,-0.16919787228107452,-0.1123226061463356,-0.1217857375741005,-0.03332017362117767,0.5596226453781128,-0.22329828143119812,0.49325260519981384,0.5993568301200867,0.13695673644542694,-0.11170889437198639,0.2051713764667511,0.2807811200618744,-0.2880723178386688,-0.005351237021386623,-0.25421085953712463,-0.4348270893096924,0.12435000389814377,0.07121431827545166,0.1878284215927124,-0.2100880742073059,0.2549067437648773,-0.12184924632310867,0.03755704313516617,-0.09042517095804214,-0.3355063199996948,0.0741969496011734,0.010697315447032452,0.07287226617336273,0.1302500069141388,0.1298336684703827,0.1325530707836151,-0.09437212347984314,0.4156062602996826,-0.2570611834526062,-0.19037051498889923,0.14878122508525848,-0.037826504558324814,0.043998848646879196,0.3052693009376526,-0.027860037982463837,-0.00948347058147192,0.35128843784332275,-0.018520645797252655,0.06679483503103256,0.007169811986386776,0.08360165357589722,-0.08260973542928696,0.01999395713210106,-0.08147532492876053,0.18410474061965942,-0.3446563482284546,-0.0621565505862236,0.1192636713385582,0.01886305771768093,0.12833045423030853,0.1254616379737854,0.07290925085544586,-0.31236955523490906,0.5539060831069946,0.23656368255615234,-0.03829271346330643,0.3705717921257019,-0.2608783543109894,0.20591485500335693,0.09987825900316238,-0.2506447434425354,0.4531484544277191,-0.23670604825019836,0.3398492932319641,0.13318438827991486,-0.19124840199947357,0.5093048214912415,0.14314238727092743,-0.17876426875591278,0.19098976254463196,-0.344594269990921,-0.04644311964511871,-0.21265573799610138,0.031719766557216644,0.18277832865715027,-0.09927181899547577,-0.21404577791690826,-0.05019928514957428,0.2529168725013733,0.025868667289614677,0.24374935030937195,-0.11637020856142044,0.0234978124499321,-0.2080455720424652,0.08019185066223145,-0.2772606909275055,-0.11776335537433624,-0.22722680866718292,0.19393692910671234,-0.23055286705493927,-0.19252145290374756,-0.11472728848457336,-0.02779831364750862,-0.08901883661746979,-0.09694432467222214,-0.04168436676263809,0.012222079560160637,-0.052487459033727646,-0.18621395528316498,-0.124668188393116,0.08990079164505005,0.09347383677959442,-0.08483780920505524,0.08222033083438873,0.015606093220412731,-0.14647766947746277,-0.1611071228981018,0.01219040434807539,0.1776203066110611,0.12263858318328857,0.119264155626297,-0.11280515044927597,-0.1510857790708542,0.12038430571556091,0.12150174379348755,0.13336902856826782,0.00449487054720521,-0.13536223769187927,-0.3015924096107483,-0.03569836914539337,-0.14671847224235535,-0.21297690272331238,-0.008856059052050114,-0.018692633137106895,-0.09426510334014893,-0.039034776389598846,0.07981177419424057,-0.197437584400177,0.0334332250058651,-0.031246978789567947,0.11740915477275848,-0.02476518042385578,-0.30414438247680664,0.04217398539185524,-0.004843329079449177,0.1479998081922531,-0.3069828450679779,-0.1986387073993683,-0.11924256384372711,-0.30623316764831543,0.43985578417778015,-0.17262107133865356,0.20929710566997528,0.18317538499832153,0.20255185663700104,-0.07909858226776123,-0.23404408991336823,-0.16751791536808014,0.029056554660201073,-0.11075984686613083,0.02686157450079918,-0.09078752249479294,0.08384864032268524,-0.08089254796504974,0.18043150007724762,0.0053200023248791695,0.11277422308921814,-0.07994735985994339,-0.07367102801799774,0.04287046566605568,0.14672085642814636,-0.03621174395084381,-0.1441212296485901,0.016942674294114113,0.0946941077709198,0.12447676062583923,0.23512810468673706,0.14952002465724945,0.054249122738838196,0.04554612562060356,-0.6283506751060486,-0.025456558912992477,0.026100942865014076,0.1108531653881073,-0.0960901752114296,0.041985780000686646,-0.06546333432197571,-0.17601515352725983,-0.0588420107960701,0.01416975911706686,0.19487912952899933,0.04932301118969917,0.517897367477417,-0.012687398120760918,-0.0012248234124854207,-0.21773464977741241,-0.06521700322628021,0.08802907168865204,-0.008338084444403648,0.1023181900382042,0.2383328229188919,0.08124137669801712,0.02927776798605919,-0.06479328870773315,-0.03132312744855881,0.05016027390956879,-0.14431904256343842,-0.07078361511230469,0.2697795629501343,-0.006891075987368822,0.07641693949699402,0.07084214687347412,0.09823665767908096,0.17772147059440613,0.03256353735923767,-0.08163008838891983,0.05394081398844719,0.10965220630168915,0.19830290973186493,0.02016904205083847,-0.03651867061853409,-0.1142989993095398,0.03590228036046028,-0.05593773350119591,0.03132033348083496,-0.005497470498085022,0.01796826161444187,0.13176727294921875,-0.07581073045730591,0.02023254707455635,0.18065747618675232,0.02945369854569435,0.01354818232357502,0.15256598591804504,-0.0018244865350425243,-0.003215285250917077,0.1124299019575119,-0.15930116176605225,-0.08613872528076172,-0.16751176118850708,-0.009259293787181377,0.3600803017616272,0.060124367475509644,0.12603120505809784,0.11579551547765732,0.1464395523071289,0.37693485617637634,-0.022929396480321884,0.17514853179454803,0.14005537331104279,-0.19771765172481537,0.27031028270721436,0.018272001296281815,-0.2195848673582077,0.059072211384773254,-0.045670412480831146,-0.03875403478741646,-0.13111990690231323,0.0014728227397426963,0.33158767223358154,0.2287801206111908,0.013313638046383858,-0.2877785563468933,-0.1214422732591629,0.0449543334543705,0.2883048355579376,0.12781725823879242,0.0016850926913321018,-0.14791131019592285,-0.20257821679115295,-0.04220660403370857,0.12271397560834885,0.29770562052726746,0.12031859904527664,-0.09024661779403687,0.3703562021255493,-0.3433232605457306,-0.19505754113197327,0.14666570723056793,-0.04958454892039299,-0.22603227198123932,0.26364898681640625,-0.021547313779592514,-0.12157928198575974,-0.0925038531422615,-0.14300596714019775,0.2819599211215973,-0.20391562581062317,0.09336432814598083,-0.16515152156352997,-0.14415179193019867,-0.33123132586479187,-0.03821873664855957,-0.18723441660404205,-0.1742924451828003,0.150509774684906,-0.07084102928638458,0.1069081500172615,0.05166415125131607,-0.14277902245521545,0.1969730406999588,0.002729527186602354,0.061232633888721466,0.2879009544849396,-0.19304434955120087,0.12134142965078354,0.02507234923541546,-0.19307966530323029,-0.23607780039310455,-0.10030339658260345,0.25170886516571045,0.10536298900842667,-0.11040123552083969,-0.06588728725910187,-0.11958901584148407,-0.06737910211086273,0.2798987627029419,0.22612346708774567,0.07031120359897614,-0.13736718893051147,-0.3255448341369629,-0.10272831469774246,0.10602831840515137,-0.1683138906955719,0.4064777195453644,-0.08779164403676987,-0.1981777399778366,0.09200551360845566,0.16791436076164246,-0.20004384219646454,-0.08956944197416306,0.2964383661746979,0.08257344365119934,-0.0576033815741539,-0.01641751080751419,0.2946256697177887,0.18671011924743652,-0.34146368503570557,0.127340629696846,-0.05825541913509369,-0.24783872067928314,-0.20939844846725464,0.20085200667381287,-0.03914390504360199,0.07210202515125275,0.08766701817512512,-0.10095608979463577,0.05574795603752136,0.011499637737870216,0.127531036734581,0.2727843225002289,0.13010886311531067,0.30887624621391296,-0.10883041471242905,-0.04261983186006546,0.14394494891166687,-0.23306904733181,0.20061002671718597,-0.1124572902917862,-0.32803547382354736,-0.24396774172782898,0.10146612673997879,0.04042394831776619,-0.055144160985946655,-0.3013629913330078,-0.04584209993481636,-0.10165341198444366,0.07362315058708191,0.02666722610592842,0.1762605756521225,0.029803207144141197,0.29130566120147705,0.01939384452998638,0.09616390615701675,0.06170038878917694,-0.08271390944719315,-0.14463768899440765,-0.0888226106762886,0.023443829268217087,0.024204138666391373,0.12151066958904266,-0.06724657863378525,0.06912151724100113,-0.020327674224972725,0.1298348307609558,0.05790455639362335,0.02148817665874958,0.0018063108436763287,0.06884078681468964,0.0005230270908214152,-0.40596237778663635,-0.11301301419734955,-0.03942069038748741,-0.30257153511047363,-0.18069759011268616,-0.11260581016540527,0.08020912110805511,-0.005465105641633272,-0.3557288944721222,-0.448535293340683,-0.05585746094584465,-0.024902351200580597,0.0692770779132843,-0.0480668731033802,-0.008087736554443836,0.010076858103275299,0.025221889838576317,0.18400582671165466,-0.030820129439234734,-0.23686483502388,-0.1921863853931427,-0.04263288155198097,0.16757553815841675,-0.018144842237234116,0.1262771636247635,-0.19097000360488892,-0.4007800221443176,-0.2428499311208725,-0.23964975774288177,-0.2801651358604431,-0.07842852175235748,-0.13346543908119202,-0.19779564440250397,-0.17488107085227966,0.16015425324440002,-0.03907902538776398,-0.10262113809585571,0.07540152966976166,-0.2036604881286621,-0.0832151472568512,-0.15900814533233643,0.08847199380397797,-0.34516724944114685,0.17104656994342804,0.3241296708583832,0.04270246997475624,-0.0780361145734787,-0.04641219601035118,-0.1203366070985794,0.10204042494297028,-0.07992444187402725,0.1456788331270218,-0.08204087615013123,0.015720505267381668,0.14282360672950745,0.2117030918598175,-0.005342960823327303,0.18377143144607544,0.18969297409057617,0.039369016885757446,0.058023691177368164,0.1340324878692627,-0.12466230988502502,-0.050668902695178986,-0.04240364581346512,-0.20174892246723175,-0.1348022222518921,-0.011818806640803814,-0.04206667095422745,0.08179135620594025,-0.22148531675338745,-0.03719634562730789,0.04548460617661476,-0.051123932003974915,0.09066355973482132,-0.05667435750365257,-0.03587494045495987,0.13702724874019623,0.31113070249557495,-0.08281555771827698,-0.0575619600713253,-0.03175211325287819,0.03442084416747093,-0.12051472812891006,-0.08006035536527634,0.004403247963637114,0.07415197789669037,0.0934770256280899,0.05383547022938728,-0.07002928107976913,0.14483888447284698,0.14522869884967804,0.09848933666944504,0.03064822591841221,-0.10556235164403915,0.1450158804655075,-0.15424486994743347,0.0028985580429434776,0.0008968197507783771,0.172341987490654,-0.06606373190879822,0.08017398416996002,0.25769859552383423,0.0931481122970581,0.09337958693504333,0.18786312639713287,0.06081466004252434,-0.023259136825799942,-0.16541238129138947,-0.11533459275960922,0.04158329963684082,-0.12131131440401077,-0.028773285448551178,-0.06613028049468994,-0.21595320105552673,-0.13257329165935516,0.056853290647268295,-0.054099395871162415,0.03857865929603577,0.007273231167346239,0.018115928396582603,0.025331804528832436,0.005364526528865099,0.06951189041137695,-0.2289726734161377,0.06476359069347382,0.3741016089916229,-0.0733736902475357,-0.19750674068927765,0.13511434197425842,0.034143127501010895,-0.006292505655437708,0.033854611217975616,0.09834866970777512,0.18740268051624298,0.16319973766803741,-0.08142340928316116,-0.035562239587306976,0.4187028110027313,0.25156545639038086,-0.10166805237531662,-0.2314230352640152,-0.13001234829425812,-0.10857788473367691,0.06115404888987541,0.1021319106221199,-0.11424721777439117,0.0036063333973288536,0.14623568952083588,-0.22614550590515137,-0.09558483958244324,-0.11647549271583557,-0.007813611999154091,-0.10694249719381332,-0.07504284381866455,-0.04378947615623474,-0.031450312584638596,-0.2490457445383072,-0.18422138690948486,-0.009273671545088291,-0.017418861389160156,0.15107589960098267,-0.09987259656190872,-0.19065183401107788,-0.13697099685668945,-0.14970184862613678,0.21240189671516418,0.21594253182411194,-0.06045876815915108,-0.1153256744146347,-0.17942500114440918,-0.05699322372674942,-0.013006087392568588,-0.2992416322231293,0.1783728450536728,-0.14873281121253967,-0.11537006497383118,-0.006974764633923769,0.05647426098585129,-0.1616308093070984,-0.19915403425693512,0.1212151050567627,-0.06862534582614899,0.1102365255355835,-0.2806575298309326,0.1560737043619156,-0.12292374670505524,-0.09754836559295654,-0.08750291913747787,-0.037313222885131836,-0.026635803282260895,0.026028018444776535,0.17242586612701416,0.0793013796210289,0.03500830754637718,-0.07003840804100037,0.03179313242435455,0.04719824343919754,-0.06662728637456894,0.03824639320373535,-0.05290396511554718,-0.3170384466648102,0.18222448229789734,-0.0207771435379982,0.104783795773983,0.04897197335958481,0.14504007995128632,0.1380760669708252,-0.15177448093891144,0.0561918169260025,0.15817388892173767,0.10375897586345673,0.05586564913392067,0.03389279171824455,-0.053687628358602524,-0.09290055185556412,0.05528544262051582,0.15170066058635712,0.12460176646709442,-0.08864043653011322,0.04282969608902931,0.09513553977012634,-0.47051307559013367,0.14313967525959015,0.15963521599769592,-0.032401859760284424,-0.09669788181781769,0.1467362344264984,-0.2023255079984665,-0.18073835968971252,-0.14045876264572144,0.05644917115569115,-0.08519340306520462,-0.24572260677814484,-0.4441901743412018,0.1474665403366089,-0.33986660838127136,-0.013074405491352081,0.008351552300155163,0.002655741525813937,-0.3021383583545685,0.1789139211177826,-0.11419057101011276,-0.40306970477104187,-0.015721773728728294,-0.013632189482450485,-0.06737585365772247,0.06626101583242416,0.08626796305179596,-0.37989503145217896,0.08569000661373138,-0.09255383908748627,-0.071028932929039,-0.10933136940002441,-0.07823168486356735,0.09411457926034927,0.27680638432502747,0.044775985181331635,-0.19806183874607086,-0.32617858052253723,-0.014875046908855438,-0.07107491791248322,-0.07044562697410583,-0.16580237448215485,-0.036775026470422745,-0.2823307514190674,-0.247826486825943,-0.179944708943367,-0.11673671752214432,0.14656253159046173,-0.17398685216903687,-0.02356557361781597,-0.016378777101635933,-0.08045114576816559,0.010580051690340042,-0.03586128354072571,-0.15913978219032288,0.07367073744535446,0.07227209955453873,-0.3724476099014282,-0.022000156342983246,-0.2679762840270996,-0.8880881667137146,0.049629103392362595,-0.2896476686000824,0.07561840116977692,0.41367053985595703,0.2863140404224396,0.1512013077735901,-0.016030438244342804,0.0005980551359243691,-0.15008963644504547,0.05398658290505409,-0.06708009541034698,-0.0881696566939354,-0.049361832439899445,-0.03834722563624382,0.08086735755205154,-0.059079643338918686,-0.05545946583151817,0.06797157227993011,0.08239123970270157,-0.09090028703212738,0.05559024587273598,-0.16197140514850616,0.3345353603363037,0.2749360203742981,0.09085901826620102,0.0951077789068222,-0.21169152855873108,0.015901805832982063,-0.06994929909706116,0.23649941384792328,0.1600281298160553,0.15440422296524048,0.09485172480344772,0.06098262593150139,0.04375632479786873,-0.07926864922046661,0.04763107746839523,-0.032530706375837326,0.042587049305438995,-0.17483043670654297,0.23776286840438843,0.1637328565120697,-0.01012315135449171,0.015462752431631088,0.04750639200210571,0.0008120237034745514,0.2856142520904541,-0.06798319518566132,0.3030678331851959,-0.12491875886917114,0.002798632252961397,0.07345331460237503,-0.03098016232252121,-0.24895808100700378,-0.1928957998752594,0.3633873462677002,0.01829945296049118,-0.029032716527581215,-0.0840577706694603,-0.18481992185115814,0.05996076762676239,-0.006981448736041784,0.1361229121685028,0.03153718635439873,-0.09139813482761383,0.005748839117586613,0.07339124381542206,0.20243854820728302,-0.018810464069247246,-0.12099108099937439,-0.07104480266571045,0.08602403849363327,0.059173520654439926,0.1960829794406891,0.011145658791065216,-0.0934922844171524,-0.12941347062587738,0.02694360539317131,0.2884684205055237,0.07274903357028961,-0.0636485144495964,-0.10237983614206314,0.06504087895154953,0.03501473739743233,-0.0322616845369339,0.11093698441982269,0.06507682055234909,-0.07135344296693802,0.15742580592632294,0.10068634152412415,-0.21390318870544434,-0.14452975988388062,-0.05671008303761482,0.11727012693881989,0.0015541237080469728,0.46467462182044983,-0.19100789725780487,0.08213388919830322,0.2557830214500427,0.14393125474452972,0.0077939447946846485,0.061321455985307693,-0.03815736621618271,-0.009116964414715767,0.13336962461471558,0.04724440723657608,0.0005102981813251972,-0.08049986511468887,-0.12504282593727112,-0.11710503697395325,-0.09227254241704941,-0.32372188568115234,0.06365546584129333,-0.009326381608843803,-0.00961963552981615,-0.051542118191719055,0.03887223079800606,-0.07397762686014175,-0.07001888006925583,-0.021337075158953667,0.003700965316966176,0.14425355195999146,0.010653086937963963,0.06544194370508194,0.06385242938995361,-0.03843078017234802,0.09567055106163025,-0.02295939065515995,0.03895009681582451,-0.0825151652097702,0.06846034526824951,0.13322338461875916,-0.29100093245506287,0.003612365573644638,0.03501720353960991,-0.13643981516361237,-0.0939568355679512,-0.09970849752426147,-0.09620801359415054,-0.06510385125875473,-0.2759241461753845,-0.04188210889697075,-0.3828142285346985,-0.09688494354486465,-0.165912926197052,-0.1867971420288086,-0.08546896278858185,0.18311505019664764,-0.1265677660703659,-0.27305009961128235,0.27254849672317505,-0.21369801461696625,0.06278453022241592,0.16488732397556305,-0.256867378950119,0.07384312152862549,0.19085776805877686,-0.09779952466487885,0.15316574275493622,-0.07710255682468414,0.200142040848732,-0.038326989859342575,-0.25006285309791565,-0.007964851334691048,-0.05235138162970543,0.20207113027572632,0.15470197796821594,0.11239415407180786,-0.06608740240335464,-0.09396034479141235,-0.029074454680085182,0.1471686065196991,0.014280534349381924,0.03571683168411255,-0.2154226154088974,-0.23695585131645203,-0.2031192183494568,0.13662807643413544,-0.3206692636013031,0.3799179792404175,0.12662410736083984,-0.2665223181247711,0.10722006112337112,0.02504209615290165,-0.14489631354808807,0.05804859846830368,0.09805674105882645,0.2496359944343567,0.09170585125684738,-0.10488518327474594,-0.012600606307387352,-0.2942487299442291,0.25696587562561035,0.24417197704315186,0.06409051269292831,0.003752957098186016,-0.14263597130775452,0.1406070590019226,-0.041498541831970215,-0.05336514860391617,-0.31924301385879517,0.05763877555727959,0.1534009575843811,0.10719677060842514,0.02694060280919075,-0.178807333111763,-0.031004924327135086,0.07290780544281006,0.05907749757170677,-0.17004434764385223,-0.5212591886520386,0.7818173170089722,0.44245243072509766,-0.4913381338119507,-0.056931737810373306,-0.09502838551998138,-0.05795011669397354,0.595548152923584,-0.7503535151481628,0.9278424978256226,0.7482004761695862,-0.0143262455239892,-0.349478155374527,0.36923107504844666,-0.7438653707504272,0.26323646306991577,-0.2018350213766098,-0.033857036381959915,-0.3744451105594635,0.1881633996963501,0.2569519877433777,0.12583228945732117,0.16407737135887146,0.21912595629692078,0.3321991264820099,-0.03612792491912842,0.13112959265708923,-0.3264860510826111,0.1014326885342598,-0.036120958626270294,0.0965147390961647,0.08160199224948883,-0.15297770500183105,-0.16866877675056458,0.4739476144313812,0.4405256509780884,-0.019899101927876472,-0.33237364888191223,-0.09772861003875732,-0.3735456168651581,-0.07347015291452408,-0.03811910003423691,-0.270937979221344,-0.017240332439541817,0.4385412037372589,0.22935481369495392,0.1475374847650528,-0.10567458719015121,-0.270467072725296,0.14619986712932587,-0.4839305579662323,0.2705868184566498,-0.1584610939025879,0.12155802547931671,-0.2272818684577942,-0.37996017932891846,-0.21542318165302277,-0.08073791861534119,0.0696578100323677,0.1531084179878235,0.3569338321685791,-0.12137506902217865,0.1365768164396286,0.3610514998435974,-0.17358018457889557,0.1024712547659874,0.008919371291995049,-0.10709887742996216,0.20780883729457855,0.003424785565584898,0.26281896233558655,0.2162160873413086,-0.0048341513611376286,0.09977468103170395,0.10132381319999695,0.10790064185857773,-0.23947180807590485,0.09797456860542297,-0.04809464514255524,0.16666047275066376,0.08684032410383224,0.027942001819610596,-0.3390709459781647,0.012289023958146572,-0.10136748105287552,0.11173312366008759,-0.18000687658786774,-0.11892027407884598,0.07585015892982483,0.18623831868171692,-0.07077210396528244,-0.15005286037921906,-0.3449421226978302,0.024621907621622086,-0.09963759034872055,-0.19221793115139008,-0.44919392466545105,-0.05506691336631775,-0.006501464638859034,-0.014345111325383186,-0.06653586775064468,0.3190588653087616,-0.048505641520023346,-0.27882805466651917,-0.3110021948814392,0.0043634395115077496,0.2901386022567749,0.2660830020904541,-0.14881254732608795,-0.015196380205452442,0.020303837954998016,0.08377289026975632,0.0869157463312149,-0.15073175728321075,-0.1697431057691574,0.46568456292152405,0.07767747342586517,0.05017886683344841,-0.08780874311923981,-0.30821874737739563,0.1764484941959381,0.0988055020570755,-0.2243497222661972,-0.014803342521190643,-0.047165755182504654,0.1153067797422409,0.19333165884017944,0.13599826395511627,0.13159774243831635,-0.08039884269237518,0.1285248100757599,0.026499414816498756,-0.19752061367034912,-0.12072668224573135,-0.3677346110343933,-0.013743625953793526,0.033889107406139374,0.1674703061580658,-0.06955484300851822,0.09606912732124329,-0.050977446138858795,0.10079653561115265,-0.09278621524572372,-0.23564457893371582,0.29814112186431885,-0.0065176645293831825,0.11367547512054443,0.229997918009758,0.1521085798740387,-0.33663079142570496,0.11046052724123001,-0.0024370267055928707,0.12692339718341827,-0.17065203189849854,-0.11744114756584167,-0.14380982518196106,-0.18764282763004303,0.013938535004854202,0.07324167340993881,0.29493117332458496,-0.07100038975477219,-0.20411983132362366,0.18431994318962097,0.09871257841587067,0.15408822894096375,-0.27565303444862366,-0.19267795979976654,-0.1510411649942398,0.11367316544055939,0.0828942060470581,-0.2494696080684662,0.006984702777117491,-0.20039178431034088,0.2530234456062317,-0.18803679943084717,0.36404749751091003,-0.24019134044647217,-0.17292660474777222,-0.5257284641265869,0.37376365065574646,-0.22160989046096802,0.17164985835552216,0.00855997484177351,0.22383525967597961,0.24585950374603271,-0.38608747720718384,0.024222811684012413,-0.05505482479929924,-0.17127494513988495,0.036859069019556046,0.509825587272644,0.2528534531593323,0.23684705793857574,0.07163587957620621,-0.3913382589817047,-0.2648961544036865,0.402736634016037,0.23690183460712433,-0.08299809694290161,-0.26275649666786194,-0.03063417412340641,0.064820796251297,-0.37864845991134644,-0.2785528898239136,0.08521575480699539,-0.15535767376422882,-0.4483925700187683,-0.30614808201789856,0.04970785230398178,0.17298263311386108,-0.22509248554706573,0.043164003640413284,-0.1260838657617569,0.19709637761116028,-0.33101001381874084,0.061230674386024475,0.034707747399806976,-0.12746164202690125,0.2176586091518402,0.2840854227542877,-0.13833194971084595,-0.008904073387384415,0.0333201102912426,-0.14683634042739868,-0.024667298421263695,-0.2536996006965637,-0.1768440455198288,0.25152119994163513,0.0005966582684777677,0.09385959804058075,0.012894194573163986,0.21350035071372986,0.13394983112812042,-0.12948822975158691,-0.377709299325943,-0.07758302986621857,0.5333570241928101,0.0076262918300926685,0.1959623247385025,-0.039287276566028595,0.27435624599456787,-0.04776614531874657,0.034858182072639465,-0.1415574997663498,-0.35124027729034424,0.06713373959064484,-0.40437376499176025,-0.08048831671476364,0.10117720067501068,0.2538640797138214,0.1045372486114502,-0.01762429066002369,-0.006913966964930296,0.10198569297790527,-0.22543780505657196,-0.031002378091216087,-0.26068881154060364,0.133591890335083,-0.2385888695716858,-0.4932152032852173,0.005781710147857666,0.2075781226158142,-0.30718904733657837,-0.28631898760795593,0.18677537143230438,0.43944767117500305,0.28150370717048645,0.027319131419062614,-0.3878272473812103,-0.06854791939258575,-0.0293051078915596,-0.028581930324435234,0.01882224716246128,0.2581418454647064,0.01363589707762003,-0.2032083421945572,-0.11948762089014053,0.16028758883476257,-0.11591710895299911,-0.07203053683042526,-0.3753896951675415,0.051653627306222916,0.08588727563619614,-0.019449003040790558,-0.07005301117897034,0.14633725583553314,-0.11581604927778244,0.04868476837873459,0.1387249380350113,0.07090135663747787,-0.27969998121261597,-0.01608904078602791,0.034399665892124176,0.060186874121427536,-0.06804589182138443,-0.14970339834690094,-0.03775090351700783,0.20775249600410461,0.08722265064716339,0.08657525479793549,-0.18917246162891388,0.07955949008464813,0.0016014088178053498,-0.1529550552368164,0.16652758419513702,0.05707315355539322,-0.06381136178970337,-0.21667692065238953,-0.224228635430336,-0.11325623095035553,0.11620115488767624,0.14057686924934387,0.05215439945459366,-0.15165886282920837,-0.08852695673704147,-0.033259131014347076,0.0935111790895462,-0.20516268908977509,0.018459908664226532,-0.010483396239578724,0.1269342452287674,-0.012282765470445156,-0.054621655493974686,-0.03617206960916519,0.10667450726032257,-0.16616898775100708,0.0631975531578064,0.17426936328411102,-0.16330461204051971,-0.21061478555202484,-0.277986615896225,-0.01084013469517231,-0.02285415306687355,-0.22759802639484406,-0.024197526276111603,0.3056612014770508,0.17627564072608948,-0.0531255304813385,-0.018170567229390144,0.03805909678339958,-0.05149794742465019,-0.1191570833325386,-0.4169387221336365,0.04799848422408104,-0.009970380924642086,0.30594876408576965,0.03635220602154732,-0.01868399791419506,0.07256702333688736,0.11128952354192734,0.014802267774939537,-0.24811342358589172,-0.017080672085285187,-0.28886088728904724,-0.025564011186361313,0.05025282874703407,-0.0821472778916359,-0.24729782342910767,-0.002984853694215417,-0.09240441024303436,0.18593524396419525,-0.3325400948524475,0.03985794633626938,0.17532476782798767,0.11251171678304672,0.15574318170547485,0.06309371441602707,0.15419423580169678,0.30934208631515503,-0.01647922210395336,-0.12837281823158264,-0.2104368507862091,-0.098184734582901,0.0963946133852005,-0.06192752718925476,0.1560693383216858,-0.06242642551660538,-0.03492654114961624,0.005339008755981922,-0.0659647211432457,0.1644490510225296,-0.39793938398361206,-0.006319677457213402,0.012072968296706676,0.3596158027648926,-0.2502104640007019,0.29441654682159424,-0.05878300219774246,0.07509701699018478,-0.08778123557567596,0.24515821039676666,-0.034179143607616425,-0.026803702116012573,0.2063189446926117,-0.08556919544935226,0.14410647749900818,0.273283988237381,0.08640220016241074,-0.21765440702438354,-0.3878977298736572,0.06005750596523285,0.11327997595071793,0.27896127104759216,-0.133003830909729,-0.010766614228487015,-0.1072603091597557,0.1973685324192047,-0.04613898694515228,0.20565469563007355,-0.03401961922645569,0.038753196597099304,-0.1429758071899414,0.18272769451141357,0.06049606576561928,0.6482449173927307,-0.43202921748161316,-0.1365247368812561,0.3174399137496948,-0.19196027517318726,-0.14172440767288208,0.0818028599023819,-0.17336837947368622,-0.12792232632637024,0.14099593460559845,-0.2915879189968109,0.13278904557228088,-0.17159728705883026,0.10377319157123566,0.10772469639778137,0.23109716176986694,0.29865366220474243,-0.0546591579914093,0.23083294928073883,-0.3866605758666992,0.170100137591362,-0.4475269913673401,0.22349990904331207,0.21588021516799927,0.1551976352930069,-0.32144078612327576,0.044567663222551346,0.17946463823318481,-0.06947828084230423,-0.1637207716703415,0.4113762676715851,-0.17326684296131134,-0.16637924313545227,-0.43119126558303833,-0.07534687966108322,0.19461379945278168,0.04649871215224266,-0.04597582295536995,0.06725548207759857,-0.008029693737626076,0.22065122425556183,0.06748902052640915,-0.01449589803814888,-0.051776450127363205,-0.17746135592460632,-0.007297032978385687,0.2436385452747345,-0.019584042951464653,0.25239670276641846,-0.45460283756256104,0.23473921418190002,1.1224969625473022,0.049899689853191376,-0.07630648463964462,0.091954804956913,-0.33489108085632324,-0.012515905313193798,0.1601858139038086,-0.27942386269569397,-0.01781296916306019,0.15479911863803864,0.14954206347465515,0.05704312026500702,0.023503921926021576,-0.2742547392845154,0.0026378503534942865,0.033888597041368484,-0.045792900025844574,0.04507427662611008,0.07616261392831802,-0.0217158030718565,0.1423216462135315,0.15957458317279816,0.001015471643768251,0.14944477379322052,-0.061959315091371536,-0.005182240158319473,-0.06327803432941437,-0.07842627167701721,0.11497257649898529,-0.12065154314041138,0.06597097218036652,0.17969466745853424,0.010956876911222935,-0.049018703401088715,0.12019111216068268,0.09511443227529526,0.011948272585868835,-0.14189520478248596,-0.01314066257327795,0.16778051853179932,-0.09019842743873596,-0.23787254095077515,0.00792385172098875,0.15524673461914062,-0.1018473356962204,0.0462338924407959,0.03379504382610321,0.04900108277797699,0.1159684881567955,-0.06396899372339249,-0.02227219194173813,-0.07281478494405746,-0.023288680240511894,0.07636316120624542,-0.011698645539581776,-0.0017423543613404036,-0.14819246530532837,-0.09385403990745544,-0.018024083226919174,0.09477797895669937,-0.13730505108833313,-0.037350259721279144,0.04182283207774162,-0.18582943081855774,0.024543525651097298,0.004204805474728346,1.0501177310943604,0.03417803719639778,0.13031859695911407,0.05407004803419113,0.32074666023254395,-0.09856334328651428,-0.05935435742139816,-0.2915165424346924,0.0856969878077507,-0.684006929397583,-0.223725825548172,-0.2072945088148117,-0.1420471966266632,0.06316268444061279,0.07945956289768219,0.11767727136611938,0.07833326607942581,-0.005098709836602211,-0.0021115473937243223,0.02978864125907421,0.005099054891616106,0.20643927156925201,-0.25848230719566345,-0.07156326621770859,0.14451071619987488,-0.05020613223314285,0.08057398349046707,0.01902591623365879,0.038483813405036926,0.07754861563444138,-0.6475099921226501,0.15127982199192047,-0.06420238316059113,-0.025585563853383064,-0.16949746012687683,0.02711893804371357,-0.009731573052704334,-0.24690742790699005,0.07977785915136337,0.10585395246744156,0.20024670660495758,-0.09082145243883133,-0.3316297233104706,0.43279656767845154,-0.17567628622055054,-0.3885658383369446,-0.09641127288341522,0.1482691764831543,1.1563702821731567,-0.22265596687793732,0.0664646178483963,-0.05138346180319786,0.16918201744556427,0.17471882700920105,-0.05060853809118271,-0.06914801895618439,-0.18463726341724396,-0.8317159414291382,0.14088760316371918,-0.258161723613739,0.015277406200766563,0.1625853329896927,0.006219999864697456,-0.04664512723684311,-0.04863457754254341,0.03768320009112358,0.11951643973588943,-0.03186392784118652,0.17019400000572205,0.059651751071214676,-0.35790538787841797,-0.2395542562007904,0.10100214183330536,0.057820312678813934,-0.17110063135623932,-0.28854426741600037,0.09226253628730774,-0.3205951452255249,-1.0987935066223145,-0.06389477103948593,0.2674122154712677,-0.16854029893875122,-0.26544246077537537,0.03040497936308384,-0.12703941762447357,-0.38824987411499023,-0.13914047181606293,0.2218666523694992,0.31507906317710876,0.40264439582824707,-0.1382322609424591,0.7721863389015198,-0.19269484281539917,-0.13433289527893066,-0.0009299048688262701,0.0738169476389885,-0.13775919377803802,0.03827158734202385,-0.07361449301242828,-0.18786682188510895,0.11360274255275726,0.04134313762187958,0.1685430109500885,-0.13428157567977905,-0.34171852469444275,0.1456296592950821,0.13419103622436523,-0.01171080581843853,-0.03185229003429413,0.060739342123270035,-0.04112614318728447,-0.19987308979034424,-0.007441292982548475,-0.277425080537796,-0.1031990498304367,-0.10889609158039093,0.14272171258926392,0.06263317912817001,-0.055823635309934616,-0.18876652419567108,-0.1028287410736084,0.15315662324428558,-0.2600579559803009,-0.08240706473588943,0.040330491960048676,-0.04601341485977173,-0.13930828869342804,0.047226157039403915,0.1449836939573288,0.00804443471133709,0.029254205524921417,0.025054829195141792,-0.2229601889848709,-0.0981246754527092,-0.30513858795166016,-0.23769688606262207,-0.03201911225914955,-0.18391790986061096,-0.28376972675323486,-0.029446782544255257,0.0734361782670021,0.22336989641189575,-0.16933926939964294,-0.007887590676546097,-0.09021681547164917,0.14355580508708954,-0.1737665832042694,0.07975779473781586,-0.12850362062454224,-0.2868245542049408,-0.17351239919662476,-0.0860198438167572,0.04097360372543335,0.1163363829255104,-0.04150397703051567,0.0899210050702095,0.055475082248449326,-0.0023193294182419777,0.030834730714559555,0.11811713874340057,-0.03393290564417839,-0.0955226942896843,-0.18994249403476715,0.02657420188188553,0.00939860288053751,0.20933134853839874,0.05119460076093674,0.3311004042625427,0.02819175273180008,-0.08520375937223434,0.158493310213089,0.09227942675352097,-0.3809903562068939,0.11122004687786102,0.09133962541818619,-0.07315343618392944,0.010189604945480824,0.22356490790843964,-0.03733205050230026,-0.17483539879322052,0.23883245885372162,-0.03012019954621792,-0.03595079109072685,-0.0016132311429828405,-0.016879959031939507,-0.010853980667889118,0.13177336752414703,0.34764912724494934,0.16847191751003265,0.20687246322631836,0.23739169538021088,0.13177622854709625,-0.5028332471847534,0.43602001667022705,0.05608273670077324,0.14753426611423492,0.11212180554866791,0.05400383472442627,-0.09409930557012558,-0.12210752815008163,-0.12217556685209274,0.014400821179151535,-0.2038770169019699,-0.0852346122264862,-0.08816796541213989,-0.13561557233333588,0.025362078100442886,-0.06097565218806267,0.36850449442863464,-0.06898131221532822,0.032945360988378525,0.0594676174223423,0.07259495556354523,0.07014556229114532,0.027170291170477867,-0.01365020964294672,0.007308679632842541,-0.028366418555378914,0.1455666571855545,0.34693703055381775,0.27247822284698486,0.41188380122184753,0.5681012868881226,-0.2691427171230316,-0.16065724194049835,-0.11181533336639404,-0.14807681739330292,-0.22006134688854218,0.1119779720902443,0.08933315426111221,0.07714326679706573,0.06695926934480667,-0.28205931186676025,-0.11593766510486603,-0.31130531430244446,-0.4617050290107727,-0.07582227140665054,-0.20857563614845276,0.1284528523683548,-0.07839168608188629,-0.12032157927751541,0.09766458719968796,0.011702238582074642,0.12187200039625168,0.31135642528533936,0.038178496062755585,-0.1779204159975052,-0.25390365719795227,-0.023948315531015396,-0.20832504332065582,0.1907593309879303,0.016110865399241447,0.15001988410949707,0.04021213948726654,0.04181518405675888,0.10090284049510956,-0.10367124527692795,-0.035479478538036346,0.16481690108776093,0.06271594762802124,0.11294437199831009,-0.021468672901391983,0.06023420765995979,-0.10607918351888657,0.12091638147830963,-0.062024690210819244,-0.13195565342903137,0.0927325114607811,0.06428083777427673,-0.085123211145401,-0.15488368272781372,-0.24743340909481049,0.1601463258266449,0.017645545303821564,0.12983563542366028,0.09413943439722061,-0.06099577248096466,0.08042661845684052,0.060029421001672745,0.0780220702290535,0.10952305793762207,0.14582131803035736,-0.0499843955039978,0.7156440019607544,-0.1830342411994934,-0.01289068628102541,0.4300328493118286,0.012759274803102016,0.051606204360723495,-0.3015746772289276,-0.19754470884799957,-0.38742581009864807,0.3289681077003479,0.055079035460948944,-0.008999735116958618,0.06738103181123734,-0.041235823184251785,-0.29635733366012573,0.2684852182865143,0.20202358067035675,0.2937193512916565,0.14896343648433685,-0.12654583156108856,-0.3383825421333313,-0.2215118557214737,0.006770860869437456,-0.02538570575416088,0.02611786499619484,-0.12541787326335907,-0.2037062644958496,0.022618988528847694,-0.07128222286701202,0.19026553630828857,0.18289323151111603,0.027760503813624382,-0.18159522116184235,0.43443846702575684,-0.07512401044368744,-0.3975856900215149,0.004720437806099653,0.11453655362129211,0.09877818822860718,0.02290256880223751,0.1006598100066185,-0.097850501537323,0.22609156370162964,-0.15248055756092072,-0.20208890736103058,-0.3213256597518921,-0.03552582487463951,-0.1056613177061081,-0.09995660185813904,-0.04880938678979874,-0.07521761208772659,-0.3226454257965088,-0.11223475635051727,0.13977770507335663,-0.16276836395263672,0.2250831574201584,-0.040316808968782425,0.010132795199751854,-0.04124821722507477,0.0672110915184021,-0.29642534255981445,-0.386172354221344,-0.14057469367980957,-0.4014124572277069,0.00010351728269597515,-0.0427401028573513,0.028309592977166176,-0.1309172362089157,0.14528107643127441,-0.25770628452301025,0.03495583310723305,0.018021700903773308,0.25128382444381714,0.013705609366297722,0.17655310034751892,-0.20563434064388275,-0.26800277829170227,0.05253481864929199,0.16546322405338287,-0.23899270594120026,-0.1947939097881317,-0.30589771270751953,-0.285776823759079,-0.29298603534698486,-0.060303814709186554,0.20866873860359192,0.08288329094648361,-0.10744869709014893,0.1769079864025116,-0.023610223084688187,-0.17259308695793152,-0.027135858312249184,0.06387540698051453,0.2820274233818054,-0.0905926525592804,0.11023689061403275,-0.4463900625705719,-0.1746091991662979,0.05831385776400566,0.08897460252046585,0.08451911062002182,0.030008552595973015,0.006503309588879347,0.16256064176559448,-0.03244388848543167,0.03473711758852005,0.07494591176509857,0.06715278327465057,-0.17908170819282532,-0.3289526700973511,-0.000049380105338059366,0.23792819678783417,0.008630720898509026,-0.0012024572351947427,0.24377743899822235,-0.0470946840941906,0.12738527357578278,0.22901053726673126,-0.03829412907361984,0.01804633066058159,-0.0064357793889939785,0.04506033658981323,0.05245219171047211,-0.06366851180791855,-0.26963841915130615,-0.1940278261899948,0.11063449829816818,-0.1471218317747116,-0.0940789058804512,0.12791942059993744,0.057059478014707565,0.0614573173224926,-0.15501248836517334,0.24817265570163727,-0.05983801186084747,-0.03584059700369835,0.11402112245559692,-0.0074035353027284145,0.00682971952483058,-0.09765468537807465,-0.1042642667889595,0.1148136779665947,0.0742373988032341,0.2786926031112671,0.25211188197135925,-0.05389077216386795,0.10994350165128708,0.18623308837413788,-0.06185954064130783,0.15609897673130035,-0.2428712695837021,-0.0200196523219347,-0.012037252075970173,0.10726100206375122,-0.03677579015493393,-0.18667393922805786,0.03995436057448387,-0.12850822508335114,0.035367488861083984,-0.12641119956970215,0.08561229705810547,-0.036813780665397644,-0.11985074728727341,-0.03128762170672417,-0.09896369278430939,-0.22434955835342407,-0.030498377978801727,0.20980395376682281,0.09621396660804749,-0.09302292764186859,-0.08632802218198776,0.10523191839456558,-0.17730073630809784,0.12581048905849457,0.056837741285562515,-0.02372610569000244,0.018847905099391937,0.07928593456745148,-0.03840649500489235,-0.33047279715538025,0.04293470457196236,-0.005338010378181934,0.018477777019143105,0.08943498879671097,-0.048403672873973846,0.1345767229795456,0.12081961333751678,-0.05417206883430481,0.06710397452116013,-0.03806478530168533,0.15022122859954834,0.22333548963069916,0.0016309026395902038,0.17856444418430328,0.42521876096725464,-0.01824091002345085,-0.7191777229309082,0.301697701215744,0.2586372494697571,-0.037914641201496124,-0.1519235521554947,-0.19691090285778046,0.2343343198299408,0.1569085717201233,0.007396583911031485,0.3788241744041443,0.2613212466239929,0.10277161747217178,-0.3129318356513977,-0.23668460547924042,0.11752469092607498,0.050852540880441666,0.06352370977401733,-0.08053595572710037,-0.18164090812206268,0.08868510276079178,0.04517507180571556,0.18181036412715912,0.14673274755477905,-0.10642991214990616,-0.2278963178396225,-0.0700111910700798,0.2487381398677826,-0.0374194011092186,0.3207177519798279,-0.15724404156208038,0.4945856034755707,0.08096105605363846,-0.07680153101682663,-0.10676214098930359,-0.039045337587594986,-0.06982654333114624,-0.02651948295533657,0.14030493795871735,-0.05936221778392792,0.10332921892404556,0.06077060103416443,0.21882039308547974,-0.03403066098690033,-0.3732621967792511,0.194761723279953,0.0024970322847366333,-0.15104588866233826,0.21196462213993073,-0.018410660326480865,0.04468521103262901,0.12759214639663696,0.02757578343153,-0.24540822207927704,0.0031838612630963326,0.11495298892259598,-0.05934883654117584,-0.1982279270887375,0.23773200809955597,0.10418014228343964,0.035763707011938095,0.19757908582687378,0.6313870549201965,0.2824615240097046,0.49275627732276917,-1.0126999616622925,-0.7266903519630432,-0.08428685367107391,0.23403093218803406,-0.10361889749765396,0.3418676555156708,0.1775658130645752,-0.8748050928115845,0.5536300539970398,-0.04321596771478653,-0.6428710222244263,0.1951335221529007,-0.24436861276626587,-0.09686461091041565,-0.012512057088315487,0.08684388548135757,-0.2165517359972,0.014513098634779453,0.016781402751803398,-0.09618104994297028,-0.24062618613243103,-0.2639176547527313,0.02067588083446026,-0.18827639520168304,-0.13650795817375183,0.018318090587854385,-0.13051842153072357,-0.030699294060468674,0.013637023977935314,-0.04400111734867096,-0.17637161910533905,-0.06808512657880783,-0.25155889987945557,0.1903197467327118,-0.1384274661540985,0.11176618933677673,-0.2078278511762619,-0.40649038553237915,-0.023124244064092636,-0.3845135569572449,0.11557023972272873,0.26030030846595764,0.04146131873130798,0.28338098526000977,-0.03085758164525032,0.016324980184435844,0.42270427942276,-0.18680375814437866,-0.14451158046722412,0.27380824089050293,-0.2332843691110611,-0.32947099208831787,0.19669026136398315,0.4868934154510498,-0.0018765783170238137,-0.44862601161003113,-0.09346019476652145,0.043123774230480194,-0.03992483764886856,-0.16815252602100372,-0.034692566841840744,-0.09070587903261185,-0.10230108350515366,0.10705794394016266,0.17403697967529297,0.1888878345489502,0.16698503494262695,0.14167706668376923,0.06058824807405472,-0.24573054909706116,0.028079146519303322,0.03435992822051048,-0.1636170893907547,0.28046396374702454,0.22568272054195404,-0.16245296597480774,0.08956953883171082,-0.02961302176117897,-0.026735039427876472,-0.010239912196993828,0.20126290619373322,-0.2675248086452484,0.031161371618509293,0.05809992551803589,-0.2333635538816452,0.3978389501571655,0.126840278506279,0.11015962809324265,0.10143736004829407,-0.24871030449867249,-0.19261454045772552,-0.3428143858909607,-0.06289584189653397,-0.21300452947616577,0.17422965168952942,0.2134111374616623,0.2691382169723511,-0.24865858256816864,0.2673078179359436,-0.07813113182783127,-0.11242355406284332,-0.05033019557595253,0.1418377012014389,-0.18791340291500092,0.19952517747879028,-0.04301748424768448,-0.10530275106430054,-0.1663922518491745,0.08519242703914642,0.008610250428318977,-0.13441969454288483,-0.12905539572238922,-0.2239535003900528,0.02262517437338829,-0.23726356029510498,0.06367924064397812,0.031437963247299194,-0.12197375297546387,0.0009759255917742848,-0.14510270953178406,-0.02022521011531353,0.10462956875562668,-0.10341381281614304,0.14561232924461365,-0.33997464179992676,-0.05350213125348091,0.10705462098121643,0.0694916695356369,0.07706273347139359,0.26064857840538025,-0.0755189061164856,-0.20459063351154327,0.05679377168416977,-0.09374861419200897,0.0047822450287640095,0.07188558578491211,0.05538824945688248,-0.07098647952079773,0.23528172075748444,0.18994936347007751,0.0331730991601944,-0.13095420598983765,0.054743994027376175,0.10585521161556244,0.04830847680568695,0.2094269096851349,0.2191796600818634,-0.15014003217220306,-0.25040432810783386,-0.18598301708698273,-0.07080758363008499,0.032710324972867966,-0.07794259488582611,0.18165145814418793,-0.0036148405633866787,0.11108263581991196,0.06809791177511215,0.037998173385858536,0.025394275784492493,0.128820538520813,0.049641840159893036,-0.1373496949672699,0.045614276081323624,-0.17767752707004547,-0.2115279883146286,-0.15299364924430847,-0.112991563975811,0.06775932013988495,-0.20969831943511963,0.24417966604232788,-0.24112209677696228,0.172304168343544,0.10029614716768265,-0.11732382327318192,0.201721653342247,-0.29575735330581665,-0.2542324662208557,-0.16214676201343536,-0.10201360285282135,0.0051192049868404865,-0.2593378722667694,0.29374030232429504,-0.04444451257586479,-0.0958949625492096,-0.09170089662075043,-0.2072819471359253,-0.04401116818189621,-0.08017054200172424,-0.1513085663318634,0.018554359674453735,0.1731228232383728,-0.06279952824115753,-0.13657255470752716,0.07741441577672958,-0.07475446164608002,0.1839342713356018,-0.003153662895783782,-0.07991260290145874,0.057989347726106644,0.31189045310020447,-0.05734126642346382,-0.27338138222694397,0.4020303785800934,-0.2942105829715729,-0.17389535903930664,0.06195935234427452,-0.03318987786769867,0.2525700032711029,0.3495144844055176,-0.35067659616470337,0.15413311123847961,-0.05350417271256447,0.06014856696128845,0.1069956049323082,0.07201610505580902,-0.16691341996192932,-0.05989515036344528,-0.2495783418416977,-0.039377935230731964,-0.04818567633628845,-0.10063041001558304,-0.14181478321552277,0.17018531262874603,0.05849440023303032,0.03621667996048927,-0.041756521910429,-0.008587769232690334,-0.1526235044002533,0.07188331335783005,-0.052777837961912155,0.35253435373306274,0.06570351868867874,-0.16680081188678741,-0.21859072148799896,-0.2845442593097687,0.1097482219338417,0.11822422593832016,0.1923833042383194,-0.17463375627994537,0.09784886986017227,0.15933534502983093,-0.12388144433498383,-0.11840404570102692,0.20268355309963226,0.2084295004606247,-0.15046539902687073,0.09529300779104233,-0.2257906049489975,0.2174859642982483,0.24559228122234344,0.06691864877939224,0.15521951019763947,0.020495779812335968,-0.14480812847614288,0.338461697101593,-0.07542815804481506,-0.22359029948711395,-0.07862810045480728,-0.3453359305858612,0.11872120201587677,-0.2660260796546936,-0.11790306121110916,0.1614873707294464,-0.2666429281234741,-0.0669594556093216,-0.23618082702159882,0.438137412071228,-0.07082319259643555,0.09460053592920303,-0.2629372775554657,0.10571091622114182,0.31120526790618896,-0.32070785760879517,-0.18571867048740387,-0.06941749900579453,0.0499204620718956,-0.13670378923416138,-0.18760177493095398,-0.04624156653881073,0.10721006989479065,0.006667236797511578,-0.054539941251277924,-0.3751333951950073,-0.03547587990760803,-0.0578596293926239,0.02751695178449154,-0.08641866594552994,-0.339862197637558,-0.11484891176223755,-0.4730979800224304,0.0041122459806501865,0.22893618047237396,0.3978429138660431,0.04596637561917305,-0.19928045570850372,-0.33340251445770264,0.04424557462334633,0.03887233883142471,-0.20805342495441437,-0.1333206593990326,0.20302478969097137,-0.05093197152018547,0.015307719819247723,-0.07176676392555237,-0.14126363396644592,-0.0073846569284796715,-0.03447721526026726,0.42988815903663635,0.10811328887939453,-0.04408769682049751,-0.04330997169017792,0.1808125376701355,0.2753126621246338,-0.14077018201351166,-0.11390553414821625,0.2924276292324066,0.2046930342912674,-0.24823284149169922,-0.014922041445970535,0.235444113612175,0.18089783191680908,-0.02477799914777279,0.15972717106342316,0.23265723884105682,-0.29753366112709045,-0.03542013093829155,0.02935667708516121,0.18058548867702484,-0.37490034103393555,-0.08169123530387878,-0.0958712249994278,0.013292948715388775,0.43589383363723755,0.07092433422803879,-0.009670091792941093,0.1885875016450882,0.07989256083965302,-0.03615507483482361,0.20631559193134308,-0.14874500036239624,-0.054443273693323135,0.29632896184921265,-0.19294779002666473,-0.018842468038201332,0.01038306299597025,0.18477313220500946,-0.0685962662100792,-0.1612793654203415,0.04210393875837326,-0.09888014942407608,-0.41141557693481445,-0.11438343673944473,0.1534409373998642,0.3499750792980194,0.01206072699278593,0.1222420260310173,-0.289372056722641,-0.0760250836610794,-0.011049877852201462,0.20949900150299072,0.16296379268169403,0.1715175062417984,-0.1422717571258545,0.1712018847465515,-0.023623673245310783,0.35363638401031494,-0.07536434382200241,-0.11706459522247314,0.13667894899845123,-0.06531108170747757,-0.27860283851623535,0.027446474879980087,-0.06172318384051323,-0.2654576897621155,0.0994008406996727,0.1447303295135498,0.1534195840358734,-0.276595801115036,0.011634367518126965,0.08808062225580215,0.14399129152297974,-0.0054343221709132195,-0.16241773962974548,0.004040440544486046,-0.28704002499580383,-0.1336156576871872,0.07656969130039215,-0.18741771578788757,-0.08864255249500275,-0.3280078172683716,-0.338051974773407,-0.24316057562828064,0.024514444172382355,0.0966021791100502,-0.23763860762119293,0.05544069781899452,0.08343841880559921,0.051478613168001175,-0.009824655950069427,0.13540968298912048,0.12144962698221207,-0.10352697968482971,-0.13523343205451965,-0.08365672826766968,-0.19974496960639954,-0.03219985216856003,-0.2190464586019516,0.07350463420152664,0.18011263012886047,-0.07612038403749466,-0.12446864694356918,0.07616264373064041,-0.012178701348602772,-0.1098441407084465,-0.20030644536018372,-0.04047832638025284,-0.23351384699344635,-0.10639020800590515,-0.13356807827949524,0.16648346185684204,-0.006998173892498016,-0.19114361703395844,0.14148470759391785,0.05539868026971817,0.045787762850522995,0.10281791538000107,-0.04632684215903282,-0.1148124411702156,0.09705805778503418,-0.051220957189798355,-0.1775253862142563,0.24172066152095795,-0.06098784878849983,-0.025187436491250992,-0.2727940082550049,0.02609165944159031,0.13188053667545319,-0.14142563939094543,0.11596701294183731,-0.03967101126909256,0.08683466166257858,-0.12721557915210724,-0.058835674077272415,0.38442665338516235,-0.15247291326522827,-0.1259206086397171,0.3153042793273926,0.07326823472976685,-0.07275640964508057,0.027359897270798683,0.18364308774471283,-0.10498663038015366,-0.14186519384384155,-0.008117886260151863,-0.021219993010163307,0.04064619168639183,-0.23370501399040222,-0.026276007294654846,0.1966954618692398,-0.0665857195854187,0.029376890510320663,0.09408582001924515,0.0031007088255137205,0.03127491846680641,-0.1577785313129425,0.04915725439786911,0.1133107841014862,0.04397225379943848,-0.08027396351099014,0.06300234794616699,-0.07157967239618301,-0.01721310243010521,-0.058774616569280624,0.003138255327939987,-0.031782012432813644,-0.01320322323590517,-0.11928758025169373,-0.07783140987157822,0.19166994094848633,0.12407505512237549,0.004797882400453091,-0.1401904672384262,0.10320381820201874,0.22665078938007355,0.007733604870736599,0.04677095636725426,-0.1639263927936554,0.3209359049797058,-0.025914814323186874,0.10155734419822693,0.24094688892364502,0.08355840295553207,0.3824533522129059,0.14803670346736908,0.19212639331817627,-0.043476492166519165,-0.37318313121795654,-0.12874659895896912,-0.1194581463932991,-0.04094357043504715,0.14096258580684662,-0.010712317191064358,0.26051390171051025,0.1214437484741211,-0.03515617176890373,0.04957285150885582,0.1379213184118271,0.034927863627672195,-0.025271393358707428,-0.17805255949497223,0.10945876687765121,0.05575840547680855,-0.0659116581082344,-0.004754035267978907,0.3716409206390381,0.042986176908016205,0.09093569219112396,0.5636968612670898,0.15666617453098297,-0.09187021851539612,-0.2620985805988312,0.10165601223707199,-0.046826645731925964,0.11209802329540253,0.5095385909080505,-0.09004901349544525,0.10822193324565887,-0.21273502707481384,-0.13992004096508026,-0.0866970494389534,-0.08175937831401825,-0.006965609733015299,-0.07816137373447418,-0.03540429845452309,-0.03358737751841545,0.02692446857690811,0.05524652823805809,-0.02768067456781864,-0.012732158415019512,-0.1663568764925003,-0.11713128536939621,-0.07554203271865845,-0.1867496818304062,0.17614838480949402,0.057662878185510635,-0.1718379557132721,-0.06227283552289009,0.10430734604597092,-0.01367543451488018,-0.05449938774108887,-0.13232403993606567,0.14380653202533722,0.09744095802307129,0.1188240498304367,-0.2577417194843292,0.093765988945961,0.07725393027067184,-0.14688169956207275,-0.07840532809495926,0.06116374582052231,-0.04756021872162819,0.06523425877094269,-0.09990384429693222,-0.05143408477306366,-0.11997152864933014,-0.132737934589386,0.10444701462984085,0.09247548133134842,0.22171005606651306,-0.047899167984724045,0.06306471675634384,0.003011157037690282,0.08408374339342117,-0.000007901227036199998,-0.025856371968984604,0.1614336371421814,-0.019420824944972992,-0.17008572816848755,-0.0282781682908535,-0.05321425572037697,-0.17236287891864777,0.2063675969839096,-0.23428687453269958,-0.15375955402851105,0.07442066818475723,0.21594096720218658,0.07667036354541779,-0.29936257004737854,0.23370665311813354,0.02242610976099968,-0.1834799200296402,0.016820423305034637,-0.008959196507930756,0.2919436991214752,-0.040633074939250946,-0.07056953758001328,-0.24999330937862396,-0.16726696491241455,-0.12180881947278976,0.2977662682533264,0.19033975899219513,0.12237638235092163,-0.2575777769088745,0.0822296291589737,0.1834559291601181,0.22470198571681976,-0.06355440616607666,-0.17956975102424622,-0.005848946049809456,-0.11786012351512909,0.07182291150093079,0.2111508697271347,-0.03294972702860832,0.025853652507066727,0.1955900937318802,-0.02601836621761322,-0.09874936938285828,-0.13673491775989532,0.09486585110425949,-0.12596918642520905,-0.01970873773097992,0.051953043788671494,-0.1762506067752838,0.13592246174812317,0.008886067196726799,-0.008510151877999306,0.01216930616647005,0.036663416773080826,0.0869041383266449,0.15850816667079926,0.05184105783700943,-0.039888110011816025,-0.07894551008939743,-0.07701297104358673,-0.19436509907245636,0.09727095067501068,-0.23897004127502441,-0.14658018946647644,0.057371873408555984,-0.030464010313153267,0.03964699059724808,-0.17620745301246643,0.18089552223682404,-0.13955120742321014,-0.13190008699893951,-0.06074928119778633,0.029466301202774048,0.028419097885489464,-0.17392151057720184,-0.1300012618303299,0.048435766249895096,-0.10926841199398041,-0.1276918202638626,0.03514903411269188,-0.04905219003558159,-0.053554583340883255,0.06868666410446167,-0.007734242361038923,0.011575290933251381,-0.028092848137021065,-0.062472403049468994,-0.010035306215286255,-0.12232381850481033,-0.028326265513896942,-0.07410620152950287,-0.11040795594453812,-0.04930383712053299,0.022381098940968513,-0.3287144601345062,-0.010566468350589275,0.038247495889663696,0.03978780284523964,0.22989830374717712,0.06979623436927795,-0.04849446192383766,-0.014172462746500969,-0.31364408135414124,-0.12453208863735199,-0.060716625303030014,0.15148098766803741,-0.2623264491558075,-0.12091439217329025,-0.09482266008853912,0.28591567277908325,-0.05467335507273674,0.05027695745229721,0.3635290563106537,-0.051695019006729126,-0.009161153808236122,-0.08808722347021103,0.06147242709994316,-0.2650969922542572,0.01275312714278698,0.18496748805046082,0.03469644859433174,-0.08572132140398026,-0.27104365825653076,-0.0988416001200676,0.28364959359169006,-0.2216552346944809,-0.07295569777488708,0.039294980466365814,-0.037558287382125854,0.07921895384788513,-0.08267202228307724,0.17152747511863708,0.038410067558288574,-0.0963171049952507,0.06880725920200348,0.10177674889564514,0.04270868003368378,-0.2656460702419281,-0.027278495952486992,-0.1611914187669754,0.07025369256734848,0.041289202868938446,0.3425441086292267,-0.08519122004508972,-0.020314881578087807,-0.14182192087173462,-0.1363995224237442,0.023104285821318626,-0.21894411742687225,0.1078302264213562,-0.0831693634390831,0.054651275277137756,0.04035864770412445,0.13791526854038239,-0.39221498370170593,0.13890418410301208,-0.06879881769418716,-0.10397861897945404,0.1480298489332199,0.010403027758002281,-0.09432534873485565,0.13485127687454224,0.04716355353593826,0.032982151955366135,-0.23771905899047852,0.07848518341779709,0.029545674100518227,0.028430234640836716,0.13296888768672943,0.11645257472991943,-0.041055332869291306,0.011487330310046673,-0.07131490111351013,-0.04474032297730446,-0.059209130704402924,-0.052143894135951996,-0.05930090695619583,0.2504640519618988,-0.24436984956264496,0.04751889407634735,0.10782178491353989,-0.19181588292121887,0.06598243117332458,0.1781020313501358,0.012159265577793121,-0.029002277180552483,-0.009344103746116161,-0.024757057428359985,-0.011836730875074863,0.10916080325841904,-0.022443439811468124,-0.0042623961344361305,0.12865935266017914,0.344728946685791,0.039779480546712875,0.08140113949775696,-0.14150293171405792,-0.030222002416849136,-0.022000696510076523,-0.3758651614189148,-0.15603868663311005,0.25613638758659363,0.27734264731407166,0.17870882153511047,-0.06764942407608032,0.025677071884274483,-0.02119084633886814,0.07587593048810959,-0.002381101483479142,-0.10805138945579529,-0.05842320993542671,-0.3575867712497711,0.0019619744271039963,0.10458855330944061,-0.4026062786579132,0.04438011720776558,-0.1578904241323471,0.018992532044649124,0.055116601288318634,0.195612370967865,-0.12472952902317047,0.1134503036737442,0.06716295331716537,0.10447673499584198,0.0299726203083992,0.1389407366514206,-0.20345157384872437,-0.026546580716967583,0.13394999504089355,0.10725972801446915,-0.05053478479385376,0.04832114651799202,0.16000215709209442,0.040021173655986786,0.08690590411424637,-0.3856566250324249,-0.03180987015366554,-0.019821707159280777,-0.3805667459964752,-0.14729711413383484,-0.1802174150943756,0.039687223732471466,-0.1421349197626114,-0.26848912239074707,0.2590041160583496,0.25319960713386536,0.19928449392318726,0.021509690210223198,-0.25273987650871277,-0.243520587682724,-0.3862130343914032,-0.1449877917766571,-0.2085617184638977,0.054334450513124466,-0.22323134541511536,-0.12048690021038055,