{"version":"0.5.4","metadata":{"date":{"year":2026,"month":1,"day":19,"hour":1,"minute":17,"second":3},"loudness":-28.420732498168945,"gain":0.684733876322626,"name":"G12-2204-1","modeled_by":"lum","gear_type":"amp","gear_make":"tz-make","gear_model":"tz-model","tone_type":"overdrive","input_level_dbu":null,"output_level_dbu":null,"training":{"settings":{"ignore_checks":false},"data":{"latency":{"manual":null,"calibration":{"algorithm_version":1,"delays":[0],"safety_factor":1,"recommended":-1,"warnings":{"matches_lookahead":false,"disagreement_too_high":false}}},"checks":{"version":3,"passed":true}},"validation_esr":0.0016975937179241171}},"architecture":"WaveNet","config":{"layers":[{"input_size":1,"condition_size":1,"head_size":8,"channels":16,"kernel_size":3,"dilations":[1,2,4,8,16,32,64,128,256,512],"activation":"Tanh","gated":false,"head_bias":false},{"input_size":16,"condition_size":1,"head_size":1,"channels":8,"kernel_size":3,"dilations":[1,2,4,8,16,32,64,128,256,512],"activation":"Tanh","gated":false,"head_bias":true}],"head":null,"head_scale":0.02},"weights":[0.5092608332633972,0.616135835647583,-1.2852935791015625,-0.8896955847740173,-0.21073193848133087,0.6252527236938477,-0.10596973448991776,1.0066664218902588,-0.2659766376018524,0.5200281739234924,-0.5821349024772644,-0.5428537726402283,-1.3170150518417358,-0.8525621294975281,-0.7778720855712891,0.5069425106048584,0.26491841673851013,0.2617626488208771,-0.45357608795166016,0.12445064634084702,0.21176396310329437,-0.235648974776268,-0.229739710688591,-0.06111135333776474,0.33835363388061523,-0.17935995757579803,-0.033628031611442566,0.21721458435058594,-0.2621577978134155,-0.19081351161003113,0.23846982419490814,0.3335937261581421,0.07954739779233932,-0.4367296099662781,-0.2371351569890976,-0.25820571184158325,0.24194695055484772,0.32120802998542786,0.2303587794303894,-0.28664031624794006,-0.18347851932048798,-0.2428310066461563,0.3775453269481659,0.07912790030241013,0.07899120450019836,-0.42350590229034424,-0.12521100044250488,-0.09819623082876205,0.28696951270103455,-0.21919283270835876,-0.08803997933864594,0.5072522759437561,-0.14029064774513245,-0.1483066827058792,0.45251795649528503,-0.2811870574951172,-0.13875027000904083,0.24392293393611908,-0.3021281361579895,-0.24413612484931946,0.4371687173843384,0.299586683511734,0.10449406504631042,-0.3603934645652771,-0.016027403995394707,0.027722684666514397,0.03032112866640091,-0.17169155180454254,-0.09120617061853409,0.29514065384864807,0.09552565962076187,0.13597531616687775,-0.09695356339216232,0.32333651185035706,0.3131590783596039,-0.027670107781887054,0.23557071387767792,0.06833335757255554,-0.10287612676620483,-0.2905287444591522,-0.31967857480049133,0.29764026403427124,0.21734619140625,-0.027876708656549454,-0.22159357368946075,-0.22952845692634583,-0.2121219038963318,0.08874182403087616,0.23092156648635864,0.07938293367624283,-0.1365523487329483,-0.13875868916511536,-0.08807697892189026,0.21515539288520813,0.06470470875501633,0.10019925981760025,-0.08200441300868988,0.23089273273944855,0.07336005568504333,-0.2557065486907959,0.34354448318481445,0.28660252690315247,-0.21718701720237732,0.16826288402080536,0.04937561973929405,-0.15930603444576263,0.09199244529008865,0.07256121188402176,-0.1731329709291458,-0.1776704341173172,-0.2480536252260208,0.2938384711742401,-0.21444232761859894,-0.13683585822582245,0.3835451304912567,-0.1979265660047531,-0.11158233135938644,0.12820708751678467,0.09608019143342972,0.10443989187479019,-0.07407984137535095,0.08446212112903595,-0.001991973491385579,-0.05150797590613365,-0.06551854312419891,-0.014266173355281353,-0.12847930192947388,-0.15467990934848785,-0.12452588975429535,0.007660615257918835,0.03492594510316849,0.07681462913751602,-0.13856381177902222,-0.08343014866113663,0.03436921536922455,0.10897921770811081,0.0964525118470192,0.0706232339143753,-0.06399054080247879,-0.002214298816397786,0.049640361219644547,0.2026604413986206,0.2237931340932846,0.06615722179412842,-0.25155317783355713,0.02236117422580719,0.1777835339307785,-0.11940634250640869,0.004367447923868895,-0.04013398289680481,-0.25905007123947144,-0.04392383247613907,0.04186190664768219,-0.04239802807569504,0.158567875623703,-0.0654417872428894,-0.0393696092069149,-0.2172289490699768,-0.10585272312164307,0.07038703560829163,0.3017675578594208,0.17360177636146545,-0.571549654006958,0.2635936737060547,0.018085742369294167,-0.4042838215827942,-0.4518570899963379,0.01282509695738554,0.27910685539245605,-0.39376121759414673,0.08903411775827408,0.34202101826667786,-0.25105226039886475,-0.00650811567902565,0.21460223197937012,0.4799211323261261,0.021205564960837364,-0.47976770997047424,-0.18756255507469177,-0.09266424924135208,0.4002944827079773,0.3547256886959076,0.14178834855556488,-0.36433184146881104,-0.3074215054512024,0.01244860328733921,0.3609684407711029,0.3780137002468109,-0.06334241479635239,-0.3182002902030945,-0.28185606002807617,0.048414237797260284,0.2952019274234772,-0.3900286555290222,-0.14538238942623138,0.3304416835308075,-0.47211793065071106,0.008957487531006336,0.3192468583583832,-0.38999876379966736,-0.03384063020348549,0.49657493829727173,-0.49649694561958313,-0.1396656334400177,0.33150026202201843,0.4989107549190521,-0.02831055410206318,-0.3272875249385834,-0.0693262442946434,-0.19508904218673706,0.03693312779068947,-0.02117692306637764,0.02681085281074047,-0.06760698556900024,-0.005420004948973656,0.006457554176449776,-0.08088375627994537,-0.08099375665187836,0.10335185378789902,-0.08077488839626312,-0.03393549472093582,0.11647296696901321,0.07305117696523666,-0.002895565703511238,-0.11783086508512497,0.028932468965649605,-0.05478107929229736,-0.003103878814727068,0.08736911416053772,-0.015366208739578724,0.01575019210577011,0.08559819310903549,0.032876964658498764,0.13971948623657227,0.15409332513809204,-0.08669554442167282,0.07623910903930664,-0.13960087299346924,-0.059992000460624695,0.03009415604174137,0.08257260918617249,0.11597014963626862,-0.05091666430234909,0.047254133969545364,0.06627251952886581,-0.15301671624183655,0.13779255747795105,-0.12398310005664825,-0.009921619668602943,0.011216620914638042,-0.07404059916734695,0.010641933418810368,0.1564234048128128,-0.0680612251162529,-0.07748990505933762,-0.1148812398314476,-0.3071492910385132,-0.27362963557243347,0.2508362829685211,-0.16817142069339752,-0.17788808047771454,0.2649869918823242,0.1472579538822174,0.1983512043952942,-0.13856244087219238,0.023557148873806,0.04551815614104271,-0.13594084978103638,0.1725982427597046,0.11614231765270233,-0.2227359563112259,-0.15188297629356384,-0.23030175268650055,0.21605850756168365,-0.01052455697208643,-0.05888573080301285,0.04604817181825638,-0.16552948951721191,-0.10258625447750092,0.22475554049015045,0.09231308102607727,0.002517289947718382,-0.2671222388744354,0.02216041088104248,-0.0847034677863121,0.2903616428375244,0.03610986843705177,0.13777880370616913,-0.21344149112701416,0.08488131314516068,0.012725044041872025,-0.12753959000110626,0.11753223091363907,0.08536273241043091,-0.21621908247470856,-0.015131762251257896,0.1883932501077652,-0.28875741362571716,0.13653060793876648,0.04315711930394173,-0.25991272926330566,-0.08919423818588257,-0.17673251032829285,0.215190127491951,0.12364749610424042,-0.6094868183135986,0.24229472875595093,0.19296669960021973,-0.2106805443763733,0.06286512315273285,-0.25246661901474,0.24644452333450317,-0.038328249007463455,-0.18304888904094696,0.31540459394454956,0.017317285761237144,-0.21354608237743378,0.23153051733970642,-0.009507903829216957,0.13442401587963104,-0.2638292908668518,0.09937912225723267,-0.22949866950511932,0.24953976273536682,0.10223444551229477,0.25985395908355713,-0.17909903824329376,0.10096369683742523,-0.04710402339696884,0.21394047141075134,-0.17151345312595367,-0.005549516063183546,-0.13949401676654816,0.16213271021842957,-0.22258682548999786,0.33213064074516296,0.029076293110847473,0.023025985807180405,0.4064531922340393,0.03562336787581444,-0.16587446630001068,0.21582865715026855,0.03614087402820587,-0.04842514544725418,0.1781221479177475,0.049199048429727554,-0.0586748830974102,0.35300213098526,-0.17708276212215424,0.14689072966575623,-0.34123098850250244,0.1904969960451126,0.08409930765628815,0.0006056389538571239,-0.005965512711554766,0.24463564157485962,0.02402740903198719,0.10222519934177399,-0.28509676456451416,-0.045294810086488724,-0.1303834319114685,-0.322915643453598,-0.19280318915843964,0.08170931041240692,-0.08724106103181839,0.061721064150333405,0.08072169125080109,0.048559267073869705,-0.026786552742123604,0.0011216150596737862,-0.21163050830364227,0.07210303097963333,-0.06370504200458527,0.11172465234994888,-0.06184966862201691,-0.049471814185380936,-0.036666031926870346,0.06734099984169006,0.10781243443489075,0.29748988151550293,0.2043008804321289,-0.004884823691099882,-0.11844152957201004,0.04934016987681389,0.015979833900928497,-0.033745720982551575,0.003761693835258484,0.06661252677440643,-0.23619988560676575,-0.009930414147675037,-0.017559004947543144,-0.21584129333496094,-0.15741418302059174,-0.11216644197702408,-0.2921496629714966,0.02329479157924652,0.07553806900978088,0.1623838245868683,-0.012850853614509106,0.12536321580410004,0.06567361205816269,-0.15553945302963257,0.026237644255161285,0.16383510828018188,0.1370025873184204,-0.1416342556476593,0.10494991391897202,0.025550441816449165,-0.02397063560783863,0.051089055836200714,-0.16603568196296692,0.011455624364316463,0.08929802477359772,-0.07873053103685379,-0.0779583528637886,-0.024460501968860626,0.0403943695127964,-0.06878511607646942,0.026223231106996536,0.07988658547401428,0.13350540399551392,-0.05768680199980736,0.09212138503789902,0.03735252469778061,0.06647143512964249,-0.19172947108745575,0.04631911963224411,-0.0792773887515068,0.019328413531184196,0.013095797039568424,-0.1313754916191101,-0.031103910878300667,0.15504013001918793,-0.012219763360917568,-0.1742095947265625,-0.005458551459014416,-0.0021041547879576683,-0.19539383053779602,0.10255086421966553,-0.160811647772789,-0.2214050441980362,-0.10615509003400803,-0.056829847395420074,0.01717561110854149,-0.10066753625869751,0.13530269265174866,0.02574680559337139,-0.020268797874450684,0.05415453389286995,-0.34511759877204895,0.18893763422966003,0.20741420984268188,0.1364426612854004,0.046332813799381256,-0.22981931269168854,0.11843162775039673,0.028836164623498917,-0.06200143322348595,-0.11798826605081558,-0.0149119533598423,-0.278293639421463,-0.07115888595581055,0.039792515337467194,0.012630422599613667,0.04216715320944786,0.043385766446590424,-0.038530826568603516,-0.06076705828309059,0.024065125733613968,0.08724389970302582,0.0656605213880539,0.11771228909492493,-0.021316800266504288,0.0025464005302637815,0.11540532857179642,-0.01125373225659132,-0.1268230825662613,0.03532429412007332,-0.21239244937896729,0.06683312356472015,-0.07609143108129501,-0.1954742819070816,-0.11371510475873947,0.11477715522050858,-0.14853435754776,0.10885559767484665,0.11337463557720184,-0.05052093788981438,0.004408789798617363,-0.01764066144824028,-0.1602759212255478,0.022560404613614082,0.10022624582052231,0.022131452336907387,0.12134869396686554,-0.0727495476603508,-0.011490208096802235,0.34120801091194153,-0.17171965539455414,0.14880628883838654,0.024764014407992363,-0.009933365508913994,0.04621235281229019,-0.08430928736925125,0.24007655680179596,-0.0986829400062561,-0.11307506263256073,0.16824331879615784,-0.056381456553936005,-0.08298584073781967,0.04868990555405617,0.1224704459309578,0.1329263299703598,-0.16817711293697357,0.04961460083723068,-0.06385136395692825,-0.020327992737293243,0.035825375467538834,0.24566829204559326,-0.12773744761943817,0.017618125304579735,-0.21178534626960754,0.1472790390253067,-0.07533766329288483,0.08901117742061615,-0.17736342549324036,0.09643851965665817,-0.2137925773859024,0.11080450564622879,-0.10177413374185562,-0.03241723030805588,0.25078773498535156,-0.12939667701721191,-0.28093886375427246,0.004455248825252056,-0.02312038466334343,-0.19929470121860504,0.017501123249530792,-0.08142031729221344,-0.14529640972614288,0.0438508577644825,0.07319477945566177,0.14876843988895416,-0.18393376469612122,0.3835695683956146,0.5501854419708252,-0.505722165107727,0.13537992537021637,0.15701596438884735,-0.2521357238292694,-0.27094200253486633,-0.3457801342010498,0.5441178679466248,-0.2190665453672409,-0.1749342530965805,0.37855958938598633,-0.1596100926399231,-0.23623912036418915,0.42822906374931335,0.14150507748126984,0.0681251659989357,-0.48999640345573425,-0.10793529450893402,-0.08886793255805969,0.23004800081253052,0.2667529284954071,0.17207679152488708,-0.42126989364624023,-0.01591692678630352,-0.1360463947057724,0.49885550141334534,0.22629351913928986,0.1832445114850998,-0.4822363555431366,-0.15539738535881042,-0.09622205793857574,0.34227854013442993,-0.2701573073863983,-0.15530453622341156,0.5406914353370667,-0.17187628149986267,-0.32664042711257935,0.26559731364250183,-0.095268614590168,-0.21767760813236237,0.3207024037837982,-0.10659898817539215,-0.15465521812438965,0.5206524729728699,0.24511663615703583,0.1951867640018463,-0.5529923439025879,-0.13088880479335785,-0.07941783219575882,0.3373527228832245,0.0650131031870842,-0.38941171765327454,0.3784531354904175,0.1314609795808792,0.39636310935020447,-0.3772270083427429,-0.05935489386320114,0.16298261284828186,-0.10829795897006989,-0.06717988848686218,0.1876639872789383,-0.1184629425406456,-0.06142904981970787,-0.3384186327457428,0.2534736692905426,-0.07333692163228989,0.09161978960037231,-0.12996625900268555,-0.06033356115221977,-0.2136615663766861,0.3741016089916229,0.059194646775722504,0.2789705991744995,-0.1364385336637497,0.005708044394850731,-0.3520248830318451,0.3763475716114044,0.039632413536310196,0.1374315768480301,-0.2884303033351898,-0.09915931522846222,0.3990495204925537,-0.285657674074173,-0.13386321067810059,0.25811707973480225,-0.15723523497581482,0.03442705422639847,0.31061336398124695,-0.2346876859664917,0.047293536365032196,0.23094257712364197,-0.32268115878105164,-0.13206447660923004,-0.38464298844337463,0.3701653778553009,0.12441132962703705,0.0913262739777565,-0.1981300711631775,0.23896868526935577,-0.24467359483242035,0.029896240681409836,-0.31247323751449585,0.27249038219451904,-0.0007695698877796531,-0.2625698149204254,0.23183196783065796,0.04601985216140747,-0.10108081996440887,0.037477437406778336,-0.04022081568837166,0.17087453603744507,-0.12963946163654327,0.02327478863298893,-0.2597534656524658,0.22764219343662262,0.02129371091723442,0.19628611207008362,-0.04834204912185669,-0.22113870084285736,-0.2208176702260971,0.27757778763771057,0.06451812386512756,0.35602259635925293,-0.1887386292219162,0.01795572228729725,-0.37823042273521423,0.1266675889492035,0.07957342267036438,-0.19611430168151855,0.20396721363067627,0.21189092099666595,-0.2500872313976288,0.14871561527252197,0.2082270085811615,-0.26853692531585693,0.27932217717170715,0.010967426002025604,-0.24756228923797607,0.1456182897090912,0.1783958077430725,0.35171595215797424,-0.1851239800453186,-0.2315097451210022,-0.02593141980469227,-0.11727918684482574,0.20452389121055603,-0.13565219938755035,0.1883024424314499,0.19537487626075745,0.05603257566690445,-0.23674605786800385,0.03654097393155098,-0.06243745982646942,-0.06797552108764648,-0.03670240193605423,-0.026540197432041168,-0.04547754302620888,-0.17966756224632263,-0.018362103030085564,0.006488379556685686,0.04168739542365074,0.05974983796477318,0.04043753445148468,-0.044579826295375824,0.04844716191291809,0.08364741504192352,-0.007875089533627033,-0.0683428943157196,-0.21267449855804443,0.11663109064102173,-0.08777683973312378,0.10273154824972153,0.0940522849559784,0.14684726297855377,0.023043278604745865,0.056711625307798386,-0.052882902324199677,-0.1177896112203598,-0.1364791989326477,-0.03930196166038513,-0.06783656775951385,0.07448023557662964,-0.06962268799543381,-0.01233716867864132,-0.13289925456047058,0.020365657284855843,0.01641204208135605,-0.09334566444158554,-0.043847501277923584,0.0029601675923913717,0.17841918766498566,-0.13399101793766022,-0.36136913299560547,0.06442555040121078,-0.039906371384859085,-0.043125007301568985,-0.10556833446025848,0.04891212657094002,-0.12137766927480698,0.17491815984249115,0.05888858065009117,0.014066331088542938,0.03539542853832245,-0.08729813247919083,-0.13497155904769897,-0.02586285211145878,0.05861341208219528,0.18423819541931152,0.003461776999756694,0.006682112347334623,0.01028458122164011,0.13836507499217987,0.17449164390563965,0.0218711718916893,-0.2095811665058136,-0.020692232996225357,0.02854427881538868,0.010848810896277428,0.19788475334644318,0.12968795001506805,-0.2168230265378952,-0.09611445665359497,0.040558286011219025,-0.004762411583214998,-0.1012704148888588,-0.027303237468004227,-0.003784888656809926,0.011118335649371147,-0.006736548617482185,0.19865915179252625,-0.15628039836883545,0.0643957331776619,0.02612965740263462,0.08441713452339172,-0.21370169520378113,-0.014393389225006104,0.14622774720191956,0.08762608468532562,-0.12877257168293,-0.07858650386333466,0.02801945060491562,-0.14003309607505798,0.035569313913583755,0.125617116689682,-0.09400971233844757,-0.012385512702167034,0.007967895828187466,0.04952315241098404,0.06604249030351639,-0.04626765847206116,0.02817704901099205,-0.031517498195171356,0.03986067324876785,-0.016505807638168335,0.017154598608613014,0.09582758694887161,-0.28180819749832153,0.9242895245552063,-1.10275137424469,-0.024979425594210625,1.085039496421814,1.0796852111816406,-0.5398468375205994,0.1541837900876999,0.10127975046634674,-0.5811178684234619,-0.7384671568870544,0.5124517679214478,-0.8070798516273499,0.23118838667869568,0.33088618516921997,-1.0769494771957397,0.5877803564071655,0.2421172708272934,-0.8051111698150635,0.22316721081733704,0.5180636048316956,0.8668628334999084,-0.42352768778800964,0.042423851788043976,-0.011245942674577236,-0.5030555129051208,-0.778242290019989,1.232108235359192,-0.31127309799194336,0.11794490367174149,-0.0054655480198562145,0.1612580567598343,-0.0937507152557373,-0.30798354744911194,0.23383775353431702,0.011289097368717194,-0.27359336614608765,-0.6147414445877075,-0.001207718625664711,-0.04765397682785988,0.008412523195147514,0.012117152102291584,0.30706459283828735,-0.5349485278129578,-0.1949211061000824,0.04132292419672012,0.08237126469612122,0.18017838895320892,-0.09116855263710022,-0.11086881905794144,0.7837858200073242,0.00303779193200171,-0.27930721640586853,0.06950563937425613,0.019219249486923218,0.025595970451831818,-0.08643855154514313,0.08689586818218231,0.060058385133743286,-0.07745201885700226,0.4832342267036438,0.06769848614931107,0.004624187480658293,0.13911737501621246,-0.11185307800769806,-0.06752181053161621,-0.11282509565353394,0.010553374886512756,0.0892174169421196,0.21804657578468323,0.07531215995550156,-0.2512531578540802,0.029201751574873924,-0.04882531613111496,-0.06399714201688766,0.23354393243789673,0.35346850752830505,-0.18568383157253265,-0.03966876119375229,0.18585710227489471,-0.36316007375717163,-0.14284232258796692,0.4137780964374542,0.1868366152048111,0.1389429271221161,0.3836994171142578,-0.026108060032129288,0.04189404472708702,0.34554728865623474,-0.1657041758298874,0.2275153249502182,0.231410950422287,0.30087971687316895,-0.05174913629889488,0.1107802540063858,-0.1491520255804062,0.026711927726864815,0.08363254368305206,-0.1012527197599411,0.14417505264282227,0.23561331629753113,0.1283818632364273,0.02325310930609703,0.13518381118774414,-0.026469213888049126,-0.041006430983543396,-0.12087728083133698,0.0065549747087061405,-0.14780206978321075,0.08750086277723312,0.06238248571753502,0.022598672658205032,0.1448618769645691,0.279969722032547,0.15154987573623657,-0.289842426776886,-0.0876074954867363,-0.017794238403439522,-0.030234185978770256,0.100768081843853,-0.29886290431022644,-0.16937799751758575,0.15353550016880035,0.05559758096933365,-0.33771124482154846,0.12331501394510269,-0.23340794444084167,0.009940898045897484,0.11706028878688812,0.34072718024253845,-0.4422825276851654,-0.19166459143161774,0.2598668038845062,0.3044533133506775,-0.014594362117350101,0.13833196461200714,-0.17280450463294983,0.034642040729522705,-0.31774982810020447,0.23658442497253418,-0.26913243532180786,-0.0703602135181427,0.04824453592300415,-0.1449279487133026,0.15649893879890442,-0.29313379526138306,-0.19182653725147247,0.0036848909221589565,-0.13322922587394714,-0.2874488830566406,-0.39753827452659607,-0.24305015802383423,-0.38362976908683777,0.08996331691741943,0.1971764713525772,-0.13228687644004822,-0.17997993528842926,-0.05910366773605347,-0.025180254131555557,-0.4409756660461426,0.34914928674697876,0.19867947697639465,-0.846365749835968,-0.3750399053096771,0.1633124053478241,0.2322804182767868,-0.34927108883857727,-0.16263236105442047,-0.027304600924253464,0.08791147917509079,-0.25230932235717773,0.6211833953857422,0.18121854960918427,-0.37170177698135376,-0.18576321005821228,0.11625726521015167,0.25763005018234253,-0.29875877499580383,0.47630035877227783,-0.1658569872379303,-0.27043652534484863,0.21552231907844543,-0.06405562162399292,-0.06779161840677261,-0.21531851589679718,-0.09085001051425934,0.06270406395196915,0.08658139407634735,0.3657577931880951,-0.048482224345207214,0.07684332132339478,0.004154356662184,0.004834968131035566,0.02158966101706028,0.35497963428497314,0.007846272550523281,-0.2179398387670517,-0.18735729157924652,-0.13257941603660583,-0.07975886762142181,-0.37258684635162354,-0.12248706072568893,-0.0028115971945226192,-0.17267049849033356,0.18957455456256866,-0.3240540623664856,-0.2620527148246765,-0.2144838124513626,0.04206673800945282,0.011698435060679913,0.06096562743186951,0.06589654833078384,-0.16910438239574432,-0.13432668149471283,0.0200758408755064,0.13580557703971863,-0.13205313682556152,-0.19576053321361542,0.08959190547466278,0.09331997483968735,-0.11457314342260361,-0.16427309811115265,0.043847545981407166,0.06714656949043274,-0.09172841906547546,-0.2617509961128235,0.262478768825531,-0.16603247821331024,0.07321302592754364,0.1479392796754837,-0.07358244061470032,-0.12287139892578125,-0.19896744191646576,0.09195712208747864,0.12404859066009521,-0.22547368705272675,0.1276133805513382,-0.308811753988266,0.07297118753194809,-0.1908000409603119,0.4200919568538666,-0.1809285432100296,0.08046014606952667,-0.0003904633049387485,-0.030706951394677162,0.057953037321567535,-0.14132578670978546,-0.3804674446582794,-0.05726772919297218,0.0044182585552334785,-0.007528142537921667,0.19993901252746582,0.32402297854423523,-0.35458388924598694,-0.19794587790966034,-0.002813890343531966,-0.04884897172451019,0.435133695602417,-0.6466208696365356,0.11564493924379349,0.6472300887107849,0.8441384434700012,0.4230380654335022,-0.021434487774968147,0.19115091860294342,-0.1885519176721573,-0.7335318326950073,0.4461481273174286,0.1834893822669983,0.22503632307052612,0.13352665305137634,0.17749784886837006,-0.07158736139535904,0.4183255732059479,-0.23635374009609222,-0.11908791959285736,0.006380099803209305,0.13482312858104706,0.011869238689541817,0.0024855281226336956,-0.38289132714271545,0.051649775356054306,-0.031075887382030487,0.06950739771127701,0.1254197508096695,0.13778558373451233,0.16157940030097961,-0.12918473780155182,0.013439523056149483,-0.067864328622818,0.43106648325920105,-0.062251340597867966,0.1678863763809204,0.03612680733203888,-0.061784062534570694,0.19043953716754913,-0.4378040134906769,-0.2693120241165161,-0.0885712131857872,0.04840546101331711,0.03418061137199402,-0.07081205397844315,0.14703337848186493,0.01622249186038971,-0.007183503359556198,0.009790371172130108,-0.0953419879078865,0.24967795610427856,0.05291516333818436,0.03683702275156975,-0.27368584275245667,-0.13054391741752625,-0.026982244104146957,0.014124131761491299,-0.5090991258621216,-0.32334232330322266,-0.37844520807266235,-0.0932198166847229,-0.13146613538265228,0.1007864698767662,-0.12587930262088776,-0.2151784896850586,0.11375515162944794,-0.25494205951690674,-0.07113682478666306,0.13142521679401398,-0.11985620111227036,0.04273919388651848,0.06931991130113602,-0.19121497869491577,-0.032355453819036484,0.15684199333190918,0.110395647585392,0.05318449065089226,-0.22593384981155396,0.031205764040350914,0.3886522650718689,-0.3022972047328949,0.10189320147037506,-0.589897096157074,0.29912906885147095,-0.1261279433965683,-0.1981443166732788,0.545231282711029,-0.2781490087509155,-0.09559962898492813,0.18357300758361816,0.16366249322891235,0.061004120856523514,-0.18032200634479523,-0.010291158221662045,0.07376567274332047,-0.4336049258708954,-0.07157542556524277,-0.34498220682144165,0.2940909266471863,0.253376305103302,0.07236294448375702,-0.41873711347579956,-0.30691370368003845,-0.2124338150024414,0.3190072476863861,-0.09849279373884201,-0.0949711874127388,-0.25368914008140564,-0.12136740982532501,-0.15308286249637604,0.38788118958473206,-0.20828799903392792,-0.26972734928131104,0.5884540677070618,-0.31928426027297974,0.04778438061475754,0.4198961555957794,-0.11626851558685303,-0.061691686511039734,0.4072471261024475,-0.16432155668735504,-0.27424150705337524,0.38927721977233887,0.17995552718639374,0.40826407074928284,-0.6008604168891907,-0.40156570076942444,-0.0952727198600769,-0.006325248163193464,0.3861198425292969,0.2040582299232483,-0.16757246851921082,0.08987154811620712,0.04242068529129028,0.03519299253821373,0.1415373831987381,0.004436143208295107,-0.10480199754238129,0.29176077246665955,-0.14481347799301147,0.21653969585895538,-0.14620669186115265,0.04697653278708458,0.1615196168422699,0.23141640424728394,-0.10597702860832214,-0.11718430370092392,-0.2036895900964737,-0.08486025035381317,0.14202868938446045,0.018673978745937347,-0.025708939880132675,-0.10903607308864594,-0.1892770379781723,0.16605955362319946,-0.1320495307445526,0.05527747422456741,-0.1095905601978302,0.11328482627868652,0.22937893867492676,-0.032571014016866684,0.0571531280875206,0.15004654228687286,-0.04121437668800354,-0.04240521043539047,0.10265692323446274,-0.0027343060355633497,0.07405278831720352,-0.055343225598335266,0.15649759769439697,0.08264613151550293,-0.2724514305591583,0.03762570396065712,0.13821090757846832,-0.025877758860588074,-0.39621174335479736,0.315019816160202,-0.5136685371398926,0.5142505168914795,-0.28301912546157837,0.13835538923740387,0.11049744486808777,-0.4339001774787903,0.16926229000091553,0.21938398480415344,-0.327866792678833,-0.020594164729118347,-0.21811440587043762,0.046848103404045105,-0.15571774542331696,-0.14065030217170715,0.2414572387933731,0.11396964639425278,0.30776605010032654,-0.185097336769104,-0.26835897564888,-0.14869064092636108,0.39847585558891296,0.1810515820980072,0.04165000468492508,-0.1816687136888504,0.20829656720161438,-0.09173794090747833,0.13735273480415344,0.2311411201953888,0.11878742277622223,-0.2415003776550293,0.13809910416603088,0.3370356559753418,-0.13080747425556183,0.35316553711891174,0.09713668376207352,-0.44426846504211426,0.1907196193933487,0.004902269225567579,-0.36030063033103943,0.03417831286787987,0.20641985535621643,-0.14490748941898346,-0.019008493050932884,-0.20291876792907715,0.4468699097633362,0.08200675994157791,-0.12475206702947617,-0.0021531907841563225,-0.2090224027633667,0.09772663563489914,0.12107068300247192,-0.08411049842834473,0.13404908776283264,-0.09772790223360062,-0.15002672374248505,0.0022422317415475845,-0.03580399230122566,0.03448279947042465,-0.0387352854013443,-0.14207689464092255,-0.10393523424863815,0.0527862124145031,0.007513662800192833,0.09776072949171066,-0.080509252846241,-0.03625721111893654,0.0022205039858818054,0.06489040702581406,0.1752575784921646,0.09288004785776138,0.08627977967262268,-0.11344310641288757,-0.18478555977344513,-0.3481777310371399,-0.16444891691207886,0.1745554655790329,0.0036866795271635056,-0.07304024696350098,-0.14050060510635376,0.06349523365497589,0.024929257109761238,-0.02025897055864334,-0.029214615002274513,0.07266396284103394,0.05596715584397316,0.03469911217689514,0.007791853975504637,-0.04181239753961563,-0.11033830046653748,-0.22567643225193024,0.10058935731649399,-0.059170689433813095,-0.035265952348709106,-0.16210921108722687,0.2897353768348694,-0.2631760537624359,0.2865527272224426,-0.255035936832428,0.34085750579833984,-0.13664862513542175,-0.3601624369621277,0.2341318428516388,-0.036346349865198135,-0.0538787804543972,0.2329844832420349,-0.11188328266143799,0.17019708454608917,-0.07474175840616226,0.17417947947978973,0.20525430142879486,-0.23372557759284973,0.028902437537908554,-0.36642006039619446,0.1301845908164978,0.2281494289636612,0.15637511014938354,-0.07115322351455688,0.03857035934925079,-0.08297888189554214,0.15873335301876068,0.2319394052028656,0.01706423982977867,0.0027470444329082966,-0.03985217213630676,-0.2311611771583557,0.26229071617126465,0.1283245086669922,-0.3524887263774872,0.28853896260261536,-0.253040611743927,0.024327991530299187,0.25482267141342163,-0.17754381895065308,-0.3545767664909363,0.22295652329921722,-0.14673350751399994,-0.18901757895946503,0.02514641359448433,0.10759168863296509,0.35208889842033386,-0.14178258180618286,-0.05580497160553932,0.5393518805503845,-0.13704413175582886,0.40888768434524536,-0.32775574922561646,-0.04297485575079918,-0.07273545116186142,-0.41555163264274597,0.2877870798110962,0.15534335374832153,-0.13053053617477417,0.15400998294353485,-0.24448972940444946,0.024255407974123955,-0.16195176541805267,0.13880491256713867,0.3344082832336426,-0.07271016389131546,0.17336280643939972,-0.23812322318553925,0.2053345888853073,0.0184845682233572,0.36421820521354675,-0.2766967713832855,0.02886533923447132,-0.24762219190597534,0.056522008031606674,0.25528019666671753,0.3275929093360901,0.09203951805830002,0.027574293315410614,-0.3569941818714142,0.2343265861272812,-0.02603817917406559,-0.22035633027553558,0.1953360140323639,-0.1858997941017151,-0.11499986797571182,0.41970959305763245,-0.06616409868001938,-0.16380418837070465,0.014830793254077435,-0.08721352368593216,-0.2248212993144989,0.1726527214050293,-0.09935420751571655,0.2493385374546051,-0.26702702045440674,0.0009394943481311202,0.2010340541601181,0.1735648214817047,0.11789871007204056,-0.10008113086223602,-0.3205191493034363,-0.16424264013767242,-0.10323744267225266,0.1776062697172165,-0.17500820755958557,-0.18102622032165527,-0.028631431981921196,-0.04955640435218811,-0.11452488601207733,-0.34321674704551697,0.18123571574687958,0.03557322546839714,-0.05880103260278702,-0.001009975210763514,-0.11577873677015305,0.1145683079957962,0.13510453701019287,0.07237789034843445,-0.09636445343494415,-0.020042894408106804,-0.19573162496089935,0.22094684839248657,0.15908466279506683,0.11504208296537399,0.14391067624092102,0.03137070685625076,-0.24778805673122406,0.015725888311862946,-0.05595605820417404,-0.160329207777977,0.1307254433631897,-0.2892763018608093,-0.20139162242412567,0.10213599354028702,-0.2252858430147171,-0.0970006063580513,-0.012522782199084759,0.06327107548713684,0.007867028005421162,0.27159619331359863,0.005830659996718168,0.1339881718158722,-0.05514172837138176,0.15935459733009338,0.4826275408267975,-0.17138904333114624,0.004700750112533569,-0.5390876531600952,0.019041767343878746,0.06709757447242737,-0.15359540283679962,0.2477002590894699,0.0850827619433403,-0.05792854726314545,-0.019290274009108543,-0.13262347877025604,-0.19114051759243011,-0.04911427199840546,-0.07855912297964096,0.2551986575126648,-0.06628628820180893,0.21457348763942719,0.08013720065355301,0.23497332632541656,-0.0608513206243515,0.1361531764268875,-0.006344389170408249,0.06515026092529297,-0.10755917429924011,0.25688043236732483,0.06054112687706947,0.3943847417831421,-0.11878455430269241,0.03852036967873573,-0.20868654549121857,0.04561176523566246,0.0017602560110390186,-0.16647377610206604,0.21308785676956177,-0.10661927610635757,-0.04331269860267639,0.14666002988815308,-0.015690024942159653,-0.1551104038953781,0.0023723519407212734,-0.012632225640118122,-0.1644725352525711,0.11702605336904526,-0.06185301020741463,0.09360374510288239,-0.23897743225097656,0.20805642008781433,0.2581483721733093,-0.40114283561706543,0.21041832864284515,-0.10745684057474136,0.11796814203262329,-0.2701253294944763,0.006099479738622904,0.4109874963760376,-0.33564499020576477,0.030273985117673874,0.23902635276317596,0.4423353970050812,0.3174293041229248,-0.2678565979003906,0.1563677191734314,0.040408141911029816,-0.34461086988449097,-0.2595679759979248,-0.162776917219162,0.4203278422355652,0.10761275142431259,0.030108541250228882,-0.2719382345676422,-0.3537914752960205,-0.014297804795205593,0.3485124707221985,-0.5583449602127075,-0.43149808049201965,-0.014601340517401695,-0.3264714777469635,-0.012027892284095287,0.5262681245803833,-0.23582153022289276,-0.15800972282886505,0.4428575038909912,-0.2781330645084381,0.11705813556909561,0.21462421119213104,-0.32003000378608704,0.04369782656431198,0.35538479685783386,-0.35725438594818115,-0.2466076761484146,0.45279890298843384,0.31791073083877563,0.18704451620578766,-0.4626387357711792,0.12286426872015,0.16129356622695923,-0.08773628622293472,-0.436760812997818,-0.001612951047718525,-0.2416502684354782,0.3049437701702118,0.14866477251052856,0.06539153307676315,-0.08589383214712143,-0.14260567724704742,-0.24469389021396637,-0.3076780140399933,-0.22612856328487396,0.3569786548614502,-0.08680146187543869,0.06699584424495697,0.188461571931839,0.2088550627231598,0.13664965331554413,-0.09171735495328903,-0.21927063167095184,-0.0000452429594588466,0.23781977593898773,0.18320252001285553,0.0314277745783329,-0.11483175307512283,-0.07516225427389145,-0.39588579535484314,-0.42299097776412964,0.2852206528186798,0.009669395163655281,-0.22393105924129486,0.23721323907375336,0.023906519636511803,-0.30738410353660583,0.3868740499019623,0.28085416555404663,0.018580414354801178,0.4015032649040222,0.07950665801763535,-0.04353705421090126,0.38176172971725464,0.09841461479663849,-0.2706672251224518,-0.1244640126824379,-0.15233637392520905,0.2816741168498993,0.4304899275302887,0.4456527531147003,0.16263294219970703,-0.18876224756240845,-0.6140232682228088,-0.331531286239624,-0.188076451420784,0.11308115720748901,0.07857612520456314,-0.011554018594324589,0.11729595065116882,-0.008194925263524055,-0.06412484496831894,0.23702740669250488,-0.2220173329114914,0.09243889898061752,0.13865840435028076,0.016489649191498756,-0.09861989319324493,-0.15307773649692535,0.10814748704433441,0.22231799364089966,0.14077050983905792,0.022041603922843933,0.12144263833761215,-0.135747030377388,-0.007910502143204212,-0.07208210229873657,0.19804178178310394,0.008816396817564964,-0.17349494993686676,0.058887116611003876,-0.07110501825809479,-0.19646170735359192,-0.0000356135715264827,0.004828277043998241,-0.14942559599876404,-0.12692448496818542,0.08625136315822601,0.07444527745246887,0.03489350900053978,-0.05641573667526245,0.06331002712249756,0.08930964767932892,-0.09331727027893066,-0.03644372895359993,0.105781689286232,0.08889894932508469,-0.1036061942577362,0.09107742458581924,-0.06315261125564575,0.017161322757601738,-0.11201358586549759,0.07422247529029846,0.17009934782981873,0.2312679886817932,-0.10399334877729416,0.04836936667561531,0.16970248520374298,-0.22779566049575806,0.24410094320774078,0.14699144661426544,-0.03053579479455948,-0.040408942848443985,-0.1709640771150589,0.2122996747493744,-0.19582107663154602,-0.15274709463119507,-0.11325044929981232,-0.13192899525165558,-0.16303199529647827,0.13306954503059387,-0.15733525156974792,0.025838568806648254,0.023840192705392838,-0.04431335628032684,0.09171409904956818,-0.3492623269557953,0.12616212666034698,0.2760963439941406,-0.04720161110162735,0.10614211112260818,-0.08591461181640625,-0.12822332978248596,0.13852882385253906,-0.01855490729212761,0.0414237454533577,0.0024233353324234486,0.04085901752114296,-0.2092524915933609,0.14429432153701782,0.07843015342950821,-0.13531866669654846,0.09509317576885223,0.09540029615163803,0.11189332604408264,-0.3795278072357178,0.45137181878089905,0.4508286118507385,0.3942248523235321,-0.6628002524375916,-0.3957812488079071,0.1881168931722641,-0.10431438684463501,0.06216226890683174,-0.06639647483825684,0.12649160623550415,0.004259577952325344,0.16996753215789795,0.21230758726596832,0.021282082423567772,-0.0895489826798439,0.03867822885513306,-0.06857480853796005,-0.05507318675518036,-0.002452550455927849,0.023256352171301842,0.07080921530723572,0.08265573531389236,0.03222209960222244,-0.05848785862326622,-0.08543176203966141,0.16288624703884125,-0.06616508960723877,0.33524757623672485,0.23783664405345917,0.01732289232313633,0.07549550384283066,-0.04008207470178604,0.002152040135115385,0.04790855571627617,-0.07361910492181778,-0.20353715121746063,-0.16604755818843842,-0.014994832687079906,0.0901959091424942,0.1021326407790184,-0.16082973778247833,-0.04583781212568283,0.13487176597118378,-0.03526042774319649,-0.02818068116903305,0.0630417987704277,0.158799409866333,0.16886718571186066,-0.3841240406036377,-0.07955919951200485,-0.18736375868320465,0.41519665718078613,-0.11574235558509827,-0.31951549649238586,0.2925746738910675,0.16574540734291077,-0.21005944907665253,0.035381149500608444,0.09799179434776306,0.21570414304733276,0.3723040223121643,-0.19859015941619873,0.4094381332397461,-0.23686587810516357,-0.19036753475666046,-0.3455089032649994,0.04296774044632912,0.14068685472011566,0.25126808881759644,-0.2401941418647766,-0.2066745162010193,-0.2702828049659729,-0.13527041673660278,0.15878216922283173,-0.16716565191745758,-0.3204689025878906,0.2464066445827484,-0.3519226014614105,0.2855943739414215,0.23684033751487732,-0.2255261242389679,0.2242363840341568,0.14090465009212494,-0.16875658929347992,0.22788727283477783,0.10511379688978195,-0.3499685525894165,0.05400005355477333,-0.023207712918519974,-0.49242278933525085,0.014835250563919544,0.029731735587120056,0.4782469868659973,-0.18446077406406403,-0.17665867507457733,-0.30106979608535767,0.19002796709537506,-0.04438747838139534,0.26754453778266907,-0.23474876582622528,0.037454117089509964,-0.03594741225242615,0.3600861132144928,0.050776559859514236,-0.09321731328964233,0.5115800499916077,-0.19566476345062256,-0.03923460468649864,0.16332074999809265,0.038961902260780334,0.023887399584054947,-0.27057188749313354,0.007026412524282932,-0.10694994777441025,0.048303160816431046,-0.20615136623382568,0.07472999393939972,-0.33208024501800537,-0.11231345683336258,-0.1866607666015625,-0.030452094972133636,0.02773144841194153,-0.2980901300907135,0.37529122829437256,0.06674978882074356,-0.15723425149917603,0.373272567987442,-0.13343192636966705,-0.15015427768230438,0.1774519830942154,-0.03424450755119324,-0.13427665829658508,0.015178724192082882,0.05824935808777809,-0.054710615426301956,0.2938787639141083,-0.19590449333190918,-0.11549635976552963,0.258611798286438,-0.05868712067604065,0.06980366259813309,0.06948979943990707,0.1342599242925644,0.34042656421661377,0.1600610315799713,0.0019291758071631193,0.11184828728437424,-0.01704968698322773,0.03086133487522602,0.06901727616786957,0.23772022128105164,-0.07528131455183029,0.07330894470214844,0.3094203770160675,0.09527713805437088,0.16677325963974,0.06603946536779404,0.034825004637241364,-0.07831933349370956,-0.3552623987197876,-0.017289120703935623,0.39489850401878357,-0.2431359738111496,0.18530398607254028,-0.9145037531852722,-0.5344845056533813,-0.4433341324329376,0.8230211138725281,-1.1882920265197754,-0.4761229455471039,-0.9422433972358704,0.2542897164821625,-0.7186093330383301,0.206986203789711,-0.716460108757019,-0.3336881101131439,-0.7597936987876892,0.13647280633449554,0.5847597718238831,0.10881922394037247,-0.5770406723022461,-0.9678336381912231,-0.2858835756778717,0.24966607987880707,-0.4858262836933136,0.3480331301689148,-0.16418975591659546,0.3305118978023529,0.08443745225667953,-0.17571178078651428,0.042011748999357224,0.01768394373357296,-0.11142072826623917,-0.05666283518075943,-0.29443252086639404,-0.21778234839439392,0.32720693945884705,0.16231104731559753,-0.19511906802654266,0.1291840523481369,-0.21539944410324097,0.39591550827026367,0.03579815849661827,0.21570543944835663,0.023239407688379288,-0.05842350423336029,0.21002650260925293,-0.21084672212600708,-0.23018324375152588,-0.17540720105171204,0.2536129057407379,0.33686718344688416,0.13101808726787567,0.03767797350883484,0.1210857629776001,-0.16866815090179443,-0.05937722325325012,-0.47980445623397827,0.11613674461841583,0.13730643689632416,0.13373064994812012,-0.01986764743924141,0.010919135063886642,0.40627509355545044,-0.056356120854616165,-0.09496499598026276,-0.19096069037914276,-0.20371276140213013,0.07038619369268417,-0.11459510773420334,0.06504831463098526,-0.13794007897377014,0.06998810172080994,0.07328703999519348,0.5598400235176086,-0.03755980730056763,0.0998169556260109,-0.08597873151302338,0.24353641271591187,0.047437041997909546,0.2970610558986664,-0.09867633134126663,-0.21507473289966583,0.19528530538082123,-0.024436134845018387,0.017701391130685806,0.2057415246963501,0.10546853393316269,0.15794429183006287,-0.3542182445526123,0.11959076672792435,0.13418658077716827,-0.10576053708791733,-0.13859304785728455,-0.24907122552394867,-0.1732790172100067,-0.13646484911441803,-0.33812347054481506,0.001754947006702423,0.08071716874837875,-0.14636819064617157,-0.20006641745567322,-0.08743876218795776,-0.12046711146831512,0.1799321472644806,-0.18132394552230835,-0.22797633707523346,-0.3536947965621948,-0.20300430059432983,0.3058529198169708,-0.04635356366634369,-0.039526380598545074,-0.07489822059869766,0.25464150309562683,-0.28236520290374756,-0.08039034903049469,0.34692755341529846,-0.07614889740943909,-0.07295792549848557,0.10883723944425583,0.022083204239606857,-0.2134413719177246,0.3195566236972809,0.3948173224925995,0.2717694640159607,-0.028976552188396454,0.6304630637168884,0.14295066893100739,0.04150562733411789,0.017924174666404724,0.2527603209018707,-0.05972374603152275,-0.16017863154411316,-0.1362549513578415,0.11045902222394943,-0.04802422225475311,0.15293358266353607,-0.23643653094768524,-0.047806266695261,0.13286100327968597,0.33192721009254456,0.17759154736995697,0.4077158570289612,-0.22900432348251343,0.09484688937664032,-0.3994569480419159,-0.1333160400390625,-0.16020750999450684,-0.15171092748641968,-0.15838086605072021,-0.26161831617355347,0.02208142727613449,0.1360979527235031,0.1614861786365509,-0.23547112941741943,-0.09855671226978302,-0.10148501396179199,0.05803131312131882,0.41312891244888306,0.13887818157672882,0.059571199119091034,-0.4157593846321106,0.07086663693189621,0.21583768725395203,-0.2153932899236679,-0.3287598192691803,-0.26139646768569946,0.00850930530577898,0.29585587978363037,0.16836507618427277,-0.010663180612027645,0.24503839015960693,-0.4043988585472107,0.5905964970588684,-0.25177085399627686,-0.27504682540893555,-0.06256981939077377,-0.1596178412437439,-0.042358286678791046,0.12492721527814865,-0.009438581764698029,0.11592632532119751,0.0512213334441185,0.1079908236861229,0.32762816548347473,-0.2556036710739136,0.1600865125656128,0.2248549908399582,-0.04068617522716522,0.06296363472938538,0.1520649939775467,-0.07040604948997498,0.20940536260604858,-0.25120556354522705,-0.10521381348371506,-0.15560626983642578,0.016728561371564865,0.29973238706588745,0.17786243557929993,0.007997867651283741,0.19496917724609375,0.1448643058538437,-0.01599380187690258,0.21767061948776245,-0.09388802945613861,-0.08185351639986038,0.13795557618141174,-0.13505248725414276,-0.45338788628578186,-0.36442840099334717,0.45062950253486633,0.1592366099357605,-0.08556405454874039,-0.3708982765674591,0.15099933743476868,-0.4201977550983429,-0.17904961109161377,-0.15742944180965424,0.10445170849561691,0.015279198065400124,-0.34300264716148376,0.273968905210495,-0.21663549542427063,0.38604551553726196,0.009936519898474216,-0.12091813236474991,0.13915929198265076,-0.1528557389974594,-0.004279812797904015,-0.12432006746530533,-0.05149456858634949,0.1333489865064621,0.2708738446235657,-0.016423722729086876,0.004342418629676104,0.043920837342739105,0.11362843960523605,0.08394931256771088,0.012254195287823677,0.07950831949710846,0.2608014941215515,-0.14317555725574493,-0.17001238465309143,-0.09711039066314697,0.05225902423262596,0.27051761746406555,0.03189000487327576,-0.0011078513925895095,0.17768149077892303,-0.1811225563287735,0.07067283987998962,0.03914799913764,-0.025622541084885597,0.25957468152046204,0.22589249908924103,0.36829063296318054,-0.13491712510585785,-0.028684595599770546,0.05837875232100487,-0.061828985810279846,0.07066185027360916,-0.078731968998909,0.2089596390724182,0.1379024088382721,-0.34400951862335205,-0.006878059357404709,0.1434461772441864,-0.21876250207424164,-0.08545507490634918,-0.18456095457077026,-0.35742512345314026,-0.04353563115000725,-0.02969668060541153,0.23007795214653015,-0.08704381436109543,-0.18809759616851807,0.10862748324871063,0.2624802589416504,0.1739819347858429,-0.006521399132907391,-0.09645728021860123,0.02914826013147831,-0.1766616255044937,0.24463480710983276,-0.29771924018859863,-0.05375705659389496,0.15215803682804108,-0.2104179561138153,-0.45720359683036804,0.13767296075820923,-0.003418313805013895,-0.1370239406824112,0.16664005815982819,-0.1264420747756958,-0.06609605997800827,-0.14573527872562408,-0.023023951798677444,-0.1728266328573227,0.014179980382323265,0.3069089353084564,0.08495622873306274,-0.09101949632167816,0.21568399667739868,0.06756161898374557,-0.11629906296730042,-0.1911449283361435,-0.08001598715782166,0.07803003489971161,0.09594633430242538,0.016045641154050827,-0.21530303359031677,-0.21613462269306183,0.13913291692733765,0.12767411768436432,-0.19292482733726501,0.08781701326370239,-0.07450520247220993,-0.2115597277879715,0.09310056269168854,0.043033167719841,-0.20408204197883606,0.07771717756986618,0.1413700133562088,-0.21774686872959137,-0.3047681450843811,-0.1593194156885147,-0.20518693327903748,0.13086460530757904,0.012664815410971642,-0.02616157755255699,0.1280180811882019,-0.048926036804914474,0.24176053702831268,-0.1962672770023346,-0.11221123486757278,-0.1288750171661377,-0.11253710836172104,0.16213221848011017,-0.0288471020758152,0.25228753685951233,0.05308832228183746,0.04539921507239342,0.12444426864385605,-0.05176951736211777,0.12449599802494049,-0.019278645515441895,0.2027388960123062,0.17413237690925598,-0.08708883076906204,-0.03276490792632103,0.010703252628445625,0.04372749850153923,-0.22350458800792694,0.20145289599895477,-0.0458967387676239,0.19404557347297668,0.05839290842413902,-0.11321496218442917,-0.20283983647823334,-0.016595622524619102,0.04975661262869835,-0.059168629348278046,0.276922345161438,0.288507342338562,-0.09381821006536484,0.14463970065116882,0.18037104606628418,0.07223915308713913,-0.14093275368213654,-0.04282069206237793,0.04846004769206047,-0.15311606228351593,0.42722582817077637,-0.02672409638762474,-0.06510632485151291,0.09369072318077087,-0.07440631091594696,-0.0027921220753341913,0.11185663938522339,0.1264972686767578,0.12730275094509125,-0.11782608181238174,0.040137190371751785,0.1510927975177765,0.05680830404162407,-0.11414457857608795,-0.01724746637046337,0.2561911642551422,-0.011254789307713509,0.3389439582824707,0.07116509228944778,-0.06169244647026062,-0.5918468236923218,-0.4574355185031891,-0.21858057379722595,-0.06899944692850113,-0.15392838418483734,0.16913877427577972,-0.03897291421890259,0.11392273753881454,0.12963642179965973,-0.01999001018702984,0.16596491634845734,-0.06721989810466766,-0.23389548063278198,0.05400943011045456,0.19049571454524994,0.12746000289916992,0.00949937105178833,-0.15823975205421448,-0.1345466673374176,0.0862082988023758,-0.10155785083770752,-0.06662127375602722,-0.026232946664094925,-0.23514187335968018,0.025909816846251488,-0.009282673709094524,-0.17525218427181244,0.1328795999288559,-0.003878036979585886,0.00928562879562378,0.05046785622835159,0.013103011064231396,-0.1039789691567421,0.13102544844150543,-0.11751968413591385,-0.1964714080095291,-0.19362488389015198,-0.10584772378206253,0.25112971663475037,-0.08812067657709122,-0.0914527177810669,0.17436201870441437,-0.39328208565711975,-0.34544873237609863,-0.10629525035619736,0.2848438322544098,0.054771021008491516,-0.4680475890636444,0.2104540467262268,0.24201110005378723,0.13737031817436218,0.14537306129932404,0.01770823635160923,-0.10809628665447235,0.1360270082950592,0.10313934832811356,0.1660299152135849,0.23190496861934662,0.10571359097957611,-0.06939439475536346,0.4019615650177002,0.29797494411468506,0.10627195984125137,-0.14742708206176758,0.06644921004772186,0.20030052959918976,-0.10196326673030853,0.05470959469676018,-0.008601893670856953,-0.07624482363462448,0.20422419905662537,0.06131654977798462,0.010465620085597038,0.028199054300785065,0.1002311035990715,-0.27403733134269714,-0.11940951645374298,-0.2608044147491455,0.06208115443587303,0.12585583329200745,0.3192337453365326,-0.08003714680671692,-0.04405193775892258,0.2572370171546936,0.13022926449775696,0.05568084865808487,0.012598784640431404,0.23054814338684082,-0.554785430431366,0.10358353704214096,-0.04014051705598831,0.19275912642478943,-0.07404109835624695,-0.06290683895349503,0.051436882466077805,0.01703907921910286,-0.20068860054016113,-0.025461653247475624,-0.11304831504821777,0.05936110019683838,0.14085988700389862,-0.11336380988359451,0.20251742005348206,0.07277240604162216,-0.06618858873844147,-0.47639915347099304,-0.23720186948776245,0.10147546976804733,-0.06059957668185234,-0.19720490276813507,-0.08148295432329178,-0.11859143525362015,-0.1813139170408249,0.24969154596328735,-0.1375017613172531,-0.16785624623298645,0.10510415583848953,-0.17602010071277618,-0.04945259168744087,0.18134857714176178,-0.15313908457756042,0.05929688364267349,0.01111074909567833,0.3586309254169464,-0.4302808344364166,0.16160638630390167,-0.24732305109500885,-0.17078031599521637,0.20925025641918182,-0.2145170271396637,-0.1727169156074524,0.27585068345069885,0.20899318158626556,-0.06929165124893188,-0.27095842361450195,0.12734293937683105,-0.30592191219329834,-0.1094450056552887,0.15182051062583923,0.28922489285469055,-0.3432532250881195,-0.3628871738910675,-0.45528459548950195,0.1285138577222824,0.32438045740127563,0.13475070893764496,0.14018501341342926,-0.11553297191858292,0.03119492530822754,0.17473672330379486,-0.33194616436958313,-0.2009204626083374,0.15499472618103027,0.009551423601806164,0.1076444610953331,0.19749228656291962,-0.3207562267780304,-0.1645803600549698,0.2964581251144409,0.21844124794006348,-0.1297995001077652,-0.2587006688117981,0.038765233010053635,0.037450678646564484,0.09270896017551422,0.25603365898132324,0.020592357963323593,0.18975260853767395,0.1371091902256012,0.03514404222369194,-0.08278228342533112,-0.09474191814661026,-0.5766692757606506,-0.07712303102016449,0.1597408503293991,-0.06754033267498016,0.010694524273276329,0.13293859362602234,-0.05788648501038551,-0.03157757595181465,-0.08046871423721313,0.021065549924969673,0.02241968736052513,-0.48353877663612366,-0.6602048873901367,0.05568797513842583,-0.38634294271469116,0.14428415894508362,-0.3045380115509033,0.5476781129837036,-0.23680363595485687,-0.08668077737092972,0.15974387526512146,0.11031518131494522,0.19796733558177948,0.04661748930811882,-0.08697498589754105,-0.01284407265484333,-0.06428573280572891,0.1600629836320877,-0.034001316875219345,0.23054490983486176,0.161824032664299,0.20869173109531403,0.30130282044410706,0.08989102393388748,-0.0444081611931324,-0.15903285145759583,0.09591366350650787,0.14780381321907043,-0.015927070751786232,0.6477459669113159,0.017145706340670586,-0.18952229619026184,0.10862672328948975,-0.0795435756444931,-0.0942731499671936,0.09179241955280304,0.04330098628997803,-0.06653206050395966,-0.027118345722556114,-0.2514561414718628,0.07569705694913864,0.12956923246383667,0.07573890686035156,-0.11130493134260178,0.22020438313484192,0.14917579293251038,0.14621856808662415,-0.2696554660797119,-0.04270284250378609,0.31095823645591736,0.509084939956665,-0.20786383748054504,0.25412657856941223,0.2196071743965149,0.02929360419511795,0.027885768562555313,-0.03175855800509453,-0.12930969893932343,-0.2690134644508362,-0.17910610139369965,-0.12801048159599304,-0.23100541532039642,0.04668321833014488,0.09906749427318573,-0.06337606906890869,0.1509704291820526,0.11038423329591751,-0.16814129054546356,-0.14222846925258636,-0.20313946902751923,-0.2805459797382355,0.09251587092876434,0.044269174337387085,0.12375695258378983,0.03201252222061157,-0.26933130621910095,0.030338522046804428,-0.06696245074272156,-0.4294807016849518,0.23966358602046967,-0.1708308309316635,-0.14963769912719727,0.108760766685009,-0.08138597011566162,-0.32263386249542236,-0.011846350505948067,-0.09108264744281769,-0.08692144602537155,0.032589785754680634,-0.10762660205364227,-0.1229081079363823,0.13829992711544037,-0.17594784498214722,-0.2899631857872009,-0.28130918741226196,-0.07462049275636673,0.09585031121969223,0.014150154776871204,-0.009644926525652409,-0.12735958397388458,0.20348447561264038,0.21017774939537048,0.33815643191337585,0.4462375044822693,0.22774675488471985,-0.04724301025271416,0.3134864866733551,0.14331847429275513,-0.26892349123954773,-0.282000869512558,-0.06956546008586884,0.06439758837223053,-0.3792644441127777,-0.147408589720726,-0.07940511405467987,0.1863265186548233,-0.05478474870324135,-0.14276161789894104,-0.17063552141189575,-0.13040238618850708,0.0681777149438858,0.21831773221492767,-0.11067075282335281,-0.10429519414901733,-0.03731493651866913,0.10576336085796356,0.08978361636400223,0.11552601307630539,-0.06301229447126389,-0.2725745737552643,0.1261487752199173,0.0021297207567840815,-0.20490120351314545,0.17699135839939117,0.24294812977313995,-0.022366102784872055,0.21233150362968445,-0.04393124207854271,-0.05704773589968681,0.25312045216560364,0.0628664642572403,-0.18858690559864044,-0.02602594718337059,0.10894415527582169,0.13862363994121552,-0.31244295835494995,-0.4215695261955261,0.03525254502892494,-0.10534784197807312,-0.011247314512729645,0.08800423890352249,-0.14136256277561188,0.10839879512786865,0.25613319873809814,-0.1228376105427742,-0.05959858372807503,0.05150715261697769,0.12469056993722916,0.039675451815128326,-0.10401919484138489,0.12664009630680084,-0.05858400836586952,-0.260536789894104,-0.19826708734035492,0.04735413193702698,0.0455508828163147,0.1822752207517624,-0.1905435174703598,-0.21100124716758728,-0.17209777235984802,-0.11127614229917526,0.28871506452560425,0.1734064221382141,-0.03377779573202133,0.006201798561960459,-0.08366714417934418,0.08357580751180649,0.11910214275121689,-0.2371816784143448,0.20215214788913727,0.06687382608652115,0.09927688539028168,0.0002714621659833938,0.09309899061918259,-0.20090162754058838,-0.10157287865877151,0.1603786200284958,-0.15720194578170776,0.1713848114013672,0.0826915055513382,0.25229352712631226,-0.01798577606678009,-0.21785539388656616,0.0413232147693634,-0.08103606849908829,0.2743576169013977,-0.4653448164463043,0.1230291947722435,0.09614544361829758,-0.028340311720967293,0.2316901683807373,-0.001359810819849372,-0.03594281151890755,0.06518228352069855,-0.23395171761512756,0.2756149470806122,-0.07355030626058578,0.10642218589782715,0.12958960235118866,0.10377325117588043,0.03524748980998993,0.004420960322022438,0.2735494375228882,-0.3322123885154724,0.15350261330604553,0.14128658175468445,0.027343625202775,0.029704250395298004,0.23116089403629303,-0.006391502916812897,-0.06955419480800629,0.13507844507694244,-0.12095679342746735,0.09007405489683151,0.06575247645378113,-0.0819077268242836,0.059482917189598083,-0.05468199402093887,-0.05073576048016548,-0.07544351369142532,-0.08640868216753006,-0.04321710392832756,0.1959136724472046,-0.004685113672167063,-0.08603774011135101,-0.09364473819732666,0.22464758157730103,-0.2867129445075989,0.04366059601306915,-0.2613906264305115,0.05715750530362129,-0.09050716459751129,-0.08844777941703796,0.244426891207695,-0.11703167855739594,-0.4320153594017029,-0.05890214070677757,0.23732265830039978,0.15331535041332245,-0.07569263130426407,-0.37281593680381775,0.1415136456489563,0.1652102768421173,0.11558084189891815,0.041117649525403976,0.03692786768078804,0.10522797703742981,-0.1014786884188652,0.05204048752784729,0.16073869168758392,0.2842966616153717,0.11564353108406067,0.24608959257602692,-0.006577751599252224,-0.12475176155567169,-0.17771512269973755,0.03608253598213196,-0.13297384977340698,-0.04665444791316986,-0.303694486618042,-0.21428947150707245,-0.0160058680921793,0.05854007229208946,-0.012270292267203331,0.04622921347618103,-0.03249013051390648,0.0845804214477539,0.14350031316280365,0.12890447676181793,0.10539351403713226,-0.20581777393817902,-0.10400234162807465,0.09490795433521271,-0.07625915110111237,-0.15463213622570038,0.10233526676893234,-0.036474958062171936,-0.1442526876926422,-0.14678417146205902,-0.5630437731742859,-0.505860447883606,0.5407289862632751,0.058040227741003036,-0.06974483281373978,0.011102014221251011,-0.08018936216831207,-0.0678897425532341,0.12679266929626465,-0.15708951652050018,-0.14893530309200287,-0.018855862319469452,0.19884845614433289,0.10676374286413193,-0.07548875361680984,0.188179612159729,-0.0019892537966370583,-0.1324068009853363,-0.18043673038482666,0.0693003460764885,-0.019521011039614677,0.16110865771770477,-0.1956496238708496,-0.16354496777057648,-0.06091676652431488,-0.0825563594698906,0.2282768189907074,-0.1816181093454361,0.1443537026643753,-0.0900995135307312,-0.05613810941576958,0.17375023663043976,0.16530786454677582,-0.0599081851541996,0.03128192201256752,0.21545150876045227,-0.08272939920425415,0.2770864963531494,0.10587361454963684,-0.019396867603063583,0.15862464904785156,0.22530809044837952,-0.1015222892165184,0.12220046669244766,-0.04600351303815842,0.1949746012687683,-0.10411524772644043,-0.08013702929019928,-0.0035225525498390198,-0.0519682802259922,0.1379798948764801,-0.21357327699661255,-0.1634744256734848,0.06711181253194809,0.01708536222577095,-0.38363200426101685,-0.23373819887638092,0.24052339792251587,-0.08818241953849792,0.37913522124290466,-0.025393234565854073,0.09300918877124786,0.14924116432666779,0.007152346894145012,-0.08237487077713013,-0.2605837285518646,-0.008504275232553482,-0.08032087236642838,0.008106839843094349,0.10396022349596024,0.010957526043057442,-0.15585139393806458,-0.07285206764936447,0.10546787083148956,-0.002715455833822489,0.13502946496009827,0.1593710035085678,-0.20731563866138458,-0.18876515328884125,0.00672236829996109,-0.20257747173309326,-0.19753600656986237,0.1662944257259369,0.06964121013879776,-0.06821109354496002,-0.19270473718643188,-0.4150982201099396,0.03172730281949043,0.19442470371723175,-0.10331949591636658,-0.19553591310977936,-0.002934748539701104,-0.11487288028001785,-0.023398209363222122,-0.12403038889169693,0.04689967259764671,0.02824988402426243,0.06336670368909836,0.15969042479991913,0.06708677113056183,-0.440751314163208,-0.0162789486348629,-0.20379452407360077,-0.11308764666318893,0.2952378988265991,-0.08041971921920776,-0.1375485509634018,0.1990109384059906,0.06659215688705444,-0.048783306032419205,-0.24050162732601166,0.2826668918132782,0.03516518697142601,-0.14943380653858185,-0.11814355850219727,0.1117231696844101,0.004018941428512335,0.2425576001405716,0.15412765741348267,-0.021567728370428085,-0.09007453173398972,-0.08856582641601562,0.21303679049015045,0.032659076154232025,-0.01878749392926693,0.006340650841593742,-0.187686949968338,0.044307488948106766,0.15188808739185333,-0.19570758938789368,0.10479273647069931,0.01913171075284481,-0.16306956112384796,-0.17977231740951538,-0.09614977985620499,-0.2282872349023819,-0.11804686486721039,0.2184128761291504,-0.17334887385368347,-0.11328959465026855,0.1404372751712799,0.14387308061122894,0.07267040014266968,-0.264301061630249,-0.10196568816900253,-0.0500166192650795,0.038918402045965195,0.1095719039440155,0.05058937892317772,0.17283304035663605,0.3760617971420288,0.3290395140647888,-0.3411010801792145,-0.09520161151885986,0.045724090188741684,0.0392439067363739,0.07738252729177475,0.13087932765483856,0.030846688896417618,0.2810225188732147,-0.00820799171924591,-0.0022195593919605017,0.3659103810787201,0.28390267491340637,0.05728685110807419,0.37850409746170044,0.28444981575012207,0.12800806760787964,-0.11661791801452637,-0.09337570518255234,0.0675894021987915,-0.021796749904751778,-0.16650769114494324,-0.16096597909927368,0.09513296186923981,0.0855633020401001,0.07381461560726166,-0.27743205428123474,-0.016154903918504715,0.03850474953651428,0.09892299026250839,0.36404627561569214,-0.09294494986534119,-0.27169448137283325,-0.025105012580752373,-0.15152841806411743,0.1594463735818863,-0.09593785554170609,-0.0040272874757647514,0.04121547192335129,0.013097978197038174,0.2054482400417328,0.08311502635478973,0.044066738337278366,0.022172996774315834,-0.13328027725219727,-0.019641965627670288,-0.05815775692462921,0.08168348670005798,-0.1142287477850914,0.2625243663787842,0.10821828246116638,0.08172058314085007,-0.18095187842845917,-0.10631861537694931,0.017751174047589302,0.019657202064990997,0.20706257224082947,-0.1579519659280777,-0.5555146336555481,0.9069395661354065,0.2614237368106842,-0.3857962191104889,0.06881986558437347,-0.06402616947889328,-0.11956237256526947,0.5277886390686035,-0.7694793343544006,1.1734930276870728,0.7822225093841553,0.037182219326496124,-0.28536251187324524,0.2285458743572235,-0.7305538058280945,0.4078013002872467,-0.06221571937203407,0.15383729338645935,-0.07236900180578232,0.26048392057418823,0.0072653330862522125,0.18785583972930908,-0.13229969143867493,0.09919379651546478,0.19548502564430237,0.07472775876522064,0.16863960027694702,0.06340837478637695,-0.12215664982795715,-0.017113642767071724,-0.03993050381541252,0.1912488043308258,-0.08430744707584381,-0.18439507484436035,0.22923986613750458,0.2635192573070526,0.08463635295629501,-0.012650301679968834,-0.5108193159103394,-0.34731584787368774,0.25412461161613464,-0.2829713821411133,-0.042614519596099854,0.03642652556300163,-0.05218895524740219,0.27811041474342346,0.0008654836565256119,-0.026755601167678833,-0.17315711081027985,-0.08438609540462494,-0.04708513244986534,0.057845063507556915,0.5046293139457703,-0.06151052564382553,-0.2513764500617981,-0.21220819652080536,0.05784879997372627,-0.2757038474082947,0.3841249942779541,0.2330835908651352,-0.09299604594707489,0.08530314266681671,0.3255915343761444,0.24988196790218353,-0.16383258998394012,0.0240255668759346,-0.015483382157981396,0.035583026707172394,0.43492943048477173,-0.3472382128238678,0.40991440415382385,0.3191528618335724,-0.06324984133243561,-0.4198262095451355,-0.02295120805501938,-0.07956697791814804,0.2695300281047821,-0.1439766138792038,-0.08569690585136414,-0.1504790186882019,-0.21160981059074402,0.04149777814745903,-0.1801813840866089,-0.05461513251066208,-0.08921444416046143,0.021217714995145798,0.11911682039499283,0.19618874788284302,-0.0886487290263176,-0.3962329030036926,0.14952194690704346,-0.3097149729728699,-0.0292214248329401,0.03501797094941139,-0.23113811016082764,-0.2809400260448456,0.058710891753435135,-0.1254187822341919,-0.18218213319778442,0.04619968309998512,-0.20212313532829285,-0.0962320938706398,0.23427341878414154,-0.061872970312833786,-0.13861994445323944,-0.19999033212661743,0.2014879435300827,-0.04439316689968109,-0.2876800298690796,-0.040343254804611206,0.0012985578505322337,0.26697787642478943,0.1404031664133072,-0.1900176703929901,0.06744413822889328,0.27055615186691284,-0.22596560418605804,-0.03441781550645828,-0.16160838305950165,-0.27957507967948914,0.2683984637260437,-0.21138465404510498,-0.07183174788951874,0.126514732837677,0.02589774690568447,0.2138441652059555,0.2438931167125702,0.283695250749588,0.1571478247642517,-0.18559181690216064,0.009877328760921955,-0.0008981230785138905,-0.32061314582824707,0.04977496340870857,-0.18554741144180298,0.16914547979831696,0.08840089291334152,-0.05195330083370209,0.20020249485969543,0.06832464039325714,-0.12117385864257812,0.05277791619300842,-0.11609852313995361,-0.26181578636169434,0.09851914644241333,-0.06325767934322357,0.04159659892320633,-0.13485446572303772,0.30701562762260437,-0.19426901638507843,-0.22183148562908173,-0.3050493896007538,0.12522000074386597,0.06540356576442719,0.2537136375904083,-0.2587418556213379,-0.48070642352104187,0.12203919887542725,0.18572452664375305,0.08370073139667511,-0.3968541920185089,-0.47798776626586914,0.3626384735107422,0.08132624626159668,0.1720706969499588,-0.6206074953079224,-0.36177849769592285,-0.08055836707353592,0.13247740268707275,0.18973073363304138,-0.12103499472141266,-0.24490486085414886,-0.069552943110466,0.808759868144989,0.0009437305270694196,0.19726578891277313,0.05886290967464447,-0.14419959485530853,-0.07185741513967514,0.04348910599946976,-0.5367202162742615,0.04029015451669693,-0.06150910630822182,0.02091938816010952,0.022793930023908615,-0.3521246910095215,0.21665187180042267,0.03461051359772682,-0.20671160519123077,0.14240828156471252,0.2908511459827423,-0.08550354838371277,0.11406077444553375,-0.12858128547668457,0.1285584717988968,-0.13030576705932617,0.06609324365854263,0.39223843812942505,0.0037641339004039764,-0.38912004232406616,-0.1416047364473343,0.03692931681871414,0.42238447070121765,-0.16479788720607758,-0.2679891586303711,0.23398758471012115,0.36914724111557007,-0.06770540773868561,-0.38193777203559875,0.10617661476135254,-0.8058270215988159,0.21506018936634064,0.15306252241134644,-0.3534242510795593,0.07318122684955597,0.5684638023376465,0.19880889356136322,-0.525327742099762,-0.22986137866973877,0.037186503410339355,-0.08571302890777588,-0.47217389941215515,-0.12809497117996216,-0.14856024086475372,-0.1850140392780304,-0.1815822273492813,-0.253551185131073,0.06756709516048431,0.07476888597011566,0.013149449601769447,-0.005077584180980921,0.05765094980597496,0.04630592092871666,-0.09321180731058121,-0.25950029492378235,-0.019649768248200417,0.1763429194688797,-0.2358206957578659,0.09318794310092926,-0.12770667672157288,0.28601065278053284,-0.0629405528306961,0.25949007272720337,-0.11860547959804535,-0.28027793765068054,0.021334363147616386,-0.23533107340335846,0.0522177629172802,0.058082468807697296,0.15907618403434753,0.4245981276035309,-0.17178083956241608,0.10594017803668976,0.3066312074661255,0.0013356320559978485,-0.058805011212825775,-0.5358439683914185,-0.08276919275522232,-0.5315922498703003,0.06820043921470642,0.6627949476242065,-0.3902819752693176,0.10556633770465851,0.35681116580963135,0.14463089406490326,-0.3068729341030121,-0.1920630931854248,-0.1724647730588913,-0.2315085530281067,-0.16444483399391174,-0.4270288944244385,0.09609343111515045,-0.060745615512132645,0.16915571689605713,0.10367236286401749,-0.13225513696670532,0.3366156220436096,0.2037755399942398,0.047587692737579346,-0.2188890278339386,-0.10111640393733978,0.025529174134135246,0.07729694247245789,0.16029579937458038,0.23603005707263947,0.12400472909212112,0.1283993422985077,-0.05684676766395569,-0.1454431116580963,0.10691146552562714,0.04131311550736427,-0.07530651986598969,-0.059312596917152405,0.2393413633108139,-0.3923293948173523,-0.06917170435190201,-0.08613250404596329,0.19600951671600342,0.576543927192688,0.1569441556930542,-0.10170072317123413,-0.07532745599746704,0.45179063081741333,0.2540757656097412,0.18616263568401337,0.20823585987091064,-0.0668533518910408,-0.09726410359144211,-0.0014820551732555032,0.03199874982237816,-0.025147592648863792,-0.1661248654127121,0.011477484367787838,0.13769246637821198,-0.011566361412405968,0.17999674379825592,-0.3033745586872101,-0.03157135471701622,-0.30014678835868835,0.18456564843654633,-0.011417924426496029,-0.06182606890797615,0.0580153651535511,-0.34889617562294006,-0.07451033592224121,0.05036511644721031,-0.04959180951118469,0.1018969789147377,-0.0016955623868852854,-0.1559174805879593,-0.17048174142837524,-0.0540517196059227,0.035672444850206375,-0.11053187400102615,-0.23816244304180145,-0.017138907685875893,0.03962302207946777,-0.33661308884620667,0.1618424355983734,-0.06696511059999466,-0.42229923605918884,0.18548642098903656,-0.04572305828332901,0.15642735362052917,-0.10236368328332901,-0.053013622760772705,0.011657603085041046,0.0031879828311502934,-0.06818081438541412,0.3190781772136688,0.08833838254213333,-0.09473008662462234,0.20715703070163727,-0.1354169398546219,0.13812170922756195,-0.3081951141357422,-0.14107193052768707,-0.17279702425003052,-0.0496247299015522,0.09144185483455658,0.2637588381767273,-0.21055345237255096,-0.07448310405015945,0.26351162791252136,0.13747826218605042,0.07138433307409286,0.20018799602985382,-0.1802586317062378,0.13585656881332397,0.15217426419258118,-0.33746451139450073,0.04379501938819885,-0.2200281322002411,0.11363855004310608,-0.1323547512292862,0.13495242595672607,-0.3078283369541168,0.16391406953334808,0.25570690631866455,-0.1519671380519867,-0.08164426684379578,-0.13066573441028595,0.10759308934211731,-0.016428133472800255,-0.04696498438715935,-0.120622418820858,-0.04543236270546913,-0.012600412592291832,-0.19509468972682953,0.20154279470443726,-0.18269716203212738,-0.17158164083957672,-0.15998215973377228,0.050032537430524826,-0.00859821867197752,0.14514091610908508,-0.06290531158447266,-0.03949929028749466,0.17934687435626984,-0.011209474876523018,-0.1680338829755783,0.05350266396999359,0.051816701889038086,0.03094923496246338,0.1192934587597847,-0.03140793740749359,0.01897922158241272,-0.1530049443244934,0.016701845452189445,-0.057315416634082794,-0.005650138016790152,0.15399883687496185,-0.005833605770021677,-0.1042078286409378,0.16815364360809326,-0.23143771290779114,0.03739805519580841,0.023535244166851044,-0.18867620825767517,-0.10109240561723709,-0.07977407425642014,-0.00799722783267498,-0.041715044528245926,0.03246694803237915,0.15817475318908691,0.04283994063735008,-0.05428183451294899,-0.10071505606174469,0.022422747686505318,0.009516322053968906,0.11124237626791,0.055409785360097885,0.24808679521083832,-0.2600814998149872,-0.007561095058917999,0.04304281622171402,-0.050328679382801056,0.34494295716285706,0.0056893490254879,0.001740149687975645,0.16906385123729706,0.14709791541099548,0.015569500625133514,0.023497525602579117,-0.028287995606660843,0.030444283038377762,0.038303446024656296,-0.08423593640327454,0.16018414497375488,0.17675089836120605,0.021642429754137993,0.0024818689562380314,-0.10007866472005844,-0.16617193818092346,0.16100844740867615,0.07395637780427933,-0.009904440492391586,-0.26422324776649475,-0.2217005491256714,-0.13970649242401123,-0.2674703299999237,0.07655522227287292,0.21584047377109528,-0.020069729536771774,0.08475635945796967,0.31315749883651733,-0.019772829487919807,0.07425183057785034,-0.014488902874290943,-0.03191457316279411,0.06911146640777588,0.09458489716053009,-0.17280060052871704,-0.10224048048257828,0.0742272436618805,-0.2039623260498047,-0.06384789198637009,-0.03917708992958069,0.07629934698343277,0.06391705572605133,0.018781377002596855,-0.2556822597980499,0.12149278819561005,0.10205511748790741,0.03146057575941086,-0.15727268159389496,0.23632635176181793,-0.11722580343484879,0.12023553252220154,0.1366686373949051,0.04281868785619736,0.04434197396039963,-0.11455003917217255,0.04339902102947235,-0.28669753670692444,-0.39321082830429077,-0.10626046359539032,-0.14974437654018402,-0.19004063308238983,-0.05388645455241203,0.036349907517433167,0.05656188726425171,-0.04796963930130005,0.0184259545058012,0.18029367923736572,-0.23961713910102844,0.12599407136440277,-0.07613526284694672,-0.1870618611574173,0.056471481919288635,0.024936493486166,-0.252807080745697,0.019817985594272614,0.009666683152318,-0.14255838096141815,0.004484457429498434,0.31955698132514954,-0.13070672750473022,0.011135626584291458,0.1202862411737442,-0.050202518701553345,0.08669193089008331,0.08608626574277878,-0.0698513314127922,0.08539507538080215,-0.11136494576931,0.20288047194480896,0.030279992148280144,-0.2981683015823364,-0.14785009622573853,-0.002124316291883588,0.041969120502471924,-0.04639048874378204,0.052851252257823944,0.2638401389122009,0.08960124850273132,-0.10584386438131332,-0.06270826607942581,-0.46269482374191284,0.062126316130161285,-0.1883055567741394,-0.0851610079407692,-0.1932060271501541,-0.2170763909816742,0.09647417813539505,-0.03715573996305466,0.029236838221549988,-0.05413883924484253,-0.11559665948152542,-0.13340239226818085,-0.02446582168340683,0.0089927539229393,0.23474696278572083,-0.11468839645385742,-0.030297618359327316,0.03366762027144432,0.03214059770107269,0.042884308844804764,-0.023487547412514687,-0.1315983682870865,0.12204256653785706,0.10335008054971695,0.01763269305229187,0.018372828140854836,-0.08918474614620209,-0.2676782011985779,0.041148558259010315,0.016860920935869217,-0.18963925540447235,0.07956840842962265,0.16255296766757965,-0.161561518907547,-0.05274272710084915,-0.07113998383283615,0.025778254494071007,0.16026252508163452,-1.1866575479507446,-0.07948953658342361,-0.15869173407554626,0.5518986582756042,-0.16032882034778595,-0.4443664252758026,0.3311057984828949,-0.4575028419494629,0.5446992516517639,0.12316109240055084,-0.8538551330566406,-0.014775509014725685,0.18442870676517487,-0.34986892342567444,-0.09077121317386627,-0.22609755396842957,0.21385693550109863,-0.02784128114581108,0.30054742097854614,0.17866849899291992,0.24249890446662903,0.05559782683849335,0.008733686059713364,-0.3939254581928253,-0.0584447905421257,0.018738579005002975,0.06748548150062561,0.5535975098609924,-0.4770206809043884,0.15848788619041443,0.7674296498298645,0.5842799544334412,-0.21062007546424866,-0.11542617529630661,0.027120959013700485,0.07399293780326843,0.09464675933122635,-0.17032216489315033,-0.18798810243606567,0.23140782117843628,-0.022974301129579544,-0.25059136748313904,0.19555801153182983,0.3066979944705963,0.19882792234420776,-0.009766746312379837,-0.6255298256874084,-0.05153779685497284,0.7333939671516418,0.17326726019382477,-0.019466044381260872,-0.3815477192401886,0.2808871567249298,0.1476821005344391,-0.10197316110134125,0.2944897413253784,-0.07650730013847351,-0.1834017038345337,0.22479946911334991,-0.022520028054714203,0.2589854896068573,0.040164168924093246,-0.06433004140853882,-0.0010479659540578723,-0.2167007327079773,-0.014846913516521454,-0.5174641013145447,0.004123012535274029,-0.09283416718244553,-0.09176948666572571,-0.2046242505311966,0.06881380081176758,-0.14665958285331726,0.14583732187747955,0.023883812129497528,-0.3095882833003998,-0.1647852659225464,-0.006900100968778133,-0.2722565531730652,-0.007377323228865862,-0.019388332962989807,-0.11368498206138611,0.24860632419586182,0.013445897027850151,-0.07919784635305405,0.19534584879875183,0.02227410487830639,-0.42636531591415405,0.0085909990593791,-0.03067592717707157,-0.3356460928916931,-0.028311844915151596,-0.11769641935825348,0.05270583555102348,0.019261207431554794,-0.09657701849937439,0.46992841362953186,-0.2546428143978119,0.051935408264398575,-0.03812674432992935,-0.20092584192752838,0.00598426628857851,-0.06367819011211395,0.12068624794483185,-0.06748615950345993,-0.09777095913887024,0.029186522588133812,-0.250133752822876,-0.12497437745332718,0.1399267166852951,-0.06778616458177567,0.09292375296354294,0.23472489416599274,-0.0033893894869834185,-0.043226711452007294,-0.20121486485004425,-0.0667661800980568,-0.10477615147829056,-0.0030042529106140137,0.054438669234514236,0.09680210053920746,-0.2391631305217743,0.03823668509721756,0.19831925630569458,0.15158267319202423,0.06939810514450073,-0.05624160170555115,-0.2659527659416199,0.21864642202854156,0.20543284714221954,-0.32144883275032043,0.1694660782814026,-0.03440957888960838,0.04386939853429794,-0.0027330315206199884,0.1760535091161728,-0.11590619385242462,0.22866715490818024,0.24674496054649353,-0.20345385372638702,-0.026415470987558365,-0.15285727381706238,0.3743170201778412,-0.03636375069618225,0.024213682860136032,-0.428907185792923,-0.012601220980286598,0.008319406770169735,-0.9505661725997925,0.3982938826084137,0.2235996276140213,-0.28056320548057556,0.04378748685121536,0.2444937825202942,-0.03686220198869705,-0.02082093432545662,-0.01283976063132286,0.2152044028043747,0.09029240161180496,-0.09020408987998962,0.1650380641222,0.07510457187891006,0.09248241037130356,-0.44013145565986633,-0.17816641926765442,-0.163119837641716,-0.20054176449775696,0.02560584619641304,0.22907328605651855,-0.13068188726902008,0.014847432263195515,0.4315526485443115,-0.4318334460258484,0.12508846819400787,0.36637917160987854,-0.14682263135910034,0.0718935877084732,0.3056592345237732,-0.17880895733833313,-0.09585081040859222,-0.28251034021377563,0.05365990847349167,-0.2179245948791504,0.17355194687843323,-0.17549051344394684,0.1317911595106125,0.19051869213581085,-0.21625377237796783,-0.06651079654693604,-0.14419737458229065,0.08611582219600677,0.1001439169049263,-0.5046557188034058,-0.06964296102523804,-0.10232683271169662,-0.9033302068710327,0.12772004306316376,-0.18170957267284393,-0.4920574128627777,0.0866594910621643,-0.04784843325614929,0.7092685699462891,-0.1556525081396103,-0.3448916971683502,0.09485907107591629,0.07167469710111618,-0.018495870754122734,0.22649022936820984,0.008992085233330727,0.17277707159519196,-0.37774601578712463,-0.06038665398955345,-0.11545393615961075,-0.1653478741645813,0.20524640381336212,0.21725410223007202,-0.04432603344321251,-0.08570891618728638,-0.07560057938098907,-0.402614027261734,-0.3426721394062042,0.2191137820482254,-0.35395368933677673,-0.09685924649238586,0.08509451150894165,-0.16682745516300201,-0.2782866358757019,-0.10074825584888458,0.2428494095802307,-0.11731059104204178,0.23659834265708923,-0.1335349828004837,-0.04153825342655182,0.26731330156326294,-0.11861564218997955,-0.019521502777934074,-0.27269303798675537,0.3986685574054718,0.23285727202892303,0.030988110229372978,-0.1796724945306778,-0.35898202657699585,-0.1241852268576622,0.007475219666957855,-0.7472597360610962,-0.1771741509437561,0.27590256929397583,0.09818879514932632,0.19071604311466217,0.06724540889263153,-0.12432590872049332,-0.24486517906188965,-0.11927389353513718,0.11075868457555771,-0.03473793342709541,-0.24663333594799042,0.17585700750350952,-0.004443363286554813,0.000879631785210222,-0.30309176445007324,0.06333409994840622,0.10913528501987457,0.06072666496038437,-0.18395587801933289,-0.12964990735054016,-0.10408871620893478,0.013425426557660103,0.13771088421344757,-0.2756563127040863,0.23736970126628876,0.08551416546106339,-0.12208607792854309,0.0868825688958168,-0.003293147776275873,0.06120423227548599,0.14204297959804535,0.2812214195728302,-0.04953250288963318,0.2229505032300949,0.04686371609568596,0.017974184826016426,0.010598891414701939,0.03855975717306137,-0.11714829504489899,0.040997568517923355,-0.08255071938037872,-0.007056824397295713,0.0379144661128521,0.1141509935259819,0.00900886207818985,0.00404709205031395,-0.12833082675933838,0.0008807621779851615,-0.04793036729097366,-0.3491601347923279,-0.031898874789476395,0.0035794139839708805,-0.026033714413642883,-0.07120061665773392,0.028698889538645744,0.12036269158124924,-0.09205713868141174,0.06866424530744553,-0.006306108552962542,0.02303338423371315,-0.08862194418907166,0.03864595666527748,-0.039744094014167786,0.10677029937505722,0.12826375663280487,0.035001304000616074,-0.0822119191288948,-0.07446131110191345,-0.07097215950489044,-0.05523807555437088,0.03554457053542137,-0.18245892226696014,0.018514689058065414,-0.03268171101808548,0.021301034837961197,-0.0518326573073864,-0.17307287454605103,0.1590549498796463,0.019438302144408226,0.16394414007663727,0.1691669523715973,0.2309890240430832,0.028066882863640785,0.17633037269115448,-0.005206241738051176,-0.031045475974678993,0.06133018806576729,0.1394425332546234,0.23906536400318146,0.02464035525918007,0.1129264384508133,0.16900508105754852,0.2939247786998749,0.04751867055892944,0.005120766349136829,0.02910870686173439,-0.03498414158821106,-0.27430662512779236,0.20962561666965485,0.1835501343011856,0.07172184437513351,0.12947794795036316,0.06338848918676376,0.03756389021873474,-0.01042268332093954,0.041664622724056244,0.11957397311925888,0.04242851957678795,0.03005078248679638,0.07612764835357666,0.3194635808467865,0.008130386471748352,0.08801643550395966,-0.11976449191570282,-0.08020618557929993,-0.17491905391216278,0.17033281922340393,-0.09534882009029388,-0.23059597611427307,0.1373647004365921,0.11782904714345932,0.04131240397691727,0.2201823890209198,0.1514216512441635,-0.18712103366851807,0.04805509373545647,0.08934548497200012,0.1543448567390442,0.10552576929330826,-0.004948710557073355,-0.13637806475162506,0.23624734580516815,-0.08447311073541641,-0.20832279324531555,0.2717917263507843,0.002270381199195981,0.32776451110839844,0.03817570582032204,0.08499620109796524,-0.2509513795375824,0.18986301124095917,-0.09317388385534286,-0.34655091166496277,0.0021570876706391573,0.3092021644115448,0.18319539725780487,-0.08178600668907166,-0.2313636988401413,0.33829858899116516,0.3539320230484009,0.029018163681030273,0.09376061707735062,-0.022839520126581192,0.12693968415260315,0.09980644285678864,-0.06680067628622055,0.019778218120336533,-0.2842209041118622,0.01622139662504196,-0.11592375487089157,-0.09815925359725952,-0.13562151789665222,0.019834307953715324,0.10342971235513687,0.29646989703178406,-0.4861622750759125,0.03011719509959221,0.09602842479944229,0.10476382821798325,-0.21493519842624664,0.19026194512844086,0.12630409002304077,-0.2048056274652481,-0.07292409986257553,-0.17672500014305115,0.20850300788879395,0.035492148250341415,-0.1478005051612854,0.07924854755401611,0.00598892942070961,-0.23710861802101135,-0.16373056173324585,-0.08229994773864746,-0.10176616907119751,0.19403550028800964,-0.013021370396018028,0.02111322060227394,-0.06770817190408707,0.43670520186424255,-0.2142433375120163,-0.023869359865784645,-0.3356224596500397,0.11984924226999283,-0.07931721955537796,-0.25811225175857544,0.21613259613513947,-0.045738983899354935,0.26454076170921326,0.046124186366796494,0.22964660823345184,0.026179654523730278,0.07021698355674744,-0.042932506650686264,0.13439017534255981,0.16552597284317017,-0.04756282642483711,-0.18709693849086761,-0.018570518121123314,0.15879933536052704,-0.1471632421016693,0.04483239725232124,-0.14011900126934052,0.009348666295409203,0.07579156756401062,-0.09302864968776703,0.1483975499868393,-0.1659548133611679,0.08027980476617813,-0.022765928879380226,0.024478543549776077,-0.11335573345422745,-0.06820645928382874,-0.10783923417329788,-0.03246002271771431,0.10546603798866272,-0.11420287191867828,0.032104261219501495,0.09284155815839767,-0.0045419237576425076,0.014736161567270756,0.05772937089204788,0.021941715851426125,0.08643274009227753,0.09972503036260605,0.11080852150917053,-0.15261037647724152,0.24639709293842316,0.0076880971901118755,0.12298175692558289,0.014632850885391235,-0.07136128842830658,-0.27282771468162537,0.12386085093021393,0.06113710626959801,0.11195862293243408,-0.1278674602508545,0.17762847244739532,0.17791977524757385,-0.03307940065860748,0.14185331761837006,0.48268163204193115,0.23650749027729034,0.569977343082428,-0.9482445120811462,-0.5979364514350891,-0.0360870435833931,0.15318764746189117,-0.02424091100692749,0.35681217908859253,0.16702096164226532,-0.9724529981613159,0.24813786149024963,0.03706061840057373,-0.6655102968215942,0.08308672159910202,-0.10282290726900101,-0.2392880618572235,-0.04891277104616165,0.38811400532722473,0.06972141563892365,-0.0127312196418643,0.13376256823539734,0.00928786862641573,0.17025256156921387,-0.15313692390918732,0.021745430305600166,-0.2716017961502075,0.21036048233509064,0.0018533149268478155,-0.00711021525785327,0.10639911144971848,-0.4425201714038849,-0.16646461188793182,-0.36715054512023926,0.1125527173280716,-0.24188224971294403,0.023176342248916626,-0.11707242578268051,0.19921857118606567,-0.04908037558197975,-0.16507402062416077,-0.12825916707515717,-0.19049806892871857,0.16268615424633026,-0.09233734011650085,0.3142637610435486,-0.0212568249553442,0.16175276041030884,-0.006776819936931133,0.10474119335412979,0.022912979125976562,-0.030924053862690926,-0.15054945647716522,0.18054704368114471,-0.4717017114162445,0.12859676778316498,0.07159639149904251,-0.37652653455734253,0.08923911303281784,-0.3119582533836365,-0.24474602937698364,0.10555516928434372,-0.11049555242061615,0.018461499363183975,-0.3220805525779724,-0.12587346136569977,-0.3017198443412781,0.10750257968902588,0.17024599015712738,0.25180116295814514,-0.13580583035945892,0.05445786565542221,-0.10953565686941147,-0.2828507721424103,0.10755917429924011,0.08405055850744247,0.29379531741142273,0.1707657426595688,-0.04128291830420494,-0.29218971729278564,0.09457322955131531,0.0659806951880455,-0.15667730569839478,0.10586097091436386,-0.04595353081822395,-0.022719591856002808,0.0795033872127533,-0.5272438526153564,0.15034238994121552,0.05473263934254646,-0.006282886490225792,0.09509669244289398,-0.2285919040441513,-0.27868521213531494,-0.22864869236946106,-0.1261269599199295,-0.10406031459569931,0.2752346098423004,0.03627428039908409,-0.008544616401195526,-0.28010889887809753,0.05746788531541824,0.05434107780456543,-0.08221433311700821,0.141862154006958,0.2758108973503113,-0.006801982410252094,0.08820755779743195,-0.17132869362831116,-0.007584043778479099,-0.0779348611831665,0.0556751973927021,-0.17500406503677368,-0.21120917797088623,-0.16229738295078278,-0.0158888790756464,-0.053238093852996826,-0.12417098134756088,0.14279207587242126,0.4589828848838806,-0.3748210668563843,0.08424551784992218,-0.04450857266783714,-0.016446974128484726,-0.03326760232448578,0.13881243765354156,0.13550813496112823,-0.17748869955539703,-0.11571305245161057,0.1455761045217514,-0.0928734689950943,0.004706582520157099,0.339232861995697,-0.07837286591529846,-0.07199274748563766,0.36163368821144104,0.04375161975622177,0.12587760388851166,0.08177437633275986,0.13956578075885773,-0.08393565565347672,0.03251456096768379,0.10831008106470108,-0.10522373020648956,-0.36793121695518494,0.025148946791887283,0.04287664219737053,0.021600399166345596,0.04083837941288948,-0.041376903653144836,-0.08653127402067184,-0.20423707365989685,0.043034497648477554,0.025559421628713608,0.16562916338443756,0.007975375279784203,0.1498294323682785,0.2228948026895523,-0.13830897212028503,0.02583347260951996,0.15098199248313904,0.14056383073329926,0.0875370129942894,-0.02457141876220703,-0.16593004763126373,0.05988055467605591,-0.12495999783277512,0.33367040753364563,-0.24238616228103638,-0.17768289148807526,-0.02143099345266819,-0.25413164496421814,0.2488720864057541,0.06483785063028336,0.13403362035751343,0.07596801966428757,-0.4404033124446869,0.1935647577047348,0.04910722002387047,-0.0651380717754364,-0.11347415298223495,0.031639378517866135,0.12967316806316376,-0.25662538409233093,0.2849850654602051,0.31620389223098755,0.04474359005689621,0.25355735421180725,-0.38335463404655457,0.12223953008651733,-0.05198008939623833,0.10521695762872696,0.013280767016112804,0.09369849413633347,0.3184328079223633,0.07505905628204346,-0.12184935808181763,-0.07975028455257416,-0.03470975160598755,0.02426527813076973,0.05440011993050575,0.23568405210971832,0.1832493096590042,0.033349309116601944,-0.22641439735889435,0.028276175260543823,0.019605128094553947,-0.23546898365020752,0.02456599660217762,0.33585724234580994,0.262275755405426,0.15356652438640594,-0.024868210777640343,0.14209219813346863,0.059892330318689346,-0.23026221990585327,0.12010673433542252,0.053020939230918884,-0.3284018039703369,-0.18472707271575928,-0.26270514726638794,-0.19848880171775818,0.09016785770654678,-0.18664216995239258,0.10870328545570374,0.07279111444950104,-0.015712445601820946,0.1832912415266037,-0.1227363720536232,0.02694115601480007,-0.12876535952091217,0.20183652639389038,-0.03452973812818527,0.03526397794485092,0.07211993634700775,-0.26764577627182007,-0.13618259131908417,-0.38179317116737366,0.12714235484600067,0.07668392360210419,0.4885388910770416,-0.08891389518976212,0.14676614105701447,0.08216489106416702,-0.1409461498260498,-0.2852887809276581,0.1977139562368393,0.38331738114356995,-0.3609602749347687,0.04729831963777542,-0.3512699604034424,-0.13530996441841125,0.05744634196162224,0.10549943149089813,0.07711447775363922,0.1982760727405548,-0.1957899034023285,0.1236947551369667,-0.5940607190132141,-0.19209755957126617,-0.3715854287147522,-0.09247776120901108,-0.050206445157527924,-0.28080350160598755,-0.20215106010437012,-0.2319905012845993,-0.22735561430454254,0.0455106645822525,0.0233972929418087,-0.09123241901397705,0.04484523832798004,-0.10281336307525635,-0.1537545621395111,-0.16821664571762085,0.1890437752008438,-0.20057591795921326,0.006634190678596497,-0.028736785054206848,0.08092997968196869,0.10952239483594894,-0.24818114936351776,0.19042962789535522,0.010305903851985931,0.05977176874876022,0.13442856073379517,0.022118961438536644,-0.016877826303243637,0.1005721315741539,-0.3124067187309265,0.04360044002532959,-0.1279626339673996,0.41425663232803345,0.35227182507514954,-0.015133005566895008,-0.017987441271543503,-0.05017434433102608,-0.29333868622779846,0.14608564972877502,0.04359375312924385,0.01656978763639927,0.2073798030614853,0.13783709704875946,-0.1085948795080185,-0.07043857127428055,0.003957509528845549,-0.24421532452106476,0.19424933195114136,0.0012126927031204104,0.08380263298749924,-0.061483558267354965,-0.051218483597040176,-0.14599847793579102,0.05453162267804146,-0.06758758425712585,-0.02512550726532936,0.5010223984718323,-0.00018850590276997536,0.17400822043418884,0.1821126639842987,0.19416527450084686,-0.04997812584042549,0.08094874024391174,-0.4202357828617096,-0.21962356567382812,0.17299272119998932,0.5113372802734375,0.25701889395713806,0.04676901921629906,-0.08957608044147491,-0.13610325753688812,0.30807358026504517,0.2571318745613098,0.05208391323685646,0.19212080538272858,-0.00363548519089818,-0.062192756682634354,0.24331744015216827,-0.23337188363075256,0.023100897669792175,0.08938519656658173,-0.127772718667984,0.16304156184196472,0.04067987948656082,0.27436643838882446,-0.07768280804157257,0.20984292030334473,0.14948712289333344,-0.0455191507935524,0.1277247816324234,-0.1590692698955536,0.1550147533416748,-0.16880126297473907,-0.06224893033504486,0.24034352600574493,-0.18628887832164764,-0.025128576904535294,0.11745098978281021,-0.18072150647640228,0.3557913899421692,0.10830122232437134,0.14521655440330505,0.13827742636203766,-0.0374460332095623,0.09405691176652908,0.2241487056016922,-0.0029236364644020796,0.30562740564346313,0.010160168632864952,0.08627840131521225,0.029640359804034233,0.1167178750038147,-0.29641473293304443,0.010350185446441174,-0.24137307703495026,-0.1872096210718155,0.26701411604881287,-0.14317578077316284,-0.12208063900470734,0.03856271132826805,-0.6899646520614624,-0.14597606658935547,-0.3191096782684326,-0.042583566159009933,0.03898762911558151,0.004116744734346867,0.12156800180673599,-0.23562222719192505,0.011266558431088924,0.2732960283756256,0.20410998165607452,-0.015562115237116814,0.1994645893573761,0.2981671094894409,0.15653257071971893,0.11633672565221786,-0.21112178266048431,-0.15813031792640686,0.10639820992946625,0.017229946330189705,-0.017093997448682785,0.26304376125335693,0.029324768111109734,-0.028065592050552368,0.04693770408630371,-0.18668682873249054,-0.1741967797279358,0.022160429507493973,-0.22694003582000732,0.2414240837097168,-0.004731936380267143,-0.2406623661518097,-0.17764081060886383,-0.16293098032474518,-0.02619037963449955,0.012832092121243477,0.08812439441680908,-0.22508810460567474,-0.07519100606441498,0.3066859841346741,-0.013591301627457142,0.04148175194859505,-0.1290893703699112,-0.17048729956150055,0.19167762994766235,-0.06195145845413208,-0.09704431891441345,-0.0023043008986860514,-0.19460490345954895,0.20140911638736725,-0.02820088155567646,-0.02249389886856079,0.021897437050938606,0.05086261034011841,0.07197800278663635,-0.17863506078720093,0.10998959094285965,0.2601720094680786,-0.33882656693458557,0.26767095923423767,0.02536282129585743,0.4950593411922455,-0.07612240314483643,-0.04118126630783081,0.3813087046146393,0.28590503334999084,-0.14524412155151367,-0.3753662705421448,-0.09470009803771973,-0.2511269748210907,-0.004315144848078489,0.029132874682545662,-0.08539306372404099,0.12929506599903107,0.2352648824453354,0.0709039643406868,0.3015713095664978,-0.09895644336938858,0.006573522929102182,0.14274899661540985,-0.07680117338895798,-0.06793304532766342,0.37395960092544556,0.1079886183142662,0.12344206124544144,-0.1999322921037674,0.18900127708911896,-0.00149335409514606,0.3741734027862549,0.011259762570261955,0.34907007217407227,-0.2004706710577011,-0.20558053255081177,0.08584187924861908,-0.03369985520839691,-0.06812433898448944,-0.3137354254722595,-0.014262023381888866,-0.07018423825502396,-0.12238990515470505,0.06254958361387253,0.09603870660066605,0.2913981080055237,-0.033416811376810074,-0.002786163939163089,0.08326534181833267,0.15543408691883087,0.1028745174407959,-0.09848612546920776,0.08624164760112762,-0.059702809900045395,0.1513015180826187,0.14715524017810822,0.22248627245426178,0.18003344535827637,0.4194197952747345,0.1633460372686386,-0.16153357923030853,-0.01892128586769104,0.12363141030073166,-0.11120197176933289,-0.17044475674629211,-0.07204341143369675,-0.16860470175743103,-0.028991982340812683,-0.02091318368911743,0.17522741854190826,0.10356020927429199,-0.0015635993331670761,0.03333878144621849,-0.030940251424908638,-0.10931136459112167,0.09411951154470444,-0.22106370329856873,0.11362804472446442,0.06596047431230545,-0.44921666383743286,-0.09473221004009247,-0.08901053667068481,-0.2574349343776703,0.04488522559404373,0.19766852259635925,-0.271602064371109,0.0010168288135901093,-0.015862198546528816,-0.19230858981609344,-0.060062430799007416,-0.14436103403568268,0.18574176728725433,-0.17098881304264069,-0.34922680258750916,-0.00655784085392952,-0.02739916741847992,0.6381393671035767,0.2636259198188782,-0.09596864879131317,0.055655352771282196,0.03178735077381134,-0.05520664528012276,0.21920281648635864,-0.01896057091653347,-0.37175142765045166,0.2772165834903717,0.09043943136930466,-0.18934088945388794,-0.33414724469184875,-0.10763347148895264,-0.02147635444998741,0.24248600006103516,-0.10519181191921234,-0.16924189031124115,-0.29409024119377136,0.08213545382022858,0.02149975299835205,0.06642056256532669,-0.11303317546844482,-0.06226063519716263,0.5761359333992004,-0.08842764794826508,0.05587677285075188,0.30027374625205994,0.035482197999954224,-0.14688563346862793,0.18090933561325073,-0.4118146002292633,0.17813263833522797,-0.04332174360752106,0.26800939440727234,-0.0341402105987072,-0.06510914117097855,-0.1084030494093895,0.044025689363479614,0.5640479326248169,0.4742431044578552,-0.10127204656600952,0.1766418069601059,0.01634632982313633,-0.03028440661728382,-0.1567203253507614,0.12291073054075241,0.03754205256700516,-0.04753190651535988,-0.4275617003440857,0.13012634217739105,0.11216720193624496,0.27965787053108215,-0.20436005294322968,-0.06823668628931046,0.20772957801818848,0.2139296531677246,0.09968066960573196,-0.3403736352920532,0.24528621137142181,0.10367059707641602,-0.05672832950949669,0.05178038030862808,0.1872914731502533,0.10073886066675186,0.2057235985994339,0.05695507302880287,-0.1112794280052185,-0.24801595509052277,-0.005027389153838158,0.28336021304130554,-0.009598197415471077,0.2823638319969177,0.06395398080348969,-0.12435480207204819,0.05696110054850578,-0.0001568081061122939,-0.013982074335217476,0.029741212725639343,0.2946237623691559,-0.2482934445142746,-0.030174484476447105,0.19652563333511353,-0.12287203967571259,0.10367145389318466,0.271116703748703,-0.10350259393453598,-0.1338183432817459,0.05599503591656685,0.17322339117527008,-0.05040216073393822,-0.13538731634616852,0.01954447478055954,0.1953573226928711,-0.08294861018657684,0.03496379777789116,0.010970032773911953,-0.18377685546875,-0.024708949029445648,-0.050226274877786636,-0.02710121124982834,0.17124667763710022,0.11607293039560318,-0.25274085998535156,-0.07788855582475662,-0.14912009239196777,0.36322635412216187,-0.07468118518590927,-0.043466147035360336,0.23815234005451202,-0.028297059237957,-0.07334379106760025,-0.5470555424690247,0.0635269433259964,-0.2580019533634186,-0.04379963502287865,0.07903600484132767,0.17085032165050507,-0.06055879965424538,-0.10536901652812958,-0.007027765735983849,-0.15139611065387726,0.06560683995485306,0.1561165750026703,0.029613442718982697,-0.04114849120378494,0.007413826882839203,0.04450099170207977,0.10534173250198364,0.08793698251247406,0.1564381867647171,0.06304265558719635,0.1772146224975586,-0.16635625064373016,0.04017699137330055,-0.15659405291080475,-0.33965790271759033,-0.03212791308760643,-0.07730098813772202,0.21504051983356476,-0.022256961092352867,-0.04618542268872261,0.051725707948207855,0.05508541315793991,0.18833769857883453,0.03110380843281746,-0.06814642995595932,-0.023394875228405,-0.4261179566383362,-0.07260822504758835,-0.17729783058166504,-0.031467098742723465,0.22372081875801086,0.047769591212272644,0.22630569338798523,0.07160291075706482,-0.12268923223018646,-0.010432562790811062,-0.06265333294868469,-0.13923047482967377,-0.10550834983587265,0.12383858859539032,-0.6571242809295654,-0.10757748782634735,-0.08310958743095398,0.2596980929374695,0.13394472002983093,0.12274390459060669,-0.027429983019828796,0.29865050315856934,-0.30039796233177185,-0.0438249334692955,0.054542090743780136,-0.14869441092014313,0.03576751425862312,-0.014572123065590858,-0.17659704387187958,-0.12635862827301025,-0.24289558827877045,-0.276588499546051,0.14966066181659698,-0.03462831303477287,-0.29607847332954407,0.07268577069044113,-0.12173964828252792,0.11659413576126099,-0.23832418024539948,-0.05922491475939751,-0.11540711671113968,-0.17597389221191406,-0.0805746540427208,-0.011049596592783928,-0.11239934712648392,-0.1721111536026001,0.2104337215423584,0.09822521358728409,-0.281120628118515,-0.13265377283096313,0.021754704415798187,0.23169487714767456,-0.09714426845312119,-0.1898491084575653,-0.21546269953250885,0.16576935350894928,0.1639402210712433,0.052813202142715454,0.08481147885322571,0.13028572499752045,-0.059234727174043655,0.12136495858430862,0.2668440043926239,0.1489480435848236,-0.17582029104232788,-0.1496862918138504,0.3455650806427002,0.04785103723406792,-0.0875992402434349,0.0109570836648345,0.16990773379802704,0.21161861717700958,-0.011821904219686985,0.09748026728630066,-0.1350673884153366,0.20690466463565826,-0.03382198512554169,-0.12115635722875595,-0.2731243371963501,-0.08165337145328522,0.2202020138502121,-0.09367211908102036,-0.04447966441512108,-0.014064929448068142,-0.3829217255115509,0.10374277830123901,0.25161242485046387,0.184672549366951,0.11316666007041931,0.26870405673980713,0.051691144704818726,-0.04131957143545151,-0.45682254433631897,0.3084656894207001,0.04878392443060875,-0.17956554889678955,0.03588370606303215,0.11737574636936188,0.0023221673909574747,-0.056651681661605835,-0.018680669367313385,0.07474516332149506,0.19834116101264954,-0.1572413444519043,0.19076165556907654,0.15825046598911285,-0.023791326209902763,-0.3885674476623535,-0.15823839604854584,-0.29037439823150635,-0.021891875192523003,0.14464591443538666,0.3097850978374481,-0.10210981965065002,-0.13041330873966217,0.016710873693227768,-0.40778034925460815,0.014017589390277863,0.20573978126049042,0.023560505360364914,-0.00722271716222167,0.019080981612205505,0.02974880300462246,-0.26878976821899414,0.17345017194747925,0.11924522370100021,-0.38478708267211914,0.09727085381746292,0.04097739979624748,-0.16174452006816864,0.01295214518904686,-0.3086487054824829,-0.4714323878288269,-0.2582562565803528,-0.20394568145275116,0.08710970729589462,-0.06707555055618286,-0.13309916853904724,0.19937291741371155,0.04508854076266289,-0.17154957354068756,-0.13862116634845734,0.19058147072792053,0.19460178911685944,0.12146499752998352,-0.3704330623149872,0.0797947496175766,0.12167337536811829,0.05662155896425247,-0.15740235149860382,0.05111764743924141,0.12037929892539978,-0.06128588318824768,0.0895087942481041,0.058558929711580276,0.1390073150396347,0.38182559609413147,